bfs -0.260822 1.0 -0.931353 -0.448495 1.0 0.63672 1.0 -0.998685 1.0 1.0 0.604526 -0.553409 1.0 -0.309446 -0.647018 0.280262 0.187201 0.997021 1.0 0.239331 0.35885 1.0 -0.177372 0.258973 0.860798 1.0 -0.514849 0.875323 0.324008 1.0 1.0 0.998568 0.412073 -0.37488 1.0 -0.967957 -0.372549 -0.187282 -0.527325 -0.0117631 1.0 -0.173781 -0.947172 1.0 1.0 0.354345 -0.465445 1.0 1.0 -0.282204 1.0 1.0 -0.281548 0.986525 0.982777 -0.583129 1.0 -0.465492 0.769224 1.0 0.87998 -0.200883 -0.942747 1.0 0.707434 0.0572958 -0.510023 1.0 0.104611 -0.429268 0.607124 1.0 -0.0932106 1.0 -0.980791 -0.384253 -0.180997 1.0 1.0 0.246654 0.984696 1.0 -0.794743 0.0243263 1.0 0.997611 0.684014 0.549388 -0.400957 -0.264464 1.0 1.0 0.988852 1.0 0.133716 1.0 -0.123623 -0.205118 1.0 -0.796819
mergesort -0.260822 1.0 0.839918 -0.448495 1.0 0.988512 1.0 -0.998685 1.0 1.0 0.604526 -0.553409 1.0 -0.309446 0.403666 0.280262 0.187201 0.997021 1.0 0.239331 0.35885 1.0 -0.177372 0.258973 0.725858 1.0 -0.514849 0.875323 0.324008 1.0 1.0 0.998568 0.412073 -0.37488 1.0 0.942544 -0.372549 -0.187282 -0.527325 -0.0117631 1.0 -0.173781 0.941815 1.0 1.0 0.354345 -0.465445 1.0 1.0 -0.282204 1.0 1.0 -0.281548 0.900237 0.982777 -0.583129 1.0 -0.465492 0.769224 1.0 0.87998 -0.200883 0.98513 1.0 -0.916529 0.0572958 -0.510023 1.0 0.104611 -0.429268 -0.616847 1.0 -0.0932106 1.0 0.987302 -0.384253 -0.180997 1.0 1.0 0.246654 -0.878273 1.0 -0.794743 0.0243263 1.0 0.997611 -0.347443 0.796221 -0.400957 -0.14221 1.0 1.0 -0.513519 1.0 0.133716 1.0 -0.123623 -0.205118 1.0 0.363996
quicksort -0.260822 1.0 -0.931353 -0.448495 1.0 0.988512 1.0 -0.998685 1.0 1.0 0.604526 -0.553409 1.0 -0.309446 -0.647018 0.280262 0.187201 0.997021 1.0 0.239331 0.35885 1.0 -0.177372 0.258973 0.244725 1.0 -0.514849 0.875323 0.324008 1.0 1.0 0.998568 0.412073 -0.37488 1.0 0.942544 -0.372549 -0.187282 -0.527325 -0.0117631 1.0 -0.173781 -0.947172 1.0 1.0 0.354345 -0.465445 1.0 1.0 -0.282204 1.0 1.0 -0.281548 0.840138 0.982777 -0.583129 1.0 -0.465492 0.769224 1.0 0.87998 -0.200883 0.968818 1.0 0.946462 0.0572958 -0.510023 1.0 0.104611 -0.429268 -0.559554 1.0 -0.0932106 1.0 0.988286 -0.384253 -0.180997 1.0 1.0 0.246654 0.984696 1.0 -0.794743 0.0243263 1.0 0.997611 0.684014 0.549388 -0.400957 -0.264464 1.0 1.0 -0.0608565 1.0 0.133716 1.0 -0.123623 -0.205118 1.0 -0.796819
mergesort -0.260822 1.0 -0.931353 -0.448495 1.0 0.63672 1.0 -0.998685 1.0 1.0 -0.886349 -0.553409 1.0 -0.309446 -0.647018 0.280262 0.187201 0.997021 1.0 0.239331 0.35885 1.0 -0.177372 0.258973 0.157672 1.0 -0.514849 -0.907847 0.324008 1.0 1.0 0.998568 0.412073 -0.37488 1.0 -0.946486 -0.372549 -0.187282 -0.527325 -0.0117631 1.0 -0.173781 -0.947172 1.0 1.0 0.354345 -0.465445 1.0 1.0 -0.282204 1.0 1.0 -0.281548 0.901197 -0.98507 -0.583129 1.0 -0.465492 -0.74877 1.0 0.87998 -0.200883 0.968818 1.0 -0.884938 0.0572958 -0.510023 1.0 0.104611 -0.429268 -0.625585 1.0 -0.0932106 1.0 -0.980791 -0.384253 -0.180997 1.0 1.0 0.246654 0.984696 1.0 -0.794743 0.0243263 1.0 0.993218 0.684014 -0.474996 -0.400957 -0.264464 1.0 1.0 0.822838 1.0 0.133716 1.0 -0.123623 -0.205118 1.0 -0.796819
heap -0.260822 1.0 -0.931353 -0.448495 1.0 -0.992178 1.0 -0.998685 1.0 1.0 -0.886349 -0.553409 1.0 -0.309446 -0.647018 0.280262 0.187201 0.997021 1.0 0.239331 0.35885 1.0 -0.177372 0.258973 -0.782351 1.0 -0.514849 -0.907847 0.324008 1.0 1.0 0.998568 0.412073 -0.37488 1.0 -0.967185 -0.372549 -0.187282 -0.527325 -0.0117631 1.0 -0.173781 -0.947172 1.0 1.0 0.354345 -0.465445 1.0 1.0 -0.282204 1.0 1.0 -0.281548 -0.770172 -0.98507 -0.583129 1.0 -0.465492 -0.74877 1.0 0.87998 -0.200883 -0.959605 1.0 -0.916529 0.0572958 -0.510023 1.0 0.104611 -0.429268 -0.962738 1.0 -0.0932106 1.0 0.987302 -0.384253 -0.180997 1.0 1.0 0.246654 -0.878273 1.0 -0.794743 0.0243263 1.0 0.993218 -0.347443 -0.474996 -0.400957 -0.264464 1.0 1.0 -0.903135 1.0 0.133716 1.0 -0.123623 -0.205118 1.0 -0.796819
dfs -0.260822 1.0 -0.931353 -0.448495 1.0 0.988512 1.0 -0.998685 1.0 1.0 0.604526 -0.553409 1.0 -0.309446 -0.647018 0.280262 0.187201 0.997021 1.0 0.239331 0.35885 1.0 -0.177372 0.258973 0.725858 1.0 -0.514849 0.875323 0.324008 1.0 1.0 0.998568 0.412073 -0.37488 1.0 0.942544 -0.372549 -0.187282 -0.527325 -0.0117631 1.0 -0.173781 -0.947172 1.0 1.0 0.354345 -0.465445 1.0 1.0 -0.282204 1.0 1.0 -0.281548 -0.0527342 0.982777 -0.583129 1.0 -0.465492 0.769224 1.0 0.87998 -0.200883 0.98513 1.0 0.946462 0.0572958 -0.510023 1.0 0.104611 -0.429268 -0.616847 1.0 -0.0932106 1.0 0.987302 -0.384253 -0.180997 1.0 1.0 0.246654 0.776098 1.0 -0.794743 0.0243263 1.0 0.997611 -0.248676 0.549388 -0.400957 -0.264464 1.0 1.0 -0.856001 1.0 0.133716 1.0 -0.123623 -0.205118 1.0 -0.796819
linkedlist -0.260822 1.0 -0.931353 -0.448495 1.0 0.988512 1.0 -0.998685 1.0 1.0 -0.886349 -0.553409 1.0 -0.309446 -0.647018 0.280262 0.187201 0.997021 1.0 0.239331 0.35885 1.0 -0.177372 0.258973 -0.778213 1.0 -0.514849 -0.907847 0.324008 1.0 1.0 0.998568 0.412073 -0.37488 1.0 0.942544 -0.372549 -0.187282 -0.527325 -0.0117631 1.0 -0.173781 -0.947172 1.0 1.0 0.354345 -0.465445 1.0 1.0 -0.282204 1.0 1.0 -0.281548 -0.770172 -0.98507 -0.583129 1.0 -0.465492 -0.74877 1.0 0.87998 -0.200883 -0.953949 1.0 0.946462 0.0572958 -0.510023 1.0 0.104611 -0.429268 -0.940936 1.0 -0.0932106 1.0 0.987302 -0.384253 -0.180997 1.0 1.0 0.246654 0.776098 1.0 -0.794743 0.0243263 1.0 0.993218 -0.248676 -0.474996 -0.400957 -0.264464 1.0 1.0 -0.903135 1.0 0.133716 1.0 -0.123623 -0.205118 1.0 -0.796819
linkedlist -0.260822 1.0 -0.931353 -0.448495 1.0 -0.979318 1.0 -0.998685 1.0 1.0 -0.886349 -0.553409 1.0 -0.309446 -0.647018 0.280262 0.187201 0.997021 1.0 0.239331 0.35885 1.0 -0.177372 0.258973 0.73798 1.0 -0.514849 -0.907847 0.324008 1.0 1.0 0.998568 0.412073 -0.37488 1.0 -0.866178 -0.372549 -0.187282 -0.527325 -0.0117631 1.0 -0.173781 -0.947172 1.0 1.0 0.354345 -0.465445 1.0 1.0 -0.282204 1.0 1.0 -0.281548 0.900237 -0.98507 -0.583129 1.0 -0.465492 -0.74877 1.0 0.87998 -0.200883 -0.953949 1.0 0.946462 0.0572958 -0.510023 1.0 0.104611 -0.429268 0.193585 1.0 -0.0932106 1.0 0.987302 -0.384253 -0.180997 1.0 1.0 0.246654 0.984696 1.0 -0.794743 0.0243263 1.0 0.993218 0.684014 -0.474996 -0.400957 -0.264464 1.0 1.0 0.988852 1.0 0.133716 1.0 -0.123623 -0.205118 1.0 -0.796819
quicksort -0.260822 1.0 -0.931353 -0.448495 1.0 -0.979318 1.0 -0.998685 1.0 1.0 -0.886349 -0.553409 1.0 -0.309446 -0.647018 0.280262 0.187201 0.997021 1.0 0.239331 0.35885 1.0 -0.177372 0.258973 -0.782351 1.0 -0.514849 -0.907847 0.324008 1.0 1.0 0.998568 0.412073 -0.37488 1.0 -0.967185 -0.372549 -0.187282 -0.527325 -0.0117631 1.0 -0.173781 -0.947172 1.0 1.0 0.354345 -0.465445 1.0 1.0 -0.282204 1.0 1.0 -0.281548 -0.770172 -0.98507 -0.583129 1.0 -0.465492 -0.74877 1.0 0.87998 -0.200883 0.98513 1.0 -0.916529 0.0572958 -0.510023 1.0 0.104611 -0.429268 -0.962738 1.0 -0.0932106 1.0 0.987302 -0.384253 -0.180997 1.0 1.0 0.246654 -0.878273 1.0 -0.794743 0.0243263 1.0 0.993218 -0.347443 -0.474996 -0.400957 -0.264464 1.0 1.0 -0.903135 1.0 0.133716 1.0 -0.123623 -0.205118 1.0 -0.796819
stack -0.260822 1.0 -0.931353 -0.448495 1.0 0.988512 1.0 -0.998685 1.0 1.0 -0.886349 -0.553409 1.0 -0.309446 -0.647018 0.280262 0.187201 0.997021 1.0 0.239331 0.35885 1.0 -0.177372 0.258973 0.504524 1.0 -0.514849 -0.907847 0.324008 1.0 1.0 0.998568 0.412073 -0.37488 1.0 0.963153 -0.372549 -0.187282 -0.527325 -0.0117631 1.0 -0.173781 -0.947172 1.0 1.0 0.354345 -0.465445 1.0 1.0 -0.282204 1.0 1.0 -0.281548 0.970205 -0.98507 -0.583129 1.0 -0.465492 -0.74877 1.0 0.87998 -0.200883 -0.953949 1.0 0.946462 0.0572958 -0.510023 1.0 0.104611 -0.429268 -0.962738 1.0 -0.0932106 1.0 0.987302 -0.384253 -0.180997 1.0 1.0 0.246654 0.776098 1.0 -0.794743 0.0243263 1.0 0.993218 -0.248676 -0.474996 -0.400957 -0.264464 1.0 1.0 -0.903135 1.0 0.133716 1.0 -0.123623 -0.205118 1.0 -0.796819
dfs -0.260822 1.0 0.839918 -0.448495 1.0 0.988512 1.0 -0.998685 1.0 1.0 0.0206417 -0.553409 1.0 -0.309446 0.403666 0.280262 0.187201 0.997021 1.0 0.239331 0.35885 1.0 -0.177372 0.258973 0.725858 1.0 -0.514849 0.816495 0.324008 1.0 1.0 0.998568 0.412073 -0.37488 1.0 0.942544 -0.372549 -0.187282 -0.527325 -0.0117631 1.0 -0.173781 0.941815 1.0 1.0 0.354345 -0.465445 1.0 1.0 -0.282204 1.0 1.0 -0.281548 -0.0527342 -0.98507 -0.583129 1.0 -0.465492 -0.74877 1.0 0.87998 -0.200883 0.968818 1.0 0.946462 0.0572958 -0.510023 1.0 0.104611 -0.429268 0.193585 1.0 -0.0932106 1.0 0.987302 -0.384253 -0.180997 1.0 1.0 0.246654 0.776098 1.0 -0.794743 0.0243263 1.0 0.993218 -0.248676 0.796221 -0.400957 -0.14221 1.0 1.0 0.988852 1.0 0.133716 1.0 -0.123623 -0.205118 1.0 0.363996
bfs -0.260822 1.0 -0.931353 -0.448495 1.0 0.988512 1.0 -0.998685 1.0 1.0 0.604526 -0.553409 1.0 -0.309446 -0.647018 0.280262 0.187201 0.997021 1.0 0.239331 0.35885 1.0 -0.177372 0.258973 0.860798 1.0 -0.514849 0.875323 0.324008 1.0 1.0 0.998568 0.412073 -0.37488 1.0 0.942544 -0.372549 -0.187282 -0.527325 -0.0117631 1.0 -0.173781 -0.947172 1.0 1.0 0.354345 -0.465445 1.0 1.0 -0.282204 1.0 1.0 -0.281548 0.986525 0.982777 -0.583129 1.0 -0.465492 0.769224 1.0 0.87998 -0.200883 0.98513 1.0 0.946462 0.0572958 -0.510023 1.0 0.104611 -0.429268 0.297604 1.0 -0.0932106 1.0 0.987302 -0.384253 -0.180997 1.0 1.0 0.246654 0.776098 1.0 -0.794743 0.0243263 1.0 0.997611 -0.248676 0.549388 -0.400957 -0.264464 1.0 1.0 -0.760174 1.0 0.133716 1.0 -0.123623 -0.205118 1.0 -0.796819
linkedlist -0.260822 1.0 -0.931353 -0.448495 1.0 -0.992178 1.0 -0.998685 1.0 1.0 0.604526 -0.553409 1.0 -0.309446 -0.647018 0.280262 0.187201 0.997021 1.0 0.239331 0.35885 1.0 -0.177372 0.258973 -0.140979 1.0 -0.514849 0.875323 0.324008 1.0 1.0 0.998568 0.412073 -0.37488 1.0 0.963153 -0.372549 -0.187282 -0.527325 -0.0117631 1.0 -0.173781 -0.947172 1.0 1.0 0.354345 -0.465445 1.0 1.0 -0.282204 1.0 1.0 -0.281548 0.900237 0.982777 -0.583129 1.0 -0.465492 0.769224 1.0 0.87998 -0.200883 -0.95638 1.0 -0.884938 0.0572958 -0.510023 1.0 0.104611 -0.429268 -0.616847 1.0 -0.0932106 1.0 0.987302 -0.384253 -0.180997 1.0 1.0 0.246654 0.984696 1.0 -0.794743 0.0243263 1.0 0.997611 0.684014 0.549388 -0.400957 -0.264464 1.0 1.0 -0.513519 1.0 0.133716 1.0 -0.123623 -0.205118 1.0 -0.796819
bubblesort -0.260822 1.0 0.839918 -0.448495 1.0 0.63672 1.0 -0.998685 1.0 1.0 0.0206417 -0.553409 1.0 -0.309446 0.403666 0.280262 0.187201 0.997021 1.0 0.239331 0.35885 1.0 -0.177372 0.258973 0.725858 1.0 -0.514849 0.816495 0.324008 1.0 1.0 0.998568 0.412073 -0.37488 1.0 -0.845379 -0.372549 -0.187282 -0.527325 -0.0117631 1.0 -0.173781 0.941815 1.0 1.0 0.354345 -0.465445 1.0 1.0 -0.282204 1.0 1.0 -0.281548 0.957388 -0.98507 -0.583129 1.0 -0.465492 -0.74877 1.0 0.87998 -0.200883 0.968818 1.0 -0.916529 0.0572958 -0.510023 1.0 0.104611 -0.429268 -0.626397 1.0 -0.0932106 1.0 0.987302 -0.384253 -0.180997 1.0 1.0 0.246654 0.681456 1.0 -0.794743 0.0243263 1.0 0.993218 -0.347443 0.796221 -0.400957 -0.14221 1.0 1.0 -0.513519 1.0 0.133716 1.0 -0.123623 -0.205118 1.0 0.363996
bfs -0.260822 1.0 -0.931353 -0.448495 1.0 0.988512 1.0 -0.998685 1.0 1.0 0.604526 -0.553409 1.0 -0.309446 -0.647018 0.280262 0.187201 0.997021 1.0 0.239331 0.35885 1.0 -0.177372 0.258973 0.725858 1.0 -0.514849 0.875323 0.324008 1.0 1.0 0.998568 0.412073 -0.37488 1.0 0.942544 -0.372549 -0.187282 -0.527325 -0.0117631 1.0 -0.173781 -0.947172 1.0 1.0 0.354345 -0.465445 1.0 1.0 -0.282204 1.0 1.0 -0.281548 -0.770172 0.982777 -0.583129 1.0 -0.465492 0.769224 1.0 0.87998 -0.200883 0.968818 1.0 -0.916529 0.0572958 -0.510023 1.0 0.104611 -0.429268 -0.616847 1.0 -0.0932106 1.0 0.987302 -0.384253 -0.180997 1.0 1.0 0.246654 -0.878273 1.0 -0.794743 0.0243263 1.0 0.997611 -0.347443 0.549388 -0.400957 -0.264464 1.0 1.0 -0.513519 1.0 0.133716 1.0 -0.123623 -0.205118 1.0 -0.796819
queue -0.260822 1.0 -0.931353 -0.448495 1.0 -0.992178 1.0 -0.998685 1.0 1.0 0.604526 -0.553409 1.0 -0.309446 -0.647018 0.280262 0.187201 0.997021 1.0 0.239331 0.35885 1.0 -0.177372 0.258973 0.878746 1.0 -0.514849 0.875323 0.324008 1.0 1.0 0.998568 0.412073 -0.37488 1.0 0.963153 -0.372549 -0.187282 -0.527325 -0.0117631 1.0 -0.173781 -0.947172 1.0 1.0 0.354345 -0.465445 1.0 1.0 -0.282204 1.0 1.0 -0.281548 0.901197 0.982777 -0.583129 1.0 -0.465492 0.769224 1.0 0.87998 -0.200883 0.98513 1.0 0.946462 0.0572958 -0.510023 1.0 0.104611 -0.429268 -0.553538 1.0 -0.0932106 1.0 0.987302 -0.384253 -0.180997 1.0 1.0 0.246654 0.984696 1.0 -0.794743 0.0243263 1.0 0.997611 0.684014 0.549388 -0.400957 -0.264464 1.0 1.0 -0.0338801 1.0 0.133716 1.0 -0.123623 -0.205118 1.0 -0.796819
linkedlist -0.260822 1.0 -0.931353 -0.448495 1.0 -0.968024 1.0 -0.998685 1.0 1.0 0.604526 -0.553409 1.0 -0.309446 -0.647018 0.280262 0.187201 0.997021 1.0 0.239331 0.35885 1.0 -0.177372 0.258973 0.860798 1.0 -0.514849 0.875323 0.324008 1.0 1.0 0.998568 0.412073 -0.37488 1.0 0.963153 -0.372549 -0.187282 -0.527325 -0.0117631 1.0 -0.173781 -0.947172 1.0 1.0 0.354345 -0.465445 1.0 1.0 -0.282204 1.0 1.0 -0.281548 0.986525 0.982777 -0.583129 1.0 -0.465492 0.769224 1.0 0.87998 -0.200883 -0.942747 1.0 0.707434 0.0572958 -0.510023 1.0 0.104611 -0.429268 0.297604 1.0 -0.0932106 1.0 -0.998339 -0.384253 -0.180997 1.0 1.0 0.246654 0.984696 1.0 -0.794743 0.0243263 1.0 0.997611 0.684014 0.549388 -0.400957 -0.264464 1.0 1.0 -0.513519 1.0 0.133716 1.0 -0.123623 -0.205118 1.0 -0.796819
knapsack -0.260822 1.0 -0.931353 -0.448495 1.0 0.63672 1.0 -0.998685 1.0 1.0 0.604526 -0.553409 1.0 -0.309446 -0.647018 0.280262 0.187201 0.997021 1.0 0.239331 0.35885 1.0 -0.177372 0.258973 0.789669 1.0 -0.514849 0.875323 0.324008 1.0 1.0 0.998568 0.412073 -0.37488 1.0 0.963153 -0.372549 -0.187282 -0.527325 -0.0117631 1.0 -0.173781 -0.947172 1.0 1.0 0.354345 -0.465445 1.0 1.0 -0.282204 1.0 1.0 -0.281548 0.957388 0.982777 -0.583129 1.0 -0.465492 0.769224 1.0 0.87998 -0.200883 0.98513 1.0 -0.884938 0.0572958 -0.510023 1.0 0.104611 -0.429268 0.607124 1.0 -0.0932106 1.0 -0.980791 -0.384253 -0.180997 1.0 1.0 0.246654 0.984696 1.0 -0.794743 0.0243263 1.0 0.997611 0.684014 0.549388 -0.400957 -0.264464 1.0 1.0 0.850203 1.0 0.133716 1.0 -0.123623 -0.205118 1.0 -0.796819
dfs -0.260822 1.0 -0.931353 -0.448495 1.0 0.988512 1.0 -0.998685 1.0 1.0 0.604526 -0.553409 1.0 -0.309446 -0.647018 0.280262 0.187201 0.997021 1.0 0.239331 0.35885 1.0 -0.177372 0.258973 -0.778213 1.0 -0.514849 0.875323 0.324008 1.0 1.0 0.998568 0.412073 -0.37488 1.0 0.942544 -0.372549 -0.187282 -0.527325 -0.0117631 1.0 -0.173781 -0.947172 1.0 1.0 0.354345 -0.465445 1.0 1.0 -0.282204 1.0 1.0 -0.281548 -0.770172 0.982777 -0.583129 1.0 -0.465492 0.769224 1.0 0.87998 -0.200883 0.98513 1.0 0.946462 0.0572958 -0.510023 1.0 0.104611 -0.429268 -0.616847 1.0 -0.0932106 1.0 0.987302 -0.384253 -0.180997 1.0 1.0 0.246654 0.776098 1.0 -0.794743 0.0243263 1.0 0.997611 -0.248676 0.549388 -0.400957 -0.264464 1.0 1.0 -0.513519 1.0 0.133716 1.0 -0.123623 -0.205118 1.0 -0.796819
dfs -0.260822 1.0 0.839918 -0.448495 1.0 0.988512 1.0 -0.998685 1.0 1.0 0.604526 -0.553409 1.0 -0.309446 0.403666 0.280262 0.187201 0.997021 1.0 0.239331 0.35885 1.0 -0.177372 0.258973 0.894076 1.0 -0.514849 0.875323 0.324008 1.0 1.0 0.998568 0.412073 -0.37488 1.0 0.942544 -0.372549 -0.187282 -0.527325 -0.0117631 1.0 -0.173781 0.941815 1.0 1.0 0.354345 -0.465445 1.0 1.0 -0.282204 1.0 1.0 -0.281548 0.995248 0.982777 -0.583129 1.0 -0.465492 0.769224 1.0 0.87998 -0.200883 0.968818 1.0 -0.864847 0.0572958 -0.510023 1.0 0.104611 -0.429268 -0.616847 1.0 -0.0932106 1.0 0.987302 -0.384253 -0.180997 1.0 1.0 0.246654 -0.837676 1.0 -0.794743 0.0243263 1.0 0.997611 -0.347443 0.796221 -0.400957 -0.14221 1.0 1.0 -0.513519 1.0 0.133716 1.0 -0.123623 -0.205118 1.0 0.363996
knapsack -0.260822 1.0 -0.931353 -0.448495 1.0 0.988512 1.0 -0.998685 1.0 1.0 0.604526 -0.553409 1.0 -0.309446 -0.647018 0.280262 0.187201 0.997021 1.0 0.239331 0.35885 1.0 -0.177372 0.258973 -0.782351 1.0 -0.514849 0.875323 0.324008 1.0 1.0 0.998568 0.412073 -0.37488 1.0 0.963153 -0.372549 -0.187282 -0.527325 -0.0117631 1.0 -0.173781 -0.947172 1.0 1.0 0.354345 -0.465445 1.0 1.0 -0.282204 1.0 1.0 -0.281548 -0.563783 0.982777 -0.583129 1.0 -0.465492 0.769224 1.0 0.87998 -0.200883 0.968818 1.0 -0.884938 0.0572958 -0.510023 1.0 0.104611 -0.429268 -0.616847 1.0 -0.0932106 1.0 0.987302 -0.384253 -0.180997 1.0 1.0 0.246654 0.984696 1.0 -0.794743 0.0243263 1.0 0.997611 0.684014 0.549388 -0.400957 -0.264464 1.0 1.0 -0.861154 1.0 0.133716 1.0 -0.123623 -0.205118 1.0 -0.796819
quicksort -0.260822 1.0 -0.931353 -0.448495 1.0 0.988512 1.0 -0.998685 1.0 1.0 -0.886349 -0.553409 1.0 -0.309446 -0.647018 0.280262 0.187201 0.997021 1.0 0.239331 0.35885 1.0 -0.177372 0.258973 0.725858 1.0 -0.514849 -0.907847 0.324008 1.0 1.0 0.998568 0.412073 -0.37488 1.0 0.942544 -0.372549 -0.187282 -0.527325 -0.0117631 1.0 -0.173781 -0.947172 1.0 1.0 0.354345 -0.465445 1.0 1.0 -0.282204 1.0 1.0 -0.281548 -0.497772 -0.98507 -0.583129 1.0 -0.465492 -0.74877 1.0 0.87998 -0.200883 0.98513 1.0 -0.916529 0.0572958 -0.510023 1.0 0.104611 -0.429268 0.98666 1.0 -0.0932106 1.0 0.987302 -0.384253 -0.180997 1.0 1.0 0.246654 -0.878273 1.0 -0.794743 0.0243263 1.0 0.993218 -0.347443 -0.474996 -0.400957 -0.264464 1.0 1.0 0.868653 1.0 0.133716 1.0 -0.123623 -0.205118 1.0 -0.796819
linkedlist -0.260822 1.0 -0.931353 -0.448495 1.0 0.988512 1.0 -0.998685 1.0 1.0 0.604526 -0.553409 1.0 -0.309446 -0.647018 0.280262 0.187201 0.997021 1.0 0.239331 0.35885 1.0 -0.177372 0.258973 0.725858 1.0 -0.514849 0.875323 0.324008 1.0 1.0 0.998568 0.412073 -0.37488 1.0 0.942544 -0.372549 -0.187282 -0.527325 -0.0117631 1.0 -0.173781 -0.947172 1.0 1.0 0.354345 -0.465445 1.0 1.0 -0.282204 1.0 1.0 -0.281548 0.999882 0.982777 -0.583129 1.0 -0.465492 0.769224 1.0 0.87998 -0.200883 -0.942747 1.0 0.946462 0.0572958 -0.510023 1.0 0.104611 -0.429268 -0.616847 1.0 -0.0932106 1.0 0.987302 -0.384253 -0.180997 1.0 1.0 0.246654 0.776098 1.0 -0.794743 0.0243263 1.0 0.997611 -0.248676 0.549388 -0.400957 -0.264464 1.0 1.0 -0.80651 1.0 0.133716 1.0 -0.123623 -0.205118 1.0 -0.796819
bubblesort -0.260822 1.0 0.839918 -0.448495 1.0 0.988512 1.0 -0.998685 1.0 1.0 0.604526 -0.553409 1.0 -0.309446 0.403666 0.280262 0.187201 0.997021 1.0 0.239331 0.35885 1.0 -0.177372 0.258973 -0.710365 1.0 -0.514849 0.875323 0.324008 1.0 1.0 0.998568 0.412073 -0.37488 1.0 0.942544 -0.372549 -0.187282 -0.527325 -0.0117631 1.0 -0.173781 0.941815 1.0 1.0 0.354345 -0.465445 1.0 1.0 -0.282204 1.0 1.0 -0.281548 0.995248 0.982777 -0.583129 1.0 -0.465492 0.769224 1.0 0.87998 -0.200883 0.98513 1.0 0.707434 0.0572958 -0.510023 1.0 0.104611 -0.429268 -0.616847 1.0 -0.0932106 1.0 0.987302 -0.384253 -0.180997 1.0 1.0 0.246654 -0.637135 1.0 -0.794743 0.0243263 1.0 0.997611 -0.347443 0.796221 -0.400957 -0.14221 1.0 1.0 -0.513519 1.0 0.133716 1.0 -0.123623 -0.205118 1.0 0.363996
bubblesort -0.260822 1.0 0.839918 -0.448495 1.0 0.63672 1.0 -0.998685 1.0 1.0 0.0206417 -0.553409 1.0 -0.309446 0.403666 0.280262 0.187201 0.997021 1.0 0.239331 0.35885 1.0 -0.177372 0.258973 0.721539 1.0 -0.514849 0.816495 0.324008 1.0 1.0 0.998568 0.412073 -0.37488 1.0 -0.845379 -0.372549 -0.187282 -0.527325 -0.0117631 1.0 -0.173781 0.941815 1.0 1.0 0.354345 -0.465445 1.0 1.0 -0.282204 1.0 1.0 -0.281548 0.957388 -0.98507 -0.583129 1.0 -0.465492 -0.74877 1.0 0.87998 -0.200883 0.968818 1.0 -0.884938 0.0572958 -0.510023 1.0 0.104611 -0.429268 0.193585 1.0 -0.0932106 1.0 0.987302 -0.384253 -0.180997 1.0 1.0 0.246654 0.984696 1.0 -0.794743 0.0243263 1.0 0.993218 0.684014 0.796221 -0.400957 -0.14221 1.0 1.0 0.988852 1.0 0.133716 1.0 -0.123623 -0.205118 1.0 0.363996
heap -0.260822 1.0 -0.931353 -0.448495 1.0 -0.992769 1.0 -0.998685 1.0 1.0 0.604526 -0.553409 1.0 -0.309446 -0.647018 0.280262 0.187201 0.997021 1.0 0.239331 0.35885 1.0 -0.177372 0.258973 0.725858 1.0 -0.514849 0.875323 0.324008 1.0 1.0 0.998568 0.412073 -0.37488 1.0 0.963153 -0.372549 -0.187282 -0.527325 -0.0117631 1.0 -0.173781 -0.947172 1.0 1.0 0.354345 -0.465445 1.0 1.0 -0.282204 1.0 1.0 -0.281548 0.901197 0.982777 -0.583129 1.0 -0.465492 0.769224 1.0 0.87998 -0.200883 -0.936803 1.0 -0.864847 0.0572958 -0.510023 1.0 0.104611 -0.429268 0.193585 1.0 -0.0932106 1.0 -0.998339 -0.384253 -0.180997 1.0 1.0 0.246654 0.984696 1.0 -0.794743 0.0243263 1.0 0.997611 0.684014 0.549388 -0.400957 -0.264464 1.0 1.0 0.999996 1.0 0.133716 1.0 -0.123623 -0.205118 1.0 -0.796819
mergesort -0.260822 1.0 -0.931353 -0.448495 1.0 0.988512 1.0 -0.998685 1.0 1.0 0.604526 -0.553409 1.0 -0.309446 -0.647018 0.280262 0.187201 0.997021 1.0 0.239331 0.35885 1.0 -0.177372 0.258973 0.831668 1.0 -0.514849 0.875323 0.324008 1.0 1.0 0.998568 0.412073 -0.37488 1.0 0.963153 -0.372549 -0.187282 -0.527325 -0.0117631 1.0 -0.173781 -0.947172 1.0 1.0 0.354345 -0.465445 1.0 1.0 -0.282204 1.0 1.0 -0.281548 0.900237 0.982777 -0.583129 1.0 -0.465492 0.769224 1.0 0.87998 -0.200883 -0.953949 1.0 0.946462 0.0572958 -0.510023 1.0 0.104611 -0.429268 -0.616847 1.0 -0.0932106 1.0 0.987302 -0.384253 -0.180997 1.0 1.0 0.246654 0.776098 1.0 -0.794743 0.0243263 1.0 0.997611 -0.248676 0.549388 -0.400957 -0.264464 1.0 1.0 0.822838 1.0 0.133716 1.0 -0.123623 -0.205118 1.0 -0.796819
knapsack -0.260822 1.0 0.839918 -0.448495 1.0 0.988512 1.0 -0.998685 1.0 1.0 0.604526 -0.553409 1.0 -0.309446 0.403666 0.280262 0.187201 0.997021 1.0 0.239331 0.35885 1.0 -0.177372 0.258973 0.725858 1.0 -0.514849 0.875323 0.324008 1.0 1.0 0.998568 0.412073 -0.37488 1.0 0.942544 -0.372549 -0.187282 -0.527325 -0.0117631 1.0 -0.173781 0.941815 1.0 1.0 0.354345 -0.465445 1.0 1.0 -0.282204 1.0 1.0 -0.281548 0.901197 0.982777 -0.583129 1.0 -0.465492 0.769224 1.0 0.87998 -0.200883 0.968818 1.0 0.946462 0.0572958 -0.510023 1.0 0.104611 -0.429268 -0.616847 1.0 -0.0932106 1.0 0.987302 -0.384253 -0.180997 1.0 1.0 0.246654 0.776098 1.0 -0.794743 0.0243263 1.0 0.997611 -0.248676 0.796221 -0.400957 -0.14221 1.0 1.0 0.839878 1.0 0.133716 1.0 -0.123623 -0.205118 1.0 0.363996
queue -0.260822 1.0 -0.931353 -0.448495 1.0 -0.979318 1.0 -0.998685 1.0 1.0 0.604526 -0.553409 1.0 -0.309446 -0.647018 0.280262 0.187201 0.997021 1.0 0.239331 0.35885 1.0 -0.177372 0.258973 0.725858 1.0 -0.514849 0.875323 0.324008 1.0 1.0 0.998568 0.412073 -0.37488 1.0 -0.960474 -0.372549 -0.187282 -0.527325 -0.0117631 1.0 -0.173781 -0.947172 1.0 1.0 0.354345 -0.465445 1.0 1.0 -0.282204 1.0 1.0 -0.281548 0.348955 0.982777 -0.583129 1.0 -0.465492 0.769224 1.0 0.87998 -0.200883 -0.953949 1.0 0.946462 0.0572958 -0.510023 1.0 0.104611 -0.429268 -0.238194 1.0 -0.0932106 1.0 0.987302 -0.384253 -0.180997 1.0 1.0 0.246654 0.984696 1.0 -0.794743 0.0243263 1.0 0.997611 0.684014 0.549388 -0.400957 -0.264464 1.0 1.0 0.378406 1.0 0.133716 1.0 -0.123623 -0.205118 1.0 -0.796819
heap -0.260822 1.0 0.839918 -0.448495 1.0 0.988512 1.0 -0.998685 1.0 1.0 0.0206417 -0.553409 1.0 -0.309446 0.403666 0.280262 0.187201 0.997021 1.0 0.239331 0.35885 1.0 -0.177372 0.258973 0.919579 1.0 -0.514849 0.816495 0.324008 1.0 1.0 0.998568 0.412073 -0.37488 1.0 0.942544 -0.372549 -0.187282 -0.527325 -0.0117631 1.0 -0.173781 0.941815 1.0 1.0 0.354345 -0.465445 1.0 1.0 -0.282204 1.0 1.0 -0.281548 0.981171 -0.98507 -0.583129 1.0 -0.465492 -0.74877 1.0 0.87998 -0.200883 0.968818 1.0 -0.916529 0.0572958 -0.510023 1.0 0.104611 -0.429268 0.193585 1.0 -0.0932106 1.0 0.987302 -0.384253 -0.180997 1.0 1.0 0.246654 0.681456 1.0 -0.794743 0.0243263 1.0 0.993218 -0.337051 0.796221 -0.400957 -0.14221 1.0 1.0 0.988852 1.0 0.133716 1.0 -0.123623 -0.205118 1.0 0.363996
bubblesort -0.260822 1.0 -0.931353 -0.448495 1.0 0.988512 1.0 -0.998685 1.0 1.0 0.604526 -0.553409 1.0 -0.309446 -0.647018 0.280262 0.187201 0.997021 1.0 0.239331 0.35885 1.0 -0.177372 0.258973 0.725858 1.0 -0.514849 0.875323 0.324008 1.0 1.0 0.998568 0.412073 -0.37488 1.0 0.942544 -0.372549 -0.187282 -0.527325 -0.0117631 1.0 -0.173781 -0.947172 1.0 1.0 0.354345 -0.465445 1.0 1.0 -0.282204 1.0 1.0 -0.281548 0.957388 0.982777 -0.583129 1.0 -0.465492 0.769224 1.0 0.87998 -0.200883 0.98513 1.0 -0.916529 0.0572958 -0.510023 1.0 0.104611 -0.429268 -0.616847 1.0 -0.0932106 1.0 0.987302 -0.384253 -0.180997 1.0 1.0 0.246654 -0.878273 1.0 -0.794743 0.0243263 1.0 0.997611 -0.347443 0.549388 -0.400957 -0.264464 1.0 1.0 -0.513519 1.0 0.133716 1.0 -0.123623 -0.205118 1.0 -0.796819
bfs -0.260822 1.0 0.839918 -0.448495 1.0 0.63672 1.0 -0.998685 1.0 1.0 0.0206417 -0.553409 1.0 -0.309446 0.403666 0.280262 0.187201 0.997021 1.0 0.239331 0.35885 1.0 -0.177372 0.258973 0.725858 1.0 -0.514849 0.816495 0.324008 1.0 1.0 0.998568 0.412073 -0.37488 1.0 -0.960474 -0.372549 -0.187282 -0.527325 -0.0117631 1.0 -0.173781 0.941815 1.0 1.0 0.354345 -0.465445 1.0 1.0 -0.282204 1.0 1.0 -0.281548 -0.515462 -0.98507 -0.583129 1.0 -0.465492 -0.74877 1.0 0.87998 -0.200883 0.968818 1.0 -0.916529 0.0572958 -0.510023 1.0 0.104611 -0.429268 -0.626397 1.0 -0.0932106 1.0 0.987302 -0.384253 -0.180997 1.0 1.0 0.246654 0.681456 1.0 -0.794743 0.0243263 1.0 0.993218 -0.337051 0.796221 -0.400957 -0.14221 1.0 1.0 0.174671 1.0 0.133716 1.0 -0.123623 -0.205118 1.0 0.363996
bubblesort -0.260822 1.0 -0.931353 -0.448495 1.0 0.63672 1.0 -0.998685 1.0 1.0 0.604526 -0.553409 1.0 -0.309446 -0.647018 0.280262 0.187201 0.997021 1.0 0.239331 0.35885 1.0 -0.177372 0.258973 0.157672 1.0 -0.514849 0.875323 0.324008 1.0 1.0 0.998568 0.412073 -0.37488 1.0 -0.960474 -0.372549 -0.187282 -0.527325 -0.0117631 1.0 -0.173781 -0.947172 1.0 1.0 0.354345 -0.465445 1.0 1.0 -0.282204 1.0 1.0 -0.281548 -0.515462 0.982777 -0.583129 1.0 -0.465492 0.769224 1.0 0.87998 -0.200883 -0.942747 1.0 -0.884938 0.0572958 -0.510023 1.0 0.104611 -0.429268 -0.616847 1.0 -0.0932106 1.0 0.987302 -0.384253 -0.180997 1.0 1.0 0.246654 0.984696 1.0 -0.794743 0.0243263 1.0 0.997611 0.684014 0.549388 -0.400957 -0.264464 1.0 1.0 0.866471 1.0 0.133716 1.0 -0.123623 -0.205118 1.0 -0.796819
knapsack -0.260822 1.0 -0.931353 -0.448495 1.0 0.63672 1.0 -0.998685 1.0 1.0 0.604526 -0.553409 1.0 -0.309446 -0.647018 0.280262 0.187201 0.997021 1.0 0.239331 0.35885 1.0 -0.177372 0.258973 0.157672 1.0 -0.514849 0.875323 0.324008 1.0 1.0 0.998568 0.412073 -0.37488 1.0 -0.960474 -0.372549 -0.187282 -0.527325 -0.0117631 1.0 -0.173781 -0.947172 1.0 1.0 0.354345 -0.465445 1.0 1.0 -0.282204 1.0 1.0 -0.281548 0.900237 0.982777 -0.583129 1.0 -0.465492 0.769224 1.0 0.87998 -0.200883 0.968818 1.0 -0.884938 0.0572958 -0.510023 1.0 0.104611 -0.429268 -0.616847 1.0 -0.0932106 1.0 0.987302 -0.384253 -0.180997 1.0 1.0 0.246654 0.984696 1.0 -0.794743 0.0243263 1.0 0.997611 0.684014 0.549388 -0.400957 -0.264464 1.0 1.0 0.174671 1.0 0.133716 1.0 -0.123623 -0.205118 1.0 -0.796819
knapsack -0.260822 1.0 0.839918 -0.448495 1.0 0.63672 1.0 -0.998685 1.0 1.0 0.0206417 -0.553409 1.0 -0.309446 0.403666 0.280262 0.187201 0.997021 1.0 0.239331 0.35885 1.0 -0.177372 0.258973 0.725858 1.0 -0.514849 0.816495 0.324008 1.0 1.0 0.998568 0.412073 -0.37488 1.0 -0.967185 -0.372549 -0.187282 -0.527325 -0.0117631 1.0 -0.173781 0.941815 1.0 1.0 0.354345 -0.465445 1.0 1.0 -0.282204 1.0 1.0 -0.281548 0.900237 -0.98507 -0.583129 1.0 -0.465492 -0.74877 1.0 0.87998 -0.200883 0.968818 1.0 -0.916529 0.0572958 -0.510023 1.0 0.104611 -0.429268 -0.626397 1.0 -0.0932106 1.0 0.987302 -0.384253 -0.180997 1.0 1.0 0.246654 -0.878273 1.0 -0.794743 0.0243263 1.0 0.993218 -0.347443 0.796221 -0.400957 -0.14221 1.0 1.0 -0.513519 1.0 0.133716 1.0 -0.123623 -0.205118 1.0 0.363996
heap -0.260822 1.0 -0.931353 -0.448495 1.0 0.63672 1.0 -0.998685 1.0 1.0 0.604526 -0.553409 1.0 -0.309446 -0.647018 0.280262 0.187201 0.997021 1.0 0.239331 0.35885 1.0 -0.177372 0.258973 0.996786 1.0 -0.514849 0.875323 0.324008 1.0 1.0 0.998568 0.412073 -0.37488 1.0 0.963153 -0.372549 -0.187282 -0.527325 -0.0117631 1.0 -0.173781 -0.947172 1.0 1.0 0.354345 -0.465445 1.0 1.0 -0.282204 1.0 1.0 -0.281548 0.901197 0.982777 -0.583129 1.0 -0.465492 0.769224 1.0 0.87998 -0.200883 0.98513 1.0 -0.884938 0.0572958 -0.510023 1.0 0.104611 -0.429268 0.607124 1.0 -0.0932106 1.0 0.987302 -0.384253 -0.180997 1.0 1.0 0.246654 0.984696 1.0 -0.794743 0.0243263 1.0 0.997611 0.684014 0.549388 -0.400957 -0.264464 1.0 1.0 0.988852 1.0 0.133716 1.0 -0.123623 -0.205118 1.0 -0.796819
quicksort -0.260822 1.0 -0.931353 -0.448495 1.0 0.988512 1.0 -0.998685 1.0 1.0 -0.886349 -0.553409 1.0 -0.309446 -0.647018 0.280262 0.187201 0.997021 1.0 0.239331 0.35885 1.0 -0.177372 0.258973 0.725858 1.0 -0.514849 -0.907847 0.324008 1.0 1.0 0.998568 0.412073 -0.37488 1.0 0.942544 -0.372549 -0.187282 -0.527325 -0.0117631 1.0 -0.173781 -0.947172 1.0 1.0 0.354345 -0.465445 1.0 1.0 -0.282204 1.0 1.0 -0.281548 -0.141522 -0.98507 -0.583129 1.0 -0.465492 -0.74877 1.0 0.87998 -0.200883 0.968818 1.0 0.946462 0.0572958 -0.510023 1.0 0.104611 -0.429268 0.98666 1.0 -0.0932106 1.0 0.987302 -0.384253 -0.180997 1.0 1.0 0.246654 0.776098 1.0 -0.794743 0.0243263 1.0 0.993218 -0.248676 -0.474996 -0.400957 -0.264464 1.0 1.0 0.868653 1.0 0.133716 1.0 -0.123623 -0.205118 1.0 -0.796819
linkedlist -0.260822 1.0 -0.931353 -0.448495 1.0 0.988512 1.0 -0.998685 1.0 1.0 0.604526 -0.553409 1.0 -0.309446 -0.647018 0.280262 0.187201 0.997021 1.0 0.239331 0.35885 1.0 -0.177372 0.258973 0.831668 1.0 -0.514849 0.875323 0.324008 1.0 1.0 0.998568 0.412073 -0.37488 1.0 0.963153 -0.372549 -0.187282 -0.527325 -0.0117631 1.0 -0.173781 -0.947172 1.0 1.0 0.354345 -0.465445 1.0 1.0 -0.282204 1.0 1.0 -0.281548 0.995909 0.982777 -0.583129 1.0 -0.465492 0.769224 1.0 0.87998 -0.200883 -0.923953 1.0 0.946462 0.0572958 -0.510023 1.0 0.104611 -0.429268 0.012838 1.0 -0.0932106 1.0 0.987302 -0.384253 -0.180997 1.0 1.0 0.246654 0.776098 1.0 -0.794743 0.0243263 1.0 0.997611 -0.248676 0.549388 -0.400957 -0.264464 1.0 1.0 0.872958 1.0 0.133716 1.0 -0.123623 -0.205118 1.0 -0.796819
queue -0.260822 1.0 -0.931353 -0.448495 1.0 -0.979318 1.0 -0.998685 1.0 1.0 0.604526 -0.553409 1.0 -0.309446 -0.647018 0.280262 0.187201 0.997021 1.0 0.239331 0.35885 1.0 -0.177372 0.258973 0.998867 1.0 -0.514849 0.875323 0.324008 1.0 1.0 0.998568 0.412073 -0.37488 1.0 0.963153 -0.372549 -0.187282 -0.527325 -0.0117631 1.0 -0.173781 -0.947172 1.0 1.0 0.354345 -0.465445 1.0 1.0 -0.282204 1.0 1.0 -0.281548 0.900237 0.982777 -0.583129 1.0 -0.465492 0.769224 1.0 0.87998 -0.200883 0.98513 1.0 0.946462 0.0572958 -0.510023 1.0 0.104611 -0.429268 -0.616847 1.0 -0.0932106 1.0 0.987302 -0.384253 -0.180997 1.0 1.0 0.246654 0.984696 1.0 -0.794743 0.0243263 1.0 0.997611 0.684014 0.549388 -0.400957 -0.264464 1.0 1.0 -0.513519 1.0 0.133716 1.0 -0.123623 -0.205118 1.0 -0.796819
bfs -0.260822 1.0 -0.931353 -0.448495 1.0 0.63672 1.0 -0.998685 1.0 1.0 0.604526 -0.553409 1.0 -0.309446 -0.647018 0.280262 0.187201 0.997021 1.0 0.239331 0.35885 1.0 -0.177372 0.258973 0.725858 1.0 -0.514849 0.875323 0.324008 1.0 1.0 0.998568 0.412073 -0.37488 1.0 0.963153 -0.372549 -0.187282 -0.527325 -0.0117631 1.0 -0.173781 -0.947172 1.0 1.0 0.354345 -0.465445 1.0 1.0 -0.282204 1.0 1.0 -0.281548 0.986525 0.982777 -0.583129 1.0 -0.465492 0.769224 1.0 0.87998 -0.200883 0.968818 1.0 0.707434 0.0572958 -0.510023 1.0 0.104611 -0.429268 0.193585 1.0 -0.0932106 1.0 0.988286 -0.384253 -0.180997 1.0 1.0 0.246654 -0.637135 1.0 -0.794743 0.0243263 1.0 0.997611 -0.347443 0.549388 -0.400957 -0.264464 1.0 1.0 0.988852 1.0 0.133716 1.0 -0.123623 -0.205118 1.0 -0.796819
mergesort -0.260822 1.0 -0.931353 -0.448495 1.0 0.63672 1.0 -0.998685 1.0 1.0 0.604526 -0.553409 1.0 -0.309446 -0.647018 0.280262 0.187201 0.997021 1.0 0.239331 0.35885 1.0 -0.177372 0.258973 0.725858 1.0 -0.514849 0.875323 0.324008 1.0 1.0 0.998568 0.412073 -0.37488 1.0 -0.960474 -0.372549 -0.187282 -0.527325 -0.0117631 1.0 -0.173781 -0.947172 1.0 1.0 0.354345 -0.465445 1.0 1.0 -0.282204 1.0 1.0 -0.281548 0.900237 0.982777 -0.583129 1.0 -0.465492 0.769224 1.0 0.87998 -0.200883 0.968818 1.0 -0.884938 0.0572958 -0.510023 1.0 0.104611 -0.429268 0.193585 1.0 -0.0932106 1.0 -0.980791 -0.384253 -0.180997 1.0 1.0 0.246654 0.984696 1.0 -0.794743 0.0243263 1.0 0.997611 0.684014 0.549388 -0.400957 -0.264464 1.0 1.0 0.988852 1.0 0.133716 1.0 -0.123623 -0.205118 1.0 -0.796819
linkedlist -0.260822 1.0 -0.931353 -0.448495 1.0 0.988512 1.0 -0.998685 1.0 1.0 0.604526 -0.553409 1.0 -0.309446 -0.647018 0.280262 0.187201 0.997021 1.0 0.239331 0.35885 1.0 -0.177372 0.258973 0.79771 1.0 -0.514849 0.875323 0.324008 1.0 1.0 0.998568 0.412073 -0.37488 1.0 0.963153 -0.372549 -0.187282 -0.527325 -0.0117631 1.0 -0.173781 -0.947172 1.0 1.0 0.354345 -0.465445 1.0 1.0 -0.282204 1.0 1.0 -0.281548 0.986525 0.982777 -0.583129 1.0 -0.465492 0.769224 1.0 0.87998 -0.200883 -0.936803 1.0 0.946462 0.0572958 -0.510023 1.0 0.104611 -0.429268 -0.616847 1.0 -0.0932106 1.0 0.987302 -0.384253 -0.180997 1.0 1.0 0.246654 0.984696 1.0 -0.794743 0.0243263 1.0 0.997611 0.684014 0.549388 -0.400957 -0.264464 1.0 1.0 0.174671 1.0 0.133716 1.0 -0.123623 -0.205118 1.0 -0.796819
quicksort -0.260822 1.0 -0.931353 -0.448495 1.0 -0.9932 1.0 -0.998685 1.0 1.0 -0.886349 -0.553409 1.0 -0.309446 -0.647018 0.280262 0.187201 0.997021 1.0 0.239331 0.35885 1.0 -0.177372 0.258973 -0.245803 1.0 -0.514849 -0.907847 0.324008 1.0 1.0 0.998568 0.412073 -0.37488 1.0 -0.967185 -0.372549 -0.187282 -0.527325 -0.0117631 1.0 -0.173781 -0.947172 1.0 1.0 0.354345 -0.465445 1.0 1.0 -0.282204 1.0 1.0 -0.281548 -0.626338 -0.98507 -0.583129 1.0 -0.465492 -0.74877 1.0 0.87998 -0.200883 0.968818 1.0 -0.884938 0.0572958 -0.510023 1.0 0.104611 -0.429268 0.193585 1.0 -0.0932106 1.0 -0.998339 -0.384253 -0.180997 1.0 1.0 0.246654 0.984696 1.0 -0.794743 0.0243263 1.0 0.993218 0.684014 -0.474996 -0.400957 -0.264464 1.0 1.0 0.988852 1.0 0.133716 1.0 -0.123623 -0.205118 1.0 -0.796819
heap -0.260822 1.0 -0.931353 -0.448495 1.0 -0.979318 1.0 -0.998685 1.0 1.0 -0.886349 -0.553409 1.0 -0.309446 -0.647018 0.280262 0.187201 0.997021 1.0 0.239331 0.35885 1.0 -0.177372 0.258973 -0.401435 1.0 -0.514849 -0.907847 0.324008 1.0 1.0 0.998568 0.412073 -0.37488 1.0 -0.774546 -0.372549 -0.187282 -0.527325 -0.0117631 1.0 -0.173781 -0.947172 1.0 1.0 0.354345 -0.465445 1.0 1.0 -0.282204 1.0 1.0 -0.281548 0.674803 -0.98507 -0.583129 1.0 -0.465492 -0.74877 1.0 0.87998 -0.200883 0.968818 1.0 -0.916529 0.0572958 -0.510023 1.0 0.104611 -0.429268 -0.962738 1.0 -0.0932106 1.0 0.776361 -0.384253 -0.180997 1.0 1.0 0.246654 -0.878273 1.0 -0.794743 0.0243263 1.0 0.993218 -0.347443 -0.474996 -0.400957 -0.264464 1.0 1.0 -0.861154 1.0 0.133716 1.0 -0.123623 -0.205118 1.0 -0.796819
mergesort -0.260822 1.0 0.839918 -0.448495 1.0 0.988512 1.0 -0.998685 1.0 1.0 0.604526 -0.553409 1.0 -0.309446 0.403666 0.280262 0.187201 0.997021 1.0 0.239331 0.35885 1.0 -0.177372 0.258973 -0.245803 1.0 -0.514849 0.875323 0.324008 1.0 1.0 0.998568 0.412073 -0.37488 1.0 0.963153 -0.372549 -0.187282 -0.527325 -0.0117631 1.0 -0.173781 0.941815 1.0 1.0 0.354345 -0.465445 1.0 1.0 -0.282204 1.0 1.0 -0.281548 0.901197 0.982777 -0.583129 1.0 -0.465492 0.769224 1.0 0.87998 -0.200883 0.968818 1.0 0.946462 0.0572958 -0.510023 1.0 0.104611 -0.429268 0.193585 1.0 -0.0932106 1.0 0.987302 -0.384253 -0.180997 1.0 1.0 0.246654 0.984696 1.0 -0.794743 0.0243263 1.0 0.997611 0.684014 0.796221 -0.400957 -0.14221 1.0 1.0 0.988852 1.0 0.133716 1.0 -0.123623 -0.205118 1.0 0.363996
bubblesort -0.260822 1.0 -0.931353 -0.448495 1.0 0.988512 1.0 -0.998685 1.0 1.0 -0.886349 -0.553409 1.0 -0.309446 -0.647018 0.280262 0.187201 0.997021 1.0 0.239331 0.35885 1.0 -0.177372 0.258973 0.919579 1.0 -0.514849 -0.907847 0.324008 1.0 1.0 0.998568 0.412073 -0.37488 1.0 0.942544 -0.372549 -0.187282 -0.527325 -0.0117631 1.0 -0.173781 -0.947172 1.0 1.0 0.354345 -0.465445 1.0 1.0 -0.282204 1.0 1.0 -0.281548 0.999532 -0.98507 -0.583129 1.0 -0.465492 -0.74877 1.0 0.87998 -0.200883 0.98513 1.0 -0.916529 0.0572958 -0.510023 1.0 0.104611 -0.429268 -0.962738 1.0 -0.0932106 1.0 0.987302 -0.384253 -0.180997 1.0 1.0 0.246654 -0.878273 1.0 -0.794743 0.0243263 1.0 0.993218 -0.347443 -0.474996 -0.400957 -0.264464 1.0 1.0 -0.513519 1.0 0.133716 1.0 -0.123623 -0.205118 1.0 -0.796819
linkedlist -0.260822 1.0 -0.931353 -0.448495 1.0 -0.979318 1.0 -0.998685 1.0 1.0 0.604526 -0.553409 1.0 -0.309446 -0.647018 0.280262 0.187201 0.997021 1.0 0.239331 0.35885 1.0 -0.177372 0.258973 0.988183 1.0 -0.514849 0.875323 0.324008 1.0 1.0 0.998568 0.412073 -0.37488 1.0 0.963153 -0.372549 -0.187282 -0.527325 -0.0117631 1.0 -0.173781 -0.947172 1.0 1.0 0.354345 -0.465445 1.0 1.0 -0.282204 1.0 1.0 -0.281548 0.901197 0.982777 -0.583129 1.0 -0.465492 0.769224 1.0 0.87998 -0.200883 -0.953949 1.0 0.946462 0.0572958 -0.510023 1.0 0.104611 -0.429268 0.193585 1.0 -0.0932106 1.0 0.987302 -0.384253 -0.180997 1.0 1.0 0.246654 0.984696 1.0 -0.794743 0.0243263 1.0 0.997611 0.684014 0.549388 -0.400957 -0.264464 1.0 1.0 0.988852 1.0 0.133716 1.0 -0.123623 -0.205118 1.0 -0.796819
queue -0.260822 1.0 -0.931353 -0.448495 1.0 -0.993458 1.0 -0.998685 1.0 1.0 -0.886349 -0.553409 1.0 -0.554805 -0.647018 0.280262 0.187201 -0.983057 1.0 0.239331 0.35885 1.0 -0.177372 0.258973 0.919579 1.0 -0.514849 -0.9531 0.324008 1.0 1.0 -0.980577 0.412073 -0.37488 1.0 -0.967185 -0.808578 -0.187282 -0.870016 -0.0117631 1.0 -0.173781 -0.947172 1.0 1.0 0.354345 -0.465445 1.0 1.0 -0.282204 1.0 1.0 -0.281548 0.900237 -0.98507 -0.583129 1.0 -0.782356 -0.74877 1.0 -0.840209 -0.200883 -0.959206 1.0 -0.884938 0.0572958 -0.947899 1.0 0.104611 -0.865264 -0.944396 1.0 -0.0932106 1.0 -0.989005 -0.384253 -0.180997 1.0 1.0 -0.365058 0.984696 1.0 -0.942832 0.0243263 1.0 -0.95217 0.684014 -0.612739 -0.953993 -0.624031 1.0 1.0 -0.513519 1.0 0.133716 1.0 -0.123623 -0.205118 1.0 -0.796819
linkedlist -0.260822 1.0 -0.931353 -0.448495 1.0 0.988512 1.0 -0.998685 1.0 1.0 0.604526 -0.553409 1.0 -0.309446 -0.647018 0.280262 0.187201 0.997021 1.0 0.239331 0.35885 1.0 -0.177372 0.258973 -0.778213 1.0 -0.514849 0.875323 0.324008 1.0 1.0 0.998568 0.412073 -0.37488 1.0 0.942544 -0.372549 -0.187282 -0.527325 -0.0117631 1.0 -0.173781 -0.947172 1.0 1.0 0.354345 -0.465445 1.0 1.0 -0.282204 1.0 1.0 -0.281548 0.986525 0.982777 -0.583129 1.0 -0.465492 0.769224 1.0 0.87998 -0.200883 -0.950043 1.0 0.946462 0.0572958 -0.510023 1.0 0.104611 -0.429268 -0.616847 1.0 -0.0932106 1.0 0.988286 -0.384253 -0.180997 1.0 1.0 0.246654 0.984696 1.0 -0.794743 0.0243263 1.0 0.997611 0.684014 0.549388 -0.400957 -0.264464 1.0 1.0 -0.903135 1.0 0.133716 1.0 -0.123623 -0.205118 1.0 -0.796819
stack -0.260822 1.0 -0.931353 -0.448495 1.0 0.988512 1.0 -0.998685 1.0 1.0 -0.886349 -0.553409 1.0 -0.309446 -0.647018 0.280262 0.187201 0.997021 1.0 0.239331 0.35885 1.0 -0.177372 0.258973 0.157672 1.0 -0.514849 -0.907847 0.324008 1.0 1.0 0.998568 0.412073 -0.37488 1.0 0.942544 -0.372549 -0.187282 -0.527325 -0.0117631 1.0 -0.173781 -0.947172 1.0 1.0 0.354345 -0.465445 1.0 1.0 -0.282204 1.0 1.0 -0.281548 0.986525 -0.98507 -0.583129 1.0 -0.465492 -0.74877 1.0 0.87998 -0.200883 -0.953949 1.0 0.946462 0.0572958 -0.510023 1.0 0.104611 -0.429268 -0.962738 1.0 -0.0932106 1.0 0.988286 -0.384253 -0.180997 1.0 1.0 0.246654 0.776098 1.0 -0.794743 0.0243263 1.0 0.993218 -0.248676 -0.474996 -0.400957 -0.264464 1.0 1.0 0.174671 1.0 0.133716 1.0 -0.123623 -0.205118 1.0 -0.796819
heap -0.260822 1.0 -0.931353 -0.448495 1.0 0.63672 1.0 -0.998685 1.0 1.0 0.604526 -0.553409 1.0 -0.309446 -0.647018 0.280262 0.187201 0.997021 1.0 0.239331 0.35885 1.0 -0.177372 0.258973 0.979465 1.0 -0.514849 0.875323 0.324008 1.0 1.0 0.998568 0.412073 -0.37488 1.0 -0.845379 -0.372549 -0.187282 -0.527325 -0.0117631 1.0 -0.173781 -0.947172 1.0 1.0 0.354345 -0.465445 1.0 1.0 -0.282204 1.0 1.0 -0.281548 0.957388 0.982777 -0.583129 1.0 -0.465492 0.769224 1.0 0.87998 -0.200883 0.968818 1.0 -0.884938 0.0572958 -0.510023 1.0 0.104611 -0.429268 -0.616847 1.0 -0.0932106 1.0 0.987302 -0.384253 -0.180997 1.0 1.0 0.246654 0.984696 1.0 -0.794743 0.0243263 1.0 0.997611 0.684014 0.549388 -0.400957 -0.264464 1.0 1.0 -0.861154 1.0 0.133716 1.0 -0.123623 -0.205118 1.0 -0.796819
linkedlist -0.260822 1.0 -0.931353 -0.448495 1.0 0.988512 1.0 -0.998685 1.0 1.0 -0.886349 -0.553409 1.0 -0.309446 -0.647018 0.280262 0.187201 0.997021 1.0 0.239331 0.35885 1.0 -0.177372 0.258973 -0.778213 1.0 -0.514849 -0.907847 0.324008 1.0 1.0 0.998568 0.412073 -0.37488 1.0 0.963153 -0.372549 -0.187282 -0.527325 -0.0117631 1.0 -0.173781 -0.947172 1.0 1.0 0.354345 -0.465445 1.0 1.0 -0.282204 1.0 1.0 -0.281548 0.957388 -0.98507 -0.583129 1.0 -0.465492 -0.74877 1.0 0.87998 -0.200883 0.98513 1.0 0.946462 0.0572958 -0.510023 1.0 0.104611 -0.429268 -0.962738 1.0 -0.0932106 1.0 0.987302 -0.384253 -0.180997 1.0 1.0 0.246654 0.776098 1.0 -0.794743 0.0243263 1.0 0.993218 -0.248676 -0.474996 -0.400957 -0.264464 1.0 1.0 -0.903135 1.0 0.133716 1.0 -0.123623 -0.205118 1.0 -0.796819
mergesort -0.260822 1.0 0.839918 -0.448495 1.0 0.988512 1.0 -0.998685 1.0 1.0 0.604526 -0.553409 1.0 -0.309446 0.403666 0.280262 0.187201 0.997021 1.0 0.239331 0.35885 1.0 -0.177372 0.258973 -0.710365 1.0 -0.514849 0.875323 0.324008 1.0 1.0 0.998568 0.412073 -0.37488 1.0 0.942544 -0.372549 -0.187282 -0.527325 -0.0117631 1.0 -0.173781 0.941815 1.0 1.0 0.354345 -0.465445 1.0 1.0 -0.282204 1.0 1.0 -0.281548 0.900237 0.982777 -0.583129 1.0 -0.465492 0.769224 1.0 0.87998 -0.200883 0.968818 1.0 0.946462 0.0572958 -0.510023 1.0 0.104611 -0.429268 -0.616847 1.0 -0.0932106 1.0 0.987302 -0.384253 -0.180997 1.0 1.0 0.246654 0.776098 1.0 -0.794743 0.0243263 1.0 0.997611 -0.248676 0.796221 -0.400957 -0.14221 1.0 1.0 -0.513519 1.0 0.133716 1.0 -0.123623 -0.205118 1.0 0.363996
bubblesort -0.260822 1.0 -0.931353 -0.448495 1.0 0.63672 1.0 -0.998685 1.0 1.0 -0.886349 -0.553409 1.0 -0.309446 -0.647018 0.280262 0.187201 0.997021 1.0 0.239331 0.35885 1.0 -0.177372 0.258973 0.980283 1.0 -0.514849 -0.907847 0.324008 1.0 1.0 0.998568 0.412073 -0.37488 1.0 -0.845379 -0.372549 -0.187282 -0.527325 -0.0117631 1.0 -0.173781 -0.947172 1.0 1.0 0.354345 -0.465445 1.0 1.0 -0.282204 1.0 1.0 -0.281548 0.957388 -0.98507 -0.583129 1.0 -0.465492 -0.74877 1.0 0.87998 -0.200883 0.968818 1.0 -0.884938 0.0572958 -0.510023 1.0 0.104611 -0.429268 0.193585 1.0 -0.0932106 1.0 -0.980791 -0.384253 -0.180997 1.0 1.0 0.246654 0.984696 1.0 -0.794743 0.0243263 1.0 0.993218 0.684014 -0.474996 -0.400957 -0.264464 1.0 1.0 0.988852 1.0 0.133716 1.0 -0.123623 -0.205118 1.0 -0.796819
heap -0.260822 1.0 -0.931353 -0.448495 1.0 -0.979318 1.0 -0.998685 1.0 1.0 0.604526 -0.553409 1.0 -0.309446 -0.647018 0.280262 0.187201 0.997021 1.0 0.239331 0.35885 1.0 -0.177372 0.258973 0.919579 1.0 -0.514849 0.875323 0.324008 1.0 1.0 0.998568 0.412073 -0.37488 1.0 -0.967185 -0.372549 -0.187282 -0.527325 -0.0117631 1.0 -0.173781 -0.947172 1.0 1.0 0.354345 -0.465445 1.0 1.0 -0.282204 1.0 1.0 -0.281548 0.900237 0.982777 -0.583129 1.0 -0.465492 0.769224 1.0 0.87998 -0.200883 0.968818 1.0 -0.884938 0.0572958 -0.510023 1.0 0.104611 -0.429268 0.646383 1.0 -0.0932106 1.0 -0.980791 -0.384253 -0.180997 1.0 1.0 0.246654 0.984696 1.0 -0.794743 0.0243263 1.0 0.997611 0.684014 0.549388 -0.400957 -0.264464 1.0 1.0 0.999991 1.0 0.133716 1.0 -0.123623 -0.205118 1.0 -0.796819
stack -0.260822 1.0 -0.931353 -0.448495 1.0 -0.9932 1.0 -0.998685 1.0 1.0 0.604526 -0.553409 1.0 -0.309446 -0.647018 0.280262 0.187201 0.997021 1.0 0.239331 0.35885 1.0 -0.177372 0.258973 0.157672 1.0 -0.514849 0.875323 0.324008 1.0 1.0 0.998528 0.412073 -0.37488 1.0 0.963153 -0.372549 -0.187282 -0.527325 -0.0117631 1.0 -0.173781 -0.947172 1.0 1.0 0.354345 -0.465445 1.0 1.0 -0.282204 1.0 1.0 -0.281548 -0.145561 0.982777 -0.583129 1.0 -0.465492 0.769224 1.0 -0.837495 -0.200883 -0.936803 1.0 -0.916529 0.0572958 -0.510023 1.0 0.104611 -0.429268 -0.616847 1.0 -0.0932106 1.0 0.988286 -0.384253 -0.180997 1.0 1.0 0.246654 0.681456 1.0 -0.794743 0.0243263 1.0 0.997611 -0.337051 0.549388 -0.400957 -0.264464 1.0 1.0 0.174671 1.0 0.133716 1.0 -0.123623 -0.205118 1.0 -0.796819
linkedlist -0.260822 1.0 -0.931353 -0.448495 1.0 0.63672 1.0 -0.998685 1.0 1.0 0.604526 -0.553409 1.0 -0.309446 -0.647018 0.280262 0.187201 0.997021 1.0 0.239331 0.35885 1.0 -0.177372 0.258973 0.976632 1.0 -0.514849 0.875323 0.324008 1.0 1.0 0.998568 0.412073 -0.37488 1.0 0.963153 -0.372549 -0.187282 -0.527325 -0.0117631 1.0 -0.173781 -0.947172 1.0 1.0 0.354345 -0.465445 1.0 1.0 -0.282204 1.0 1.0 -0.281548 0.986525 0.982777 -0.583129 1.0 -0.465492 0.769224 1.0 0.87998 -0.200883 0.968818 1.0 0.946462 0.0572958 -0.510023 1.0 0.104611 -0.429268 0.297604 1.0 -0.0932106 1.0 0.987302 -0.384253 -0.180997 1.0 1.0 0.246654 0.984696 1.0 -0.794743 0.0243263 1.0 0.997611 0.684014 0.549388 -0.400957 -0.264464 1.0 1.0 -0.513519 1.0 0.133716 1.0 -0.123623 -0.205118 1.0 -0.796819
linkedlist -0.260822 1.0 -0.931353 -0.448495 1.0 -0.9932 1.0 -0.998685 1.0 1.0 -0.886349 -0.553409 1.0 -0.309446 -0.647018 0.280262 0.187201 0.997021 1.0 0.239331 0.35885 1.0 -0.177372 0.258973 0.157672 1.0 -0.514849 -0.907847 0.324008 1.0 1.0 -0.980523 0.412073 -0.37488 1.0 0.963153 -0.372549 -0.187282 -0.527325 -0.0117631 1.0 -0.173781 -0.947172 1.0 1.0 0.354345 -0.465445 1.0 1.0 -0.282204 1.0 1.0 -0.281548 -0.509947 -0.98507 -0.583129 1.0 -0.465492 -0.74877 1.0 -0.837495 -0.200883 -0.959605 1.0 -0.916529 0.0572958 -0.510023 1.0 0.104611 -0.429268 -0.962738 1.0 -0.0932106 1.0 -0.998841 -0.384253 -0.180997 1.0 1.0 0.246654 0.681456 1.0 -0.794743 0.0243263 1.0 -0.95217 -0.337051 -0.552725 -0.400957 -0.264464 1.0 1.0 0.174671 1.0 0.133716 1.0 -0.123623 -0.205118 1.0 -0.796819
queue -0.260822 1.0 -0.931353 -0.448495 1.0 0.63672 1.0 -0.998685 1.0 1.0 -0.886349 -0.553409 1.0 -0.309446 -0.647018 0.280262 0.187201 0.997021 1.0 0.239331 0.35885 1.0 -0.177372 0.258973 0.73798 1.0 -0.514849 -0.907847 0.324008 1.0 1.0 0.998568 0.412073 -0.37488 1.0 0.963153 -0.372549 -0.187282 -0.527325 -0.0117631 1.0 -0.173781 -0.947172 1.0 1.0 0.354345 -0.465445 1.0 1.0 -0.282204 1.0 1.0 -0.281548 0.957388 -0.98507 -0.583129 1.0 -0.465492 -0.74877 1.0 0.87998 -0.200883 -0.942747 1.0 -0.884938 0.0572958 -0.510023 1.0 0.104611 -0.429268 -0.723137 1.0 -0.0932106 1.0 -0.980791 -0.384253 -0.180997 1.0 1.0 0.246654 0.984696 1.0 -0.794743 0.0243263 1.0 0.993218 0.684014 -0.474996 -0.400957 -0.264464 1.0 1.0 0.174671 1.0 0.133716 1.0 -0.123623 -0.205118 1.0 -0.796819
queue -0.260822 1.0 -0.931353 -0.448495 1.0 -0.979318 1.0 -0.998685 1.0 1.0 -0.886349 -0.553409 1.0 -0.554805 -0.647018 0.280262 0.187201 -0.983057 1.0 0.239331 0.35885 1.0 -0.177372 0.258973 -0.778213 1.0 -0.514849 -0.9531 0.324008 1.0 1.0 -0.980577 0.412073 -0.37488 1.0 -0.967185 -0.808578 -0.187282 -0.870016 -0.0117631 1.0 -0.173781 -0.947172 1.0 1.0 0.354345 -0.465445 1.0 1.0 -0.282204 1.0 1.0 -0.281548 -0.770172 -0.98507 -0.583129 1.0 -0.782356 -0.74877 1.0 -0.840209 -0.200883 -0.953949 1.0 0.946462 0.0572958 -0.947899 1.0 0.104611 -0.865264 -0.962738 1.0 -0.0932106 1.0 0.987302 -0.384253 -0.180997 1.0 1.0 -0.365058 0.776098 1.0 -0.942832 0.0243263 1.0 -0.95217 -0.248676 -0.612739 -0.953993 -0.624031 1.0 1.0 -0.903135 1.0 0.133716 1.0 -0.123623 -0.205118 1.0 -0.796819
bfs -0.260822 1.0 -0.931353 -0.448495 1.0 0.541459 1.0 -0.998685 1.0 1.0 0.604526 -0.553409 1.0 -0.309446 -0.647018 0.280262 0.187201 0.997021 1.0 0.239331 0.35885 1.0 -0.177372 0.258973 0.814577 1.0 -0.514849 0.875323 0.324008 1.0 1.0 0.998568 0.412073 -0.37488 1.0 0.588131 -0.372549 -0.187282 -0.527325 -0.0117631 1.0 -0.173781 -0.947172 1.0 1.0 0.354345 -0.465445 1.0 1.0 -0.282204 1.0 1.0 -0.281548 0.900237 0.982777 -0.583129 1.0 -0.465492 0.769224 1.0 0.87998 -0.200883 -0.757144 1.0 0.946462 0.0572958 -0.510023 1.0 0.104611 -0.429268 0.193585 1.0 -0.0932106 1.0 0.988286 -0.384253 -0.180997 1.0 1.0 0.246654 0.984696 1.0 -0.794743 0.0243263 1.0 0.997611 0.684014 0.549388 -0.400957 -0.264464 1.0 1.0 0.988852 1.0 0.133716 1.0 -0.123623 -0.205118 1.0 -0.796819
linkedlist -0.260822 1.0 -0.931353 -0.448495 1.0 0.63672 1.0 -0.998685 1.0 1.0 0.604526 -0.553409 1.0 -0.309446 -0.647018 0.280262 0.187201 0.997021 1.0 0.239331 0.35885 1.0 -0.177372 0.258973 0.157672 1.0 -0.514849 0.875323 0.324008 1.0 1.0 0.998568 0.412073 -0.37488 1.0 -0.960474 -0.372549 -0.187282 -0.527325 -0.0117631 1.0 -0.173781 -0.947172 1.0 1.0 0.354345 -0.465445 1.0 1.0 -0.282204 1.0 1.0 -0.281548 0.986525 0.982777 -0.583129 1.0 -0.465492 0.769224 1.0 0.87998 -0.200883 -0.942747 1.0 0.946462 0.0572958 -0.510023 1.0 0.104611 -0.429268 -0.616847 1.0 -0.0932106 1.0 0.988286 -0.384253 -0.180997 1.0 1.0 0.246654 0.984696 1.0 -0.794743 0.0243263 1.0 0.997611 0.684014 0.549388 -0.400957 -0.264464 1.0 1.0 0.174671 1.0 0.133716 1.0 -0.123623 -0.205118 1.0 -0.796819
dfs -0.260822 1.0 -0.931353 -0.448495 1.0 0.988512 1.0 -0.998685 1.0 1.0 -0.886349 -0.553409 1.0 -0.309446 -0.647018 0.280262 0.187201 0.997021 1.0 0.239331 0.35885 1.0 -0.177372 0.258973 1.0 1.0 -0.514849 -0.907847 0.324008 1.0 1.0 0.998568 0.412073 -0.37488 1.0 0.942544 -0.372549 -0.187282 -0.527325 -0.0117631 1.0 -0.173781 -0.947172 1.0 1.0 0.354345 -0.465445 1.0 1.0 -0.282204 1.0 1.0 -0.281548 0.302906 -0.98507 -0.583129 1.0 -0.465492 -0.74877 1.0 0.87998 -0.200883 0.98513 1.0 0.946462 0.0572958 -0.510023 1.0 0.104611 -0.429268 -0.88106 1.0 -0.0932106 1.0 0.987302 -0.384253 -0.180997 1.0 1.0 0.246654 0.984696 1.0 -0.794743 0.0243263 1.0 0.993218 0.684014 -0.474996 -0.400957 -0.264464 1.0 1.0 0.950441 1.0 0.133716 1.0 -0.123623 -0.205118 1.0 -0.796819
stack -0.260822 1.0 -0.931353 -0.448495 1.0 0.988512 1.0 -0.998685 1.0 1.0 -0.886349 -0.553409 1.0 -0.309446 -0.647018 0.280262 0.187201 0.997021 1.0 0.239331 0.35885 1.0 -0.177372 0.258973 0.831668 1.0 -0.514849 -0.907847 0.324008 1.0 1.0 0.998568 0.412073 -0.37488 1.0 0.963153 -0.372549 -0.187282 -0.527325 -0.0117631 1.0 -0.173781 -0.947172 1.0 1.0 0.354345 -0.465445 1.0 1.0 -0.282204 1.0 1.0 -0.281548 0.855369 -0.98507 -0.583129 1.0 -0.465492 -0.74877 1.0 0.87998 -0.200883 -0.953949 1.0 0.946462 0.0572958 -0.510023 1.0 0.104611 -0.429268 -0.962738 1.0 -0.0932106 1.0 0.987302 -0.384253 -0.180997 1.0 1.0 0.246654 0.776098 1.0 -0.794743 0.0243263 1.0 0.993218 -0.248676 -0.474996 -0.400957 -0.264464 1.0 1.0 -0.903135 1.0 0.133716 1.0 -0.123623 -0.205118 1.0 -0.796819
heap -0.260822 1.0 -0.931353 -0.448495 1.0 -0.979318 1.0 -0.998685 1.0 1.0 0.604526 -0.553409 1.0 -0.309446 -0.647018 0.280262 0.187201 0.997021 1.0 0.239331 0.35885 1.0 -0.177372 0.258973 -0.782351 1.0 -0.514849 0.875323 0.324008 1.0 1.0 0.998568 0.412073 -0.37488 1.0 -0.768353 -0.372549 -0.187282 -0.527325 -0.0117631 1.0 -0.173781 -0.947172 1.0 1.0 0.354345 -0.465445 1.0 1.0 -0.282204 1.0 1.0 -0.281548 -0.770172 0.982777 -0.583129 1.0 -0.465492 0.769224 1.0 0.87998 -0.200883 0.968818 1.0 -0.916529 0.0572958 -0.510023 1.0 0.104611 -0.429268 -0.616847 1.0 -0.0932106 1.0 -0.980791 -0.384253 -0.180997 1.0 1.0 0.246654 -0.878273 1.0 -0.794743 0.0243263 1.0 0.997611 -0.347443 0.549388 -0.400957 -0.264464 1.0 1.0 -0.903135 1.0 0.133716 1.0 -0.123623 -0.205118 1.0 -0.796819
dfs -0.260822 1.0 0.839918 -0.448495 1.0 0.988512 1.0 -0.998685 1.0 1.0 0.0206417 -0.553409 1.0 -0.309446 0.403666 0.280262 0.187201 0.997021 1.0 0.239331 0.35885 1.0 -0.177372 0.258973 -0.248045 1.0 -0.514849 0.816495 0.324008 1.0 1.0 0.998568 0.412073 -0.37488 1.0 0.942544 -0.372549 -0.187282 -0.527325 -0.0117631 1.0 -0.173781 0.941815 1.0 1.0 0.354345 -0.465445 1.0 1.0 -0.282204 1.0 1.0 -0.281548 0.957388 -0.98507 -0.583129 1.0 -0.465492 -0.74877 1.0 0.87998 -0.200883 -0.942747 1.0 -0.916529 0.0572958 -0.510023 1.0 0.104611 -0.429268 -0.625585 1.0 -0.0932106 1.0 0.987302 -0.384253 -0.180997 1.0 1.0 0.246654 -0.878273 1.0 -0.794743 0.0243263 1.0 0.993218 -0.347443 0.796221 -0.400957 -0.14221 1.0 1.0 -0.568792 1.0 0.133716 1.0 -0.123623 -0.205118 1.0 0.363996
knapsack -0.260822 1.0 0.839918 -0.448495 1.0 0.988512 1.0 -0.998685 1.0 1.0 0.0206417 -0.553409 1.0 -0.309446 0.403666 0.280262 0.187201 0.997021 1.0 0.239331 0.35885 1.0 -0.177372 0.258973 0.814577 1.0 -0.514849 0.816495 0.324008 1.0 1.0 0.998568 0.412073 -0.37488 1.0 0.963153 -0.372549 -0.187282 -0.527325 -0.0117631 1.0 -0.173781 0.941815 1.0 1.0 0.354345 -0.465445 1.0 1.0 -0.282204 1.0 1.0 -0.281548 0.995909 -0.98507 -0.583129 1.0 -0.465492 -0.74877 1.0 0.87998 -0.200883 0.968818 1.0 -0.916529 0.0572958 -0.510023 1.0 0.104611 -0.429268 -0.558636 1.0 -0.0932106 1.0 0.987302 -0.384253 -0.180997 1.0 1.0 0.246654 -0.878273 1.0 -0.794743 0.0243263 1.0 0.993218 -0.347443 0.796221 -0.400957 -0.14221 1.0 1.0 0.872958 1.0 0.133716 1.0 -0.123623 -0.205118 1.0 0.363996
dfs -0.260822 1.0 0.839918 -0.448495 1.0 0.988512 1.0 -0.998685 1.0 1.0 0.0206417 -0.553409 1.0 -0.309446 0.403666 0.280262 0.187201 0.997021 1.0 0.239331 0.35885 1.0 -0.177372 0.258973 -0.248045 1.0 -0.514849 0.816495 0.324008 1.0 1.0 0.998568 0.412073 -0.37488 1.0 0.963153 -0.372549 -0.187282 -0.527325 -0.0117631 1.0 -0.173781 0.941815 1.0 1.0 0.354345 -0.465445 1.0 1.0 -0.282204 1.0 1.0 -0.281548 0.999532 -0.98507 -0.583129 1.0 -0.465492 -0.74877 1.0 0.87998 -0.200883 0.98513 1.0 0.946462 0.0572958 -0.510023 1.0 0.104611 -0.429268 -0.558636 1.0 -0.0932106 1.0 0.987302 -0.384253 -0.180997 1.0 1.0 0.246654 0.776098 1.0 -0.794743 0.0243263 1.0 0.993218 -0.248676 0.796221 -0.400957 -0.14221 1.0 1.0 -0.513519 1.0 0.133716 1.0 -0.123623 -0.205118 1.0 0.363996
bubblesort -0.260822 1.0 -0.931353 -0.448495 1.0 0.63672 1.0 -0.998685 1.0 1.0 0.604526 -0.553409 1.0 -0.309446 -0.647018 0.280262 0.187201 0.997021 1.0 0.239331 0.35885 1.0 -0.177372 0.258973 0.725858 1.0 -0.514849 0.875323 0.324008 1.0 1.0 0.998568 0.412073 -0.37488 1.0 -0.946486 -0.372549 -0.187282 -0.527325 -0.0117631 1.0 -0.173781 -0.947172 1.0 1.0 0.354345 -0.465445 1.0 1.0 -0.282204 1.0 1.0 -0.281548 0.901197 0.982777 -0.583129 1.0 -0.465492 0.769224 1.0 0.87998 -0.200883 0.968818 1.0 -0.916529 0.0572958 -0.510023 1.0 0.104611 -0.429268 0.193585 1.0 -0.0932106 1.0 0.987302 -0.384253 -0.180997 1.0 1.0 0.246654 -0.878273 1.0 -0.794743 0.0243263 1.0 0.997611 -0.347443 0.549388 -0.400957 -0.264464 1.0 1.0 0.988852 1.0 0.133716 1.0 -0.123623 -0.205118 1.0 -0.796819
quicksort -0.260822 1.0 -0.931353 -0.448495 1.0 -0.9932 1.0 -0.998685 1.0 1.0 -0.886349 -0.553409 1.0 -0.309446 -0.647018 0.280262 0.187201 0.997021 1.0 0.239331 0.35885 1.0 -0.177372 0.258973 0.157672 1.0 -0.514849 -0.907847 0.324008 1.0 1.0 0.998568 0.412073 -0.37488 1.0 -0.946486 -0.372549 -0.187282 -0.527325 -0.0117631 1.0 -0.173781 -0.947172 1.0 1.0 0.354345 -0.465445 1.0 1.0 -0.282204 1.0 1.0 -0.281548 0.901197 -0.98507 -0.583129 1.0 -0.465492 -0.74877 1.0 0.87998 -0.200883 0.968818 1.0 -0.884938 0.0572958 -0.510023 1.0 0.104611 -0.429268 0.193585 1.0 -0.0932106 1.0 -0.998339 -0.384253 -0.180997 1.0 1.0 0.246654 0.984696 1.0 -0.794743 0.0243263 1.0 0.993218 0.684014 -0.474996 -0.400957 -0.264464 1.0 1.0 0.988852 1.0 0.133716 1.0 -0.123623 -0.205118 1.0 -0.796819
stack -0.260822 1.0 -0.931353 -0.448495 1.0 0.988512 1.0 -0.998685 1.0 1.0 -0.886349 -0.553409 1.0 -0.309446 -0.647018 0.280262 0.187201 0.997021 1.0 0.239331 0.35885 1.0 -0.177372 0.258973 -0.778213 1.0 -0.514849 -0.907847 0.324008 1.0 1.0 0.998568 0.412073 -0.37488 1.0 0.963153 -0.372549 -0.187282 -0.527325 -0.0117631 1.0 -0.173781 -0.947172 1.0 1.0 0.354345 -0.465445 1.0 1.0 -0.282204 1.0 1.0 -0.281548 -0.563783 -0.98507 -0.583129 1.0 -0.465492 -0.74877 1.0 0.87998 -0.200883 -0.953949 1.0 0.946462 0.0572958 -0.510023 1.0 0.104611 -0.429268 -0.962738 1.0 -0.0932106 1.0 0.987302 -0.384253 -0.180997 1.0 1.0 0.246654 0.776098 1.0 -0.794743 0.0243263 1.0 0.993218 -0.248676 -0.474996 -0.400957 -0.264464 1.0 1.0 -0.80977 1.0 0.133716 1.0 -0.123623 -0.205118 1.0 -0.796819
stack -0.260822 1.0 -0.931353 -0.448495 1.0 -0.992178 1.0 -0.998685 1.0 1.0 -0.886349 -0.553409 1.0 -0.309446 -0.647018 0.280262 0.187201 0.997021 1.0 0.239331 0.35885 1.0 -0.177372 0.258973 -0.782351 1.0 -0.514849 -0.907847 0.324008 1.0 1.0 0.998568 0.412073 -0.37488 1.0 -0.967185 -0.372549 -0.187282 -0.527325 -0.0117631 1.0 -0.173781 -0.947172 1.0 1.0 0.354345 -0.465445 1.0 1.0 -0.282204 1.0 1.0 -0.281548 -0.770172 -0.98507 -0.583129 1.0 -0.465492 -0.74877 1.0 0.87998 -0.200883 -0.959605 1.0 -0.916529 0.0572958 -0.510023 1.0 0.104611 -0.429268 -0.962738 1.0 -0.0932106 1.0 0.987302 -0.384253 -0.180997 1.0 1.0 0.246654 -0.878273 1.0 -0.794743 0.0243263 1.0 0.993218 -0.347443 -0.474996 -0.400957 -0.264464 1.0 1.0 -0.903135 1.0 0.133716 1.0 -0.123623 -0.205118 1.0 -0.796819
quicksort -0.260822 1.0 -0.931353 -0.448495 1.0 0.63672 1.0 -0.998685 1.0 1.0 -0.886349 -0.553409 1.0 -0.309446 -0.647018 0.280262 0.187201 0.997021 1.0 0.239331 0.35885 1.0 -0.177372 0.258973 0.814577 1.0 -0.514849 -0.907847 0.324008 1.0 1.0 0.998568 0.412073 -0.37488 1.0 -0.946486 -0.372549 -0.187282 -0.527325 -0.0117631 1.0 -0.173781 -0.947172 1.0 1.0 0.354345 -0.465445 1.0 1.0 -0.282204 1.0 1.0 -0.281548 0.901197 -0.98507 -0.583129 1.0 -0.465492 -0.74877 1.0 0.87998 -0.200883 0.968818 1.0 -0.916529 0.0572958 -0.510023 1.0 0.104611 -0.429268 -0.625585 1.0 -0.0932106 1.0 0.987302 -0.384253 -0.180997 1.0 1.0 0.246654 -0.878273 1.0 -0.794743 0.0243263 1.0 0.993218 -0.347443 -0.474996 -0.400957 -0.264464 1.0 1.0 -0.513519 1.0 0.133716 1.0 -0.123623 -0.205118 1.0 -0.796819
quicksort -0.260822 1.0 -0.931353 -0.448495 1.0 -0.979318 1.0 -0.998685 1.0 1.0 0.604526 -0.553409 1.0 -0.309446 -0.647018 0.280262 0.187201 0.997021 1.0 0.239331 0.35885 1.0 -0.177372 0.258973 0.737655 1.0 -0.514849 0.875323 0.324008 1.0 1.0 0.998568 0.412073 -0.37488 1.0 -0.960474 -0.372549 -0.187282 -0.527325 -0.0117631 1.0 -0.173781 -0.947172 1.0 1.0 0.354345 -0.465445 1.0 1.0 -0.282204 1.0 1.0 -0.281548 -0.484882 0.982777 -0.583129 1.0 -0.465492 0.769224 1.0 0.87998 -0.200883 0.968818 1.0 -0.884938 0.0572958 -0.510023 1.0 0.104611 -0.429268 0.962057 1.0 -0.0932106 1.0 0.987302 -0.384253 -0.180997 1.0 1.0 0.246654 0.984696 1.0 -0.794743 0.0243263 1.0 0.997611 0.684014 0.549388 -0.400957 -0.264464 1.0 1.0 0.687986 1.0 0.133716 1.0 -0.123623 -0.205118 1.0 -0.796819
stack -0.260822 1.0 -0.931353 -0.448495 1.0 0.988512 1.0 -0.998685 1.0 1.0 -0.886349 -0.553409 1.0 -0.309446 -0.647018 0.280262 0.187201 0.997021 1.0 0.239331 0.35885 1.0 -0.177372 0.258973 0.244725 1.0 -0.514849 -0.907847 0.324008 1.0 1.0 0.998568 0.412073 -0.37488 1.0 0.963153 -0.372549 -0.187282 -0.527325 -0.0117631 1.0 -0.173781 -0.947172 1.0 1.0 0.354345 -0.465445 1.0 1.0 -0.282204 1.0 1.0 -0.281548 0.970205 -0.98507 -0.583129 1.0 -0.465492 -0.74877 1.0 0.87998 -0.200883 -0.953949 1.0 0.946462 0.0572958 -0.510023 1.0 0.104611 -0.429268 0.012838 1.0 -0.0932106 1.0 0.987302 -0.384253 -0.180997 1.0 1.0 0.246654 0.776098 1.0 -0.794743 0.0243263 1.0 0.993218 -0.248676 -0.474996 -0.400957 -0.264464 1.0 1.0 -0.741875 1.0 0.133716 1.0 -0.123623 -0.205118 1.0 -0.796819
bubblesort -0.260822 1.0 0.839918 -0.448495 1.0 0.988512 1.0 -0.998685 1.0 1.0 0.604526 -0.553409 1.0 -0.309446 0.403666 0.280262 0.187201 0.997021 1.0 0.239331 0.35885 1.0 -0.177372 0.258973 -0.710365 1.0 -0.514849 0.875323 0.324008 1.0 1.0 0.998568 0.412073 -0.37488 1.0 0.963153 -0.372549 -0.187282 -0.527325 -0.0117631 1.0 -0.173781 0.941815 1.0 1.0 0.354345 -0.465445 1.0 1.0 -0.282204 1.0 1.0 -0.281548 0.900237 0.982777 -0.583129 1.0 -0.465492 0.769224 1.0 0.87998 -0.200883 0.98513 1.0 0.946462 0.0572958 -0.510023 1.0 0.104611 -0.429268 -0.616847 1.0 -0.0932106 1.0 0.987302 -0.384253 -0.180997 1.0 1.0 0.246654 0.776098 1.0 -0.794743 0.0243263 1.0 0.997611 -0.248676 0.796221 -0.400957 -0.14221 1.0 1.0 -0.513519 1.0 0.133716 1.0 -0.123623 -0.205118 1.0 0.363996
mergesort -0.260822 1.0 0.839918 -0.448495 1.0 0.988512 1.0 -0.998685 1.0 1.0 0.604526 -0.553409 1.0 -0.309446 0.403666 0.280262 0.187201 0.997021 1.0 0.239331 0.35885 1.0 -0.177372 0.258973 0.157672 1.0 -0.514849 0.875323 0.324008 1.0 1.0 0.998568 0.412073 -0.37488 1.0 0.942544 -0.372549 -0.187282 -0.527325 -0.0117631 1.0 -0.173781 0.941815 1.0 1.0 0.354345 -0.465445 1.0 1.0 -0.282204 1.0 1.0 -0.281548 0.986525 0.982777 -0.583129 1.0 -0.465492 0.769224 1.0 0.87998 -0.200883 0.98513 1.0 0.946462 0.0572958 -0.510023 1.0 0.104611 -0.429268 -0.616847 1.0 -0.0932106 1.0 0.988286 -0.384253 -0.180997 1.0 1.0 0.246654 0.984696 1.0 -0.794743 0.0243263 1.0 0.997611 0.684014 0.796221 -0.400957 -0.14221 1.0 1.0 0.174671 1.0 0.133716 1.0 -0.123623 -0.205118 1.0 0.363996
knapsack -0.260822 1.0 -0.931353 -0.448495 1.0 0.63672 1.0 -0.998685 1.0 1.0 -0.886349 -0.553409 1.0 -0.309446 -0.647018 0.280262 0.187201 0.997021 1.0 0.239331 0.35885 1.0 -0.177372 0.258973 -0.140979 1.0 -0.514849 -0.907847 0.324008 1.0 1.0 0.998568 0.412073 -0.37488 1.0 0.963153 -0.372549 -0.187282 -0.527325 -0.0117631 1.0 -0.173781 -0.947172 1.0 1.0 0.354345 -0.465445 1.0 1.0 -0.282204 1.0 1.0 -0.281548 0.957388 -0.98507 -0.583129 1.0 -0.465492 -0.74877 1.0 0.87998 -0.200883 0.968818 1.0 -0.884938 0.0572958 -0.510023 1.0 0.104611 -0.429268 0.193585 1.0 -0.0932106 1.0 -0.980791 -0.384253 -0.180997 1.0 1.0 0.246654 0.984696 1.0 -0.794743 0.0243263 1.0 0.993218 0.684014 -0.474996 -0.400957 -0.264464 1.0 1.0 0.988852 1.0 0.133716 1.0 -0.123623 -0.205118 1.0 -0.796819
queue -0.260822 1.0 -0.931353 -0.448495 1.0 -0.979318 1.0 -0.998685 1.0 1.0 0.604526 -0.553409 1.0 -0.309446 -0.647018 0.280262 0.187201 0.997021 1.0 0.239331 0.35885 1.0 -0.177372 0.258973 0.988183 1.0 -0.514849 0.875323 0.324008 1.0 1.0 0.998568 0.412073 -0.37488 1.0 0.963153 -0.372549 -0.187282 -0.527325 -0.0117631 1.0 -0.173781 -0.947172 1.0 1.0 0.354345 -0.465445 1.0 1.0 -0.282204 1.0 1.0 -0.281548 0.900237 0.982777 -0.583129 1.0 -0.465492 0.769224 1.0 0.87998 -0.200883 -0.953949 1.0 0.946462 0.0572958 -0.510023 1.0 0.104611 -0.429268 -0.616847 1.0 -0.0932106 1.0 0.987302 -0.384253 -0.180997 1.0 1.0 0.246654 0.984696 1.0 -0.794743 0.0243263 1.0 0.997611 0.684014 0.549388 -0.400957 -0.264464 1.0 1.0 -0.513519 1.0 0.133716 1.0 -0.123623 -0.205118 1.0 -0.796819
linkedlist -0.260822 1.0 -0.931353 -0.448495 1.0 -0.9932 1.0 -0.998685 1.0 1.0 0.604526 -0.553409 1.0 -0.309446 -0.647018 0.280262 0.187201 0.997021 1.0 0.239331 0.35885 1.0 -0.177372 0.258973 0.157672 1.0 -0.514849 0.875323 0.324008 1.0 1.0 0.998568 0.412073 -0.37488 1.0 0.963153 -0.372549 -0.187282 -0.527325 -0.0117631 1.0 -0.173781 -0.947172 1.0 1.0 0.354345 -0.465445 1.0 1.0 -0.282204 1.0 1.0 -0.281548 -0.515462 0.982777 -0.583129 1.0 -0.465492 0.769224 1.0 0.87998 -0.200883 -0.936803 1.0 -0.884938 0.0572958 -0.510023 1.0 0.104611 -0.429268 -0.616847 1.0 -0.0932106 1.0 -0.998339 -0.384253 -0.180997 1.0 1.0 0.246654 0.984696 1.0 -0.794743 0.0243263 1.0 0.997611 0.684014 0.549388 -0.400957 -0.264464 1.0 1.0 0.174671 1.0 0.133716 1.0 -0.123623 -0.205118 1.0 -0.796819
queue -0.260822 1.0 -0.931353 -0.448495 1.0 0.63672 1.0 -0.998685 1.0 1.0 0.604526 -0.553409 1.0 -0.309446 -0.647018 0.280262 0.187201 0.997021 1.0 0.239331 0.35885 1.0 -0.177372 0.258973 0.73798 1.0 -0.514849 0.875323 0.324008 1.0 1.0 0.998568 0.412073 -0.37488 1.0 0.963153 -0.372549 -0.187282 -0.527325 -0.0117631 1.0 -0.173781 -0.947172 1.0 1.0 0.354345 -0.465445 1.0 1.0 -0.282204 1.0 1.0 -0.281548 0.957388 0.982777 -0.583129 1.0 -0.465492 0.769224 1.0 0.87998 -0.200883 0.968818 1.0 -0.884938 0.0572958 -0.510023 1.0 0.104611 -0.429268 -0.616847 1.0 -0.0932106 1.0 -0.980791 -0.384253 -0.180997 1.0 1.0 0.246654 0.984696 1.0 -0.794743 0.0243263 1.0 0.997611 0.684014 0.549388 -0.400957 -0.264464 1.0 1.0 -0.513519 1.0 0.133716 1.0 -0.123623 -0.205118 1.0 -0.796819
heap -0.260822 1.0 -0.931353 -0.448495 1.0 0.988512 1.0 -0.998685 1.0 1.0 0.604526 -0.553409 1.0 -0.309446 -0.647018 0.280262 0.187201 0.997021 1.0 0.239331 0.35885 1.0 -0.177372 0.258973 0.841781 1.0 -0.514849 0.875323 0.324008 1.0 1.0 0.998568 0.412073 -0.37488 1.0 0.963153 -0.372549 -0.187282 -0.527325 -0.0117631 1.0 -0.173781 -0.947172 1.0 1.0 0.354345 -0.465445 1.0 1.0 -0.282204 1.0 1.0 -0.281548 0.986525 0.982777 -0.583129 1.0 -0.465492 0.769224 1.0 0.87998 -0.200883 -0.936803 1.0 0.946462 0.0572958 -0.510023 1.0 0.104611 -0.429268 0.837134 1.0 -0.0932106 1.0 0.988286 -0.384253 -0.180997 1.0 1.0 0.246654 0.984696 1.0 -0.794743 0.0243263 1.0 0.997611 0.684014 0.549388 -0.400957 -0.264464 1.0 1.0 0.988852 1.0 0.133716 1.0 -0.123623 -0.205118 1.0 -0.796819
linkedlist -0.260822 1.0 -0.931353 -0.448495 1.0 -0.9932 1.0 -0.998685 1.0 1.0 -0.886349 -0.553409 1.0 -0.309446 -0.647018 0.280262 0.187201 0.997021 1.0 0.239331 0.35885 1.0 -0.177372 0.258973 0.157672 1.0 -0.514849 -0.907847 0.324008 1.0 1.0 0.998568 0.412073 -0.37488 1.0 -0.960474 -0.372549 -0.187282 -0.527325 -0.0117631 1.0 -0.173781 -0.947172 1.0 1.0 0.354345 -0.465445 1.0 1.0 -0.282204 1.0 1.0 -0.281548 0.900237 -0.98507 -0.583129 1.0 -0.465492 -0.74877 1.0 0.87998 -0.200883 -0.959206 1.0 -0.884938 0.0572958 -0.510023 1.0 0.104611 -0.429268 -0.88106 1.0 -0.0932106 1.0 -0.989005 -0.384253 -0.180997 1.0 1.0 0.246654 0.984696 1.0 -0.794743 0.0243263 1.0 0.993218 0.684014 -0.474996 -0.400957 -0.264464 1.0 1.0 0.174671 1.0 0.133716 1.0 -0.123623 -0.205118 1.0 -0.796819
bfs -0.260822 1.0 0.839918 -0.448495 1.0 0.63672 1.0 -0.998685 1.0 1.0 0.174393 -0.486254 1.0 -0.309446 0.403666 0.280262 0.187201 0.997021 1.0 0.239331 0.35885 1.0 -0.177372 0.258973 0.894076 1.0 -0.514849 0.816495 0.324008 1.0 1.0 0.998568 0.412073 -0.37488 1.0 -0.967185 -0.372549 -0.187282 -0.527325 -0.0117631 1.0 0.810317 0.941815 1.0 1.0 0.354345 -0.465445 1.0 1.0 -0.282204 1.0 1.0 0.0109827 0.900237 -0.98507 -0.0353528 1.0 -0.465492 -0.74877 1.0 0.87998 -0.200883 0.968818 1.0 0.946462 0.0572958 -0.510023 1.0 0.104611 -0.429268 0.193585 1.0 0.77994 1.0 0.987302 -0.384253 -0.180997 1.0 1.0 0.246654 0.776098 1.0 -0.794743 0.0243263 1.0 0.993218 -0.248676 0.796221 -0.400957 0.937888 1.0 1.0 0.988852 1.0 0.133716 1.0 -0.123623 -0.205118 1.0 0.848491
heap -0.260822 1.0 -0.931353 -0.448495 1.0 0.988512 1.0 -0.998685 1.0 1.0 0.604526 -0.553409 1.0 -0.309446 -0.647018 0.280262 0.187201 0.997021 1.0 0.239331 0.35885 1.0 -0.177372 0.258973 0.157672 1.0 -0.514849 0.875323 0.324008 1.0 1.0 0.998568 0.412073 -0.37488 1.0 0.963153 -0.372549 -0.187282 -0.527325 -0.0117631 1.0 -0.173781 -0.947172 1.0 1.0 0.354345 -0.465445 1.0 1.0 -0.282204 1.0 1.0 -0.281548 0.986525 0.982777 -0.583129 1.0 -0.465492 0.769224 1.0 0.87998 -0.200883 0.968818 1.0 0.946462 0.0572958 -0.510023 1.0 0.104611 -0.429268 0.012838 1.0 -0.0932106 1.0 0.988286 -0.384253 -0.180997 1.0 1.0 0.246654 0.776098 1.0 -0.794743 0.0243263 1.0 0.997611 -0.248676 0.549388 -0.400957 -0.264464 1.0 1.0 0.872958 1.0 0.133716 1.0 -0.123623 -0.205118 1.0 -0.796819
mergesort -0.260822 1.0 0.839918 -0.448495 1.0 0.988512 1.0 -0.998685 1.0 1.0 0.0206417 -0.553409 1.0 -0.309446 0.403666 0.280262 0.187201 0.997021 1.0 0.239331 0.35885 1.0 -0.177372 0.258973 0.725858 1.0 -0.514849 0.816495 0.324008 1.0 1.0 0.998568 0.412073 -0.37488 1.0 0.942544 -0.372549 -0.187282 -0.527325 -0.0117631 1.0 -0.173781 0.941815 1.0 1.0 0.354345 -0.465445 1.0 1.0 -0.282204 1.0 1.0 -0.281548 0.980869 -0.98507 -0.583129 1.0 -0.465492 -0.74877 1.0 0.87998 -0.200883 0.968818 1.0 -0.916529 0.0572958 -0.510023 1.0 0.104611 -0.429268 -0.626397 1.0 -0.0932106 1.0 0.987302 -0.384253 -0.180997 1.0 1.0 0.246654 -0.878273 1.0 -0.794743 0.0243263 1.0 0.993218 -0.347443 0.796221 -0.400957 -0.14221 1.0 1.0 -0.513519 1.0 0.133716 1.0 -0.123623 -0.205118 1.0 0.363996
linkedlist -0.260822 1.0 -0.931353 -0.448495 1.0 -0.9932 1.0 -0.998685 1.0 1.0 0.604526 -0.553409 1.0 -0.309446 -0.647018 0.280262 0.187201 0.997021 1.0 0.239331 0.35885 1.0 -0.177372 0.258973 0.73798 1.0 -0.514849 0.875323 0.324008 1.0 1.0 0.998528 0.412073 -0.37488 1.0 0.963153 -0.372549 -0.187282 -0.527325 -0.0117631 1.0 -0.173781 -0.947172 1.0 1.0 0.354345 -0.465445 1.0 1.0 -0.282204 1.0 1.0 -0.281548 0.900237 0.982777 -0.583129 1.0 -0.465492 0.769224 1.0 -0.837495 -0.200883 -0.95638 1.0 -0.884938 0.0572958 -0.510023 1.0 0.104611 -0.429268 0.012838 1.0 -0.0932106 1.0 -0.989005 -0.384253 -0.180997 1.0 1.0 0.246654 0.984696 1.0 -0.794743 0.0243263 1.0 0.997611 0.684014 0.549388 -0.400957 -0.264464 1.0 1.0 -0.513519 1.0 0.133716 1.0 -0.123623 -0.205118 1.0 -0.796819
dfs -0.260822 1.0 0.839918 -0.448495 1.0 0.988512 1.0 -0.998685 1.0 1.0 0.604526 -0.553409 1.0 -0.309446 0.403666 0.280262 0.187201 0.997021 1.0 0.239331 0.35885 1.0 -0.177372 0.258973 0.827189 1.0 -0.514849 0.875323 0.324008 1.0 1.0 0.998568 0.412073 -0.37488 1.0 0.942544 -0.372549 -0.187282 -0.527325 -0.0117631 1.0 -0.173781 0.941815 1.0 1.0 0.354345 -0.465445 1.0 1.0 -0.282204 1.0 1.0 -0.281548 0.847278 0.982777 -0.583129 1.0 -0.465492 0.769224 1.0 0.87998 -0.200883 0.98513 1.0 0.946462 0.0572958 -0.510023 1.0 0.104611 -0.429268 -0.616847 1.0 -0.0932106 1.0 0.987302 -0.384253 -0.180997 1.0 1.0 0.246654 0.776098 1.0 -0.794743 0.0243263 1.0 0.997611 -0.248676 0.796221 -0.400957 -0.14221 1.0 1.0 0.174671 1.0 0.133716 1.0 -0.123623 -0.205118 1.0 0.363996
bubblesort -0.260822 1.0 0.839918 -0.448495 1.0 0.988512 1.0 -0.998685 1.0 1.0 0.604526 -0.553409 1.0 -0.309446 0.403666 0.280262 0.187201 0.997021 1.0 0.239331 0.35885 1.0 -0.177372 0.258973 -0.710365 1.0 -0.514849 0.875323 0.324008 1.0 1.0 0.998568 0.412073 -0.37488 1.0 0.942544 -0.372549 -0.187282 -0.527325 -0.0117631 1.0 -0.173781 0.941815 1.0 1.0 0.354345 -0.465445 1.0 1.0 -0.282204 1.0 1.0 -0.281548 0.999532 0.982777 -0.583129 1.0 -0.465492 0.769224 1.0 0.87998 -0.200883 0.968818 1.0 0.946462 0.0572958 -0.510023 1.0 0.104611 -0.429268 -0.616847 1.0 -0.0932106 1.0 0.987302 -0.384253 -0.180997 1.0 1.0 0.246654 0.776098 1.0 -0.794743 0.0243263 1.0 0.997611 -0.248676 0.796221 -0.400957 -0.14221 1.0 1.0 -0.513519 1.0 0.133716 1.0 -0.123623 -0.205118 1.0 0.363996
queue -0.260822 1.0 -0.282177 -0.448495 1.0 0.63672 1.0 -0.998685 1.0 1.0 0.604526 -0.486254 1.0 -0.309446 -0.12187 0.280262 0.187201 0.997021 1.0 0.239331 0.35885 1.0 -0.177372 0.258973 0.725858 1.0 -0.514849 0.875323 0.324008 1.0 1.0 0.998568 0.412073 -0.37488 1.0 -0.946486 -0.372549 -0.187282 -0.527325 -0.0117631 1.0 0.810317 0.0356423 1.0 1.0 0.354345 -0.465445 1.0 1.0 -0.282204 1.0 1.0 0.0109827 0.901197 0.982777 -0.0353528 1.0 -0.465492 0.769224 1.0 0.87998 -0.200883 -0.850352 1.0 0.946462 0.0572958 -0.510023 1.0 0.104611 -0.429268 0.193585 1.0 0.77994 1.0 -0.980791 -0.384253 -0.180997 1.0 1.0 0.246654 0.984696 1.0 -0.794743 0.0243263 1.0 0.997611 0.684014 0.549388 -0.400957 0.937888 1.0 1.0 0.988852 1.0 0.133716 1.0 -0.123623 -0.205118 1.0 0.848491
linkedlist -0.260822 1.0 -0.931353 -0.448495 1.0 -0.9932 1.0 -0.998685 1.0 1.0 0.604526 -0.553409 1.0 -0.309446 -0.647018 0.280262 0.187201 0.997021 1.0 0.239331 0.35885 1.0 -0.177372 0.258973 0.725858 1.0 -0.514849 0.875323 0.324008 1.0 1.0 0.998568 0.412073 -0.37488 1.0 -0.968692 -0.372549 -0.187282 -0.527325 -0.0117631 1.0 -0.173781 -0.947172 1.0 1.0 0.354345 -0.465445 1.0 1.0 -0.282204 1.0 1.0 -0.281548 0.484103 0.982777 -0.583129 1.0 -0.465492 0.769224 1.0 0.87998 -0.200883 -0.936803 1.0 -0.884938 0.0572958 -0.510023 1.0 0.104611 -0.429268 -0.616847 1.0 -0.0932106 1.0 -0.998339 -0.384253 -0.180997 1.0 1.0 0.246654 0.984696 1.0 -0.794743 0.0243263 1.0 0.997611 0.684014 0.549388 -0.400957 -0.264464 1.0 1.0 -0.513519 1.0 0.133716 1.0 -0.123623 -0.205118 1.0 -0.796819
mergesort -0.260822 1.0 0.839918 -0.448495 1.0 0.988512 1.0 -0.998685 1.0 1.0 0.0206417 -0.553409 1.0 -0.309446 0.403666 0.280262 0.187201 0.997021 1.0 0.239331 0.35885 1.0 -0.177372 0.258973 0.725858 1.0 -0.514849 0.816495 0.324008 1.0 1.0 0.998568 0.412073 -0.37488 1.0 0.942544 -0.372549 -0.187282 -0.527325 -0.0117631 1.0 -0.173781 0.941815 1.0 1.0 0.354345 -0.465445 1.0 1.0 -0.282204 1.0 1.0 -0.281548 0.900237 -0.98507 -0.583129 1.0 -0.465492 -0.74877 1.0 0.87998 -0.200883 0.98513 1.0 -0.916529 0.0572958 -0.510023 1.0 0.104611 -0.429268 -0.626397 1.0 -0.0932106 1.0 0.987302 -0.384253 -0.180997 1.0 1.0 0.246654 -0.878273 1.0 -0.794743 0.0243263 1.0 0.993218 -0.347443 0.796221 -0.400957 -0.14221 1.0 1.0 -0.513519 1.0 0.133716 1.0 -0.123623 -0.205118 1.0 0.363996
quicksort -0.260822 1.0 -0.931353 -0.448495 1.0 -0.979318 1.0 -0.998685 1.0 1.0 0.604526 -0.553409 1.0 -0.309446 -0.647018 0.280262 0.187201 0.997021 1.0 0.239331 0.35885 1.0 -0.177372 0.258973 0.725858 1.0 -0.514849 0.875323 0.324008 1.0 1.0 0.998568 0.412073 -0.37488 1.0 -0.946486 -0.372549 -0.187282 -0.527325 -0.0117631 1.0 -0.173781 -0.947172 1.0 1.0 0.354345 -0.465445 1.0 1.0 -0.282204 1.0 1.0 -0.281548 0.901197 0.982777 -0.583129 1.0 -0.465492 0.769224 1.0 0.87998 -0.200883 0.968818 1.0 -0.884938 0.0572958 -0.510023 1.0 0.104611 -0.429268 0.998707 1.0 -0.0932106 1.0 -0.980791 -0.384253 -0.180997 1.0 1.0 0.246654 0.984696 1.0 -0.794743 0.0243263 1.0 0.997611 0.684014 0.549388 -0.400957 -0.264464 1.0 1.0 0.985635 1.0 0.133716 1.0 -0.123623 -0.205118 1.0 -0.796819
mergesort -0.260822 1.0 0.839918 -0.448495 1.0 0.988512 1.0 -0.998685 1.0 1.0 0.604526 -0.553409 1.0 -0.309446 0.403666 0.280262 0.187201 0.997021 1.0 0.239331 0.35885 1.0 -0.177372 0.258973 0.841781 1.0 -0.514849 0.875323 0.324008 1.0 1.0 0.998568 0.412073 -0.37488 1.0 0.942544 -0.372549 -0.187282 -0.527325 -0.0117631 1.0 -0.173781 0.941815 1.0 1.0 0.354345 -0.465445 1.0 1.0 -0.282204 1.0 1.0 -0.281548 0.957388 0.982777 -0.583129 1.0 -0.465492 0.769224 1.0 0.87998 -0.200883 0.98513 1.0 0.946462 0.0572958 -0.510023 1.0 0.104611 -0.429268 -0.616847 1.0 -0.0932106 1.0 0.987302 -0.384253 -0.180997 1.0 1.0 0.246654 0.776098 1.0 -0.794743 0.0243263 1.0 0.997611 -0.248676 0.796221 -0.400957 -0.14221 1.0 1.0 -0.568792 1.0 0.133716 1.0 -0.123623 -0.205118 1.0 0.363996
stack -0.260822 1.0 -0.931353 -0.448495 1.0 0.988512 1.0 -0.998685 1.0 1.0 0.604526 -0.553409 1.0 -0.309446 -0.647018 0.280262 0.187201 0.997021 1.0 0.239331 0.35885 1.0 -0.177372 0.258973 0.984549 1.0 -0.514849 0.875323 0.324008 1.0 1.0 0.998568 0.412073 -0.37488 1.0 0.963153 -0.372549 -0.187282 -0.527325 -0.0117631 1.0 -0.173781 -0.947172 1.0 1.0 0.354345 -0.465445 1.0 1.0 -0.282204 1.0 1.0 -0.281548 0.952134 0.982777 -0.583129 1.0 -0.465492 0.769224 1.0 0.87998 -0.200883 0.98513 1.0 0.946462 0.0572958 -0.510023 1.0 0.104611 -0.429268 -0.616847 1.0 -0.0932106 1.0 0.987302 -0.384253 -0.180997 1.0 1.0 0.246654 0.776098 1.0 -0.794743 0.0243263 1.0 0.997611 -0.248676 0.549388 -0.400957 -0.264464 1.0 1.0 0.872958 1.0 0.133716 1.0 -0.123623 -0.205118 1.0 -0.796819
stack -0.260822 1.0 -0.931353 -0.448495 1.0 0.63672 1.0 -0.998685 1.0 1.0 0.604526 -0.553409 1.0 -0.309446 -0.647018 0.280262 0.187201 0.997021 1.0 0.239331 0.35885 1.0 -0.177372 0.258973 0.157672 1.0 -0.514849 0.875323 0.324008 1.0 1.0 0.998568 0.412073 -0.37488 1.0 0.963153 -0.372549 -0.187282 -0.527325 -0.0117631 1.0 -0.173781 -0.947172 1.0 1.0 0.354345 -0.465445 1.0 1.0 -0.282204 1.0 1.0 -0.281548 0.957388 0.982777 -0.583129 1.0 -0.465492 0.769224 1.0 0.87998 -0.200883 -0.936803 1.0 -0.884938 0.0572958 -0.510023 1.0 0.104611 -0.429268 -0.616847 1.0 -0.0932106 1.0 0.987302 -0.384253 -0.180997 1.0 1.0 0.246654 0.984696 1.0 -0.794743 0.0243263 1.0 0.997611 0.684014 0.549388 -0.400957 -0.264464 1.0 1.0 0.174671 1.0 0.133716 1.0 -0.123623 -0.205118 1.0 -0.796819
heap -0.260822 1.0 -0.931353 -0.448495 1.0 0.988512 1.0 -0.998685 1.0 1.0 0.604526 -0.553409 1.0 -0.309446 -0.647018 0.280262 0.187201 0.997021 1.0 0.239331 0.35885 1.0 -0.177372 0.258973 0.996786 1.0 -0.514849 0.875323 0.324008 1.0 1.0 0.998568 0.412073 -0.37488 1.0 0.942544 -0.372549 -0.187282 -0.527325 -0.0117631 1.0 -0.173781 -0.947172 1.0 1.0 0.354345 -0.465445 1.0 1.0 -0.282204 1.0 1.0 -0.281548 0.901197 0.982777 -0.583129 1.0 -0.465492 0.769224 1.0 0.87998 -0.200883 0.968818 1.0 0.946462 0.0572958 -0.510023 1.0 0.104611 -0.429268 0.837134 1.0 -0.0932106 1.0 0.987302 -0.384253 -0.180997 1.0 1.0 0.246654 0.776098 1.0 -0.794743 0.0243263 1.0 0.997611 -0.248676 0.549388 -0.400957 -0.264464 1.0 1.0 0.988852 1.0 0.133716 1.0 -0.123623 -0.205118 1.0 -0.796819
quicksort -0.260822 1.0 0.839918 -0.448495 1.0 0.988512 1.0 -0.998685 1.0 1.0 0.0206417 -0.553409 1.0 -0.309446 0.403666 0.280262 0.187201 0.997021 1.0 0.239331 0.35885 1.0 -0.177372 0.258973 0.725858 1.0 -0.514849 0.816495 0.324008 1.0 1.0 0.998568 0.412073 -0.37488 1.0 0.942544 -0.372549 -0.187282 -0.527325 -0.0117631 1.0 -0.173781 0.941815 1.0 1.0 0.354345 -0.465445 1.0 1.0 -0.282204 1.0 1.0 -0.281548 0.962953 -0.98507 -0.583129 1.0 -0.465492 -0.74877 1.0 0.87998 -0.200883 0.98513 1.0 -0.916529 0.0572958 -0.510023 1.0 0.104611 -0.429268 -0.626397 1.0 -0.0932106 1.0 0.987302 -0.384253 -0.180997 1.0 1.0 0.246654 -0.878273 1.0 -0.794743 0.0243263 1.0 0.993218 -0.347443 0.796221 -0.400957 -0.14221 1.0 1.0 -0.568792 1.0 0.133716 1.0 -0.123623 -0.205118 1.0 0.363996
quicksort -0.260822 1.0 -0.931353 -0.448495 1.0 0.63672 1.0 -0.998685 1.0 1.0 0.604526 -0.553409 1.0 -0.309446 -0.647018 0.280262 0.187201 0.997021 1.0 0.239331 0.35885 1.0 -0.177372 0.258973 0.725858 1.0 -0.514849 0.875323 0.324008 1.0 1.0 0.998568 0.412073 -0.37488 1.0 -0.967185 -0.372549 -0.187282 -0.527325 -0.0117631 1.0 -0.173781 -0.947172 1.0 1.0 0.354345 -0.465445 1.0 1.0 -0.282204 1.0 1.0 -0.281548 0.685183 0.982777 -0.583129 1.0 -0.465492 0.769224 1.0 0.87998 -0.200883 0.98513 1.0 -0.884938 0.0572958 -0.510023 1.0 0.104611 -0.429268 0.193585 1.0 -0.0932106 1.0 0.987302 -0.384253 -0.180997 1.0 1.0 0.246654 0.984696 1.0 -0.794743 0.0243263 1.0 0.997611 0.684014 0.549388 -0.400957 -0.264464 1.0 1.0 0.988852 1.0 0.133716 1.0 -0.123623 -0.205118 1.0 -0.796819
linkedlist -0.260822 1.0 -0.931353 -0.448495 1.0 -0.979318 1.0 -0.998685 1.0 1.0 0.604526 -0.553409 1.0 -0.309446 -0.647018 0.280262 0.187201 0.997021 1.0 0.239331 0.35885 1.0 -0.177372 0.258973 -0.248045 1.0 -0.514849 0.875323 0.324008 1.0 1.0 0.998568 0.412073 -0.37488 1.0 -0.946486 -0.372549 -0.187282 -0.527325 -0.0117631 1.0 -0.173781 -0.947172 1.0 1.0 0.354345 -0.465445 1.0 1.0 -0.282204 1.0 1.0 -0.281548 0.986525 0.982777 -0.583129 1.0 -0.465492 0.769224 1.0 0.87998 -0.200883 -0.953949 1.0 0.946462 0.0572958 -0.510023 1.0 0.104611 -0.429268 -0.616847 1.0 -0.0932106 1.0 0.988286 -0.384253 -0.180997 1.0 1.0 0.246654 0.776098 1.0 -0.794743 0.0243263 1.0 0.997611 -0.248676 0.549388 -0.400957 -0.264464 1.0 1.0 -0.80651 1.0 0.133716 1.0 -0.123623 -0.205118 1.0 -0.796819
stack -0.260822 1.0 -0.931353 -0.448495 1.0 -0.979318 1.0 -0.998685 1.0 1.0 -0.886349 -0.553409 1.0 -0.309446 -0.647018 0.280262 0.187201 0.997021 1.0 0.239331 0.35885 1.0 -0.177372 0.258973 -0.0769944 1.0 -0.514849 -0.907847 0.324008 1.0 1.0 0.998568 0.412073 -0.37488 1.0 -0.967185 -0.372549 -0.187282 -0.527325 -0.0117631 1.0 -0.173781 -0.947172 1.0 1.0 0.354345 -0.465445 1.0 1.0 -0.282204 1.0 1.0 -0.281548 -0.770172 -0.98507 -0.583129 1.0 -0.465492 -0.74877 1.0 0.87998 -0.200883 -0.950043 1.0 -0.884938 0.0572958 -0.510023 1.0 0.104611 -0.429268 -0.962738 1.0 -0.0932106 1.0 0.987302 -0.384253 -0.180997 1.0 1.0 0.246654 0.984696 1.0 -0.794743 0.0243263 1.0 0.993218 0.684014 -0.474996 -0.400957 -0.264464 1.0 1.0 -0.903135 1.0 0.133716 1.0 -0.123623 -0.205118 1.0 -0.796819
knapsack -0.260822 1.0 -0.931353 -0.448495 1.0 0.63672 1.0 -0.998685 1.0 1.0 -0.886349 -0.553409 1.0 -0.309446 -0.647018 0.280262 0.187201 0.997021 1.0 0.239331 0.35885 1.0 -0.177372 0.258973 0.725858 1.0 -0.514849 -0.907847 0.324008 1.0 1.0 0.998568 0.412073 -0.37488 1.0 -0.967185 -0.372549 -0.187282 -0.527325 -0.0117631 1.0 -0.173781 -0.947172 1.0 1.0 0.354345 -0.465445 1.0 1.0 -0.282204 1.0 1.0 -0.281548 0.9951 -0.98507 -0.583129 1.0 -0.465492 -0.74877 1.0 0.87998 -0.200883 0.968818 1.0 -0.916529 0.0572958 -0.510023 1.0 0.104611 -0.429268 -0.626397 1.0 -0.0932106 1.0 0.987302 -0.384253 -0.180997 1.0 1.0 0.246654 -0.878273 1.0 -0.794743 0.0243263 1.0 0.993218 -0.347443 -0.474996 -0.400957 -0.264464 1.0 1.0 -0.513519 1.0 0.133716 1.0 -0.123623 -0.205118 1.0 -0.796819
bubblesort -0.260822 1.0 -0.931353 -0.448495 1.0 0.63672 1.0 -0.998685 1.0 1.0 -0.886349 -0.553409 1.0 -0.309446 -0.647018 0.280262 0.187201 0.997021 1.0 0.239331 0.35885 1.0 -0.177372 0.258973 0.860798 1.0 -0.514849 -0.907847 0.324008 1.0 1.0 0.998568 0.412073 -0.37488 1.0 -0.845379 -0.372549 -0.187282 -0.527325 -0.0117631 1.0 -0.173781 -0.947172 1.0 1.0 0.354345 -0.465445 1.0 1.0 -0.282204 1.0 1.0 -0.281548 0.986525 -0.98507 -0.583129 1.0 -0.465492 -0.74877 1.0 0.87998 -0.200883 0.968818 1.0 0.707434 0.0572958 -0.510023 1.0 0.104611 -0.429268 0.829771 1.0 -0.0932106 1.0 -0.980791 -0.384253 -0.180997 1.0 1.0 0.246654 0.984696 1.0 -0.794743 0.0243263 1.0 0.993218 0.684014 -0.474996 -0.400957 -0.264464 1.0 1.0 0.988852 1.0 0.133716 1.0 -0.123623 -0.205118 1.0 -0.796819
dfs -0.260822 1.0 -0.931353 -0.448495 1.0 -0.992178 1.0 -0.998685 1.0 1.0 -0.886349 -0.553409 1.0 -0.309446 -0.647018 0.280262 0.187201 0.997021 1.0 0.239331 0.35885 1.0 -0.177372 0.258973 0.79771 1.0 -0.514849 -0.907847 0.324008 1.0 1.0 -0.980523 0.412073 -0.37488 1.0 -0.960474 -0.372549 -0.187282 -0.527325 -0.0117631 1.0 -0.173781 -0.947172 1.0 1.0 0.354345 -0.465445 1.0 1.0 -0.282204 1.0 1.0 -0.281548 -0.515462 -0.98507 -0.583129 1.0 -0.465492 -0.74877 1.0 -0.837495 -0.200883 0.952478 1.0 -0.884938 0.0572958 -0.510023 1.0 0.104611 -0.429268 -0.929287 1.0 -0.0932106 1.0 0.773524 -0.384253 -0.180997 1.0 1.0 0.246654 0.984696 1.0 -0.794743 0.0243263 1.0 -0.95217 0.684014 -0.552725 -0.400957 -0.264464 1.0 1.0 0.174671 1.0 0.133716 1.0 -0.123623 -0.205118 1.0 -0.796819
stack -0.260822 1.0 0.839918 -0.448495 1.0 -0.956116 1.0 -0.998685 1.0 1.0 0.604526 -0.553409 1.0 -0.309446 0.403666 0.280262 0.187201 0.997021 1.0 0.239331 0.35885 1.0 -0.177372 0.258973 0.725858 1.0 -0.514849 0.875323 0.324008 1.0 1.0 0.998568 0.412073 -0.37488 1.0 0.963153 -0.372549 -0.187282 -0.527325 -0.0117631 1.0 -0.173781 0.941815 1.0 1.0 0.354345 -0.465445 1.0 1.0 -0.282204 1.0 1.0 -0.281548 0.986525 0.982777 -0.583129 1.0 -0.465492 0.769224 1.0 0.87998 -0.200883 -0.953949 1.0 0.946462 0.0572958 -0.510023 1.0 0.104611 -0.429268 -0.616847 1.0 -0.0932106 1.0 0.988286 -0.384253 -0.180997 1.0 1.0 0.246654 0.984696 1.0 -0.794743 0.0243263 1.0 0.997611 0.684014 0.796221 -0.400957 -0.14221 1.0 1.0 0.174671 1.0 0.133716 1.0 -0.123623 -0.205118 1.0 0.363996
queue -0.260822 1.0 -0.931353 -0.448495 1.0 0.63672 1.0 -0.998685 1.0 1.0 -0.886349 -0.553409 1.0 -0.309446 -0.647018 0.280262 0.187201 0.997021 1.0 0.239331 0.35885 1.0 -0.177372 0.258973 -0.782351 1.0 -0.514849 -0.907847 0.324008 1.0 1.0 0.998568 0.412073 -0.37488 1.0 -0.967185 -0.372549 -0.187282 -0.527325 -0.0117631 1.0 -0.173781 -0.947172 1.0 1.0 0.354345 -0.465445 1.0 1.0 -0.282204 1.0 1.0 -0.281548 -0.663859 -0.98507 -0.583129 1.0 -0.465492 -0.74877 1.0 0.87998 -0.200883 0.968818 1.0 -0.884938 0.0572958 -0.510023 1.0 0.104611 -0.429268 -0.962738 1.0 -0.0932106 1.0 0.988286 -0.384253 -0.180997 1.0 1.0 0.246654 0.984696 1.0 -0.794743 0.0243263 1.0 0.993218 0.684014 -0.474996 -0.400957 -0.264464 1.0 1.0 -0.903135 1.0 0.133716 1.0 -0.123623 -0.205118 1.0 -0.796819
linkedlist -0.260822 1.0 -0.931353 -0.448495 1.0 0.63672 1.0 -0.998685 1.0 1.0 -0.886349 -0.553409 1.0 -0.309446 -0.647018 0.280262 0.187201 0.997021 1.0 0.239331 0.35885 1.0 -0.177372 0.258973 0.157672 1.0 -0.514849 -0.907847 0.324008 1.0 1.0 0.998568 0.412073 -0.37488 1.0 0.963153 -0.372549 -0.187282 -0.527325 -0.0117631 1.0 -0.173781 -0.947172 1.0 1.0 0.354345 -0.465445 1.0 1.0 -0.282204 1.0 1.0 -0.281548 0.641347 -0.98507 -0.583129 1.0 -0.465492 -0.74877 1.0 0.87998 -0.200883 -0.936803 1.0 -0.884938 0.0572958 -0.510023 1.0 0.104611 -0.429268 0.193585 1.0 -0.0932106 1.0 -0.980791 -0.384253 -0.180997 1.0 1.0 0.246654 0.984696 1.0 -0.794743 0.0243263 1.0 0.993218 0.684014 -0.474996 -0.400957 -0.264464 1.0 1.0 0.988852 1.0 0.133716 1.0 -0.123623 -0.205118 1.0 -0.796819
quicksort -0.260822 1.0 0.839918 -0.448495 1.0 0.988512 1.0 -0.998685 1.0 1.0 0.0206417 -0.553409 1.0 -0.309446 0.403666 0.280262 0.187201 0.997021 1.0 0.239331 0.35885 1.0 -0.177372 0.258973 0.725858 1.0 -0.514849 0.816495 0.324008 1.0 1.0 0.998568 0.412073 -0.37488 1.0 0.942544 -0.372549 -0.187282 -0.527325 -0.0117631 1.0 -0.173781 0.941815 1.0 1.0 0.354345 -0.465445 1.0 1.0 -0.282204 1.0 1.0 -0.281548 0.998853 -0.98507 -0.583129 1.0 -0.465492 -0.74877 1.0 0.87998 -0.200883 0.98513 1.0 -0.916529 0.0572958 -0.510023 1.0 0.104611 -0.429268 -0.626397 1.0 -0.0932106 1.0 0.987302 -0.384253 -0.180997 1.0 1.0 0.246654 -0.878273 1.0 -0.794743 0.0243263 1.0 0.993218 -0.347443 0.796221 -0.400957 -0.14221 1.0 1.0 -0.513519 1.0 0.133716 1.0 -0.123623 -0.205118 1.0 0.363996
queue -0.260822 1.0 -0.931353 -0.448495 1.0 -0.979318 1.0 -0.998685 1.0 1.0 0.604526 -0.553409 1.0 -0.309446 -0.647018 0.280262 0.187201 0.997021 1.0 0.239331 0.35885 1.0 -0.177372 0.258973 0.946406 1.0 -0.514849 0.875323 0.324008 1.0 1.0 0.998568 0.412073 -0.37488 1.0 0.963153 -0.372549 -0.187282 -0.527325 -0.0117631 1.0 -0.173781 -0.947172 1.0 1.0 0.354345 -0.465445 1.0 1.0 -0.282204 1.0 1.0 -0.281548 0.901197 0.982777 -0.583129 1.0 -0.465492 0.769224 1.0 0.87998 -0.200883 0.968818 1.0 0.946462 0.0572958 -0.510023 1.0 0.104611 -0.429268 0.193585 1.0 -0.0932106 1.0 0.987302 -0.384253 -0.180997 1.0 1.0 0.246654 0.984696 1.0 -0.794743 0.0243263 1.0 0.997611 0.684014 0.549388 -0.400957 -0.264464 1.0 1.0 0.997244 1.0 0.133716 1.0 -0.123623 -0.205118 1.0 -0.796819
quicksort -0.260822 1.0 -0.931353 -0.448495 1.0 -0.990535 1.0 -0.998685 1.0 1.0 -0.886349 -0.553409 1.0 -0.309446 -0.647018 0.280262 0.187201 0.997021 1.0 0.239331 0.35885 1.0 -0.177372 0.258973 0.725858 1.0 -0.514849 -0.907847 0.324008 1.0 1.0 0.998568 0.412073 -0.37488 1.0 -0.909573 -0.372549 -0.187282 -0.527325 -0.0117631 1.0 -0.173781 -0.947172 1.0 1.0 0.354345 -0.465445 1.0 1.0 -0.282204 1.0 1.0 -0.281548 -0.515462 -0.98507 -0.583129 1.0 -0.465492 -0.74877 1.0 0.87998 -0.200883 0.968818 1.0 -0.884938 0.0572958 -0.510023 1.0 0.104611 -0.429268 0.999847 1.0 -0.0932106 1.0 -0.989005 -0.384253 -0.180997 1.0 1.0 0.246654 0.984696 1.0 -0.794743 0.0243263 1.0 0.993218 0.684014 -0.474996 -0.400957 -0.264464 1.0 1.0 0.999373 1.0 0.133716 1.0 -0.123623 -0.205118 1.0 -0.796819
dfs -0.260822 1.0 -0.931353 -0.448495 1.0 0.988512 1.0 -0.998685 1.0 1.0 0.604526 -0.553409 1.0 -0.309446 -0.647018 0.280262 0.187201 0.997021 1.0 0.239331 0.35885 1.0 -0.177372 0.258973 0.725858 1.0 -0.514849 0.875323 0.324008 1.0 1.0 0.998568 0.412073 -0.37488 1.0 0.942544 -0.372549 -0.187282 -0.527325 -0.0117631 1.0 -0.173781 -0.947172 1.0 1.0 0.354345 -0.465445 1.0 1.0 -0.282204 1.0 1.0 -0.281548 0.986525 0.982777 -0.583129 1.0 -0.465492 0.769224 1.0 0.87998 -0.200883 0.98513 1.0 0.946462 0.0572958 -0.510023 1.0 0.104611 -0.429268 -0.616847 1.0 -0.0932106 1.0 0.988286 -0.384253 -0.180997 1.0 1.0 0.246654 0.984696 1.0 -0.794743 0.0243263 1.0 0.997611 0.684014 0.549388 -0.400957 -0.264464 1.0 1.0 0.872958 1.0 0.133716 1.0 -0.123623 -0.205118 1.0 -0.796819
stack -0.260822 1.0 -0.931353 -0.448495 1.0 0.988512 1.0 -0.998685 1.0 1.0 0.604526 -0.553409 1.0 -0.309446 -0.647018 0.280262 0.187201 0.997021 1.0 0.239331 0.35885 1.0 -0.177372 0.258973 0.841781 1.0 -0.514849 0.875323 0.324008 1.0 1.0 0.998568 0.412073 -0.37488 1.0 0.942544 -0.372549 -0.187282 -0.527325 -0.0117631 1.0 -0.173781 -0.947172 1.0 1.0 0.354345 -0.465445 1.0 1.0 -0.282204 1.0 1.0 -0.281548 -0.542393 0.982777 -0.583129 1.0 -0.465492 0.769224 1.0 0.87998 -0.200883 -0.950043 1.0 -0.884938 0.0572958 -0.510023 1.0 0.104611 -0.429268 -0.616847 1.0 -0.0932106 1.0 0.987302 -0.384253 -0.180997 1.0 1.0 0.246654 0.984696 1.0 -0.794743 0.0243263 1.0 0.997611 0.684014 0.549388 -0.400957 -0.264464 1.0 1.0 -0.903135 1.0 0.133716 1.0 -0.123623 -0.205118 1.0 -0.796819
knapsack -0.260822 1.0 -0.931353 -0.448495 1.0 0.63672 1.0 -0.998685 1.0 1.0 0.604526 -0.553409 1.0 -0.309446 -0.647018 0.280262 0.187201 0.997021 1.0 0.239331 0.35885 1.0 -0.177372 0.258973 0.157672 1.0 -0.514849 0.875323 0.324008 1.0 1.0 0.998568 0.412073 -0.37488 1.0 -0.960474 -0.372549 -0.187282 -0.527325 -0.0117631 1.0 -0.173781 -0.947172 1.0 1.0 0.354345 -0.465445 1.0 1.0 -0.282204 1.0 1.0 -0.281548 -0.515462 0.982777 -0.583129 1.0 -0.465492 0.769224 1.0 0.87998 -0.200883 0.968818 1.0 -0.884938 0.0572958 -0.510023 1.0 0.104611 -0.429268 0.193585 1.0 -0.0932106 1.0 -0.980791 -0.384253 -0.180997 1.0 1.0 0.246654 0.984696 1.0 -0.794743 0.0243263 1.0 0.997611 0.684014 0.549388 -0.400957 -0.264464 1.0 1.0 0.988852 1.0 0.133716 1.0 -0.123623 -0.205118 1.0 -0.796819
stack -0.260822 1.0 -0.931353 -0.448495 1.0 0.988512 1.0 -0.998685 1.0 1.0 -0.886349 -0.553409 1.0 -0.309446 -0.647018 0.280262 0.187201 0.997021 1.0 0.239331 0.35885 1.0 -0.177372 0.258973 -0.778213 1.0 -0.514849 -0.907847 0.324008 1.0 1.0 0.998568 0.412073 -0.37488 1.0 0.942544 -0.372549 -0.187282 -0.527325 -0.0117631 1.0 -0.173781 -0.947172 1.0 1.0 0.354345 -0.465445 1.0 1.0 -0.282204 1.0 1.0 -0.281548 -0.770172 -0.98507 -0.583129 1.0 -0.465492 -0.74877 1.0 0.87998 -0.200883 -0.936803 1.0 0.946462 0.0572958 -0.510023 1.0 0.104611 -0.429268 -0.962738 1.0 -0.0932106 1.0 0.987302 -0.384253 -0.180997 1.0 1.0 0.246654 0.776098 1.0 -0.794743 0.0243263 1.0 0.993218 -0.248676 -0.474996 -0.400957 -0.264464 1.0 1.0 -0.903135 1.0 0.133716 1.0 -0.123623 -0.205118 1.0 -0.796819
dfs -0.260822 1.0 -0.931353 -0.448495 1.0 0.988512 1.0 -0.998685 1.0 1.0 0.604526 -0.553409 1.0 -0.309446 -0.647018 0.280262 0.187201 0.997021 1.0 0.239331 0.35885 1.0 -0.177372 0.258973 0.725858 1.0 -0.514849 0.875323 0.324008 1.0 1.0 0.998568 0.412073 -0.37488 1.0 0.942544 -0.372549 -0.187282 -0.527325 -0.0117631 1.0 -0.173781 -0.947172 1.0 1.0 0.354345 -0.465445 1.0 1.0 -0.282204 1.0 1.0 -0.281548 -0.536926 0.982777 -0.583129 1.0 -0.465492 0.769224 1.0 0.87998 -0.200883 0.968818 1.0 -0.916529 0.0572958 -0.510023 1.0 0.104611 -0.429268 -0.616847 1.0 -0.0932106 1.0 0.987302 -0.384253 -0.180997 1.0 1.0 0.246654 -0.878273 1.0 -0.794743 0.0243263 1.0 0.997611 -0.347443 0.549388 -0.400957 -0.264464 1.0 1.0 0.822838 1.0 0.133716 1.0 -0.123623 -0.205118 1.0 -0.796819
dfs -0.260822 1.0 0.839918 -0.448495 1.0 0.988512 1.0 -0.998685 1.0 1.0 0.604526 -0.553409 1.0 -0.309446 0.403666 0.280262 0.187201 0.997021 1.0 0.239331 0.35885 1.0 -0.177372 0.258973 0.725858 1.0 -0.514849 0.875323 0.324008 1.0 1.0 0.998568 0.412073 -0.37488 1.0 0.942544 -0.372549 -0.187282 -0.527325 -0.0117631 1.0 -0.173781 0.941815 1.0 1.0 0.354345 -0.465445 1.0 1.0 -0.282204 1.0 1.0 -0.281548 0.901197 0.982777 -0.583129 1.0 -0.465492 0.769224 1.0 0.87998 -0.200883 0.968818 1.0 -0.916529 0.0572958 -0.510023 1.0 0.104611 -0.429268 -0.616847 1.0 -0.0932106 1.0 0.987302 -0.384253 -0.180997 1.0 1.0 0.246654 -0.878273 1.0 -0.794743 0.0243263 1.0 0.997611 -0.347443 0.796221 -0.400957 -0.14221 1.0 1.0 -0.513519 1.0 0.133716 1.0 -0.123623 -0.205118 1.0 0.363996
quicksort -0.260822 1.0 0.839918 -0.448495 1.0 0.63672 1.0 -0.998685 1.0 1.0 0.604526 -0.553409 1.0 -0.309446 0.403666 0.280262 0.187201 0.997021 1.0 0.239331 0.35885 1.0 -0.177372 0.258973 0.814577 1.0 -0.514849 0.875323 0.324008 1.0 1.0 0.998568 0.412073 -0.37488 1.0 -0.946486 -0.372549 -0.187282 -0.527325 -0.0117631 1.0 -0.173781 0.941815 1.0 1.0 0.354345 -0.465445 1.0 1.0 -0.282204 1.0 1.0 -0.281548 0.901197 0.982777 -0.583129 1.0 -0.465492 0.769224 1.0 0.87998 -0.200883 0.968818 1.0 -0.916529 0.0572958 -0.510023 1.0 0.104611 -0.429268 -0.616847 1.0 -0.0932106 1.0 0.987302 -0.384253 -0.180997 1.0 1.0 0.246654 -0.878273 1.0 -0.794743 0.0243263 1.0 0.997611 -0.347443 0.796221 -0.400957 -0.14221 1.0 1.0 0.839878 1.0 0.133716 1.0 -0.123623 -0.205118 1.0 0.363996
mergesort -0.260822 1.0 0.839918 -0.448495 1.0 0.988512 1.0 -0.998685 1.0 1.0 0.0206417 -0.553409 1.0 -0.309446 0.403666 0.280262 0.187201 0.997021 1.0 0.239331 0.35885 1.0 -0.177372 0.258973 0.725858 1.0 -0.514849 0.816495 0.324008 1.0 1.0 0.998568 0.412073 -0.37488 1.0 0.942544 -0.372549 -0.187282 -0.527325 -0.0117631 1.0 -0.173781 0.941815 1.0 1.0 0.354345 -0.465445 1.0 1.0 -0.282204 1.0 1.0 -0.281548 0.952416 -0.98507 -0.583129 1.0 -0.465492 -0.74877 1.0 0.87998 -0.200883 0.968818 1.0 -0.916529 0.0572958 -0.510023 1.0 0.104611 -0.429268 -0.626397 1.0 -0.0932106 1.0 0.987302 -0.384253 -0.180997 1.0 1.0 0.246654 -0.878273 1.0 -0.794743 0.0243263 1.0 0.993218 -0.347443 0.796221 -0.400957 -0.14221 1.0 1.0 -0.513519 1.0 0.133716 1.0 -0.123623 -0.205118 1.0 0.363996
queue -0.260822 1.0 -0.931353 -0.448495 1.0 -0.992178 1.0 -0.998685 1.0 1.0 -0.886349 -0.553409 1.0 -0.309446 -0.647018 0.280262 0.187201 0.997021 1.0 0.239331 0.35885 1.0 -0.177372 0.258973 0.157672 1.0 -0.514849 -0.907847 0.324008 1.0 1.0 0.998568 0.412073 -0.37488 1.0 0.963153 -0.372549 -0.187282 -0.527325 -0.0117631 1.0 -0.173781 -0.947172 1.0 1.0 0.354345 -0.465445 1.0 1.0 -0.282204 1.0 1.0 -0.281548 -0.509947 -0.98507 -0.583129 1.0 -0.465492 -0.74877 1.0 0.87998 -0.200883 -0.936803 1.0 -0.884938 0.0572958 -0.510023 1.0 0.104611 -0.429268 -0.88106 1.0 -0.0932106 1.0 0.987302 -0.384253 -0.180997 1.0 1.0 0.246654 0.984696 1.0 -0.794743 0.0243263 1.0 0.993218 0.684014 -0.474996 -0.400957 -0.264464 1.0 1.0 0.174671 1.0 0.133716 1.0 -0.123623 -0.205118 1.0 -0.796819
mergesort -0.260822 1.0 -0.282177 -0.448495 1.0 0.988512 1.0 -0.998685 1.0 1.0 0.604526 -0.486254 1.0 -0.309446 -0.12187 0.280262 0.187201 0.997021 1.0 0.239331 0.35885 1.0 -0.177372 0.258973 0.789669 1.0 -0.514849 0.875323 0.324008 1.0 1.0 0.998568 0.412073 -0.37488 1.0 0.942544 -0.372549 -0.187282 -0.527325 -0.0117631 1.0 0.810317 0.0356423 1.0 1.0 0.354345 -0.465445 1.0 1.0 -0.282204 1.0 1.0 0.0109827 0.900237 0.982777 -0.0353528 1.0 -0.465492 0.769224 1.0 0.87998 -0.200883 0.98513 1.0 0.946462 0.0572958 -0.510023 1.0 0.104611 -0.429268 0.193585 1.0 0.77994 1.0 0.987302 -0.384253 -0.180997 1.0 1.0 0.246654 0.984696 1.0 -0.794743 0.0243263 1.0 0.997611 0.684014 0.549388 -0.400957 0.937888 1.0 1.0 0.988852 1.0 0.133716 1.0 -0.123623 -0.205118 1.0 0.848491
linkedlist -0.260822 1.0 0.839918 -0.448495 1.0 0.63672 1.0 -0.998685 1.0 1.0 0.604526 -0.553409 1.0 -0.309446 0.403666 0.280262 0.187201 0.997021 1.0 0.239331 0.35885 1.0 -0.177372 0.258973 0.725858 1.0 -0.514849 0.875323 0.324008 1.0 1.0 0.998568 0.412073 -0.37488 1.0 0.963153 -0.372549 -0.187282 -0.527325 -0.0117631 1.0 -0.173781 0.941815 1.0 1.0 0.354345 -0.465445 1.0 1.0 -0.282204 1.0 1.0 -0.281548 0.901197 0.982777 -0.583129 1.0 -0.465492 0.769224 1.0 0.87998 -0.200883 -0.936803 1.0 -0.884938 0.0572958 -0.510023 1.0 0.104611 -0.429268 0.193585 1.0 -0.0932106 1.0 0.987302 -0.384253 -0.180997 1.0 1.0 0.246654 0.984696 1.0 -0.794743 0.0243263 1.0 0.997611 0.684014 0.796221 -0.400957 -0.14221 1.0 1.0 0.988852 1.0 0.133716 1.0 -0.123623 -0.205118 1.0 0.363996
stack -0.260822 1.0 -0.931353 -0.448495 1.0 0.63672 1.0 -0.998685 1.0 1.0 -0.886349 -0.553409 1.0 -0.309446 -0.647018 0.280262 0.187201 0.997021 1.0 0.239331 0.35885 1.0 -0.177372 0.258973 0.725858 1.0 -0.514849 -0.907847 0.324008 1.0 1.0 0.998568 0.412073 -0.37488 1.0 0.588131 -0.372549 -0.187282 -0.527325 -0.0117631 1.0 -0.173781 -0.947172 1.0 1.0 0.354345 -0.465445 1.0 1.0 -0.282204 1.0 1.0 -0.281548 0.957388 -0.98507 -0.583129 1.0 -0.465492 -0.74877 1.0 0.87998 -0.200883 0.968818 1.0 -0.884938 0.0572958 -0.510023 1.0 0.104611 -0.429268 -0.626397 1.0 -0.0932106 1.0 0.980932 -0.384253 -0.180997 1.0 1.0 0.246654 0.984696 1.0 -0.794743 0.0243263 1.0 0.993218 0.684014 -0.474996 -0.400957 -0.264464 1.0 1.0 -0.80977 1.0 0.133716 1.0 -0.123623 -0.205118 1.0 -0.796819
bfs -0.260822 1.0 -0.931353 -0.448495 1.0 0.63672 1.0 -0.998685 1.0 1.0 0.604526 -0.553409 1.0 -0.309446 -0.647018 0.280262 0.187201 0.997021 1.0 0.239331 0.35885 1.0 -0.177372 0.258973 0.725858 1.0 -0.514849 0.875323 0.324008 1.0 1.0 0.998568 0.412073 -0.37488 1.0 -0.960474 -0.372549 -0.187282 -0.527325 -0.0117631 1.0 -0.173781 -0.947172 1.0 1.0 0.354345 -0.465445 1.0 1.0 -0.282204 1.0 1.0 -0.281548 0.900237 0.982777 -0.583129 1.0 -0.465492 0.769224 1.0 0.87998 -0.200883 0.968818 1.0 -0.884938 0.0572958 -0.510023 1.0 0.104611 -0.429268 0.193585 1.0 -0.0932106 1.0 0.987302 -0.384253 -0.180997 1.0 1.0 0.246654 0.984696 1.0 -0.794743 0.0243263 1.0 0.997611 0.684014 0.549388 -0.400957 -0.264464 1.0 1.0 0.988852 1.0 0.133716 1.0 -0.123623 -0.205118 1.0 -0.796819
stack -0.260822 1.0 -0.931353 -0.448495 1.0 0.63672 1.0 -0.998685 1.0 1.0 0.604526 -0.553409 1.0 -0.309446 -0.647018 0.280262 0.187201 0.997021 1.0 0.239331 0.35885 1.0 -0.177372 0.258973 0.895022 1.0 -0.514849 0.875323 0.324008 1.0 1.0 0.998568 0.412073 -0.37488 1.0 -0.960474 -0.372549 -0.187282 -0.527325 -0.0117631 1.0 -0.173781 -0.947172 1.0 1.0 0.354345 -0.465445 1.0 1.0 -0.282204 1.0 1.0 -0.281548 -0.515462 0.982777 -0.583129 1.0 -0.465492 0.769224 1.0 0.87998 -0.200883 -0.936803 1.0 -0.884938 0.0572958 -0.510023 1.0 0.104611 -0.429268 -0.616847 1.0 -0.0932106 1.0 0.988286 -0.384253 -0.180997 1.0 1.0 0.246654 0.984696 1.0 -0.794743 0.0243263 1.0 0.997611 0.684014 0.549388 -0.400957 -0.264464 1.0 1.0 0.174671 1.0 0.133716 1.0 -0.123623 -0.205118 1.0 -0.796819
linkedlist -0.260822 1.0 0.839918 -0.448495 1.0 0.815261 1.0 -0.998685 1.0 1.0 0.604526 -0.553409 1.0 -0.309446 0.403666 0.280262 0.187201 0.997021 1.0 0.239331 0.35885 1.0 -0.177372 0.258973 0.725858 1.0 -0.514849 0.875323 0.324008 1.0 1.0 0.998568 0.412073 -0.37488 1.0 -0.960474 -0.372549 -0.187282 -0.527325 -0.0117631 1.0 -0.173781 0.941815 1.0 1.0 0.354345 -0.465445 1.0 1.0 -0.282204 1.0 1.0 -0.281548 -0.469116 0.982777 -0.583129 1.0 -0.465492 0.769224 1.0 0.87998 -0.200883 -0.936803 1.0 -0.864847 0.0572958 -0.510023 1.0 0.104611 -0.429268 -0.616847 1.0 -0.0932106 1.0 -0.980791 -0.384253 -0.180997 1.0 1.0 0.246654 -0.837676 1.0 -0.794743 0.0243263 1.0 0.997611 -0.337051 0.796221 -0.400957 -0.14221 1.0 1.0 0.174671 1.0 0.133716 1.0 -0.123623 -0.205118 1.0 0.363996
linkedlist -0.260822 1.0 -0.931353 -0.448495 1.0 0.988512 1.0 -0.998685 1.0 1.0 0.604526 -0.553409 1.0 -0.309446 -0.647018 0.280262 0.187201 0.997021 1.0 0.239331 0.35885 1.0 -0.177372 0.258973 0.841781 1.0 -0.514849 0.875323 0.324008 1.0 1.0 0.998568 0.412073 -0.37488 1.0 0.942544 -0.372549 -0.187282 -0.527325 -0.0117631 1.0 -0.173781 -0.947172 1.0 1.0 0.354345 -0.465445 1.0 1.0 -0.282204 1.0 1.0 -0.281548 0.986525 0.982777 -0.583129 1.0 -0.465492 0.769224 1.0 0.87998 -0.200883 -0.942747 1.0 0.946462 0.0572958 -0.510023 1.0 0.104611 -0.429268 0.193585 1.0 -0.0932106 1.0 0.988286 -0.384253 -0.180997 1.0 1.0 0.246654 0.984696 1.0 -0.794743 0.0243263 1.0 0.997611 0.684014 0.549388 -0.400957 -0.264464 1.0 1.0 0.988852 1.0 0.133716 1.0 -0.123623 -0.205118 1.0 -0.796819
bfs -0.260822 1.0 0.839918 -0.448495 1.0 0.988512 1.0 -0.998685 1.0 1.0 0.604526 -0.553409 1.0 -0.309446 0.403666 0.280262 0.187201 0.997021 1.0 0.239331 0.35885 1.0 -0.177372 0.258973 0.814577 1.0 -0.514849 0.875323 0.324008 1.0 1.0 0.998568 0.412073 -0.37488 1.0 0.963153 -0.372549 -0.187282 -0.527325 -0.0117631 1.0 -0.173781 0.941815 1.0 1.0 0.354345 -0.465445 1.0 1.0 -0.282204 1.0 1.0 -0.281548 0.900237 0.982777 -0.583129 1.0 -0.465492 0.769224 1.0 0.87998 -0.200883 0.98513 1.0 0.946462 0.0572958 -0.510023 1.0 0.104611 -0.429268 -0.616847 1.0 -0.0932106 1.0 0.987302 -0.384253 -0.180997 1.0 1.0 0.246654 0.776098 1.0 -0.794743 0.0243263 1.0 0.997611 -0.248676 0.796221 -0.400957 -0.14221 1.0 1.0 0.822838 1.0 0.133716 1.0 -0.123623 -0.205118 1.0 0.363996
quicksort -0.260822 1.0 0.839918 -0.448495 1.0 0.988512 1.0 -0.998685 1.0 1.0 0.604526 -0.553409 1.0 -0.309446 0.403666 0.280262 0.187201 0.997021 1.0 0.239331 0.35885 1.0 -0.177372 0.258973 0.725858 1.0 -0.514849 0.875323 0.324008 1.0 1.0 0.998568 0.412073 -0.37488 1.0 0.942544 -0.372549 -0.187282 -0.527325 -0.0117631 1.0 -0.173781 0.941815 1.0 1.0 0.354345 -0.465445 1.0 1.0 -0.282204 1.0 1.0 -0.281548 0.900237 0.982777 -0.583129 1.0 -0.465492 0.769224 1.0 0.87998 -0.200883 0.98513 1.0 0.946462 0.0572958 -0.510023 1.0 0.104611 -0.429268 0.999847 1.0 -0.0932106 1.0 0.987302 -0.384253 -0.180997 1.0 1.0 0.246654 0.984696 1.0 -0.794743 0.0243263 1.0 0.997611 0.684014 0.796221 -0.400957 -0.14221 1.0 1.0 0.999373 1.0 0.133716 1.0 -0.123623 -0.205118 1.0 0.363996
linkedlist -0.260822 1.0 -0.931353 -0.448495 1.0 0.63672 1.0 -0.998685 1.0 1.0 0.604526 -0.553409 1.0 -0.309446 -0.647018 0.280262 0.187201 0.997021 1.0 0.239331 0.35885 1.0 -0.177372 0.258973 0.894063 1.0 -0.514849 0.875323 0.324008 1.0 1.0 0.998568 0.412073 -0.37488 1.0 0.963153 -0.372549 -0.187282 -0.527325 -0.0117631 1.0 -0.173781 -0.947172 1.0 1.0 0.354345 -0.465445 1.0 1.0 -0.282204 1.0 1.0 -0.281548 0.957388 0.982777 -0.583129 1.0 -0.465492 0.769224 1.0 0.87998 -0.200883 -0.936803 1.0 0.946462 0.0572958 -0.510023 1.0 0.104611 -0.429268 0.012838 1.0 -0.0932106 1.0 0.987302 -0.384253 -0.180997 1.0 1.0 0.246654 0.984696 1.0 -0.794743 0.0243263 1.0 0.997611 0.684014 0.549388 -0.400957 -0.264464 1.0 1.0 0.174671 1.0 0.133716 1.0 -0.123623 -0.205118 1.0 -0.796819
