bfs 4.70631 7.04968 16.0023 -0.0505267 3.90473 3.68335 -0.0522162 0.314178 -0.0157123 -0.151722
bfs 1.9602 3.24324 12.8189 -0.0604922 -0.0590825 6.16011 2.73995 2.95562 -0.0347982 -0.1053
bfs -0.256314 1.00085 14.0061 -0.0320594 7.14783 -0.0214184 -0.0242681 8.13393 4.186 -0.0681611
bfs -0.0925526 -0.018962 10.8983 -0.0207246 2.61328 -0.0562823 2.48664 4.34698 2.4752 -0.0889281
bfs -0.0119557 1.60421 10.7758 -0.0994517 1.57467 -0.00262963 -0.00917043 -0.0148644 0.75547 -0.0660394
bfs -0.0222041 5.97311 11.1856 -0.0482661 1.70109 4.04198 -0.0832957 0.84112 4.87234 -0.114953
bfs -0.0925526 -0.018962 10.8983 -0.0207246 2.61328 -0.0562823 2.48664 4.34698 2.4752 -0.0889281
bfs 1.9602 3.24324 12.8189 -0.0604922 -0.0590825 6.16011 2.73995 2.95562 -0.0347982 -0.1053
bfs 4.70631 7.04968 16.0023 -0.0505267 3.90473 3.68335 -0.0522162 0.314178 -0.0157123 -0.151722
bfs -0.0119557 1.60421 10.7758 -0.0994517 1.57467 -0.00262963 -0.00917043 -0.0148644 0.75547 -0.0660394
bfs -0.0755413 -0.0223321 7.32051 -0.0345263 -0.0520429 -0.0822195 -0.00902085 -0.072187 3.23181 -0.0558976
bfs 0.196157 3.4261 10.8069 -0.0181835 2.67553 -0.00246004 0.855433 -0.044483 0.81384 -0.0674738
bfs -0.0949466 3.51186 9.07845 1.3338 1.23159 -0.066262 -0.00781632 3.75961 -0.0178902 -0.0329053
bfs -0.133922 -0.0136371 10.7077 -0.0691885 -0.00186509 -0.0350022 4.44199 2.82644 3.22596 -0.0524555
bfs -0.0222041 5.97311 11.1856 -0.0482661 1.70109 4.04198 -0.0832957 0.84112 4.87234 -0.114953
bfs -0.133922 -0.0136371 10.7077 -0.0691885 -0.00186509 -0.0350022 4.44199 2.82644 3.22596 -0.0524555
bfs -0.109268 4.95219 10.6628 -0.00937398 -0.0745377 -0.0327868 0.206869 1.06715 2.69938 -0.0824994
bfs -0.0755413 -0.0223321 7.32051 -0.0345263 -0.0520429 -0.0822195 -0.00902085 -0.072187 3.23181 -0.0558976
bfs -0.0615134 -0.0342189 9.70709 -0.0349965 -0.0396842 -0.0201329 -0.00903767 -0.0639743 -0.0134147 0.116588
bfs 0.196157 3.4261 10.8069 -0.0181835 2.67553 -0.00246004 0.855433 -0.044483 0.81384 -0.0674738
bfs 4.70631 7.04968 16.0023 -0.0505267 3.90473 3.68335 -0.0522162 0.314178 -0.0157123 -0.151722
bfs -0.0925526 -0.018962 10.8983 -0.0207246 2.61328 -0.0562823 2.48664 4.34698 2.4752 -0.0889281
bfs -0.133922 -0.0136371 10.7077 -0.0691885 -0.00186509 -0.0350022 4.44199 2.82644 3.22596 -0.0524555
bfs -0.0161964 -0.0886941 9.29034 -0.0739549 -0.0034713 2.49238 -0.0764721 2.24168 -0.0211499 -0.0996327
bfs -0.0222041 5.97311 11.1856 -0.0482661 1.70109 4.04198 -0.0832957 0.84112 4.87234 -0.114953
bfs -0.0755413 -0.0223321 7.32051 -0.0345263 -0.0520429 -0.0822195 -0.00902085 -0.072187 3.23181 -0.0558976
bfs -0.0615134 -0.0342189 9.70709 -0.0349965 -0.0396842 -0.0201329 -0.00903767 -0.0639743 -0.0134147 0.116588
bfs -0.0925526 -0.018962 10.8983 -0.0207246 2.61328 -0.0562823 2.48664 4.34698 2.4752 -0.0889281
bfs -0.0222041 5.97311 11.1856 -0.0482661 1.70109 4.04198 -0.0832957 0.84112 4.87234 -0.114953
bfs 0.196157 3.4261 10.8069 -0.0181835 2.67553 -0.00246004 0.855433 -0.044483 0.81384 -0.0674738
bfs -0.0949466 3.51186 9.07845 1.3338 1.23159 -0.066262 -0.00781632 3.75961 -0.0178902 -0.0329053
bfs -0.256314 1.00085 14.0061 -0.0320594 7.14783 -0.0214184 -0.0242681 8.13393 4.186 -0.0681611
bfs 1.9602 3.24324 12.8189 -0.0604922 -0.0590825 6.16011 2.73995 2.95562 -0.0347982 -0.1053
bfs -0.0949466 3.51186 9.07845 1.3338 1.23159 -0.066262 -0.00781632 3.75961 -0.0178902 -0.0329053
bfs 4.70631 7.04968 16.0023 -0.0505267 3.90473 3.68335 -0.0522162 0.314178 -0.0157123 -0.151722
bfs -0.109268 4.95219 10.6628 -0.00937398 -0.0745377 -0.0327868 0.206869 1.06715 2.69938 -0.0824994
bfs -0.0949466 3.51186 9.07845 1.3338 1.23159 -0.066262 -0.00781632 3.75961 -0.0178902 -0.0329053
bfs -0.109268 4.95219 10.6628 -0.00937398 -0.0745377 -0.0327868 0.206869 1.06715 2.69938 -0.0824994
bfs -0.109268 4.95219 10.6628 -0.00937398 -0.0745377 -0.0327868 0.206869 1.06715 2.69938 -0.0824994
bfs -0.0119557 1.60421 10.7758 -0.0994517 1.57467 -0.00262963 -0.00917043 -0.0148644 0.75547 -0.0660394
bfs 0.196157 3.4261 10.8069 -0.0181835 2.67553 -0.00246004 0.855433 -0.044483 0.81384 -0.0674738
bfs -0.133922 -0.0136371 10.7077 -0.0691885 -0.00186509 -0.0350022 4.44199 2.82644 3.22596 -0.0524555
bfs 0.196157 3.4261 10.8069 -0.0181835 2.67553 -0.00246004 0.855433 -0.044483 0.81384 -0.0674738
bfs -0.0161964 -0.0886941 9.29034 -0.0739549 -0.0034713 2.49238 -0.0764721 2.24168 -0.0211499 -0.0996327
bfs -0.256314 1.00085 14.0061 -0.0320594 7.14783 -0.0214184 -0.0242681 8.13393 4.186 -0.0681611
bfs -0.0755413 -0.0223321 7.32051 -0.0345263 -0.0520429 -0.0822195 -0.00902085 -0.072187 3.23181 -0.0558976
bfs -0.0119557 1.60421 10.7758 -0.0994517 1.57467 -0.00262963 -0.00917043 -0.0148644 0.75547 -0.0660394
bfs -0.256314 1.00085 14.0061 -0.0320594 7.14783 -0.0214184 -0.0242681 8.13393 4.186 -0.0681611
bfs -0.0925526 -0.018962 10.8983 -0.0207246 2.61328 -0.0562823 2.48664 4.34698 2.4752 -0.0889281
bfs -0.0755413 -0.0223321 7.32051 -0.0345263 -0.0520429 -0.0822195 -0.00902085 -0.072187 3.23181 -0.0558976
bfs 1.9602 3.24324 12.8189 -0.0604922 -0.0590825 6.16011 2.73995 2.95562 -0.0347982 -0.1053
bfs 1.9602 3.24324 12.8189 -0.0604922 -0.0590825 6.16011 2.73995 2.95562 -0.0347982 -0.1053
bfs -0.0119557 1.60421 10.7758 -0.0994517 1.57467 -0.00262963 -0.00917043 -0.0148644 0.75547 -0.0660394
bfs -0.0744987 -0.0120159 -0.020269 8.60896 -0.0362689 -0.0308952 2.97657 2.67492 -0.0606254 0.705842
bfs -0.133529 -0.0802331 9.21083 -0.0562257 -0.0455144 -0.0352601 -0.0286195 6.72077 5.32105 -0.0634327
bfs 4.70631 7.04968 16.0023 -0.0505267 3.90473 3.68335 -0.0522162 0.314178 -0.0157123 -0.151722
bfs -0.0925526 -0.018962 10.8983 -0.0207246 2.61328 -0.0562823 2.48664 4.34698 2.4752 -0.0889281
bfs -0.0949466 3.51186 9.07845 1.3338 1.23159 -0.066262 -0.00781632 3.75961 -0.0178902 -0.0329053
bfs -0.0615134 -0.0342189 9.70709 -0.0349965 -0.0396842 -0.0201329 -0.00903767 -0.0639743 -0.0134147 0.116588
bfs -0.0755413 -0.0223321 7.32051 -0.0345263 -0.0520429 -0.0822195 -0.00902085 -0.072187 3.23181 -0.0558976
bfs -0.256314 1.00085 14.0061 -0.0320594 7.14783 -0.0214184 -0.0242681 8.13393 4.186 -0.0681611
bfs -0.0222041 5.97311 11.1856 -0.0482661 1.70109 4.04198 -0.0832957 0.84112 4.87234 -0.114953
bfs -0.0222041 5.97311 11.1856 -0.0482661 1.70109 4.04198 -0.0832957 0.84112 4.87234 -0.114953
bfs 4.70631 7.04968 16.0023 -0.0505267 3.90473 3.68335 -0.0522162 0.314178 -0.0157123 -0.151722
bfs -0.0755413 -0.0223321 7.32051 -0.0345263 -0.0520429 -0.0822195 -0.00902085 -0.072187 3.23181 -0.0558976
bfs -0.0755413 -0.0223321 7.32051 -0.0345263 -0.0520429 -0.0822195 -0.00902085 -0.072187 3.23181 -0.0558976
bfs 0.196157 3.4261 10.8069 -0.0181835 2.67553 -0.00246004 0.855433 -0.044483 0.81384 -0.0674738
bfs 1.9602 3.24324 12.8189 -0.0604922 -0.0590825 6.16011 2.73995 2.95562 -0.0347982 -0.1053
bfs -0.0119557 1.60421 10.7758 -0.0994517 1.57467 -0.00262963 -0.00917043 -0.0148644 0.75547 -0.0660394
bfs -0.0949466 3.51186 9.07845 1.3338 1.23159 -0.066262 -0.00781632 3.75961 -0.0178902 -0.0329053
bfs -0.133922 -0.0136371 10.7077 -0.0691885 -0.00186509 -0.0350022 4.44199 2.82644 3.22596 -0.0524555
dfs 2.09355 -0.120289 5.06502 3.77825 -0.0832623 10.7714 2.26827 -0.0210166 3.04882 -0.192441
dfs -0.0586014 -0.0729905 -0.0174329 3.24839 -0.0289107 8.40871 1.19509 4.32197 0.742623 -0.110686
dfs -0.09445 -0.00968987 -0.00294031 -0.0229984 -0.0228206 -0.0510467 -0.0204906 -0.00274781 -0.0174711 -0.026422
dfs -0.101628 0.911429 5.0902 -0.00410885 -0.022641 10.4008 -0.0602434 5.16593 4.72242 -0.126109
dfs -0.101628 0.911429 5.0902 -0.00410885 -0.022641 10.4008 -0.0602434 5.16593 4.72242 -0.126109
dfs -0.101628 0.911429 5.0902 -0.00410885 -0.022641 10.4008 -0.0602434 5.16593 4.72242 -0.126109
dfs 2.09355 -0.120289 5.06502 3.77825 -0.0832623 10.7714 2.26827 -0.0210166 3.04882 -0.192441
dfs -0.000912442 -0.082261 -0.0550424 6.80699 -0.102701 5.95672 3.48898 -0.0120654 2.41822 -0.110282
dfs -0.0403523 -0.0702672 0.685501 -0.0158604 1.24512 7.32256 2.66504 3.26494 -0.142286 -0.0145055
dfs -0.101628 0.911429 5.0902 -0.00410885 -0.022641 10.4008 -0.0602434 5.16593 4.72242 -0.126109
dfs 1.61332 0.257675 2.05376 -0.00532332 -0.0264605 6.43528 0.847948 -0.0430469 2.72741 -0.206961
dfs -0.101628 0.911429 5.0902 -0.00410885 -0.022641 10.4008 -0.0602434 5.16593 4.72242 -0.126109
dfs -0.101628 0.911429 5.0902 -0.00410885 -0.022641 10.4008 -0.0602434 5.16593 4.72242 -0.126109
dfs -0.101628 0.911429 5.0902 -0.00410885 -0.022641 10.4008 -0.0602434 5.16593 4.72242 -0.126109
dfs 1.61332 0.257675 2.05376 -0.00532332 -0.0264605 6.43528 0.847948 -0.0430469 2.72741 -0.206961
dfs -0.0845666 -0.111642 1.0267 -0.0575599 -0.0500414 6.34491 -0.0256514 -0.0117262 -0.00149689 -0.0920661
dfs -0.101628 0.911429 5.0902 -0.00410885 -0.022641 10.4008 -0.0602434 5.16593 4.72242 -0.126109
dfs -0.101628 0.911429 5.0902 -0.00410885 -0.022641 10.4008 -0.0602434 5.16593 4.72242 -0.126109
dfs -0.101628 0.911429 5.0902 -0.00410885 -0.022641 10.4008 -0.0602434 5.16593 4.72242 -0.126109
dfs -0.101628 0.911429 5.0902 -0.00410885 -0.022641 10.4008 -0.0602434 5.16593 4.72242 -0.126109
dfs -0.0845666 -0.111642 1.0267 -0.0575599 -0.0500414 6.34491 -0.0256514 -0.0117262 -0.00149689 -0.0920661
dfs -0.101628 0.911429 5.0902 -0.00410885 -0.022641 10.4008 -0.0602434 5.16593 4.72242 -0.126109
dfs 1.61332 0.257675 2.05376 -0.00532332 -0.0264605 6.43528 0.847948 -0.0430469 2.72741 -0.206961
dfs 2.09355 -0.120289 5.06502 3.77825 -0.0832623 10.7714 2.26827 -0.0210166 3.04882 -0.192441
dfs -0.09445 -0.00968987 -0.00294031 -0.0229984 -0.0228206 -0.0510467 -0.0204906 -0.00274781 -0.0174711 -0.026422
dfs -0.0845666 -0.111642 1.0267 -0.0575599 -0.0500414 6.34491 -0.0256514 -0.0117262 -0.00149689 -0.0920661
dfs 2.09355 -0.120289 5.06502 3.77825 -0.0832623 10.7714 2.26827 -0.0210166 3.04882 -0.192441
dfs -0.0845666 -0.111642 1.0267 -0.0575599 -0.0500414 6.34491 -0.0256514 -0.0117262 -0.00149689 -0.0920661
dfs -0.101628 0.911429 5.0902 -0.00410885 -0.022641 10.4008 -0.0602434 5.16593 4.72242 -0.126109
dfs -0.0586014 -0.0729905 -0.0174329 3.24839 -0.0289107 8.40871 1.19509 4.32197 0.742623 -0.110686
dfs -0.0403523 -0.0702672 0.685501 -0.0158604 1.24512 7.32256 2.66504 3.26494 -0.142286 -0.0145055
dfs -0.09445 -0.00968987 -0.00294031 -0.0229984 -0.0228206 -0.0510467 -0.0204906 -0.00274781 -0.0174711 -0.026422
dfs -0.0845666 -0.111642 1.0267 -0.0575599 -0.0500414 6.34491 -0.0256514 -0.0117262 -0.00149689 -0.0920661
dfs -0.101628 0.911429 5.0902 -0.00410885 -0.022641 10.4008 -0.0602434 5.16593 4.72242 -0.126109
dfs -0.09445 -0.00968987 -0.00294031 -0.0229984 -0.0228206 -0.0510467 -0.0204906 -0.00274781 -0.0174711 -0.026422
dfs -0.0403523 -0.0702672 0.685501 -0.0158604 1.24512 7.32256 2.66504 3.26494 -0.142286 -0.0145055
dfs -0.0845666 -0.111642 1.0267 -0.0575599 -0.0500414 6.34491 -0.0256514 -0.0117262 -0.00149689 -0.0920661
dfs -0.0586014 -0.0729905 -0.0174329 3.24839 -0.0289107 8.40871 1.19509 4.32197 0.742623 -0.110686
dfs -0.101628 0.911429 5.0902 -0.00410885 -0.022641 10.4008 -0.0602434 5.16593 4.72242 -0.126109
dfs -0.0586014 -0.0729905 -0.0174329 3.24839 -0.0289107 8.40871 1.19509 4.32197 0.742623 -0.110686
dfs 2.09355 -0.120289 5.06502 3.77825 -0.0832623 10.7714 2.26827 -0.0210166 3.04882 -0.192441
dfs -0.101628 0.911429 5.0902 -0.00410885 -0.022641 10.4008 -0.0602434 5.16593 4.72242 -0.126109
dfs 2.09355 -0.120289 5.06502 3.77825 -0.0832623 10.7714 2.26827 -0.0210166 3.04882 -0.192441
quicksort -0.0723602 -0.0624767 -0.0228805 12.4598 1.74924 -0.0751065 0.391743 0.84181 3.08914 -0.0496562
quicksort -0.0970204 -0.058513 1.30511 0.838394 1.66702 -0.0360534 -0.0137153 4.04077 -0.00579238 -0.0630751
quicksort 1.75526 -0.0154881 1.49965 9.62108 -0.0210859 -0.010963 -0.0660666 5.647 2.59053 -0.0922161
quicksort -0.0712996 -0.13862 -0.0221813 15.6722 -0.0653252 -0.00450547 4.66011 -0.0163561 1.82304 -0.190433
quicksort 1.75526 -0.0154881 1.49965 9.62108 -0.0210859 -0.010963 -0.0660666 5.647 2.59053 -0.0922161
quicksort -0.048229 -0.0182557 -0.0433123 12.2674 4.15389 0.193048 3.36351 2.71599 -0.0242886 -0.065375
quicksort 5.72692 -0.0202194 -0.0182413 12.2425 0.362932 4.52887 3.03457 4.83289 2.35458 -0.1118
quicksort 1.75526 -0.0154881 1.49965 9.62108 -0.0210859 -0.010963 -0.0660666 5.647 2.59053 -0.0922161
quicksort 2.06701 -0.0576995 1.29236 15.4815 -0.0310864 1.28979 3.49436 5.97032 0.530558 -0.123601
quicksort -0.0926876 -0.0614665 -0.0711644 18.596 -0.0839807 -0.0446051 1.2182 1.5245 -0.00253216 -0.0962454
quicksort 1.42518 -0.047095 -0.0250053 14.1092 -0.0268738 0.352849 4.08479 -0.0102523 -0.0296685 -0.0959221
quicksort 1.42518 -0.047095 -0.0250053 14.1092 -0.0268738 0.352849 4.08479 -0.0102523 -0.0296685 -0.0959221
quicksort -0.0463714 -0.077171 -0.01698 11.7327 -0.0526179 -0.0282125 4.45177 -0.00425093 -0.00815071 -0.0751799
quicksort -0.0617457 -0.0686551 -0.0190512 11.6291 -0.121202 -0.0601747 0.365297 -0.0351125 -0.00750009 2.54985
quicksort -0.0465849 -0.0257926 -0.0308745 18.9566 -0.0514525 -0.0233174 -0.0297477 5.59605 -0.00399847 -0.0574851
quicksort 5.72692 -0.0202194 -0.0182413 12.2425 0.362932 4.52887 3.03457 4.83289 2.35458 -0.1118
quicksort -0.0207315 -0.0605863 2.49649 14.1548 -0.0663878 -0.0120747 -0.027595 4.18429 5.75675 -0.124998
quicksort -0.0917815 -0.138106 -0.0205534 9.86716 -0.0623152 -0.00254731 2.60478 1.21929 -0.0053597 -0.0732054
quicksort -0.0635711 -0.0818327 -0.00648821 16.5811 -0.0329183 -0.0139054 -0.00427993 -0.00604157 -0.0367785 -0.0698982
quicksort -0.0617457 -0.0686551 -0.0190512 11.6291 -0.121202 -0.0601747 0.365297 -0.0351125 -0.00750009 2.54985
quicksort -0.0635711 -0.0818327 -0.00648821 16.5811 -0.0329183 -0.0139054 -0.00427993 -0.00604157 -0.0367785 -0.0698982
quicksort -0.00478533 -0.115936 -0.0726124 12.4539 0.390216 0.993906 3.43027 0.374552 -0.117187 -0.0717695
quicksort -0.0207315 -0.0605863 2.49649 14.1548 -0.0663878 -0.0120747 -0.027595 4.18429 5.75675 -0.124998
quicksort -0.105414 -0.117538 -0.0089043 9.38629 -0.129069 -0.0514089 7.76829 1.4899 7.78694 -0.0384429
quicksort -0.0463714 -0.077171 -0.01698 11.7327 -0.0526179 -0.0282125 4.45177 -0.00425093 -0.00815071 -0.0751799
quicksort -0.00478533 -0.115936 -0.0726124 12.4539 0.390216 0.993906 3.43027 0.374552 -0.117187 -0.0717695
quicksort -0.00478533 -0.115936 -0.0726124 12.4539 0.390216 0.993906 3.43027 0.374552 -0.117187 -0.0717695
quicksort -0.0617457 -0.0686551 -0.0190512 11.6291 -0.121202 -0.0601747 0.365297 -0.0351125 -0.00750009 2.54985
quicksort 2.46322 2.33213 3.69189 12.9003 -0.0548769 -0.0498448 -0.0520696 -0.0414508 -0.0102608 -0.125281
quicksort -0.0463714 -0.077171 -0.01698 11.7327 -0.0526179 -0.0282125 4.45177 -0.00425093 -0.00815071 -0.0751799
quicksort -0.0917815 -0.138106 -0.0205534 9.86716 -0.0623152 -0.00254731 2.60478 1.21929 -0.0053597 -0.0732054
quicksort -0.00478533 -0.115936 -0.0726124 12.4539 0.390216 0.993906 3.43027 0.374552 -0.117187 -0.0717695
quicksort -0.0463714 -0.077171 -0.01698 11.7327 -0.0526179 -0.0282125 4.45177 -0.00425093 -0.00815071 -0.0751799
quicksort -0.0617457 -0.0686551 -0.0190512 11.6291 -0.121202 -0.0601747 0.365297 -0.0351125 -0.00750009 2.54985
quicksort -0.0207315 -0.0605863 2.49649 14.1548 -0.0663878 -0.0120747 -0.027595 4.18429 5.75675 -0.124998
quicksort -0.0723602 -0.0624767 -0.0228805 12.4598 1.74924 -0.0751065 0.391743 0.84181 3.08914 -0.0496562
quicksort -0.00478533 -0.115936 -0.0726124 12.4539 0.390216 0.993906 3.43027 0.374552 -0.117187 -0.0717695
quicksort 2.06701 -0.0576995 1.29236 15.4815 -0.0310864 1.28979 3.49436 5.97032 0.530558 -0.123601
quicksort -0.14017 -0.13873 -0.0419944 11.6077 -0.0190343 2.492 5.93536 2.74804 -0.0412228 -0.0805786
quicksort -0.0723602 -0.0624767 -0.0228805 12.4598 1.74924 -0.0751065 0.391743 0.84181 3.08914 -0.0496562
quicksort -0.14017 -0.13873 -0.0419944 11.6077 -0.0190343 2.492 5.93536 2.74804 -0.0412228 -0.0805786
quicksort 1.42518 -0.047095 -0.0250053 14.1092 -0.0268738 0.352849 4.08479 -0.0102523 -0.0296685 -0.0959221
quicksort -0.0200697 -0.10482 -0.0469437 11.623 -0.0937555 2.14344 4.50233 -0.00286842 3.18124 -0.140589
quicksort -0.0917815 -0.138106 -0.0205534 9.86716 -0.0623152 -0.00254731 2.60478 1.21929 -0.0053597 -0.0732054
quicksort -0.0917815 -0.138106 -0.0205534 9.86716 -0.0623152 -0.00254731 2.60478 1.21929 -0.0053597 -0.0732054
quicksort -0.14017 -0.13873 -0.0419944 11.6077 -0.0190343 2.492 5.93536 2.74804 -0.0412228 -0.0805786
quicksort -0.0207315 -0.0605863 2.49649 14.1548 -0.0663878 -0.0120747 -0.027595 4.18429 5.75675 -0.124998
quicksort -0.00478533 -0.115936 -0.0726124 12.4539 0.390216 0.993906 3.43027 0.374552 -0.117187 -0.0717695
quicksort -0.048229 -0.0182557 -0.0433123 12.2674 4.15389 0.193048 3.36351 2.71599 -0.0242886 -0.065375
quicksort -0.0207315 -0.0605863 2.49649 14.1548 -0.0663878 -0.0120747 -0.027595 4.18429 5.75675 -0.124998
quicksort 2.06701 -0.0576995 1.29236 15.4815 -0.0310864 1.28979 3.49436 5.97032 0.530558 -0.123601
quicksort -0.0723602 -0.0624767 -0.0228805 12.4598 1.74924 -0.0751065 0.391743 0.84181 3.08914 -0.0496562
quicksort 1.75526 -0.0154881 1.49965 9.62108 -0.0210859 -0.010963 -0.0660666 5.647 2.59053 -0.0922161
quicksort -0.0387511 -0.0937255 -0.00174209 15.5787 -0.0511386 -0.00495514 2.03682 1.52402 7.33133 -0.0761663
quicksort 2.06701 -0.0576995 1.29236 15.4815 -0.0310864 1.28979 3.49436 5.97032 0.530558 -0.123601
quicksort -0.14017 -0.13873 -0.0419944 11.6077 -0.0190343 2.492 5.93536 2.74804 -0.0412228 -0.0805786
quicksort -0.0617457 -0.0686551 -0.0190512 11.6291 -0.121202 -0.0601747 0.365297 -0.0351125 -0.00750009 2.54985
quicksort -0.0554706 -0.065743 -0.00797137 15.7496 -0.0909418 -0.0353323 1.10016 1.90784 2.71205 -0.0616851
quicksort -0.0465849 -0.0257926 -0.0308745 18.9566 -0.0514525 -0.0233174 -0.0297477 5.59605 -0.00399847 -0.0574851
quicksort -0.0723602 -0.0624767 -0.0228805 12.4598 1.74924 -0.0751065 0.391743 0.84181 3.08914 -0.0496562
quicksort -0.0554706 -0.065743 -0.00797137 15.7496 -0.0909418 -0.0353323 1.10016 1.90784 2.71205 -0.0616851
quicksort -0.0554706 -0.065743 -0.00797137 15.7496 -0.0909418 -0.0353323 1.10016 1.90784 2.71205 -0.0616851
quicksort -0.0465849 -0.0257926 -0.0308745 18.9566 -0.0514525 -0.0233174 -0.0297477 5.59605 -0.00399847 -0.0574851
quicksort -0.0200697 -0.10482 -0.0469437 11.623 -0.0937555 2.14344 4.50233 -0.00286842 3.18124 -0.140589
quicksort -0.0712996 -0.13862 -0.0221813 15.6722 -0.0653252 -0.00450547 4.66011 -0.0163561 1.82304 -0.190433
quicksort -0.14017 -0.13873 -0.0419944 11.6077 -0.0190343 2.492 5.93536 2.74804 -0.0412228 -0.0805786
quicksort -0.0207315 -0.0605863 2.49649 14.1548 -0.0663878 -0.0120747 -0.027595 4.18429 5.75675 -0.124998
quicksort -0.0387511 -0.0937255 -0.00174209 15.5787 -0.0511386 -0.00495514 2.03682 1.52402 7.33133 -0.0761663
quicksort 1.42518 -0.047095 -0.0250053 14.1092 -0.0268738 0.352849 4.08479 -0.0102523 -0.0296685 -0.0959221
quicksort 2.46322 2.33213 3.69189 12.9003 -0.0548769 -0.0498448 -0.0520696 -0.0414508 -0.0102608 -0.125281
quicksort -0.14017 -0.13873 -0.0419944 11.6077 -0.0190343 2.492 5.93536 2.74804 -0.0412228 -0.0805786
quicksort -0.0200697 -0.10482 -0.0469437 11.623 -0.0937555 2.14344 4.50233 -0.00286842 3.18124 -0.140589
quicksort -0.048229 -0.0182557 -0.0433123 12.2674 4.15389 0.193048 3.36351 2.71599 -0.0242886 -0.065375
quicksort 2.06701 -0.0576995 1.29236 15.4815 -0.0310864 1.28979 3.49436 5.97032 0.530558 -0.123601
quicksort 3.47226 -0.112618 3.91638 11.3631 -0.0572204 3.49905 -0.050457 -0.0374351 1.74397 -0.148597
quicksort -0.0917815 -0.138106 -0.0205534 9.86716 -0.0623152 -0.00254731 2.60478 1.21929 -0.0053597 -0.0732054
quicksort -0.0465849 -0.0257926 -0.0308745 18.9566 -0.0514525 -0.0233174 -0.0297477 5.59605 -0.00399847 -0.0574851
quicksort 1.75526 -0.0154881 1.49965 9.62108 -0.0210859 -0.010963 -0.0660666 5.647 2.59053 -0.0922161
quicksort -0.00478533 -0.115936 -0.0726124 12.4539 0.390216 0.993906 3.43027 0.374552 -0.117187 -0.0717695
quicksort 2.06701 -0.0576995 1.29236 15.4815 -0.0310864 1.28979 3.49436 5.97032 0.530558 -0.123601
quicksort 2.45422 -0.151613 -0.0475677 7.9128 -0.0494414 -0.000421727 3.96311 -0.0371571 0.437987 -0.117686
quicksort -0.0723602 -0.0624767 -0.0228805 12.4598 1.74924 -0.0751065 0.391743 0.84181 3.08914 -0.0496562
quicksort -0.0926876 -0.0614665 -0.0711644 18.596 -0.0839807 -0.0446051 1.2182 1.5245 -0.00253216 -0.0962454
quicksort -0.0723602 -0.0624767 -0.0228805 12.4598 1.74924 -0.0751065 0.391743 0.84181 3.08914 -0.0496562
quicksort 2.46322 2.33213 3.69189 12.9003 -0.0548769 -0.0498448 -0.0520696 -0.0414508 -0.0102608 -0.125281
quicksort -0.0207315 -0.0605863 2.49649 14.1548 -0.0663878 -0.0120747 -0.027595 4.18429 5.75675 -0.124998
quicksort -0.0635711 -0.0818327 -0.00648821 16.5811 -0.0329183 -0.0139054 -0.00427993 -0.00604157 -0.0367785 -0.0698982
quicksort 3.95527 -0.0242375 -0.00215816 15.1444 1.76996 0.202457 0.183837 -0.0140225 3.54002 -0.178162
quicksort -0.0926876 -0.0614665 -0.0711644 18.596 -0.0839807 -0.0446051 1.2182 1.5245 -0.00253216 -0.0962454
heap -0.06566 6.29121 5.19618 3.00557 1.29116 2.08236 -0.0177921 13.3604 4.04716 -0.0959974
heap -0.154486 -0.0687585 2.69507 -0.0592723 -0.0198823 -0.0620151 1.48651 12.4148 3.43422 0.958295
heap -0.154486 -0.0687585 2.69507 -0.0592723 -0.0198823 -0.0620151 1.48651 12.4148 3.43422 0.958295
heap -0.180535 0.493854 1.94372 0.786035 4.25909 1.60551 -0.119678 15.9838 -0.0128492 -0.0102975
heap -0.180535 0.493854 1.94372 0.786035 4.25909 1.60551 -0.119678 15.9838 -0.0128492 -0.0102975
heap -0.1685 17.2704 1.18123 -0.153486 -0.116245 -0.107266 7.12809 -0.0354731 4.2047 4.49544
heap -0.06566 6.29121 5.19618 3.00557 1.29116 2.08236 -0.0177921 13.3604 4.04716 -0.0959974
heap -0.205353 4.99242 -0.000778377 -0.124325 3.92596 -0.0285374 -0.0443087 5.5484 -0.0411874 2.08163
heap -0.154486 -0.0687585 2.69507 -0.0592723 -0.0198823 -0.0620151 1.48651 12.4148 3.43422 0.958295
heap -0.180535 0.493854 1.94372 0.786035 4.25909 1.60551 -0.119678 15.9838 -0.0128492 -0.0102975
heap -0.0674555 0.087386 5.45075 3.92908 1.50792 2.20472 -0.0351862 12.703 -0.0399687 -0.0578866
heap -0.06566 6.29121 5.19618 3.00557 1.29116 2.08236 -0.0177921 13.3604 4.04716 -0.0959974
heap -0.06566 6.29121 5.19618 3.00557 1.29116 2.08236 -0.0177921 13.3604 4.04716 -0.0959974
heap -0.15742 -0.0574454 -0.0130654 -0.0202112 -0.0520208 -0.0189812 -0.00962427 -0.0262903 -0.052579 -0.0535855
heap -0.06566 6.29121 5.19618 3.00557 1.29116 2.08236 -0.0177921 13.3604 4.04716 -0.0959974
heap -0.06566 6.29121 5.19618 3.00557 1.29116 2.08236 -0.0177921 13.3604 4.04716 -0.0959974
heap -0.182256 0.707617 4.04196 -0.126722 5.8248 -0.0276202 -0.0188083 14.3522 1.51332 3.5522
heap -0.182256 0.707617 4.04196 -0.126722 5.8248 -0.0276202 -0.0188083 14.3522 1.51332 3.5522
heap -0.154486 -0.0687585 2.69507 -0.0592723 -0.0198823 -0.0620151 1.48651 12.4148 3.43422 0.958295
heap -0.154486 -0.0687585 2.69507 -0.0592723 -0.0198823 -0.0620151 1.48651 12.4148 3.43422 0.958295
heap -0.180535 0.493854 1.94372 0.786035 4.25909 1.60551 -0.119678 15.9838 -0.0128492 -0.0102975
heap -0.0124426 -0.0655331 4.78849 3.19327 0.201891 4.36723 -0.0494071 16.4144 0.456783 -0.0742473
heap -0.06566 6.29121 5.19618 3.00557 1.29116 2.08236 -0.0177921 13.3604 4.04716 -0.0959974
heap -0.154486 -0.0687585 2.69507 -0.0592723 -0.0198823 -0.0620151 1.48651 12.4148 3.43422 0.958295
heap -0.180535 0.493854 1.94372 0.786035 4.25909 1.60551 -0.119678 15.9838 -0.0128492 -0.0102975
heap -0.180535 0.493854 1.94372 0.786035 4.25909 1.60551 -0.119678 15.9838 -0.0128492 -0.0102975
heap -0.06566 6.29121 5.19618 3.00557 1.29116 2.08236 -0.0177921 13.3604 4.04716 -0.0959974
heap -0.154486 -0.0687585 2.69507 -0.0592723 -0.0198823 -0.0620151 1.48651 12.4148 3.43422 0.958295
heap -0.180535 0.493854 1.94372 0.786035 4.25909 1.60551 -0.119678 15.9838 -0.0128492 -0.0102975
heap -0.180535 0.493854 1.94372 0.786035 4.25909 1.60551 -0.119678 15.9838 -0.0128492 -0.0102975
heap -0.180535 0.493854 1.94372 0.786035 4.25909 1.60551 -0.119678 15.9838 -0.0128492 -0.0102975
heap -0.0674555 0.087386 5.45075 3.92908 1.50792 2.20472 -0.0351862 12.703 -0.0399687 -0.0578866
heap -0.180535 0.493854 1.94372 0.786035 4.25909 1.60551 -0.119678 15.9838 -0.0128492 -0.0102975
heap -0.154486 -0.0687585 2.69507 -0.0592723 -0.0198823 -0.0620151 1.48651 12.4148 3.43422 0.958295
heap -0.0674555 0.087386 5.45075 3.92908 1.50792 2.20472 -0.0351862 12.703 -0.0399687 -0.0578866
heap -0.06566 6.29121 5.19618 3.00557 1.29116 2.08236 -0.0177921 13.3604 4.04716 -0.0959974
heap -0.0674555 0.087386 5.45075 3.92908 1.50792 2.20472 -0.0351862 12.703 -0.0399687 -0.0578866
heap -0.06566 6.29121 5.19618 3.00557 1.29116 2.08236 -0.0177921 13.3604 4.04716 -0.0959974
heap -0.06566 6.29121 5.19618 3.00557 1.29116 2.08236 -0.0177921 13.3604 4.04716 -0.0959974
heap -0.0124426 -0.0655331 4.78849 3.19327 0.201891 4.36723 -0.0494071 16.4144 0.456783 -0.0742473
heap -0.180535 0.493854 1.94372 0.786035 4.25909 1.60551 -0.119678 15.9838 -0.0128492 -0.0102975
heap -0.15742 -0.0574454 -0.0130654 -0.0202112 -0.0520208 -0.0189812 -0.00962427 -0.0262903 -0.052579 -0.0535855
heap -0.180535 0.493854 1.94372 0.786035 4.25909 1.60551 -0.119678 15.9838 -0.0128492 -0.0102975
heap -0.182256 0.707617 4.04196 -0.126722 5.8248 -0.0276202 -0.0188083 14.3522 1.51332 3.5522
heap -0.180535 0.493854 1.94372 0.786035 4.25909 1.60551 -0.119678 15.9838 -0.0128492 -0.0102975
bubblesort -0.054907 -0.0115422 0.16471 1.65825 -0.0410465 -0.00561457 9.55789 -0.0853482 -0.00973286 -0.0113598
bubblesort -0.188208 -0.106337 -0.02206 -0.0374341 -0.0192642 -0.029499 10.0445 1.22799 -0.00227534 3.53336
bubblesort -0.071106 1.599 2.95333 -0.0192742 1.3061 0.202291 11.3473 -0.0528 3.63238 -0.0970327
bubblesort -0.0701535 1.23053 1.86833 -0.00188789 -0.0854049 -0.00538625 12.0903 -0.0813768 4.92703 -0.0170575
bubblesort -0.0701535 1.23053 1.86833 -0.00188789 -0.0854049 -0.00538625 12.0903 -0.0813768 4.92703 -0.0170575
bubblesort -0.188208 -0.106337 -0.02206 -0.0374341 -0.0192642 -0.029499 10.0445 1.22799 -0.00227534 3.53336
bubblesort -0.188208 -0.106337 -0.02206 -0.0374341 -0.0192642 -0.029499 10.0445 1.22799 -0.00227534 3.53336
bubblesort -0.0701535 1.23053 1.86833 -0.00188789 -0.0854049 -0.00538625 12.0903 -0.0813768 4.92703 -0.0170575
bubblesort 1.17386 0.774727 0.96674 -0.0434107 -0.0186474 -0.0911107 9.47017 -0.14761 0.655837 -0.0602474
bubblesort -0.188208 -0.106337 -0.02206 -0.0374341 -0.0192642 -0.029499 10.0445 1.22799 -0.00227534 3.53336
bubblesort -0.0825771 1.53684 4.39408 -0.10277 -0.0148428 -0.10696 8.87478 -0.122134 1.21387 -0.0313084
bubblesort -0.188208 -0.106337 -0.02206 -0.0374341 -0.0192642 -0.029499 10.0445 1.22799 -0.00227534 3.53336
bubblesort -0.188208 -0.106337 -0.02206 -0.0374341 -0.0192642 -0.029499 10.0445 1.22799 -0.00227534 3.53336
bubblesort -0.054907 -0.0115422 0.16471 1.65825 -0.0410465 -0.00561457 9.55789 -0.0853482 -0.00973286 -0.0113598
bubblesort -0.0555456 -0.0853157 -0.0248637 1.2939 -0.0448317 -0.0221677 10.2495 -0.085362 3.21536 -0.112075
bubblesort 1.17386 0.774727 0.96674 -0.0434107 -0.0186474 -0.0911107 9.47017 -0.14761 0.655837 -0.0602474
bubblesort -0.0960848 -0.00075779 -0.116469 0.129065 1.83859 -0.0223463 11.5147 -0.0381293 -0.0342959 0.402323
bubblesort -0.0825771 1.53684 4.39408 -0.10277 -0.0148428 -0.10696 8.87478 -0.122134 1.21387 -0.0313084
bubblesort -0.0960848 -0.00075779 -0.116469 0.129065 1.83859 -0.0223463 11.5147 -0.0381293 -0.0342959 0.402323
bubblesort -0.188208 -0.106337 -0.02206 -0.0374341 -0.0192642 -0.029499 10.0445 1.22799 -0.00227534 3.53336
bubblesort -0.0825771 1.53684 4.39408 -0.10277 -0.0148428 -0.10696 8.87478 -0.122134 1.21387 -0.0313084
bubblesort -0.0701535 1.23053 1.86833 -0.00188789 -0.0854049 -0.00538625 12.0903 -0.0813768 4.92703 -0.0170575
bubblesort -0.0960848 -0.00075779 -0.116469 0.129065 1.83859 -0.0223463 11.5147 -0.0381293 -0.0342959 0.402323
bubblesort -0.071106 1.599 2.95333 -0.0192742 1.3061 0.202291 11.3473 -0.0528 3.63238 -0.0970327
bubblesort -0.0960848 -0.00075779 -0.116469 0.129065 1.83859 -0.0223463 11.5147 -0.0381293 -0.0342959 0.402323
bubblesort -0.0597291 -0.102209 0.255529 1.56557 -0.0637878 -0.0489384 7.86091 -0.0404359 0.343494 -0.0555936
bubblesort 1.17386 0.774727 0.96674 -0.0434107 -0.0186474 -0.0911107 9.47017 -0.14761 0.655837 -0.0602474
bubblesort -0.0597291 -0.102209 0.255529 1.56557 -0.0637878 -0.0489384 7.86091 -0.0404359 0.343494 -0.0555936
bubblesort -0.071106 1.599 2.95333 -0.0192742 1.3061 0.202291 11.3473 -0.0528 3.63238 -0.0970327
bubblesort -0.054907 -0.0115422 0.16471 1.65825 -0.0410465 -0.00561457 9.55789 -0.0853482 -0.00973286 -0.0113598
bubblesort -0.0216958 -0.113619 -0.0339909 0.309804 -0.0616282 6.35534 7.94174 -0.0355947 -0.0247871 -0.0160725
bubblesort -0.188208 -0.106337 -0.02206 -0.0374341 -0.0192642 -0.029499 10.0445 1.22799 -0.00227534 3.53336
bubblesort -0.0825771 1.53684 4.39408 -0.10277 -0.0148428 -0.10696 8.87478 -0.122134 1.21387 -0.0313084
bubblesort -0.071106 1.599 2.95333 -0.0192742 1.3061 0.202291 11.3473 -0.0528 3.63238 -0.0970327
bubblesort -0.0555456 -0.0853157 -0.0248637 1.2939 -0.0448317 -0.0221677 10.2495 -0.085362 3.21536 -0.112075
bubblesort -0.0825771 1.53684 4.39408 -0.10277 -0.0148428 -0.10696 8.87478 -0.122134 1.21387 -0.0313084
bubblesort -0.0825771 1.53684 4.39408 -0.10277 -0.0148428 -0.10696 8.87478 -0.122134 1.21387 -0.0313084
bubblesort -0.103276 6.96563 4.11482 -0.0295045 -0.0400003 -0.0478776 1.66442 -0.0193346 0.0729062 -0.047429
bubblesort -0.0701535 1.23053 1.86833 -0.00188789 -0.0854049 -0.00538625 12.0903 -0.0813768 4.92703 -0.0170575
bubblesort -0.071106 1.599 2.95333 -0.0192742 1.3061 0.202291 11.3473 -0.0528 3.63238 -0.0970327
mergesort 16.0401 -0.102111 -0.0397036 10.6492 -0.0268138 10.3905 2.16367 10.3126 0.957695 -0.102799
mergesort 11.1329 -0.0323127 0.681765 6.35765 -0.006317 3.70571 0.722101 -0.0257519 -0.020746 -0.0629802
mergesort 12.9484 -0.0224447 4.99263 7.5196 -0.0137834 5.02929 1.76873 2.1137 0.821586 -0.164625
mergesort 9.62189 -0.0205356 0.956944 3.56805 3.65408 -0.0226509 -0.0647755 -0.00175632 -0.03214 -0.0629699
mergesort 12.9484 -0.0224447 4.99263 7.5196 -0.0137834 5.02929 1.76873 2.1137 0.821586 -0.164625
mergesort 10.429 0.741318 3.03154 3.72842 0.799971 -0.00915059 1.53676 0.404253 1.4018 -0.073357
mergesort 9.62189 -0.0205356 0.956944 3.56805 3.65408 -0.0226509 -0.0647755 -0.00175632 -0.03214 -0.0629699
mergesort 18.5883 -0.0597193 5.00933 5.26733 -0.0128862 1.77821 -0.0764819 -0.0163975 1.48061 -0.140455
mergesort 10.429 0.741318 3.03154 3.72842 0.799971 -0.00915059 1.53676 0.404253 1.4018 -0.073357
mergesort 12.9484 -0.0224447 4.99263 7.5196 -0.0137834 5.02929 1.76873 2.1137 0.821586 -0.164625
mergesort 16.0401 -0.102111 -0.0397036 10.6492 -0.0268138 10.3905 2.16367 10.3126 0.957695 -0.102799
mergesort 11.6382 -0.0438543 7.28541 -0.019324 -0.0144341 -0.0305976 -0.00246452 -0.0946001 6.36292 -0.136601
mergesort 11.6382 -0.0438543 7.28541 -0.019324 -0.0144341 -0.0305976 -0.00246452 -0.0946001 6.36292 -0.136601
mergesort 10.429 0.741318 3.03154 3.72842 0.799971 -0.00915059 1.53676 0.404253 1.4018 -0.073357
mergesort 9.62189 -0.0205356 0.956944 3.56805 3.65408 -0.0226509 -0.0647755 -0.00175632 -0.03214 -0.0629699
mergesort 9.62189 -0.0205356 0.956944 3.56805 3.65408 -0.0226509 -0.0647755 -0.00175632 -0.03214 -0.0629699
mergesort 9.62189 -0.0205356 0.956944 3.56805 3.65408 -0.0226509 -0.0647755 -0.00175632 -0.03214 -0.0629699
mergesort 18.5883 -0.0597193 5.00933 5.26733 -0.0128862 1.77821 -0.0764819 -0.0163975 1.48061 -0.140455
mergesort 10.429 0.741318 3.03154 3.72842 0.799971 -0.00915059 1.53676 0.404253 1.4018 -0.073357
mergesort 10.429 0.741318 3.03154 3.72842 0.799971 -0.00915059 1.53676 0.404253 1.4018 -0.073357
mergesort -0.0216007 -0.0323984 1.35941 -0.0262648 1.42968 -0.0194034 10.5965 -0.0203856 1.38841 -0.0774048
mergesort 9.62189 -0.0205356 0.956944 3.56805 3.65408 -0.0226509 -0.0647755 -0.00175632 -0.03214 -0.0629699
mergesort 12.9484 -0.0224447 4.99263 7.5196 -0.0137834 5.02929 1.76873 2.1137 0.821586 -0.164625
mergesort 10.429 0.741318 3.03154 3.72842 0.799971 -0.00915059 1.53676 0.404253 1.4018 -0.073357
queue -0.0335024 -0.0158314 -0.0314866 -0.0193625 11.9043 -0.02577 -0.0257352 0.918436 3.34265 -0.0107272
queue -0.139326 3.27214 -0.057041 -0.0232664 12.3478 -0.0370806 0.273946 -0.00105144 -0.056641 0.814423
queue -0.0335024 -0.0158314 -0.0314866 -0.0193625 11.9043 -0.02577 -0.0257352 0.918436 3.34265 -0.0107272
queue -0.0651897 9.49211 2.57036 -0.132524 14.7891 -0.0836599 -0.0470431 4.33589 0.776066 6.32315
queue -0.07868 4.77258 -0.0226963 -0.109456 9.39714 -0.00727526 -0.0819544 1.03668 2.20733 0.668242
queue -0.07868 4.77258 -0.0226963 -0.109456 9.39714 -0.00727526 -0.0819544 1.03668 2.20733 0.668242
queue -0.149107 -0.0157522 5.58054 1.89613 11.8891 1.22152 -0.0553105 3.24434 -0.116068 -0.054998
queue -0.102366 5.69703 -0.0892436 -0.00202005 11.9274 -0.0661441 -0.0184959 -0.049502 -0.0338884 5.15114
queue 2.62922 -0.00492184 4.28459 -0.0372994 11.2061 -0.0259155 -0.0915295 -0.0303697 -0.0349343 1.41394
queue -0.0335024 -0.0158314 -0.0314866 -0.0193625 11.9043 -0.02577 -0.0257352 0.918436 3.34265 -0.0107272
queue -0.07868 4.77258 -0.0226963 -0.109456 9.39714 -0.00727526 -0.0819544 1.03668 2.20733 0.668242
queue -0.0268742 2.21928 -0.0215671 -0.0240458 16.4393 -0.0500855 -0.0402534 0.494978 -0.0365812 3.20204
queue -0.136634 1.47384 -0.0562336 -0.0817834 10.3143 -0.0661319 -0.0199891 -0.00898597 -0.0286233 4.26429
queue -0.0641335 -0.0372327 0.858977 0.0438434 8.13354 -0.0812574 -0.0279088 3.20639 1.43687 -0.0109932
queue 2.62922 -0.00492184 4.28459 -0.0372994 11.2061 -0.0259155 -0.0915295 -0.0303697 -0.0349343 1.41394
queue -0.0651897 9.49211 2.57036 -0.132524 14.7891 -0.0836599 -0.0470431 4.33589 0.776066 6.32315
queue -0.0335024 -0.0158314 -0.0314866 -0.0193625 11.9043 -0.02577 -0.0257352 0.918436 3.34265 -0.0107272
queue -0.0335024 -0.0158314 -0.0314866 -0.0193625 11.9043 -0.02577 -0.0257352 0.918436 3.34265 -0.0107272
queue -0.130523 -0.0186646 3.39039 -0.0573652 9.72569 -0.0356096 -0.148502 0.162599 -0.133354 5.06249
queue -0.0335024 -0.0158314 -0.0314866 -0.0193625 11.9043 -0.02577 -0.0257352 0.918436 3.34265 -0.0107272
queue -0.0834936 5.27305 -0.0474204 -0.0924451 -0.0127937 -0.115574 1.17657 -0.076409 -0.054883 11.609
queue -0.108889 8.80474 -0.00253392 -0.138104 15.893 -0.0636178 -0.0562302 -0.0147449 -0.0524588 9.38264
queue -0.149107 -0.0157522 5.58054 1.89613 11.8891 1.22152 -0.0553105 3.24434 -0.116068 -0.054998
queue -0.149107 -0.0157522 5.58054 1.89613 11.8891 1.22152 -0.0553105 3.24434 -0.116068 -0.054998
queue -0.0335024 -0.0158314 -0.0314866 -0.0193625 11.9043 -0.02577 -0.0257352 0.918436 3.34265 -0.0107272
queue -0.102366 5.69703 -0.0892436 -0.00202005 11.9274 -0.0661441 -0.0184959 -0.049502 -0.0338884 5.15114
queue -0.0229501 1.72604 4.86621 -0.0384913 9.50178 0.85586 -0.0313066 -0.00227949 -0.0484509 -0.0601872
queue -0.139326 3.27214 -0.057041 -0.0232664 12.3478 -0.0370806 0.273946 -0.00105144 -0.056641 0.814423
queue -0.158357 -0.0299198 5.89337 -0.0669888 10.2217 -0.00334009 -0.111697 4.18265 -0.0621417 1.76097
queue -0.0651897 9.49211 2.57036 -0.132524 14.7891 -0.0836599 -0.0470431 4.33589 0.776066 6.32315
queue -0.162801 3.04093 -0.0290392 -0.0170433 9.2389 -0.0258757 -0.032965 5.6262 -0.154332 5.16555
queue -0.0727679 1.59141 0.270425 -0.135846 12.8116 -0.0229146 3.64225 5.96072 5.72875 2.83125
queue -0.139326 3.27214 -0.057041 -0.0232664 12.3478 -0.0370806 0.273946 -0.00105144 -0.056641 0.814423
queue -0.149107 -0.0157522 5.58054 1.89613 11.8891 1.22152 -0.0553105 3.24434 -0.116068 -0.054998
queue 2.62922 -0.00492184 4.28459 -0.0372994 11.2061 -0.0259155 -0.0915295 -0.0303697 -0.0349343 1.41394
queue -0.108889 8.80474 -0.00253392 -0.138104 15.893 -0.0636178 -0.0562302 -0.0147449 -0.0524588 9.38264
queue -0.0335024 -0.0158314 -0.0314866 -0.0193625 11.9043 -0.02577 -0.0257352 0.918436 3.34265 -0.0107272
queue -0.102366 5.69703 -0.0892436 -0.00202005 11.9274 -0.0661441 -0.0184959 -0.049502 -0.0338884 5.15114
queue -0.0335024 -0.0158314 -0.0314866 -0.0193625 11.9043 -0.02577 -0.0257352 0.918436 3.34265 -0.0107272
queue -0.0493059 7.45009 -0.0533207 -0.044344 15.678 -0.0646451 -0.0503243 -0.010818 -0.0602886 6.45241
queue -0.0268742 2.21928 -0.0215671 -0.0240458 16.4393 -0.0500855 -0.0402534 0.494978 -0.0365812 3.20204
queue -0.0335024 -0.0158314 -0.0314866 -0.0193625 11.9043 -0.02577 -0.0257352 0.918436 3.34265 -0.0107272
queue 2.62922 -0.00492184 4.28459 -0.0372994 11.2061 -0.0259155 -0.0915295 -0.0303697 -0.0349343 1.41394
queue -0.139326 3.27214 -0.057041 -0.0232664 12.3478 -0.0370806 0.273946 -0.00105144 -0.056641 0.814423
queue -0.0727679 1.59141 0.270425 -0.135846 12.8116 -0.0229146 3.64225 5.96072 5.72875 2.83125
queue -0.0229501 1.72604 4.86621 -0.0384913 9.50178 0.85586 -0.0313066 -0.00227949 -0.0484509 -0.0601872
queue -0.0651897 9.49211 2.57036 -0.132524 14.7891 -0.0836599 -0.0470431 4.33589 0.776066 6.32315
queue -0.0641335 -0.0372327 0.858977 0.0438434 8.13354 -0.0812574 -0.0279088 3.20639 1.43687 -0.0109932
queue -0.108889 8.80474 -0.00253392 -0.138104 15.893 -0.0636178 -0.0562302 -0.0147449 -0.0524588 9.38264
queue -0.07868 4.77258 -0.0226963 -0.109456 9.39714 -0.00727526 -0.0819544 1.03668 2.20733 0.668242
queue -0.139326 3.27214 -0.057041 -0.0232664 12.3478 -0.0370806 0.273946 -0.00105144 -0.056641 0.814423
queue -0.0268742 2.21928 -0.0215671 -0.0240458 16.4393 -0.0500855 -0.0402534 0.494978 -0.0365812 3.20204
queue -0.07868 4.77258 -0.0226963 -0.109456 9.39714 -0.00727526 -0.0819544 1.03668 2.20733 0.668242
queue -0.0335024 -0.0158314 -0.0314866 -0.0193625 11.9043 -0.02577 -0.0257352 0.918436 3.34265 -0.0107272
queue 2.62922 -0.00492184 4.28459 -0.0372994 11.2061 -0.0259155 -0.0915295 -0.0303697 -0.0349343 1.41394
queue -0.0229501 1.72604 4.86621 -0.0384913 9.50178 0.85586 -0.0313066 -0.00227949 -0.0484509 -0.0601872
queue -0.0335024 -0.0158314 -0.0314866 -0.0193625 11.9043 -0.02577 -0.0257352 0.918436 3.34265 -0.0107272
queue -0.0229501 1.72604 4.86621 -0.0384913 9.50178 0.85586 -0.0313066 -0.00227949 -0.0484509 -0.0601872
queue -0.07868 4.77258 -0.0226963 -0.109456 9.39714 -0.00727526 -0.0819544 1.03668 2.20733 0.668242
queue -0.136634 1.47384 -0.0562336 -0.0817834 10.3143 -0.0661319 -0.0199891 -0.00898597 -0.0286233 4.26429
queue -0.0335024 -0.0158314 -0.0314866 -0.0193625 11.9043 -0.02577 -0.0257352 0.918436 3.34265 -0.0107272
queue -0.07868 4.77258 -0.0226963 -0.109456 9.39714 -0.00727526 -0.0819544 1.03668 2.20733 0.668242
queue -0.101109 6.02579 -0.0739004 -0.0588289 12.535 -0.06898 -0.056759 3.48943 3.26424 5.70898
queue -0.136634 1.47384 -0.0562336 -0.0817834 10.3143 -0.0661319 -0.0199891 -0.00898597 -0.0286233 4.26429
queue -0.0641335 -0.0372327 0.858977 0.0438434 8.13354 -0.0812574 -0.0279088 3.20639 1.43687 -0.0109932
queue -0.0641335 -0.0372327 0.858977 0.0438434 8.13354 -0.0812574 -0.0279088 3.20639 1.43687 -0.0109932
queue -0.0641335 -0.0372327 0.858977 0.0438434 8.13354 -0.0812574 -0.0279088 3.20639 1.43687 -0.0109932
queue -0.0651897 9.49211 2.57036 -0.132524 14.7891 -0.0836599 -0.0470431 4.33589 0.776066 6.32315
queue -0.0335024 -0.0158314 -0.0314866 -0.0193625 11.9043 -0.02577 -0.0257352 0.918436 3.34265 -0.0107272
queue -0.162801 3.04093 -0.0290392 -0.0170433 9.2389 -0.0258757 -0.032965 5.6262 -0.154332 5.16555
queue -0.0335024 -0.0158314 -0.0314866 -0.0193625 11.9043 -0.02577 -0.0257352 0.918436 3.34265 -0.0107272
queue -0.0727679 1.59141 0.270425 -0.135846 12.8116 -0.0229146 3.64225 5.96072 5.72875 2.83125
queue -0.108889 8.80474 -0.00253392 -0.138104 15.893 -0.0636178 -0.0562302 -0.0147449 -0.0524588 9.38264
queue -0.108889 8.80474 -0.00253392 -0.138104 15.893 -0.0636178 -0.0562302 -0.0147449 -0.0524588 9.38264
queue -0.162801 3.04093 -0.0290392 -0.0170433 9.2389 -0.0258757 -0.032965 5.6262 -0.154332 5.16555
queue -0.162801 3.04093 -0.0290392 -0.0170433 9.2389 -0.0258757 -0.032965 5.6262 -0.154332 5.16555
queue -0.0651897 9.49211 2.57036 -0.132524 14.7891 -0.0836599 -0.0470431 4.33589 0.776066 6.32315
queue 2.62922 -0.00492184 4.28459 -0.0372994 11.2061 -0.0259155 -0.0915295 -0.0303697 -0.0349343 1.41394
queue -0.162801 3.04093 -0.0290392 -0.0170433 9.2389 -0.0258757 -0.032965 5.6262 -0.154332 5.16555
queue -0.0229501 1.72604 4.86621 -0.0384913 9.50178 0.85586 -0.0313066 -0.00227949 -0.0484509 -0.0601872
queue -0.0335024 -0.0158314 -0.0314866 -0.0193625 11.9043 -0.02577 -0.0257352 0.918436 3.34265 -0.0107272
queue -0.139326 3.27214 -0.057041 -0.0232664 12.3478 -0.0370806 0.273946 -0.00105144 -0.056641 0.814423
queue -0.0268742 2.21928 -0.0215671 -0.0240458 16.4393 -0.0500855 -0.0402534 0.494978 -0.0365812 3.20204
queue -0.136634 1.47384 -0.0562336 -0.0817834 10.3143 -0.0661319 -0.0199891 -0.00898597 -0.0286233 4.26429
queue -0.0335024 -0.0158314 -0.0314866 -0.0193625 11.9043 -0.02577 -0.0257352 0.918436 3.34265 -0.0107272
linkedlist -0.0114023 14.588 3.24293 -0.0349952 -0.00316738 -0.0507791 -0.0593216 2.11277 3.5865 2.0119
linkedlist -0.0724283 8.56016 -0.0107273 1.34907 1.2091 -0.0439007 -0.0668646 -0.0268804 -0.0257273 3.18045
linkedlist 1.0889 12.0768 -0.00634878 -0.0154711 -0.00122143 -0.0382856 2.08375 -0.079423 -0.0441277 3.54523
linkedlist -0.130023 15.0331 5.1569 -0.00678416 -0.0357122 -0.0717577 -0.0531098 1.79755 0.811398 1.70521
linkedlist 0.392106 11.709 2.75105 -0.125074 3.00345 -0.0367988 -0.0366322 -0.0515672 1.92501 1.35324
linkedlist -0.0114023 14.588 3.24293 -0.0349952 -0.00316738 -0.0507791 -0.0593216 2.11277 3.5865 2.0119
linkedlist 1.0889 12.0768 -0.00634878 -0.0154711 -0.00122143 -0.0382856 2.08375 -0.079423 -0.0441277 3.54523
linkedlist -0.130023 15.0331 5.1569 -0.00678416 -0.0357122 -0.0717577 -0.0531098 1.79755 0.811398 1.70521
linkedlist -0.231752 19.7257 -0.0134317 -0.152447 2.80617 -0.109395 -0.0234627 -0.0712594 -0.0801396 11.9543
linkedlist -0.0114023 14.588 3.24293 -0.0349952 -0.00316738 -0.0507791 -0.0593216 2.11277 3.5865 2.0119
linkedlist -0.197308 12.7904 4.84409 -0.108869 -0.00295354 -0.0332166 -0.0249417 4.07098 -0.0041531 3.24949
linkedlist 0.392106 11.709 2.75105 -0.125074 3.00345 -0.0367988 -0.0366322 -0.0515672 1.92501 1.35324
linkedlist -0.0722611 10.5954 1.50898 -0.132652 3.19673 0.0723634 0.497933 1.39858 -0.0416559 2.9041
linkedlist -0.0139302 10.8069 1.53237 -0.04881 1.54784 0.082155 -0.0404 2.1922 -0.010709 -0.0458459
linkedlist -0.0114023 14.588 3.24293 -0.0349952 -0.00316738 -0.0507791 -0.0593216 2.11277 3.5865 2.0119
linkedlist -0.0114023 14.588 3.24293 -0.0349952 -0.00316738 -0.0507791 -0.0593216 2.11277 3.5865 2.0119
linkedlist -0.0250335 14.6659 1.58569 -0.0519829 7.54822 -0.043246 0.203174 -0.0510851 0.179314 4.27176
linkedlist -0.108145 15.6256 5.2917 -0.120759 -0.00579841 -0.0444474 -0.0385334 7.64092 6.39332 6.18723
linkedlist -0.0231935 11.653 3.95438 -0.141 1.40803 -0.10696 1.06463 -0.124629 7.06481 -0.0102451
linkedlist -0.123863 16.9196 2.55375 -0.0951233 1.86523 -0.0366793 -0.0542896 0.79624 1.46966 7.07814
linkedlist -0.0231935 11.653 3.95438 -0.141 1.40803 -0.10696 1.06463 -0.124629 7.06481 -0.0102451
linkedlist -0.189015 8.91794 1.3316 -0.0800428 2.87534 -0.0175295 -0.0595018 2.37781 -0.112101 0.745877
linkedlist -0.197308 12.7904 4.84409 -0.108869 -0.00295354 -0.0332166 -0.0249417 4.07098 -0.0041531 3.24949
linkedlist -0.0617473 16.969 -0.04563 -0.0190308 7.44111 -0.0874997 -0.040189 3.52468 4.48266 3.82382
linkedlist 1.0889 12.0768 -0.00634878 -0.0154711 -0.00122143 -0.0382856 2.08375 -0.079423 -0.0441277 3.54523
linkedlist -0.293132 16.8633 -0.0106564 -0.148851 8.3584 -0.110461 -0.00690687 -0.0286948 -0.0749436 10.1457
linkedlist -0.0417705 14.4218 3.88501 -0.0081101 4.48282 -0.0453825 -0.0824441 5.96028 1.97864 -0.0510059
linkedlist -0.0250335 14.6659 1.58569 -0.0519829 7.54822 -0.043246 0.203174 -0.0510851 0.179314 4.27176
linkedlist -0.197308 12.7904 4.84409 -0.108869 -0.00295354 -0.0332166 -0.0249417 4.07098 -0.0041531 3.24949
linkedlist -0.105157 12.2253 -0.00541312 -0.0956992 2.32086 -0.0180431 0.760208 -0.0438462 -0.0273157 1.46735
linkedlist -0.108145 15.6256 5.2917 -0.120759 -0.00579841 -0.0444474 -0.0385334 7.64092 6.39332 6.18723
linkedlist -0.0617473 16.969 -0.04563 -0.0190308 7.44111 -0.0874997 -0.040189 3.52468 4.48266 3.82382
linkedlist -0.0722611 10.5954 1.50898 -0.132652 3.19673 0.0723634 0.497933 1.39858 -0.0416559 2.9041
linkedlist -0.123863 16.9196 2.55375 -0.0951233 1.86523 -0.0366793 -0.0542896 0.79624 1.46966 7.07814
linkedlist -0.093603 10.3046 -0.0614499 0.277136 -0.0369976 -0.0517918 4.84977 -0.0603722 -0.00936262 1.53203
linkedlist -0.0724283 8.56016 -0.0107273 1.34907 1.2091 -0.0439007 -0.0668646 -0.0268804 -0.0257273 3.18045
linkedlist -0.136793 20.7847 -0.0107534 -0.168726 8.27816 -0.0565093 3.53819 -0.0232638 -0.0192375 2.77454
linkedlist -0.197308 12.7904 4.84409 -0.108869 -0.00295354 -0.0332166 -0.0249417 4.07098 -0.0041531 3.24949
linkedlist -0.0231935 11.653 3.95438 -0.141 1.40803 -0.10696 1.06463 -0.124629 7.06481 -0.0102451
linkedlist -0.0722611 10.5954 1.50898 -0.132652 3.19673 0.0723634 0.497933 1.39858 -0.0416559 2.9041
linkedlist -0.0722611 10.5954 1.50898 -0.132652 3.19673 0.0723634 0.497933 1.39858 -0.0416559 2.9041
linkedlist -0.197308 12.7904 4.84409 -0.108869 -0.00295354 -0.0332166 -0.0249417 4.07098 -0.0041531 3.24949
linkedlist -0.130023 15.0331 5.1569 -0.00678416 -0.0357122 -0.0717577 -0.0531098 1.79755 0.811398 1.70521
linkedlist 0.392106 11.709 2.75105 -0.125074 3.00345 -0.0367988 -0.0366322 -0.0515672 1.92501 1.35324
linkedlist -0.0250335 14.6659 1.58569 -0.0519829 7.54822 -0.043246 0.203174 -0.0510851 0.179314 4.27176
linkedlist -0.0139302 10.8069 1.53237 -0.04881 1.54784 0.082155 -0.0404 2.1922 -0.010709 -0.0458459
linkedlist -0.189015 8.91794 1.3316 -0.0800428 2.87534 -0.0175295 -0.0595018 2.37781 -0.112101 0.745877
linkedlist -0.0617473 16.969 -0.04563 -0.0190308 7.44111 -0.0874997 -0.040189 3.52468 4.48266 3.82382
linkedlist -0.108145 15.6256 5.2917 -0.120759 -0.00579841 -0.0444474 -0.0385334 7.64092 6.39332 6.18723
linkedlist -0.105157 12.2253 -0.00541312 -0.0956992 2.32086 -0.0180431 0.760208 -0.0438462 -0.0273157 1.46735
linkedlist -0.231752 19.7257 -0.0134317 -0.152447 2.80617 -0.109395 -0.0234627 -0.0712594 -0.0801396 11.9543
linkedlist -0.108145 15.6256 5.2917 -0.120759 -0.00579841 -0.0444474 -0.0385334 7.64092 6.39332 6.18723
linkedlist -0.0231935 11.653 3.95438 -0.141 1.40803 -0.10696 1.06463 -0.124629 7.06481 -0.0102451
linkedlist 0.392106 11.709 2.75105 -0.125074 3.00345 -0.0367988 -0.0366322 -0.0515672 1.92501 1.35324
linkedlist -0.130023 15.0331 5.1569 -0.00678416 -0.0357122 -0.0717577 -0.0531098 1.79755 0.811398 1.70521
linkedlist -0.0114023 14.588 3.24293 -0.0349952 -0.00316738 -0.0507791 -0.0593216 2.11277 3.5865 2.0119
linkedlist -0.093603 10.3046 -0.0614499 0.277136 -0.0369976 -0.0517918 4.84977 -0.0603722 -0.00936262 1.53203
linkedlist -0.197308 12.7904 4.84409 -0.108869 -0.00295354 -0.0332166 -0.0249417 4.07098 -0.0041531 3.24949
linkedlist -0.0617473 16.969 -0.04563 -0.0190308 7.44111 -0.0874997 -0.040189 3.52468 4.48266 3.82382
linkedlist -0.0724283 8.56016 -0.0107273 1.34907 1.2091 -0.0439007 -0.0668646 -0.0268804 -0.0257273 3.18045
linkedlist -0.108145 15.6256 5.2917 -0.120759 -0.00579841 -0.0444474 -0.0385334 7.64092 6.39332 6.18723
linkedlist -0.0617473 16.969 -0.04563 -0.0190308 7.44111 -0.0874997 -0.040189 3.52468 4.48266 3.82382
linkedlist -0.0722611 10.5954 1.50898 -0.132652 3.19673 0.0723634 0.497933 1.39858 -0.0416559 2.9041
linkedlist -0.0250335 14.6659 1.58569 -0.0519829 7.54822 -0.043246 0.203174 -0.0510851 0.179314 4.27176
linkedlist -0.0417705 14.4218 3.88501 -0.0081101 4.48282 -0.0453825 -0.0824441 5.96028 1.97864 -0.0510059
linkedlist 0.392106 11.709 2.75105 -0.125074 3.00345 -0.0367988 -0.0366322 -0.0515672 1.92501 1.35324
linkedlist 1.16813 14.8531 7.60102 -0.119679 0.114242 -0.113538 -0.0652076 -0.0959754 2.98827 3.31723
linkedlist 1.16813 14.8531 7.60102 -0.119679 0.114242 -0.113538 -0.0652076 -0.0959754 2.98827 3.31723
linkedlist -0.123863 16.9196 2.55375 -0.0951233 1.86523 -0.0366793 -0.0542896 0.79624 1.46966 7.07814
linkedlist 1.16813 14.8531 7.60102 -0.119679 0.114242 -0.113538 -0.0652076 -0.0959754 2.98827 3.31723
linkedlist -0.189015 8.91794 1.3316 -0.0800428 2.87534 -0.0175295 -0.0595018 2.37781 -0.112101 0.745877
linkedlist 1.16813 14.8531 7.60102 -0.119679 0.114242 -0.113538 -0.0652076 -0.0959754 2.98827 3.31723
linkedlist -0.0231935 11.653 3.95438 -0.141 1.40803 -0.10696 1.06463 -0.124629 7.06481 -0.0102451
linkedlist -0.0250335 14.6659 1.58569 -0.0519829 7.54822 -0.043246 0.203174 -0.0510851 0.179314 4.27176
linkedlist -0.293132 16.8633 -0.0106564 -0.148851 8.3584 -0.110461 -0.00690687 -0.0286948 -0.0749436 10.1457
linkedlist -0.0417705 14.4218 3.88501 -0.0081101 4.48282 -0.0453825 -0.0824441 5.96028 1.97864 -0.0510059
linkedlist -0.0724283 8.56016 -0.0107273 1.34907 1.2091 -0.0439007 -0.0668646 -0.0268804 -0.0257273 3.18045
linkedlist -0.0139302 10.8069 1.53237 -0.04881 1.54784 0.082155 -0.0404 2.1922 -0.010709 -0.0458459
linkedlist -0.0617473 16.969 -0.04563 -0.0190308 7.44111 -0.0874997 -0.040189 3.52468 4.48266 3.82382
linkedlist -0.0114023 14.588 3.24293 -0.0349952 -0.00316738 -0.0507791 -0.0593216 2.11277 3.5865 2.0119
linkedlist -0.197308 12.7904 4.84409 -0.108869 -0.00295354 -0.0332166 -0.0249417 4.07098 -0.0041531 3.24949
linkedlist -0.123863 16.9196 2.55375 -0.0951233 1.86523 -0.0366793 -0.0542896 0.79624 1.46966 7.07814
linkedlist 1.16813 14.8531 7.60102 -0.119679 0.114242 -0.113538 -0.0652076 -0.0959754 2.98827 3.31723
linkedlist -0.0417705 14.4218 3.88501 -0.0081101 4.48282 -0.0453825 -0.0824441 5.96028 1.97864 -0.0510059
linkedlist -0.293132 16.8633 -0.0106564 -0.148851 8.3584 -0.110461 -0.00690687 -0.0286948 -0.0749436 10.1457
linkedlist -0.0114023 14.588 3.24293 -0.0349952 -0.00316738 -0.0507791 -0.0593216 2.11277 3.5865 2.0119
linkedlist -0.0114023 14.588 3.24293 -0.0349952 -0.00316738 -0.0507791 -0.0593216 2.11277 3.5865 2.0119
linkedlist -0.136793 20.7847 -0.0107534 -0.168726 8.27816 -0.0565093 3.53819 -0.0232638 -0.0192375 2.77454
linkedlist -0.0250335 14.6659 1.58569 -0.0519829 7.54822 -0.043246 0.203174 -0.0510851 0.179314 4.27176
linkedlist -0.197308 12.7904 4.84409 -0.108869 -0.00295354 -0.0332166 -0.0249417 4.07098 -0.0041531 3.24949
linkedlist -0.0231935 11.653 3.95438 -0.141 1.40803 -0.10696 1.06463 -0.124629 7.06481 -0.0102451
linkedlist -0.0712984 12.4535 -0.0585164 -0.0752917 4.46486 -0.000200729 2.12802 4.59503 4.12696 -0.0290857
linkedlist -0.108145 15.6256 5.2917 -0.120759 -0.00579841 -0.0444474 -0.0385334 7.64092 6.39332 6.18723
linkedlist -0.0712984 12.4535 -0.0585164 -0.0752917 4.46486 -0.000200729 2.12802 4.59503 4.12696 -0.0290857
linkedlist -0.231752 19.7257 -0.0134317 -0.152447 2.80617 -0.109395 -0.0234627 -0.0712594 -0.0801396 11.9543
linkedlist -0.0712984 12.4535 -0.0585164 -0.0752917 4.46486 -0.000200729 2.12802 4.59503 4.12696 -0.0290857
linkedlist -0.130023 15.0331 5.1569 -0.00678416 -0.0357122 -0.0717577 -0.0531098 1.79755 0.811398 1.70521
linkedlist -0.0114023 14.588 3.24293 -0.0349952 -0.00316738 -0.0507791 -0.0593216 2.11277 3.5865 2.0119
linkedlist -0.231752 19.7257 -0.0134317 -0.152447 2.80617 -0.109395 -0.0234627 -0.0712594 -0.0801396 11.9543
linkedlist 0.392106 11.709 2.75105 -0.125074 3.00345 -0.0367988 -0.0366322 -0.0515672 1.92501 1.35324
linkedlist -0.0139302 10.8069 1.53237 -0.04881 1.54784 0.082155 -0.0404 2.1922 -0.010709 -0.0458459
linkedlist -0.293132 16.8633 -0.0106564 -0.148851 8.3584 -0.110461 -0.00690687 -0.0286948 -0.0749436 10.1457
linkedlist -0.0617473 16.969 -0.04563 -0.0190308 7.44111 -0.0874997 -0.040189 3.52468 4.48266 3.82382
linkedlist -0.0712984 12.4535 -0.0585164 -0.0752917 4.46486 -0.000200729 2.12802 4.59503 4.12696 -0.0290857
linkedlist -0.293132 16.8633 -0.0106564 -0.148851 8.3584 -0.110461 -0.00690687 -0.0286948 -0.0749436 10.1457
linkedlist -0.0114023 14.588 3.24293 -0.0349952 -0.00316738 -0.0507791 -0.0593216 2.11277 3.5865 2.0119
linkedlist -0.0417705 14.4218 3.88501 -0.0081101 4.48282 -0.0453825 -0.0824441 5.96028 1.97864 -0.0510059
linkedlist -0.083035 9.59772 -0.0760968 -0.0279377 10.996 -0.0439096 -0.0626907 4.3909 -0.075892 6.91901
linkedlist -0.293132 16.8633 -0.0106564 -0.148851 8.3584 -0.110461 -0.00690687 -0.0286948 -0.0749436 10.1457
linkedlist -0.0712984 12.4535 -0.0585164 -0.0752917 4.46486 -0.000200729 2.12802 4.59503 4.12696 -0.0290857
stack -0.297629 2.88313 -0.0375216 -0.0626864 5.85276 -0.0922175 -0.065799 4.72692 -0.080556 12.8241
stack -0.152461 0.26845 -0.0576459 -0.0126698 0.24634 -0.0858315 -0.0448014 2.33247 -0.0275841 8.08704
stack -0.297629 2.88313 -0.0375216 -0.0626864 5.85276 -0.0922175 -0.065799 4.72692 -0.080556 12.8241
stack -0.152461 0.26845 -0.0576459 -0.0126698 0.24634 -0.0858315 -0.0448014 2.33247 -0.0275841 8.08704
stack -0.0568713 -0.0403252 -0.0439528 -0.112379 2.03266 -0.0287916 3.0896 -0.0372877 -0.0301156 11.4107
stack -0.297629 2.88313 -0.0375216 -0.0626864 5.85276 -0.0922175 -0.065799 4.72692 -0.080556 12.8241
stack -0.0958889 5.59138 -0.0316108 -0.0691877 4.4413 -0.0878527 -0.0587763 -0.00863363 -0.0610488 15.1317
stack 0.641171 3.83359 -0.0487919 -0.0344872 5.58345 -0.0592764 -0.0335892 0.580717 -0.12138 14.3086
stack -0.182529 3.0785 -0.042498 -0.0623869 -0.0438984 -0.135244 -0.0328868 -0.0259447 -0.0930267 11.1446
stack -0.0568713 -0.0403252 -0.0439528 -0.112379 2.03266 -0.0287916 3.0896 -0.0372877 -0.0301156 11.4107
stack -0.128071 9.23186 -0.0396068 -0.11536 0.268895 -0.0888488 -0.0315212 -0.0944181 -0.0737566 13.8633
stack -0.135366 9.62179 -0.0543293 -0.112899 7.59858 -0.126212 -0.0133445 -0.0706329 -0.000117658 14.72
stack -0.155517 6.42489 -0.0743474 -0.147771 10.4686 -0.108368 -0.0132085 -0.0279699 -0.0595967 17.4825
stack 0.641171 3.83359 -0.0487919 -0.0344872 5.58345 -0.0592764 -0.0335892 0.580717 -0.12138 14.3086
stack -0.184216 3.00806 -0.0432815 -0.0678668 -0.0466661 -0.13783 -0.0284466 -0.0290506 -0.0916687 11.5797
stack -0.155517 6.42489 -0.0743474 -0.147771 10.4686 -0.108368 -0.0132085 -0.0279699 -0.0595967 17.4825
stack -0.122312 7.32633 -0.042636 -0.0841008 -0.0336565 -0.0328279 -0.0207534 0.0352347 -0.0294156 12.8114
stack -0.184216 3.00806 -0.0432815 -0.0678668 -0.0466661 -0.13783 -0.0284466 -0.0290506 -0.0916687 11.5797
stack -0.128646 5.37729 -0.0410721 -0.114419 1.42163 -0.118571 1.79 -0.0216085 -0.102808 20.723
stack -0.128071 9.23186 -0.0396068 -0.11536 0.268895 -0.0888488 -0.0315212 -0.0944181 -0.0737566 13.8633
stack -0.200849 -0.0266468 -0.0260493 -0.0396582 -0.023406 -0.112722 1.48739 1.22828 -0.0722779 12.8458
stack -0.174339 -0.0312701 -0.0195029 -0.0448666 -0.0432403 -0.124451 2.35282 -0.0454282 -0.0537046 10.9825
stack -0.152461 0.26845 -0.0576459 -0.0126698 0.24634 -0.0858315 -0.0448014 2.33247 -0.0275841 8.08704
stack -0.297629 2.88313 -0.0375216 -0.0626864 5.85276 -0.0922175 -0.065799 4.72692 -0.080556 12.8241
stack -0.232202 -0.0144736 -0.0752868 -0.0703117 -0.035394 -0.132921 0.262061 -0.0474931 -0.085322 14.4907
stack -0.0859713 4.90613 -0.0173657 -0.0955185 7.19971 -0.0881232 -0.0708124 0.557713 -0.123654 15.7253
stack -0.201915 4.1724 -0.031551 -0.0866587 2.61788 -0.0288597 -0.0224102 6.476 -0.0789599 13.9288
stack -0.128646 5.37729 -0.0410721 -0.114419 1.42163 -0.118571 1.79 -0.0216085 -0.102808 20.723
stack -0.128071 9.23186 -0.0396068 -0.11536 0.268895 -0.0888488 -0.0315212 -0.0944181 -0.0737566 13.8633
stack -0.201915 4.1724 -0.031551 -0.0866587 2.61788 -0.0288597 -0.0224102 6.476 -0.0789599 13.9288
stack -0.184216 3.00806 -0.0432815 -0.0678668 -0.0466661 -0.13783 -0.0284466 -0.0290506 -0.0916687 11.5797
stack -0.297629 2.88313 -0.0375216 -0.0626864 5.85276 -0.0922175 -0.065799 4.72692 -0.080556 12.8241
stack -0.128646 5.37729 -0.0410721 -0.114419 1.42163 -0.118571 1.79 -0.0216085 -0.102808 20.723
stack -0.18946 3.314 -0.0454805 -0.0720895 -0.0500095 -0.141631 -0.0127309 -0.0379688 -0.0787122 12.0018
stack -0.205608 9.80235 -0.0951991 -0.127303 2.9029 -0.0132739 -0.0518871 2.88988 -0.095118 13.4109
stack -0.297629 2.88313 -0.0375216 -0.0626864 5.85276 -0.0922175 -0.065799 4.72692 -0.080556 12.8241
stack -0.152461 0.26845 -0.0576459 -0.0126698 0.24634 -0.0858315 -0.0448014 2.33247 -0.0275841 8.08704
stack -0.297629 2.88313 -0.0375216 -0.0626864 5.85276 -0.0922175 -0.065799 4.72692 -0.080556 12.8241
stack -0.155517 6.42489 -0.0743474 -0.147771 10.4686 -0.108368 -0.0132085 -0.0279699 -0.0595967 17.4825
stack -0.150722 2.22288 -0.0459435 -0.165807 8.55264 -0.0537667 -0.0600472 -0.0271292 -0.0798088 15.6049
stack -0.0958889 5.59138 -0.0316108 -0.0691877 4.4413 -0.0878527 -0.0587763 -0.00863363 -0.0610488 15.1317
stack -0.150722 2.22288 -0.0459435 -0.165807 8.55264 -0.0537667 -0.0600472 -0.0271292 -0.0798088 15.6049
stack -0.297629 2.88313 -0.0375216 -0.0626864 5.85276 -0.0922175 -0.065799 4.72692 -0.080556 12.8241
stack -0.297629 2.88313 -0.0375216 -0.0626864 5.85276 -0.0922175 -0.065799 4.72692 -0.080556 12.8241
stack -0.128646 5.37729 -0.0410721 -0.114419 1.42163 -0.118571 1.79 -0.0216085 -0.102808 20.723
stack -0.297629 2.88313 -0.0375216 -0.0626864 5.85276 -0.0922175 -0.065799 4.72692 -0.080556 12.8241
stack -0.201915 4.1724 -0.031551 -0.0866587 2.61788 -0.0288597 -0.0224102 6.476 -0.0789599 13.9288
stack -0.152461 0.26845 -0.0576459 -0.0126698 0.24634 -0.0858315 -0.0448014 2.33247 -0.0275841 8.08704
stack -0.0958889 5.59138 -0.0316108 -0.0691877 4.4413 -0.0878527 -0.0587763 -0.00863363 -0.0610488 15.1317
stack -0.0859713 4.90613 -0.0173657 -0.0955185 7.19971 -0.0881232 -0.0708124 0.557713 -0.123654 15.7253
stack -0.200849 -0.0266468 -0.0260493 -0.0396582 -0.023406 -0.112722 1.48739 1.22828 -0.0722779 12.8458
stack -0.18946 3.314 -0.0454805 -0.0720895 -0.0500095 -0.141631 -0.0127309 -0.0379688 -0.0787122 12.0018
stack -0.297629 2.88313 -0.0375216 -0.0626864 5.85276 -0.0922175 -0.065799 4.72692 -0.080556 12.8241
stack -0.0568713 -0.0403252 -0.0439528 -0.112379 2.03266 -0.0287916 3.0896 -0.0372877 -0.0301156 11.4107
stack -0.297629 2.88313 -0.0375216 -0.0626864 5.85276 -0.0922175 -0.065799 4.72692 -0.080556 12.8241
stack -0.201915 4.1724 -0.031551 -0.0866587 2.61788 -0.0288597 -0.0224102 6.476 -0.0789599 13.9288
stack -0.135366 9.62179 -0.0543293 -0.112899 7.59858 -0.126212 -0.0133445 -0.0706329 -0.000117658 14.72
stack -0.0859713 4.90613 -0.0173657 -0.0955185 7.19971 -0.0881232 -0.0708124 0.557713 -0.123654 15.7253
stack -0.135366 9.62179 -0.0543293 -0.112899 7.59858 -0.126212 -0.0133445 -0.0706329 -0.000117658 14.72
stack -0.152461 0.26845 -0.0576459 -0.0126698 0.24634 -0.0858315 -0.0448014 2.33247 -0.0275841 8.08704
stack -0.205608 9.80235 -0.0951991 -0.127303 2.9029 -0.0132739 -0.0518871 2.88988 -0.095118 13.4109
stack -0.18946 3.314 -0.0454805 -0.0720895 -0.0500095 -0.141631 -0.0127309 -0.0379688 -0.0787122 12.0018
stack -0.297629 2.88313 -0.0375216 -0.0626864 5.85276 -0.0922175 -0.065799 4.72692 -0.080556 12.8241
stack -0.297629 2.88313 -0.0375216 -0.0626864 5.85276 -0.0922175 -0.065799 4.72692 -0.080556 12.8241
stack -0.182529 3.0785 -0.042498 -0.0623869 -0.0438984 -0.135244 -0.0328868 -0.0259447 -0.0930267 11.1446
stack -0.0859713 4.90613 -0.0173657 -0.0955185 7.19971 -0.0881232 -0.0708124 0.557713 -0.123654 15.7253
stack -0.200849 -0.0266468 -0.0260493 -0.0396582 -0.023406 -0.112722 1.48739 1.22828 -0.0722779 12.8458
stack -0.205608 9.80235 -0.0951991 -0.127303 2.9029 -0.0132739 -0.0518871 2.88988 -0.095118 13.4109
stack -0.152461 0.26845 -0.0576459 -0.0126698 0.24634 -0.0858315 -0.0448014 2.33247 -0.0275841 8.08704
stack -0.297629 2.88313 -0.0375216 -0.0626864 5.85276 -0.0922175 -0.065799 4.72692 -0.080556 12.8241
stack -0.297629 2.88313 -0.0375216 -0.0626864 5.85276 -0.0922175 -0.065799 4.72692 -0.080556 12.8241
stack -0.297629 2.88313 -0.0375216 -0.0626864 5.85276 -0.0922175 -0.065799 4.72692 -0.080556 12.8241
stack -0.128071 9.23186 -0.0396068 -0.11536 0.268895 -0.0888488 -0.0315212 -0.0944181 -0.0737566 13.8633
stack -0.200849 -0.0266468 -0.0260493 -0.0396582 -0.023406 -0.112722 1.48739 1.22828 -0.0722779 12.8458
stack 0.641171 3.83359 -0.0487919 -0.0344872 5.58345 -0.0592764 -0.0335892 0.580717 -0.12138 14.3086
stack -0.174339 -0.0312701 -0.0195029 -0.0448666 -0.0432403 -0.124451 2.35282 -0.0454282 -0.0537046 10.9825
stack -0.150722 2.22288 -0.0459435 -0.165807 8.55264 -0.0537667 -0.0600472 -0.0271292 -0.0798088 15.6049
stack -0.184216 3.00806 -0.0432815 -0.0678668 -0.0466661 -0.13783 -0.0284466 -0.0290506 -0.0916687 11.5797
stack -0.183609 8.96255 0.564305 -0.185008 -0.0146299 -0.0355558 -0.00319984 1.07052 -0.02275 14.6665
stack -0.174339 -0.0312701 -0.0195029 -0.0448666 -0.0432403 -0.124451 2.35282 -0.0454282 -0.0537046 10.9825
stack -0.150722 2.22288 -0.0459435 -0.165807 8.55264 -0.0537667 -0.0600472 -0.0271292 -0.0798088 15.6049
stack -0.0958889 5.59138 -0.0316108 -0.0691877 4.4413 -0.0878527 -0.0587763 -0.00863363 -0.0610488 15.1317
stack -0.297629 2.88313 -0.0375216 -0.0626864 5.85276 -0.0922175 -0.065799 4.72692 -0.080556 12.8241
stack -0.182529 3.0785 -0.042498 -0.0623869 -0.0438984 -0.135244 -0.0328868 -0.0259447 -0.0930267 11.1446
stack -0.297629 2.88313 -0.0375216 -0.0626864 5.85276 -0.0922175 -0.065799 4.72692 -0.080556 12.8241
stack -0.0958889 5.59138 -0.0316108 -0.0691877 4.4413 -0.0878527 -0.0587763 -0.00863363 -0.0610488 15.1317
stack -0.0958889 5.59138 -0.0316108 -0.0691877 4.4413 -0.0878527 -0.0587763 -0.00863363 -0.0610488 15.1317
stack -0.120864 5.02277 -0.0612308 -0.119749 3.64142 -0.0957333 5.01636 -0.0418927 -0.0351067 13.3903
stack -0.174339 -0.0312701 -0.0195029 -0.0448666 -0.0432403 -0.124451 2.35282 -0.0454282 -0.0537046 10.9825
stack -0.152461 0.26845 -0.0576459 -0.0126698 0.24634 -0.0858315 -0.0448014 2.33247 -0.0275841 8.08704
stack -0.155517 6.42489 -0.0743474 -0.147771 10.4686 -0.108368 -0.0132085 -0.0279699 -0.0595967 17.4825
stack -0.232202 -0.0144736 -0.0752868 -0.0703117 -0.035394 -0.132921 0.262061 -0.0474931 -0.085322 14.4907
stack -0.182529 3.0785 -0.042498 -0.0623869 -0.0438984 -0.135244 -0.0328868 -0.0259447 -0.0930267 11.1446
stack -0.0568713 -0.0403252 -0.0439528 -0.112379 2.03266 -0.0287916 3.0896 -0.0372877 -0.0301156 11.4107
stack -0.184216 3.00806 -0.0432815 -0.0678668 -0.0466661 -0.13783 -0.0284466 -0.0290506 -0.0916687 11.5797
stack -0.205608 9.80235 -0.0951991 -0.127303 2.9029 -0.0132739 -0.0518871 2.88988 -0.095118 13.4109
stack -0.182529 3.0785 -0.042498 -0.0623869 -0.0438984 -0.135244 -0.0328868 -0.0259447 -0.0930267 11.1446
stack -0.200849 -0.0266468 -0.0260493 -0.0396582 -0.023406 -0.112722 1.48739 1.22828 -0.0722779 12.8458
stack -0.297629 2.88313 -0.0375216 -0.0626864 5.85276 -0.0922175 -0.065799 4.72692 -0.080556 12.8241
stack -0.128646 5.37729 -0.0410721 -0.114419 1.42163 -0.118571 1.79 -0.0216085 -0.102808 20.723
stack -0.18946 3.314 -0.0454805 -0.0720895 -0.0500095 -0.141631 -0.0127309 -0.0379688 -0.0787122 12.0018
stack -0.297629 2.88313 -0.0375216 -0.0626864 5.85276 -0.0922175 -0.065799 4.72692 -0.080556 12.8241
stack -0.158 -0.0222753 5.94549 -0.0684078 9.70505 -0.000209137 -0.109753 4.48481 -0.0669068 1.34789
stack -0.297629 2.88313 -0.0375216 -0.0626864 5.85276 -0.0922175 -0.065799 4.72692 -0.080556 12.8241
stack -0.150722 2.22288 -0.0459435 -0.165807 8.55264 -0.0537667 -0.0600472 -0.0271292 -0.0798088 15.6049
stack -0.184216 3.00806 -0.0432815 -0.0678668 -0.0466661 -0.13783 -0.0284466 -0.0290506 -0.0916687 11.5797
stack -0.174339 -0.0312701 -0.0195029 -0.0448666 -0.0432403 -0.124451 2.35282 -0.0454282 -0.0537046 10.9825
stack -0.122312 7.32633 -0.042636 -0.0841008 -0.0336565 -0.0328279 -0.0207534 0.0352347 -0.0294156 12.8114
stack -0.214864 -0.00892749 -0.00328066 -0.147491 6.46112 -0.0382045 -0.040898 7.65618 -0.0608171 8.13582
stack -0.297629 2.88313 -0.0375216 -0.0626864 5.85276 -0.0922175 -0.065799 4.72692 -0.080556 12.8241
stack -0.184216 3.00806 -0.0432815 -0.0678668 -0.0466661 -0.13783 -0.0284466 -0.0290506 -0.0916687 11.5797
stack -0.297629 2.88313 -0.0375216 -0.0626864 5.85276 -0.0922175 -0.065799 4.72692 -0.080556 12.8241
stack -0.297629 2.88313 -0.0375216 -0.0626864 5.85276 -0.0922175 -0.065799 4.72692 -0.080556 12.8241
stack -0.0568713 -0.0403252 -0.0439528 -0.112379 2.03266 -0.0287916 3.0896 -0.0372877 -0.0301156 11.4107
stack -0.128646 5.37729 -0.0410721 -0.114419 1.42163 -0.118571 1.79 -0.0216085 -0.102808 20.723
knapsack -0.107712 2.69787 4.8228 -0.0965378 3.16249 -0.0329096 4.33467 -0.0265193 11.0624 -0.0527428
knapsack -0.193987 -0.0407068 -0.0158787 -0.0295669 -0.0162663 0.190162 0.306831 1.05373 7.20044 -0.0353904
knapsack -0.0274684 -0.0207093 1.14681 2.91882 -0.0797462 2.05066 -0.0199782 3.07482 10.6967 -0.00811079
knapsack 1.11636 -0.0812816 4.96872 -0.00112711 -0.0683831 0.70735 4.31526 -0.0363282 9.71113 -0.112911
knapsack -0.042221 5.31786 4.31164 -0.123439 3.57059 -0.00479129 3.47128 0.0473623 8.14586 -0.0231356
knapsack -0.042221 5.31786 4.31164 -0.123439 3.57059 -0.00479129 3.47128 0.0473623 8.14586 -0.0231356
knapsack -0.042221 5.31786 4.31164 -0.123439 3.57059 -0.00479129 3.47128 0.0473623 8.14586 -0.0231356
knapsack -0.0782254 3.0076 7.24803 2.12021 -0.0360861 -0.0830848 3.57435 -0.0220948 11.5283 -0.0965555
knapsack -0.0591311 -0.0473905 4.94277 -0.0702077 -0.0825807 -0.0596167 5.69355 -0.0618824 14.9117 -0.0758982
knapsack -0.0616362 7.10607 -0.00342978 4.5041 -0.0462943 -0.0664391 2.41588 0.0967034 14.2561 -0.0883972
knapsack -0.0274684 -0.0207093 1.14681 2.91882 -0.0797462 2.05066 -0.0199782 3.07482 10.6967 -0.00811079
knapsack -0.0591311 -0.0473905 4.94277 -0.0702077 -0.0825807 -0.0596167 5.69355 -0.0618824 14.9117 -0.0758982
knapsack -0.0465174 -0.0624948 3.54143 -0.0679577 -0.0731948 -0.0373322 6.64795 -0.0647682 13.7335 -0.091177
knapsack 0.757441 3.4739 8.69129 -0.0173405 2.08317 -0.0433039 1.19993 3.88863 14.6828 -0.119366
knapsack 0.757441 3.4739 8.69129 -0.0173405 2.08317 -0.0433039 1.19993 3.88863 14.6828 -0.119366
knapsack -0.0465174 -0.0624948 3.54143 -0.0679577 -0.0731948 -0.0373322 6.64795 -0.0647682 13.7335 -0.091177
knapsack -0.107712 2.69787 4.8228 -0.0965378 3.16249 -0.0329096 4.33467 -0.0265193 11.0624 -0.0527428
knapsack 0.757441 3.4739 8.69129 -0.0173405 2.08317 -0.0433039 1.19993 3.88863 14.6828 -0.119366
knapsack -0.0465174 -0.0624948 3.54143 -0.0679577 -0.0731948 -0.0373322 6.64795 -0.0647682 13.7335 -0.091177
knapsack -0.0465174 -0.0624948 3.54143 -0.0679577 -0.0731948 -0.0373322 6.64795 -0.0647682 13.7335 -0.091177
knapsack -0.207608 7.0868 -0.0773517 2.723 8.02819 -0.0557539 -0.0327102 -0.0127052 -0.103634 4.83158
knapsack 0.637418 -0.0349485 4.87536 4.77331 -0.0861671 3.77309 -0.0485145 2.68238 10.0262 -0.185613
knapsack -0.0591311 -0.0473905 4.94277 -0.0702077 -0.0825807 -0.0596167 5.69355 -0.0618824 14.9117 -0.0758982
knapsack 2.42862 -0.0685277 1.36219 0.841772 -0.0386384 -0.0278047 11.587 -0.0168978 3.25034 -0.061617
knapsack -0.0465174 -0.0624948 3.54143 -0.0679577 -0.0731948 -0.0373322 6.64795 -0.0647682 13.7335 -0.091177
knapsack -0.0465174 -0.0624948 3.54143 -0.0679577 -0.0731948 -0.0373322 6.64795 -0.0647682 13.7335 -0.091177
knapsack 0.637418 -0.0349485 4.87536 4.77331 -0.0861671 3.77309 -0.0485145 2.68238 10.0262 -0.185613
knapsack 1.11636 -0.0812816 4.96872 -0.00112711 -0.0683831 0.70735 4.31526 -0.0363282 9.71113 -0.112911
knapsack -0.0782254 3.0076 7.24803 2.12021 -0.0360861 -0.0830848 3.57435 -0.0220948 11.5283 -0.0965555
knapsack 1.11636 -0.0812816 4.96872 -0.00112711 -0.0683831 0.70735 4.31526 -0.0363282 9.71113 -0.112911
knapsack -0.0465174 -0.0624948 3.54143 -0.0679577 -0.0731948 -0.0373322 6.64795 -0.0647682 13.7335 -0.091177
knapsack 1.11636 -0.0812816 4.96872 -0.00112711 -0.0683831 0.70735 4.31526 -0.0363282 9.71113 -0.112911
knapsack -0.0465174 -0.0624948 3.54143 -0.0679577 -0.0731948 -0.0373322 6.64795 -0.0647682 13.7335 -0.091177
knapsack -0.0821289 -0.0257455 1.37246 3.53691 7.36685 -0.02468 2.87636 2.92911 5.41704 -0.0937177
knapsack 1.11636 -0.0812816 4.96872 -0.00112711 -0.0683831 0.70735 4.31526 -0.0363282 9.71113 -0.112911
knapsack -0.0465174 -0.0624948 3.54143 -0.0679577 -0.0731948 -0.0373322 6.64795 -0.0647682 13.7335 -0.091177
knapsack -0.0274684 -0.0207093 1.14681 2.91882 -0.0797462 2.05066 -0.0199782 3.07482 10.6967 -0.00811079
