bfs 0.574192 1.90717 4.56139 0.456196 0.592595 -0.0195689 -0.0179614 3.53732 -0.00773648 0.501996
bfs 0.574192 1.90717 4.56139 0.456196 0.592595 -0.0195689 -0.0179614 3.53732 -0.00773648 0.501996
bfs -0.000966309 -0.00318419 4.32525 -0.00754077 -0.00170216 0.768559 -0.00454341 0.399193 1.78428 -0.026004
bfs -0.018066 1.9771 3.50733 1.94651 -0.00031076 -0.00260618 -0.00342441 0.350591 1.37253 1.9159
bfs -0.000966309 -0.00318419 4.32525 -0.00754077 -0.00170216 0.768559 -0.00454341 0.399193 1.78428 -0.026004
bfs -0.018066 1.9771 3.50733 1.94651 -0.00031076 -0.00260618 -0.00342441 0.350591 1.37253 1.9159
bfs 0.19374 3.24401 2.95474 -0.000763908 1.4962 -0.0197239 -0.00281941 0.132163 3.7308 1.81518
bfs -0.000966309 -0.00318419 4.32525 -0.00754077 -0.00170216 0.768559 -0.00454341 0.399193 1.78428 -0.026004
bfs 2.28694 2.88952 3.4874 0.776416 -0.00721938 -0.0356524 -0.00874363 1.6265 3.45465 0.0899647
bfs -0.0197235 0.520509 3.97724 0.589874 -0.00341906 0.615087 -0.0243561 1.04562 2.15018 2.23866
bfs -0.018066 1.9771 3.50733 1.94651 -0.00031076 -0.00260618 -0.00342441 0.350591 1.37253 1.9159
bfs 0.574192 1.90717 4.56139 0.456196 0.592595 -0.0195689 -0.0179614 3.53732 -0.00773648 0.501996
bfs -0.000966309 -0.00318419 4.32525 -0.00754077 -0.00170216 0.768559 -0.00454341 0.399193 1.78428 -0.026004
bfs 1.81084 2.32301 4.24284 0.761959 0.24009 -0.0231233 0.0258631 -0.0159773 -0.001551 1.56502
bfs 1.81084 2.32301 4.24284 0.761959 0.24009 -0.0231233 0.0258631 -0.0159773 -0.001551 1.56502
bfs -0.000966309 -0.00318419 4.32525 -0.00754077 -0.00170216 0.768559 -0.00454341 0.399193 1.78428 -0.026004
bfs 2.28694 2.88952 3.4874 0.776416 -0.00721938 -0.0356524 -0.00874363 1.6265 3.45465 0.0899647
bfs 0.574192 1.90717 4.56139 0.456196 0.592595 -0.0195689 -0.0179614 3.53732 -0.00773648 0.501996
bfs -0.018066 1.9771 3.50733 1.94651 -0.00031076 -0.00260618 -0.00342441 0.350591 1.37253 1.9159
bfs 1.81084 2.32301 4.24284 0.761959 0.24009 -0.0231233 0.0258631 -0.0159773 -0.001551 1.56502
bfs 0.574192 1.90717 4.56139 0.456196 0.592595 -0.0195689 -0.0179614 3.53732 -0.00773648 0.501996
bfs 2.28694 2.88952 3.4874 0.776416 -0.00721938 -0.0356524 -0.00874363 1.6265 3.45465 0.0899647
bfs 2.01597 4.3646 3.53025 -0.00443885 0.112259 -0.0226838 -0.00825019 0.803888 -0.0277438 2.63563
bfs -0.018066 1.9771 3.50733 1.94651 -0.00031076 -0.00260618 -0.00342441 0.350591 1.37253 1.9159
bfs -0.018066 1.9771 3.50733 1.94651 -0.00031076 -0.00260618 -0.00342441 0.350591 1.37253 1.9159
bfs 2.28694 2.88952 3.4874 0.776416 -0.00721938 -0.0356524 -0.00874363 1.6265 3.45465 0.0899647
bfs 2.28694 2.88952 3.4874 0.776416 -0.00721938 -0.0356524 -0.00874363 1.6265 3.45465 0.0899647
bfs 0.574192 1.90717 4.56139 0.456196 0.592595 -0.0195689 -0.0179614 3.53732 -0.00773648 0.501996
bfs 1.81084 2.32301 4.24284 0.761959 0.24009 -0.0231233 0.0258631 -0.0159773 -0.001551 1.56502
bfs 0.574192 1.90717 4.56139 0.456196 0.592595 -0.0195689 -0.0179614 3.53732 -0.00773648 0.501996
bfs -0.0197235 0.520509 3.97724 0.589874 -0.00341906 0.615087 -0.0243561 1.04562 2.15018 2.23866
bfs -0.0197235 0.520509 3.97724 0.589874 -0.00341906 0.615087 -0.0243561 1.04562 2.15018 2.23866
dfs 0.816091 0.389083 1.6861 0.323769 -0.00874801 6.96971 -0.0148758 -0.0149747 -0.00385003 1.4007
dfs -0.0148203 -0.0257774 2.56838 1.08744 -0.0205964 9.93993 -0.0323854 -0.00661608 -0.0212197 -0.00895128
dfs -0.0148206 -0.025777 2.56844 1.08745 -0.0205974 9.94004 -0.0323855 -0.00661569 -0.0212212 -0.00895193
dfs -0.0148206 -0.025777 2.56844 1.08745 -0.0205974 9.94004 -0.0323855 -0.00661569 -0.0212212 -0.00895193
dfs -0.0148206 -0.025777 2.56844 1.08745 -0.0205974 9.94004 -0.0323855 -0.00661569 -0.0212212 -0.00895193
dfs -0.0148205 -0.0257782 2.56836 1.08741 -0.0205964 9.93985 -0.0323851 -0.00661634 -0.0212189 -0.00895109
dfs -0.0139529 -0.025292 2.63523 1.1085 -0.0197923 9.80576 -0.0329274 -0.00683176 -0.0205653 -0.00847844
dfs -0.0148206 -0.025777 2.56844 1.08745 -0.0205974 9.94004 -0.0323855 -0.00661569 -0.0212212 -0.00895193
dfs -0.0148206 -0.025777 2.56844 1.08745 -0.0205974 9.94004 -0.0323855 -0.00661569 -0.0212212 -0.00895193
dfs -0.0148206 -0.025777 2.56844 1.08745 -0.0205974 9.94004 -0.0323855 -0.00661569 -0.0212212 -0.00895193
dfs -0.0148206 -0.025777 2.56844 1.08745 -0.0205974 9.94004 -0.0323855 -0.00661569 -0.0212212 -0.00895193
dfs -0.0148206 -0.025777 2.56844 1.08745 -0.0205974 9.94004 -0.0323855 -0.00661569 -0.0212212 -0.00895193
dfs -0.0148206 -0.025777 2.56844 1.08745 -0.0205974 9.94004 -0.0323855 -0.00661569 -0.0212212 -0.00895193
dfs -0.0142879 -0.021235 2.64492 0.971318 -0.0187136 9.52844 -0.0357702 -0.0095594 -0.00949934 -0.0157805
dfs -0.0148206 -0.025777 2.56844 1.08745 -0.0205974 9.94004 -0.0323855 -0.00661569 -0.0212212 -0.00895193
dfs -0.0148206 -0.025777 2.56844 1.08745 -0.0205974 9.94004 -0.0323855 -0.00661569 -0.0212212 -0.00895193
dfs 0.77687 0.317503 1.98896 0.34228 -0.00765028 7.15876 -0.0175846 -0.0136845 0.110457 0.822986
dfs -0.0148206 -0.025777 2.56844 1.08745 -0.0205974 9.94004 -0.0323855 -0.00661569 -0.0212212 -0.00895193
dfs -0.0148206 -0.025777 2.56844 1.08745 -0.0205974 9.94004 -0.0323855 -0.00661569 -0.0212212 -0.00895193
dfs 0.816091 0.389083 1.6861 0.323769 -0.00874801 6.96971 -0.0148758 -0.0149747 -0.00385003 1.4007
dfs 0.816091 0.389083 1.6861 0.323769 -0.00874801 6.96971 -0.0148758 -0.0149747 -0.00385003 1.4007
dfs -0.0148206 -0.025777 2.56844 1.08745 -0.0205974 9.94004 -0.0323855 -0.00661569 -0.0212212 -0.00895193
dfs 0.758276 0.920079 1.54248 0.540872 -0.00566185 6.49412 -0.0128413 -0.0125223 -0.0074145 1.73216
dfs -0.0148206 -0.025777 2.56844 1.08745 -0.0205974 9.94004 -0.0323855 -0.00661569 -0.0212212 -0.00895193
dfs -0.0139529 -0.025292 2.63523 1.1085 -0.0197923 9.80576 -0.0329274 -0.00683176 -0.0205653 -0.00847844
dfs -0.0139529 -0.025292 2.63523 1.1085 -0.0197923 9.80576 -0.0329274 -0.00683176 -0.0205653 -0.00847844
dfs -0.0148206 -0.025777 2.56844 1.08745 -0.0205974 9.94004 -0.0323855 -0.00661569 -0.0212212 -0.00895193
dfs -0.0148206 -0.025777 2.56844 1.08745 -0.0205974 9.94004 -0.0323855 -0.00661569 -0.0212212 -0.00895193
dfs -0.0148205 -0.0257782 2.56836 1.08741 -0.0205964 9.93985 -0.0323851 -0.00661634 -0.0212189 -0.00895109
dfs -0.0148206 -0.025777 2.56844 1.08745 -0.0205974 9.94004 -0.0323855 -0.00661569 -0.0212212 -0.00895193
dfs -0.0139529 -0.025292 2.63523 1.1085 -0.0197923 9.80576 -0.0329274 -0.00683176 -0.0205653 -0.00847844
dfs -0.0139529 -0.025292 2.63523 1.1085 -0.0197923 9.80576 -0.0329274 -0.00683176 -0.0205653 -0.00847844
dfs -0.0148206 -0.025777 2.56844 1.08745 -0.0205974 9.94004 -0.0323855 -0.00661569 -0.0212212 -0.00895193
dfs -0.0148206 -0.025777 2.56844 1.08745 -0.0205974 9.94004 -0.0323855 -0.00661569 -0.0212212 -0.00895193
dfs -0.0148206 -0.025777 2.56844 1.08745 -0.0205974 9.94004 -0.0323855 -0.00661569 -0.0212212 -0.00895193
dfs -0.0148206 -0.025777 2.56844 1.08745 -0.0205974 9.94004 -0.0323855 -0.00661569 -0.0212212 -0.00895193
dfs -0.0139529 -0.025292 2.63523 1.1085 -0.0197923 9.80576 -0.0329274 -0.00683176 -0.0205653 -0.00847844
dfs -0.0148205 -0.0257782 2.56836 1.08741 -0.0205964 9.93985 -0.0323851 -0.00661634 -0.0212189 -0.00895109
dfs -0.0148206 -0.025777 2.56844 1.08745 -0.0205974 9.94004 -0.0323855 -0.00661569 -0.0212212 -0.00895193
dfs -0.0148206 -0.025777 2.56844 1.08745 -0.0205974 9.94004 -0.0323855 -0.00661569 -0.0212212 -0.00895193
dfs -0.0139529 -0.025292 2.63523 1.1085 -0.0197923 9.80576 -0.0329274 -0.00683176 -0.0205653 -0.00847844
dfs -0.0148203 -0.0257774 2.56838 1.08744 -0.0205964 9.93993 -0.0323854 -0.00661608 -0.0212197 -0.00895128
dfs -0.0148206 -0.025777 2.56844 1.08745 -0.0205974 9.94004 -0.0323855 -0.00661569 -0.0212212 -0.00895193
dfs -0.0148206 -0.025777 2.56844 1.08745 -0.0205974 9.94004 -0.0323855 -0.00661569 -0.0212212 -0.00895193
dfs -0.0148205 -0.0257782 2.56836 1.08741 -0.0205964 9.93985 -0.0323851 -0.00661634 -0.0212189 -0.00895109
dfs -0.0148206 -0.025777 2.56844 1.08745 -0.0205974 9.94004 -0.0323855 -0.00661569 -0.0212212 -0.00895193
dfs 0.77687 0.317503 1.98896 0.34228 -0.00765028 7.15876 -0.0175846 -0.0136845 0.110457 0.822986
dfs -0.0148205 -0.0257782 2.56836 1.08741 -0.0205964 9.93985 -0.0323851 -0.00661634 -0.0212189 -0.00895109
dfs -0.0148206 -0.025777 2.56844 1.08745 -0.0205974 9.94004 -0.0323855 -0.00661569 -0.0212212 -0.00895193
dfs -0.0148203 -0.0257774 2.56838 1.08744 -0.0205964 9.93993 -0.0323854 -0.00661608 -0.0212197 -0.00895128
dfs -0.0148206 -0.025777 2.56844 1.08745 -0.0205974 9.94004 -0.0323855 -0.00661569 -0.0212212 -0.00895193
dfs -0.0148205 -0.0257782 2.56836 1.08741 -0.0205964 9.93985 -0.0323851 -0.00661634 -0.0212189 -0.00895109
dfs -0.0139529 -0.025292 2.63523 1.1085 -0.0197923 9.80576 -0.0329274 -0.00683176 -0.0205653 -0.00847844
dfs -0.0148206 -0.025777 2.56844 1.08745 -0.0205974 9.94004 -0.0323855 -0.00661569 -0.0212212 -0.00895193
dfs 0.758276 0.920079 1.54248 0.540872 -0.00566185 6.49412 -0.0128413 -0.0125223 -0.0074145 1.73216
dfs -0.0148206 -0.025777 2.56844 1.08745 -0.0205974 9.94004 -0.0323855 -0.00661569 -0.0212212 -0.00895193
dfs -0.0148206 -0.025777 2.56844 1.08745 -0.0205974 9.94004 -0.0323855 -0.00661569 -0.0212212 -0.00895193
dfs -0.0148206 -0.025777 2.56844 1.08745 -0.0205974 9.94004 -0.0323855 -0.00661569 -0.0212212 -0.00895193
dfs -0.0148206 -0.025777 2.56844 1.08745 -0.0205974 9.94004 -0.0323855 -0.00661569 -0.0212212 -0.00895193
dfs -0.0148206 -0.025777 2.56844 1.08745 -0.0205974 9.94004 -0.0323855 -0.00661569 -0.0212212 -0.00895193
dfs -0.0148206 -0.025777 2.56844 1.08745 -0.0205974 9.94004 -0.0323855 -0.00661569 -0.0212212 -0.00895193
dfs -0.0148206 -0.025777 2.56844 1.08745 -0.0205974 9.94004 -0.0323855 -0.00661569 -0.0212212 -0.00895193
dfs -0.0148206 -0.025777 2.56844 1.08745 -0.0205974 9.94004 -0.0323855 -0.00661569 -0.0212212 -0.00895193
dfs -0.0139529 -0.025292 2.63523 1.1085 -0.0197923 9.80576 -0.0329274 -0.00683176 -0.0205653 -0.00847844
dfs -0.0148206 -0.025777 2.56844 1.08745 -0.0205974 9.94004 -0.0323855 -0.00661569 -0.0212212 -0.00895193
dfs -0.0148206 -0.025777 2.56844 1.08745 -0.0205974 9.94004 -0.0323855 -0.00661569 -0.0212212 -0.00895193
dfs -0.0148206 -0.025777 2.56844 1.08745 -0.0205974 9.94004 -0.0323855 -0.00661569 -0.0212212 -0.00895193
dfs -0.0148206 -0.025777 2.56844 1.08745 -0.0205974 9.94004 -0.0323855 -0.00661569 -0.0212212 -0.00895193
dfs -0.0148206 -0.025777 2.56844 1.08745 -0.0205974 9.94004 -0.0323855 -0.00661569 -0.0212212 -0.00895193
dfs -0.0148206 -0.025777 2.56844 1.08745 -0.0205974 9.94004 -0.0323855 -0.00661569 -0.0212212 -0.00895193
dfs -0.0142879 -0.021235 2.64492 0.971318 -0.0187136 9.52844 -0.0357702 -0.0095594 -0.00949934 -0.0157805
dfs -0.0142879 -0.021235 2.64492 0.971318 -0.0187136 9.52844 -0.0357702 -0.0095594 -0.00949934 -0.0157805
dfs 0.77687 0.317503 1.98896 0.34228 -0.00765028 7.15876 -0.0175846 -0.0136845 0.110457 0.822986
dfs -0.0148206 -0.025777 2.56844 1.08745 -0.0205974 9.94004 -0.0323855 -0.00661569 -0.0212212 -0.00895193
dfs -0.0139529 -0.025292 2.63523 1.1085 -0.0197923 9.80576 -0.0329274 -0.00683176 -0.0205653 -0.00847844
dfs -0.0139529 -0.025292 2.63523 1.1085 -0.0197923 9.80576 -0.0329274 -0.00683176 -0.0205653 -0.00847844
dfs -0.0148205 -0.0257782 2.56836 1.08741 -0.0205964 9.93985 -0.0323851 -0.00661634 -0.0212189 -0.00895109
dfs -0.0148205 -0.0257782 2.56836 1.08741 -0.0205964 9.93985 -0.0323851 -0.00661634 -0.0212189 -0.00895109
dfs -0.0148206 -0.025777 2.56844 1.08745 -0.0205974 9.94004 -0.0323855 -0.00661569 -0.0212212 -0.00895193
dfs 0.996979 1.28221 4.49551 -0.0120692 0.986277 -0.0309373 -0.00647704 1.33441 3.1402 -0.0170241
dfs -0.0139529 -0.025292 2.63523 1.1085 -0.0197923 9.80576 -0.0329274 -0.00683176 -0.0205653 -0.00847844
dfs 0.758276 0.920079 1.54248 0.540872 -0.00566185 6.49412 -0.0128413 -0.0125223 -0.0074145 1.73216
dfs -0.0148206 -0.025777 2.56844 1.08745 -0.0205974 9.94004 -0.0323855 -0.00661569 -0.0212212 -0.00895193
dfs 0.816091 0.389083 1.6861 0.323769 -0.00874801 6.96971 -0.0148758 -0.0149747 -0.00385003 1.4007
dfs -0.0148205 -0.0257782 2.56836 1.08741 -0.0205964 9.93985 -0.0323851 -0.00661634 -0.0212189 -0.00895109
dfs -0.0148206 -0.025777 2.56844 1.08745 -0.0205974 9.94004 -0.0323855 -0.00661569 -0.0212212 -0.00895193
dfs 0.77687 0.317503 1.98896 0.34228 -0.00765028 7.15876 -0.0175846 -0.0136845 0.110457 0.822986
dfs -0.0148206 -0.025777 2.56844 1.08745 -0.0205974 9.94004 -0.0323855 -0.00661569 -0.0212212 -0.00895193
dfs -0.0139529 -0.025292 2.63523 1.1085 -0.0197923 9.80576 -0.0329274 -0.00683176 -0.0205653 -0.00847844
dfs -0.0148206 -0.025777 2.56844 1.08745 -0.0205974 9.94004 -0.0323855 -0.00661569 -0.0212212 -0.00895193
dfs -0.0148206 -0.025777 2.56844 1.08745 -0.0205974 9.94004 -0.0323855 -0.00661569 -0.0212212 -0.00895193
dfs -0.0142879 -0.021235 2.64492 0.971318 -0.0187136 9.52844 -0.0357702 -0.0095594 -0.00949934 -0.0157805
dfs -0.0139529 -0.025292 2.63523 1.1085 -0.0197923 9.80576 -0.0329274 -0.00683176 -0.0205653 -0.00847844
dfs 0.758276 0.920079 1.54248 0.540872 -0.00566185 6.49412 -0.0128413 -0.0125223 -0.0074145 1.73216
dfs -0.0139529 -0.025292 2.63523 1.1085 -0.0197923 9.80576 -0.0329274 -0.00683176 -0.0205653 -0.00847844
dfs -0.0142879 -0.021235 2.64492 0.971318 -0.0187136 9.52844 -0.0357702 -0.0095594 -0.00949934 -0.0157805
dfs -0.0142879 -0.021235 2.64492 0.971318 -0.0187136 9.52844 -0.0357702 -0.0095594 -0.00949934 -0.0157805
dfs -0.0139529 -0.025292 2.63523 1.1085 -0.0197923 9.80576 -0.0329274 -0.00683176 -0.0205653 -0.00847844
dfs -0.0148206 -0.025777 2.56844 1.08745 -0.0205974 9.94004 -0.0323855 -0.00661569 -0.0212212 -0.00895193
dfs -0.0148206 -0.025777 2.56844 1.08745 -0.0205974 9.94004 -0.0323855 -0.00661569 -0.0212212 -0.00895193
dfs -0.0148205 -0.0257782 2.56836 1.08741 -0.0205964 9.93985 -0.0323851 -0.00661634 -0.0212189 -0.00895109
dfs -0.0148206 -0.025777 2.56844 1.08745 -0.0205974 9.94004 -0.0323855 -0.00661569 -0.0212212 -0.00895193
dfs -0.0148206 -0.025777 2.56844 1.08745 -0.0205974 9.94004 -0.0323855 -0.00661569 -0.0212212 -0.00895193
dfs -0.0148206 -0.025777 2.56844 1.08745 -0.0205974 9.94004 -0.0323855 -0.00661569 -0.0212212 -0.00895193
dfs -0.0148206 -0.025777 2.56844 1.08745 -0.0205974 9.94004 -0.0323855 -0.00661569 -0.0212212 -0.00895193
dfs -0.0139529 -0.025292 2.63523 1.1085 -0.0197923 9.80576 -0.0329274 -0.00683176 -0.0205653 -0.00847844
dfs -0.0139529 -0.025292 2.63523 1.1085 -0.0197923 9.80576 -0.0329274 -0.00683176 -0.0205653 -0.00847844
dfs -0.0142879 -0.021235 2.64492 0.971318 -0.0187136 9.52844 -0.0357702 -0.0095594 -0.00949934 -0.0157805
dfs -0.0148206 -0.025777 2.56844 1.08745 -0.0205974 9.94004 -0.0323855 -0.00661569 -0.0212212 -0.00895193
dfs -0.0148205 -0.0257782 2.56836 1.08741 -0.0205964 9.93985 -0.0323851 -0.00661634 -0.0212189 -0.00895109
dfs -0.0148206 -0.025777 2.56844 1.08745 -0.0205974 9.94004 -0.0323855 -0.00661569 -0.0212212 -0.00895193
dfs -0.0148206 -0.025777 2.56844 1.08745 -0.0205974 9.94004 -0.0323855 -0.00661569 -0.0212212 -0.00895193
dfs -0.0148205 -0.0257782 2.56836 1.08741 -0.0205964 9.93985 -0.0323851 -0.00661634 -0.0212189 -0.00895109
dfs -0.0148206 -0.025777 2.56844 1.08745 -0.0205974 9.94004 -0.0323855 -0.00661569 -0.0212212 -0.00895193
dfs -0.0148206 -0.025777 2.56844 1.08745 -0.0205974 9.94004 -0.0323855 -0.00661569 -0.0212212 -0.00895193
dfs -0.0148206 -0.025777 2.56844 1.08745 -0.0205974 9.94004 -0.0323855 -0.00661569 -0.0212212 -0.00895193
dfs -0.0148203 -0.0257774 2.56838 1.08744 -0.0205964 9.93993 -0.0323854 -0.00661608 -0.0212197 -0.00895128
dfs -0.0139529 -0.025292 2.63523 1.1085 -0.0197923 9.80576 -0.0329274 -0.00683176 -0.0205653 -0.00847844
dfs -0.0139529 -0.025292 2.63523 1.1085 -0.0197923 9.80576 -0.0329274 -0.00683176 -0.0205653 -0.00847844
dfs -0.0148206 -0.025777 2.56844 1.08745 -0.0205974 9.94004 -0.0323855 -0.00661569 -0.0212212 -0.00895193
dfs -0.0148206 -0.025777 2.56844 1.08745 -0.0205974 9.94004 -0.0323855 -0.00661569 -0.0212212 -0.00895193
dfs 0.758276 0.920079 1.54248 0.540872 -0.00566185 6.49412 -0.0128413 -0.0125223 -0.0074145 1.73216
dfs -0.0148205 -0.0257782 2.56836 1.08741 -0.0205964 9.93985 -0.0323851 -0.00661634 -0.0212189 -0.00895109
dfs -0.0148206 -0.025777 2.56844 1.08745 -0.0205974 9.94004 -0.0323855 -0.00661569 -0.0212212 -0.00895193
dfs -0.0139529 -0.025292 2.63523 1.1085 -0.0197923 9.80576 -0.0329274 -0.00683176 -0.0205653 -0.00847844
dfs -0.0148205 -0.0257782 2.56836 1.08741 -0.0205964 9.93985 -0.0323851 -0.00661634 -0.0212189 -0.00895109
dfs -0.0148206 -0.025777 2.56844 1.08745 -0.0205974 9.94004 -0.0323855 -0.00661569 -0.0212212 -0.00895193
dfs -0.0148206 -0.025777 2.56844 1.08745 -0.0205974 9.94004 -0.0323855 -0.00661569 -0.0212212 -0.00895193
dfs -0.0148205 -0.0257782 2.56836 1.08741 -0.0205964 9.93985 -0.0323851 -0.00661634 -0.0212189 -0.00895109
dfs -0.0148206 -0.025777 2.56844 1.08745 -0.0205974 9.94004 -0.0323855 -0.00661569 -0.0212212 -0.00895193
dfs -0.0148206 -0.025777 2.56844 1.08745 -0.0205974 9.94004 -0.0323855 -0.00661569 -0.0212212 -0.00895193
quicksort 0.599285 1.79696 2.93621 4.08479 -0.0243776 -0.00536727 -0.00643555 1.10333 3.0147 -0.000132093
quicksort 1.00681 0.57673 2.20176 5.62197 -0.0286875 -0.0125615 3.37505 0.0210899 2.77918 0.0483989
quicksort 0.0875319 0.981506 3.02167 1.38281 -0.00946692 -0.00297144 3.82138 -0.0064008 1.63887 -0.00957404
quicksort 1.19855 2.83194 1.66157 -0.0095834 0.738677 0.064322 -0.02582 2.74021 1.40987 0.53349
quicksort 0.599285 1.79696 2.93621 4.08479 -0.0243776 -0.00536727 -0.00643555 1.10333 3.0147 -0.000132093
quicksort 3.48544 0.708982 2.51941 5.64144 -0.0384072 -0.00534899 2.59736 -0.00435152 3.34759 -0.021432
quicksort 3.48544 0.708982 2.51941 5.64144 -0.0384072 -0.00534899 2.59736 -0.00435152 3.34759 -0.021432
quicksort 1.9267 2.38689 0.651939 4.44102 -0.00477224 -0.0123432 0.77531 0.0321564 0.975512 3.74413
quicksort 3.48544 0.708982 2.51941 5.64144 -0.0384072 -0.00534899 2.59736 -0.00435152 3.34759 -0.021432
quicksort 0.599285 1.79696 2.93621 4.08479 -0.0243776 -0.00536727 -0.00643555 1.10333 3.0147 -0.000132093
quicksort 1.00681 0.57673 2.20176 5.62197 -0.0286875 -0.0125615 3.37505 0.0210899 2.77918 0.0483989
quicksort 0.599285 1.79696 2.93621 4.08479 -0.0243776 -0.00536727 -0.00643555 1.10333 3.0147 -0.000132093
quicksort 1.00681 0.57673 2.20176 5.62197 -0.0286875 -0.0125615 3.37505 0.0210899 2.77918 0.0483989
quicksort 0.599285 1.79696 2.93621 4.08479 -0.0243776 -0.00536727 -0.00643555 1.10333 3.0147 -0.000132093
quicksort 3.48544 0.708982 2.51941 5.64144 -0.0384072 -0.00534899 2.59736 -0.00435152 3.34759 -0.021432
heap 0.875062 3.54711 2.64912 0.586484 0.878319 -0.0338986 -0.00888254 3.52549 1.40263 0.727848
heap -0.027518 1.99408 2.44552 1.61183 1.33177 -0.0129446 0.034781 5.78037 -0.00751075 1.14683
heap -0.030495 1.32455 2.08573 1.91747 1.92443 -0.010478 -0.00417942 5.94336 -0.0088944 1.73992
heap -0.030495 1.32455 2.08573 1.91747 1.92443 -0.010478 -0.00417942 5.94336 -0.0088944 1.73992
heap 0.673585 3.13691 3.09242 0.17655 0.964136 -0.0335798 -0.0211434 3.70661 1.64998 -0.000443731
heap 0.875062 3.54711 2.64912 0.586484 0.878319 -0.0338986 -0.00888254 3.52549 1.40263 0.727848
heap 0.218555 3.47989 2.60665 0.600628 0.397362 -0.0170494 -0.00327607 -0.00855648 1.06036 5.21978
heap -0.030495 1.32455 2.08573 1.91747 1.92443 -0.010478 -0.00417942 5.94336 -0.0088944 1.73992
heap -0.030495 1.32455 2.08573 1.91747 1.92443 -0.010478 -0.00417942 5.94336 -0.0088944 1.73992
heap -0.027518 1.99408 2.44552 1.61183 1.33177 -0.0129446 0.034781 5.78037 -0.00751075 1.14683
heap 0.875062 3.54711 2.64912 0.586484 0.878319 -0.0338986 -0.00888254 3.52549 1.40263 0.727848
bubblesort -0.00152699 1.25252 2.34231 1.70537 -0.00387663 -0.00874653 3.921 0.108698 0.816496 1.01852
bubblesort 6.03857 1.18315 1.45914 1.04712 -0.0263652 -0.0217259 4.95213 -0.0312278 4.60748 0.0289866
bubblesort -0.00152699 1.25252 2.34231 1.70537 -0.00387663 -0.00874653 3.921 0.108698 0.816496 1.01852
bubblesort 3.20751 1.17249 1.44602 4.01138 -0.0365884 -0.00681119 4.84161 -0.0135341 5.10917 -0.0182297
bubblesort 1.55336 1.9055 2.45453 1.47562 -0.0189933 -0.0137345 4.52766 -0.00743262 2.36968 -0.00507423
bubblesort 3.20751 1.17249 1.44602 4.01138 -0.0365884 -0.00681119 4.84161 -0.0135341 5.10917 -0.0182297
bubblesort 3.20751 1.17249 1.44602 4.01138 -0.0365884 -0.00681119 4.84161 -0.0135341 5.10917 -0.0182297
bubblesort 3.20751 1.17249 1.44602 4.01138 -0.0365884 -0.00681119 4.84161 -0.0135341 5.10917 -0.0182297
bubblesort 0.765689 0.38425 3.0359 2.30678 -0.0195349 0.180873 4.78506 -0.00576624 1.76311 -0.0141217
bubblesort 6.03857 1.18315 1.45914 1.04712 -0.0263652 -0.0217259 4.95213 -0.0312278 4.60748 0.0289866
bubblesort 3.20751 1.17249 1.44602 4.01138 -0.0365884 -0.00681119 4.84161 -0.0135341 5.10917 -0.0182297
bubblesort 3.20751 1.17249 1.44602 4.01138 -0.0365884 -0.00681119 4.84161 -0.0135341 5.10917 -0.0182297
bubblesort 6.03857 1.18315 1.45914 1.04712 -0.0263652 -0.0217259 4.95213 -0.0312278 4.60748 0.0289866
bubblesort 6.03857 1.18315 1.45914 1.04712 -0.0263652 -0.0217259 4.95213 -0.0312278 4.60748 0.0289866
bubblesort 6.03857 1.18315 1.45914 1.04712 -0.0263652 -0.0217259 4.95213 -0.0312278 4.60748 0.0289866
bubblesort 6.03857 1.18315 1.45914 1.04712 -0.0263652 -0.0217259 4.95213 -0.0312278 4.60748 0.0289866
bubblesort 1.80423 2.32253 1.87515 2.35159 -0.0304035 -0.0132925 4.99138 -0.0148087 3.00125 0.13151
bubblesort 6.03857 1.18315 1.45914 1.04712 -0.0263652 -0.0217259 4.95213 -0.0312278 4.60748 0.0289866
bubblesort -0.00152699 1.25252 2.34231 1.70537 -0.00387663 -0.00874653 3.921 0.108698 0.816496 1.01852
bubblesort -0.00291253 2.13676 2.96569 -0.00146251 -0.00035299 -0.0023965 1.89682 -0.00685117 1.74694 0.347112
mergesort 6.76635 0.600758 2.10553 2.74845 -0.0349127 -0.00578699 3.13976 -0.0268269 5.19778 -0.010653
mergesort 4.88333 1.32479 1.50903 2.74606 -0.0256756 1.02655 3.71045 -0.0366629 2.1906 0.865759
mergesort 5.49498 0.121407 2.59351 1.07184 -0.0151985 -0.0172704 3.86801 -0.0246155 4.86103 -0.0109453
mergesort 6.4418 -0.00343222 2.7572 3.33277 -0.0331154 -0.0181293 3.20446 -0.0198632 4.97264 -0.0198231
mergesort 6.88369 0.454857 0.633322 2.26839 -0.0261849 -0.00350892 2.36682 -0.0238622 4.49008 -0.0219181
mergesort 5.49498 0.121407 2.59351 1.07184 -0.0151985 -0.0172704 3.86801 -0.0246155 4.86103 -0.0109453
mergesort 6.88369 0.454857 0.633322 2.26839 -0.0261849 -0.00350892 2.36682 -0.0238622 4.49008 -0.0219181
mergesort 5.49498 0.121407 2.59351 1.07184 -0.0151985 -0.0172704 3.86801 -0.0246155 4.86103 -0.0109453
mergesort 6.76635 0.600758 2.10553 2.74845 -0.0349127 -0.00578699 3.13976 -0.0268269 5.19778 -0.010653
mergesort 3.86322 2.1593 2.81683 2.68769 -0.0124163 -0.0310898 -0.00105563 0.582356 -0.0202504 2.40647
mergesort 5.49498 0.121407 2.59351 1.07184 -0.0151985 -0.0172704 3.86801 -0.0246155 4.86103 -0.0109453
mergesort 3.86322 2.1593 2.81683 2.68769 -0.0124163 -0.0310898 -0.00105563 0.582356 -0.0202504 2.40647
mergesort 6.88369 0.454857 0.633322 2.26839 -0.0261849 -0.00350892 2.36682 -0.0238622 4.49008 -0.0219181
mergesort 6.4418 -0.00343222 2.7572 3.33277 -0.0331154 -0.0181293 3.20446 -0.0198632 4.97264 -0.0198231
mergesort 3.86322 2.1593 2.81683 2.68769 -0.0124163 -0.0310898 -0.00105563 0.582356 -0.0202504 2.40647
mergesort 6.76589 0.96926 2.01207 2.86288 -0.0327657 -0.00872065 3.31113 -0.0247682 4.93112 -0.00949517
mergesort 6.76635 0.600758 2.10553 2.74845 -0.0349127 -0.00578699 3.13976 -0.0268269 5.19778 -0.010653
mergesort 3.86322 2.1593 2.81683 2.68769 -0.0124163 -0.0310898 -0.00105563 0.582356 -0.0202504 2.40647
mergesort 6.17895 1.10983 2.62801 2.45984 -0.0300057 -0.0322193 3.14203 -0.0092997 3.93872 -0.0273624
mergesort 4.88333 1.32479 1.50903 2.74606 -0.0256756 1.02655 3.71045 -0.0366629 2.1906 0.865759
mergesort 6.17895 1.10983 2.62801 2.45984 -0.0300057 -0.0322193 3.14203 -0.0092997 3.93872 -0.0273624
mergesort 6.17895 1.10983 2.62801 2.45984 -0.0300057 -0.0322193 3.14203 -0.0092997 3.93872 -0.0273624
mergesort 6.76589 0.96926 2.01207 2.86288 -0.0327657 -0.00872065 3.31113 -0.0247682 4.93112 -0.00949517
mergesort 3.86322 2.1593 2.81683 2.68769 -0.0124163 -0.0310898 -0.00105563 0.582356 -0.0202504 2.40647
mergesort 6.17895 1.10983 2.62801 2.45984 -0.0300057 -0.0322193 3.14203 -0.0092997 3.93872 -0.0273624
mergesort 5.49498 0.121407 2.59351 1.07184 -0.0151985 -0.0172704 3.86801 -0.0246155 4.86103 -0.0109453
mergesort 6.88369 0.454857 0.633322 2.26839 -0.0261849 -0.00350892 2.36682 -0.0238622 4.49008 -0.0219181
mergesort 5.49498 0.121407 2.59351 1.07184 -0.0151985 -0.0172704 3.86801 -0.0246155 4.86103 -0.0109453
mergesort 6.76635 0.600758 2.10553 2.74845 -0.0349127 -0.00578699 3.13976 -0.0268269 5.19778 -0.010653
mergesort 6.76635 0.600758 2.10553 2.74845 -0.0349127 -0.00578699 3.13976 -0.0268269 5.19778 -0.010653
mergesort 6.4418 -0.00343222 2.7572 3.33277 -0.0331154 -0.0181293 3.20446 -0.0198632 4.97264 -0.0198231
mergesort 4.88333 1.32479 1.50903 2.74606 -0.0256756 1.02655 3.71045 -0.0366629 2.1906 0.865759
mergesort -0.0117407 1.2532 2.99824 1.16677 -0.00904856 -0.0127137 -0.0120376 1.3693 3.78169 1.12453
queue -0.0285754 1.54737 0.32765 -8.62329e-05 4.46148 1.78147 -0.0113835 1.86377 1.26764 3.10953
queue -0.0285754 1.54737 0.32765 -8.62329e-05 4.46148 1.78147 -0.0113835 1.86377 1.26764 3.10953
queue -0.0307491 1.4864 3.16579 -0.0325358 4.38058 0.788753 -0.0117158 1.99645 -0.0228398 2.78468
queue -0.0285754 1.54737 0.32765 -8.62329e-05 4.46148 1.78147 -0.0113835 1.86377 1.26764 3.10953
queue -0.0338977 1.08285 1.55715 -0.0153631 6.01505 0.629422 -0.00484262 1.48197 -0.00433263 4.1478
queue 1.35369 -0.0136417 2.53581 2.31656 -0.0014521 3.22962 -0.00330622 0.286863 -0.00833235 0.0599668
queue -0.0338977 1.08285 1.55715 -0.0153631 6.01505 0.629422 -0.00484262 1.48197 -0.00433263 4.1478
queue -0.0338977 1.08285 1.55715 -0.0153631 6.01505 0.629422 -0.00484262 1.48197 -0.00433263 4.1478
queue -0.0338977 1.08285 1.55715 -0.0153631 6.01505 0.629422 -0.00484262 1.48197 -0.00433263 4.1478
queue -0.00834445 0.219832 2.1001 -0.00925268 3.09868 -0.00820814 -0.0162564 0.131626 2.1094 3.43033
queue -0.0338977 1.08285 1.55715 -0.0153631 6.01505 0.629422 -0.00484262 1.48197 -0.00433263 4.1478
queue -0.0338977 1.08285 1.55715 -0.0153631 6.01505 0.629422 -0.00484262 1.48197 -0.00433263 4.1478
queue -0.0307491 1.4864 3.16579 -0.0325358 4.38058 0.788753 -0.0117158 1.99645 -0.0228398 2.78468
queue -0.00315403 1.74363 2.79063 -0.00850651 3.84619 -0.0170172 -0.0202359 1.77535 -0.0192214 4.4819
queue -0.0338977 1.08285 1.55715 -0.0153631 6.01505 0.629422 -0.00484262 1.48197 -0.00433263 4.1478
queue -0.0285754 1.54737 0.32765 -8.62329e-05 4.46148 1.78147 -0.0113835 1.86377 1.26764 3.10953
queue -0.0338977 1.08285 1.55715 -0.0153631 6.01505 0.629422 -0.00484262 1.48197 -0.00433263 4.1478
queue -0.0338977 1.08285 1.55715 -0.0153631 6.01505 0.629422 -0.00484262 1.48197 -0.00433263 4.1478
queue -0.0338977 1.08285 1.55715 -0.0153631 6.01505 0.629422 -0.00484262 1.48197 -0.00433263 4.1478
queue -0.0307491 1.4864 3.16579 -0.0325358 4.38058 0.788753 -0.0117158 1.99645 -0.0228398 2.78468
queue -0.0338977 1.08285 1.55715 -0.0153631 6.01505 0.629422 -0.00484262 1.48197 -0.00433263 4.1478
queue -0.013012 4.29244 2.77825 0.184305 0.483236 -0.0169394 -0.0209347 3.31066 -0.00266079 0.0192103
queue -0.00834445 0.219832 2.1001 -0.00925268 3.09868 -0.00820814 -0.0162564 0.131626 2.1094 3.43033
queue -0.00512454 2.38033 3.35665 2.35187 -0.00146619 -0.0111146 -0.0251296 3.24944 1.13254 -0.0154602
queue -0.0307491 1.4864 3.16579 -0.0325358 4.38058 0.788753 -0.0117158 1.99645 -0.0228398 2.78468
queue -0.0270478 1.28 1.0616 -0.0189648 5.40465 0.82426 -0.00056689 1.49685 -0.00695199 4.71621
queue -0.0307491 1.4864 3.16579 -0.0325358 4.38058 0.788753 -0.0117158 1.99645 -0.0228398 2.78468
queue -0.0338977 1.08285 1.55715 -0.0153631 6.01505 0.629422 -0.00484262 1.48197 -0.00433263 4.1478
queue -0.0338977 1.08285 1.55715 -0.0153631 6.01505 0.629422 -0.00484262 1.48197 -0.00433263 4.1478
queue -0.0338977 1.08285 1.55715 -0.0153631 6.01505 0.629422 -0.00484262 1.48197 -0.00433263 4.1478
queue -0.0338977 1.08285 1.55715 -0.0153631 6.01505 0.629422 -0.00484262 1.48197 -0.00433263 4.1478
queue -0.0285754 1.54737 0.32765 -8.62329e-05 4.46148 1.78147 -0.0113835 1.86377 1.26764 3.10953
queue -0.00315403 1.74363 2.79063 -0.00850651 3.84619 -0.0170172 -0.0202359 1.77535 -0.0192214 4.4819
queue -0.0338977 1.08285 1.55715 -0.0153631 6.01505 0.629422 -0.00484262 1.48197 -0.00433263 4.1478
queue -0.0338977 1.08285 1.55715 -0.0153631 6.01505 0.629422 -0.00484262 1.48197 -0.00433263 4.1478
queue -0.0338977 1.08285 1.55715 -0.0153631 6.01505 0.629422 -0.00484262 1.48197 -0.00433263 4.1478
queue -0.00834445 0.219832 2.1001 -0.00925268 3.09868 -0.00820814 -0.0162564 0.131626 2.1094 3.43033
queue -0.0180229 3.76033 3.21758 0.613595 -0.000822504 -0.0143313 -0.0100331 3.81888 1.54839 -0.0050117
queue -0.0338977 1.08285 1.55715 -0.0153631 6.01505 0.629422 -0.00484262 1.48197 -0.00433263 4.1478
linkedlist -0.00438203 5.88641 2.02986 -0.00246878 -0.00649643 -0.0229095 1.25473 2.03136 0.740219 0.977228
linkedlist 1.40344 6.14948 2.83017 -0.00715839 0.538338 -0.0431519 -0.00552185 0.393336 2.86249 1.4406
linkedlist 1.33835 5.2419 2.22137 0.799057 -0.00742701 -0.00262306 0.618412 -0.00807644 1.70358 2.60868
linkedlist 1.1763 4.88414 1.9653 0.710704 -0.00553089 -0.00438742 0.777264 -0.00318328 1.27401 3.14522
linkedlist -0.017707 4.28297 1.84847 1.9852 0.760905 -0.0016843 0.495932 1.55029 -0.00305907 1.68365
linkedlist -0.0125471 3.11999 3.29686 1.12158 0.413288 -0.0091735 -0.0131694 3.23906 -0.0038619 -0.000126809
linkedlist 1.33835 5.2419 2.22137 0.799057 -0.00742701 -0.00262306 0.618412 -0.00807644 1.70358 2.60868
linkedlist 1.33835 5.2419 2.22137 0.799057 -0.00742701 -0.00262306 0.618412 -0.00807644 1.70358 2.60868
linkedlist 1.40344 6.14948 2.83017 -0.00715839 0.538338 -0.0431519 -0.00552185 0.393336 2.86249 1.4406
linkedlist 1.40344 6.14948 2.83017 -0.00715839 0.538338 -0.0431519 -0.00552185 0.393336 2.86249 1.4406
linkedlist 1.1763 4.88414 1.9653 0.710704 -0.00553089 -0.00438742 0.777264 -0.00318328 1.27401 3.14522
linkedlist 1.33835 5.2419 2.22137 0.799057 -0.00742701 -0.00262306 0.618412 -0.00807644 1.70358 2.60868
linkedlist 1.1763 4.88414 1.9653 0.710704 -0.00553089 -0.00438742 0.777264 -0.00318328 1.27401 3.14522
linkedlist 0.764436 5.95982 1.76547 2.06772 -0.0154247 -0.0186212 -0.02043 0.300411 2.98686 4.03271
linkedlist -0.00438203 5.88641 2.02986 -0.00246878 -0.00649643 -0.0229095 1.25473 2.03136 0.740219 0.977228
linkedlist -0.00438203 5.88641 2.02986 -0.00246878 -0.00649643 -0.0229095 1.25473 2.03136 0.740219 0.977228
linkedlist -0.00439426 6.33515 1.64945 1.25151 -0.0162641 -0.00489571 0.499317 -0.00900745 3.55434 0.633123
linkedlist 1.1763 4.88414 1.9653 0.710704 -0.00553089 -0.00438742 0.777264 -0.00318328 1.27401 3.14522
linkedlist 0.764436 5.95982 1.76547 2.06772 -0.0154247 -0.0186212 -0.02043 0.300411 2.98686 4.03271
linkedlist -0.00438203 5.88641 2.02986 -0.00246878 -0.00649643 -0.0229095 1.25473 2.03136 0.740219 0.977228
linkedlist 0.764436 5.95982 1.76547 2.06772 -0.0154247 -0.0186212 -0.02043 0.300411 2.98686 4.03271
linkedlist 1.40344 6.14948 2.83017 -0.00715839 0.538338 -0.0431519 -0.00552185 0.393336 2.86249 1.4406
linkedlist 0.764436 5.95982 1.76547 2.06772 -0.0154247 -0.0186212 -0.02043 0.300411 2.98686 4.03271
linkedlist -0.00438203 5.88641 2.02986 -0.00246878 -0.00649643 -0.0229095 1.25473 2.03136 0.740219 0.977228
linkedlist -0.00439426 6.33515 1.64945 1.25151 -0.0162641 -0.00489571 0.499317 -0.00900745 3.55434 0.633123
linkedlist 0.764436 5.95982 1.76547 2.06772 -0.0154247 -0.0186212 -0.02043 0.300411 2.98686 4.03271
linkedlist 1.1763 4.88414 1.9653 0.710704 -0.00553089 -0.00438742 0.777264 -0.00318328 1.27401 3.14522
linkedlist 1.33835 5.2419 2.22137 0.799057 -0.00742701 -0.00262306 0.618412 -0.00807644 1.70358 2.60868
linkedlist 1.40344 6.14948 2.83017 -0.00715839 0.538338 -0.0431519 -0.00552185 0.393336 2.86249 1.4406
linkedlist 0.764436 5.95982 1.76547 2.06772 -0.0154247 -0.0186212 -0.02043 0.300411 2.98686 4.03271
linkedlist 1.33835 5.2419 2.22137 0.799057 -0.00742701 -0.00262306 0.618412 -0.00807644 1.70358 2.60868
linkedlist 1.40344 6.14948 2.83017 -0.00715839 0.538338 -0.0431519 -0.00552185 0.393336 2.86249 1.4406
linkedlist -0.0159004 3.10204 3.43949 0.349691 1.3772 -0.0182276 -0.016157 4.29056 0.772559 -0.0143308
linkedlist -0.00439426 6.33515 1.64945 1.25151 -0.0162641 -0.00489571 0.499317 -0.00900745 3.55434 0.633123
linkedlist 0.932257 2.34625 3.83913 -0.00466217 0.818956 -0.0181875 -0.0366757 2.37675 0.83713 0.526683
stack 0.610408 3.48434 0.395042 1.8152 0.125028 -0.0124559 0.117932 1.63152 -0.00280027 6.82614
stack -0.0283243 0.829925 2.08278 -0.0168811 2.38543 0.657319 -0.0117165 -0.00482471 -0.00929145 8.96499
stack 0.535235 3.65829 1.60025 0.562212 0.391247 -0.0184022 -0.00427995 -0.00692566 1.49731 6.13186
stack 0.610408 3.48434 0.395042 1.8152 0.125028 -0.0124559 0.117932 1.63152 -0.00280027 6.82614
stack -0.0283243 0.829925 2.08278 -0.0168811 2.38543 0.657319 -0.0117165 -0.00482471 -0.00929145 8.96499
stack -0.0310674 0.940957 1.73994 -0.0143165 2.84178 0.704067 -0.0124995 -0.000535768 -0.00855813 8.54529
stack 0.14099 0.151052 2.21921 1.69453 -0.00974407 0.694226 -0.00662678 -0.00393734 0.847763 5.38072
stack 0.535235 3.65829 1.60025 0.562212 0.391247 -0.0184022 -0.00427995 -0.00692566 1.49731 6.13186
stack -0.0259573 1.27217 1.87515 -0.0135248 2.86229 1.46617 -0.0269729 -0.00620402 -0.0235103 9.10115
stack 1.46838 3.74114 3.33962 -0.0118013 0.97423 -0.0285908 0.0672579 0.633035 -0.0137834 2.58148
stack 0.462097 2.31352 2.8413 -0.0170177 2.56179 -0.0257314 -0.0140045 0.865646 -0.0187938 3.84322
stack -0.0202841 2.88762 1.8689 0.724599 1.67914 -0.00519021 0.214405 0.416243 -0.00984312 5.50168
stack -0.0310674 0.940957 1.73994 -0.0143165 2.84178 0.704067 -0.0124995 -0.000535768 -0.00855813 8.54529
stack 0.610408 3.48434 0.395042 1.8152 0.125028 -0.0124559 0.117932 1.63152 -0.00280027 6.82614
stack -0.0259573 1.27217 1.87515 -0.0135248 2.86229 1.46617 -0.0269729 -0.00620402 -0.0235103 9.10115
stack -0.0202841 2.88762 1.8689 0.724599 1.67914 -0.00519021 0.214405 0.416243 -0.00984312 5.50168
stack 1.41484 2.37668 3.23108 -0.00410451 1.67882 -0.0126265 -0.014847 0.73559 -0.0246722 3.3362
stack 0.535235 3.65829 1.60025 0.562212 0.391247 -0.0184022 -0.00427995 -0.00692566 1.49731 6.13186
stack -0.0259573 1.27217 1.87515 -0.0135248 2.86229 1.46617 -0.0269729 -0.00620402 -0.0235103 9.10115
stack -0.0296317 0.563324 1.76864 -0.0143374 2.43296 0.635005 -0.00859377 -0.00185874 -0.00728096 8.63973
stack 0.14099 0.151052 2.21921 1.69453 -0.00974407 0.694226 -0.00662678 -0.00393734 0.847763 5.38072
stack -0.0110292 3.19243 2.65008 -0.0049804 1.52769 0.0691318 -0.0044026 0.814969 -0.028104 4.27476
stack 0.517412 3.35007 3.07085 -0.0166608 1.97904 -0.0222466 -0.00283752 -0.00787999 -0.00101246 3.7609
stack -0.0202841 2.88762 1.8689 0.724599 1.67914 -0.00519021 0.214405 0.416243 -0.00984312 5.50168
stack -0.0306934 0.802955 1.86145 -0.0217723 2.62013 0.774169 -0.00809422 -0.00524635 -0.00960497 9.06434
stack -0.0259573 1.27217 1.87515 -0.0135248 2.86229 1.46617 -0.0269729 -0.00620402 -0.0235103 9.10115
stack 0.207728 1.25825 2.20099 2.20188 0.309039 -0.0180974 -0.00136329 -0.00511246 -0.00345797 4.97715
stack 0.535235 3.65829 1.60025 0.562212 0.391247 -0.0184022 -0.00427995 -0.00692566 1.49731 6.13186
stack 1.43983 3.66827 2.71381 0.579878 1.18255 -0.0256243 -0.0343334 3.22245 0.507074 0.0996639
stack -0.00791306 0.868937 2.36613 -0.00133172 1.34102 0.383759 1.02993 0.9793 -0.00645639 2.69323
stack -0.0306934 0.802955 1.86145 -0.0217723 2.62013 0.774169 -0.00809422 -0.00524635 -0.00960497 9.06434
stack 0.14099 0.151052 2.21921 1.69453 -0.00974407 0.694226 -0.00662678 -0.00393734 0.847763 5.38072
stack -0.0283243 0.829925 2.08278 -0.0168811 2.38543 0.657319 -0.0117165 -0.00482471 -0.00929145 8.96499
stack -0.0306934 0.802955 1.86145 -0.0217723 2.62013 0.774169 -0.00809422 -0.00524635 -0.00960497 9.06434
stack -0.02765 1.10899 2.19685 -0.0160104 2.73002 1.42949 -0.027708 -0.00725622 -0.0246477 9.36531
stack -0.014962 4.41946 2.65489 0.0258464 0.136031 -0.0189224 -0.000219763 2.763 2.11169 0.548346
stack -0.0306934 0.802955 1.86145 -0.0217723 2.62013 0.774169 -0.00809422 -0.00524635 -0.00960497 9.06434
stack 1.66218 2.1211 3.39029 0.454646 0.820956 -0.0272589 -0.0309992 2.74309 0.714631 1.8275
stack -0.02765 1.10899 2.19685 -0.0160104 2.73002 1.42949 -0.027708 -0.00725622 -0.0246477 9.36531
stack -0.0210086 5.75853 1.57038 0.458317 -0.00464671 -0.0354647 2.21639 0.57173 5.01682 1.73592
stack -0.0283243 0.829925 2.08278 -0.0168811 2.38543 0.657319 -0.0117165 -0.00482471 -0.00929145 8.96499
stack 0.481011 4.4863 2.3016 0.56435 1.06746 -0.0267416 -0.0231213 0.972299 4.16005 2.60917
stack -0.0283243 0.829925 2.08278 -0.0168811 2.38543 0.657319 -0.0117165 -0.00482471 -0.00929145 8.96499
stack -0.0259573 1.27217 1.87515 -0.0135248 2.86229 1.46617 -0.0269729 -0.00620402 -0.0235103 9.10115
stack 0.207728 1.25825 2.20099 2.20188 0.309039 -0.0180974 -0.00136329 -0.00511246 -0.00345797 4.97715
stack -0.0264753 2.00261 1.31178 1.3459 2.38926 -0.00643282 -0.00742145 2.32568 -0.0146581 5.88565
stack 0.207728 1.25825 2.20099 2.20188 0.309039 -0.0180974 -0.00136329 -0.00511246 -0.00345797 4.97715
stack 0.535235 3.65829 1.60025 0.562212 0.391247 -0.0184022 -0.00427995 -0.00692566 1.49731 6.13186
stack 0.207728 1.25825 2.20099 2.20188 0.309039 -0.0180974 -0.00136329 -0.00511246 -0.00345797 4.97715
stack 0.610408 3.48434 0.395042 1.8152 0.125028 -0.0124559 0.117932 1.63152 -0.00280027 6.82614
stack 0.610408 3.48434 0.395042 1.8152 0.125028 -0.0124559 0.117932 1.63152 -0.00280027 6.82614
stack -0.0296317 0.563324 1.76864 -0.0143374 2.43296 0.635005 -0.00859377 -0.00185874 -0.00728096 8.63973
stack 0.535235 3.65829 1.60025 0.562212 0.391247 -0.0184022 -0.00427995 -0.00692566 1.49731 6.13186
stack -0.02765 1.10899 2.19685 -0.0160104 2.73002 1.42949 -0.027708 -0.00725622 -0.0246477 9.36531
stack 0.610408 3.48434 0.395042 1.8152 0.125028 -0.0124559 0.117932 1.63152 -0.00280027 6.82614
stack 0.14099 0.151052 2.21921 1.69453 -0.00974407 0.694226 -0.00662678 -0.00393734 0.847763 5.38072
knapsack 0.622494 2.44615 1.84475 3.71488 -0.0189732 -0.0235944 2.06584 0.782898 6.18169 -0.0167004
knapsack 1.17054 0.372354 1.95966 2.55833 -0.0254181 -0.00734851 3.52007 -0.00763991 6.50271 -0.0128805
knapsack 4.10795 2.30044 1.44687 2.89791 -0.0216731 -0.0114344 1.90717 -0.0246113 5.64696 0.569356
knapsack -0.00437114 2.65724 2.09694 1.18271 -0.0183882 -0.000538152 -0.0049378 -0.00576049 5.71287 1.87636
knapsack -0.00870063 3.04586 1.73116 0.712126 -0.0163232 -0.000823269 -0.00215892 -0.00754321 6.4542 2.00643
knapsack 1.17054 0.372354 1.95966 2.55833 -0.0254181 -0.00734851 3.52007 -0.00763991 6.50271 -0.0128805
knapsack 0.622494 2.44615 1.84475 3.71488 -0.0189732 -0.0235944 2.06584 0.782898 6.18169 -0.0167004
knapsack 0.622494 2.44615 1.84475 3.71488 -0.0189732 -0.0235944 2.06584 0.782898 6.18169 -0.0167004
knapsack -0.00437114 2.65724 2.09694 1.18271 -0.0183882 -0.000538152 -0.0049378 -0.00576049 5.71287 1.87636
knapsack 1.17054 0.372354 1.95966 2.55833 -0.0254181 -0.00734851 3.52007 -0.00763991 6.50271 -0.0128805
knapsack 3.7063 -0.00143986 2.07019 1.68827 -0.0181759 -0.0228157 2.67891 -0.0123598 6.42191 -0.00356468
knapsack -0.00870063 3.04586 1.73116 0.712126 -0.0163232 -0.000823269 -0.00215892 -0.00754321 6.4542 2.00643
knapsack 1.17054 0.372354 1.95966 2.55833 -0.0254181 -0.00734851 3.52007 -0.00763991 6.50271 -0.0128805
knapsack 4.10795 2.30044 1.44687 2.89791 -0.0216731 -0.0114344 1.90717 -0.0246113 5.64696 0.569356
knapsack 0.953925 0.676963 0.578951 1.17995 -0.00442782 -0.00895556 -0.00010608 -0.00392184 6.20406 0.73194
knapsack 0.622494 2.44615 1.84475 3.71488 -0.0189732 -0.0235944 2.06584 0.782898 6.18169 -0.0167004
knapsack 3.7063 -0.00143986 2.07019 1.68827 -0.0181759 -0.0228157 2.67891 -0.0123598 6.42191 -0.00356468
knapsack 2.56537 1.6651 2.17909 2.93293 -0.0206796 -0.0238225 0.975616 -0.00667806 7.15728 -0.0101334
knapsack 0.622494 2.44615 1.84475 3.71488 -0.0189732 -0.0235944 2.06584 0.782898 6.18169 -0.0167004
knapsack 3.7063 -0.00143986 2.07019 1.68827 -0.0181759 -0.0228157 2.67891 -0.0123598 6.42191 -0.00356468
knapsack 1.17054 0.372354 1.95966 2.55833 -0.0254181 -0.00734851 3.52007 -0.00763991 6.50271 -0.0128805
knapsack -0.00870063 3.04586 1.73116 0.712126 -0.0163232 -0.000823269 -0.00215892 -0.00754321 6.4542 2.00643
knapsack 2.56537 1.6651 2.17909 2.93293 -0.0206796 -0.0238225 0.975616 -0.00667806 7.15728 -0.0101334
knapsack 0.953925 0.676963 0.578951 1.17995 -0.00442782 -0.00895556 -0.00010608 -0.00392184 6.20406 0.73194
knapsack 0.622494 2.44615 1.84475 3.71488 -0.0189732 -0.0235944 2.06584 0.782898 6.18169 -0.0167004
knapsack 1.27811 3.373 2.84625 2.07769 -0.0284512 -0.0131364 3.40688 -0.0179346 6.70881 -0.0253355
knapsack 4.10795 2.30044 1.44687 2.89791 -0.0216731 -0.0114344 1.90717 -0.0246113 5.64696 0.569356
knapsack 2.56537 1.6651 2.17909 2.93293 -0.0206796 -0.0238225 0.975616 -0.00667806 7.15728 -0.0101334
knapsack 4.10795 2.30044 1.44687 2.89791 -0.0216731 -0.0114344 1.90717 -0.0246113 5.64696 0.569356
knapsack 1.17054 0.372354 1.95966 2.55833 -0.0254181 -0.00734851 3.52007 -0.00763991 6.50271 -0.0128805
knapsack 1.27811 3.373 2.84625 2.07769 -0.0284512 -0.0131364 3.40688 -0.0179346 6.70881 -0.0253355
knapsack -0.00870063 3.04586 1.73116 0.712126 -0.0163232 -0.000823269 -0.00215892 -0.00754321 6.4542 2.00643
knapsack 4.10795 2.30044 1.44687 2.89791 -0.0216731 -0.0114344 1.90717 -0.0246113 5.64696 0.569356
knapsack 2.56537 1.6651 2.17909 2.93293 -0.0206796 -0.0238225 0.975616 -0.00667806 7.15728 -0.0101334
knapsack 1.17054 0.372354 1.95966 2.55833 -0.0254181 -0.00734851 3.52007 -0.00763991 6.50271 -0.0128805
knapsack 1.17054 0.372354 1.95966 2.55833 -0.0254181 -0.00734851 3.52007 -0.00763991 6.50271 -0.0128805
knapsack -0.00870063 3.04586 1.73116 0.712126 -0.0163232 -0.000823269 -0.00215892 -0.00754321 6.4542 2.00643
knapsack -0.00931572 1.42961 2.99684 2.21251 0.789432 -0.00550406 -0.0136092 1.54127 -0.00580573 1.23814
knapsack 1.17054 0.372354 1.95966 2.55833 -0.0254181 -0.00734851 3.52007 -0.00763991 6.50271 -0.0128805
knapsack 1.27811 3.373 2.84625 2.07769 -0.0284512 -0.0131364 3.40688 -0.0179346 6.70881 -0.0253355
knapsack 0.622494 2.44615 1.84475 3.71488 -0.0189732 -0.0235944 2.06584 0.782898 6.18169 -0.0167004
knapsack 0.953925 0.676963 0.578951 1.17995 -0.00442782 -0.00895556 -0.00010608 -0.00392184 6.20406 0.73194
knapsack 2.56537 1.6651 2.17909 2.93293 -0.0206796 -0.0238225 0.975616 -0.00667806 7.15728 -0.0101334
