mergesort -0.0454983 -0.871169 1.0 -0.999237 0.371916 -0.835837 1.0 1.0 -0.145864 -0.0521073 -0.242429 -0.152952 1.0 0.0114629 -0.998085 1.0 -0.942053 0.999542 0.704097 0.177434 1.0 -0.313952 -0.496328 1.0 -0.362701 1.0 -0.991017 1.0 1.0 -0.161204 -0.00328795 1.0 -0.517045 1.0 -0.992252 1.0 -0.997975 1.0 -0.850351 1.0 1.0 1.0 1.0 1.0 1.0 1.0 1.0 1.0 1.0 1.0 -0.9295 1.0 1.0 1.0 0.999997 0.998483 1.0 -0.182409 -0.17067 0.952357 -0.187035 1.0 0.998419 -0.299364 -0.284966 1.0 1.0 1.0 1.0 0.310328 -0.952509 -0.0675906 1.0 1.0 0.0113362 -0.238526 1.0 0.275051 1.0 1.0 -0.999286 -0.226852 0.978793 1.0 -0.824326 1.0 1.0 1.0 1.0 0.332566 1.0 -0.229365 -0.0989562 -0.061414 1.0 1.0 1.0 1.0 0.99963 -0.224085
quicksort -0.0454983 0.490262 1.0 -0.999237 0.371916 -0.16757 1.0 1.0 -0.145864 -0.0521073 -0.242429 -0.152952 1.0 0.0114629 0.82345 1.0 -0.342165 0.999542 0.704097 0.177434 1.0 -0.313952 -0.496328 1.0 -0.362701 1.0 0.995607 1.0 1.0 -0.161204 -0.00328795 1.0 -0.517045 1.0 0.996926 1.0 -0.997975 1.0 0.812244 1.0 1.0 1.0 1.0 1.0 1.0 1.0 1.0 1.0 1.0 1.0 -0.134648 1.0 1.0 1.0 0.196082 0.998483 1.0 -0.182409 -0.17067 0.952357 -0.187035 1.0 0.998419 -0.299364 -0.284966 1.0 1.0 1.0 1.0 -0.941969 0.980266 -0.0675906 1.0 1.0 0.0113362 -0.710165 1.0 0.275051 1.0 1.0 -0.999286 -0.226852 0.978793 1.0 -0.824326 1.0 1.0 1.0 1.0 0.332566 1.0 -0.229365 -0.0989562 -0.061414 1.0 1.0 1.0 1.0 0.99963 -0.224085
bubblesort -0.0454983 -0.871169 1.0 -0.999237 0.371916 -0.835837 1.0 1.0 -0.145864 -0.0521073 -0.242429 -0.152952 1.0 0.0114629 -0.998085 1.0 -0.942053 0.999542 0.704097 0.177434 1.0 -0.313952 -0.496328 1.0 -0.362701 1.0 -0.991017 1.0 1.0 -0.161204 -0.00328795 1.0 -0.517045 1.0 -0.992252 1.0 -0.997975 1.0 -0.850351 1.0 1.0 1.0 1.0 1.0 1.0 1.0 1.0 1.0 1.0 1.0 -0.9295 1.0 1.0 1.0 1.0 0.998483 1.0 -0.182409 -0.17067 0.952357 -0.187035 1.0 0.998419 -0.299364 -0.284966 1.0 1.0 1.0 1.0 -0.347874 -0.952509 -0.0675906 1.0 1.0 0.0113362 -0.238526 1.0 0.275051 1.0 1.0 -0.999286 -0.226852 0.978793 1.0 -0.824326 1.0 1.0 1.0 1.0 0.332566 1.0 -0.229365 -0.0989562 -0.061414 1.0 1.0 1.0 1.0 0.99963 -0.224085
linkedlist -0.0454983 0.490262 1.0 -0.999237 0.371916 -0.16757 1.0 1.0 -0.145864 -0.0521073 -0.242429 -0.152952 1.0 0.0114629 0.999998 1.0 -0.342165 0.999542 0.704097 0.177434 1.0 -0.313952 -0.496328 1.0 -0.362701 1.0 0.995607 1.0 1.0 -0.161204 -0.00328795 1.0 -0.517045 1.0 0.996926 1.0 -0.997975 1.0 0.812244 1.0 1.0 1.0 1.0 1.0 1.0 1.0 1.0 1.0 1.0 1.0 -0.134648 1.0 1.0 1.0 0.578948 0.998483 1.0 -0.182409 -0.17067 0.952357 -0.187035 1.0 0.998419 -0.299364 -0.284966 1.0 1.0 1.0 1.0 -0.941969 0.980266 -0.0675906 1.0 1.0 0.0113362 -0.9929 1.0 0.275051 1.0 1.0 -0.999286 -0.226852 0.978793 1.0 -0.824326 1.0 1.0 1.0 1.0 0.332566 1.0 -0.229365 -0.0989562 -0.061414 1.0 1.0 1.0 1.0 0.99963 -0.224085
queue -0.0454983 0.490262 1.0 -0.999237 0.371916 -0.16757 1.0 1.0 -0.145864 -0.0521073 -0.242429 -0.152952 1.0 0.0114629 0.82345 1.0 -0.342165 0.999542 0.704097 0.177434 1.0 -0.313952 -0.496328 1.0 -0.362701 1.0 0.995607 1.0 1.0 -0.161204 -0.00328795 1.0 -0.517045 1.0 0.996926 1.0 -0.997975 1.0 0.812244 1.0 1.0 1.0 1.0 1.0 1.0 1.0 1.0 1.0 1.0 1.0 -0.134648 1.0 1.0 1.0 1.0 0.998483 1.0 -0.182409 -0.17067 0.952357 -0.187035 1.0 0.998419 -0.299364 -0.284966 1.0 1.0 1.0 1.0 0.999994 0.980266 -0.0675906 1.0 1.0 0.0113362 0.997552 1.0 0.275051 1.0 1.0 -0.999286 -0.226852 0.978793 1.0 -0.824326 1.0 1.0 1.0 1.0 0.332566 1.0 -0.229365 -0.0989562 -0.061414 1.0 1.0 1.0 1.0 0.99963 -0.224085
stack -0.0454983 -0.871169 1.0 -0.999237 0.371916 -0.835837 1.0 1.0 -0.145864 -0.0521073 -0.242429 -0.152952 1.0 0.0114629 0.82345 1.0 -0.942053 0.999542 0.704097 0.177434 1.0 -0.313952 -0.496328 1.0 -0.362701 1.0 -0.991017 1.0 1.0 -0.161204 -0.00328795 1.0 -0.517045 1.0 -0.992252 1.0 -0.997975 1.0 -0.850351 1.0 1.0 1.0 1.0 1.0 1.0 1.0 1.0 1.0 1.0 1.0 -0.9295 1.0 1.0 1.0 0.993774 0.998483 1.0 -0.182409 -0.17067 0.952357 -0.187035 1.0 0.998419 -0.299364 -0.284966 1.0 1.0 1.0 1.0 -0.985934 -0.952509 -0.0675906 1.0 1.0 0.0113362 0.997552 1.0 0.275051 1.0 1.0 -0.999286 -0.226852 0.978793 1.0 -0.824326 1.0 1.0 1.0 1.0 0.332566 1.0 -0.229365 -0.0989562 -0.061414 1.0 1.0 1.0 1.0 0.99963 -0.224085
queue -0.0454983 0.490262 1.0 -0.999237 0.371916 -0.16757 1.0 1.0 -0.145864 -0.0521073 -0.242429 -0.152952 1.0 0.0114629 1.0 1.0 -0.342165 0.999542 0.704097 0.177434 1.0 -0.313952 -0.496328 1.0 -0.362701 1.0 0.995607 1.0 1.0 -0.161204 -0.00328795 1.0 -0.517045 1.0 0.996926 1.0 -0.997975 1.0 0.812244 1.0 1.0 1.0 1.0 1.0 1.0 1.0 1.0 1.0 1.0 1.0 -0.134648 1.0 1.0 1.0 0.196082 0.998483 1.0 -0.182409 -0.17067 0.952357 -0.187035 1.0 0.998419 -0.299364 -0.284966 1.0 1.0 1.0 1.0 -0.941969 0.980266 -0.0675906 1.0 1.0 0.0113362 0.275304 1.0 0.275051 1.0 1.0 -0.999286 -0.226852 0.978793 1.0 -0.824326 1.0 1.0 1.0 1.0 0.332566 1.0 -0.229365 -0.0989562 -0.061414 1.0 1.0 1.0 1.0 0.99963 -0.224085
linkedlist -0.0454983 -0.871169 1.0 -0.999237 0.371916 -0.835837 1.0 1.0 -0.145864 -0.0521073 -0.242429 -0.152952 1.0 0.0114629 0.82345 1.0 -0.942053 0.999542 0.704097 0.177434 1.0 -0.313952 -0.496328 1.0 -0.362701 1.0 -0.991017 1.0 1.0 -0.161204 -0.00328795 1.0 -0.517045 1.0 -0.992252 1.0 -0.997975 1.0 -0.850351 1.0 1.0 1.0 1.0 1.0 1.0 1.0 1.0 1.0 1.0 1.0 -0.9295 1.0 1.0 1.0 0.993774 0.998483 1.0 -0.182409 -0.17067 0.952357 -0.187035 1.0 0.998419 -0.299364 -0.284966 1.0 1.0 1.0 1.0 -0.941969 -0.952509 -0.0675906 1.0 1.0 0.0113362 0.997552 1.0 0.275051 1.0 1.0 -0.999286 -0.226852 0.978793 1.0 -0.824326 1.0 1.0 1.0 1.0 0.332566 1.0 -0.229365 -0.0989562 -0.061414 1.0 1.0 1.0 1.0 0.99963 -0.224085
knapsack -0.0454983 0.490262 1.0 -0.999237 0.371916 -0.16757 1.0 1.0 -0.145864 -0.0521073 -0.242429 -0.152952 1.0 0.0114629 -0.991107 1.0 -0.342165 0.999542 0.704097 0.177434 1.0 -0.313952 -0.496328 1.0 -0.362701 1.0 0.995607 1.0 1.0 -0.161204 -0.00328795 1.0 -0.517045 1.0 0.996926 1.0 -0.997975 1.0 0.812244 1.0 1.0 1.0 1.0 1.0 1.0 1.0 1.0 1.0 1.0 1.0 -0.134648 1.0 1.0 1.0 1.0 0.998483 1.0 -0.182409 -0.17067 0.952357 -0.187035 1.0 0.998419 -0.299364 -0.284966 1.0 1.0 1.0 1.0 1.0 0.980266 -0.0675906 1.0 1.0 0.0113362 0.0196888 1.0 0.275051 1.0 1.0 -0.999286 -0.226852 0.978793 1.0 -0.824326 1.0 1.0 1.0 1.0 0.332566 1.0 -0.229365 -0.0989562 -0.061414 1.0 1.0 1.0 1.0 0.99963 -0.224085
knapsack -0.0454983 0.490262 1.0 -0.999237 0.371916 -0.16757 1.0 1.0 -0.145864 -0.0521073 -0.242429 -0.152952 1.0 0.0114629 0.82345 1.0 -0.342165 0.999542 0.704097 0.177434 1.0 -0.313952 -0.496328 1.0 -0.362701 1.0 0.995607 1.0 1.0 -0.161204 -0.00328795 1.0 -0.517045 1.0 0.996926 1.0 -0.997975 1.0 0.812244 1.0 1.0 1.0 1.0 1.0 1.0 1.0 1.0 1.0 1.0 1.0 -0.134648 1.0 1.0 1.0 0.999881 0.998483 1.0 -0.182409 -0.17067 0.952357 -0.187035 1.0 0.998419 -0.299364 -0.284966 1.0 1.0 1.0 1.0 -0.941969 0.980266 -0.0675906 1.0 1.0 0.0113362 -0.919441 1.0 0.275051 1.0 1.0 -0.999286 -0.226852 0.978793 1.0 -0.824326 1.0 1.0 1.0 1.0 0.332566 1.0 -0.229365 -0.0989562 -0.061414 1.0 1.0 1.0 1.0 0.99963 -0.224085
mergesort -0.0454983 -0.871169 1.0 -0.999237 0.371916 -0.835837 1.0 1.0 -0.145864 -0.0521073 -0.242429 -0.152952 1.0 0.0114629 -0.998085 1.0 -0.942053 0.999542 0.704097 0.177434 1.0 -0.313952 -0.496328 1.0 -0.362701 1.0 -0.991017 1.0 1.0 -0.161204 -0.00328795 1.0 -0.517045 1.0 -0.992252 1.0 -0.997975 1.0 -0.850351 1.0 1.0 1.0 1.0 1.0 1.0 1.0 1.0 1.0 1.0 1.0 -0.9295 1.0 1.0 1.0 1.0 0.998483 1.0 -0.182409 -0.17067 0.952357 -0.187035 1.0 0.998419 -0.299364 -0.284966 1.0 1.0 1.0 1.0 0.980859 -0.952509 -0.0675906 1.0 1.0 0.0113362 -0.989248 1.0 0.275051 1.0 1.0 -0.999286 -0.226852 0.978793 1.0 -0.824326 1.0 1.0 1.0 1.0 0.332566 1.0 -0.229365 -0.0989562 -0.061414 1.0 1.0 1.0 1.0 0.99963 -0.224085
queue -0.0454983 0.490262 1.0 -0.999237 0.371916 -0.16757 1.0 1.0 -0.145864 -0.0521073 -0.242429 -0.152952 1.0 0.0114629 0.82345 1.0 -0.342165 0.999542 0.704097 0.177434 1.0 -0.313952 -0.496328 1.0 -0.362701 1.0 0.995607 1.0 1.0 -0.161204 -0.00328795 1.0 -0.517045 1.0 0.996926 1.0 -0.997975 1.0 0.812244 1.0 1.0 1.0 1.0 1.0 1.0 1.0 1.0 1.0 1.0 1.0 -0.134648 1.0 1.0 1.0 -0.842675 0.998483 1.0 -0.182409 -0.17067 -0.450075 -0.187035 1.0 0.998419 -0.299364 -0.284966 1.0 1.0 1.0 1.0 -0.969137 0.980266 -0.0675906 1.0 1.0 0.0113362 -0.919441 1.0 0.275051 1.0 1.0 -0.999286 -0.226852 -0.897725 1.0 -0.824326 1.0 1.0 1.0 1.0 0.332566 1.0 -0.229365 -0.0989562 -0.061414 1.0 1.0 1.0 1.0 0.99963 -0.224085
bfs -0.0454983 0.490262 1.0 -0.999237 0.371916 -0.16757 1.0 1.0 -0.145864 -0.0521073 -0.242429 -0.152952 1.0 0.0114629 0.82345 1.0 -0.342165 0.999542 0.704097 0.177434 1.0 -0.313952 -0.496328 1.0 -0.362701 1.0 0.995607 1.0 1.0 -0.161204 -0.00328795 1.0 -0.517045 1.0 0.996926 1.0 -0.997975 1.0 0.812244 1.0 1.0 1.0 1.0 1.0 1.0 1.0 1.0 1.0 1.0 1.0 -0.134648 1.0 1.0 1.0 1.0 0.998483 1.0 -0.182409 -0.17067 0.952357 -0.187035 1.0 0.998419 -0.299364 -0.284966 1.0 1.0 1.0 1.0 1.0 0.980266 -0.0675906 1.0 1.0 0.0113362 -0.919441 1.0 0.275051 1.0 1.0 -0.999286 -0.226852 0.978793 1.0 -0.824326 1.0 1.0 1.0 1.0 0.332566 1.0 -0.229365 -0.0989562 -0.061414 1.0 1.0 1.0 1.0 0.99963 -0.224085
quicksort -0.0454983 0.490262 1.0 -0.999237 0.371916 -0.16757 1.0 1.0 -0.145864 -0.0521073 -0.242429 -0.152952 1.0 0.0114629 0.82345 1.0 -0.342165 0.999542 0.704097 0.177434 1.0 -0.313952 -0.496328 1.0 -0.362701 1.0 0.995607 1.0 1.0 -0.161204 -0.00328795 1.0 -0.517045 1.0 0.996926 1.0 -0.997975 1.0 0.812244 1.0 1.0 1.0 1.0 1.0 1.0 1.0 1.0 1.0 1.0 1.0 -0.134648 1.0 1.0 1.0 0.999867 0.998483 1.0 -0.182409 -0.17067 0.952357 -0.187035 1.0 0.998419 -0.299364 -0.284966 1.0 1.0 1.0 1.0 -0.93259 0.980266 -0.0675906 1.0 1.0 0.0113362 -0.984883 1.0 0.275051 1.0 1.0 -0.999286 -0.226852 0.978793 1.0 -0.824326 1.0 1.0 1.0 1.0 0.332566 1.0 -0.229365 -0.0989562 -0.061414 1.0 1.0 1.0 1.0 0.99963 -0.224085
bfs -0.0454983 0.490262 1.0 -0.999237 0.371916 -0.16757 1.0 1.0 -0.145864 -0.0521073 -0.242429 -0.152952 1.0 0.0114629 0.693486 1.0 -0.342165 0.999542 0.704097 0.177434 1.0 -0.313952 -0.496328 1.0 -0.362701 1.0 0.995607 1.0 1.0 -0.161204 -0.00328795 1.0 -0.517045 1.0 0.996926 1.0 -0.997975 1.0 0.812244 1.0 1.0 1.0 1.0 1.0 1.0 1.0 1.0 1.0 1.0 1.0 -0.134648 1.0 1.0 1.0 0.994453 0.998483 1.0 -0.182409 -0.17067 -0.450075 -0.187035 1.0 0.998419 -0.299364 -0.284966 1.0 1.0 1.0 1.0 -0.927884 0.980266 -0.0675906 1.0 1.0 0.0113362 -0.984883 1.0 0.275051 1.0 1.0 -0.999286 -0.226852 -0.897725 1.0 -0.824326 1.0 1.0 1.0 1.0 0.332566 1.0 -0.229365 -0.0989562 -0.061414 1.0 1.0 1.0 1.0 0.99963 -0.224085
mergesort -0.0454983 -0.871169 1.0 -0.999237 0.371916 -0.835837 1.0 1.0 -0.145864 -0.0521073 -0.242429 -0.152952 1.0 0.0114629 -0.886777 1.0 -0.942053 0.999542 0.704097 0.177434 1.0 -0.313952 -0.496328 1.0 -0.362701 1.0 -0.991017 1.0 1.0 -0.161204 -0.00328795 1.0 -0.517045 1.0 -0.992252 1.0 -0.997975 1.0 -0.850351 1.0 1.0 1.0 1.0 1.0 1.0 1.0 1.0 1.0 1.0 1.0 -0.9295 1.0 1.0 1.0 1.0 0.998483 1.0 -0.182409 -0.17067 0.952357 -0.187035 1.0 0.998419 -0.299364 -0.284966 1.0 1.0 1.0 1.0 0.926882 -0.952509 -0.0675906 1.0 1.0 0.0113362 0.0196888 1.0 0.275051 1.0 1.0 -0.999286 -0.226852 0.978793 1.0 -0.824326 1.0 1.0 1.0 1.0 0.332566 1.0 -0.229365 -0.0989562 -0.061414 1.0 1.0 1.0 1.0 0.99963 -0.224085
linkedlist -0.0454983 0.490262 1.0 -0.999237 0.371916 -0.16757 1.0 1.0 -0.145864 -0.0521073 -0.242429 -0.152952 1.0 0.0114629 1.0 1.0 -0.342165 0.999542 0.704097 0.177434 1.0 -0.313952 -0.496328 1.0 -0.362701 1.0 0.995607 1.0 1.0 -0.161204 -0.00328795 1.0 -0.517045 1.0 0.996926 1.0 -0.997975 1.0 0.812244 1.0 1.0 1.0 1.0 1.0 1.0 1.0 1.0 1.0 1.0 1.0 -0.134648 1.0 1.0 1.0 0.993774 0.998483 1.0 -0.182409 -0.17067 0.952357 -0.187035 1.0 0.998419 -0.299364 -0.284966 1.0 1.0 1.0 1.0 -0.941969 0.980266 -0.0675906 1.0 1.0 0.0113362 -0.992357 1.0 0.275051 1.0 1.0 -0.999286 -0.226852 0.978793 1.0 -0.824326 1.0 1.0 1.0 1.0 0.332566 1.0 -0.229365 -0.0989562 -0.061414 1.0 1.0 1.0 1.0 0.99963 -0.224085
knapsack -0.0454983 0.490262 1.0 -0.999237 0.371916 -0.16757 1.0 1.0 -0.145864 -0.0521073 -0.242429 -0.152952 1.0 0.0114629 -0.998085 1.0 -0.342165 0.999542 0.704097 0.177434 1.0 -0.313952 -0.496328 1.0 -0.362701 1.0 0.995607 1.0 1.0 -0.161204 -0.00328795 1.0 -0.517045 1.0 0.996926 1.0 -0.997975 1.0 0.812244 1.0 1.0 1.0 1.0 1.0 1.0 1.0 1.0 1.0 1.0 1.0 -0.134648 1.0 1.0 1.0 1.0 0.998483 1.0 -0.182409 -0.17067 0.952357 -0.187035 1.0 0.998419 -0.299364 -0.284966 1.0 1.0 1.0 1.0 0.998634 0.980266 -0.0675906 1.0 1.0 0.0113362 -0.699116 1.0 0.275051 1.0 1.0 -0.999286 -0.226852 0.978793 1.0 -0.824326 1.0 1.0 1.0 1.0 0.332566 1.0 -0.229365 -0.0989562 -0.061414 1.0 1.0 1.0 1.0 0.99963 -0.224085
quicksort -0.0454983 0.490262 1.0 -0.999237 0.371916 -0.16757 1.0 1.0 -0.145864 -0.0521073 -0.242429 -0.152952 1.0 0.0114629 -0.998085 1.0 -0.342165 0.999542 0.704097 0.177434 1.0 -0.313952 -0.496328 1.0 -0.362701 1.0 0.995607 1.0 1.0 -0.161204 -0.00328795 1.0 -0.517045 1.0 0.996926 1.0 -0.997975 1.0 0.812244 1.0 1.0 1.0 1.0 1.0 1.0 1.0 1.0 1.0 1.0 1.0 -0.134648 1.0 1.0 1.0 1.0 0.998483 1.0 -0.182409 -0.17067 0.952357 -0.187035 1.0 0.998419 -0.299364 -0.284966 1.0 1.0 1.0 1.0 0.942937 0.980266 -0.0675906 1.0 1.0 0.0113362 -0.646356 1.0 0.275051 1.0 1.0 -0.999286 -0.226852 0.978793 1.0 -0.824326 1.0 1.0 1.0 1.0 0.332566 1.0 -0.229365 -0.0989562 -0.061414 1.0 1.0 1.0 1.0 0.99963 -0.224085
linkedlist -0.0454983 -0.871169 1.0 -0.999237 0.371916 -0.835837 1.0 1.0 -0.145864 -0.0521073 -0.242429 -0.152952 1.0 0.0114629 0.82345 1.0 -0.942053 0.999542 0.704097 0.177434 1.0 -0.313952 -0.496328 1.0 -0.362701 1.0 -0.991017 1.0 1.0 -0.161204 -0.00328795 1.0 -0.517045 1.0 -0.992252 1.0 -0.997975 1.0 -0.850351 1.0 1.0 1.0 1.0 1.0 1.0 1.0 1.0 1.0 1.0 1.0 -0.9295 1.0 1.0 1.0 0.999867 0.998483 1.0 -0.182409 -0.17067 0.952357 -0.187035 1.0 0.998419 -0.299364 -0.284966 1.0 1.0 1.0 1.0 -0.792994 -0.952509 -0.0675906 1.0 1.0 0.0113362 -0.238526 1.0 0.275051 1.0 1.0 -0.999286 -0.226852 0.978793 1.0 -0.824326 1.0 1.0 1.0 1.0 0.332566 1.0 -0.229365 -0.0989562 -0.061414 1.0 1.0 1.0 1.0 0.99963 -0.224085
stack -0.0454983 0.490262 1.0 -0.999237 0.371916 -0.16757 1.0 1.0 -0.145864 -0.0521073 -0.242429 -0.152952 1.0 0.0114629 0.82345 1.0 -0.342165 0.999542 0.704097 0.177434 1.0 -0.313952 -0.496328 1.0 -0.362701 1.0 0.995607 1.0 1.0 -0.161204 -0.00328795 1.0 -0.517045 1.0 0.996926 1.0 -0.997975 1.0 0.812244 1.0 1.0 1.0 1.0 1.0 1.0 1.0 1.0 1.0 1.0 1.0 -0.134648 1.0 1.0 1.0 -0.865494 0.998483 1.0 -0.182409 -0.17067 0.952357 -0.187035 1.0 0.998419 -0.299364 -0.284966 1.0 1.0 1.0 1.0 -0.941969 0.980266 -0.0675906 1.0 1.0 0.0113362 0.997552 1.0 0.275051 1.0 1.0 -0.999286 -0.226852 0.978793 1.0 -0.824326 1.0 1.0 1.0 1.0 0.332566 1.0 -0.229365 -0.0989562 -0.061414 1.0 1.0 1.0 1.0 0.99963 -0.224085
queue -0.0454983 0.490262 1.0 -0.999237 0.371916 -0.16757 1.0 1.0 -0.145864 -0.0521073 -0.242429 -0.152952 1.0 0.0114629 1.0 1.0 -0.342165 0.999542 0.704097 0.177434 1.0 -0.313952 -0.496328 1.0 -0.362701 1.0 0.995607 1.0 1.0 -0.161204 -0.00328795 1.0 -0.517045 1.0 0.996926 1.0 -0.997975 1.0 0.812244 1.0 1.0 1.0 1.0 1.0 1.0 1.0 1.0 1.0 1.0 1.0 -0.134648 1.0 1.0 1.0 0.999867 0.998483 1.0 -0.182409 -0.17067 0.952357 -0.187035 1.0 0.998419 -0.299364 -0.284966 1.0 1.0 1.0 1.0 -0.93259 0.980266 -0.0675906 1.0 1.0 0.0113362 0.275304 1.0 0.275051 1.0 1.0 -0.999286 -0.226852 0.978793 1.0 -0.824326 1.0 1.0 1.0 1.0 0.332566 1.0 -0.229365 -0.0989562 -0.061414 1.0 1.0 1.0 1.0 0.99963 -0.224085
mergesort -0.0454983 -0.871169 1.0 -0.999237 0.371916 -0.835837 1.0 1.0 -0.145864 -0.0521073 -0.242429 -0.152952 1.0 0.0114629 -0.998085 1.0 -0.942053 0.999542 0.704097 0.177434 1.0 -0.313952 -0.496328 1.0 -0.362701 1.0 -0.991017 1.0 1.0 -0.161204 -0.00328795 1.0 -0.517045 1.0 -0.992252 1.0 -0.997975 1.0 -0.850351 1.0 1.0 1.0 1.0 1.0 1.0 1.0 1.0 1.0 1.0 1.0 -0.9295 1.0 1.0 1.0 1.0 0.998483 1.0 -0.182409 -0.17067 0.952357 -0.187035 1.0 0.998419 -0.299364 -0.284966 1.0 1.0 1.0 1.0 0.980859 -0.952509 -0.0675906 1.0 1.0 0.0113362 -0.238526 1.0 0.275051 1.0 1.0 -0.999286 -0.226852 0.978793 1.0 -0.824326 1.0 1.0 1.0 1.0 0.332566 1.0 -0.229365 -0.0989562 -0.061414 1.0 1.0 1.0 1.0 0.99963 -0.224085
mergesort -0.0454983 0.490262 1.0 -0.999237 0.371916 -0.16757 1.0 1.0 -0.145864 -0.0521073 -0.242429 -0.152952 1.0 0.0114629 0.95331 1.0 -0.342165 0.999542 0.704097 0.177434 1.0 -0.313952 -0.496328 1.0 -0.362701 1.0 0.995607 1.0 1.0 -0.161204 -0.00328795 1.0 -0.517045 1.0 0.996926 1.0 -0.997975 1.0 0.812244 1.0 1.0 1.0 1.0 1.0 1.0 1.0 1.0 1.0 1.0 1.0 -0.134648 1.0 1.0 1.0 1.0 0.998483 1.0 -0.182409 -0.17067 0.952357 -0.187035 1.0 0.998419 -0.299364 -0.284966 1.0 1.0 1.0 1.0 0.999999 0.980266 -0.0675906 1.0 1.0 0.0113362 -0.989531 1.0 0.275051 1.0 1.0 -0.999286 -0.226852 0.978793 1.0 -0.824326 1.0 1.0 1.0 1.0 0.332566 1.0 -0.229365 -0.0989562 -0.061414 1.0 1.0 1.0 1.0 0.99963 -0.224085
bfs -0.0454983 -0.871169 1.0 -0.999237 0.371916 -0.835837 1.0 1.0 -0.145864 -0.0521073 -0.242429 -0.152952 1.0 0.0114629 0.82345 1.0 -0.942053 0.999542 0.704097 0.177434 1.0 -0.313952 -0.496328 1.0 -0.362701 1.0 -0.991017 1.0 1.0 -0.161204 -0.00328795 1.0 -0.517045 1.0 -0.992252 1.0 -0.997975 1.0 -0.850351 1.0 1.0 1.0 1.0 1.0 1.0 1.0 1.0 1.0 1.0 1.0 -0.9295 1.0 1.0 1.0 0.993774 0.998483 1.0 -0.182409 -0.17067 0.952357 -0.187035 1.0 0.998419 -0.299364 -0.284966 1.0 1.0 1.0 1.0 -0.985934 -0.952509 -0.0675906 1.0 1.0 0.0113362 0.997552 1.0 0.275051 1.0 1.0 -0.999286 -0.226852 0.978793 1.0 -0.824326 1.0 1.0 1.0 1.0 0.332566 1.0 -0.229365 -0.0989562 -0.061414 1.0 1.0 1.0 1.0 0.99963 -0.224085
linkedlist -0.0454983 -0.871169 1.0 -0.999237 0.371916 -0.835837 1.0 1.0 -0.145864 -0.0521073 -0.242429 -0.152952 1.0 0.0114629 1.0 1.0 -0.942053 0.999542 0.704097 0.177434 1.0 -0.313952 -0.496328 1.0 -0.362701 1.0 -0.991017 1.0 1.0 -0.161204 -0.00328795 1.0 -0.517045 1.0 -0.992252 1.0 -0.997975 1.0 -0.850351 1.0 1.0 1.0 1.0 1.0 1.0 1.0 1.0 1.0 1.0 1.0 -0.9295 1.0 1.0 1.0 1.0 0.998483 1.0 -0.182409 -0.17067 0.952357 -0.187035 1.0 0.998419 -0.299364 -0.284966 1.0 1.0 1.0 1.0 0.980859 -0.952509 -0.0675906 1.0 1.0 0.0113362 0.275304 1.0 0.275051 1.0 1.0 -0.999286 -0.226852 0.978793 1.0 -0.824326 1.0 1.0 1.0 1.0 0.332566 1.0 -0.229365 -0.0989562 -0.061414 1.0 1.0 1.0 1.0 0.99963 -0.224085
knapsack -0.0454983 0.490262 1.0 -0.999237 0.371916 -0.16757 1.0 1.0 -0.145864 -0.0521073 -0.242429 -0.152952 1.0 0.0114629 -0.992845 1.0 -0.342165 0.999542 0.704097 0.177434 1.0 -0.313952 -0.496328 1.0 -0.362701 1.0 0.995607 1.0 1.0 -0.161204 -0.00328795 1.0 -0.517045 1.0 0.996926 1.0 -0.997975 1.0 0.812244 1.0 1.0 1.0 1.0 1.0 1.0 1.0 1.0 1.0 1.0 1.0 -0.134648 1.0 1.0 1.0 1.0 0.998483 1.0 -0.182409 -0.17067 0.952357 -0.187035 1.0 0.998419 -0.299364 -0.284966 1.0 1.0 1.0 1.0 1.0 0.980266 -0.0675906 1.0 1.0 0.0113362 0.275304 1.0 0.275051 1.0 1.0 -0.999286 -0.226852 0.978793 1.0 -0.824326 1.0 1.0 1.0 1.0 0.332566 1.0 -0.229365 -0.0989562 -0.061414 1.0 1.0 1.0 1.0 0.99963 -0.224085
stack -0.0454983 0.490262 1.0 -0.999237 0.371916 -0.16757 1.0 1.0 -0.145864 -0.0521073 -0.242429 -0.152952 1.0 0.0114629 0.82345 1.0 -0.342165 0.999542 0.704097 0.177434 1.0 -0.313952 -0.496328 1.0 -0.362701 1.0 0.995607 1.0 1.0 -0.161204 -0.00328795 1.0 -0.517045 1.0 0.996926 1.0 -0.997975 1.0 0.812244 1.0 1.0 1.0 1.0 1.0 1.0 1.0 1.0 1.0 1.0 1.0 -0.134648 1.0 1.0 1.0 -0.878752 0.998483 1.0 -0.182409 -0.17067 0.952357 -0.187035 1.0 0.998419 -0.299364 -0.284966 1.0 1.0 1.0 1.0 -0.941969 0.980266 -0.0675906 1.0 1.0 0.0113362 0.997552 1.0 0.275051 1.0 1.0 -0.999286 -0.226852 0.978793 1.0 -0.824326 1.0 1.0 1.0 1.0 0.332566 1.0 -0.229365 -0.0989562 -0.061414 1.0 1.0 1.0 1.0 0.99963 -0.224085
stack -0.0454983 0.490262 1.0 -0.999237 0.371916 -0.16757 1.0 1.0 -0.145864 -0.0521073 -0.242429 -0.152952 1.0 0.0114629 0.82345 1.0 -0.342165 0.999542 0.704097 0.177434 1.0 -0.313952 -0.496328 1.0 -0.362701 1.0 0.995607 1.0 1.0 -0.161204 -0.00328795 1.0 -0.517045 1.0 0.996926 1.0 -0.997975 1.0 0.812244 1.0 1.0 1.0 1.0 1.0 1.0 1.0 1.0 1.0 1.0 1.0 -0.134648 1.0 1.0 1.0 0.578948 0.998483 1.0 -0.182409 -0.17067 0.952357 -0.187035 1.0 0.998419 -0.299364 -0.284966 1.0 1.0 1.0 1.0 -0.941969 0.980266 -0.0675906 1.0 1.0 0.0113362 -0.238526 1.0 0.275051 1.0 1.0 -0.999286 -0.226852 0.978793 1.0 -0.824326 1.0 1.0 1.0 1.0 0.332566 1.0 -0.229365 -0.0989562 -0.061414 1.0 1.0 1.0 1.0 0.99963 -0.224085
queue -0.0454983 -0.871169 1.0 -0.999237 0.371916 -0.835837 1.0 1.0 -0.145864 -0.0521073 -0.242429 -0.152952 1.0 0.0114629 0.82345 1.0 -0.942053 0.999542 0.704097 0.177434 1.0 -0.313952 -0.496328 1.0 -0.362701 1.0 -0.991017 1.0 1.0 -0.161204 -0.00328795 1.0 -0.517045 1.0 -0.992252 1.0 -0.997975 1.0 -0.850351 1.0 1.0 1.0 1.0 1.0 1.0 1.0 1.0 1.0 1.0 1.0 -0.9295 1.0 1.0 1.0 0.999997 0.998483 1.0 -0.182409 -0.17067 0.952357 -0.187035 1.0 0.998419 -0.299364 -0.284966 1.0 1.0 1.0 1.0 0.310328 -0.952509 -0.0675906 1.0 1.0 0.0113362 0.997552 1.0 0.275051 1.0 1.0 -0.999286 -0.226852 0.978793 1.0 -0.824326 1.0 1.0 1.0 1.0 0.332566 1.0 -0.229365 -0.0989562 -0.061414 1.0 1.0 1.0 1.0 0.99963 -0.224085
bubblesort -0.0454983 0.490262 1.0 -0.999237 0.371916 -0.16757 1.0 1.0 -0.145864 -0.0521073 -0.242429 -0.152952 1.0 0.0114629 -0.998085 1.0 -0.342165 0.999542 0.704097 0.177434 1.0 -0.313952 -0.496328 1.0 -0.362701 1.0 0.995607 1.0 1.0 -0.161204 -0.00328795 1.0 -0.517045 1.0 0.996926 1.0 -0.997975 1.0 0.812244 1.0 1.0 1.0 1.0 1.0 1.0 1.0 1.0 1.0 1.0 1.0 -0.134648 1.0 1.0 1.0 1.0 0.998483 1.0 -0.182409 -0.17067 0.952357 -0.187035 1.0 0.998419 -0.299364 -0.284966 1.0 1.0 1.0 1.0 -0.0689446 0.980266 -0.0675906 1.0 1.0 0.0113362 -0.238526 1.0 0.275051 1.0 1.0 -0.999286 -0.226852 0.978793 1.0 -0.824326 1.0 1.0 1.0 1.0 0.332566 1.0 -0.229365 -0.0989562 -0.061414 1.0 1.0 1.0 1.0 0.99963 -0.224085
stack -0.0454983 0.490262 1.0 -0.999237 0.371916 -0.16757 1.0 1.0 -0.145864 -0.0521073 -0.242429 -0.152952 1.0 0.0114629 0.82345 1.0 -0.342165 0.999542 0.704097 0.177434 1.0 -0.313952 -0.496328 1.0 -0.362701 1.0 0.995607 1.0 1.0 -0.161204 -0.00328795 1.0 -0.517045 1.0 0.996926 1.0 -0.997975 1.0 0.812244 1.0 1.0 1.0 1.0 1.0 1.0 1.0 1.0 1.0 1.0 1.0 -0.134648 1.0 1.0 1.0 0.999867 0.998483 1.0 -0.182409 -0.17067 0.952357 -0.187035 1.0 0.998419 -0.299364 -0.284966 1.0 1.0 1.0 1.0 -0.93259 0.980266 -0.0675906 1.0 1.0 0.0113362 0.997552 1.0 0.275051 1.0 1.0 -0.999286 -0.226852 0.978793 1.0 -0.824326 1.0 1.0 1.0 1.0 0.332566 1.0 -0.229365 -0.0989562 -0.061414 1.0 1.0 1.0 1.0 0.99963 -0.224085
dfs -0.0454983 0.490262 1.0 -0.999237 0.371916 -0.16757 1.0 1.0 -0.145864 -0.0521073 -0.242429 -0.152952 1.0 0.0114629 0.82345 1.0 -0.342165 0.999542 0.704097 0.177434 1.0 -0.313952 -0.496328 1.0 -0.362701 1.0 0.995607 1.0 1.0 -0.161204 -0.00328795 1.0 -0.517045 1.0 0.996926 1.0 -0.997975 1.0 0.812244 1.0 1.0 1.0 1.0 1.0 1.0 1.0 1.0 1.0 1.0 1.0 -0.134648 1.0 1.0 1.0 1.0 0.998483 1.0 -0.182409 -0.17067 0.952357 -0.187035 1.0 0.998419 -0.299364 -0.284966 1.0 1.0 1.0 1.0 0.999994 0.980266 -0.0675906 1.0 1.0 0.0113362 -0.919441 1.0 0.275051 1.0 1.0 -0.999286 -0.226852 0.978793 1.0 -0.824326 1.0 1.0 1.0 1.0 0.332566 1.0 -0.229365 -0.0989562 -0.061414 1.0 1.0 1.0 1.0 0.99963 -0.224085
knapsack -0.0454983 0.490262 1.0 -0.999237 0.371916 -0.16757 1.0 1.0 -0.145864 -0.0521073 -0.242429 -0.152952 1.0 0.0114629 1.0 1.0 -0.342165 0.999542 0.704097 0.177434 1.0 -0.313952 -0.496328 1.0 -0.362701 1.0 0.995607 1.0 1.0 -0.161204 -0.00328795 1.0 -0.517045 1.0 0.996926 1.0 -0.997975 1.0 0.812244 1.0 1.0 1.0 1.0 1.0 1.0 1.0 1.0 1.0 1.0 1.0 -0.134648 1.0 1.0 1.0 1.0 0.998483 1.0 -0.182409 -0.17067 0.952357 -0.187035 1.0 0.998419 -0.299364 -0.284966 1.0 1.0 1.0 1.0 0.991026 0.980266 -0.0675906 1.0 1.0 0.0113362 -0.919441 1.0 0.275051 1.0 1.0 -0.999286 -0.226852 0.978793 1.0 -0.824326 1.0 1.0 1.0 1.0 0.332566 1.0 -0.229365 -0.0989562 -0.061414 1.0 1.0 1.0 1.0 0.99963 -0.224085
dfs -0.0454983 0.490262 1.0 -0.999237 0.371916 -0.16757 1.0 1.0 -0.145864 -0.0521073 -0.242429 -0.152952 1.0 0.0114629 1.0 1.0 -0.342165 -0.999069 0.704097 0.177434 1.0 -0.313952 -0.496328 1.0 -0.362701 1.0 0.995607 1.0 1.0 -0.161204 -0.00328795 1.0 -0.517045 1.0 0.996926 1.0 -0.997975 1.0 0.812244 1.0 1.0 1.0 1.0 1.0 1.0 1.0 1.0 1.0 1.0 1.0 -0.134648 1.0 1.0 1.0 0.827458 -0.995094 1.0 -0.182409 -0.17067 -0.770123 -0.187035 1.0 -0.995874 -0.299364 -0.284966 1.0 1.0 1.0 1.0 -0.964898 0.980266 -0.0675906 1.0 1.0 0.0113362 -0.989531 1.0 0.275051 1.0 1.0 -0.999286 -0.226852 -0.951646 1.0 -0.824326 1.0 1.0 1.0 1.0 0.332566 1.0 -0.229365 -0.0989562 -0.061414 1.0 1.0 1.0 1.0 -0.998723 -0.224085
stack -0.0454983 0.490262 1.0 -0.999237 0.371916 -0.16757 1.0 1.0 -0.145864 -0.0521073 -0.242429 -0.152952 1.0 0.0114629 0.977064 1.0 -0.342165 0.999542 0.704097 0.177434 1.0 -0.313952 -0.496328 1.0 -0.362701 1.0 0.995607 1.0 1.0 -0.161204 -0.00328795 1.0 -0.517045 1.0 0.996926 1.0 -0.997975 1.0 0.812244 1.0 1.0 1.0 1.0 1.0 1.0 1.0 1.0 1.0 1.0 1.0 -0.134648 1.0 1.0 1.0 0.996014 0.998483 1.0 -0.182409 -0.17067 0.952357 -0.187035 1.0 0.998419 -0.299364 -0.284966 1.0 1.0 1.0 1.0 -0.940759 0.980266 -0.0675906 1.0 1.0 0.0113362 -0.919441 1.0 0.275051 1.0 1.0 -0.999286 -0.226852 0.978793 1.0 -0.824326 1.0 1.0 1.0 1.0 0.332566 1.0 -0.229365 -0.0989562 -0.061414 1.0 1.0 1.0 1.0 0.99963 -0.224085
knapsack -0.0454983 -0.871169 1.0 -0.999237 0.371916 -0.835837 1.0 1.0 -0.145864 -0.0521073 -0.242429 -0.152952 1.0 0.0114629 -0.998085 1.0 -0.942053 0.999542 0.704097 0.177434 1.0 -0.313952 -0.496328 1.0 -0.362701 1.0 -0.991017 1.0 1.0 -0.161204 -0.00328795 1.0 -0.517045 1.0 -0.992252 1.0 -0.997975 1.0 -0.850351 1.0 1.0 1.0 1.0 1.0 1.0 1.0 1.0 1.0 1.0 1.0 -0.9295 1.0 1.0 1.0 1.0 0.998483 1.0 -0.182409 -0.17067 0.952357 -0.187035 1.0 0.998419 -0.299364 -0.284966 1.0 1.0 1.0 1.0 0.999645 -0.952509 -0.0675906 1.0 1.0 0.0113362 -0.919441 1.0 0.275051 1.0 1.0 -0.999286 -0.226852 0.978793 1.0 -0.824326 1.0 1.0 1.0 1.0 0.332566 1.0 -0.229365 -0.0989562 -0.061414 1.0 1.0 1.0 1.0 0.99963 -0.224085
quicksort -0.0454983 0.490262 1.0 -0.999237 0.371916 -0.16757 1.0 1.0 -0.145864 -0.0521073 -0.242429 -0.152952 1.0 0.0114629 -0.997522 1.0 -0.342165 0.999542 0.704097 0.177434 1.0 -0.313952 -0.496328 1.0 -0.362701 1.0 0.995607 1.0 1.0 -0.161204 -0.00328795 1.0 -0.517045 1.0 0.996926 1.0 -0.997975 1.0 0.812244 1.0 1.0 1.0 1.0 1.0 1.0 1.0 1.0 1.0 1.0 1.0 -0.134648 1.0 1.0 1.0 0.999998 0.998483 1.0 -0.182409 -0.17067 0.952357 -0.187035 1.0 0.998419 -0.299364 -0.284966 1.0 1.0 1.0 1.0 -0.948746 0.980266 -0.0675906 1.0 1.0 0.0113362 -0.860384 1.0 0.275051 1.0 1.0 -0.999286 -0.226852 0.978793 1.0 -0.824326 1.0 1.0 1.0 1.0 0.332566 1.0 -0.229365 -0.0989562 -0.061414 1.0 1.0 1.0 1.0 0.99963 -0.224085
stack -0.0454983 -0.871169 1.0 -0.999237 0.371916 -0.835837 1.0 1.0 -0.145864 -0.0521073 -0.242429 -0.152952 1.0 0.0114629 0.999999 1.0 -0.942053 0.999542 0.704097 0.177434 1.0 -0.313952 -0.496328 1.0 -0.362701 1.0 -0.991017 1.0 1.0 -0.161204 -0.00328795 1.0 -0.517045 1.0 -0.992252 1.0 -0.997975 1.0 -0.850351 1.0 1.0 1.0 1.0 1.0 1.0 1.0 1.0 1.0 1.0 1.0 -0.9295 1.0 1.0 1.0 0.999881 0.998483 1.0 -0.182409 -0.17067 0.952357 -0.187035 1.0 0.998419 -0.299364 -0.284966 1.0 1.0 1.0 1.0 -0.941969 -0.952509 -0.0675906 1.0 1.0 0.0113362 0.960215 1.0 0.275051 1.0 1.0 -0.999286 -0.226852 0.978793 1.0 -0.824326 1.0 1.0 1.0 1.0 0.332566 1.0 -0.229365 -0.0989562 -0.061414 1.0 1.0 1.0 1.0 0.99963 -0.224085
linkedlist -0.0454983 -0.871169 1.0 -0.999237 0.371916 -0.835837 1.0 1.0 -0.145864 -0.0521073 -0.242429 -0.152952 1.0 0.0114629 0.82345 1.0 -0.942053 0.999542 0.704097 0.177434 1.0 -0.313952 -0.496328 1.0 -0.362701 1.0 -0.991017 1.0 1.0 -0.161204 -0.00328795 1.0 -0.517045 1.0 -0.992252 1.0 -0.997975 1.0 -0.850351 1.0 1.0 1.0 1.0 1.0 1.0 1.0 1.0 1.0 1.0 1.0 -0.9295 1.0 1.0 1.0 0.993774 0.998483 1.0 -0.182409 -0.17067 0.952357 -0.187035 1.0 0.998419 -0.299364 -0.284966 1.0 1.0 1.0 1.0 -0.941969 -0.952509 -0.0675906 1.0 1.0 0.0113362 -0.919441 1.0 0.275051 1.0 1.0 -0.999286 -0.226852 0.978793 1.0 -0.824326 1.0 1.0 1.0 1.0 0.332566 1.0 -0.229365 -0.0989562 -0.061414 1.0 1.0 1.0 1.0 0.99963 -0.224085
mergesort -0.0454983 -0.871169 1.0 -0.999237 0.371916 -0.835837 1.0 1.0 -0.145864 -0.0521073 -0.242429 -0.152952 1.0 0.0114629 -0.763339 1.0 -0.942053 -0.99807 0.704097 0.177434 1.0 -0.313952 -0.496328 1.0 -0.362701 1.0 -0.991017 1.0 1.0 -0.161204 -0.00328795 1.0 -0.517045 1.0 -0.992252 1.0 -0.997975 1.0 -0.862798 1.0 1.0 1.0 1.0 1.0 1.0 1.0 1.0 1.0 1.0 1.0 -0.9295 1.0 1.0 1.0 1.0 -0.995094 1.0 -0.182409 -0.17067 -0.770123 -0.187035 1.0 -0.995874 -0.299364 -0.284966 1.0 1.0 1.0 1.0 0.980859 -0.952509 -0.0675906 1.0 1.0 0.0113362 0.275304 1.0 0.275051 1.0 1.0 -0.999286 -0.226852 -0.951646 1.0 -0.824326 1.0 1.0 1.0 1.0 0.332566 1.0 -0.229365 -0.0989562 -0.061414 1.0 1.0 1.0 1.0 -0.998723 -0.224085
bubblesort -0.0454983 0.490262 1.0 -0.999237 0.371916 -0.16757 1.0 1.0 -0.145864 -0.0521073 -0.242429 -0.152952 1.0 0.0114629 0.82345 1.0 -0.342165 0.999542 0.704097 0.177434 1.0 -0.313952 -0.496328 1.0 -0.362701 1.0 0.995607 1.0 1.0 -0.161204 -0.00328795 1.0 -0.517045 1.0 0.996926 1.0 -0.997975 1.0 0.812244 1.0 1.0 1.0 1.0 1.0 1.0 1.0 1.0 1.0 1.0 1.0 -0.134648 1.0 1.0 1.0 0.99033 0.998483 1.0 -0.182409 -0.17067 0.952357 -0.187035 1.0 0.998419 -0.299364 -0.284966 1.0 1.0 1.0 1.0 -0.941969 0.980266 -0.0675906 1.0 1.0 0.0113362 -0.699116 1.0 0.275051 1.0 1.0 -0.999286 -0.226852 0.978793 1.0 -0.824326 1.0 1.0 1.0 1.0 0.332566 1.0 -0.229365 -0.0989562 -0.061414 1.0 1.0 1.0 1.0 0.99963 -0.224085
stack -0.0454983 -0.871169 1.0 -0.999237 0.371916 -0.835837 1.0 1.0 -0.145864 -0.0521073 -0.242429 -0.152952 1.0 0.0114629 1.0 1.0 -0.942053 0.999542 0.704097 0.177434 1.0 -0.313952 -0.496328 1.0 -0.362701 1.0 -0.991017 1.0 1.0 -0.161204 -0.00328795 1.0 -0.517045 1.0 -0.992252 1.0 -0.997975 1.0 -0.850351 1.0 1.0 1.0 1.0 1.0 1.0 1.0 1.0 1.0 1.0 1.0 -0.9295 1.0 1.0 1.0 0.999867 0.998483 1.0 -0.182409 -0.17067 0.952357 -0.187035 1.0 0.998419 -0.299364 -0.284966 1.0 1.0 1.0 1.0 0.766931 -0.952509 -0.0675906 1.0 1.0 0.0113362 0.275304 1.0 0.275051 1.0 1.0 -0.999286 -0.226852 0.978793 1.0 -0.824326 1.0 1.0 1.0 1.0 0.332566 1.0 -0.229365 -0.0989562 -0.061414 1.0 1.0 1.0 1.0 0.99963 -0.224085
linkedlist -0.0454983 0.490262 1.0 -0.999237 0.371916 -0.16757 1.0 1.0 -0.145864 -0.0521073 -0.242429 -0.152952 1.0 0.0114629 0.82345 1.0 -0.342165 0.999542 0.704097 0.177434 1.0 -0.313952 -0.496328 1.0 -0.362701 1.0 0.995607 1.0 1.0 -0.161204 -0.00328795 1.0 -0.517045 1.0 0.996926 1.0 -0.997975 1.0 0.812244 1.0 1.0 1.0 1.0 1.0 1.0 1.0 1.0 1.0 1.0 1.0 -0.134648 1.0 1.0 1.0 0.999996 0.998483 1.0 -0.182409 -0.17067 0.952357 -0.187035 1.0 0.998419 -0.299364 -0.284966 1.0 1.0 1.0 1.0 -0.941969 0.980266 -0.0675906 1.0 1.0 0.0113362 0.275304 1.0 0.275051 1.0 1.0 -0.999286 -0.226852 0.978793 1.0 -0.824326 1.0 1.0 1.0 1.0 0.332566 1.0 -0.229365 -0.0989562 -0.061414 1.0 1.0 1.0 1.0 0.99963 -0.224085
stack -0.0454983 -0.871169 1.0 -0.999237 0.371916 -0.835837 1.0 1.0 -0.145864 -0.0521073 -0.242429 -0.152952 1.0 0.0114629 0.82345 1.0 -0.942053 0.999542 0.704097 0.177434 1.0 -0.313952 -0.496328 1.0 -0.362701 1.0 -0.991017 1.0 1.0 -0.161204 -0.00328795 1.0 -0.517045 1.0 -0.992252 1.0 -0.997975 1.0 -0.850351 1.0 1.0 1.0 1.0 1.0 1.0 1.0 1.0 1.0 1.0 1.0 -0.9295 1.0 1.0 1.0 0.999997 0.998483 1.0 -0.182409 -0.17067 0.952357 -0.187035 1.0 0.998419 -0.299364 -0.284966 1.0 1.0 1.0 1.0 0.310328 -0.952509 -0.0675906 1.0 1.0 0.0113362 0.275304 1.0 0.275051 1.0 1.0 -0.999286 -0.226852 0.978793 1.0 -0.824326 1.0 1.0 1.0 1.0 0.332566 1.0 -0.229365 -0.0989562 -0.061414 1.0 1.0 1.0 1.0 0.99963 -0.224085
quicksort -0.0454983 -0.871169 1.0 -0.999237 0.371916 -0.835837 1.0 1.0 -0.145864 -0.0521073 -0.242429 -0.152952 1.0 0.0114629 1.0 1.0 -0.942053 -0.99807 0.704097 0.177434 1.0 -0.313952 -0.496328 1.0 -0.362701 1.0 -0.991017 1.0 1.0 -0.161204 -0.00328795 1.0 -0.517045 1.0 -0.992252 1.0 -0.997975 1.0 -0.862798 1.0 1.0 1.0 1.0 1.0 1.0 1.0 1.0 1.0 1.0 1.0 -0.9295 1.0 1.0 1.0 0.999997 -0.995094 1.0 -0.182409 -0.17067 -0.770123 -0.187035 1.0 -0.995874 -0.299364 -0.284966 1.0 1.0 1.0 1.0 0.310328 -0.952509 -0.0675906 1.0 1.0 0.0113362 0.275304 1.0 0.275051 1.0 1.0 -0.999286 -0.226852 -0.951646 1.0 -0.824326 1.0 1.0 1.0 1.0 0.332566 1.0 -0.229365 -0.0989562 -0.061414 1.0 1.0 1.0 1.0 -0.998723 -0.224085
heap -0.0454983 -0.871169 1.0 -0.999237 0.371916 -0.835837 1.0 1.0 -0.145864 -0.0521073 -0.242429 -0.152952 1.0 0.0114629 0.991245 1.0 -0.942053 0.999542 0.704097 0.177434 1.0 -0.313952 -0.496328 1.0 -0.362701 1.0 -0.991017 1.0 1.0 -0.161204 -0.00328795 1.0 -0.517045 1.0 -0.992252 1.0 -0.997975 1.0 -0.850351 1.0 1.0 1.0 1.0 1.0 1.0 1.0 1.0 1.0 1.0 1.0 -0.9295 1.0 1.0 1.0 0.999867 0.998483 1.0 -0.182409 -0.17067 0.952357 -0.187035 1.0 0.998419 -0.299364 -0.284966 1.0 1.0 1.0 1.0 -0.93259 -0.952509 -0.0675906 1.0 1.0 0.0113362 0.997552 1.0 0.275051 1.0 1.0 -0.999286 -0.226852 0.978793 1.0 -0.824326 1.0 1.0 1.0 1.0 0.332566 1.0 -0.229365 -0.0989562 -0.061414 1.0 1.0 1.0 1.0 0.99963 -0.224085
mergesort -0.0454983 0.490262 1.0 -0.999237 0.371916 -0.16757 1.0 1.0 -0.145864 -0.0521073 -0.242429 -0.152952 1.0 0.0114629 -0.99471 1.0 -0.342165 0.999542 0.704097 0.177434 1.0 -0.313952 -0.496328 1.0 -0.362701 1.0 0.995607 1.0 1.0 -0.161204 -0.00328795 1.0 -0.517045 1.0 0.996926 1.0 -0.997975 1.0 0.812244 1.0 1.0 1.0 1.0 1.0 1.0 1.0 1.0 1.0 1.0 1.0 -0.134648 1.0 1.0 1.0 0.999998 0.998483 1.0 -0.182409 -0.17067 0.952357 -0.187035 1.0 0.998419 -0.299364 -0.284966 1.0 1.0 1.0 1.0 -0.948746 0.980266 -0.0675906 1.0 1.0 0.0113362 -0.699116 1.0 0.275051 1.0 1.0 -0.999286 -0.226852 0.978793 1.0 -0.824326 1.0 1.0 1.0 1.0 0.332566 1.0 -0.229365 -0.0989562 -0.061414 1.0 1.0 1.0 1.0 0.99963 -0.224085
bfs -0.0454983 0.490262 1.0 -0.999237 0.371916 -0.16757 1.0 1.0 -0.145864 -0.0521073 -0.242429 -0.152952 1.0 0.0114629 0.82345 1.0 -0.342165 0.999542 0.704097 0.177434 1.0 -0.313952 -0.496328 1.0 -0.362701 1.0 0.995607 1.0 1.0 -0.161204 -0.00328795 1.0 -0.517045 1.0 0.996926 1.0 -0.997975 1.0 0.812244 1.0 1.0 1.0 1.0 1.0 1.0 1.0 1.0 1.0 1.0 1.0 -0.134648 1.0 1.0 1.0 0.999997 0.998483 1.0 -0.182409 -0.17067 0.952357 -0.187035 1.0 0.998419 -0.299364 -0.284966 1.0 1.0 1.0 1.0 0.310328 0.980266 -0.0675906 1.0 1.0 0.0113362 -0.710165 1.0 0.275051 1.0 1.0 -0.999286 -0.226852 0.978793 1.0 -0.824326 1.0 1.0 1.0 1.0 0.332566 1.0 -0.229365 -0.0989562 -0.061414 1.0 1.0 1.0 1.0 0.99963 -0.224085
knapsack -0.0454983 -0.871169 1.0 -0.999237 0.371916 -0.835837 1.0 1.0 -0.145864 -0.0521073 -0.242429 -0.152952 1.0 0.0114629 -0.990889 1.0 -0.942053 -0.99807 0.704097 0.177434 1.0 -0.313952 -0.496328 1.0 -0.362701 1.0 -0.991017 1.0 1.0 -0.161204 -0.00328795 1.0 -0.517045 1.0 -0.992252 1.0 -0.997975 1.0 -0.862798 1.0 1.0 1.0 1.0 1.0 1.0 1.0 1.0 1.0 1.0 1.0 -0.9295 1.0 1.0 1.0 1.0 -0.995094 1.0 -0.182409 -0.17067 -0.770123 -0.187035 1.0 -0.995874 -0.299364 -0.284966 1.0 1.0 1.0 1.0 1.0 -0.952509 -0.0675906 1.0 1.0 0.0113362 -0.699116 1.0 0.275051 1.0 1.0 -0.999286 -0.226852 -0.951646 1.0 -0.824326 1.0 1.0 1.0 1.0 0.332566 1.0 -0.229365 -0.0989562 -0.061414 1.0 1.0 1.0 1.0 -0.998723 -0.224085
queue -0.0454983 0.490262 1.0 -0.999237 0.371916 -0.16757 1.0 1.0 -0.145864 -0.0521073 -0.242429 -0.152952 1.0 0.0114629 0.82345 1.0 -0.342165 0.999542 0.704097 0.177434 1.0 -0.313952 -0.496328 1.0 -0.362701 1.0 0.995607 1.0 1.0 -0.161204 -0.00328795 1.0 -0.517045 1.0 0.996926 1.0 -0.997975 1.0 0.812244 1.0 1.0 1.0 1.0 1.0 1.0 1.0 1.0 1.0 1.0 1.0 -0.134648 1.0 1.0 1.0 0.196082 0.998483 1.0 -0.182409 -0.17067 0.952357 -0.187035 1.0 0.998419 -0.299364 -0.284966 1.0 1.0 1.0 1.0 -0.988993 0.980266 -0.0675906 1.0 1.0 0.0113362 0.997552 1.0 0.275051 1.0 1.0 -0.999286 -0.226852 0.978793 1.0 -0.824326 1.0 1.0 1.0 1.0 0.332566 1.0 -0.229365 -0.0989562 -0.061414 1.0 1.0 1.0 1.0 0.99963 -0.224085
bubblesort -0.0454983 0.490262 1.0 -0.999237 0.371916 -0.16757 1.0 1.0 -0.145864 -0.0521073 -0.242429 -0.152952 1.0 0.0114629 0.82345 1.0 -0.342165 0.999542 0.704097 0.177434 1.0 -0.313952 -0.496328 1.0 -0.362701 1.0 0.995607 1.0 1.0 -0.161204 -0.00328795 1.0 -0.517045 1.0 0.996926 1.0 -0.997975 1.0 0.812244 1.0 1.0 1.0 1.0 1.0 1.0 1.0 1.0 1.0 1.0 1.0 -0.134648 1.0 1.0 1.0 0.999187 0.998483 1.0 -0.182409 -0.17067 0.952357 -0.187035 1.0 0.998419 -0.299364 -0.284966 1.0 1.0 1.0 1.0 -0.941969 0.980266 -0.0675906 1.0 1.0 0.0113362 0.0196888 1.0 0.275051 1.0 1.0 -0.999286 -0.226852 0.978793 1.0 -0.824326 1.0 1.0 1.0 1.0 0.332566 1.0 -0.229365 -0.0989562 -0.061414 1.0 1.0 1.0 1.0 0.99963 -0.224085
dfs -0.0454983 0.490262 1.0 -0.999237 0.371916 -0.16757 1.0 1.0 -0.145864 -0.0521073 -0.242429 -0.152952 1.0 0.0114629 0.82345 1.0 -0.342165 0.999542 0.704097 0.177434 1.0 -0.313952 -0.496328 1.0 -0.362701 1.0 0.995607 1.0 1.0 -0.161204 -0.00328795 1.0 -0.517045 1.0 0.996926 1.0 -0.997975 1.0 0.812244 1.0 1.0 1.0 1.0 1.0 1.0 1.0 1.0 1.0 1.0 1.0 -0.134648 1.0 1.0 1.0 1.0 0.998483 1.0 -0.182409 -0.17067 0.952357 -0.187035 1.0 0.998419 -0.299364 -0.284966 1.0 1.0 1.0 1.0 0.980859 0.980266 -0.0675906 1.0 1.0 0.0113362 -0.919441 1.0 0.275051 1.0 1.0 -0.999286 -0.226852 0.978793 1.0 -0.824326 1.0 1.0 1.0 1.0 0.332566 1.0 -0.229365 -0.0989562 -0.061414 1.0 1.0 1.0 1.0 0.99963 -0.224085
knapsack -0.0454983 -0.871169 1.0 -0.999237 0.371916 -0.835837 1.0 1.0 -0.145864 -0.0521073 -0.242429 -0.152952 1.0 0.0114629 -0.998085 1.0 -0.942053 0.999542 0.704097 0.177434 1.0 -0.313952 -0.496328 1.0 -0.362701 1.0 -0.991017 1.0 1.0 -0.161204 -0.00328795 1.0 -0.517045 1.0 -0.992252 1.0 -0.997975 1.0 -0.850351 1.0 1.0 1.0 1.0 1.0 1.0 1.0 1.0 1.0 1.0 1.0 -0.9295 1.0 1.0 1.0 0.999867 0.998483 1.0 -0.182409 -0.17067 0.952357 -0.187035 1.0 0.998419 -0.299364 -0.284966 1.0 1.0 1.0 1.0 -0.93259 -0.952509 -0.0675906 1.0 1.0 0.0113362 -0.238526 1.0 0.275051 1.0 1.0 -0.999286 -0.226852 0.978793 1.0 -0.824326 1.0 1.0 1.0 1.0 0.332566 1.0 -0.229365 -0.0989562 -0.061414 1.0 1.0 1.0 1.0 0.99963 -0.224085
bubblesort -0.0454983 0.490262 1.0 -0.999237 0.371916 -0.16757 1.0 1.0 -0.145864 -0.0521073 -0.242429 -0.152952 1.0 0.0114629 0.82345 1.0 -0.342165 0.999542 0.704097 0.177434 1.0 -0.313952 -0.496328 1.0 -0.362701 1.0 0.995607 1.0 1.0 -0.161204 -0.00328795 1.0 -0.517045 1.0 0.996926 1.0 -0.997975 1.0 0.812244 1.0 1.0 1.0 1.0 1.0 1.0 1.0 1.0 1.0 1.0 1.0 -0.134648 1.0 1.0 1.0 0.932939 0.998483 1.0 -0.182409 -0.17067 0.952357 -0.187035 1.0 0.998419 -0.299364 -0.284966 1.0 1.0 1.0 1.0 -0.941969 0.980266 -0.0675906 1.0 1.0 0.0113362 0.275304 1.0 0.275051 1.0 1.0 -0.999286 -0.226852 0.978793 1.0 -0.824326 1.0 1.0 1.0 1.0 0.332566 1.0 -0.229365 -0.0989562 -0.061414 1.0 1.0 1.0 1.0 0.99963 -0.224085
dfs -0.0454983 -0.871169 1.0 -0.999237 0.371916 -0.835837 1.0 1.0 -0.145864 -0.0521073 -0.242429 -0.152952 1.0 0.0114629 1.0 1.0 -0.942053 0.999542 0.704097 0.177434 1.0 -0.313952 -0.496328 1.0 -0.362701 1.0 -0.991017 1.0 1.0 -0.161204 -0.00328795 1.0 -0.517045 1.0 -0.992252 1.0 -0.997975 1.0 -0.850351 1.0 1.0 1.0 1.0 1.0 1.0 1.0 1.0 1.0 1.0 1.0 -0.9295 1.0 1.0 1.0 1.0 0.998483 1.0 -0.182409 -0.17067 0.952357 -0.187035 1.0 0.998419 -0.299364 -0.284966 1.0 1.0 1.0 1.0 0.980859 -0.952509 -0.0675906 1.0 1.0 0.0113362 0.275304 1.0 0.275051 1.0 1.0 -0.999286 -0.226852 0.978793 1.0 -0.824326 1.0 1.0 1.0 1.0 0.332566 1.0 -0.229365 -0.0989562 -0.061414 1.0 1.0 1.0 1.0 0.99963 -0.224085
stack -0.0454983 -0.871169 1.0 -0.999237 0.371916 -0.835837 1.0 1.0 -0.145864 -0.0521073 -0.242429 -0.152952 1.0 0.0114629 0.953959 1.0 -0.942053 0.999542 0.704097 0.177434 1.0 -0.313952 -0.496328 1.0 -0.362701 1.0 -0.991017 1.0 1.0 -0.161204 -0.00328795 1.0 -0.517045 1.0 -0.992252 1.0 -0.997975 1.0 -0.850351 1.0 1.0 1.0 1.0 1.0 1.0 1.0 1.0 1.0 1.0 1.0 -0.9295 1.0 1.0 1.0 0.999997 0.998483 1.0 -0.182409 -0.17067 0.952357 -0.187035 1.0 0.998419 -0.299364 -0.284966 1.0 1.0 1.0 1.0 0.310328 -0.952509 -0.0675906 1.0 1.0 0.0113362 0.997552 1.0 0.275051 1.0 1.0 -0.999286 -0.226852 0.978793 1.0 -0.824326 1.0 1.0 1.0 1.0 0.332566 1.0 -0.229365 -0.0989562 -0.061414 1.0 1.0 1.0 1.0 0.99963 -0.224085
queue -0.0454983 0.490262 1.0 -0.999237 0.371916 -0.16757 1.0 1.0 -0.145864 -0.0521073 -0.242429 -0.152952 1.0 0.0114629 1.0 1.0 -0.342165 0.999542 0.704097 0.177434 1.0 -0.313952 -0.496328 1.0 -0.362701 1.0 0.995607 1.0 1.0 -0.161204 -0.00328795 1.0 -0.517045 1.0 0.996926 1.0 -0.997975 1.0 0.812244 1.0 1.0 1.0 1.0 1.0 1.0 1.0 1.0 1.0 1.0 1.0 -0.134648 1.0 1.0 1.0 0.993774 0.998483 1.0 -0.182409 -0.17067 0.952357 -0.187035 1.0 0.998419 -0.299364 -0.284966 1.0 1.0 1.0 1.0 -0.941969 0.980266 -0.0675906 1.0 1.0 0.0113362 0.275304 1.0 0.275051 1.0 1.0 -0.999286 -0.226852 0.978793 1.0 -0.824326 1.0 1.0 1.0 1.0 0.332566 1.0 -0.229365 -0.0989562 -0.061414 1.0 1.0 1.0 1.0 0.99963 -0.224085
knapsack -0.0454983 -0.871169 1.0 -0.999237 0.371916 -0.835837 1.0 1.0 -0.145864 -0.0521073 -0.242429 -0.152952 1.0 0.0114629 -0.998085 1.0 -0.942053 0.999542 0.704097 0.177434 1.0 -0.313952 -0.496328 1.0 -0.362701 1.0 -0.991017 1.0 1.0 -0.161204 -0.00328795 1.0 -0.517045 1.0 -0.992252 1.0 -0.997975 1.0 -0.850351 1.0 1.0 1.0 1.0 1.0 1.0 1.0 1.0 1.0 1.0 1.0 -0.9295 1.0 1.0 1.0 1.0 0.998483 1.0 -0.182409 -0.17067 0.952357 -0.187035 1.0 0.998419 -0.299364 -0.284966 1.0 1.0 1.0 1.0 0.999645 -0.952509 -0.0675906 1.0 1.0 0.0113362 -0.699116 1.0 0.275051 1.0 1.0 -0.999286 -0.226852 0.978793 1.0 -0.824326 1.0 1.0 1.0 1.0 0.332566 1.0 -0.229365 -0.0989562 -0.061414 1.0 1.0 1.0 1.0 0.99963 -0.224085
heap -0.0454983 -0.871169 1.0 -0.999237 0.371916 -0.823367 1.0 1.0 -0.145864 -0.0521073 -0.242429 -0.152952 1.0 0.0114629 0.82345 1.0 -0.942053 0.999542 0.704097 0.177434 1.0 -0.313952 -0.496328 1.0 -0.362701 1.0 -0.991017 1.0 1.0 -0.161204 -0.00328795 1.0 -0.517045 1.0 -0.992252 1.0 -0.997975 1.0 -0.800129 1.0 1.0 1.0 1.0 1.0 1.0 1.0 1.0 1.0 1.0 1.0 -0.9295 1.0 1.0 1.0 0.993774 0.998483 1.0 -0.182409 -0.17067 0.952357 -0.187035 1.0 0.998419 -0.299364 -0.284966 1.0 1.0 1.0 1.0 -0.985934 -0.952509 -0.0675906 1.0 1.0 0.0113362 -0.337908 1.0 0.275051 1.0 1.0 -0.999286 -0.226852 0.978793 1.0 -0.824326 1.0 1.0 1.0 1.0 0.332566 1.0 -0.229365 -0.0989562 -0.061414 1.0 1.0 1.0 1.0 0.99963 -0.224085
linkedlist -0.0454983 -0.871169 1.0 -0.999237 0.371916 -0.835837 1.0 1.0 -0.145864 -0.0521073 -0.242429 -0.152952 1.0 0.0114629 0.82345 1.0 -0.942053 0.999542 0.704097 0.177434 1.0 -0.313952 -0.496328 1.0 -0.362701 1.0 -0.991017 1.0 1.0 -0.161204 -0.00328795 1.0 -0.517045 1.0 -0.992252 1.0 -0.997975 1.0 -0.850351 1.0 1.0 1.0 1.0 1.0 1.0 1.0 1.0 1.0 1.0 1.0 -0.9295 1.0 1.0 1.0 0.999997 0.998483 1.0 -0.182409 -0.17067 0.952357 -0.187035 1.0 0.998419 -0.299364 -0.284966 1.0 1.0 1.0 1.0 -0.982392 -0.952509 -0.0675906 1.0 1.0 0.0113362 -0.919441 1.0 0.275051 1.0 1.0 -0.999286 -0.226852 0.978793 1.0 -0.824326 1.0 1.0 1.0 1.0 0.332566 1.0 -0.229365 -0.0989562 -0.061414 1.0 1.0 1.0 1.0 0.99963 -0.224085
stack -0.0454983 -0.871169 1.0 -0.999237 0.371916 -0.835837 1.0 1.0 -0.145864 -0.0521073 -0.242429 -0.152952 1.0 0.0114629 0.82345 1.0 -0.942053 0.999542 0.704097 0.177434 1.0 -0.313952 -0.496328 1.0 -0.362701 1.0 -0.991017 1.0 1.0 -0.161204 -0.00328795 1.0 -0.517045 1.0 -0.992252 1.0 -0.997975 1.0 -0.850351 1.0 1.0 1.0 1.0 1.0 1.0 1.0 1.0 1.0 1.0 1.0 -0.9295 1.0 1.0 1.0 0.578948 0.998483 1.0 -0.182409 -0.17067 0.952357 -0.187035 1.0 0.998419 -0.299364 -0.284966 1.0 1.0 1.0 1.0 -0.792994 -0.952509 -0.0675906 1.0 1.0 0.0113362 0.997552 1.0 0.275051 1.0 1.0 -0.999286 -0.226852 0.978793 1.0 -0.824326 1.0 1.0 1.0 1.0 0.332566 1.0 -0.229365 -0.0989562 -0.061414 1.0 1.0 1.0 1.0 0.99963 -0.224085
knapsack -0.0454983 0.490262 1.0 -0.999237 0.371916 -0.16757 1.0 1.0 -0.145864 -0.0521073 -0.242429 -0.152952 1.0 0.0114629 0.82345 1.0 -0.342165 0.999542 0.704097 0.177434 1.0 -0.313952 -0.496328 1.0 -0.362701 1.0 0.995607 1.0 1.0 -0.161204 -0.00328795 1.0 -0.517045 1.0 0.996926 1.0 -0.997975 1.0 0.812244 1.0 1.0 1.0 1.0 1.0 1.0 1.0 1.0 1.0 1.0 1.0 -0.134648 1.0 1.0 1.0 0.999997 0.998483 1.0 -0.182409 -0.17067 0.952357 -0.187035 1.0 0.998419 -0.299364 -0.284966 1.0 1.0 1.0 1.0 0.310328 0.980266 -0.0675906 1.0 1.0 0.0113362 -0.843396 1.0 0.275051 1.0 1.0 -0.999286 -0.226852 0.978793 1.0 -0.824326 1.0 1.0 1.0 1.0 0.332566 1.0 -0.229365 -0.0989562 -0.061414 1.0 1.0 1.0 1.0 0.99963 -0.224085
bfs -0.0454983 -0.871169 1.0 -0.999237 0.371916 -0.835837 1.0 1.0 -0.145864 -0.0521073 -0.242429 -0.152952 1.0 0.0114629 0.82345 1.0 -0.942053 0.999542 0.704097 0.177434 1.0 -0.313952 -0.496328 1.0 -0.362701 1.0 -0.991017 1.0 1.0 -0.161204 -0.00328795 1.0 -0.517045 1.0 -0.992252 1.0 -0.997975 1.0 -0.850351 1.0 1.0 1.0 1.0 1.0 1.0 1.0 1.0 1.0 1.0 1.0 -0.9295 1.0 1.0 1.0 0.196082 0.998483 1.0 -0.182409 -0.17067 0.952357 -0.187035 1.0 0.998419 -0.299364 -0.284966 1.0 1.0 1.0 1.0 -0.991288 -0.952509 -0.0675906 1.0 1.0 0.0113362 -0.710165 1.0 0.275051 1.0 1.0 -0.999286 -0.226852 0.978793 1.0 -0.824326 1.0 1.0 1.0 1.0 0.332566 1.0 -0.229365 -0.0989562 -0.061414 1.0 1.0 1.0 1.0 0.99963 -0.224085
heap -0.0454983 0.490262 1.0 -0.999237 0.371916 -0.16757 1.0 1.0 -0.145864 -0.0521073 -0.242429 -0.152952 1.0 0.0114629 0.82345 1.0 -0.342165 0.999542 0.704097 0.177434 1.0 -0.313952 -0.496328 1.0 -0.362701 1.0 0.995607 1.0 1.0 -0.161204 -0.00328795 1.0 -0.517045 1.0 0.996926 1.0 -0.997975 1.0 0.812244 1.0 1.0 1.0 1.0 1.0 1.0 1.0 1.0 1.0 1.0 1.0 -0.134648 1.0 1.0 1.0 0.999998 0.998483 1.0 -0.182409 -0.17067 0.952357 -0.187035 1.0 0.998419 -0.299364 -0.284966 1.0 1.0 1.0 1.0 -0.948746 0.980266 -0.0675906 1.0 1.0 0.0113362 0.997552 1.0 0.275051 1.0 1.0 -0.999286 -0.226852 0.978793 1.0 -0.824326 1.0 1.0 1.0 1.0 0.332566 1.0 -0.229365 -0.0989562 -0.061414 1.0 1.0 1.0 1.0 0.99963 -0.224085
mergesort -0.0454983 -0.871169 1.0 -0.999237 0.371916 -0.835837 1.0 1.0 -0.145864 -0.0521073 -0.242429 -0.152952 1.0 0.0114629 0.82345 1.0 -0.942053 0.999542 0.704097 0.177434 1.0 -0.313952 -0.496328 1.0 -0.362701 1.0 -0.991017 1.0 1.0 -0.161204 -0.00328795 1.0 -0.517045 1.0 -0.992252 1.0 -0.997975 1.0 -0.850351 1.0 1.0 1.0 1.0 1.0 1.0 1.0 1.0 1.0 1.0 1.0 -0.9295 1.0 1.0 1.0 0.999881 0.998483 1.0 -0.182409 -0.17067 0.952357 -0.187035 1.0 0.998419 -0.299364 -0.284966 1.0 1.0 1.0 1.0 -0.941969 -0.952509 -0.0675906 1.0 1.0 0.0113362 -0.984883 1.0 0.275051 1.0 1.0 -0.999286 -0.226852 0.978793 1.0 -0.824326 1.0 1.0 1.0 1.0 0.332566 1.0 -0.229365 -0.0989562 -0.061414 1.0 1.0 1.0 1.0 0.99963 -0.224085
dfs -0.0454983 0.490262 1.0 -0.999237 0.371916 -0.16757 1.0 1.0 -0.145864 -0.0521073 -0.242429 -0.152952 1.0 0.0114629 1.0 1.0 -0.342165 -0.999069 0.704097 0.177434 1.0 -0.313952 -0.496328 1.0 -0.362701 1.0 0.995607 1.0 1.0 -0.161204 -0.00328795 1.0 -0.517045 1.0 0.996926 1.0 -0.997975 1.0 0.812244 1.0 1.0 1.0 1.0 1.0 1.0 1.0 1.0 1.0 1.0 1.0 -0.134648 1.0 1.0 1.0 0.997975 -0.995094 1.0 -0.182409 -0.17067 -0.770123 -0.187035 1.0 -0.995874 -0.299364 -0.284966 1.0 1.0 1.0 1.0 -0.84165 0.980266 -0.0675906 1.0 1.0 0.0113362 -0.989531 1.0 0.275051 1.0 1.0 -0.999286 -0.226852 -0.951646 1.0 -0.824326 1.0 1.0 1.0 1.0 0.332566 1.0 -0.229365 -0.0989562 -0.061414 1.0 1.0 1.0 1.0 -0.998723 -0.224085
stack -0.0454983 -0.871169 1.0 -0.999237 0.371916 -0.835837 1.0 1.0 -0.145864 -0.0521073 -0.242429 -0.152952 1.0 0.0114629 0.82345 1.0 -0.942053 0.999542 0.704097 0.177434 1.0 -0.313952 -0.496328 1.0 -0.362701 1.0 -0.991017 1.0 1.0 -0.161204 -0.00328795 1.0 -0.517045 1.0 -0.992252 1.0 -0.997975 1.0 -0.850351 1.0 1.0 1.0 1.0 1.0 1.0 1.0 1.0 1.0 1.0 1.0 -0.9295 1.0 1.0 1.0 1.0 0.998483 1.0 -0.182409 -0.17067 0.952357 -0.187035 1.0 0.998419 -0.299364 -0.284966 1.0 1.0 1.0 1.0 0.999645 -0.952509 -0.0675906 1.0 1.0 0.0113362 0.997552 1.0 0.275051 1.0 1.0 -0.999286 -0.226852 0.978793 1.0 -0.824326 1.0 1.0 1.0 1.0 0.332566 1.0 -0.229365 -0.0989562 -0.061414 1.0 1.0 1.0 1.0 0.99963 -0.224085
stack -0.0454983 0.490262 1.0 -0.999237 0.371916 -0.16757 1.0 1.0 -0.145864 -0.0521073 -0.242429 -0.152952 1.0 0.0114629 0.82345 1.0 -0.342165 0.999542 0.704097 0.177434 1.0 -0.313952 -0.496328 1.0 -0.362701 1.0 0.995607 1.0 1.0 -0.161204 -0.00328795 1.0 -0.517045 1.0 0.996926 1.0 -0.997975 1.0 0.812244 1.0 1.0 1.0 1.0 1.0 1.0 1.0 1.0 1.0 1.0 1.0 -0.134648 1.0 1.0 1.0 0.680936 0.998483 1.0 -0.182409 -0.17067 0.952357 -0.187035 1.0 0.998419 -0.299364 -0.284966 1.0 1.0 1.0 1.0 -0.871049 0.980266 -0.0675906 1.0 1.0 0.0113362 0.997552 1.0 0.275051 1.0 1.0 -0.999286 -0.226852 0.978793 1.0 -0.824326 1.0 1.0 1.0 1.0 0.332566 1.0 -0.229365 -0.0989562 -0.061414 1.0 1.0 1.0 1.0 0.99963 -0.224085
bfs -0.0454983 -0.871169 1.0 -0.999237 0.371916 -0.835837 1.0 1.0 -0.145864 -0.0521073 -0.242429 -0.152952 1.0 0.0114629 0.861691 1.0 -0.942053 0.999542 0.704097 0.177434 1.0 -0.313952 -0.496328 1.0 -0.362701 1.0 -0.991017 1.0 1.0 -0.161204 -0.00328795 1.0 -0.517045 1.0 -0.992252 1.0 -0.997975 1.0 -0.850351 1.0 1.0 1.0 1.0 1.0 1.0 1.0 1.0 1.0 1.0 1.0 -0.9295 1.0 1.0 1.0 1.0 0.998483 1.0 -0.182409 -0.17067 0.952357 -0.187035 1.0 0.998419 -0.299364 -0.284966 1.0 1.0 1.0 1.0 0.999645 -0.952509 -0.0675906 1.0 1.0 0.0113362 0.0196888 1.0 0.275051 1.0 1.0 -0.999286 -0.226852 0.978793 1.0 -0.824326 1.0 1.0 1.0 1.0 0.332566 1.0 -0.229365 -0.0989562 -0.061414 1.0 1.0 1.0 1.0 0.99963 -0.224085
stack -0.0454983 -0.871169 1.0 -0.999237 0.371916 -0.835837 1.0 1.0 -0.145864 -0.0521073 -0.242429 -0.152952 1.0 0.0114629 0.82345 1.0 -0.942053 0.999542 0.704097 0.177434 1.0 -0.313952 -0.496328 1.0 -0.362701 1.0 -0.991017 1.0 1.0 -0.161204 -0.00328795 1.0 -0.517045 1.0 -0.992252 1.0 -0.997975 1.0 -0.850351 1.0 1.0 1.0 1.0 1.0 1.0 1.0 1.0 1.0 1.0 1.0 -0.9295 1.0 1.0 1.0 0.999997 0.998483 1.0 -0.182409 -0.17067 0.952357 -0.187035 1.0 0.998419 -0.299364 -0.284966 1.0 1.0 1.0 1.0 0.310328 -0.952509 -0.0675906 1.0 1.0 0.0113362 0.960215 1.0 0.275051 1.0 1.0 -0.999286 -0.226852 0.978793 1.0 -0.824326 1.0 1.0 1.0 1.0 0.332566 1.0 -0.229365 -0.0989562 -0.061414 1.0 1.0 1.0 1.0 0.99963 -0.224085
quicksort -0.0454983 -0.871169 1.0 -0.999237 0.371916 -0.835837 1.0 1.0 -0.145864 -0.0521073 -0.242429 -0.152952 1.0 0.0114629 0.82345 1.0 -0.942053 0.999542 0.704097 0.177434 1.0 -0.313952 -0.496328 1.0 -0.362701 1.0 -0.991017 1.0 1.0 -0.161204 -0.00328795 1.0 -0.517045 1.0 -0.992252 1.0 -0.997975 1.0 -0.850351 1.0 1.0 1.0 1.0 1.0 1.0 1.0 1.0 1.0 1.0 1.0 -0.9295 1.0 1.0 1.0 0.999867 0.998483 1.0 -0.182409 -0.17067 0.952357 -0.187035 1.0 0.998419 -0.299364 -0.284966 1.0 1.0 1.0 1.0 -0.93259 -0.952509 -0.0675906 1.0 1.0 0.0113362 -0.919441 1.0 0.275051 1.0 1.0 -0.999286 -0.226852 0.978793 1.0 -0.824326 1.0 1.0 1.0 1.0 0.332566 1.0 -0.229365 -0.0989562 -0.061414 1.0 1.0 1.0 1.0 0.99963 -0.224085
queue -0.0454983 0.490262 1.0 -0.999237 0.371916 -0.16757 1.0 1.0 -0.145864 -0.0521073 -0.242429 -0.152952 1.0 0.0114629 0.82345 1.0 -0.342165 0.999542 0.704097 0.177434 1.0 -0.313952 -0.496328 1.0 -0.362701 1.0 0.995607 1.0 1.0 -0.161204 -0.00328795 1.0 -0.517045 1.0 0.996926 1.0 -0.997975 1.0 0.812244 1.0 1.0 1.0 1.0 1.0 1.0 1.0 1.0 1.0 1.0 1.0 -0.134648 1.0 1.0 1.0 0.827458 0.998483 1.0 -0.182409 -0.17067 0.952357 -0.187035 1.0 0.998419 -0.299364 -0.284966 1.0 1.0 1.0 1.0 -0.941969 0.980266 -0.0675906 1.0 1.0 0.0113362 0.997552 1.0 0.275051 1.0 1.0 -0.999286 -0.226852 0.978793 1.0 -0.824326 1.0 1.0 1.0 1.0 0.332566 1.0 -0.229365 -0.0989562 -0.061414 1.0 1.0 1.0 1.0 0.99963 -0.224085
stack -0.0454983 0.490262 1.0 -0.999237 0.371916 -0.16757 1.0 1.0 -0.145864 -0.0521073 -0.242429 -0.152952 1.0 0.0114629 0.82345 1.0 -0.342165 0.999542 0.704097 0.177434 1.0 -0.313952 -0.496328 1.0 -0.362701 1.0 0.995607 1.0 1.0 -0.161204 -0.00328795 1.0 -0.517045 1.0 0.996926 1.0 -0.997975 1.0 0.812244 1.0 1.0 1.0 1.0 1.0 1.0 1.0 1.0 1.0 1.0 1.0 -0.134648 1.0 1.0 1.0 0.999998 0.998483 1.0 -0.182409 -0.17067 0.952357 -0.187035 1.0 0.998419 -0.299364 -0.284966 1.0 1.0 1.0 1.0 -0.941969 0.980266 -0.0675906 1.0 1.0 0.0113362 0.997552 1.0 0.275051 1.0 1.0 -0.999286 -0.226852 0.978793 1.0 -0.824326 1.0 1.0 1.0 1.0 0.332566 1.0 -0.229365 -0.0989562 -0.061414 1.0 1.0 1.0 1.0 0.99963 -0.224085
mergesort -0.0454983 -0.871169 1.0 -0.999237 0.371916 -0.835837 1.0 1.0 -0.145864 -0.0521073 -0.242429 -0.152952 1.0 0.0114629 -0.998085 1.0 -0.942053 0.999542 0.704097 0.177434 1.0 -0.313952 -0.496328 1.0 -0.362701 1.0 -0.991017 1.0 1.0 -0.161204 -0.00328795 1.0 -0.517045 1.0 -0.992252 1.0 -0.997975 1.0 -0.850351 1.0 1.0 1.0 1.0 1.0 1.0 1.0 1.0 1.0 1.0 1.0 -0.9295 1.0 1.0 1.0 0.999997 0.998483 1.0 -0.182409 -0.17067 0.952357 -0.187035 1.0 0.998419 -0.299364 -0.284966 1.0 1.0 1.0 1.0 0.310328 -0.952509 -0.0675906 1.0 1.0 0.0113362 -0.646356 1.0 0.275051 1.0 1.0 -0.999286 -0.226852 0.978793 1.0 -0.824326 1.0 1.0 1.0 1.0 0.332566 1.0 -0.229365 -0.0989562 -0.061414 1.0 1.0 1.0 1.0 0.99963 -0.224085
heap -0.0454983 -0.871169 1.0 -0.999237 0.371916 -0.835837 1.0 1.0 -0.145864 -0.0521073 -0.242429 -0.152952 1.0 0.0114629 1.0 1.0 -0.942053 0.999542 0.704097 0.177434 1.0 -0.313952 -0.496328 1.0 -0.362701 1.0 -0.991017 1.0 1.0 -0.161204 -0.00328795 1.0 -0.517045 1.0 -0.992252 1.0 -0.997975 1.0 -0.850351 1.0 1.0 1.0 1.0 1.0 1.0 1.0 1.0 1.0 1.0 1.0 -0.9295 1.0 1.0 1.0 0.993774 0.998483 1.0 -0.182409 -0.17067 0.952357 -0.187035 1.0 0.998419 -0.299364 -0.284966 1.0 1.0 1.0 1.0 -0.941969 -0.952509 -0.0675906 1.0 1.0 0.0113362 0.275304 1.0 0.275051 1.0 1.0 -0.999286 -0.226852 0.978793 1.0 -0.824326 1.0 1.0 1.0 1.0 0.332566 1.0 -0.229365 -0.0989562 -0.061414 1.0 1.0 1.0 1.0 0.99963 -0.224085
bfs -0.0454983 -0.871169 1.0 -0.999237 0.371916 -0.835837 1.0 1.0 -0.145864 -0.0521073 -0.242429 -0.152952 1.0 0.0114629 0.82345 1.0 -0.942053 0.999542 0.704097 0.177434 1.0 -0.313952 -0.496328 1.0 -0.362701 1.0 -0.991017 1.0 1.0 -0.161204 -0.00328794 1.0 -0.517045 1.0 -0.992252 1.0 -0.997975 1.0 -0.850351 1.0 1.0 1.0 1.0 1.0 1.0 1.0 1.0 1.0 1.0 1.0 -0.9295 1.0 1.0 1.0 0.196082 0.998483 1.0 -0.182409 -0.17067 0.952357 -0.187035 1.0 0.998419 -0.299364 -0.284966 1.0 1.0 1.0 1.0 -0.991288 -0.952509 -0.0675905 1.0 1.0 0.0113362 -0.710165 1.0 0.275051 1.0 1.0 -0.999286 -0.226852 0.978793 1.0 -0.824326 1.0 1.0 1.0 1.0 0.332566 1.0 -0.229365 -0.0989562 -0.061414 1.0 1.0 1.0 1.0 0.99963 -0.224085
mergesort -0.0454983 0.490262 1.0 -0.999237 0.371916 -0.16757 1.0 1.0 -0.145864 -0.0521073 -0.242429 -0.152952 1.0 0.0114629 -0.99471 1.0 -0.342165 0.999542 0.704097 0.177434 1.0 -0.313952 -0.496328 1.0 -0.362701 1.0 0.995607 1.0 1.0 -0.161204 -0.00328794 1.0 -0.517045 1.0 0.996926 1.0 -0.997975 1.0 0.812244 1.0 1.0 1.0 1.0 1.0 1.0 1.0 1.0 1.0 1.0 1.0 -0.134648 1.0 1.0 1.0 0.999998 0.998483 1.0 -0.182409 -0.17067 0.952357 -0.187035 1.0 0.998419 -0.299364 -0.284966 1.0 1.0 1.0 1.0 -0.948746 0.980266 -0.0675905 1.0 1.0 0.0113362 -0.699116 1.0 0.275051 1.0 1.0 -0.999286 -0.226852 0.978793 1.0 -0.824326 1.0 1.0 1.0 1.0 0.332566 1.0 -0.229365 -0.0989562 -0.061414 1.0 1.0 1.0 1.0 0.99963 -0.224085
linkedlist -0.0454983 0.490262 1.0 -0.999237 0.371916 -0.16757 1.0 1.0 -0.145864 -0.0521073 -0.242429 -0.152952 1.0 0.0114629 0.82345 1.0 -0.342165 0.999542 0.704097 0.177434 1.0 -0.313952 -0.496328 1.0 -0.362701 1.0 0.995607 1.0 1.0 -0.161204 -0.00328794 1.0 -0.517045 1.0 0.996926 1.0 -0.997975 1.0 0.812244 1.0 1.0 1.0 1.0 1.0 1.0 1.0 1.0 1.0 1.0 1.0 -0.134648 1.0 1.0 1.0 0.997614 0.998483 1.0 -0.182409 -0.17067 0.952357 -0.187035 1.0 0.998419 -0.299364 -0.284966 1.0 1.0 1.0 1.0 -0.941969 0.980266 -0.0675905 1.0 1.0 0.0113362 0.997552 1.0 0.275051 1.0 1.0 -0.999286 -0.226852 0.978793 1.0 -0.824326 1.0 1.0 1.0 1.0 0.332566 1.0 -0.229365 -0.0989562 -0.061414 1.0 1.0 1.0 1.0 0.99963 -0.224085
bubblesort -0.0454983 0.490262 1.0 -0.999237 0.371916 -0.16757 1.0 1.0 -0.145864 -0.0521073 -0.242429 -0.152952 1.0 0.0114629 0.82345 1.0 -0.342165 0.999542 0.704097 0.177434 1.0 -0.313952 -0.496328 1.0 -0.362701 1.0 0.995607 1.0 1.0 -0.161204 -0.00328794 1.0 -0.517045 1.0 0.996926 1.0 -0.997975 1.0 0.812244 1.0 1.0 1.0 1.0 1.0 1.0 1.0 1.0 1.0 1.0 1.0 -0.134648 1.0 1.0 1.0 0.999187 0.998483 1.0 -0.182409 -0.17067 0.952357 -0.187035 1.0 0.998419 -0.299364 -0.284966 1.0 1.0 1.0 1.0 -0.941969 0.980266 -0.0675905 1.0 1.0 0.0113362 0.0196888 1.0 0.275051 1.0 1.0 -0.999286 -0.226852 0.978793 1.0 -0.824326 1.0 1.0 1.0 1.0 0.332566 1.0 -0.229365 -0.0989562 -0.061414 1.0 1.0 1.0 1.0 0.99963 -0.224085
linkedlist -0.0454983 0.490262 1.0 -0.999237 0.371916 -0.16757 1.0 1.0 -0.145864 -0.0521073 -0.242429 -0.152952 1.0 0.0114629 0.999998 1.0 -0.342165 0.999542 0.704097 0.177434 1.0 -0.313952 -0.496328 1.0 -0.362701 1.0 0.995607 1.0 1.0 -0.161204 -0.00328794 1.0 -0.517045 1.0 0.996926 1.0 -0.997975 1.0 0.812244 1.0 1.0 1.0 1.0 1.0 1.0 1.0 1.0 1.0 1.0 1.0 -0.134648 1.0 1.0 1.0 0.578948 0.998483 1.0 -0.182409 -0.17067 0.952357 -0.187035 1.0 0.998419 -0.299364 -0.284966 1.0 1.0 1.0 1.0 -0.941969 0.980266 -0.0675905 1.0 1.0 0.0113362 -0.9929 1.0 0.275051 1.0 1.0 -0.999286 -0.226852 0.978793 1.0 -0.824326 1.0 1.0 1.0 1.0 0.332566 1.0 -0.229365 -0.0989562 -0.061414 1.0 1.0 1.0 1.0 0.99963 -0.224085
knapsack -0.0454983 0.490262 1.0 -0.999237 0.371916 -0.16757 1.0 1.0 -0.145864 -0.0521073 -0.242429 -0.152952 1.0 0.0114629 0.909926 1.0 -0.342165 0.999542 0.704097 0.177434 1.0 -0.313952 -0.496328 1.0 -0.362701 1.0 0.995607 1.0 1.0 -0.161204 -0.00328794 1.0 -0.517045 1.0 0.996926 1.0 -0.997975 1.0 0.812244 1.0 1.0 1.0 1.0 1.0 1.0 1.0 1.0 1.0 1.0 1.0 -0.134648 1.0 1.0 1.0 0.993773 0.998483 1.0 -0.182409 -0.17067 0.952357 -0.187035 1.0 0.998419 -0.299364 -0.284966 1.0 1.0 1.0 1.0 -0.967493 0.980266 -0.0675905 1.0 1.0 0.0113362 -0.710165 1.0 0.275051 1.0 1.0 -0.999286 -0.226852 0.978793 1.0 -0.824326 1.0 1.0 1.0 1.0 0.332566 1.0 -0.229365 -0.0989562 -0.061414 1.0 1.0 1.0 1.0 0.99963 -0.224085
bfs -0.0454983 -0.871169 1.0 -0.999237 0.371916 -0.835837 1.0 1.0 -0.145864 -0.0521073 -0.242429 -0.152952 1.0 0.0114629 0.82345 1.0 -0.942053 0.999542 0.704097 0.177434 1.0 -0.313952 -0.496328 1.0 -0.362701 1.0 -0.991017 1.0 1.0 -0.161204 -0.00328794 1.0 -0.517045 1.0 -0.992252 1.0 -0.997975 1.0 -0.850351 1.0 1.0 1.0 1.0 1.0 1.0 1.0 1.0 1.0 1.0 1.0 -0.9295 1.0 1.0 1.0 0.993773 0.998483 1.0 -0.182409 -0.17067 0.952357 -0.187035 1.0 0.998419 -0.299364 -0.284966 1.0 1.0 1.0 1.0 -0.985934 -0.952509 -0.0675905 1.0 1.0 0.0113362 0.997552 1.0 0.275051 1.0 1.0 -0.999286 -0.226852 0.978793 1.0 -0.824326 1.0 1.0 1.0 1.0 0.332566 1.0 -0.229365 -0.0989562 -0.061414 1.0 1.0 1.0 1.0 0.99963 -0.224085
knapsack -0.0454983 0.490262 1.0 -0.999237 0.371916 -0.16757 1.0 1.0 -0.145864 -0.0521073 -0.242429 -0.152952 1.0 0.0114629 1.0 1.0 -0.342165 0.999542 0.704097 0.177434 1.0 -0.313952 -0.496328 1.0 -0.362701 1.0 0.995607 1.0 1.0 -0.161204 -0.00328794 1.0 -0.517045 1.0 0.996926 1.0 -0.997975 1.0 0.812244 1.0 1.0 1.0 1.0 1.0 1.0 1.0 1.0 1.0 1.0 1.0 -0.134648 1.0 1.0 1.0 1.0 0.998483 1.0 -0.182409 -0.17067 0.952357 -0.187035 1.0 0.998419 -0.299364 -0.284966 1.0 1.0 1.0 1.0 0.991026 0.980266 -0.0675905 1.0 1.0 0.0113362 -0.919441 1.0 0.275051 1.0 1.0 -0.999286 -0.226852 0.978793 1.0 -0.824326 1.0 1.0 1.0 1.0 0.332566 1.0 -0.229365 -0.0989562 -0.061414 1.0 1.0 1.0 1.0 0.99963 -0.224085
knapsack -0.0454983 0.490262 1.0 -0.999237 0.371916 -0.16757 1.0 1.0 -0.145864 -0.0521073 -0.242429 -0.152952 1.0 0.0114629 -0.998085 1.0 -0.342165 0.999542 0.704097 0.177434 1.0 -0.313952 -0.496328 1.0 -0.362701 1.0 0.995607 1.0 1.0 -0.161204 -0.00328794 1.0 -0.517045 1.0 0.996926 1.0 -0.997975 1.0 0.812244 1.0 1.0 1.0 1.0 1.0 1.0 1.0 1.0 1.0 1.0 1.0 -0.134648 1.0 1.0 1.0 1.0 0.998483 1.0 -0.182409 -0.17067 0.952357 -0.187035 1.0 0.998419 -0.299364 -0.284966 1.0 1.0 1.0 1.0 0.998634 0.980266 -0.0675905 1.0 1.0 0.0113362 -0.699116 1.0 0.275051 1.0 1.0 -0.999286 -0.226852 0.978793 1.0 -0.824326 1.0 1.0 1.0 1.0 0.332566 1.0 -0.229365 -0.0989562 -0.061414 1.0 1.0 1.0 1.0 0.99963 -0.224085
bubblesort -0.0454983 0.490262 1.0 -0.999237 0.371916 -0.16757 1.0 1.0 -0.145864 -0.0521073 -0.242429 -0.152952 1.0 0.0114629 0.996397 1.0 -0.342165 0.999542 0.704097 0.177434 1.0 -0.313952 -0.496328 1.0 -0.362701 1.0 0.995607 1.0 1.0 -0.161204 -0.00328794 1.0 -0.517045 1.0 0.996926 1.0 -0.997975 1.0 0.812244 1.0 1.0 1.0 1.0 1.0 1.0 1.0 1.0 1.0 1.0 1.0 -0.134648 1.0 1.0 1.0 1.0 0.998483 1.0 -0.182409 -0.17067 0.952357 -0.187035 1.0 0.998419 -0.299364 -0.284966 1.0 1.0 1.0 1.0 0.980859 0.980266 -0.0675905 1.0 1.0 0.0113362 -0.466911 1.0 0.275051 1.0 1.0 -0.999286 -0.226852 0.978793 1.0 -0.824326 1.0 1.0 1.0 1.0 0.332566 1.0 -0.229365 -0.0989562 -0.061414 1.0 1.0 1.0 1.0 0.99963 -0.224085
mergesort -0.0454983 -0.871169 1.0 -0.999237 0.371916 -0.823367 1.0 1.0 -0.145864 -0.0521073 -0.242429 -0.152952 1.0 0.0114629 0.82345 1.0 -0.942053 0.999542 0.704097 0.177434 1.0 -0.313952 -0.496328 1.0 -0.362701 1.0 -0.991017 1.0 1.0 -0.161204 -0.00328794 1.0 -0.517045 1.0 -0.992252 1.0 -0.997975 1.0 -0.800129 1.0 1.0 1.0 1.0 1.0 1.0 1.0 1.0 1.0 1.0 1.0 -0.9295 1.0 1.0 1.0 0.993773 0.998483 1.0 -0.182409 -0.17067 0.952357 -0.187035 1.0 0.998419 -0.299364 -0.284966 1.0 1.0 1.0 1.0 -0.941969 -0.952509 -0.0675905 1.0 1.0 0.0113362 -0.238526 1.0 0.275051 1.0 1.0 -0.999286 -0.226852 0.978793 1.0 -0.824326 1.0 1.0 1.0 1.0 0.332566 1.0 -0.229365 -0.0989562 -0.061414 1.0 1.0 1.0 1.0 0.99963 -0.224085
dfs -0.0454983 -0.871169 1.0 -0.999237 0.371916 -0.835837 1.0 1.0 -0.145864 -0.0521073 -0.242429 -0.152952 1.0 0.0114629 0.970331 1.0 -0.942053 0.999542 0.704097 0.177434 1.0 -0.313952 -0.496328 1.0 -0.362701 1.0 -0.991017 1.0 1.0 -0.161204 -0.00328794 1.0 -0.517045 1.0 -0.992252 1.0 -0.997975 1.0 -0.850351 1.0 1.0 1.0 1.0 1.0 1.0 1.0 1.0 1.0 1.0 1.0 -0.9295 1.0 1.0 1.0 0.578948 0.998483 1.0 -0.182409 -0.17067 0.952357 -0.187035 1.0 0.998419 -0.299364 -0.284966 1.0 1.0 1.0 1.0 -0.941969 -0.952509 -0.0675905 1.0 1.0 0.0113362 0.997552 1.0 0.275051 1.0 1.0 -0.999286 -0.226852 0.978793 1.0 -0.824326 1.0 1.0 1.0 1.0 0.332566 1.0 -0.229365 -0.0989562 -0.061414 1.0 1.0 1.0 1.0 0.99963 -0.224085
queue -0.0454983 0.490262 1.0 -0.999237 0.371916 -0.16757 1.0 1.0 -0.145864 -0.0521073 -0.242429 -0.152952 1.0 0.0114629 0.82345 1.0 -0.342165 0.999542 0.704097 0.177434 1.0 -0.313952 -0.496328 1.0 -0.362701 1.0 0.995607 1.0 1.0 -0.161204 -0.00328794 1.0 -0.517045 1.0 0.996926 1.0 -0.997975 1.0 0.812244 1.0 1.0 1.0 1.0 1.0 1.0 1.0 1.0 1.0 1.0 1.0 -0.134648 1.0 1.0 1.0 -0.842675 0.998483 1.0 -0.182409 -0.17067 -0.450075 -0.187035 1.0 0.998419 -0.299364 -0.284966 1.0 1.0 1.0 1.0 -0.969137 0.980266 -0.0675905 1.0 1.0 0.0113362 -0.919441 1.0 0.275051 1.0 1.0 -0.999286 -0.226852 -0.897725 1.0 -0.824326 1.0 1.0 1.0 1.0 0.332566 1.0 -0.229365 -0.0989562 -0.061414 1.0 1.0 1.0 1.0 0.99963 -0.224085
bfs -0.0454983 0.490262 1.0 -0.999237 0.371916 0.210074 1.0 1.0 -0.145864 -0.0521073 -0.242429 -0.152952 1.0 0.0114629 0.82345 1.0 -0.342165 0.999542 0.736076 0.177434 1.0 -0.313952 -0.496328 1.0 -0.362701 1.0 0.995607 1.0 1.0 -0.161204 -0.00328794 1.0 -0.517045 1.0 0.996926 1.0 -0.997975 1.0 0.812244 1.0 1.0 1.0 1.0 1.0 1.0 1.0 1.0 1.0 1.0 1.0 -0.134648 1.0 1.0 1.0 1.0 0.998483 1.0 -0.182409 -0.17067 0.952357 -0.187035 1.0 0.998419 -0.299364 -0.284966 1.0 1.0 1.0 1.0 0.999999 0.980266 -0.0675905 1.0 1.0 0.0113362 -0.919441 1.0 0.275051 1.0 1.0 -0.999286 -0.226852 0.978793 1.0 -0.824326 1.0 1.0 1.0 1.0 0.332566 1.0 -0.229365 -0.0989562 -0.061414 1.0 1.0 1.0 1.0 0.99963 -0.224085
dfs -0.0454983 0.490262 1.0 -0.999237 0.371916 -0.16757 1.0 1.0 -0.145864 -0.0521073 -0.242429 -0.152952 1.0 0.0114629 0.82345 1.0 -0.342165 0.999542 0.704097 0.177434 1.0 -0.313952 -0.496328 1.0 -0.362701 1.0 0.995607 1.0 1.0 -0.161204 -0.00328794 1.0 -0.517045 1.0 0.996926 1.0 -0.997975 1.0 0.812244 1.0 1.0 1.0 1.0 1.0 1.0 1.0 1.0 1.0 1.0 1.0 -0.134648 1.0 1.0 1.0 1.0 0.998483 1.0 -0.182409 -0.17067 0.952357 -0.187035 1.0 0.998419 -0.299364 -0.284966 1.0 1.0 1.0 1.0 0.980859 0.980266 -0.0675905 1.0 1.0 0.0113362 -0.919441 1.0 0.275051 1.0 1.0 -0.999286 -0.226852 0.978793 1.0 -0.824326 1.0 1.0 1.0 1.0 0.332566 1.0 -0.229365 -0.0989562 -0.061414 1.0 1.0 1.0 1.0 0.99963 -0.224085
knapsack -0.0454983 0.490262 1.0 -0.999237 0.371916 -0.16757 1.0 1.0 -0.145864 -0.0521073 -0.242429 -0.152952 1.0 0.0114629 0.82345 1.0 -0.342165 0.999542 0.704097 0.177434 1.0 -0.313952 -0.496328 1.0 -0.362701 1.0 0.995607 1.0 1.0 -0.161204 -0.00328794 1.0 -0.517045 1.0 0.996926 1.0 -0.997975 1.0 0.812244 1.0 1.0 1.0 1.0 1.0 1.0 1.0 1.0 1.0 1.0 1.0 -0.134648 1.0 1.0 1.0 0.993773 0.998483 1.0 -0.182409 -0.17067 0.952357 -0.187035 1.0 0.998419 -0.299364 -0.284966 1.0 1.0 1.0 1.0 -0.941969 0.980266 -0.0675905 1.0 1.0 0.0113362 0.960215 1.0 0.275051 1.0 1.0 -0.999286 -0.226852 0.978793 1.0 -0.824326 1.0 1.0 1.0 1.0 0.332566 1.0 -0.229365 -0.0989562 -0.061414 1.0 1.0 1.0 1.0 0.99963 -0.224085
knapsack -0.0454983 -0.871169 1.0 -0.999237 0.371916 -0.835837 1.0 1.0 -0.145864 -0.0521073 -0.242429 -0.152952 1.0 0.0114629 -0.998085 1.0 -0.942053 0.999542 0.704097 0.177434 1.0 -0.313952 -0.496328 1.0 -0.362701 1.0 -0.991017 1.0 1.0 -0.161204 -0.00328794 1.0 -0.517045 1.0 -0.992252 1.0 -0.997975 1.0 -0.850351 1.0 1.0 1.0 1.0 1.0 1.0 1.0 1.0 1.0 1.0 1.0 -0.9295 1.0 1.0 1.0 0.999867 0.998483 1.0 -0.182409 -0.17067 0.952357 -0.187035 1.0 0.998419 -0.299364 -0.284966 1.0 1.0 1.0 1.0 -0.93259 -0.952509 -0.0675905 1.0 1.0 0.0113362 -0.238526 1.0 0.275051 1.0 1.0 -0.999286 -0.226852 0.978793 1.0 -0.824326 1.0 1.0 1.0 1.0 0.332566 1.0 -0.229365 -0.0989562 -0.061414 1.0 1.0 1.0 1.0 0.99963 -0.224085
mergesort -0.0454983 0.490262 1.0 -0.999237 0.371916 -0.16757 1.0 1.0 -0.145864 -0.0521073 -0.242429 -0.152952 1.0 0.0114629 0.999996 1.0 -0.342165 0.999542 0.704097 0.177434 1.0 -0.313952 -0.496328 1.0 -0.362701 1.0 0.995607 1.0 1.0 -0.161204 -0.00328794 1.0 -0.517045 1.0 0.996926 1.0 -0.997975 1.0 0.812244 1.0 1.0 1.0 1.0 1.0 1.0 1.0 1.0 1.0 1.0 1.0 -0.134648 1.0 1.0 1.0 0.997884 0.998483 1.0 -0.182409 -0.17067 0.952357 -0.187035 1.0 0.998419 -0.299364 -0.284966 1.0 1.0 1.0 1.0 -0.915828 0.980266 -0.0675905 1.0 1.0 0.0113362 0.960215 1.0 0.275051 1.0 1.0 -0.999286 -0.226852 0.978793 1.0 -0.824326 1.0 1.0 1.0 1.0 0.332566 1.0 -0.229365 -0.0989562 -0.061414 1.0 1.0 1.0 1.0 0.99963 -0.224085
quicksort -0.0454983 0.490262 1.0 -0.999237 0.371916 -0.16757 1.0 1.0 -0.145864 -0.0521073 -0.242429 -0.152952 1.0 0.0114629 -0.998085 1.0 -0.342165 0.999542 0.704097 0.177434 1.0 -0.313952 -0.496328 1.0 -0.362701 1.0 0.995607 1.0 1.0 -0.161204 -0.00328794 1.0 -0.517045 1.0 0.996926 1.0 -0.997975 1.0 0.812244 1.0 1.0 1.0 1.0 1.0 1.0 1.0 1.0 1.0 1.0 1.0 -0.134648 1.0 1.0 1.0 1.0 0.998483 1.0 -0.182409 -0.17067 0.952357 -0.187035 1.0 0.998419 -0.299364 -0.284966 1.0 1.0 1.0 1.0 0.942937 0.980266 -0.0675905 1.0 1.0 0.0113362 -0.646356 1.0 0.275051 1.0 1.0 -0.999286 -0.226852 0.978793 1.0 -0.824326 1.0 1.0 1.0 1.0 0.332566 1.0 -0.229365 -0.0989562 -0.061414 1.0 1.0 1.0 1.0 0.99963 -0.224085
quicksort -0.0454983 -0.871169 1.0 -0.999237 0.371916 -0.835837 1.0 1.0 -0.145864 -0.0521073 -0.242429 -0.152952 1.0 0.0114629 1.0 1.0 -0.942053 0.999542 0.704097 0.177434 1.0 -0.313952 -0.496328 1.0 -0.362701 1.0 -0.991017 1.0 1.0 -0.161204 -0.00328794 1.0 -0.517045 1.0 -0.992252 1.0 -0.997975 1.0 -0.850351 1.0 1.0 1.0 1.0 1.0 1.0 1.0 1.0 1.0 1.0 1.0 -0.9295 1.0 1.0 1.0 0.999997 0.998483 1.0 -0.182409 -0.17067 0.952357 -0.187035 1.0 0.998419 -0.299364 -0.284966 1.0 1.0 1.0 1.0 -0.941969 -0.952509 -0.0675905 1.0 1.0 0.0113362 0.960215 1.0 0.275051 1.0 1.0 -0.999286 -0.226852 0.978793 1.0 -0.824326 1.0 1.0 1.0 1.0 0.332566 1.0 -0.229365 -0.0989562 -0.061414 1.0 1.0 1.0 1.0 0.99963 -0.224085
bfs -0.0454983 -0.871169 1.0 -0.999237 0.371916 -0.835837 1.0 1.0 -0.145864 -0.0521073 -0.242429 -0.152952 1.0 0.0114629 0.861691 1.0 -0.942053 0.999542 0.704097 0.177434 1.0 -0.313952 -0.496328 1.0 -0.362701 1.0 -0.991017 1.0 1.0 -0.161204 -0.00328794 1.0 -0.517045 1.0 -0.992252 1.0 -0.997975 1.0 -0.850351 1.0 1.0 1.0 1.0 1.0 1.0 1.0 1.0 1.0 1.0 1.0 -0.9295 1.0 1.0 1.0 1.0 0.998483 1.0 -0.182409 -0.17067 0.952357 -0.187035 1.0 0.998419 -0.299364 -0.284966 1.0 1.0 1.0 1.0 0.999645 -0.952509 -0.0675905 1.0 1.0 0.0113362 0.0196888 1.0 0.275051 1.0 1.0 -0.999286 -0.226852 0.978793 1.0 -0.824326 1.0 1.0 1.0 1.0 0.332566 1.0 -0.229365 -0.0989562 -0.061414 1.0 1.0 1.0 1.0 0.99963 -0.224085
heap -0.0454983 -0.871169 1.0 -0.999237 0.371916 -0.835837 1.0 1.0 -0.145864 -0.0521073 -0.242429 -0.152952 1.0 0.0114629 0.82345 1.0 -0.942053 0.999542 0.704097 0.177434 1.0 -0.313952 -0.496328 1.0 -0.362701 1.0 -0.991017 1.0 1.0 -0.161204 -0.00328794 1.0 -0.517045 1.0 -0.992252 1.0 -0.997975 1.0 -0.850351 1.0 1.0 1.0 1.0 1.0 1.0 1.0 1.0 1.0 1.0 1.0 -0.9295 1.0 1.0 1.0 0.993773 0.998483 1.0 -0.182409 -0.17067 0.952357 -0.187035 1.0 0.998419 -0.299364 -0.284966 1.0 1.0 1.0 1.0 -0.985934 -0.952509 -0.0675905 1.0 1.0 0.0113362 0.997552 1.0 0.275051 1.0 1.0 -0.999286 -0.226852 0.978793 1.0 -0.824326 1.0 1.0 1.0 1.0 0.332566 1.0 -0.229365 -0.0989562 -0.061414 1.0 1.0 1.0 1.0 0.99963 -0.224085
bubblesort -0.0454983 -0.871169 1.0 -0.999237 0.371916 -0.835837 1.0 1.0 -0.145864 -0.0521073 -0.242429 -0.152952 1.0 0.0114629 -0.998085 1.0 -0.942053 0.999542 0.704097 0.177434 1.0 -0.313952 -0.496328 1.0 -0.362701 1.0 -0.991017 1.0 1.0 -0.161204 -0.00328794 1.0 -0.517045 1.0 -0.992252 1.0 -0.997975 1.0 -0.850351 1.0 1.0 1.0 1.0 1.0 1.0 1.0 1.0 1.0 1.0 1.0 -0.9295 1.0 1.0 1.0 1.0 0.998483 1.0 -0.182409 -0.17067 0.952357 -0.187035 1.0 0.998419 -0.299364 -0.284966 1.0 1.0 1.0 1.0 -0.347874 -0.952509 -0.0675905 1.0 1.0 0.0113362 -0.238526 1.0 0.275051 1.0 1.0 -0.999286 -0.226852 0.978793 1.0 -0.824326 1.0 1.0 1.0 1.0 0.332566 1.0 -0.229365 -0.0989562 -0.061414 1.0 1.0 1.0 1.0 0.99963 -0.224085
mergesort -0.0454983 -0.871169 1.0 -0.999237 0.371916 -0.835837 1.0 1.0 -0.145864 -0.0521073 -0.242429 -0.152952 1.0 0.0114629 0.82345 1.0 -0.942053 0.999542 0.704097 0.177434 1.0 -0.313952 -0.496328 1.0 -0.362701 1.0 -0.991017 1.0 1.0 -0.161204 -0.00328794 1.0 -0.517045 1.0 -0.992252 1.0 -0.997975 1.0 -0.850351 1.0 1.0 1.0 1.0 1.0 1.0 1.0 1.0 1.0 1.0 1.0 -0.9295 1.0 1.0 1.0 0.999881 0.998483 1.0 -0.182409 -0.17067 0.952357 -0.187035 1.0 0.998419 -0.299364 -0.284966 1.0 1.0 1.0 1.0 -0.941969 -0.952509 -0.0675905 1.0 1.0 0.0113362 -0.984883 1.0 0.275051 1.0 1.0 -0.999286 -0.226852 0.978793 1.0 -0.824326 1.0 1.0 1.0 1.0 0.332566 1.0 -0.229365 -0.0989562 -0.061414 1.0 1.0 1.0 1.0 0.99963 -0.224085
bubblesort -0.0454983 0.490262 1.0 -0.999237 0.371916 -0.16757 1.0 1.0 -0.145864 -0.0521073 -0.242429 -0.152952 1.0 0.0114629 0.82345 1.0 -0.342165 0.999542 0.704097 0.177434 1.0 -0.313952 -0.496328 1.0 -0.362701 1.0 0.995607 1.0 1.0 -0.161204 -0.00328794 1.0 -0.517045 1.0 0.996926 1.0 -0.997975 1.0 0.812244 1.0 1.0 1.0 1.0 1.0 1.0 1.0 1.0 1.0 1.0 1.0 -0.134648 1.0 1.0 1.0 0.932939 0.998483 1.0 -0.182409 -0.17067 0.952357 -0.187035 1.0 0.998419 -0.299364 -0.284966 1.0 1.0 1.0 1.0 -0.941969 0.980266 -0.0675905 1.0 1.0 0.0113362 0.275304 1.0 0.275051 1.0 1.0 -0.999286 -0.226852 0.978793 1.0 -0.824326 1.0 1.0 1.0 1.0 0.332566 1.0 -0.229365 -0.0989562 -0.061414 1.0 1.0 1.0 1.0 0.99963 -0.224085
knapsack -0.0454983 -0.871169 1.0 -0.999237 0.371916 -0.835837 1.0 1.0 -0.145864 -0.0521073 -0.242429 -0.152952 1.0 0.0114629 -0.990889 1.0 -0.942053 -0.99807 0.704097 0.177434 1.0 -0.313952 -0.496328 1.0 -0.362701 1.0 -0.991017 1.0 1.0 -0.161204 -0.00328794 1.0 -0.517045 1.0 -0.992252 1.0 -0.997975 1.0 -0.862798 1.0 1.0 1.0 1.0 1.0 1.0 1.0 1.0 1.0 1.0 1.0 -0.9295 1.0 1.0 1.0 1.0 -0.995094 1.0 -0.182409 -0.17067 -0.770123 -0.187035 1.0 -0.995874 -0.299364 -0.284966 1.0 1.0 1.0 1.0 1.0 -0.952509 -0.0675905 1.0 1.0 0.0113362 -0.699116 1.0 0.275051 1.0 1.0 -0.999286 -0.226852 -0.951646 1.0 -0.824326 1.0 1.0 1.0 1.0 0.332566 1.0 -0.229365 -0.0989562 -0.061414 1.0 1.0 1.0 1.0 -0.998723 -0.224085
queue -0.0454983 0.490262 1.0 -0.999237 0.371916 -0.16757 1.0 1.0 -0.145864 -0.0521073 -0.242429 -0.152952 1.0 0.0114629 1.0 1.0 -0.342165 0.999542 0.704097 0.177434 1.0 -0.313952 -0.496328 1.0 -0.362701 1.0 0.995607 1.0 1.0 -0.161204 -0.00328794 1.0 -0.517045 1.0 0.996926 1.0 -0.997975 1.0 0.812244 1.0 1.0 1.0 1.0 1.0 1.0 1.0 1.0 1.0 1.0 1.0 -0.134648 1.0 1.0 1.0 0.196082 0.998483 1.0 -0.182409 -0.17067 0.952357 -0.187035 1.0 0.998419 -0.299364 -0.284966 1.0 1.0 1.0 1.0 -0.941969 0.980266 -0.0675905 1.0 1.0 0.0113362 0.275304 1.0 0.275051 1.0 1.0 -0.999286 -0.226852 0.978793 1.0 -0.824326 1.0 1.0 1.0 1.0 0.332566 1.0 -0.229365 -0.0989562 -0.061414 1.0 1.0 1.0 1.0 0.99963 -0.224085
quicksort -0.0454983 -0.871169 1.0 -0.999237 0.371916 -0.835837 1.0 1.0 -0.145864 -0.0521073 -0.242429 -0.152952 1.0 0.0114629 1.0 1.0 -0.942053 -0.99807 0.704097 0.177434 1.0 -0.313952 -0.496328 1.0 -0.362701 1.0 -0.991017 1.0 1.0 -0.161204 -0.00328794 1.0 -0.517045 1.0 -0.992252 1.0 -0.997975 1.0 -0.862798 1.0 1.0 1.0 1.0 1.0 1.0 1.0 1.0 1.0 1.0 1.0 -0.9295 1.0 1.0 1.0 0.999997 -0.995094 1.0 -0.182409 -0.17067 -0.770123 -0.187035 1.0 -0.995874 -0.299364 -0.284966 1.0 1.0 1.0 1.0 0.310328 -0.952509 -0.0675905 1.0 1.0 0.0113362 0.275304 1.0 0.275051 1.0 1.0 -0.999286 -0.226852 -0.951646 1.0 -0.824326 1.0 1.0 1.0 1.0 0.332566 1.0 -0.229365 -0.0989562 -0.061414 1.0 1.0 1.0 1.0 -0.998723 -0.224085
bubblesort -0.0454983 -0.871169 1.0 -0.999237 0.371916 -0.835837 1.0 1.0 -0.145864 -0.0521073 -0.242429 -0.152952 1.0 0.0114629 0.82345 1.0 -0.942053 0.999542 0.704097 0.177434 1.0 -0.313952 -0.496328 1.0 -0.362701 1.0 -0.991017 1.0 1.0 -0.161204 -0.00328794 1.0 -0.517045 1.0 -0.992252 1.0 -0.997975 1.0 -0.850351 1.0 1.0 1.0 1.0 1.0 1.0 1.0 1.0 1.0 1.0 1.0 -0.9295 1.0 1.0 1.0 0.993773 0.998483 1.0 -0.182409 -0.17067 0.952357 -0.187035 1.0 0.998419 -0.299364 -0.284966 1.0 1.0 1.0 1.0 -0.941969 -0.952509 -0.0675905 1.0 1.0 0.0113362 0.0196888 1.0 0.275051 1.0 1.0 -0.999286 -0.226852 0.978793 1.0 -0.824326 1.0 1.0 1.0 1.0 0.332566 1.0 -0.229365 -0.0989562 -0.061414 1.0 1.0 1.0 1.0 0.99963 -0.224085
mergesort -0.0454983 -0.871169 1.0 -0.999237 0.371916 -0.835837 1.0 1.0 -0.145864 -0.0521073 -0.242429 -0.152952 1.0 0.0114629 -0.886777 1.0 -0.942053 0.999542 0.704097 0.177434 1.0 -0.313952 -0.496328 1.0 -0.362701 1.0 -0.991017 1.0 1.0 -0.161204 -0.00328794 1.0 -0.517045 1.0 -0.992252 1.0 -0.997975 1.0 -0.850351 1.0 1.0 1.0 1.0 1.0 1.0 1.0 1.0 1.0 1.0 1.0 -0.9295 1.0 1.0 1.0 1.0 0.998483 1.0 -0.182409 -0.17067 0.952357 -0.187035 1.0 0.998419 -0.299364 -0.284966 1.0 1.0 1.0 1.0 0.926882 -0.952509 -0.0675905 1.0 1.0 0.0113362 0.0196888 1.0 0.275051 1.0 1.0 -0.999286 -0.226852 0.978793 1.0 -0.824326 1.0 1.0 1.0 1.0 0.332566 1.0 -0.229365 -0.0989562 -0.061414 1.0 1.0 1.0 1.0 0.99963 -0.224085
queue -0.0454983 -0.871169 1.0 -0.999237 0.371916 -0.835837 1.0 1.0 -0.145864 -0.0521073 -0.242429 -0.152952 1.0 0.0114629 0.82345 1.0 -0.942053 0.999542 0.704097 0.177434 1.0 -0.313952 -0.496328 1.0 -0.362701 1.0 -0.991017 1.0 1.0 -0.161204 -0.00328794 1.0 -0.517045 1.0 -0.992252 1.0 -0.997975 1.0 -0.850351 1.0 1.0 1.0 1.0 1.0 1.0 1.0 1.0 1.0 1.0 1.0 -0.9295 1.0 1.0 1.0 0.999997 0.998483 1.0 -0.182409 -0.17067 0.952357 -0.187035 1.0 0.998419 -0.299364 -0.284966 1.0 1.0 1.0 1.0 0.310328 -0.952509 -0.0675905 1.0 1.0 0.0113362 0.997552 1.0 0.275051 1.0 1.0 -0.999286 -0.226852 0.978793 1.0 -0.824326 1.0 1.0 1.0 1.0 0.332566 1.0 -0.229365 -0.0989562 -0.061414 1.0 1.0 1.0 1.0 0.99963 -0.224085
stack -0.0454983 0.490262 1.0 -0.999237 0.371916 -0.16757 1.0 1.0 -0.145864 -0.0521073 -0.242429 -0.152952 1.0 0.0114629 0.82345 1.0 -0.342165 0.999542 0.704097 0.177434 1.0 -0.313952 -0.496328 1.0 -0.362701 1.0 0.995607 1.0 1.0 -0.161204 -0.00328794 1.0 -0.517045 1.0 0.996926 1.0 -0.997975 1.0 0.812244 1.0 1.0 1.0 1.0 1.0 1.0 1.0 1.0 1.0 1.0 1.0 -0.134648 1.0 1.0 1.0 0.578948 0.998483 1.0 -0.182409 -0.17067 0.952357 -0.187035 1.0 0.998419 -0.299364 -0.284966 1.0 1.0 1.0 1.0 -0.941969 0.980266 -0.0675905 1.0 1.0 0.0113362 -0.238526 1.0 0.275051 1.0 1.0 -0.999286 -0.226852 0.978793 1.0 -0.824326 1.0 1.0 1.0 1.0 0.332566 1.0 -0.229365 -0.0989562 -0.061414 1.0 1.0 1.0 1.0 0.99963 -0.224085
heap -0.0454983 0.490262 1.0 -0.999237 0.371916 -0.16757 1.0 1.0 -0.145864 -0.0521073 -0.242429 -0.152952 1.0 0.0114629 0.82345 1.0 -0.342165 0.999542 0.704097 0.177434 1.0 -0.313952 -0.496328 1.0 -0.362701 1.0 0.995607 1.0 1.0 -0.161204 -0.00328794 1.0 -0.517045 1.0 0.996926 1.0 -0.997975 1.0 0.812244 1.0 1.0 1.0 1.0 1.0 1.0 1.0 1.0 1.0 1.0 1.0 -0.134648 1.0 1.0 1.0 0.999998 0.998483 1.0 -0.182409 -0.17067 0.952357 -0.187035 1.0 0.998419 -0.299364 -0.284966 1.0 1.0 1.0 1.0 -0.948746 0.980266 -0.0675905 1.0 1.0 0.0113362 0.997552 1.0 0.275051 1.0 1.0 -0.999286 -0.226852 0.978793 1.0 -0.824326 1.0 1.0 1.0 1.0 0.332566 1.0 -0.229365 -0.0989562 -0.061414 1.0 1.0 1.0 1.0 0.99963 -0.224085
bubblesort -0.0454983 0.490262 1.0 -0.999237 0.371916 -0.16757 1.0 1.0 -0.145864 -0.0521073 -0.242429 -0.152952 1.0 0.0114629 0.994722 1.0 -0.342165 0.999542 0.704097 0.177434 1.0 -0.313952 -0.496328 1.0 -0.362701 1.0 0.995607 1.0 1.0 -0.161204 -0.00328794 1.0 -0.517045 1.0 0.996926 1.0 -0.997975 1.0 0.812244 1.0 1.0 1.0 1.0 1.0 1.0 1.0 1.0 1.0 1.0 1.0 -0.134648 1.0 1.0 1.0 0.993773 0.998483 1.0 -0.182409 -0.17067 0.952357 -0.187035 1.0 0.998419 -0.299364 -0.284966 1.0 1.0 1.0 1.0 -0.941969 0.980266 -0.0675905 1.0 1.0 0.0113362 0.960215 1.0 0.275051 1.0 1.0 -0.999286 -0.226852 0.978793 1.0 -0.824326 1.0 1.0 1.0 1.0 0.332566 1.0 -0.229365 -0.0989562 -0.061414 1.0 1.0 1.0 1.0 0.99963 -0.224085
bfs -0.0454983 0.490262 1.0 -0.999237 0.371916 -0.16757 1.0 1.0 -0.145864 -0.0521073 -0.242429 -0.152952 1.0 0.0114629 0.82345 1.0 -0.342165 0.999542 0.704097 0.177434 1.0 -0.313952 -0.496328 1.0 -0.362701 1.0 0.995607 1.0 1.0 -0.161204 -0.00328794 1.0 -0.517045 1.0 0.996926 1.0 -0.997975 1.0 0.812244 1.0 1.0 1.0 1.0 1.0 1.0 1.0 1.0 1.0 1.0 1.0 -0.134648 1.0 1.0 1.0 0.999998 0.998483 1.0 -0.182409 -0.17067 0.952357 -0.187035 1.0 0.998419 -0.299364 -0.284966 1.0 1.0 1.0 1.0 -0.941969 0.980266 -0.0675905 1.0 1.0 0.0113362 -0.986647 1.0 0.275051 1.0 1.0 -0.999286 -0.226852 0.978793 1.0 -0.824326 1.0 1.0 1.0 1.0 0.332566 1.0 -0.229365 -0.0989562 -0.061414 1.0 1.0 1.0 1.0 0.99963 -0.224085
linkedlist -0.0454983 -0.871169 1.0 -0.999237 0.371916 -0.835837 1.0 1.0 -0.145864 -0.0521073 -0.242429 -0.152952 1.0 0.0114629 0.82345 1.0 -0.942053 0.999542 0.704097 0.177434 1.0 -0.313952 -0.496328 1.0 -0.362701 1.0 -0.991017 1.0 1.0 -0.161204 -0.00328794 1.0 -0.517045 1.0 -0.992252 1.0 -0.997975 1.0 -0.850351 1.0 1.0 1.0 1.0 1.0 1.0 1.0 1.0 1.0 1.0 1.0 -0.9295 1.0 1.0 1.0 0.993773 0.998483 1.0 -0.182409 -0.17067 0.952357 -0.187035 1.0 0.998419 -0.299364 -0.284966 1.0 1.0 1.0 1.0 -0.941969 -0.952509 -0.0675905 1.0 1.0 0.0113362 -0.919441 1.0 0.275051 1.0 1.0 -0.999286 -0.226852 0.978793 1.0 -0.824326 1.0 1.0 1.0 1.0 0.332566 1.0 -0.229365 -0.0989562 -0.061414 1.0 1.0 1.0 1.0 0.99963 -0.224085
stack -0.0454983 0.490262 1.0 -0.999237 0.371916 -0.16757 1.0 1.0 -0.145864 -0.0521073 -0.242429 -0.152952 1.0 0.0114629 1.0 1.0 -0.342165 0.999542 0.704097 0.177434 1.0 -0.313952 -0.496328 1.0 -0.362701 1.0 0.995607 1.0 1.0 -0.161204 -0.00328794 1.0 -0.517045 1.0 0.996926 1.0 -0.997975 1.0 0.812244 1.0 1.0 1.0 1.0 1.0 1.0 1.0 1.0 1.0 1.0 1.0 -0.134648 1.0 1.0 1.0 0.999794 0.998483 1.0 -0.182409 -0.17067 0.952357 -0.187035 1.0 0.998419 -0.299364 -0.284966 1.0 1.0 1.0 1.0 -0.941969 0.980266 -0.0675905 1.0 1.0 0.0113362 0.997552 1.0 0.275051 1.0 1.0 -0.999286 -0.226852 0.978793 1.0 -0.824326 1.0 1.0 1.0 1.0 0.332566 1.0 -0.229365 -0.0989562 -0.061414 1.0 1.0 1.0 1.0 0.99963 -0.224085
knapsack -0.0454983 0.490262 1.0 -0.999237 0.371916 -0.16757 1.0 1.0 -0.145864 -0.0521073 -0.242429 -0.152952 1.0 0.0114629 -0.991107 1.0 -0.342165 0.999542 0.704097 0.177434 1.0 -0.313952 -0.496328 1.0 -0.362701 1.0 0.995607 1.0 1.0 -0.161204 -0.00328794 1.0 -0.517045 1.0 0.996926 1.0 -0.997975 1.0 0.812244 1.0 1.0 1.0 1.0 1.0 1.0 1.0 1.0 1.0 1.0 1.0 -0.134648 1.0 1.0 1.0 1.0 0.998483 1.0 -0.182409 -0.17067 0.952357 -0.187035 1.0 0.998419 -0.299364 -0.284966 1.0 1.0 1.0 1.0 1.0 0.980266 -0.0675905 1.0 1.0 0.0113362 0.0196888 1.0 0.275051 1.0 1.0 -0.999286 -0.226852 0.978793 1.0 -0.824326 1.0 1.0 1.0 1.0 0.332566 1.0 -0.229365 -0.0989562 -0.061414 1.0 1.0 1.0 1.0 0.99963 -0.224085
bubblesort -0.0454983 -0.871169 1.0 -0.999237 0.371916 -0.835837 1.0 1.0 -0.145864 -0.0521073 -0.242429 -0.152952 1.0 0.0114629 0.82345 1.0 -0.942053 0.999542 0.704097 0.177434 1.0 -0.313952 -0.496328 1.0 -0.362701 1.0 -0.991017 1.0 1.0 -0.161204 -0.00328794 1.0 -0.517045 1.0 -0.992252 1.0 -0.997975 1.0 -0.850351 1.0 1.0 1.0 1.0 1.0 1.0 1.0 1.0 1.0 1.0 1.0 -0.9295 1.0 1.0 1.0 0.999881 0.998483 1.0 -0.182409 -0.17067 0.952357 -0.187035 1.0 0.998419 -0.299364 -0.284966 1.0 1.0 1.0 1.0 -0.941969 -0.952509 -0.0675905 1.0 1.0 0.0113362 0.275304 1.0 0.275051 1.0 1.0 -0.999286 -0.226852 0.978793 1.0 -0.824326 1.0 1.0 1.0 1.0 0.332566 1.0 -0.229365 -0.0989562 -0.061414 1.0 1.0 1.0 1.0 0.99963 -0.224085
heap -0.0454983 -0.871169 1.0 -0.999237 0.371916 -0.823367 1.0 1.0 -0.145864 -0.0521073 -0.242429 -0.152952 1.0 0.0114629 0.82345 1.0 -0.942053 0.999542 0.704097 0.177434 1.0 -0.313952 -0.496328 1.0 -0.362701 1.0 -0.991017 1.0 1.0 -0.161204 -0.00328794 1.0 -0.517045 1.0 -0.992252 1.0 -0.997975 1.0 -0.800129 1.0 1.0 1.0 1.0 1.0 1.0 1.0 1.0 1.0 1.0 1.0 -0.9295 1.0 1.0 1.0 0.993773 0.998483 1.0 -0.182409 -0.17067 0.952357 -0.187035 1.0 0.998419 -0.299364 -0.284966 1.0 1.0 1.0 1.0 -0.985934 -0.952509 -0.0675905 1.0 1.0 0.0113362 -0.337908 1.0 0.275051 1.0 1.0 -0.999286 -0.226852 0.978793 1.0 -0.824326 1.0 1.0 1.0 1.0 0.332566 1.0 -0.229365 -0.0989562 -0.061414 1.0 1.0 1.0 1.0 0.99963 -0.224085
mergesort -0.0454983 -0.871169 1.0 -0.999237 0.371916 -0.835837 1.0 1.0 -0.145864 -0.0521073 -0.242429 -0.152952 1.0 0.0114629 -0.76334 1.0 -0.942053 -0.99807 0.704097 0.177434 1.0 -0.313952 -0.496328 1.0 -0.362701 1.0 -0.991017 1.0 1.0 -0.161204 -0.00328794 1.0 -0.517045 1.0 -0.992252 1.0 -0.997975 1.0 -0.862798 1.0 1.0 1.0 1.0 1.0 1.0 1.0 1.0 1.0 1.0 1.0 -0.9295 1.0 1.0 1.0 1.0 -0.995094 1.0 -0.182409 -0.17067 -0.770123 -0.187035 1.0 -0.995874 -0.299364 -0.284966 1.0 1.0 1.0 1.0 0.980859 -0.952509 -0.0675905 1.0 1.0 0.0113362 0.275304 1.0 0.275051 1.0 1.0 -0.999286 -0.226852 -0.951646 1.0 -0.824326 1.0 1.0 1.0 1.0 0.332566 1.0 -0.229365 -0.0989562 -0.061414 1.0 1.0 1.0 1.0 -0.998723 -0.224085
linkedlist -0.0454983 0.490262 1.0 -0.999237 0.371916 -0.16757 1.0 1.0 -0.145864 -0.0521073 -0.242429 -0.152952 1.0 0.0114629 0.996397 1.0 -0.342165 0.999542 0.704097 0.177434 1.0 -0.313952 -0.496328 1.0 -0.362701 1.0 0.995607 1.0 1.0 -0.161204 -0.00328794 1.0 -0.517045 1.0 0.996926 1.0 -0.997975 1.0 0.812244 1.0 1.0 1.0 1.0 1.0 1.0 1.0 1.0 1.0 1.0 1.0 -0.134648 1.0 1.0 1.0 1.0 0.998483 1.0 -0.182409 -0.17067 0.952357 -0.187035 1.0 0.998419 -0.299364 -0.284966 1.0 1.0 1.0 1.0 -0.347874 0.980266 -0.0675905 1.0 1.0 0.0113362 -0.992357 1.0 0.275051 1.0 1.0 -0.999286 -0.226852 0.978793 1.0 -0.824326 1.0 1.0 1.0 1.0 0.332566 1.0 -0.229365 -0.0989562 -0.061414 1.0 1.0 1.0 1.0 0.99963 -0.224085
mergesort -0.0454983 -0.871169 1.0 -0.999237 0.371916 -0.835837 1.0 1.0 -0.145864 -0.0521073 -0.242429 -0.152952 1.0 0.0114629 -0.998085 1.0 -0.942053 0.999542 0.704097 0.177434 1.0 -0.313952 -0.496328 1.0 -0.362701 1.0 -0.991017 1.0 1.0 -0.161204 -0.00328794 1.0 -0.517045 1.0 -0.992252 1.0 -0.997975 1.0 -0.850351 1.0 1.0 1.0 1.0 1.0 1.0 1.0 1.0 1.0 1.0 1.0 -0.9295 1.0 1.0 1.0 0.999997 0.998483 1.0 -0.182409 -0.17067 0.952357 -0.187035 1.0 0.998419 -0.299364 -0.284966 1.0 1.0 1.0 1.0 0.310328 -0.952509 -0.0675905 1.0 1.0 0.0113362 -0.238526 1.0 0.275051 1.0 1.0 -0.999286 -0.226852 0.978793 1.0 -0.824326 1.0 1.0 1.0 1.0 0.332566 1.0 -0.229365 -0.0989562 -0.061414 1.0 1.0 1.0 1.0 0.99963 -0.224085
dfs -0.0454983 0.490262 1.0 -0.999237 0.371916 -0.16757 1.0 1.0 -0.145864 -0.0521073 -0.242429 -0.152952 1.0 0.0114629 0.82345 1.0 -0.342165 0.999542 0.704097 0.177434 1.0 -0.313952 -0.496328 1.0 -0.362701 1.0 0.995607 1.0 1.0 -0.161204 -0.00328794 1.0 -0.517045 1.0 0.996926 1.0 -0.997975 1.0 0.812244 1.0 1.0 1.0 1.0 1.0 1.0 1.0 1.0 1.0 1.0 1.0 -0.134648 1.0 1.0 1.0 1.0 0.998483 1.0 -0.182409 -0.17067 0.952357 -0.187035 1.0 0.998419 -0.299364 -0.284966 1.0 1.0 1.0 1.0 0.999994 0.980266 -0.0675905 1.0 1.0 0.0113362 -0.919441 1.0 0.275051 1.0 1.0 -0.999286 -0.226852 0.978793 1.0 -0.824326 1.0 1.0 1.0 1.0 0.332566 1.0 -0.229365 -0.0989562 -0.061414 1.0 1.0 1.0 1.0 0.99963 -0.224085
mergesort -0.0454983 0.490262 1.0 -0.999237 0.371916 -0.16757 1.0 1.0 -0.145864 -0.0521073 -0.242429 -0.152952 1.0 0.0114629 0.82345 1.0 -0.342165 0.999542 0.704097 0.177434 1.0 -0.313952 -0.496328 1.0 -0.362701 1.0 0.995607 1.0 1.0 -0.161204 -0.00328794 1.0 -0.517045 1.0 0.996926 1.0 -0.997975 1.0 0.812244 1.0 1.0 1.0 1.0 1.0 1.0 1.0 1.0 1.0 1.0 1.0 -0.134648 1.0 1.0 1.0 0.999881 0.998483 1.0 -0.182409 -0.17067 0.952357 -0.187035 1.0 0.998419 -0.299364 -0.284966 1.0 1.0 1.0 1.0 -0.941969 0.980266 -0.0675905 1.0 1.0 0.0113362 0.997552 1.0 0.275051 1.0 1.0 -0.999286 -0.226852 0.978793 1.0 -0.824326 1.0 1.0 1.0 1.0 0.332566 1.0 -0.229365 -0.0989562 -0.061414 1.0 1.0 1.0 1.0 0.99963 -0.224085
bfs -0.0454983 0.490262 1.0 -0.999237 0.371916 -0.16757 1.0 1.0 -0.145864 -0.0521073 -0.242429 -0.152952 1.0 0.0114629 0.991245 1.0 -0.342165 0.999542 0.704097 0.177434 1.0 -0.313952 -0.496328 1.0 -0.362701 1.0 0.995607 1.0 1.0 -0.161204 -0.00328794 1.0 -0.517045 1.0 0.996926 1.0 -0.997975 1.0 0.812244 1.0 1.0 1.0 1.0 1.0 1.0 1.0 1.0 1.0 1.0 1.0 -0.134648 1.0 1.0 1.0 1.0 0.998483 1.0 -0.182409 -0.17067 0.952357 -0.187035 1.0 0.998419 -0.299364 -0.284966 1.0 1.0 1.0 1.0 0.980859 0.980266 -0.0675905 1.0 1.0 0.0113362 0.960215 1.0 0.275051 1.0 1.0 -0.999286 -0.226852 0.978793 1.0 -0.824326 1.0 1.0 1.0 1.0 0.332566 1.0 -0.229365 -0.0989562 -0.061414 1.0 1.0 1.0 1.0 0.99963 -0.224085
bubblesort -0.0454983 0.490262 1.0 -0.999237 0.371916 -0.16757 1.0 1.0 -0.145864 -0.0521073 -0.242429 -0.152952 1.0 0.0114629 -0.998085 1.0 -0.342165 0.999542 0.704097 0.177434 1.0 -0.313952 -0.496328 1.0 -0.362701 1.0 0.995607 1.0 1.0 -0.161204 -0.00328794 1.0 -0.517045 1.0 0.996926 1.0 -0.997975 1.0 0.812244 1.0 1.0 1.0 1.0 1.0 1.0 1.0 1.0 1.0 1.0 1.0 -0.134648 1.0 1.0 1.0 1.0 0.998483 1.0 -0.182409 -0.17067 0.952357 -0.187035 1.0 0.998419 -0.299364 -0.284966 1.0 1.0 1.0 1.0 -0.0689451 0.980266 -0.0675905 1.0 1.0 0.0113362 -0.238526 1.0 0.275051 1.0 1.0 -0.999286 -0.226852 0.978793 1.0 -0.824326 1.0 1.0 1.0 1.0 0.332566 1.0 -0.229365 -0.0989562 -0.061414 1.0 1.0 1.0 1.0 0.99963 -0.224085
stack -0.0454983 0.490262 1.0 -0.999237 0.371916 -0.16757 1.0 1.0 -0.145864 -0.0521073 -0.242429 -0.152952 1.0 0.0114629 0.82345 1.0 -0.342165 0.999542 0.704097 0.177434 1.0 -0.313952 -0.496328 1.0 -0.362701 1.0 0.995607 1.0 1.0 -0.161204 -0.00328794 1.0 -0.517045 1.0 0.996926 1.0 -0.997975 1.0 0.812244 1.0 1.0 1.0 1.0 1.0 1.0 1.0 1.0 1.0 1.0 1.0 -0.134648 1.0 1.0 1.0 -0.878751 0.998483 1.0 -0.182409 -0.17067 0.952357 -0.187035 1.0 0.998419 -0.299364 -0.284966 1.0 1.0 1.0 1.0 -0.941969 0.980266 -0.0675905 1.0 1.0 0.0113362 0.997552 1.0 0.275051 1.0 1.0 -0.999286 -0.226852 0.978793 1.0 -0.824326 1.0 1.0 1.0 1.0 0.332566 1.0 -0.229365 -0.0989562 -0.061414 1.0 1.0 1.0 1.0 0.99963 -0.224085
stack -0.0454983 0.490262 1.0 -0.999237 0.371916 -0.16757 1.0 1.0 -0.145864 -0.0521073 -0.242429 -0.152952 1.0 0.0114629 0.82345 1.0 -0.342165 0.999542 0.704097 0.177434 1.0 -0.313952 -0.496328 1.0 -0.362701 1.0 0.995607 1.0 1.0 -0.161204 -0.00328794 1.0 -0.517045 1.0 0.996926 1.0 -0.997975 1.0 0.812244 1.0 1.0 1.0 1.0 1.0 1.0 1.0 1.0 1.0 1.0 1.0 -0.134648 1.0 1.0 1.0 -0.865495 0.998483 1.0 -0.182409 -0.17067 0.952357 -0.187035 1.0 0.998419 -0.299364 -0.284966 1.0 1.0 1.0 1.0 -0.941969 0.980266 -0.0675905 1.0 1.0 0.0113362 0.997552 1.0 0.275051 1.0 1.0 -0.999286 -0.226852 0.978793 1.0 -0.824326 1.0 1.0 1.0 1.0 0.332566 1.0 -0.229365 -0.0989562 -0.061414 1.0 1.0 1.0 1.0 0.99963 -0.224085
bfs -0.0454983 0.490262 1.0 -0.999237 0.371916 -0.16757 1.0 1.0 -0.145864 -0.0521073 -0.242429 -0.152952 1.0 0.0114629 0.82345 1.0 -0.342165 0.999542 0.704097 0.177434 1.0 -0.313952 -0.496328 1.0 -0.362701 1.0 0.995607 1.0 1.0 -0.161204 -0.00328794 1.0 -0.517045 1.0 0.996926 1.0 -0.997975 1.0 0.812244 1.0 1.0 1.0 1.0 1.0 1.0 1.0 1.0 1.0 1.0 1.0 -0.134648 1.0 1.0 1.0 0.999867 0.998483 1.0 -0.182409 -0.17067 0.952357 -0.187035 1.0 0.998419 -0.299364 -0.284966 1.0 1.0 1.0 1.0 -0.93259 0.980266 -0.0675905 1.0 1.0 0.0113362 0.997552 1.0 0.275051 1.0 1.0 -0.999286 -0.226852 0.978793 1.0 -0.824326 1.0 1.0 1.0 1.0 0.332566 1.0 -0.229365 -0.0989562 -0.061414 1.0 1.0 1.0 1.0 0.99963 -0.224085
stack -0.0454983 -0.871169 1.0 -0.999237 0.371916 -0.835837 1.0 1.0 -0.145864 -0.0521073 -0.242429 -0.152952 1.0 0.0114629 0.82345 1.0 -0.942053 0.999542 0.704097 0.177434 1.0 -0.313952 -0.496328 1.0 -0.362701 1.0 -0.991017 1.0 1.0 -0.161204 -0.00328794 1.0 -0.517045 1.0 -0.992252 1.0 -0.997975 1.0 -0.850351 1.0 1.0 1.0 1.0 1.0 1.0 1.0 1.0 1.0 1.0 1.0 -0.9295 1.0 1.0 1.0 0.999997 0.998483 1.0 -0.182409 -0.17067 0.952357 -0.187035 1.0 0.998419 -0.299364 -0.284966 1.0 1.0 1.0 1.0 0.310328 -0.952509 -0.0675905 1.0 1.0 0.0113362 0.960215 1.0 0.275051 1.0 1.0 -0.999286 -0.226852 0.978793 1.0 -0.824326 1.0 1.0 1.0 1.0 0.332566 1.0 -0.229365 -0.0989562 -0.061414 1.0 1.0 1.0 1.0 0.99963 -0.224085
linkedlist -0.0454983 -0.871169 1.0 -0.999237 0.371916 -0.835837 1.0 1.0 -0.145864 -0.0521073 -0.242429 -0.152952 1.0 0.0114629 1.0 1.0 -0.942053 0.999542 0.704097 0.177434 1.0 -0.313952 -0.496328 1.0 -0.362701 1.0 -0.991017 1.0 1.0 -0.161204 -0.00328794 1.0 -0.517045 1.0 -0.992252 1.0 -0.997975 1.0 -0.850351 1.0 1.0 1.0 1.0 1.0 1.0 1.0 1.0 1.0 1.0 1.0 -0.9295 1.0 1.0 1.0 1.0 0.998483 1.0 -0.182409 -0.17067 0.952357 -0.187035 1.0 0.998419 -0.299364 -0.284966 1.0 1.0 1.0 1.0 0.980859 -0.952509 -0.0675905 1.0 1.0 0.0113362 0.275304 1.0 0.275051 1.0 1.0 -0.999286 -0.226852 0.978793 1.0 -0.824326 1.0 1.0 1.0 1.0 0.332566 1.0 -0.229365 -0.0989562 -0.061414 1.0 1.0 1.0 1.0 0.99963 -0.224085
stack -0.0454983 -0.871169 1.0 -0.999237 0.371916 -0.835837 1.0 1.0 -0.145864 -0.0521073 -0.242429 -0.152952 1.0 0.0114629 0.82345 1.0 -0.942053 0.999542 0.704097 0.177434 1.0 -0.313952 -0.496328 1.0 -0.362701 1.0 -0.991017 1.0 1.0 -0.161204 -0.00328794 1.0 -0.517045 1.0 -0.992252 1.0 -0.997975 1.0 -0.850351 1.0 1.0 1.0 1.0 1.0 1.0 1.0 1.0 1.0 1.0 1.0 -0.9295 1.0 1.0 1.0 0.999867 0.998483 1.0 -0.182409 -0.17067 0.952357 -0.187035 1.0 0.998419 -0.299364 -0.284966 1.0 1.0 1.0 1.0 -0.93259 -0.952509 -0.0675905 1.0 1.0 0.0113362 0.960215 1.0 0.275051 1.0 1.0 -0.999286 -0.226852 0.978793 1.0 -0.824326 1.0 1.0 1.0 1.0 0.332566 1.0 -0.229365 -0.0989562 -0.061414 1.0 1.0 1.0 1.0 0.99963 -0.224085
knapsack -0.0454983 0.490262 1.0 -0.999237 0.371916 -0.16757 1.0 1.0 -0.145864 -0.0521073 -0.242429 -0.152952 1.0 0.0114629 0.82345 1.0 -0.342165 0.999542 0.704097 0.177434 1.0 -0.313952 -0.496328 1.0 -0.362701 1.0 0.995607 1.0 1.0 -0.161204 -0.00328794 1.0 -0.517045 1.0 0.996926 1.0 -0.997975 1.0 0.812244 1.0 1.0 1.0 1.0 1.0 1.0 1.0 1.0 1.0 1.0 1.0 -0.134648 1.0 1.0 1.0 0.999997 0.998483 1.0 -0.182409 -0.17067 0.952357 -0.187035 1.0 0.998419 -0.299364 -0.284966 1.0 1.0 1.0 1.0 0.310328 0.980266 -0.0675905 1.0 1.0 0.0113362 -0.843396 1.0 0.275051 1.0 1.0 -0.999286 -0.226852 0.978793 1.0 -0.824326 1.0 1.0 1.0 1.0 0.332566 1.0 -0.229365 -0.0989562 -0.061414 1.0 1.0 1.0 1.0 0.99963 -0.224085
heap -0.0454983 -0.871169 1.0 -0.999237 0.371916 -0.835837 1.0 1.0 -0.145864 -0.0521073 -0.242429 -0.152952 1.0 0.0114629 1.0 1.0 -0.942053 0.999542 0.704097 0.177434 1.0 -0.313952 -0.496328 1.0 -0.362701 1.0 -0.991017 1.0 1.0 -0.161204 -0.00328794 1.0 -0.517045 1.0 -0.992252 1.0 -0.997975 1.0 -0.850351 1.0 1.0 1.0 1.0 1.0 1.0 1.0 1.0 1.0 1.0 1.0 -0.9295 1.0 1.0 1.0 0.993773 0.998483 1.0 -0.182409 -0.17067 0.952357 -0.187035 1.0 0.998419 -0.299364 -0.284966 1.0 1.0 1.0 1.0 -0.941969 -0.952509 -0.0675905 1.0 1.0 0.0113362 0.275304 1.0 0.275051 1.0 1.0 -0.999286 -0.226852 0.978793 1.0 -0.824326 1.0 1.0 1.0 1.0 0.332566 1.0 -0.229365 -0.0989562 -0.061414 1.0 1.0 1.0 1.0 0.99963 -0.224085
stack -0.0454983 -0.871169 1.0 -0.999237 0.371916 -0.835837 1.0 1.0 -0.145864 -0.0521073 -0.242429 -0.152952 1.0 0.0114629 1.0 1.0 -0.942053 0.999542 0.704097 0.177434 1.0 -0.313952 -0.496328 1.0 -0.362701 1.0 -0.991017 1.0 1.0 -0.161204 -0.00328794 1.0 -0.517045 1.0 -0.992252 1.0 -0.997975 1.0 -0.850351 1.0 1.0 1.0 1.0 1.0 1.0 1.0 1.0 1.0 1.0 1.0 -0.9295 1.0 1.0 1.0 0.999867 0.998483 1.0 -0.182409 -0.17067 0.952357 -0.187035 1.0 0.998419 -0.299364 -0.284966 1.0 1.0 1.0 1.0 -0.93259 -0.952509 -0.0675905 1.0 1.0 0.0113362 0.275304 1.0 0.275051 1.0 1.0 -0.999286 -0.226852 0.978793 1.0 -0.824326 1.0 1.0 1.0 1.0 0.332566 1.0 -0.229365 -0.0989562 -0.061414 1.0 1.0 1.0 1.0 0.99963 -0.224085
stack -0.0454983 -0.871169 1.0 -0.999237 0.371916 -0.835837 1.0 1.0 -0.145864 -0.0521073 -0.242429 -0.152952 1.0 0.0114629 1.0 1.0 -0.942053 0.999542 0.704097 0.177434 1.0 -0.313952 -0.496328 1.0 -0.362701 1.0 -0.991017 1.0 1.0 -0.161204 -0.00328794 1.0 -0.517045 1.0 -0.992252 1.0 -0.997975 1.0 -0.850351 1.0 1.0 1.0 1.0 1.0 1.0 1.0 1.0 1.0 1.0 1.0 -0.9295 1.0 1.0 1.0 0.999881 0.998483 1.0 -0.182409 -0.17067 0.952357 -0.187035 1.0 0.998419 -0.299364 -0.284966 1.0 1.0 1.0 1.0 -0.941969 -0.952509 -0.0675905 1.0 1.0 0.0113362 0.960215 1.0 0.275051 1.0 1.0 -0.999286 -0.226852 0.978793 1.0 -0.824326 1.0 1.0 1.0 1.0 0.332566 1.0 -0.229365 -0.0989562 -0.061414 1.0 1.0 1.0 1.0 0.99963 -0.224085
knapsack -0.0454983 -0.871169 1.0 -0.999237 0.371916 -0.835837 1.0 1.0 -0.145864 -0.0521073 -0.242429 -0.152952 1.0 0.0114629 -0.998085 1.0 -0.942053 0.999542 0.704097 0.177434 1.0 -0.313952 -0.496328 1.0 -0.362701 1.0 -0.991017 1.0 1.0 -0.161204 -0.00328794 1.0 -0.517045 1.0 -0.992252 1.0 -0.997975 1.0 -0.850351 1.0 1.0 1.0 1.0 1.0 1.0 1.0 1.0 1.0 1.0 1.0 -0.9295 1.0 1.0 1.0 1.0 0.998483 1.0 -0.182409 -0.17067 0.952357 -0.187035 1.0 0.998419 -0.299364 -0.284966 1.0 1.0 1.0 1.0 0.999645 -0.952509 -0.0675905 1.0 1.0 0.0113362 -0.919441 1.0 0.275051 1.0 1.0 -0.999286 -0.226852 0.978793 1.0 -0.824326 1.0 1.0 1.0 1.0 0.332566 1.0 -0.229365 -0.0989562 -0.061414 1.0 1.0 1.0 1.0 0.99963 -0.224085
linkedlist -0.0454983 -0.871169 1.0 -0.999237 0.371916 -0.835837 1.0 1.0 -0.145864 -0.0521073 -0.242429 -0.152952 1.0 0.0114629 0.82345 1.0 -0.942053 0.999542 0.704097 0.177434 1.0 -0.313952 -0.496328 1.0 -0.362701 1.0 -0.991017 1.0 1.0 -0.161204 -0.00328794 1.0 -0.517045 1.0 -0.992252 1.0 -0.997975 1.0 -0.850351 1.0 1.0 1.0 1.0 1.0 1.0 1.0 1.0 1.0 1.0 1.0 -0.9295 1.0 1.0 1.0 0.993773 0.998483 1.0 -0.182409 -0.17067 0.952357 -0.187035 1.0 0.998419 -0.299364 -0.284966 1.0 1.0 1.0 1.0 -0.941969 -0.952509 -0.0675905 1.0 1.0 0.0113362 0.997552 1.0 0.275051 1.0 1.0 -0.999286 -0.226852 0.978793 1.0 -0.824326 1.0 1.0 1.0 1.0 0.332566 1.0 -0.229365 -0.0989562 -0.061414 1.0 1.0 1.0 1.0 0.99963 -0.224085
queue -0.0454983 0.490262 1.0 -0.999237 0.371916 -0.16757 1.0 1.0 -0.145864 -0.0521073 -0.242429 -0.152952 1.0 0.0114629 1.0 1.0 -0.342165 0.999542 0.704097 0.177434 1.0 -0.313952 -0.496328 1.0 -0.362701 1.0 0.995607 1.0 1.0 -0.161204 -0.00328794 1.0 -0.517045 1.0 0.996926 1.0 -0.997975 1.0 0.812244 1.0 1.0 1.0 1.0 1.0 1.0 1.0 1.0 1.0 1.0 1.0 -0.134648 1.0 1.0 1.0 0.993773 0.998483 1.0 -0.182409 -0.17067 0.952357 -0.187035 1.0 0.998419 -0.299364 -0.284966 1.0 1.0 1.0 1.0 -0.941969 0.980266 -0.0675905 1.0 1.0 0.0113362 0.275304 1.0 0.275051 1.0 1.0 -0.999286 -0.226852 0.978793 1.0 -0.824326 1.0 1.0 1.0 1.0 0.332566 1.0 -0.229365 -0.0989562 -0.061414 1.0 1.0 1.0 1.0 0.99963 -0.224085
linkedlist -0.0454983 0.490262 1.0 -0.999237 0.371916 -0.16757 1.0 1.0 -0.145864 -0.0521073 -0.242429 -0.152952 1.0 0.0114629 0.82345 1.0 -0.342165 0.999542 0.704097 0.177434 1.0 -0.313952 -0.496328 1.0 -0.362701 1.0 0.995607 1.0 1.0 -0.161204 -0.00328794 1.0 -0.517045 1.0 0.996926 1.0 -0.997975 1.0 0.812244 1.0 1.0 1.0 1.0 1.0 1.0 1.0 1.0 1.0 1.0 1.0 -0.134648 1.0 1.0 1.0 0.999997 0.998483 1.0 -0.182409 -0.17067 0.952357 -0.187035 1.0 0.998419 -0.299364 -0.284966 1.0 1.0 1.0 1.0 0.310328 0.980266 -0.0675905 1.0 1.0 0.0113362 0.997552 1.0 0.275051 1.0 1.0 -0.999286 -0.226852 0.978793 1.0 -0.824326 1.0 1.0 1.0 1.0 0.332566 1.0 -0.229365 -0.0989562 -0.061414 1.0 1.0 1.0 1.0 0.99963 -0.224085
heap -0.0454983 -0.871169 1.0 -0.999237 0.371916 -0.835837 1.0 1.0 -0.145864 -0.0521073 -0.242429 -0.152952 1.0 0.0114629 0.991245 1.0 -0.942053 0.999542 0.704097 0.177434 1.0 -0.313952 -0.496328 1.0 -0.362701 1.0 -0.991017 1.0 1.0 -0.161204 -0.00328794 1.0 -0.517045 1.0 -0.992252 1.0 -0.997975 1.0 -0.850351 1.0 1.0 1.0 1.0 1.0 1.0 1.0 1.0 1.0 1.0 1.0 -0.9295 1.0 1.0 1.0 0.999867 0.998483 1.0 -0.182409 -0.17067 0.952357 -0.187035 1.0 0.998419 -0.299364 -0.284966 1.0 1.0 1.0 1.0 -0.93259 -0.952509 -0.0675905 1.0 1.0 0.0113362 0.997552 1.0 0.275051 1.0 1.0 -0.999286 -0.226852 0.978793 1.0 -0.824326 1.0 1.0 1.0 1.0 0.332566 1.0 -0.229365 -0.0989562 -0.061414 1.0 1.0 1.0 1.0 0.99963 -0.224085
stack -0.0454983 -0.871169 1.0 -0.999237 0.371916 -0.835837 1.0 1.0 -0.145864 -0.0521073 -0.242429 -0.152952 1.0 0.0114629 0.82345 1.0 -0.942053 0.999542 0.704097 0.177434 1.0 -0.313952 -0.496328 1.0 -0.362701 1.0 -0.991017 1.0 1.0 -0.161204 -0.00328794 1.0 -0.517045 1.0 -0.992252 1.0 -0.997975 1.0 -0.850351 1.0 1.0 1.0 1.0 1.0 1.0 1.0 1.0 1.0 1.0 1.0 -0.9295 1.0 1.0 1.0 1.0 0.998483 1.0 -0.182409 -0.17067 0.952357 -0.187035 1.0 0.998419 -0.299364 -0.284966 1.0 1.0 1.0 1.0 0.999645 -0.952509 -0.0675905 1.0 1.0 0.0113362 0.997552 1.0 0.275051 1.0 1.0 -0.999286 -0.226852 0.978793 1.0 -0.824326 1.0 1.0 1.0 1.0 0.332566 1.0 -0.229365 -0.0989562 -0.061414 1.0 1.0 1.0 1.0 0.99963 -0.224085
bubblesort -0.0454983 0.490262 1.0 -0.999237 0.371916 -0.16757 1.0 1.0 -0.145864 -0.0521073 -0.242429 -0.152952 1.0 0.0114629 0.82345 1.0 -0.342165 0.999542 0.704097 0.177434 1.0 -0.313952 -0.496328 1.0 -0.362701 1.0 0.995607 1.0 1.0 -0.161204 -0.00328794 1.0 -0.517045 1.0 0.996926 1.0 -0.997975 1.0 0.812244 1.0 1.0 1.0 1.0 1.0 1.0 1.0 1.0 1.0 1.0 1.0 -0.134648 1.0 1.0 1.0 0.999867 0.998483 1.0 -0.182409 -0.17067 0.952357 -0.187035 1.0 0.998419 -0.299364 -0.284966 1.0 1.0 1.0 1.0 -0.93259 0.980266 -0.0675905 1.0 1.0 0.0113362 -0.919441 1.0 0.275051 1.0 1.0 -0.999286 -0.226852 0.978793 1.0 -0.824326 1.0 1.0 1.0 1.0 0.332566 1.0 -0.229365 -0.0989562 -0.061414 1.0 1.0 1.0 1.0 0.99963 -0.224085
stack -0.0454983 0.490262 1.0 -0.999237 0.371916 -0.16757 1.0 1.0 -0.145864 -0.0521073 -0.242429 -0.152952 1.0 0.0114629 0.977064 1.0 -0.342165 0.999542 0.704097 0.177434 1.0 -0.313952 -0.496328 1.0 -0.362701 1.0 0.995607 1.0 1.0 -0.161204 -0.00328794 1.0 -0.517045 1.0 0.996926 1.0 -0.997975 1.0 0.812244 1.0 1.0 1.0 1.0 1.0 1.0 1.0 1.0 1.0 1.0 1.0 -0.134648 1.0 1.0 1.0 0.996014 0.998483 1.0 -0.182409 -0.17067 0.952357 -0.187035 1.0 0.998419 -0.299364 -0.284966 1.0 1.0 1.0 1.0 -0.940759 0.980266 -0.0675905 1.0 1.0 0.0113362 -0.919441 1.0 0.275051 1.0 1.0 -0.999286 -0.226852 0.978793 1.0 -0.824326 1.0 1.0 1.0 1.0 0.332566 1.0 -0.229365 -0.0989562 -0.061414 1.0 1.0 1.0 1.0 0.99963 -0.224085
linkedlist -0.0454983 -0.871169 1.0 -0.999237 0.371916 -0.835837 1.0 1.0 -0.145864 -0.0521073 -0.242429 -0.152952 1.0 0.0114629 0.82345 1.0 -0.942053 0.999542 0.704097 0.177434 1.0 -0.313952 -0.496328 1.0 -0.362701 1.0 -0.991017 1.0 1.0 -0.161204 -0.00328794 1.0 -0.517045 1.0 -0.992252 1.0 -0.997975 1.0 -0.850351 1.0 1.0 1.0 1.0 1.0 1.0 1.0 1.0 1.0 1.0 1.0 -0.9295 1.0 1.0 1.0 0.999867 0.998483 1.0 -0.182409 -0.17067 0.952357 -0.187035 1.0 0.998419 -0.299364 -0.284966 1.0 1.0 1.0 1.0 -0.792994 -0.952509 -0.0675905 1.0 1.0 0.0113362 -0.238526 1.0 0.275051 1.0 1.0 -0.999286 -0.226852 0.978793 1.0 -0.824326 1.0 1.0 1.0 1.0 0.332566 1.0 -0.229365 -0.0989562 -0.061414 1.0 1.0 1.0 1.0 0.99963 -0.224085
dfs -0.0454983 0.490262 1.0 -0.999237 0.371916 -0.16757 1.0 1.0 -0.145864 -0.0521073 -0.242429 -0.152952 1.0 0.0114629 1.0 1.0 -0.342165 -0.999069 0.704097 0.177434 1.0 -0.313952 -0.496328 1.0 -0.362701 1.0 0.995607 1.0 1.0 -0.161204 -0.00328794 1.0 -0.517045 1.0 0.996926 1.0 -0.997975 1.0 0.812244 1.0 1.0 1.0 1.0 1.0 1.0 1.0 1.0 1.0 1.0 1.0 -0.134648 1.0 1.0 1.0 0.997975 -0.995094 1.0 -0.182409 -0.17067 -0.770123 -0.187035 1.0 -0.995874 -0.299364 -0.284966 1.0 1.0 1.0 1.0 -0.84165 0.980266 -0.0675905 1.0 1.0 0.0113362 -0.989531 1.0 0.275051 1.0 1.0 -0.999286 -0.226852 -0.951646 1.0 -0.824326 1.0 1.0 1.0 1.0 0.332566 1.0 -0.229365 -0.0989562 -0.061414 1.0 1.0 1.0 1.0 -0.998723 -0.224085
