bfs 4.14684 3.22193 12.3742 -0.054446 4.95667 2.99409 -0.0783629 -0.00779878 0.128065 -0.105219
bfs -0.00165416 5.07174 11.0798 -0.0734162 -0.0648216 4.39928 -0.0274706 4.6221 0.0215029 -0.0605987
bfs -0.165302 -0.00138658 12.9408 -0.0526508 7.92603 -0.0410907 -0.056398 7.69715 6.84043 -0.0618333
bfs -0.0479888 -0.0269721 8.15712 -0.0287502 4.5832 -0.0547149 0.0387916 4.34319 2.54261 -0.0557104
bfs -0.00625839 -0.0053906 8.08295 -0.083867 3.6625 -0.00621808 -0.0268942 -0.0104054 2.46314 -0.0392609
bfs -0.0260349 4.61799 9.02079 -0.0559854 3.14593 1.92535 -0.0997657 2.77864 5.04885 -0.0657229
bfs -0.0479888 -0.0269721 8.15712 -0.0287502 4.5832 -0.0547149 0.0387916 4.34319 2.54261 -0.0557104
bfs -0.00165416 5.07174 11.0798 -0.0734162 -0.0648216 4.39928 -0.0274706 4.6221 0.0215029 -0.0605987
bfs 4.14684 3.22193 12.3742 -0.054446 4.95667 2.99409 -0.0783629 -0.00779878 0.128065 -0.105219
bfs -0.00625839 -0.0053906 8.08295 -0.083867 3.6625 -0.00621808 -0.0268942 -0.0104054 2.46314 -0.0392609
bfs -0.0605961 -0.0324479 5.20918 -0.0796277 -0.00140892 -0.0302292 -0.0310461 -0.0465675 0.0597812 -0.0160876
bfs 1.3692 4.21545 9.12861 -0.0387855 3.17867 -0.0299182 -0.0224977 -0.0305028 3.17931 -0.0619935
bfs -0.060281 0.623472 7.39588 -0.00897787 3.30247 -0.0708227 -0.0342322 4.55636 -0.0232679 0.332597
bfs -0.0714863 -0.0149634 7.89391 -0.0596841 2.89976 -0.0137984 0.710583 5.16508 2.67938 -0.0345546
bfs -0.0260349 4.61799 9.02079 -0.0559854 3.14593 1.92535 -0.0997657 2.77864 5.04885 -0.0657229
bfs -0.0714863 -0.0149634 7.89391 -0.0596841 2.89976 -0.0137984 0.710583 5.16508 2.67938 -0.0345546
bfs -0.0464402 2.83378 7.75574 -0.00657317 -0.0448863 -0.032563 -0.000706148 2.84271 0.423437 -0.0456511
bfs -0.0605961 -0.0324479 5.20918 -0.0796277 -0.00140892 -0.0302292 -0.0310461 -0.0465675 0.0597812 -0.0160876
bfs -0.00711393 -0.0363961 7.4095 -0.0372302 -0.00826845 -0.0336049 -0.0281475 -0.0673594 1.37885 -0.00215045
bfs 1.3692 4.21545 9.12861 -0.0387855 3.17867 -0.0299182 -0.0224977 -0.0305028 3.17931 -0.0619935
bfs 4.14684 3.22193 12.3742 -0.054446 4.95667 2.99409 -0.0783629 -0.00779878 0.128065 -0.105219
bfs -0.0479888 -0.0269721 8.15712 -0.0287502 4.5832 -0.0547149 0.0387916 4.34319 2.54261 -0.0557104
bfs -0.0714863 -0.0149634 7.89391 -0.0596841 2.89976 -0.0137984 0.710583 5.16508 2.67938 -0.0345546
bfs 1.03265 -0.0902245 8.43083 -0.0565186 1.19624 1.62517 -0.0612289 3.84167 2.12956 -0.0935563
bfs -0.0260349 4.61799 9.02079 -0.0559854 3.14593 1.92535 -0.0997657 2.77864 5.04885 -0.0657229
bfs -0.0605961 -0.0324479 5.20918 -0.0796277 -0.00140892 -0.0302292 -0.0310461 -0.0465675 0.0597812 -0.0160876
bfs -0.00711393 -0.0363961 7.4095 -0.0372302 -0.00826845 -0.0336049 -0.0281475 -0.0673594 1.37885 -0.00215045
bfs -0.0479888 -0.0269721 8.15712 -0.0287502 4.5832 -0.0547149 0.0387916 4.34319 2.54261 -0.0557104
bfs -0.0260349 4.61799 9.02079 -0.0559854 3.14593 1.92535 -0.0997657 2.77864 5.04885 -0.0657229
bfs 1.3692 4.21545 9.12861 -0.0387855 3.17867 -0.0299182 -0.0224977 -0.0305028 3.17931 -0.0619935
bfs -0.060281 0.623472 7.39588 -0.00897787 3.30247 -0.0708227 -0.0342322 4.55636 -0.0232679 0.332597
bfs -0.165302 -0.00138658 12.9408 -0.0526508 7.92603 -0.0410907 -0.056398 7.69715 6.84043 -0.0618333
bfs -0.00165416 5.07174 11.0798 -0.0734162 -0.0648216 4.39928 -0.0274706 4.6221 0.0215029 -0.0605987
bfs -0.060281 0.623472 7.39588 -0.00897787 3.30247 -0.0708227 -0.0342322 4.55636 -0.0232679 0.332597
bfs 4.14684 3.22193 12.3742 -0.054446 4.95667 2.99409 -0.0783629 -0.00779878 0.128065 -0.105219
bfs -0.0464402 2.83378 7.75574 -0.00657317 -0.0448863 -0.032563 -0.000706148 2.84271 0.423437 -0.0456511
bfs -0.060281 0.623472 7.39588 -0.00897787 3.30247 -0.0708227 -0.0342322 4.55636 -0.0232679 0.332597
bfs -0.0464402 2.83378 7.75574 -0.00657317 -0.0448863 -0.032563 -0.000706148 2.84271 0.423437 -0.0456511
bfs -0.0464402 2.83378 7.75574 -0.00657317 -0.0448863 -0.032563 -0.000706148 2.84271 0.423437 -0.0456511
bfs -0.00625839 -0.0053906 8.08295 -0.083867 3.6625 -0.00621808 -0.0268942 -0.0104054 2.46314 -0.0392609
bfs 1.3692 4.21545 9.12861 -0.0387855 3.17867 -0.0299182 -0.0224977 -0.0305028 3.17931 -0.0619935
bfs -0.0714863 -0.0149634 7.89391 -0.0596841 2.89976 -0.0137984 0.710583 5.16508 2.67938 -0.0345546
bfs 1.3692 4.21545 9.12861 -0.0387855 3.17867 -0.0299182 -0.0224977 -0.0305028 3.17931 -0.0619935
bfs 1.03265 -0.0902245 8.43083 -0.0565186 1.19624 1.62517 -0.0612289 3.84167 2.12956 -0.0935563
bfs -0.165302 -0.00138658 12.9408 -0.0526508 7.92603 -0.0410907 -0.056398 7.69715 6.84043 -0.0618333
bfs -0.0605961 -0.0324479 5.20918 -0.0796277 -0.00140892 -0.0302292 -0.0310461 -0.0465675 0.0597812 -0.0160876
bfs -0.00625839 -0.0053906 8.08295 -0.083867 3.6625 -0.00621808 -0.0268942 -0.0104054 2.46314 -0.0392609
bfs -0.165302 -0.00138658 12.9408 -0.0526508 7.92603 -0.0410907 -0.056398 7.69715 6.84043 -0.0618333
bfs -0.0479888 -0.0269721 8.15712 -0.0287502 4.5832 -0.0547149 0.0387916 4.34319 2.54261 -0.0557104
bfs -0.0605961 -0.0324479 5.20918 -0.0796277 -0.00140892 -0.0302292 -0.0310461 -0.0465675 0.0597812 -0.0160876
bfs -0.00165416 5.07174 11.0798 -0.0734162 -0.0648216 4.39928 -0.0274706 4.6221 0.0215029 -0.0605987
bfs -0.00165416 5.07174 11.0798 -0.0734162 -0.0648216 4.39928 -0.0274706 4.6221 0.0215029 -0.0605987
bfs -0.00625839 -0.0053906 8.08295 -0.083867 3.6625 -0.00621808 -0.0268942 -0.0104054 2.46314 -0.0392609
bfs -0.010745 -0.0398466 -0.0155639 6.10937 -2.54919e-05 -0.0313871 -0.00579254 4.41236 -0.0436557 1.66676
bfs -0.0910102 -0.0796757 3.06712 -0.0317334 0.0121028 -0.0291441 -0.0534876 6.12966 2.38234 -0.0225791
bfs 4.14684 3.22193 12.3742 -0.054446 4.95667 2.99409 -0.0783629 -0.00779878 0.128065 -0.105219
bfs -0.0479888 -0.0269721 8.15712 -0.0287502 4.5832 -0.0547149 0.0387916 4.34319 2.54261 -0.0557104
bfs -0.060281 0.623472 7.39588 -0.00897787 3.30247 -0.0708227 -0.0342322 4.55636 -0.0232679 0.332597
bfs -0.00711393 -0.0363961 7.4095 -0.0372302 -0.00826845 -0.0336049 -0.0281475 -0.0673594 1.37885 -0.00215045
bfs -0.0605961 -0.0324479 5.20918 -0.0796277 -0.00140892 -0.0302292 -0.0310461 -0.0465675 0.0597812 -0.0160876
bfs -0.165302 -0.00138658 12.9408 -0.0526508 7.92603 -0.0410907 -0.056398 7.69715 6.84043 -0.0618333
bfs -0.0260349 4.61799 9.02079 -0.0559854 3.14593 1.92535 -0.0997657 2.77864 5.04885 -0.0657229
bfs -0.0260349 4.61799 9.02079 -0.0559854 3.14593 1.92535 -0.0997657 2.77864 5.04885 -0.0657229
bfs 4.14684 3.22193 12.3742 -0.054446 4.95667 2.99409 -0.0783629 -0.00779878 0.128065 -0.105219
bfs -0.0605961 -0.0324479 5.20918 -0.0796277 -0.00140892 -0.0302292 -0.0310461 -0.0465675 0.0597812 -0.0160876
bfs -0.0605961 -0.0324479 5.20918 -0.0796277 -0.00140892 -0.0302292 -0.0310461 -0.0465675 0.0597812 -0.0160876
bfs 1.3692 4.21545 9.12861 -0.0387855 3.17867 -0.0299182 -0.0224977 -0.0305028 3.17931 -0.0619935
bfs -0.00165416 5.07174 11.0798 -0.0734162 -0.0648216 4.39928 -0.0274706 4.6221 0.0215029 -0.0605987
bfs -0.00625839 -0.0053906 8.08295 -0.083867 3.6625 -0.00621808 -0.0268942 -0.0104054 2.46314 -0.0392609
bfs -0.060281 0.623472 7.39588 -0.00897787 3.30247 -0.0708227 -0.0342322 4.55636 -0.0232679 0.332597
bfs -0.0714863 -0.0149634 7.89391 -0.0596841 2.89976 -0.0137984 0.710583 5.16508 2.67938 -0.0345546
dfs 1.32003 -0.0845609 5.31605 0.412994 -0.0304602 8.15599 -0.00300668 -0.00810214 2.93924 -0.119764
dfs -0.0238912 -0.0669782 -0.0144959 5.08817 -0.0169155 8.34173 1.23169 4.49314 0.113273 -0.053523
dfs -0.0461549 -0.0273502 -0.0294734 -0.00124866 0.900169 -0.0841505 -0.0242584 0.173485 -0.0142358 -0.00579702
dfs -0.0451332 -0.00103783 3.51531 -0.0052156 -0.00427328 9.2281 -0.09143 3.61201 3.428 -0.0610259
dfs -0.0451332 -0.00103783 3.51531 -0.0052156 -0.00427328 9.2281 -0.09143 3.61201 3.428 -0.0610259
dfs -0.0451332 -0.00103783 3.51531 -0.0052156 -0.00427328 9.2281 -0.09143 3.61201 3.428 -0.0610259
dfs 1.32003 -0.0845609 5.31605 0.412994 -0.0304602 8.15599 -0.00300668 -0.00810214 2.93924 -0.119764
dfs 3.6326 -0.0902903 -0.0292284 5.22108 -0.0732996 5.33839 -0.0227948 -0.0185791 4.49279 -0.0741928
dfs -0.0162293 -0.0636938 1.15324 -0.00870604 1.76666 7.17678 -0.0343723 3.00429 -0.0763876 2.32103
dfs -0.0451332 -0.00103783 3.51531 -0.0052156 -0.00427328 9.2281 -0.09143 3.61201 3.428 -0.0610259
dfs 1.81129 -0.0202562 -0.0290408 3.86393 -0.0103659 6.00208 1.38397 -0.0361402 3.29019 -0.106295
dfs -0.0451332 -0.00103783 3.51531 -0.0052156 -0.00427328 9.2281 -0.09143 3.61201 3.428 -0.0610259
dfs -0.0451332 -0.00103783 3.51531 -0.0052156 -0.00427328 9.2281 -0.09143 3.61201 3.428 -0.0610259
dfs -0.0451332 -0.00103783 3.51531 -0.0052156 -0.00427328 9.2281 -0.09143 3.61201 3.428 -0.0610259
dfs 1.81129 -0.0202562 -0.0290408 3.86393 -0.0103659 6.00208 1.38397 -0.0361402 3.29019 -0.106295
dfs -0.0431152 -0.0880272 -0.017825 -0.00585646 -0.0404367 7.01041 -0.00901407 -0.038284 0.43295 -0.0436504
dfs -0.0451332 -0.00103783 3.51531 -0.0052156 -0.00427328 9.2281 -0.09143 3.61201 3.428 -0.0610259
dfs -0.0451332 -0.00103783 3.51531 -0.0052156 -0.00427328 9.2281 -0.09143 3.61201 3.428 -0.0610259
dfs -0.0451332 -0.00103783 3.51531 -0.0052156 -0.00427328 9.2281 -0.09143 3.61201 3.428 -0.0610259
dfs -0.0451332 -0.00103783 3.51531 -0.0052156 -0.00427328 9.2281 -0.09143 3.61201 3.428 -0.0610259
dfs -0.0431152 -0.0880272 -0.017825 -0.00585646 -0.0404367 7.01041 -0.00901407 -0.038284 0.43295 -0.0436504
dfs -0.0451332 -0.00103783 3.51531 -0.0052156 -0.00427328 9.2281 -0.09143 3.61201 3.428 -0.0610259
dfs 1.81129 -0.0202562 -0.0290408 3.86393 -0.0103659 6.00208 1.38397 -0.0361402 3.29019 -0.106295
dfs 1.32003 -0.0845609 5.31605 0.412994 -0.0304602 8.15599 -0.00300668 -0.00810214 2.93924 -0.119764
dfs -0.0461549 -0.0273502 -0.0294734 -0.00124866 0.900169 -0.0841505 -0.0242584 0.173485 -0.0142358 -0.00579702
dfs -0.0431152 -0.0880272 -0.017825 -0.00585646 -0.0404367 7.01041 -0.00901407 -0.038284 0.43295 -0.0436504
dfs 1.32003 -0.0845609 5.31605 0.412994 -0.0304602 8.15599 -0.00300668 -0.00810214 2.93924 -0.119764
dfs -0.0431152 -0.0880272 -0.017825 -0.00585646 -0.0404367 7.01041 -0.00901407 -0.038284 0.43295 -0.0436504
dfs -0.0451332 -0.00103783 3.51531 -0.0052156 -0.00427328 9.2281 -0.09143 3.61201 3.428 -0.0610259
dfs -0.0238912 -0.0669782 -0.0144959 5.08817 -0.0169155 8.34173 1.23169 4.49314 0.113273 -0.053523
dfs -0.0162293 -0.0636938 1.15324 -0.00870604 1.76666 7.17678 -0.0343723 3.00429 -0.0763876 2.32103
dfs -0.0461549 -0.0273502 -0.0294734 -0.00124866 0.900169 -0.0841505 -0.0242584 0.173485 -0.0142358 -0.00579702
dfs -0.0431152 -0.0880272 -0.017825 -0.00585646 -0.0404367 7.01041 -0.00901407 -0.038284 0.43295 -0.0436504
dfs -0.0451332 -0.00103783 3.51531 -0.0052156 -0.00427328 9.2281 -0.09143 3.61201 3.428 -0.0610259
dfs -0.0461549 -0.0273502 -0.0294734 -0.00124866 0.900169 -0.0841505 -0.0242584 0.173485 -0.0142358 -0.00579702
dfs -0.0162293 -0.0636938 1.15324 -0.00870604 1.76666 7.17678 -0.0343723 3.00429 -0.0763876 2.32103
dfs -0.0431152 -0.0880272 -0.017825 -0.00585646 -0.0404367 7.01041 -0.00901407 -0.038284 0.43295 -0.0436504
dfs -0.0238912 -0.0669782 -0.0144959 5.08817 -0.0169155 8.34173 1.23169 4.49314 0.113273 -0.053523
dfs -0.0451332 -0.00103783 3.51531 -0.0052156 -0.00427328 9.2281 -0.09143 3.61201 3.428 -0.0610259
dfs -0.0238912 -0.0669782 -0.0144959 5.08817 -0.0169155 8.34173 1.23169 4.49314 0.113273 -0.053523
dfs 1.32003 -0.0845609 5.31605 0.412994 -0.0304602 8.15599 -0.00300668 -0.00810214 2.93924 -0.119764
dfs -0.0451332 -0.00103783 3.51531 -0.0052156 -0.00427328 9.2281 -0.09143 3.61201 3.428 -0.0610259
dfs 1.32003 -0.0845609 5.31605 0.412994 -0.0304602 8.15599 -0.00300668 -0.00810214 2.93924 -0.119764
quicksort -0.0226307 -0.0555357 -0.0326739 7.34847 2.01657 -0.0640863 -0.0131105 2.79375 3.16541 -0.0203074
quicksort -0.0432323 -0.0593138 -0.0082032 1.27099 3.87399 0.270843 -0.010018 4.77878 1.03043 -0.0223639
quicksort 3.5158 -0.0149605 -0.00904409 7.57075 -0.00153047 -0.0116841 -0.0555151 6.78845 3.86821 -0.0577947
quicksort -0.0112841 -0.136721 -0.0368951 14.5529 -0.0353088 0.159133 1.46766 -0.0270335 1.74049 -0.121811
quicksort 3.5158 -0.0149605 -0.00904409 7.57075 -0.00153047 -0.0116841 -0.0555151 6.78845 3.86821 -0.0577947
quicksort -0.00831542 -0.0320923 -0.0469168 9.1213 5.15574 -0.0125652 1.91375 3.15498 -0.0119945 -0.0603365
quicksort 7.13519 -0.0213738 -0.0253999 10.9893 0.996176 2.40084 1.39505 5.2285 3.62182 -0.0918354
quicksort 3.5158 -0.0149605 -0.00904409 7.57075 -0.00153047 -0.0116841 -0.0555151 6.78845 3.86821 -0.0577947
quicksort 4.73965 -0.0638875 -0.0126706 13.9381 -0.0184616 0.0403228 3.33451 5.69884 1.29648 -0.096386
quicksort -0.0360289 -0.0641944 -0.0743944 15.2357 -0.0575396 -0.0542357 1.03083 1.86808 0.168729 -0.0638353
quicksort 2.81015 -0.0469346 -0.0237692 10.7527 1.58329 1.40109 1.20495 2.0953 -0.0129916 -0.0600875
quicksort 2.81015 -0.0469346 -0.0237692 10.7527 1.58329 1.40109 1.20495 2.0953 -0.0129916 -0.0600875
quicksort 0.19663 -0.0666652 -0.0319462 9.19879 -0.0293126 -0.0212991 2.92207 0.385499 1.46098 -0.0498664
quicksort -0.0262346 -0.0453321 -0.0159194 8.85962 -0.075045 -0.0547086 -0.00824213 -0.0341494 -0.0032342 3.46381
quicksort -0.00575388 -0.0392757 -0.049705 14.7071 -0.0283695 -0.0372037 -0.0293671 4.82306 0.0712388 -0.0329774
quicksort 7.13519 -0.0213738 -0.0253999 10.9893 0.996176 2.40084 1.39505 5.2285 3.62182 -0.0918354
quicksort 1.90743 -0.0705518 -0.00276492 12.3469 -0.044461 -0.034761 -0.0341864 4.39837 5.40095 -0.0779843
quicksort -0.0283416 -0.119671 -0.0171348 7.81123 -0.0384391 -0.00472953 0.614319 1.15119 1.31826 -0.0351502
quicksort 0.608066 -0.0696749 -0.014886 12.188 -0.00377149 -0.000121313 -0.0191385 1.318 -0.0145096 -0.0478973
quicksort -0.0262346 -0.0453321 -0.0159194 8.85962 -0.075045 -0.0547086 -0.00824213 -0.0341494 -0.0032342 3.46381
quicksort 0.608066 -0.0696749 -0.014886 12.188 -0.00377149 -0.000121313 -0.0191385 1.318 -0.0145096 -0.0478973
quicksort 2.95325 -0.108568 -0.0442375 8.81918 2.78642 1.11314 0.616137 -0.0030409 -0.0685463 -0.0153383
quicksort 1.90743 -0.0705518 -0.00276492 12.3469 -0.044461 -0.034761 -0.0341864 4.39837 5.40095 -0.0779843
quicksort -0.0603601 -0.0809393 -0.00704119 9.3 -0.0814617 -0.0443448 4.97885 0.532544 4.76776 -0.0204582
quicksort 0.19663 -0.0666652 -0.0319462 9.19879 -0.0293126 -0.0212991 2.92207 0.385499 1.46098 -0.0498664
quicksort 2.95325 -0.108568 -0.0442375 8.81918 2.78642 1.11314 0.616137 -0.0030409 -0.0685463 -0.0153383
quicksort 2.95325 -0.108568 -0.0442375 8.81918 2.78642 1.11314 0.616137 -0.0030409 -0.0685463 -0.0153383
quicksort -0.0262346 -0.0453321 -0.0159194 8.85962 -0.075045 -0.0547086 -0.00824213 -0.0341494 -0.0032342 3.46381
quicksort 4.0931 -0.00301892 0.854169 10.0742 -0.0241542 -0.024237 -0.0619219 -0.0452858 -0.0147403 -0.0908075
quicksort 0.19663 -0.0666652 -0.0319462 9.19879 -0.0293126 -0.0212991 2.92207 0.385499 1.46098 -0.0498664
quicksort -0.0283416 -0.119671 -0.0171348 7.81123 -0.0384391 -0.00472953 0.614319 1.15119 1.31826 -0.0351502
quicksort 2.95325 -0.108568 -0.0442375 8.81918 2.78642 1.11314 0.616137 -0.0030409 -0.0685463 -0.0153383
quicksort 0.19663 -0.0666652 -0.0319462 9.19879 -0.0293126 -0.0212991 2.92207 0.385499 1.46098 -0.0498664
quicksort -0.0262346 -0.0453321 -0.0159194 8.85962 -0.075045 -0.0547086 -0.00824213 -0.0341494 -0.0032342 3.46381
quicksort 1.90743 -0.0705518 -0.00276492 12.3469 -0.044461 -0.034761 -0.0341864 4.39837 5.40095 -0.0779843
quicksort -0.0226307 -0.0555357 -0.0326739 7.34847 2.01657 -0.0640863 -0.0131105 2.79375 3.16541 -0.0203074
quicksort 2.95325 -0.108568 -0.0442375 8.81918 2.78642 1.11314 0.616137 -0.0030409 -0.0685463 -0.0153383
quicksort 4.73965 -0.0638875 -0.0126706 13.9381 -0.0184616 0.0403228 3.33451 5.69884 1.29648 -0.096386
quicksort -0.0832422 -0.116019 -0.0384451 9.86045 1.04118 2.95856 3.6356 2.923 -0.0117406 -0.049815
quicksort -0.0226307 -0.0555357 -0.0326739 7.34847 2.01657 -0.0640863 -0.0131105 2.79375 3.16541 -0.0203074
quicksort -0.0832422 -0.116019 -0.0384451 9.86045 1.04118 2.95856 3.6356 2.923 -0.0117406 -0.049815
quicksort 2.81015 -0.0469346 -0.0237692 10.7527 1.58329 1.40109 1.20495 2.0953 -0.0129916 -0.0600875
quicksort 0.0965541 -0.0917347 -0.0382935 9.3791 -0.0365016 -0.015371 1.06641 -0.0136173 4.7556 -0.0868504
quicksort -0.0283416 -0.119671 -0.0171348 7.81123 -0.0384391 -0.00472953 0.614319 1.15119 1.31826 -0.0351502
quicksort -0.0283416 -0.119671 -0.0171348 7.81123 -0.0384391 -0.00472953 0.614319 1.15119 1.31826 -0.0351502
quicksort -0.0832422 -0.116019 -0.0384451 9.86045 1.04118 2.95856 3.6356 2.923 -0.0117406 -0.049815
quicksort 1.90743 -0.0705518 -0.00276492 12.3469 -0.044461 -0.034761 -0.0341864 4.39837 5.40095 -0.0779843
quicksort 2.95325 -0.108568 -0.0442375 8.81918 2.78642 1.11314 0.616137 -0.0030409 -0.0685463 -0.0153383
quicksort -0.00831542 -0.0320923 -0.0469168 9.1213 5.15574 -0.0125652 1.91375 3.15498 -0.0119945 -0.0603365
quicksort 1.90743 -0.0705518 -0.00276492 12.3469 -0.044461 -0.034761 -0.0341864 4.39837 5.40095 -0.0779843
quicksort 4.73965 -0.0638875 -0.0126706 13.9381 -0.0184616 0.0403228 3.33451 5.69884 1.29648 -0.096386
quicksort -0.0226307 -0.0555357 -0.0326739 7.34847 2.01657 -0.0640863 -0.0131105 2.79375 3.16541 -0.0203074
quicksort 3.5158 -0.0149605 -0.00904409 7.57075 -0.00153047 -0.0116841 -0.0555151 6.78845 3.86821 -0.0577947
quicksort 1.46319 -0.0800467 -0.00367036 11.4682 -0.0134791 -0.00357827 -0.0167551 3.00106 6.90347 -0.0586448
quicksort 4.73965 -0.0638875 -0.0126706 13.9381 -0.0184616 0.0403228 3.33451 5.69884 1.29648 -0.096386
quicksort -0.0832422 -0.116019 -0.0384451 9.86045 1.04118 2.95856 3.6356 2.923 -0.0117406 -0.049815
quicksort -0.0262346 -0.0453321 -0.0159194 8.85962 -0.075045 -0.0547086 -0.00824213 -0.0341494 -0.0032342 3.46381
quicksort 0.249865 -0.0595322 -0.0187602 11.72 -0.0618587 -0.0387454 -0.0180778 2.2864 3.51526 -0.0354306
quicksort -0.00575388 -0.0392757 -0.049705 14.7071 -0.0283695 -0.0372037 -0.0293671 4.82306 0.0712388 -0.0329774
quicksort -0.0226307 -0.0555357 -0.0326739 7.34847 2.01657 -0.0640863 -0.0131105 2.79375 3.16541 -0.0203074
quicksort 0.249865 -0.0595322 -0.0187602 11.72 -0.0618587 -0.0387454 -0.0180778 2.2864 3.51526 -0.0354306
quicksort 0.249865 -0.0595322 -0.0187602 11.72 -0.0618587 -0.0387454 -0.0180778 2.2864 3.51526 -0.0354306
quicksort -0.00575388 -0.0392757 -0.049705 14.7071 -0.0283695 -0.0372037 -0.0293671 4.82306 0.0712388 -0.0329774
quicksort 0.0965541 -0.0917347 -0.0382935 9.3791 -0.0365016 -0.015371 1.06641 -0.0136173 4.7556 -0.0868504
quicksort -0.0112841 -0.136721 -0.0368951 14.5529 -0.0353088 0.159133 1.46766 -0.0270335 1.74049 -0.121811
quicksort -0.0832422 -0.116019 -0.0384451 9.86045 1.04118 2.95856 3.6356 2.923 -0.0117406 -0.049815
quicksort 1.90743 -0.0705518 -0.00276492 12.3469 -0.044461 -0.034761 -0.0341864 4.39837 5.40095 -0.0779843
quicksort 1.46319 -0.0800467 -0.00367036 11.4682 -0.0134791 -0.00357827 -0.0167551 3.00106 6.90347 -0.0586448
quicksort 2.81015 -0.0469346 -0.0237692 10.7527 1.58329 1.40109 1.20495 2.0953 -0.0129916 -0.0600875
quicksort 4.0931 -0.00301892 0.854169 10.0742 -0.0241542 -0.024237 -0.0619219 -0.0452858 -0.0147403 -0.0908075
quicksort -0.0832422 -0.116019 -0.0384451 9.86045 1.04118 2.95856 3.6356 2.923 -0.0117406 -0.049815
quicksort 0.0965541 -0.0917347 -0.0382935 9.3791 -0.0365016 -0.015371 1.06641 -0.0136173 4.7556 -0.0868504
quicksort -0.00831542 -0.0320923 -0.0469168 9.1213 5.15574 -0.0125652 1.91375 3.15498 -0.0119945 -0.0603365
quicksort 4.73965 -0.0638875 -0.0126706 13.9381 -0.0184616 0.0403228 3.33451 5.69884 1.29648 -0.096386
quicksort 4.41669 -0.108609 2.78833 8.3012 -0.0327511 3.63058 -0.0684713 -0.0299496 2.19566 -0.0954218
quicksort -0.0283416 -0.119671 -0.0171348 7.81123 -0.0384391 -0.00472953 0.614319 1.15119 1.31826 -0.0351502
quicksort -0.00575388 -0.0392757 -0.049705 14.7071 -0.0283695 -0.0372037 -0.0293671 4.82306 0.0712388 -0.0329774
quicksort 3.5158 -0.0149605 -0.00904409 7.57075 -0.00153047 -0.0116841 -0.0555151 6.78845 3.86821 -0.0577947
quicksort 2.95325 -0.108568 -0.0442375 8.81918 2.78642 1.11314 0.616137 -0.0030409 -0.0685463 -0.0153383
quicksort 4.73965 -0.0638875 -0.0126706 13.9381 -0.0184616 0.0403228 3.33451 5.69884 1.29648 -0.096386
quicksort 2.87633 -0.124461 -0.0447443 8.71861 -0.0252062 0.578071 4.89962 -0.0424996 0.672036 -0.0760778
quicksort -0.0226307 -0.0555357 -0.0326739 7.34847 2.01657 -0.0640863 -0.0131105 2.79375 3.16541 -0.0203074
quicksort -0.0360289 -0.0641944 -0.0743944 15.2357 -0.0575396 -0.0542357 1.03083 1.86808 0.168729 -0.0638353
quicksort -0.0226307 -0.0555357 -0.0326739 7.34847 2.01657 -0.0640863 -0.0131105 2.79375 3.16541 -0.0203074
quicksort 4.0931 -0.00301892 0.854169 10.0742 -0.0241542 -0.024237 -0.0619219 -0.0452858 -0.0147403 -0.0908075
quicksort 1.90743 -0.0705518 -0.00276492 12.3469 -0.044461 -0.034761 -0.0341864 4.39837 5.40095 -0.0779843
quicksort 0.608066 -0.0696749 -0.014886 12.188 -0.00377149 -0.000121313 -0.0191385 1.318 -0.0145096 -0.0478973
quicksort 5.68569 -0.0381328 -0.024639 13.1226 0.816206 -0.0163177 1.25585 -0.011861 3.24 -0.146742
quicksort -0.0360289 -0.0641944 -0.0743944 15.2357 -0.0575396 -0.0542357 1.03083 1.86808 0.168729 -0.0638353
heap -0.0171705 2.51654 1.82918 0.394954 4.65825 0.72471 -0.0384568 12.4992 1.80621 -0.0773676
heap -0.0887547 -0.0689935 2.53911 -0.0552045 -0.00335964 -0.0731983 -0.0214948 11.0954 1.56159 2.90546
heap -0.0887547 -0.0689935 2.53911 -0.0552045 -0.00335964 -0.0731983 -0.0214948 11.0954 1.56159 2.90546
heap -0.086124 0.537783 1.73327 -0.00556326 5.31339 0.610745 -0.118724 14.4928 1.60194 -0.00612047
heap -0.086124 0.537783 1.73327 -0.00556326 5.31339 0.610745 -0.118724 14.4928 1.60194 -0.00612047
heap -0.129265 14.6433 1.08169 -0.103254 -0.0695319 -0.0828712 3.19364 -0.0279207 4.78555 6.71956
heap -0.0171705 2.51654 1.82918 0.394954 4.65825 0.72471 -0.0384568 12.4992 1.80621 -0.0773676
heap -0.130766 3.563 1.55787 -0.111776 4.80236 -0.0334856 -0.0568404 6.23731 2.9561 2.0614
heap -0.0887547 -0.0689935 2.53911 -0.0552045 -0.00335964 -0.0731983 -0.0214948 11.0954 1.56159 2.90546
heap -0.086124 0.537783 1.73327 -0.00556326 5.31339 0.610745 -0.118724 14.4928 1.60194 -0.00612047
heap -0.0256538 -0.024214 3.24567 2.59262 4.08905 1.20945 -0.055536 11.0817 -0.0133699 -0.0396852
heap -0.0171705 2.51654 1.82918 0.394954 4.65825 0.72471 -0.0384568 12.4992 1.80621 -0.0773676
heap -0.0171705 2.51654 1.82918 0.394954 4.65825 0.72471 -0.0384568 12.4992 1.80621 -0.0773676
heap -0.0861653 -0.0549881 -0.00102564 -0.0153456 -0.0112194 -0.0211814 -0.02664 -0.0653212 -0.0194715 -0.0281229
heap -0.0171705 2.51654 1.82918 0.394954 4.65825 0.72471 -0.0384568 12.4992 1.80621 -0.0773676
heap -0.0171705 2.51654 1.82918 0.394954 4.65825 0.72471 -0.0384568 12.4992 1.80621 -0.0773676
heap -0.110871 -0.00198362 4.39518 -0.102295 4.736 -0.0227031 -0.0479298 13.1895 4.17069 3.27828
heap -0.110871 -0.00198362 4.39518 -0.102295 4.736 -0.0227031 -0.0479298 13.1895 4.17069 3.27828
heap -0.0887547 -0.0689935 2.53911 -0.0552045 -0.00335964 -0.0731983 -0.0214948 11.0954 1.56159 2.90546
heap -0.0887547 -0.0689935 2.53911 -0.0552045 -0.00335964 -0.0731983 -0.0214948 11.0954 1.56159 2.90546
heap -0.086124 0.537783 1.73327 -0.00556326 5.31339 0.610745 -0.118724 14.4928 1.60194 -0.00612047
heap 2.39434 -0.0690987 3.21019 1.88435 2.57638 2.99677 -0.0615565 14.2523 0.818701 -0.0425333
heap -0.0171705 2.51654 1.82918 0.394954 4.65825 0.72471 -0.0384568 12.4992 1.80621 -0.0773676
heap -0.0887547 -0.0689935 2.53911 -0.0552045 -0.00335964 -0.0731983 -0.0214948 11.0954 1.56159 2.90546
heap -0.086124 0.537783 1.73327 -0.00556326 5.31339 0.610745 -0.118724 14.4928 1.60194 -0.00612047
heap -0.086124 0.537783 1.73327 -0.00556326 5.31339 0.610745 -0.118724 14.4928 1.60194 -0.00612047
heap -0.0171705 2.51654 1.82918 0.394954 4.65825 0.72471 -0.0384568 12.4992 1.80621 -0.0773676
heap -0.0887547 -0.0689935 2.53911 -0.0552045 -0.00335964 -0.0731983 -0.0214948 11.0954 1.56159 2.90546
heap -0.086124 0.537783 1.73327 -0.00556326 5.31339 0.610745 -0.118724 14.4928 1.60194 -0.00612047
heap -0.086124 0.537783 1.73327 -0.00556326 5.31339 0.610745 -0.118724 14.4928 1.60194 -0.00612047
heap -0.086124 0.537783 1.73327 -0.00556326 5.31339 0.610745 -0.118724 14.4928 1.60194 -0.00612047
heap -0.0256538 -0.024214 3.24567 2.59262 4.08905 1.20945 -0.055536 11.0817 -0.0133699 -0.0396852
heap -0.086124 0.537783 1.73327 -0.00556326 5.31339 0.610745 -0.118724 14.4928 1.60194 -0.00612047
heap -0.0887547 -0.0689935 2.53911 -0.0552045 -0.00335964 -0.0731983 -0.0214948 11.0954 1.56159 2.90546
heap -0.0256538 -0.024214 3.24567 2.59262 4.08905 1.20945 -0.055536 11.0817 -0.0133699 -0.0396852
heap -0.0171705 2.51654 1.82918 0.394954 4.65825 0.72471 -0.0384568 12.4992 1.80621 -0.0773676
heap -0.0256538 -0.024214 3.24567 2.59262 4.08905 1.20945 -0.055536 11.0817 -0.0133699 -0.0396852
heap -0.0171705 2.51654 1.82918 0.394954 4.65825 0.72471 -0.0384568 12.4992 1.80621 -0.0773676
heap -0.0171705 2.51654 1.82918 0.394954 4.65825 0.72471 -0.0384568 12.4992 1.80621 -0.0773676
heap 2.39434 -0.0690987 3.21019 1.88435 2.57638 2.99677 -0.0615565 14.2523 0.818701 -0.0425333
heap -0.086124 0.537783 1.73327 -0.00556326 5.31339 0.610745 -0.118724 14.4928 1.60194 -0.00612047
heap -0.0861653 -0.0549881 -0.00102564 -0.0153456 -0.0112194 -0.0211814 -0.02664 -0.0653212 -0.0194715 -0.0281229
heap -0.086124 0.537783 1.73327 -0.00556326 5.31339 0.610745 -0.118724 14.4928 1.60194 -0.00612047
heap -0.110871 -0.00198362 4.39518 -0.102295 4.736 -0.0227031 -0.0479298 13.1895 4.17069 3.27828
heap -0.086124 0.537783 1.73327 -0.00556326 5.31339 0.610745 -0.118724 14.4928 1.60194 -0.00612047
bubblesort -0.00318705 -0.0177853 -0.0145956 0.13796 -0.0127571 -0.00962994 5.12219 -0.0602222 0.50587 -0.00525279
bubblesort -0.122376 -0.076009 -0.0122943 -0.0137945 -0.00446015 -0.0344171 8.0773 2.89054 2.40207 1.41491
bubblesort -0.0508523 -0.00446942 0.593509 -0.0149873 4.36251 1.0443 6.06593 -0.0209822 2.20985 -0.0350075
bubblesort -0.0305373 -0.0166657 1.93536 -0.0120285 -0.0283789 -0.0279651 5.15831 -0.0445405 3.08995 0.126083
bubblesort -0.0305373 -0.0166657 1.93536 -0.0120285 -0.0283789 -0.0279651 5.15831 -0.0445405 3.08995 0.126083
bubblesort -0.122376 -0.076009 -0.0122943 -0.0137945 -0.00446015 -0.0344171 8.0773 2.89054 2.40207 1.41491
bubblesort -0.122376 -0.076009 -0.0122943 -0.0137945 -0.00446015 -0.0344171 8.0773 2.89054 2.40207 1.41491
bubblesort -0.0305373 -0.0166657 1.93536 -0.0120285 -0.0283789 -0.0279651 5.15831 -0.0445405 3.08995 0.126083
bubblesort 1.20834 -0.00361128 -0.0133833 -0.0153795 0.525376 -0.0555131 4.96126 -0.113563 0.386097 -0.00528926
bubblesort -0.122376 -0.076009 -0.0122943 -0.0137945 -0.00446015 -0.0344171 8.0773 2.89054 2.40207 1.41491
bubblesort -0.0678422 -0.000108679 2.51252 -0.0419078 -0.00186843 -0.0845655 8.33049 -0.108968 4.04041 -0.0292541
bubblesort -0.122376 -0.076009 -0.0122943 -0.0137945 -0.00446015 -0.0344171 8.0773 2.89054 2.40207 1.41491
bubblesort -0.122376 -0.076009 -0.0122943 -0.0137945 -0.00446015 -0.0344171 8.0773 2.89054 2.40207 1.41491
bubblesort -0.00318705 -0.0177853 -0.0145956 0.13796 -0.0127571 -0.00962994 5.12219 -0.0602222 0.50587 -0.00525279
bubblesort -0.0119429 -0.0781043 -0.0415808 4.87987 -0.0130216 -0.0176291 9.27481 -0.0690366 2.56054 -0.0667257
bubblesort 1.20834 -0.00361128 -0.0133833 -0.0153795 0.525376 -0.0555131 4.96126 -0.113563 0.386097 -0.00528926
bubblesort -0.0792635 1.22594 -0.0740985 0.963823 4.98798 -0.007567 8.61486 -0.0178069 -0.0138522 0.987918
bubblesort -0.0678422 -0.000108679 2.51252 -0.0419078 -0.00186843 -0.0845655 8.33049 -0.108968 4.04041 -0.0292541
bubblesort -0.0792635 1.22594 -0.0740985 0.963823 4.98798 -0.007567 8.61486 -0.0178069 -0.0138522 0.987918
bubblesort -0.122376 -0.076009 -0.0122943 -0.0137945 -0.00446015 -0.0344171 8.0773 2.89054 2.40207 1.41491
bubblesort -0.0678422 -0.000108679 2.51252 -0.0419078 -0.00186843 -0.0845655 8.33049 -0.108968 4.04041 -0.0292541
bubblesort -0.0305373 -0.0166657 1.93536 -0.0120285 -0.0283789 -0.0279651 5.15831 -0.0445405 3.08995 0.126083
bubblesort -0.0792635 1.22594 -0.0740985 0.963823 4.98798 -0.007567 8.61486 -0.0178069 -0.0138522 0.987918
bubblesort -0.0508523 -0.00446942 0.593509 -0.0149873 4.36251 1.0443 6.06593 -0.0209822 2.20985 -0.0350075
bubblesort -0.0792635 1.22594 -0.0740985 0.963823 4.98798 -0.007567 8.61486 -0.0178069 -0.0138522 0.987918
bubblesort -0.0747669 -0.0607417 1.5529 -0.0170876 0.380692 -0.0219428 4.16062 -0.0223268 -0.00612463 -0.017861
bubblesort 1.20834 -0.00361128 -0.0133833 -0.0153795 0.525376 -0.0555131 4.96126 -0.113563 0.386097 -0.00528926
bubblesort -0.0747669 -0.0607417 1.5529 -0.0170876 0.380692 -0.0219428 4.16062 -0.0223268 -0.00612463 -0.017861
bubblesort -0.0508523 -0.00446942 0.593509 -0.0149873 4.36251 1.0443 6.06593 -0.0209822 2.20985 -0.0350075
bubblesort -0.00318705 -0.0177853 -0.0145956 0.13796 -0.0127571 -0.00962994 5.12219 -0.0602222 0.50587 -0.00525279
bubblesort -0.0242727 -0.0773855 -0.0245674 1.74522 -0.0281256 2.6829 5.68359 -0.0283585 1.29694 -0.00507123
bubblesort -0.122376 -0.076009 -0.0122943 -0.0137945 -0.00446015 -0.0344171 8.0773 2.89054 2.40207 1.41491
bubblesort -0.0678422 -0.000108679 2.51252 -0.0419078 -0.00186843 -0.0845655 8.33049 -0.108968 4.04041 -0.0292541
bubblesort -0.0508523 -0.00446942 0.593509 -0.0149873 4.36251 1.0443 6.06593 -0.0209822 2.20985 -0.0350075
bubblesort -0.0119429 -0.0781043 -0.0415808 4.87987 -0.0130216 -0.0176291 9.27481 -0.0690366 2.56054 -0.0667257
bubblesort -0.0678422 -0.000108679 2.51252 -0.0419078 -0.00186843 -0.0845655 8.33049 -0.108968 4.04041 -0.0292541
bubblesort -0.0678422 -0.000108679 2.51252 -0.0419078 -0.00186843 -0.0845655 8.33049 -0.108968 4.04041 -0.0292541
bubblesort -0.0419043 4.82452 2.10712 -0.0164651 -0.0267813 -0.0317194 -0.0110647 -0.00805856 0.196998 -0.0154925
bubblesort -0.0305373 -0.0166657 1.93536 -0.0120285 -0.0283789 -0.0279651 5.15831 -0.0445405 3.08995 0.126083
bubblesort -0.0508523 -0.00446942 0.593509 -0.0149873 4.36251 1.0443 6.06593 -0.0209822 2.20985 -0.0350075
mergesort 12.5253 -0.0788797 -0.00323242 8.00954 -0.00587956 3.94179 -0.0328846 10.6188 7.38828 -0.0819166
mergesort 11.7136 -0.0335486 1.41237 3.61868 0.80514 1.00942 -0.0172488 -0.0194111 2.19582 -0.0549052
mergesort 12.7558 -0.0321502 2.52367 6.33564 0.463462 3.26168 -0.01631 3.69846 2.32149 -0.103722
mergesort 9.3078 -0.0347161 -0.00367614 3.9935 4.3147 -0.0352972 -0.0743431 2.5391 1.99435 -0.0386367
mergesort 12.7558 -0.0321502 2.52367 6.33564 0.463462 3.26168 -0.01631 3.69846 2.32149 -0.103722
mergesort 10.7256 -0.0144441 0.500657 4.19583 2.94727 0.396666 -0.0102053 1.65063 2.46223 -0.035412
mergesort 9.3078 -0.0347161 -0.00367614 3.9935 4.3147 -0.0352972 -0.0743431 2.5391 1.99435 -0.0386367
mergesort 17.2971 -0.0915384 1.13308 4.46898 0.194141 2.33944 -0.0751809 -0.0137286 -0.00381572 -0.0671359
mergesort 10.7256 -0.0144441 0.500657 4.19583 2.94727 0.396666 -0.0102053 1.65063 2.46223 -0.035412
mergesort 12.7558 -0.0321502 2.52367 6.33564 0.463462 3.26168 -0.01631 3.69846 2.32149 -0.103722
mergesort 12.5253 -0.0788797 -0.00323242 8.00954 -0.00587956 3.94179 -0.0328846 10.6188 7.38828 -0.0819166
mergesort 8.53219 -0.0563513 2.03982 -0.00191763 0.0784592 -0.00858908 -0.00471295 -0.0679734 2.42446 -0.0650787
mergesort 8.53219 -0.0563513 2.03982 -0.00191763 0.0784592 -0.00858908 -0.00471295 -0.0679734 2.42446 -0.0650787
mergesort 10.7256 -0.0144441 0.500657 4.19583 2.94727 0.396666 -0.0102053 1.65063 2.46223 -0.035412
mergesort 9.3078 -0.0347161 -0.00367614 3.9935 4.3147 -0.0352972 -0.0743431 2.5391 1.99435 -0.0386367
mergesort 9.3078 -0.0347161 -0.00367614 3.9935 4.3147 -0.0352972 -0.0743431 2.5391 1.99435 -0.0386367
mergesort 9.3078 -0.0347161 -0.00367614 3.9935 4.3147 -0.0352972 -0.0743431 2.5391 1.99435 -0.0386367
mergesort 17.2971 -0.0915384 1.13308 4.46898 0.194141 2.33944 -0.0751809 -0.0137286 -0.00381572 -0.0671359
mergesort 10.7256 -0.0144441 0.500657 4.19583 2.94727 0.396666 -0.0102053 1.65063 2.46223 -0.035412
mergesort 10.7256 -0.0144441 0.500657 4.19583 2.94727 0.396666 -0.0102053 1.65063 2.46223 -0.035412
mergesort -0.0133457 -0.0131194 0.963091 -0.0181229 3.78342 -0.00851766 7.56796 -0.0195633 4.40128 -0.0623606
mergesort 9.3078 -0.0347161 -0.00367614 3.9935 4.3147 -0.0352972 -0.0743431 2.5391 1.99435 -0.0386367
mergesort 12.7558 -0.0321502 2.52367 6.33564 0.463462 3.26168 -0.01631 3.69846 2.32149 -0.103722
mergesort 10.7256 -0.0144441 0.500657 4.19583 2.94727 0.396666 -0.0102053 1.65063 2.46223 -0.035412
queue -0.00597804 -0.0224613 -0.0332151 -0.0321029 12.3021 -0.0288608 -0.0303832 2.83651 2.15863 -0.00416531
queue -0.074907 0.814118 -0.0448453 -0.0212509 11.8466 -0.0304337 -0.0248355 1.14853 -0.0250894 0.0951621
queue -0.00597804 -0.0224613 -0.0332151 -0.0321029 12.3021 -0.0288608 -0.0303832 2.83651 2.15863 -0.00416531
queue -0.0422592 5.0881 0.449918 -0.110697 15.44 -0.0901811 -0.0521035 4.97653 0.599841 6.65016
queue -0.0499579 2.83922 -0.0259952 -0.0949451 11.287 -0.0374524 -0.0658922 2.3549 2.80576 2.67191
queue -0.0499579 2.83922 -0.0259952 -0.0949451 11.287 -0.0374524 -0.0658922 2.3549 2.80576 2.67191
queue -0.0766471 -0.0322305 4.24211 1.43793 11.6977 -0.00142273 -0.0515683 3.93281 -0.0567312 -0.0555185
queue -0.0539093 5.02286 -0.0603364 -0.024729 11.832 -0.0602536 -0.0286062 -0.0216459 -0.00117096 5.14839
queue 2.129 -0.0117383 3.26134 -0.0402182 10.9198 -0.0583851 -0.0804208 -0.0233028 -0.0230436 2.76091
queue -0.00597804 -0.0224613 -0.0332151 -0.0321029 12.3021 -0.0288608 -0.0303832 2.83651 2.15863 -0.00416531
queue -0.0499579 2.83922 -0.0259952 -0.0949451 11.287 -0.0374524 -0.0658922 2.3549 2.80576 2.67191
queue -0.0266108 3.11475 -0.0210923 -0.0347305 16.2406 -0.0576082 -0.0433581 1.05603 0.935956 1.63832
queue -0.0724204 1.0586 -0.0540124 -0.0651594 10.0085 -0.0570327 -0.0212481 0.59907 -0.00935675 3.26579
queue -0.0258068 -0.05551 0.668308 -0.0101869 9.21414 -0.0584851 -0.0247756 3.75938 -0.00220301 0.511779
queue 2.129 -0.0117383 3.26134 -0.0402182 10.9198 -0.0583851 -0.0804208 -0.0233028 -0.0230436 2.76091
queue -0.0422592 5.0881 0.449918 -0.110697 15.44 -0.0901811 -0.0521035 4.97653 0.599841 6.65016
queue -0.00597804 -0.0224613 -0.0332151 -0.0321029 12.3021 -0.0288608 -0.0303832 2.83651 2.15863 -0.00416531
queue -0.00597804 -0.0224613 -0.0332151 -0.0321029 12.3021 -0.0288608 -0.0303832 2.83651 2.15863 -0.00416531
queue -0.0856399 -0.011946 -0.00432404 -0.0226787 7.95207 -0.037598 -0.104287 2.60966 -0.0522246 3.82028
queue -0.00597804 -0.0224613 -0.0332151 -0.0321029 12.3021 -0.0288608 -0.0303832 2.83651 2.15863 -0.00416531
queue -0.0370026 1.64698 -0.0318924 -0.0767444 0.0199367 -0.0689076 0.068594 -0.076528 -0.0228099 11.7435
queue -0.0723992 5.70257 -0.00228629 -0.112853 16.0085 -0.061906 -0.0587492 1.89031 -0.0244473 8.36689
queue -0.0766471 -0.0322305 4.24211 1.43793 11.6977 -0.00142273 -0.0515683 3.93281 -0.0567312 -0.0555185
queue -0.0766471 -0.0322305 4.24211 1.43793 11.6977 -0.00142273 -0.0515683 3.93281 -0.0567312 -0.0555185
queue -0.00597804 -0.0224613 -0.0332151 -0.0321029 12.3021 -0.0288608 -0.0303832 2.83651 2.15863 -0.00416531
queue -0.0539093 5.02286 -0.0603364 -0.024729 11.832 -0.0602536 -0.0286062 -0.0216459 -0.00117096 5.14839
queue -0.0126613 0.452543 4.80988 -0.0312289 10.6751 -0.00664427 -0.042663 1.79027 -0.030211 -0.0468777
queue -0.074907 0.814118 -0.0448453 -0.0212509 11.8466 -0.0304337 -0.0248355 1.14853 -0.0250894 0.0951621
queue -0.0968787 -0.00924607 5.61225 -0.0752614 9.90436 -0.0273088 -0.0991174 6.28177 0.472714 0.0615873
queue -0.0422592 5.0881 0.449918 -0.110697 15.44 -0.0901811 -0.0521035 4.97653 0.599841 6.65016
queue -0.112552 2.81964 -0.0110511 -0.0322312 10.1842 -0.0448869 -0.0472558 5.85486 -0.0740942 4.423
queue -0.0340987 0.510229 -0.0032984 -0.108133 12.5726 -0.0206548 0.747512 6.63012 4.82218 2.10746
queue -0.074907 0.814118 -0.0448453 -0.0212509 11.8466 -0.0304337 -0.0248355 1.14853 -0.0250894 0.0951621
queue -0.0766471 -0.0322305 4.24211 1.43793 11.6977 -0.00142273 -0.0515683 3.93281 -0.0567312 -0.0555185
queue 2.129 -0.0117383 3.26134 -0.0402182 10.9198 -0.0583851 -0.0804208 -0.0233028 -0.0230436 2.76091
queue -0.0723992 5.70257 -0.00228629 -0.112853 16.0085 -0.061906 -0.0587492 1.89031 -0.0244473 8.36689
queue -0.00597804 -0.0224613 -0.0332151 -0.0321029 12.3021 -0.0288608 -0.0303832 2.83651 2.15863 -0.00416531
queue -0.0539093 5.02286 -0.0603364 -0.024729 11.832 -0.0602536 -0.0286062 -0.0216459 -0.00117096 5.14839
queue -0.00597804 -0.0224613 -0.0332151 -0.0321029 12.3021 -0.0288608 -0.0303832 2.83651 2.15863 -0.00416531
queue -0.0426756 7.08759 -0.0407101 -0.0556918 15.6453 -0.0699871 -0.0502311 0.508927 -0.00901107 4.69898
queue -0.0266108 3.11475 -0.0210923 -0.0347305 16.2406 -0.0576082 -0.0433581 1.05603 0.935956 1.63832
queue -0.00597804 -0.0224613 -0.0332151 -0.0321029 12.3021 -0.0288608 -0.0303832 2.83651 2.15863 -0.00416531
queue 2.129 -0.0117383 3.26134 -0.0402182 10.9198 -0.0583851 -0.0804208 -0.0233028 -0.0230436 2.76091
queue -0.074907 0.814118 -0.0448453 -0.0212509 11.8466 -0.0304337 -0.0248355 1.14853 -0.0250894 0.0951621
queue -0.0340987 0.510229 -0.0032984 -0.108133 12.5726 -0.0206548 0.747512 6.63012 4.82218 2.10746
queue -0.0126613 0.452543 4.80988 -0.0312289 10.6751 -0.00664427 -0.042663 1.79027 -0.030211 -0.0468777
queue -0.0422592 5.0881 0.449918 -0.110697 15.44 -0.0901811 -0.0521035 4.97653 0.599841 6.65016
queue -0.0258068 -0.05551 0.668308 -0.0101869 9.21414 -0.0584851 -0.0247756 3.75938 -0.00220301 0.511779
queue -0.0723992 5.70257 -0.00228629 -0.112853 16.0085 -0.061906 -0.0587492 1.89031 -0.0244473 8.36689
queue -0.0499579 2.83922 -0.0259952 -0.0949451 11.287 -0.0374524 -0.0658922 2.3549 2.80576 2.67191
queue -0.074907 0.814118 -0.0448453 -0.0212509 11.8466 -0.0304337 -0.0248355 1.14853 -0.0250894 0.0951621
queue -0.0266108 3.11475 -0.0210923 -0.0347305 16.2406 -0.0576082 -0.0433581 1.05603 0.935956 1.63832
queue -0.0499579 2.83922 -0.0259952 -0.0949451 11.287 -0.0374524 -0.0658922 2.3549 2.80576 2.67191
queue -0.00597804 -0.0224613 -0.0332151 -0.0321029 12.3021 -0.0288608 -0.0303832 2.83651 2.15863 -0.00416531
queue 2.129 -0.0117383 3.26134 -0.0402182 10.9198 -0.0583851 -0.0804208 -0.0233028 -0.0230436 2.76091
queue -0.0126613 0.452543 4.80988 -0.0312289 10.6751 -0.00664427 -0.042663 1.79027 -0.030211 -0.0468777
queue -0.00597804 -0.0224613 -0.0332151 -0.0321029 12.3021 -0.0288608 -0.0303832 2.83651 2.15863 -0.00416531
queue -0.0126613 0.452543 4.80988 -0.0312289 10.6751 -0.00664427 -0.042663 1.79027 -0.030211 -0.0468777
queue -0.0499579 2.83922 -0.0259952 -0.0949451 11.287 -0.0374524 -0.0658922 2.3549 2.80576 2.67191
queue -0.0724204 1.0586 -0.0540124 -0.0651594 10.0085 -0.0570327 -0.0212481 0.59907 -0.00935675 3.26579
queue -0.00597804 -0.0224613 -0.0332151 -0.0321029 12.3021 -0.0288608 -0.0303832 2.83651 2.15863 -0.00416531
queue -0.0499579 2.83922 -0.0259952 -0.0949451 11.287 -0.0374524 -0.0658922 2.3549 2.80576 2.67191
queue -0.0527162 3.82799 -0.0549518 -0.0591985 11.6114 -0.0817007 -0.0424464 3.0282 1.45575 5.95138
queue -0.0724204 1.0586 -0.0540124 -0.0651594 10.0085 -0.0570327 -0.0212481 0.59907 -0.00935675 3.26579
queue -0.0258068 -0.05551 0.668308 -0.0101869 9.21414 -0.0584851 -0.0247756 3.75938 -0.00220301 0.511779
queue -0.0258068 -0.05551 0.668308 -0.0101869 9.21414 -0.0584851 -0.0247756 3.75938 -0.00220301 0.511779
queue -0.0258068 -0.05551 0.668308 -0.0101869 9.21414 -0.0584851 -0.0247756 3.75938 -0.00220301 0.511779
queue -0.0422592 5.0881 0.449918 -0.110697 15.44 -0.0901811 -0.0521035 4.97653 0.599841 6.65016
queue -0.00597804 -0.0224613 -0.0332151 -0.0321029 12.3021 -0.0288608 -0.0303832 2.83651 2.15863 -0.00416531
queue -0.112552 2.81964 -0.0110511 -0.0322312 10.1842 -0.0448869 -0.0472558 5.85486 -0.0740942 4.423
queue -0.00597804 -0.0224613 -0.0332151 -0.0321029 12.3021 -0.0288608 -0.0303832 2.83651 2.15863 -0.00416531
queue -0.0340987 0.510229 -0.0032984 -0.108133 12.5726 -0.0206548 0.747512 6.63012 4.82218 2.10746
queue -0.0723992 5.70257 -0.00228629 -0.112853 16.0085 -0.061906 -0.0587492 1.89031 -0.0244473 8.36689
queue -0.0723992 5.70257 -0.00228629 -0.112853 16.0085 -0.061906 -0.0587492 1.89031 -0.0244473 8.36689
queue -0.112552 2.81964 -0.0110511 -0.0322312 10.1842 -0.0448869 -0.0472558 5.85486 -0.0740942 4.423
queue -0.112552 2.81964 -0.0110511 -0.0322312 10.1842 -0.0448869 -0.0472558 5.85486 -0.0740942 4.423
queue -0.0422592 5.0881 0.449918 -0.110697 15.44 -0.0901811 -0.0521035 4.97653 0.599841 6.65016
queue 2.129 -0.0117383 3.26134 -0.0402182 10.9198 -0.0583851 -0.0804208 -0.0233028 -0.0230436 2.76091
queue -0.112552 2.81964 -0.0110511 -0.0322312 10.1842 -0.0448869 -0.0472558 5.85486 -0.0740942 4.423
queue -0.0126613 0.452543 4.80988 -0.0312289 10.6751 -0.00664427 -0.042663 1.79027 -0.030211 -0.0468777
queue -0.00597804 -0.0224613 -0.0332151 -0.0321029 12.3021 -0.0288608 -0.0303832 2.83651 2.15863 -0.00416531
queue -0.074907 0.814118 -0.0448453 -0.0212509 11.8466 -0.0304337 -0.0248355 1.14853 -0.0250894 0.0951621
queue -0.0266108 3.11475 -0.0210923 -0.0347305 16.2406 -0.0576082 -0.0433581 1.05603 0.935956 1.63832
queue -0.0724204 1.0586 -0.0540124 -0.0651594 10.0085 -0.0570327 -0.0212481 0.59907 -0.00935675 3.26579
queue -0.00597804 -0.0224613 -0.0332151 -0.0321029 12.3021 -0.0288608 -0.0303832 2.83651 2.15863 -0.00416531
linkedlist 1.41027 9.79248 0.819737 -0.0399606 1.35834 -0.0642905 -0.0828591 2.33113 3.62593 3.30705
linkedlist -0.0382564 7.23894 -0.0155406 -0.00274388 3.15739 -0.0440958 -0.0656722 0.292268 0.619329 1.43757
linkedlist 0.124404 9.48213 1.21885 -0.0563818 3.37192 -0.0546464 -0.0266335 -0.049651 -0.0063189 3.60891
linkedlist -0.0730822 10.4387 2.77911 -0.0311423 -0.0126664 -0.0820305 -0.069597 2.14385 2.90729 1.93164
linkedlist 1.93382 9.42932 2.33424 -0.108304 4.83367 -0.0449326 -0.0490524 -0.017301 3.95343 2.78679
linkedlist 1.41027 9.79248 0.819737 -0.0399606 1.35834 -0.0642905 -0.0828591 2.33113 3.62593 3.30705
linkedlist 0.124404 9.48213 1.21885 -0.0563818 3.37192 -0.0546464 -0.0266335 -0.049651 -0.0063189 3.60891
linkedlist -0.0730822 10.4387 2.77911 -0.0311423 -0.0126664 -0.0820305 -0.069597 2.14385 2.90729 1.93164
linkedlist -0.14096 13.9925 -0.00620801 -0.129036 6.1296 -0.0863977 -0.0493113 -0.0408672 -0.0128011 10.0876
linkedlist 1.41027 9.79248 0.819737 -0.0399606 1.35834 -0.0642905 -0.0828591 2.33113 3.62593 3.30705
linkedlist -0.133482 9.30117 2.55084 -0.0841535 1.03232 -0.0345306 -0.0258902 5.7035 1.34809 4.01921
linkedlist 1.93382 9.42932 2.33424 -0.108304 4.83367 -0.0449326 -0.0490524 -0.017301 3.95343 2.78679
linkedlist -0.0389114 7.67348 1.53751 -0.115329 4.37725 -0.0212314 -0.0232423 2.71558 -0.0040229 1.90346
linkedlist 1.692 7.36929 1.41428 -0.0488565 2.93864 -0.0190324 -0.0546682 3.15701 -0.00125936 -0.00910583
linkedlist 1.41027 9.79248 0.819737 -0.0399606 1.35834 -0.0642905 -0.0828591 2.33113 3.62593 3.30705
linkedlist 1.41027 9.79248 0.819737 -0.0399606 1.35834 -0.0642905 -0.0828591 2.33113 3.62593 3.30705
linkedlist -0.000906561 10.9747 1.388 -0.0525045 6.8139 -0.057704 -0.0199193 -0.0371739 2.48828 1.62721
linkedlist -0.0678233 11.909 1.92845 -0.0774602 -0.00424318 -0.0413011 -0.0338189 6.35566 4.55774 5.64388
linkedlist -0.0231096 6.63205 2.50373 -0.120348 6.2606 -0.0687235 -0.00748882 -0.102414 3.16061 1.58131
linkedlist -0.0637018 12.9058 1.64345 -0.0920208 2.70231 -0.0507629 -0.0726267 1.72671 4.24504 4.53883
linkedlist -0.0231096 6.63205 2.50373 -0.120348 6.2606 -0.0687235 -0.00748882 -0.102414 3.16061 1.58131
linkedlist -0.128931 6.08839 1.85241 -0.0739736 2.84731 -0.0306838 -0.0517211 2.6613 -0.0139809 1.00826
linkedlist -0.133482 9.30117 2.55084 -0.0841535 1.03232 -0.0345306 -0.0258902 5.7035 1.34809 4.01921
linkedlist -0.0326734 12.5512 -0.0564925 -0.00501751 6.90825 -0.0802999 -0.0343463 4.02056 3.76512 3.46613
linkedlist 0.124404 9.48213 1.21885 -0.0563818 3.37192 -0.0546464 -0.0266335 -0.049651 -0.0063189 3.60891
linkedlist -0.188332 10.9207 -0.00842907 -0.102987 8.56011 -0.0959416 -0.0130625 -0.0122717 -0.00196088 5.8012
linkedlist -0.0174512 10.7396 2.92428 -0.0202581 4.67557 -0.0369505 -0.0915587 6.97892 2.00935 -0.0285753
linkedlist -0.000906561 10.9747 1.388 -0.0525045 6.8139 -0.057704 -0.0199193 -0.0371739 2.48828 1.62721
linkedlist -0.133482 9.30117 2.55084 -0.0841535 1.03232 -0.0345306 -0.0258902 5.7035 1.34809 4.01921
linkedlist -0.0583512 8.36771 -0.00169529 -0.0656735 4.4699 -0.029692 -0.0164109 -0.0329342 -0.0148567 1.84554
linkedlist -0.0678233 11.909 1.92845 -0.0774602 -0.00424318 -0.0413011 -0.0338189 6.35566 4.55774 5.64388
linkedlist -0.0326734 12.5512 -0.0564925 -0.00501751 6.90825 -0.0802999 -0.0343463 4.02056 3.76512 3.46613
linkedlist -0.0389114 7.67348 1.53751 -0.115329 4.37725 -0.0212314 -0.0232423 2.71558 -0.0040229 1.90346
linkedlist -0.0637018 12.9058 1.64345 -0.0920208 2.70231 -0.0507629 -0.0726267 1.72671 4.24504 4.53883
linkedlist -0.068648 8.61066 -0.0641566 0.952813 0.851935 -0.038271 3.23297 -0.0403931 1.16845 3.20181
linkedlist -0.0382564 7.23894 -0.0155406 -0.00274388 3.15739 -0.0440958 -0.0656722 0.292268 0.619329 1.43757
linkedlist -0.0779168 14.3236 -0.0144467 -0.123755 6.89933 -0.0181498 -0.0162462 -0.0180621 -0.00227197 4.30488
linkedlist -0.133482 9.30117 2.55084 -0.0841535 1.03232 -0.0345306 -0.0258902 5.7035 1.34809 4.01921
linkedlist -0.0231096 6.63205 2.50373 -0.120348 6.2606 -0.0687235 -0.00748882 -0.102414 3.16061 1.58131
linkedlist -0.0389114 7.67348 1.53751 -0.115329 4.37725 -0.0212314 -0.0232423 2.71558 -0.0040229 1.90346
linkedlist -0.0389114 7.67348 1.53751 -0.115329 4.37725 -0.0212314 -0.0232423 2.71558 -0.0040229 1.90346
linkedlist -0.133482 9.30117 2.55084 -0.0841535 1.03232 -0.0345306 -0.0258902 5.7035 1.34809 4.01921
linkedlist -0.0730822 10.4387 2.77911 -0.0311423 -0.0126664 -0.0820305 -0.069597 2.14385 2.90729 1.93164
linkedlist 1.93382 9.42932 2.33424 -0.108304 4.83367 -0.0449326 -0.0490524 -0.017301 3.95343 2.78679
linkedlist -0.000906561 10.9747 1.388 -0.0525045 6.8139 -0.057704 -0.0199193 -0.0371739 2.48828 1.62721
linkedlist 1.692 7.36929 1.41428 -0.0488565 2.93864 -0.0190324 -0.0546682 3.15701 -0.00125936 -0.00910583
linkedlist -0.128931 6.08839 1.85241 -0.0739736 2.84731 -0.0306838 -0.0517211 2.6613 -0.0139809 1.00826
linkedlist -0.0326734 12.5512 -0.0564925 -0.00501751 6.90825 -0.0802999 -0.0343463 4.02056 3.76512 3.46613
linkedlist -0.0678233 11.909 1.92845 -0.0774602 -0.00424318 -0.0413011 -0.0338189 6.35566 4.55774 5.64388
linkedlist -0.0583512 8.36771 -0.00169529 -0.0656735 4.4699 -0.029692 -0.0164109 -0.0329342 -0.0148567 1.84554
linkedlist -0.14096 13.9925 -0.00620801 -0.129036 6.1296 -0.0863977 -0.0493113 -0.0408672 -0.0128011 10.0876
linkedlist -0.0678233 11.909 1.92845 -0.0774602 -0.00424318 -0.0413011 -0.0338189 6.35566 4.55774 5.64388
linkedlist -0.0231096 6.63205 2.50373 -0.120348 6.2606 -0.0687235 -0.00748882 -0.102414 3.16061 1.58131
linkedlist 1.93382 9.42932 2.33424 -0.108304 4.83367 -0.0449326 -0.0490524 -0.017301 3.95343 2.78679
linkedlist -0.0730822 10.4387 2.77911 -0.0311423 -0.0126664 -0.0820305 -0.069597 2.14385 2.90729 1.93164
linkedlist 1.41027 9.79248 0.819737 -0.0399606 1.35834 -0.0642905 -0.0828591 2.33113 3.62593 3.30705
linkedlist -0.068648 8.61066 -0.0641566 0.952813 0.851935 -0.038271 3.23297 -0.0403931 1.16845 3.20181
linkedlist -0.133482 9.30117 2.55084 -0.0841535 1.03232 -0.0345306 -0.0258902 5.7035 1.34809 4.01921
linkedlist -0.0326734 12.5512 -0.0564925 -0.00501751 6.90825 -0.0802999 -0.0343463 4.02056 3.76512 3.46613
linkedlist -0.0382564 7.23894 -0.0155406 -0.00274388 3.15739 -0.0440958 -0.0656722 0.292268 0.619329 1.43757
linkedlist -0.0678233 11.909 1.92845 -0.0774602 -0.00424318 -0.0413011 -0.0338189 6.35566 4.55774 5.64388
linkedlist -0.0326734 12.5512 -0.0564925 -0.00501751 6.90825 -0.0802999 -0.0343463 4.02056 3.76512 3.46613
linkedlist -0.0389114 7.67348 1.53751 -0.115329 4.37725 -0.0212314 -0.0232423 2.71558 -0.0040229 1.90346
linkedlist -0.000906561 10.9747 1.388 -0.0525045 6.8139 -0.057704 -0.0199193 -0.0371739 2.48828 1.62721
linkedlist -0.0174512 10.7396 2.92428 -0.0202581 4.67557 -0.0369505 -0.0915587 6.97892 2.00935 -0.0285753
linkedlist 1.93382 9.42932 2.33424 -0.108304 4.83367 -0.0449326 -0.0490524 -0.017301 3.95343 2.78679
linkedlist -0.00961159 9.67887 -0.0010495 -0.0619389 4.23317 -0.0874165 -0.0853425 -0.0585878 3.25072 3.4438
linkedlist -0.00961159 9.67887 -0.0010495 -0.0619389 4.23317 -0.0874165 -0.0853425 -0.0585878 3.25072 3.4438
linkedlist -0.0637018 12.9058 1.64345 -0.0920208 2.70231 -0.0507629 -0.0726267 1.72671 4.24504 4.53883
linkedlist -0.00961159 9.67887 -0.0010495 -0.0619389 4.23317 -0.0874165 -0.0853425 -0.0585878 3.25072 3.4438
linkedlist -0.128931 6.08839 1.85241 -0.0739736 2.84731 -0.0306838 -0.0517211 2.6613 -0.0139809 1.00826
linkedlist -0.00961159 9.67887 -0.0010495 -0.0619389 4.23317 -0.0874165 -0.0853425 -0.0585878 3.25072 3.4438
linkedlist -0.0231096 6.63205 2.50373 -0.120348 6.2606 -0.0687235 -0.00748882 -0.102414 3.16061 1.58131
linkedlist -0.000906561 10.9747 1.388 -0.0525045 6.8139 -0.057704 -0.0199193 -0.0371739 2.48828 1.62721
linkedlist -0.188332 10.9207 -0.00842907 -0.102987 8.56011 -0.0959416 -0.0130625 -0.0122717 -0.00196088 5.8012
linkedlist -0.0174512 10.7396 2.92428 -0.0202581 4.67557 -0.0369505 -0.0915587 6.97892 2.00935 -0.0285753
linkedlist -0.0382564 7.23894 -0.0155406 -0.00274388 3.15739 -0.0440958 -0.0656722 0.292268 0.619329 1.43757
linkedlist 1.692 7.36929 1.41428 -0.0488565 2.93864 -0.0190324 -0.0546682 3.15701 -0.00125936 -0.00910583
linkedlist -0.0326734 12.5512 -0.0564925 -0.00501751 6.90825 -0.0802999 -0.0343463 4.02056 3.76512 3.46613
linkedlist 1.41027 9.79248 0.819737 -0.0399606 1.35834 -0.0642905 -0.0828591 2.33113 3.62593 3.30705
linkedlist -0.133482 9.30117 2.55084 -0.0841535 1.03232 -0.0345306 -0.0258902 5.7035 1.34809 4.01921
linkedlist -0.0637018 12.9058 1.64345 -0.0920208 2.70231 -0.0507629 -0.0726267 1.72671 4.24504 4.53883
linkedlist -0.00961159 9.67887 -0.0010495 -0.0619389 4.23317 -0.0874165 -0.0853425 -0.0585878 3.25072 3.4438
linkedlist -0.0174512 10.7396 2.92428 -0.0202581 4.67557 -0.0369505 -0.0915587 6.97892 2.00935 -0.0285753
linkedlist -0.188332 10.9207 -0.00842907 -0.102987 8.56011 -0.0959416 -0.0130625 -0.0122717 -0.00196088 5.8012
linkedlist 1.41027 9.79248 0.819737 -0.0399606 1.35834 -0.0642905 -0.0828591 2.33113 3.62593 3.30705
linkedlist 1.41027 9.79248 0.819737 -0.0399606 1.35834 -0.0642905 -0.0828591 2.33113 3.62593 3.30705
linkedlist -0.0779168 14.3236 -0.0144467 -0.123755 6.89933 -0.0181498 -0.0162462 -0.0180621 -0.00227197 4.30488
linkedlist -0.000906561 10.9747 1.388 -0.0525045 6.8139 -0.057704 -0.0199193 -0.0371739 2.48828 1.62721
linkedlist -0.133482 9.30117 2.55084 -0.0841535 1.03232 -0.0345306 -0.0258902 5.7035 1.34809 4.01921
linkedlist -0.0231096 6.63205 2.50373 -0.120348 6.2606 -0.0687235 -0.00748882 -0.102414 3.16061 1.58131
linkedlist -0.047595 8.2782 -0.012171 -0.0714834 5.77504 -0.0064354 -0.0137557 4.33025 3.67401 -0.0231052
linkedlist -0.0678233 11.909 1.92845 -0.0774602 -0.00424318 -0.0413011 -0.0338189 6.35566 4.55774 5.64388
linkedlist -0.047595 8.2782 -0.012171 -0.0714834 5.77504 -0.0064354 -0.0137557 4.33025 3.67401 -0.0231052
linkedlist -0.14096 13.9925 -0.00620801 -0.129036 6.1296 -0.0863977 -0.0493113 -0.0408672 -0.0128011 10.0876
linkedlist -0.047595 8.2782 -0.012171 -0.0714834 5.77504 -0.0064354 -0.0137557 4.33025 3.67401 -0.0231052
linkedlist -0.0730822 10.4387 2.77911 -0.0311423 -0.0126664 -0.0820305 -0.069597 2.14385 2.90729 1.93164
linkedlist 1.41027 9.79248 0.819737 -0.0399606 1.35834 -0.0642905 -0.0828591 2.33113 3.62593 3.30705
linkedlist -0.14096 13.9925 -0.00620801 -0.129036 6.1296 -0.0863977 -0.0493113 -0.0408672 -0.0128011 10.0876
linkedlist 1.93382 9.42932 2.33424 -0.108304 4.83367 -0.0449326 -0.0490524 -0.017301 3.95343 2.78679
linkedlist 1.692 7.36929 1.41428 -0.0488565 2.93864 -0.0190324 -0.0546682 3.15701 -0.00125936 -0.00910583
linkedlist -0.188332 10.9207 -0.00842907 -0.102987 8.56011 -0.0959416 -0.0130625 -0.0122717 -0.00196088 5.8012
linkedlist -0.0326734 12.5512 -0.0564925 -0.00501751 6.90825 -0.0802999 -0.0343463 4.02056 3.76512 3.46613
linkedlist -0.047595 8.2782 -0.012171 -0.0714834 5.77504 -0.0064354 -0.0137557 4.33025 3.67401 -0.0231052
linkedlist -0.188332 10.9207 -0.00842907 -0.102987 8.56011 -0.0959416 -0.0130625 -0.0122717 -0.00196088 5.8012
linkedlist 1.41027 9.79248 0.819737 -0.0399606 1.35834 -0.0642905 -0.0828591 2.33113 3.62593 3.30705
linkedlist -0.0174512 10.7396 2.92428 -0.0202581 4.67557 -0.0369505 -0.0915587 6.97892 2.00935 -0.0285753
linkedlist -0.0438921 6.99902 -0.0581489 -0.0342116 11.5472 -0.0580585 -0.0725739 4.62472 -0.0328326 5.3142
linkedlist -0.188332 10.9207 -0.00842907 -0.102987 8.56011 -0.0959416 -0.0130625 -0.0122717 -0.00196088 5.8012
linkedlist -0.047595 8.2782 -0.012171 -0.0714834 5.77504 -0.0064354 -0.0137557 4.33025 3.67401 -0.0231052
stack -0.182759 1.22765 -0.0302152 -0.056811 6.7868 -0.0682845 -0.0612591 4.05489 -0.0570427 12.6615
stack -0.0888024 -0.0168673 -0.0362676 -0.0258369 3.55777 -0.0741774 -0.0504909 3.20035 -0.0302684 9.30204
stack -0.182759 1.22765 -0.0302152 -0.056811 6.7868 -0.0682845 -0.0612591 4.05489 -0.0570427 12.6615
stack -0.0888024 -0.0168673 -0.0362676 -0.0258369 3.55777 -0.0741774 -0.0504909 3.20035 -0.0302684 9.30204
stack -0.0511051 -0.0183202 -0.0211507 -0.0931319 4.09255 -0.0159309 -0.0124608 -0.0214975 2.31094 9.3161
stack -0.182759 1.22765 -0.0302152 -0.056811 6.7868 -0.0682845 -0.0612591 4.05489 -0.0570427 12.6615
stack -0.0380055 3.80706 -0.024577 -0.0564308 4.22149 -0.0624977 -0.0599532 1.7589 -0.040624 12.7232
stack 1.17358 3.50408 -0.0459244 -0.0492727 5.47964 -0.0344604 -0.0728304 0.595634 -0.0630461 14.143
stack -0.0861606 -0.00888501 -0.0184765 -0.0293377 -0.0247683 -0.0713422 -0.0395092 -0.0342622 -0.0301516 9.815
stack -0.0511051 -0.0183202 -0.0211507 -0.0931319 4.09255 -0.0159309 -0.0124608 -0.0214975 2.31094 9.3161
stack -0.0973854 6.34075 -0.0523531 -0.0542137 1.44002 -0.077882 -0.0144403 -0.0717313 -0.036639 13.2438
stack -0.0783458 6.07344 -0.040066 -0.0939537 9.7553 -0.0885465 -0.0326171 -0.0272846 1.21412 13.0722
stack -0.0851004 3.99324 -0.0603781 -0.124452 11.9391 -0.0800109 -0.0220885 -0.00602657 -0.033911 15.1182
stack 1.17358 3.50408 -0.0459244 -0.0492727 5.47964 -0.0344604 -0.0728304 0.595634 -0.0630461 14.143
stack -0.0864263 -0.0100934 -0.0224128 -0.0266519 -0.0225299 -0.0679673 -0.0395901 -0.0343941 -0.0371389 10.2719
stack -0.0851004 3.99324 -0.0603781 -0.124452 11.9391 -0.0800109 -0.0220885 -0.00602657 -0.033911 15.1182
stack -0.0710336 5.71745 -0.0346884 -0.07246 -0.00016703 -0.0438726 -0.0351037 0.971268 -0.0294278 12.6789
stack -0.0864263 -0.0100934 -0.0224128 -0.0266519 -0.0225299 -0.0679673 -0.0395901 -0.0343941 -0.0371389 10.2719
stack -0.0639406 3.78556 -0.0217347 -0.0929357 2.89186 -0.0876468 -0.0188625 0.70916 -0.0437636 17.2689
stack -0.0973854 6.34075 -0.0523531 -0.0542137 1.44002 -0.077882 -0.0144403 -0.0717313 -0.036639 13.2438
stack -0.111763 -0.0201488 -0.0132907 -0.0287181 -0.00702098 -0.0703097 -0.0180829 -0.0133426 -0.0110418 11.0519
stack -0.0930758 -0.0244748 -0.0151916 -0.0388571 -0.0273842 -0.089475 -0.00122241 -0.0553251 -0.0148377 11.0287
stack -0.0888024 -0.0168673 -0.0362676 -0.0258369 3.55777 -0.0741774 -0.0504909 3.20035 -0.0302684 9.30204
stack -0.182759 1.22765 -0.0302152 -0.056811 6.7868 -0.0682845 -0.0612591 4.05489 -0.0570427 12.6615
stack -0.129462 -0.0210261 -0.039809 -0.0492681 -0.0179781 -0.0946223 -0.0172095 -0.0504157 -0.0395601 13.7082
stack -0.0656103 4.14817 -0.0261517 -0.0551818 5.90025 -0.0778563 -0.0313676 3.12862 -0.047242 11.3955
stack -0.136503 3.78041 -0.0175344 -0.0566602 3.20406 -0.0309949 -0.0422343 6.88596 -0.0164505 12.0097
stack -0.0639406 3.78556 -0.0217347 -0.0929357 2.89186 -0.0876468 -0.0188625 0.70916 -0.0437636 17.2689
stack -0.0973854 6.34075 -0.0523531 -0.0542137 1.44002 -0.077882 -0.0144403 -0.0717313 -0.036639 13.2438
stack -0.136503 3.78041 -0.0175344 -0.0566602 3.20406 -0.0309949 -0.0422343 6.88596 -0.0164505 12.0097
stack -0.0864263 -0.0100934 -0.0224128 -0.0266519 -0.0225299 -0.0679673 -0.0395901 -0.0343941 -0.0371389 10.2719
stack -0.182759 1.22765 -0.0302152 -0.056811 6.7868 -0.0682845 -0.0612591 4.05489 -0.0570427 12.6615
stack -0.0639406 3.78556 -0.0217347 -0.0929357 2.89186 -0.0876468 -0.0188625 0.70916 -0.0437636 17.2689
stack -0.0980387 -0.0152871 -0.0231668 -0.0441298 -0.0244888 -0.0822717 -0.025375 -0.043359 -0.023523 11.5792
stack -0.131131 7.16478 -0.0522861 -0.111915 3.35124 0.0563173 -0.0716796 2.09033 -0.0235117 12.4256
stack -0.182759 1.22765 -0.0302152 -0.056811 6.7868 -0.0682845 -0.0612591 4.05489 -0.0570427 12.6615
stack -0.0888024 -0.0168673 -0.0362676 -0.0258369 3.55777 -0.0741774 -0.0504909 3.20035 -0.0302684 9.30204
stack -0.182759 1.22765 -0.0302152 -0.056811 6.7868 -0.0682845 -0.0612591 4.05489 -0.0570427 12.6615
stack -0.0851004 3.99324 -0.0603781 -0.124452 11.9391 -0.0800109 -0.0220885 -0.00602657 -0.033911 15.1182
stack -0.0930914 0.777243 -0.04247 -0.107832 8.03317 -0.0248204 -0.0771395 -0.0229251 -0.051812 12.3427
stack -0.0380055 3.80706 -0.024577 -0.0564308 4.22149 -0.0624977 -0.0599532 1.7589 -0.040624 12.7232
stack -0.0930914 0.777243 -0.04247 -0.107832 8.03317 -0.0248204 -0.0771395 -0.0229251 -0.051812 12.3427
stack -0.182759 1.22765 -0.0302152 -0.056811 6.7868 -0.0682845 -0.0612591 4.05489 -0.0570427 12.6615
stack -0.182759 1.22765 -0.0302152 -0.056811 6.7868 -0.0682845 -0.0612591 4.05489 -0.0570427 12.6615
stack -0.0639406 3.78556 -0.0217347 -0.0929357 2.89186 -0.0876468 -0.0188625 0.70916 -0.0437636 17.2689
stack -0.182759 1.22765 -0.0302152 -0.056811 6.7868 -0.0682845 -0.0612591 4.05489 -0.0570427 12.6615
stack -0.136503 3.78041 -0.0175344 -0.0566602 3.20406 -0.0309949 -0.0422343 6.88596 -0.0164505 12.0097
stack -0.0888024 -0.0168673 -0.0362676 -0.0258369 3.55777 -0.0741774 -0.0504909 3.20035 -0.0302684 9.30204
stack -0.0380055 3.80706 -0.024577 -0.0564308 4.22149 -0.0624977 -0.0599532 1.7589 -0.040624 12.7232
stack -0.0656103 4.14817 -0.0261517 -0.0551818 5.90025 -0.0778563 -0.0313676 3.12862 -0.047242 11.3955
stack -0.111763 -0.0201488 -0.0132907 -0.0287181 -0.00702098 -0.0703097 -0.0180829 -0.0133426 -0.0110418 11.0519
stack -0.0980387 -0.0152871 -0.0231668 -0.0441298 -0.0244888 -0.0822717 -0.025375 -0.043359 -0.023523 11.5792
stack -0.182759 1.22765 -0.0302152 -0.056811 6.7868 -0.0682845 -0.0612591 4.05489 -0.0570427 12.6615
stack -0.0511051 -0.0183202 -0.0211507 -0.0931319 4.09255 -0.0159309 -0.0124608 -0.0214975 2.31094 9.3161
stack -0.182759 1.22765 -0.0302152 -0.056811 6.7868 -0.0682845 -0.0612591 4.05489 -0.0570427 12.6615
stack -0.136503 3.78041 -0.0175344 -0.0566602 3.20406 -0.0309949 -0.0422343 6.88596 -0.0164505 12.0097
stack -0.0783458 6.07344 -0.040066 -0.0939537 9.7553 -0.0885465 -0.0326171 -0.0272846 1.21412 13.0722
stack -0.0656103 4.14817 -0.0261517 -0.0551818 5.90025 -0.0778563 -0.0313676 3.12862 -0.047242 11.3955
stack -0.0783458 6.07344 -0.040066 -0.0939537 9.7553 -0.0885465 -0.0326171 -0.0272846 1.21412 13.0722
stack -0.0888024 -0.0168673 -0.0362676 -0.0258369 3.55777 -0.0741774 -0.0504909 3.20035 -0.0302684 9.30204
stack -0.131131 7.16478 -0.0522861 -0.111915 3.35124 0.0563173 -0.0716796 2.09033 -0.0235117 12.4256
stack -0.0980387 -0.0152871 -0.0231668 -0.0441298 -0.0244888 -0.0822717 -0.025375 -0.043359 -0.023523 11.5792
stack -0.182759 1.22765 -0.0302152 -0.056811 6.7868 -0.0682845 -0.0612591 4.05489 -0.0570427 12.6615
stack -0.182759 1.22765 -0.0302152 -0.056811 6.7868 -0.0682845 -0.0612591 4.05489 -0.0570427 12.6615
stack -0.0861606 -0.00888501 -0.0184765 -0.0293377 -0.0247683 -0.0713422 -0.0395092 -0.0342622 -0.0301516 9.815
stack -0.0656103 4.14817 -0.0261517 -0.0551818 5.90025 -0.0778563 -0.0313676 3.12862 -0.047242 11.3955
stack -0.111763 -0.0201488 -0.0132907 -0.0287181 -0.00702098 -0.0703097 -0.0180829 -0.0133426 -0.0110418 11.0519
stack -0.131131 7.16478 -0.0522861 -0.111915 3.35124 0.0563173 -0.0716796 2.09033 -0.0235117 12.4256
stack -0.0888024 -0.0168673 -0.0362676 -0.0258369 3.55777 -0.0741774 -0.0504909 3.20035 -0.0302684 9.30204
stack -0.182759 1.22765 -0.0302152 -0.056811 6.7868 -0.0682845 -0.0612591 4.05489 -0.0570427 12.6615
stack -0.182759 1.22765 -0.0302152 -0.056811 6.7868 -0.0682845 -0.0612591 4.05489 -0.0570427 12.6615
stack -0.182759 1.22765 -0.0302152 -0.056811 6.7868 -0.0682845 -0.0612591 4.05489 -0.0570427 12.6615
stack -0.0973854 6.34075 -0.0523531 -0.0542137 1.44002 -0.077882 -0.0144403 -0.0717313 -0.036639 13.2438
stack -0.111763 -0.0201488 -0.0132907 -0.0287181 -0.00702098 -0.0703097 -0.0180829 -0.0133426 -0.0110418 11.0519
stack 1.17358 3.50408 -0.0459244 -0.0492727 5.47964 -0.0344604 -0.0728304 0.595634 -0.0630461 14.143
stack -0.0930758 -0.0244748 -0.0151916 -0.0388571 -0.0273842 -0.089475 -0.00122241 -0.0553251 -0.0148377 11.0287
stack -0.0930914 0.777243 -0.04247 -0.107832 8.03317 -0.0248204 -0.0771395 -0.0229251 -0.051812 12.3427
stack -0.0864263 -0.0100934 -0.0224128 -0.0266519 -0.0225299 -0.0679673 -0.0395901 -0.0343941 -0.0371389 10.2719
stack -0.105683 8.25036 1.38653 -0.143486 0.963954 -0.04313 -0.0247171 1.94425 -0.00818856 13.3052
stack -0.0930758 -0.0244748 -0.0151916 -0.0388571 -0.0273842 -0.089475 -0.00122241 -0.0553251 -0.0148377 11.0287
stack -0.0930914 0.777243 -0.04247 -0.107832 8.03317 -0.0248204 -0.0771395 -0.0229251 -0.051812 12.3427
stack -0.0380055 3.80706 -0.024577 -0.0564308 4.22149 -0.0624977 -0.0599532 1.7589 -0.040624 12.7232
stack -0.182759 1.22765 -0.0302152 -0.056811 6.7868 -0.0682845 -0.0612591 4.05489 -0.0570427 12.6615
stack -0.0861606 -0.00888501 -0.0184765 -0.0293377 -0.0247683 -0.0713422 -0.0395092 -0.0342622 -0.0301516 9.815
stack -0.182759 1.22765 -0.0302152 -0.056811 6.7868 -0.0682845 -0.0612591 4.05489 -0.0570427 12.6615
stack -0.0380055 3.80706 -0.024577 -0.0564308 4.22149 -0.0624977 -0.0599532 1.7589 -0.040624 12.7232
stack -0.0380055 3.80706 -0.024577 -0.0564308 4.22149 -0.0624977 -0.0599532 1.7589 -0.040624 12.7232
stack -0.0794527 2.9802 -0.0480289 -0.106743 7.33352 -0.0479861 0.593065 -0.0101521 -0.0370981 12.125
stack -0.0930758 -0.0244748 -0.0151916 -0.0388571 -0.0273842 -0.089475 -0.00122241 -0.0553251 -0.0148377 11.0287
stack -0.0888024 -0.0168673 -0.0362676 -0.0258369 3.55777 -0.0741774 -0.0504909 3.20035 -0.0302684 9.30204
stack -0.0851004 3.99324 -0.0603781 -0.124452 11.9391 -0.0800109 -0.0220885 -0.00602657 -0.033911 15.1182
stack -0.129462 -0.0210261 -0.039809 -0.0492681 -0.0179781 -0.0946223 -0.0172095 -0.0504157 -0.0395601 13.7082
stack -0.0861606 -0.00888501 -0.0184765 -0.0293377 -0.0247683 -0.0713422 -0.0395092 -0.0342622 -0.0301516 9.815
stack -0.0511051 -0.0183202 -0.0211507 -0.0931319 4.09255 -0.0159309 -0.0124608 -0.0214975 2.31094 9.3161
stack -0.0864263 -0.0100934 -0.0224128 -0.0266519 -0.0225299 -0.0679673 -0.0395901 -0.0343941 -0.0371389 10.2719
stack -0.131131 7.16478 -0.0522861 -0.111915 3.35124 0.0563173 -0.0716796 2.09033 -0.0235117 12.4256
stack -0.0861606 -0.00888501 -0.0184765 -0.0293377 -0.0247683 -0.0713422 -0.0395092 -0.0342622 -0.0301516 9.815
stack -0.111763 -0.0201488 -0.0132907 -0.0287181 -0.00702098 -0.0703097 -0.0180829 -0.0133426 -0.0110418 11.0519
stack -0.182759 1.22765 -0.0302152 -0.056811 6.7868 -0.0682845 -0.0612591 4.05489 -0.0570427 12.6615
stack -0.0639406 3.78556 -0.0217347 -0.0929357 2.89186 -0.0876468 -0.0188625 0.70916 -0.0437636 17.2689
stack -0.0980387 -0.0152871 -0.0231668 -0.0441298 -0.0244888 -0.0822717 -0.025375 -0.043359 -0.023523 11.5792
stack -0.182759 1.22765 -0.0302152 -0.056811 6.7868 -0.0682845 -0.0612591 4.05489 -0.0570427 12.6615
stack -0.0957865 -0.00882408 5.78866 -0.0778828 9.80087 -0.02547 -0.103867 6.47083 0.377954 0.245226
stack -0.182759 1.22765 -0.0302152 -0.056811 6.7868 -0.0682845 -0.0612591 4.05489 -0.0570427 12.6615
stack -0.0930914 0.777243 -0.04247 -0.107832 8.03317 -0.0248204 -0.0771395 -0.0229251 -0.051812 12.3427
stack -0.0864263 -0.0100934 -0.0224128 -0.0266519 -0.0225299 -0.0679673 -0.0395901 -0.0343941 -0.0371389 10.2719
stack -0.0930758 -0.0244748 -0.0151916 -0.0388571 -0.0273842 -0.089475 -0.00122241 -0.0553251 -0.0148377 11.0287
stack -0.0710336 5.71745 -0.0346884 -0.07246 -0.00016703 -0.0438726 -0.0351037 0.971268 -0.0294278 12.6789
stack -0.142472 -0.0180931 -0.000816003 -0.118764 6.88365 -0.0435709 -0.0454755 8.56652 0.386172 6.77976
stack -0.182759 1.22765 -0.0302152 -0.056811 6.7868 -0.0682845 -0.0612591 4.05489 -0.0570427 12.6615
stack -0.0864263 -0.0100934 -0.0224128 -0.0266519 -0.0225299 -0.0679673 -0.0395901 -0.0343941 -0.0371389 10.2719
stack -0.182759 1.22765 -0.0302152 -0.056811 6.7868 -0.0682845 -0.0612591 4.05489 -0.0570427 12.6615
stack -0.182759 1.22765 -0.0302152 -0.056811 6.7868 -0.0682845 -0.0612591 4.05489 -0.0570427 12.6615
stack -0.0511051 -0.0183202 -0.0211507 -0.0931319 4.09255 -0.0159309 -0.0124608 -0.0214975 2.31094 9.3161
stack -0.0639406 3.78556 -0.0217347 -0.0929357 2.89186 -0.0876468 -0.0188625 0.70916 -0.0437636 17.2689
knapsack -0.0570836 4.19938 3.53438 -0.0752317 2.67085 -0.013409 0.142284 1.38223 9.74537 -0.0498545
knapsack -0.122488 -0.0444698 -0.0068956 -0.023491 0.931144 -0.0140348 0.736772 1.59 6.73313 -0.0275109
knapsack -0.0305227 -0.0341904 0.74333 2.08025 -0.0490614 -0.0128294 -0.0362379 4.67778 11.0404 -0.00257285
knapsack 2.88214 -0.0714172 3.68655 0.791555 -0.0441005 -0.0105848 1.85221 -0.0341192 8.86204 -0.0794024
knapsack -0.00257574 4.32293 3.2365 -0.105578 3.88572 -0.0239082 0.426871 1.00736 8.80481 -0.0274245
knapsack -0.00257574 4.32293 3.2365 -0.105578 3.88572 -0.0239082 0.426871 1.00736 8.80481 -0.0274245
knapsack -0.00257574 4.32293 3.2365 -0.105578 3.88572 -0.0239082 0.426871 1.00736 8.80481 -0.0274245
knapsack -0.0142093 0.0337834 6.37972 1.20027 -0.0178943 -0.0608542 -0.00837715 -0.00951683 10.8024 -0.0705091
knapsack -0.0121889 -0.0532586 3.80787 -0.041504 -0.0612727 -0.0335936 2.89939 -0.0655822 11.4828 -0.0357276
knapsack -0.0348042 5.83654 -0.00149636 4.18099 -0.0184798 -0.0289187 1.87051 2.42406 10.1157 -0.0747755
knapsack -0.0305227 -0.0341904 0.74333 2.08025 -0.0490614 -0.0128294 -0.0362379 4.67778 11.0404 -0.00257285
knapsack -0.0121889 -0.0532586 3.80787 -0.041504 -0.0612727 -0.0335936 2.89939 -0.0655822 11.4828 -0.0357276
knapsack -0.0648175 -0.0273692 5.94263 -0.0781913 -0.0254973 -0.0299484 3.50999 -0.0528162 9.80645 -0.053999
knapsack 3.70872 1.42742 5.41265 -0.0183704 4.22846 -0.0140663 -0.0210009 5.05845 11.5739 -0.0988837
knapsack 3.70872 1.42742 5.41265 -0.0183704 4.22846 -0.0140663 -0.0210009 5.05845 11.5739 -0.0988837
knapsack -0.0648175 -0.0273692 5.94263 -0.0781913 -0.0254973 -0.0299484 3.50999 -0.0528162 9.80645 -0.053999
knapsack -0.0570836 4.19938 3.53438 -0.0752317 2.67085 -0.013409 0.142284 1.38223 9.74537 -0.0498545
knapsack 3.70872 1.42742 5.41265 -0.0183704 4.22846 -0.0140663 -0.0210009 5.05845 11.5739 -0.0988837
knapsack -0.0648175 -0.0273692 5.94263 -0.0781913 -0.0254973 -0.0299484 3.50999 -0.0528162 9.80645 -0.053999
knapsack -0.0648175 -0.0273692 5.94263 -0.0781913 -0.0254973 -0.0299484 3.50999 -0.0528162 9.80645 -0.053999
knapsack -0.108645 3.66821 -0.0520421 0.813579 8.09684 -0.056506 -0.0375525 -0.0147603 -0.0776277 2.64553
knapsack 1.50823 -0.0311801 5.69407 3.72777 -0.0564297 1.68606 -0.0306147 2.89752 9.04563 -0.160546
knapsack -0.0121889 -0.0532586 3.80787 -0.041504 -0.0612727 -0.0335936 2.89939 -0.0655822 11.4828 -0.0357276
knapsack 4.13488 -0.080051 -0.0189361 4.03971 -0.00857915 -0.00707935 9.91586 0.0961173 1.19446 -0.0236803
knapsack -0.0648175 -0.0273692 5.94263 -0.0781913 -0.0254973 -0.0299484 3.50999 -0.0528162 9.80645 -0.053999
knapsack -0.0648175 -0.0273692 5.94263 -0.0781913 -0.0254973 -0.0299484 3.50999 -0.0528162 9.80645 -0.053999
knapsack 1.50823 -0.0311801 5.69407 3.72777 -0.0564297 1.68606 -0.0306147 2.89752 9.04563 -0.160546
knapsack 2.88214 -0.0714172 3.68655 0.791555 -0.0441005 -0.0105848 1.85221 -0.0341192 8.86204 -0.0794024
knapsack -0.0142093 0.0337834 6.37972 1.20027 -0.0178943 -0.0608542 -0.00837715 -0.00951683 10.8024 -0.0705091
knapsack 2.88214 -0.0714172 3.68655 0.791555 -0.0441005 -0.0105848 1.85221 -0.0341192 8.86204 -0.0794024
knapsack -0.0648175 -0.0273692 5.94263 -0.0781913 -0.0254973 -0.0299484 3.50999 -0.0528162 9.80645 -0.053999
knapsack 2.88214 -0.0714172 3.68655 0.791555 -0.0441005 -0.0105848 1.85221 -0.0341192 8.86204 -0.0794024
knapsack -0.0648175 -0.0273692 5.94263 -0.0781913 -0.0254973 -0.0299484 3.50999 -0.0528162 9.80645 -0.053999
knapsack -0.0305502 -0.0387215 -0.00350567 1.525 8.96481 -0.0260911 0.474329 4.59587 3.35326 -0.0541158
knapsack 2.88214 -0.0714172 3.68655 0.791555 -0.0441005 -0.0105848 1.85221 -0.0341192 8.86204 -0.0794024
knapsack -0.0648175 -0.0273692 5.94263 -0.0781913 -0.0254973 -0.0299484 3.50999 -0.0528162 9.80645 -0.053999
knapsack -0.0305227 -0.0341904 0.74333 2.08025 -0.0490614 -0.0128294 -0.0362379 4.67778 11.0404 -0.00257285
