bfs 0.99999 0.958763 0.974915 1.0 1.0 -0.709623 -0.0303174 0.979043 0.958626 0.97734 -0.845798 1.0 -0.936778 -0.748573 0.998462 1.0 0.943528 0.976825 1.0 0.998891 0.99435 -0.155613 0.216792 -0.987062 0.982426 0.974509 -0.902651 -0.445732 -0.0406159 0.950853 1.0 -0.972656 1.0 0.843026 0.795181 0.502134 -0.997907 0.999988 1.0 -0.159382 0.959159 0.856363 -0.468422 -0.904103 1.0 -0.976015 0.949728 -0.999952 0.999946 1.0 0.733521 1.0 0.896584 0.937834 0.93653 0.886251 1.0 0.143788 1.0 1.0 0.543626 -0.830884 0.64863 -0.819694 -0.487961 1.0 1.0 -0.349017 0.972704 0.980752 0.0459736 -0.864939 0.95618 -0.716157 -0.985574 0.964149 0.955462 1.0 0.931411 1.0 0.999981 0.972248 1.0 0.999904 0.694032 -0.660917 0.844757 -0.150285 1.0 1.0 0.989546 -0.208511 -0.9932 -0.875076 -0.372071 -0.42498 0.975966 0.999171 0.965127 1.0
bfs -0.636776 0.958763 -0.927496 1.0 1.0 -0.39623 -0.0303174 0.979043 -0.778534 0.97734 -0.845798 1.0 -0.936778 -0.748573 0.998462 0.999996 0.943528 0.976825 1.0 0.961339 -0.321992 -0.155613 0.216792 -0.993885 0.999826 0.974509 -0.902651 -0.445732 -0.0406159 -0.931262 1.0 -0.972656 1.0 0.843026 0.006423 0.502134 -0.997907 0.992575 1.0 -0.159382 -0.529709 0.831675 -0.468422 -0.933131 1.0 -0.976015 0.949728 -0.999984 0.999992 1.0 0.895186 1.0 0.99988 0.937834 0.984569 0.886251 1.0 0.143788 1.0 1.0 0.543626 -0.830884 0.64863 -0.819694 -0.487961 1.0 1.0 -0.349017 0.972704 0.980752 -0.794203 -0.595168 0.95618 -0.716157 -0.985574 0.964149 0.955462 1.0 0.931411 1.0 0.914938 -0.488828 1.0 0.999984 0.313474 0.207231 0.998155 -0.150285 1.0 1.0 0.989546 -0.208511 -0.970829 -0.875076 -0.429219 0.817412 0.975966 0.741449 0.965127 1.0
bfs 1.0 -0.855794 -0.927496 1.0 1.0 -0.860509 -0.0303174 -0.812529 -0.824184 -0.823127 -0.853444 1.0 -0.936778 -0.829595 -0.79316 -0.942002 -0.816032 -0.864675 1.0 1.0 -0.560062 -0.155613 0.216792 -0.994763 0.0495501 -0.822226 -0.927698 -0.483723 -0.0406159 -0.931262 1.0 -0.972656 1.0 -0.980896 0.798498 0.502134 -0.997907 0.998449 1.0 -0.159382 -0.800853 -0.808071 -0.468422 -0.961588 1.0 -0.976015 0.949728 -0.99999 -0.457949 1.0 -0.710521 1.0 0.982068 0.869633 0.839295 -0.747752 1.0 0.143788 1.0 1.0 -0.957026 -0.830884 -0.414001 -0.819694 -0.487961 1.0 1.0 -0.349017 0.972704 -0.768661 -0.922987 -0.999368 -0.915048 -0.723797 -0.985574 0.964149 0.955462 -0.82425 0.931411 -0.980099 0.9997 -0.885585 0.512626 1.0 -0.298058 -0.747807 -0.769315 -0.150285 1.0 1.0 0.989198 -0.208511 -0.998429 -0.875076 -0.688486 -0.802533 0.975966 -0.81067 -0.782406 1.0
bfs 0.999358 0.958763 0.974915 1.0 1.0 -0.548628 -0.0303174 0.979043 0.958626 0.97734 -0.845798 1.0 -0.936778 -0.748573 0.998462 0.90672 -0.816032 -0.864675 1.0 -0.428545 -0.321992 -0.155613 0.216792 -0.993885 0.982426 0.974509 -0.902651 -0.445732 -0.0406159 -0.931262 1.0 -0.972656 1.0 0.843026 -0.371213 0.502134 -0.997907 0.902975 1.0 -0.159382 0.959159 0.831675 -0.468422 -0.892007 1.0 -0.976015 0.949728 -0.999952 -0.457949 1.0 0.26957 1.0 0.978876 0.869633 0.984569 0.82004 1.0 0.143788 1.0 1.0 -0.91407 -0.830884 0.885038 -0.819694 -0.487961 1.0 1.0 -0.349017 0.972704 0.980752 -0.622017 0.99824 0.993602 -0.716157 -0.985574 0.964149 0.955462 0.998492 0.931411 1.0 0.987964 -0.805505 1.0 0.0811337 0.621845 -0.07325 0.844757 -0.150285 1.0 1.0 0.989546 -0.208511 -0.9932 -0.875076 -0.677285 0.891327 0.975966 0.999171 0.965127 1.0
bfs -0.636776 0.958763 0.974915 1.0 1.0 -0.709623 -0.0303174 0.979043 -0.752232 0.97734 -0.845798 1.0 -0.936778 -0.748573 -0.792145 -0.267202 0.943528 0.976825 1.0 0.0649083 0.835976 -0.155613 0.216792 -0.994763 0.0495501 0.974509 -0.902651 -0.445732 -0.0406159 -0.931262 1.0 -0.972656 1.0 0.843026 0.795181 0.502134 -0.997907 0.902975 1.0 -0.159382 -0.529709 -0.808071 -0.468422 -0.175837 1.0 -0.976015 0.949728 -0.999952 -0.507453 1.0 -0.710521 1.0 -0.05451 -0.670534 0.93653 0.886251 1.0 0.143788 1.0 1.0 -0.91407 -0.830884 0.497054 -0.819694 -0.487961 1.0 1.0 -0.349017 0.972704 0.980752 0.979578 -0.996415 0.95618 -0.716157 -0.985574 0.932911 -0.441385 -0.325236 0.931411 1.0 0.190729 -0.805505 1.0 0.553734 -0.190416 -0.747807 -0.769315 -0.150285 1.0 1.0 0.989546 -0.208511 -0.998429 -0.875076 -0.35616 -0.76426 0.975966 0.999171 -0.761794 1.0
bfs 0.999908 0.958763 0.985811 1.0 1.0 -0.777106 -0.0303174 0.979043 0.958626 0.97734 -0.845798 1.0 -0.936778 -0.748573 0.998462 0.999995 0.967875 0.969317 1.0 0.999999 0.99435 -0.155613 0.216792 -0.994763 0.999826 0.974509 -0.902651 -0.445732 -0.0406159 -0.931262 1.0 -0.972656 1.0 -0.980896 0.798498 0.502134 -0.997907 0.991039 1.0 -0.159382 -0.636274 -0.808071 -0.468422 -0.943063 1.0 -0.976015 0.949728 -0.999952 -0.457949 1.0 -0.059154 1.0 0.999991 0.869633 0.985651 -0.476783 1.0 0.143788 1.0 1.0 -0.564463 -0.830884 0.885038 -0.819694 -0.487961 1.0 1.0 -0.349017 0.972704 0.980752 1.0 -0.989224 0.95618 -0.716157 -0.985574 0.964149 0.955462 1.0 0.931411 1.0 1.0 -0.488828 1.0 1.0 0.621845 -0.079319 0.998155 -0.150285 1.0 1.0 0.989546 -0.208511 -0.970829 -0.875076 -0.372071 -0.42498 0.975966 0.958334 0.965127 1.0
bfs 0.999358 0.958763 0.974915 1.0 1.0 -0.548628 -0.0303174 0.979043 0.958626 0.97734 -0.845798 1.0 -0.936778 -0.748573 0.998462 0.90672 -0.816032 -0.864675 1.0 -0.428545 -0.321992 -0.155613 0.216792 -0.993885 0.982426 0.974509 -0.902651 -0.445732 -0.0406159 -0.931262 1.0 -0.972656 1.0 0.843026 -0.371213 0.502134 -0.997907 0.902975 1.0 -0.159382 0.959159 0.831675 -0.468422 -0.892007 1.0 -0.976015 0.949728 -0.999952 -0.457949 1.0 0.26957 1.0 0.978876 0.869633 0.984569 0.82004 1.0 0.143788 1.0 1.0 -0.91407 -0.830884 0.885038 -0.819694 -0.487961 1.0 1.0 -0.349017 0.972704 0.980752 -0.622017 0.99824 0.993602 -0.716157 -0.985574 0.964149 0.955462 0.998492 0.931411 1.0 0.987964 -0.805505 1.0 0.0811337 0.621845 -0.07325 0.844757 -0.150285 1.0 1.0 0.989546 -0.208511 -0.9932 -0.875076 -0.677285 0.891327 0.975966 0.999171 0.965127 1.0
bfs -0.636776 0.958763 -0.927496 1.0 1.0 -0.39623 -0.0303174 0.979043 -0.778534 0.97734 -0.845798 1.0 -0.936778 -0.748573 0.998462 0.999996 0.943528 0.976825 1.0 0.961339 -0.321992 -0.155613 0.216792 -0.993885 0.999826 0.974509 -0.902651 -0.445732 -0.0406159 -0.931262 1.0 -0.972656 1.0 0.843026 0.006423 0.502134 -0.997907 0.992575 1.0 -0.159382 -0.529709 0.831675 -0.468422 -0.933131 1.0 -0.976015 0.949728 -0.999984 0.999992 1.0 0.895186 1.0 0.99988 0.937834 0.984569 0.886251 1.0 0.143788 1.0 1.0 0.543626 -0.830884 0.64863 -0.819694 -0.487961 1.0 1.0 -0.349017 0.972704 0.980752 -0.794203 -0.595168 0.95618 -0.716157 -0.985574 0.964149 0.955462 1.0 0.931411 1.0 0.914938 -0.488828 1.0 0.999984 0.313474 0.207231 0.998155 -0.150285 1.0 1.0 0.989546 -0.208511 -0.970829 -0.875076 -0.429219 0.817412 0.975966 0.741449 0.965127 1.0
bfs 0.99999 0.958763 0.974915 1.0 1.0 -0.709623 -0.0303174 0.979043 0.958626 0.97734 -0.845798 1.0 -0.936778 -0.748573 0.998462 1.0 0.943528 0.976825 1.0 0.998891 0.99435 -0.155613 0.216792 -0.987062 0.982426 0.974509 -0.902651 -0.445732 -0.0406159 0.950853 1.0 -0.972656 1.0 0.843026 0.795181 0.502134 -0.997907 0.999988 1.0 -0.159382 0.959159 0.856363 -0.468422 -0.904103 1.0 -0.976015 0.949728 -0.999952 0.999946 1.0 0.733521 1.0 0.896584 0.937834 0.93653 0.886251 1.0 0.143788 1.0 1.0 0.543626 -0.830884 0.64863 -0.819694 -0.487961 1.0 1.0 -0.349017 0.972704 0.980752 0.0459736 -0.864939 0.95618 -0.716157 -0.985574 0.964149 0.955462 1.0 0.931411 1.0 0.999981 0.972248 1.0 0.999904 0.694032 -0.660917 0.844757 -0.150285 1.0 1.0 0.989546 -0.208511 -0.9932 -0.875076 -0.372071 -0.42498 0.975966 0.999171 0.965127 1.0
bfs -0.636776 0.958763 0.974915 1.0 1.0 -0.709623 -0.0303174 0.979043 -0.752232 0.97734 -0.845798 1.0 -0.936778 -0.748573 -0.792145 -0.267202 0.943528 0.976825 1.0 0.0649083 0.835976 -0.155613 0.216792 -0.994763 0.0495501 0.974509 -0.902651 -0.445732 -0.0406159 -0.931262 1.0 -0.972656 1.0 0.843026 0.795181 0.502134 -0.997907 0.902975 1.0 -0.159382 -0.529709 -0.808071 -0.468422 -0.175837 1.0 -0.976015 0.949728 -0.999952 -0.507453 1.0 -0.710521 1.0 -0.05451 -0.670534 0.93653 0.886251 1.0 0.143788 1.0 1.0 -0.91407 -0.830884 0.497054 -0.819694 -0.487961 1.0 1.0 -0.349017 0.972704 0.980752 0.979578 -0.996415 0.95618 -0.716157 -0.985574 0.932911 -0.441385 -0.325236 0.931411 1.0 0.190729 -0.805505 1.0 0.553734 -0.190416 -0.747807 -0.769315 -0.150285 1.0 1.0 0.989546 -0.208511 -0.998429 -0.875076 -0.35616 -0.76426 0.975966 0.999171 -0.761794 1.0
bfs -0.636776 0.958763 0.974915 1.0 1.0 -0.82123 -0.0303174 0.979043 -0.461956 0.97734 -0.845798 1.0 -0.936778 -0.748573 -0.792145 0.964976 -0.816032 -0.882435 1.0 -0.718229 0.835976 -0.155613 0.216792 -0.993885 -0.978612 0.974509 -0.902651 -0.445732 -0.0406159 0.950853 1.0 -0.972656 1.0 0.843026 -0.292258 0.502134 -0.997907 -0.753381 1.0 -0.159382 -0.529709 -0.808071 -0.468422 0.638886 1.0 -0.976015 0.949728 -0.999952 -0.598084 1.0 -0.683182 1.0 0.997919 -0.668798 0.93653 -0.746681 1.0 0.143788 1.0 1.0 -0.909361 -0.830884 0.513661 -0.819694 -0.487961 1.0 1.0 -0.349017 -0.768931 0.980752 0.705153 -0.996415 0.993602 -0.716157 -0.985574 0.932911 -0.441385 -0.758038 0.931411 1.0 0.394211 0.972248 1.0 0.973623 0.694032 -0.763154 -0.954789 -0.150285 1.0 1.0 0.989546 -0.208511 -0.999471 -0.875076 -0.35616 -0.76426 0.975966 0.999171 -0.714953 1.0
bfs 0.970814 -0.855794 -0.927496 0.999975 1.0 0.90613 -0.0303174 -0.812529 0.958626 -0.823127 -0.853444 1.0 -0.936778 -0.829595 0.998462 0.220678 0.943528 0.976825 1.0 0.328732 -0.560062 -0.155613 0.216792 -0.994763 0.0495501 -0.822226 -0.922444 -0.483723 -0.0406159 -0.931262 1.0 -0.972656 1.0 0.843026 -0.371213 0.502134 -0.997907 0.902975 1.0 -0.159382 -0.529709 -0.808071 -0.468422 -0.943063 1.0 -0.976015 0.949728 -0.999952 0.955284 1.0 0.733521 1.0 0.99869 0.869633 0.93653 0.886251 1.0 0.143788 0.994663 1.0 -0.937541 -0.830884 0.885038 -0.819694 -0.487961 1.0 0.997438 -0.349017 0.972704 -0.768661 -0.333389 -0.877349 0.95618 0.759891 -0.985574 0.964149 0.955462 -0.574219 0.931411 -0.914257 -0.924111 -0.805505 0.310255 0.986837 0.834115 0.250471 -0.769315 -0.150285 1.0 0.999999 0.989198 -0.208511 -0.998429 -0.875076 -0.576113 -0.436834 0.975966 0.958334 0.965127 1.0
bfs 0.828246 0.958763 0.617593 1.0 1.0 -0.714571 -0.0303174 0.979043 -0.55473 0.97734 -0.845798 1.0 -0.936778 -0.748573 0.998462 0.848714 -0.816032 -0.864675 1.0 0.383009 -0.191274 -0.155613 0.216792 -0.994763 0.0495501 0.974509 -0.902651 -0.445732 -0.0406159 -0.931262 1.0 -0.972656 1.0 -0.980896 0.795181 0.502134 -0.997907 0.902975 1.0 -0.159382 0.959159 0.831675 -0.468422 -0.943063 1.0 -0.976015 0.949728 -0.99999 0.945529 1.0 -0.0356535 1.0 0.447742 0.869633 0.93653 0.82004 1.0 0.143788 0.999589 1.0 -0.951563 -0.830884 0.885038 -0.819694 -0.487961 1.0 1.0 -0.349017 0.972704 0.980752 -0.736849 1.0 0.993602 -0.716157 -0.985574 0.964149 0.955462 1.0 0.931411 1.0 -0.862359 -0.8796 0.992255 0.749517 0.313474 0.168601 -0.769315 -0.150285 1.0 0.999999 0.989546 -0.208511 -0.998429 -0.875076 -0.677285 -0.436834 0.975966 0.958334 0.965127 1.0
bfs -0.636776 0.958763 0.998258 1.0 1.0 -0.664198 -0.0303174 0.979043 0.958626 0.97734 -0.845798 1.0 -0.936778 -0.748573 0.998462 0.99999 -0.751767 -0.864675 1.0 0.95791 0.978423 -0.155613 0.216792 -0.987062 0.982426 0.974509 -0.902651 -0.445732 -0.0406159 -0.931262 1.0 -0.972656 1.0 0.843026 0.006423 0.502134 -0.997907 0.999963 1.0 -0.159382 -0.529709 0.831675 -0.468422 -0.88658 1.0 -0.976015 0.949728 -0.999952 -0.457949 1.0 0.733521 1.0 0.998934 0.869633 0.93653 0.82004 1.0 0.143788 1.0 1.0 -0.564463 -0.830884 -0.181427 -0.819694 -0.487961 1.0 1.0 -0.349017 0.972704 0.980752 0.133895 1.0 0.993602 -0.716157 -0.985574 0.964149 0.955462 1.0 0.931411 1.0 0.998424 -0.805505 0.999496 1.0 0.621845 -0.747807 0.844757 -0.150285 1.0 1.0 0.989546 -0.208511 -0.9932 -0.875076 -0.35616 0.813431 0.975966 0.999171 0.965127 1.0
bfs 0.999908 0.958763 0.985811 1.0 1.0 -0.777106 -0.0303174 0.979043 0.958626 0.97734 -0.845798 1.0 -0.936778 -0.748573 0.998462 0.999995 0.967875 0.969317 1.0 0.999999 0.99435 -0.155613 0.216792 -0.994763 0.999826 0.974509 -0.902651 -0.445732 -0.0406159 -0.931262 1.0 -0.972656 1.0 -0.980896 0.798498 0.502134 -0.997907 0.991039 1.0 -0.159382 -0.636274 -0.808071 -0.468422 -0.943063 1.0 -0.976015 0.949728 -0.999952 -0.457949 1.0 -0.059154 1.0 0.999991 0.869633 0.985651 -0.476783 1.0 0.143788 1.0 1.0 -0.564463 -0.830884 0.885038 -0.819694 -0.487961 1.0 1.0 -0.349017 0.972704 0.980752 1.0 -0.989224 0.95618 -0.716157 -0.985574 0.964149 0.955462 1.0 0.931411 1.0 1.0 -0.488828 1.0 1.0 0.621845 -0.079319 0.998155 -0.150285 1.0 1.0 0.989546 -0.208511 -0.970829 -0.875076 -0.372071 -0.42498 0.975966 0.958334 0.965127 1.0
bfs -0.636776 0.958763 0.998258 1.0 1.0 -0.664198 -0.0303174 0.979043 0.958626 0.97734 -0.845798 1.0 -0.936778 -0.748573 0.998462 0.99999 -0.751767 -0.864675 1.0 0.95791 0.978423 -0.155613 0.216792 -0.987062 0.982426 0.974509 -0.902651 -0.445732 -0.0406159 -0.931262 1.0 -0.972656 1.0 0.843026 0.006423 0.502134 -0.997907 0.999963 1.0 -0.159382 -0.529709 0.831675 -0.468422 -0.88658 1.0 -0.976015 0.949728 -0.999952 -0.457949 1.0 0.733521 1.0 0.998934 0.869633 0.93653 0.82004 1.0 0.143788 1.0 1.0 -0.564463 -0.830884 -0.181427 -0.819694 -0.487961 1.0 1.0 -0.349017 0.972704 0.980752 0.133895 1.0 0.993602 -0.716157 -0.985574 0.964149 0.955462 1.0 0.931411 1.0 0.998424 -0.805505 0.999496 1.0 0.621845 -0.747807 0.844757 -0.150285 1.0 1.0 0.989546 -0.208511 -0.9932 -0.875076 -0.35616 0.813431 0.975966 0.999171 0.965127 1.0
bfs -0.495035 -0.808146 -0.927496 0.999998 1.0 -0.302222 -0.0303174 0.979043 0.958626 0.97734 -0.845798 1.0 -0.936778 -0.748573 0.998462 0.974234 0.901206 -0.864675 1.0 -0.613016 -0.408564 -0.155613 0.216792 -0.994763 0.982426 0.974509 -0.902651 -0.445732 -0.0406159 -0.931262 1.0 -0.972656 1.0 0.843026 0.006423 0.502134 -0.997907 0.902975 1.0 -0.159382 -0.627717 0.831675 -0.468422 -0.943063 1.0 -0.976015 0.949728 -0.999952 0.901019 0.999999 0.287633 1.0 0.997552 0.869633 0.984569 0.82004 1.0 0.143788 0.975978 1.0 -0.9353 -0.830884 0.64863 -0.819694 -0.487961 1.0 0.999838 -0.349017 0.972704 0.980752 -0.784251 0.999999 0.993602 -0.716157 -0.985574 0.964149 0.955462 0.999991 0.931411 -0.432817 -0.909342 -0.805505 0.310255 0.946977 0.621845 0.899557 0.844757 -0.150285 1.0 0.999998 0.989546 -0.208511 -0.9932 -0.875076 -0.575439 -0.743733 0.975966 0.958334 0.965127 1.0
bfs -0.636776 0.958763 0.974915 1.0 1.0 -0.82123 -0.0303174 0.979043 -0.461956 0.97734 -0.845798 1.0 -0.936778 -0.748573 -0.792145 0.964976 -0.816032 -0.882435 1.0 -0.718229 0.835976 -0.155613 0.216792 -0.993885 -0.978612 0.974509 -0.902651 -0.445732 -0.0406159 0.950853 1.0 -0.972656 1.0 0.843026 -0.292258 0.502134 -0.997907 -0.753381 1.0 -0.159382 -0.529709 -0.808071 -0.468422 0.638886 1.0 -0.976015 0.949728 -0.999952 -0.598084 1.0 -0.683182 1.0 0.997919 -0.668798 0.93653 -0.746681 1.0 0.143788 1.0 1.0 -0.909361 -0.830884 0.513661 -0.819694 -0.487961 1.0 1.0 -0.349017 -0.768931 0.980752 0.705153 -0.996415 0.993602 -0.716157 -0.985574 0.932911 -0.441385 -0.758038 0.931411 1.0 0.394211 0.972248 1.0 0.973623 0.694032 -0.763154 -0.954789 -0.150285 1.0 1.0 0.989546 -0.208511 -0.999471 -0.875076 -0.35616 -0.76426 0.975966 0.999171 -0.714953 1.0
bfs -0.636776 0.958763 0.974915 1.0 1.0 -0.818629 -0.0303174 0.979043 -0.824184 0.97734 -0.845798 1.0 -0.936778 -0.748573 -0.792145 0.734008 0.901206 -0.882435 1.0 -0.582464 0.99435 -0.155613 0.216792 -0.987062 -0.978612 0.974509 -0.902651 -0.445732 -0.0406159 0.950853 1.0 -0.972656 1.0 0.843026 -0.292258 0.502134 -0.997907 0.902975 1.0 -0.159382 0.731712 -0.808071 -0.468422 -0.786712 1.0 -0.976015 0.949728 -0.999952 -0.337829 1.0 -0.650944 1.0 0.804775 0.369544 0.93653 -0.714194 1.0 0.143788 1.0 1.0 -0.564463 -0.830884 0.64863 -0.819694 -0.487961 1.0 1.0 -0.349017 -0.768931 0.980752 -0.579413 -0.996415 0.95618 -0.562301 -0.985574 0.932911 -0.441385 -0.617928 0.931411 1.0 -0.895395 0.972248 0.999992 0.986605 0.694032 -0.660917 -0.887673 -0.150285 1.0 1.0 0.989546 -0.208511 -0.999471 -0.875076 0.881179 -0.42498 0.975966 0.990043 0.845661 1.0
bfs 0.970814 -0.855794 -0.927496 0.999975 1.0 0.90613 -0.0303174 -0.812529 0.958626 -0.823127 -0.853444 1.0 -0.936778 -0.829595 0.998462 0.220678 0.943528 0.976825 1.0 0.328732 -0.560062 -0.155613 0.216792 -0.994763 0.0495501 -0.822226 -0.922444 -0.483723 -0.0406159 -0.931262 1.0 -0.972656 1.0 0.843026 -0.371213 0.502134 -0.997907 0.902975 1.0 -0.159382 -0.529709 -0.808071 -0.468422 -0.943063 1.0 -0.976015 0.949728 -0.999952 0.955284 1.0 0.733521 1.0 0.99869 0.869633 0.93653 0.886251 1.0 0.143788 0.994663 1.0 -0.937541 -0.830884 0.885038 -0.819694 -0.487961 1.0 0.997438 -0.349017 0.972704 -0.768661 -0.333389 -0.877349 0.95618 0.759891 -0.985574 0.964149 0.955462 -0.574219 0.931411 -0.914257 -0.924111 -0.805505 0.310255 0.986837 0.834115 0.250471 -0.769315 -0.150285 1.0 0.999999 0.989198 -0.208511 -0.998429 -0.875076 -0.576113 -0.436834 0.975966 0.958334 0.965127 1.0
bfs 0.99999 0.958763 0.974915 1.0 1.0 -0.709623 -0.0303174 0.979043 0.958626 0.97734 -0.845798 1.0 -0.936778 -0.748573 0.998462 1.0 0.943528 0.976825 1.0 0.998891 0.99435 -0.155613 0.216792 -0.987062 0.982426 0.974509 -0.902651 -0.445732 -0.0406159 0.950853 1.0 -0.972656 1.0 0.843026 0.795181 0.502134 -0.997907 0.999988 1.0 -0.159382 0.959159 0.856363 -0.468422 -0.904103 1.0 -0.976015 0.949728 -0.999952 0.999946 1.0 0.733521 1.0 0.896584 0.937834 0.93653 0.886251 1.0 0.143788 1.0 1.0 0.543626 -0.830884 0.64863 -0.819694 -0.487961 1.0 1.0 -0.349017 0.972704 0.980752 0.0459736 -0.864939 0.95618 -0.716157 -0.985574 0.964149 0.955462 1.0 0.931411 1.0 0.999981 0.972248 1.0 0.999904 0.694032 -0.660917 0.844757 -0.150285 1.0 1.0 0.989546 -0.208511 -0.9932 -0.875076 -0.372071 -0.42498 0.975966 0.999171 0.965127 1.0
bfs 0.999358 0.958763 0.974915 1.0 1.0 -0.548628 -0.0303174 0.979043 0.958626 0.97734 -0.845798 1.0 -0.936778 -0.748573 0.998462 0.90672 -0.816032 -0.864675 1.0 -0.428545 -0.321992 -0.155613 0.216792 -0.993885 0.982426 0.974509 -0.902651 -0.445732 -0.0406159 -0.931262 1.0 -0.972656 1.0 0.843026 -0.371213 0.502134 -0.997907 0.902975 1.0 -0.159382 0.959159 0.831675 -0.468422 -0.892007 1.0 -0.976015 0.949728 -0.999952 -0.457949 1.0 0.26957 1.0 0.978876 0.869633 0.984569 0.82004 1.0 0.143788 1.0 1.0 -0.91407 -0.830884 0.885038 -0.819694 -0.487961 1.0 1.0 -0.349017 0.972704 0.980752 -0.622017 0.99824 0.993602 -0.716157 -0.985574 0.964149 0.955462 0.998492 0.931411 1.0 0.987964 -0.805505 1.0 0.0811337 0.621845 -0.07325 0.844757 -0.150285 1.0 1.0 0.989546 -0.208511 -0.9932 -0.875076 -0.677285 0.891327 0.975966 0.999171 0.965127 1.0
bfs -0.636776 0.958763 0.998258 1.0 1.0 -0.664198 -0.0303174 0.979043 0.958626 0.97734 -0.845798 1.0 -0.936778 -0.748573 0.998462 0.99999 -0.751767 -0.864675 1.0 0.95791 0.978423 -0.155613 0.216792 -0.987062 0.982426 0.974509 -0.902651 -0.445732 -0.0406159 -0.931262 1.0 -0.972656 1.0 0.843026 0.006423 0.502134 -0.997907 0.999963 1.0 -0.159382 -0.529709 0.831675 -0.468422 -0.88658 1.0 -0.976015 0.949728 -0.999952 -0.457949 1.0 0.733521 1.0 0.998934 0.869633 0.93653 0.82004 1.0 0.143788 1.0 1.0 -0.564463 -0.830884 -0.181427 -0.819694 -0.487961 1.0 1.0 -0.349017 0.972704 0.980752 0.133895 1.0 0.993602 -0.716157 -0.985574 0.964149 0.955462 1.0 0.931411 1.0 0.998424 -0.805505 0.999496 1.0 0.621845 -0.747807 0.844757 -0.150285 1.0 1.0 0.989546 -0.208511 -0.9932 -0.875076 -0.35616 0.813431 0.975966 0.999171 0.965127 1.0
bfs -0.492249 0.958763 0.974915 1.0 1.0 -0.709623 -0.0303174 0.979043 -0.756997 0.97734 -0.845798 1.0 -0.936778 -0.748573 0.761948 0.734008 -0.509329 -0.882435 1.0 -0.192127 0.886364 -0.155613 0.216792 -0.987062 0.982426 0.974509 -0.902651 -0.445732 -0.0406159 0.950853 1.0 -0.972656 1.0 0.843026 0.006423 0.502134 -0.997907 0.902975 1.0 -0.159382 -0.627717 0.831675 -0.468422 -0.518536 1.0 -0.976015 0.961089 -0.999989 -0.495018 1.0 0.733521 1.0 0.915914 0.150942 0.93653 0.34415 1.0 0.143788 1.0 1.0 -0.909361 -0.830884 0.513661 -0.819694 -0.487961 1.0 1.0 -0.349017 0.972704 0.980752 0.989024 -0.999368 0.993602 -0.716157 -0.985574 0.932911 -0.441385 -0.617928 0.931411 1.0 0.9627 0.972248 1.0 0.998288 0.694032 -0.747807 0.844757 -0.150285 1.0 1.0 0.989546 -0.208511 -0.9932 -0.875076 -0.35616 -0.76426 0.975966 0.990043 -0.714953 1.0
bfs 0.999908 0.958763 0.985811 1.0 1.0 -0.777106 -0.0303174 0.979043 0.958626 0.97734 -0.845798 1.0 -0.936778 -0.748573 0.998462 0.999995 0.967875 0.969317 1.0 0.999999 0.99435 -0.155613 0.216792 -0.994763 0.999826 0.974509 -0.902651 -0.445732 -0.0406159 -0.931262 1.0 -0.972656 1.0 -0.980896 0.798498 0.502134 -0.997907 0.991039 1.0 -0.159382 -0.636274 -0.808071 -0.468422 -0.943063 1.0 -0.976015 0.949728 -0.999952 -0.457949 1.0 -0.059154 1.0 0.999991 0.869633 0.985651 -0.476783 1.0 0.143788 1.0 1.0 -0.564463 -0.830884 0.885038 -0.819694 -0.487961 1.0 1.0 -0.349017 0.972704 0.980752 1.0 -0.989224 0.95618 -0.716157 -0.985574 0.964149 0.955462 1.0 0.931411 1.0 1.0 -0.488828 1.0 1.0 0.621845 -0.079319 0.998155 -0.150285 1.0 1.0 0.989546 -0.208511 -0.970829 -0.875076 -0.372071 -0.42498 0.975966 0.958334 0.965127 1.0
bfs -0.636776 0.958763 0.974915 1.0 1.0 -0.82123 -0.0303174 0.979043 -0.461956 0.97734 -0.845798 1.0 -0.936778 -0.748573 -0.792145 0.964976 -0.816032 -0.882435 1.0 -0.718229 0.835976 -0.155613 0.216792 -0.993885 -0.978612 0.974509 -0.902651 -0.445732 -0.0406159 0.950853 1.0 -0.972656 1.0 0.843026 -0.292258 0.502134 -0.997907 -0.753381 1.0 -0.159382 -0.529709 -0.808071 -0.468422 0.638886 1.0 -0.976015 0.949728 -0.999952 -0.598084 1.0 -0.683182 1.0 0.997919 -0.668798 0.93653 -0.746681 1.0 0.143788 1.0 1.0 -0.909361 -0.830884 0.513661 -0.819694 -0.487961 1.0 1.0 -0.349017 -0.768931 0.980752 0.705153 -0.996415 0.993602 -0.716157 -0.985574 0.932911 -0.441385 -0.758038 0.931411 1.0 0.394211 0.972248 1.0 0.973623 0.694032 -0.763154 -0.954789 -0.150285 1.0 1.0 0.989546 -0.208511 -0.999471 -0.875076 -0.35616 -0.76426 0.975966 0.999171 -0.714953 1.0
bfs -0.636776 0.958763 0.974915 1.0 1.0 -0.818629 -0.0303174 0.979043 -0.824184 0.97734 -0.845798 1.0 -0.936778 -0.748573 -0.792145 0.734008 0.901206 -0.882435 1.0 -0.582464 0.99435 -0.155613 0.216792 -0.987062 -0.978612 0.974509 -0.902651 -0.445732 -0.0406159 0.950853 1.0 -0.972656 1.0 0.843026 -0.292258 0.502134 -0.997907 0.902975 1.0 -0.159382 0.731712 -0.808071 -0.468422 -0.786712 1.0 -0.976015 0.949728 -0.999952 -0.337829 1.0 -0.650944 1.0 0.804775 0.369544 0.93653 -0.714194 1.0 0.143788 1.0 1.0 -0.564463 -0.830884 0.64863 -0.819694 -0.487961 1.0 1.0 -0.349017 -0.768931 0.980752 -0.579413 -0.996415 0.95618 -0.562301 -0.985574 0.932911 -0.441385 -0.617928 0.931411 1.0 -0.895395 0.972248 0.999992 0.986605 0.694032 -0.660917 -0.887673 -0.150285 1.0 1.0 0.989546 -0.208511 -0.999471 -0.875076 0.881179 -0.42498 0.975966 0.990043 0.845661 1.0
bfs 0.999358 0.958763 0.974915 1.0 1.0 -0.548628 -0.0303174 0.979043 0.958626 0.97734 -0.845798 1.0 -0.936778 -0.748573 0.998462 0.90672 -0.816032 -0.864675 1.0 -0.428545 -0.321992 -0.155613 0.216792 -0.993885 0.982426 0.974509 -0.902651 -0.445732 -0.0406159 -0.931262 1.0 -0.972656 1.0 0.843026 -0.371213 0.502134 -0.997907 0.902975 1.0 -0.159382 0.959159 0.831675 -0.468422 -0.892007 1.0 -0.976015 0.949728 -0.999952 -0.457949 1.0 0.26957 1.0 0.978876 0.869633 0.984569 0.82004 1.0 0.143788 1.0 1.0 -0.91407 -0.830884 0.885038 -0.819694 -0.487961 1.0 1.0 -0.349017 0.972704 0.980752 -0.622017 0.99824 0.993602 -0.716157 -0.985574 0.964149 0.955462 0.998492 0.931411 1.0 0.987964 -0.805505 1.0 0.0811337 0.621845 -0.07325 0.844757 -0.150285 1.0 1.0 0.989546 -0.208511 -0.9932 -0.875076 -0.677285 0.891327 0.975966 0.999171 0.965127 1.0
bfs 0.999908 0.958763 0.985811 1.0 1.0 -0.777106 -0.0303174 0.979043 0.958626 0.97734 -0.845798 1.0 -0.936778 -0.748573 0.998462 0.999995 0.967875 0.969317 1.0 0.999999 0.99435 -0.155613 0.216792 -0.994763 0.999826 0.974509 -0.902651 -0.445732 -0.0406159 -0.931262 1.0 -0.972656 1.0 -0.980896 0.798498 0.502134 -0.997907 0.991039 1.0 -0.159382 -0.636274 -0.808071 -0.468422 -0.943063 1.0 -0.976015 0.949728 -0.999952 -0.457949 1.0 -0.059154 1.0 0.999991 0.869633 0.985651 -0.476783 1.0 0.143788 1.0 1.0 -0.564463 -0.830884 0.885038 -0.819694 -0.487961 1.0 1.0 -0.349017 0.972704 0.980752 1.0 -0.989224 0.95618 -0.716157 -0.985574 0.964149 0.955462 1.0 0.931411 1.0 1.0 -0.488828 1.0 1.0 0.621845 -0.079319 0.998155 -0.150285 1.0 1.0 0.989546 -0.208511 -0.970829 -0.875076 -0.372071 -0.42498 0.975966 0.958334 0.965127 1.0
bfs 0.970814 -0.855794 -0.927496 0.999975 1.0 0.90613 -0.0303174 -0.812529 0.958626 -0.823127 -0.853444 1.0 -0.936778 -0.829595 0.998462 0.220678 0.943528 0.976825 1.0 0.328732 -0.560062 -0.155613 0.216792 -0.994763 0.0495501 -0.822226 -0.922444 -0.483723 -0.0406159 -0.931262 1.0 -0.972656 1.0 0.843026 -0.371213 0.502134 -0.997907 0.902975 1.0 -0.159382 -0.529709 -0.808071 -0.468422 -0.943063 1.0 -0.976015 0.949728 -0.999952 0.955284 1.0 0.733521 1.0 0.99869 0.869633 0.93653 0.886251 1.0 0.143788 0.994663 1.0 -0.937541 -0.830884 0.885038 -0.819694 -0.487961 1.0 0.997438 -0.349017 0.972704 -0.768661 -0.333389 -0.877349 0.95618 0.759891 -0.985574 0.964149 0.955462 -0.574219 0.931411 -0.914257 -0.924111 -0.805505 0.310255 0.986837 0.834115 0.250471 -0.769315 -0.150285 1.0 0.999999 0.989198 -0.208511 -0.998429 -0.875076 -0.576113 -0.436834 0.975966 0.958334 0.965127 1.0
bfs 0.828246 0.958763 0.617593 1.0 1.0 -0.714571 -0.0303174 0.979043 -0.55473 0.97734 -0.845798 1.0 -0.936778 -0.748573 0.998462 0.848714 -0.816032 -0.864675 1.0 0.383009 -0.191274 -0.155613 0.216792 -0.994763 0.0495501 0.974509 -0.902651 -0.445732 -0.0406159 -0.931262 1.0 -0.972656 1.0 -0.980896 0.795181 0.502134 -0.997907 0.902975 1.0 -0.159382 0.959159 0.831675 -0.468422 -0.943063 1.0 -0.976015 0.949728 -0.99999 0.945529 1.0 -0.0356535 1.0 0.447742 0.869633 0.93653 0.82004 1.0 0.143788 0.999589 1.0 -0.951563 -0.830884 0.885038 -0.819694 -0.487961 1.0 1.0 -0.349017 0.972704 0.980752 -0.736849 1.0 0.993602 -0.716157 -0.985574 0.964149 0.955462 1.0 0.931411 1.0 -0.862359 -0.8796 0.992255 0.749517 0.313474 0.168601 -0.769315 -0.150285 1.0 0.999999 0.989546 -0.208511 -0.998429 -0.875076 -0.677285 -0.436834 0.975966 0.958334 0.965127 1.0
bfs 1.0 -0.855794 -0.927496 1.0 1.0 -0.860509 -0.0303174 -0.812529 -0.824184 -0.823127 -0.853444 1.0 -0.936778 -0.829595 -0.79316 -0.942002 -0.816032 -0.864675 1.0 1.0 -0.560062 -0.155613 0.216792 -0.994763 0.0495501 -0.822226 -0.927698 -0.483723 -0.0406159 -0.931262 1.0 -0.972656 1.0 -0.980896 0.798498 0.502134 -0.997907 0.998449 1.0 -0.159382 -0.800853 -0.808071 -0.468422 -0.961588 1.0 -0.976015 0.949728 -0.99999 -0.457949 1.0 -0.710521 1.0 0.982068 0.869633 0.839295 -0.747752 1.0 0.143788 1.0 1.0 -0.957026 -0.830884 -0.414001 -0.819694 -0.487961 1.0 1.0 -0.349017 0.972704 -0.768661 -0.922987 -0.999368 -0.915048 -0.723797 -0.985574 0.964149 0.955462 -0.82425 0.931411 -0.980099 0.9997 -0.885585 0.512626 1.0 -0.298058 -0.747807 -0.769315 -0.150285 1.0 1.0 0.989198 -0.208511 -0.998429 -0.875076 -0.688486 -0.802533 0.975966 -0.81067 -0.782406 1.0
bfs -0.636776 0.958763 -0.927496 1.0 1.0 -0.39623 -0.0303174 0.979043 -0.778534 0.97734 -0.845798 1.0 -0.936778 -0.748573 0.998462 0.999996 0.943528 0.976825 1.0 0.961339 -0.321992 -0.155613 0.216792 -0.993885 0.999826 0.974509 -0.902651 -0.445732 -0.0406159 -0.931262 1.0 -0.972656 1.0 0.843026 0.006423 0.502134 -0.997907 0.992575 1.0 -0.159382 -0.529709 0.831675 -0.468422 -0.933131 1.0 -0.976015 0.949728 -0.999984 0.999992 1.0 0.895186 1.0 0.99988 0.937834 0.984569 0.886251 1.0 0.143788 1.0 1.0 0.543626 -0.830884 0.64863 -0.819694 -0.487961 1.0 1.0 -0.349017 0.972704 0.980752 -0.794203 -0.595168 0.95618 -0.716157 -0.985574 0.964149 0.955462 1.0 0.931411 1.0 0.914938 -0.488828 1.0 0.999984 0.313474 0.207231 0.998155 -0.150285 1.0 1.0 0.989546 -0.208511 -0.970829 -0.875076 -0.429219 0.817412 0.975966 0.741449 0.965127 1.0
bfs 0.828246 0.958763 0.617593 1.0 1.0 -0.714571 -0.0303174 0.979043 -0.55473 0.97734 -0.845798 1.0 -0.936778 -0.748573 0.998462 0.848714 -0.816032 -0.864675 1.0 0.383009 -0.191274 -0.155613 0.216792 -0.994763 0.0495501 0.974509 -0.902651 -0.445732 -0.0406159 -0.931262 1.0 -0.972656 1.0 -0.980896 0.795181 0.502134 -0.997907 0.902975 1.0 -0.159382 0.959159 0.831675 -0.468422 -0.943063 1.0 -0.976015 0.949728 -0.99999 0.945529 1.0 -0.0356535 1.0 0.447742 0.869633 0.93653 0.82004 1.0 0.143788 0.999589 1.0 -0.951563 -0.830884 0.885038 -0.819694 -0.487961 1.0 1.0 -0.349017 0.972704 0.980752 -0.736849 1.0 0.993602 -0.716157 -0.985574 0.964149 0.955462 1.0 0.931411 1.0 -0.862359 -0.8796 0.992255 0.749517 0.313474 0.168601 -0.769315 -0.150285 1.0 0.999999 0.989546 -0.208511 -0.998429 -0.875076 -0.677285 -0.436834 0.975966 0.958334 0.965127 1.0
bfs 0.99999 0.958763 0.974915 1.0 1.0 -0.709623 -0.0303174 0.979043 0.958626 0.97734 -0.845798 1.0 -0.936778 -0.748573 0.998462 1.0 0.943528 0.976825 1.0 0.998891 0.99435 -0.155613 0.216792 -0.987062 0.982426 0.974509 -0.902651 -0.445732 -0.0406159 0.950853 1.0 -0.972656 1.0 0.843026 0.795181 0.502134 -0.997907 0.999988 1.0 -0.159382 0.959159 0.856363 -0.468422 -0.904103 1.0 -0.976015 0.949728 -0.999952 0.999946 1.0 0.733521 1.0 0.896584 0.937834 0.93653 0.886251 1.0 0.143788 1.0 1.0 0.543626 -0.830884 0.64863 -0.819694 -0.487961 1.0 1.0 -0.349017 0.972704 0.980752 0.0459736 -0.864939 0.95618 -0.716157 -0.985574 0.964149 0.955462 1.0 0.931411 1.0 0.999981 0.972248 1.0 0.999904 0.694032 -0.660917 0.844757 -0.150285 1.0 1.0 0.989546 -0.208511 -0.9932 -0.875076 -0.372071 -0.42498 0.975966 0.999171 0.965127 1.0
bfs -0.495035 -0.808146 -0.927496 0.999998 1.0 -0.302222 -0.0303174 0.979043 0.958626 0.97734 -0.845798 1.0 -0.936778 -0.748573 0.998462 0.974234 0.901206 -0.864675 1.0 -0.613016 -0.408564 -0.155613 0.216792 -0.994763 0.982426 0.974509 -0.902651 -0.445732 -0.0406159 -0.931262 1.0 -0.972656 1.0 0.843026 0.006423 0.502134 -0.997907 0.902975 1.0 -0.159382 -0.627717 0.831675 -0.468422 -0.943063 1.0 -0.976015 0.949728 -0.999952 0.901019 0.999999 0.287633 1.0 0.997552 0.869633 0.984569 0.82004 1.0 0.143788 0.975978 1.0 -0.9353 -0.830884 0.64863 -0.819694 -0.487961 1.0 0.999838 -0.349017 0.972704 0.980752 -0.784251 0.999999 0.993602 -0.716157 -0.985574 0.964149 0.955462 0.999991 0.931411 -0.432817 -0.909342 -0.805505 0.310255 0.946977 0.621845 0.899557 0.844757 -0.150285 1.0 0.999998 0.989546 -0.208511 -0.9932 -0.875076 -0.575439 -0.743733 0.975966 0.958334 0.965127 1.0
bfs 0.828246 0.958763 0.617593 1.0 1.0 -0.714571 -0.0303174 0.979043 -0.55473 0.97734 -0.845798 1.0 -0.936778 -0.748573 0.998462 0.848714 -0.816032 -0.864675 1.0 0.383009 -0.191274 -0.155613 0.216792 -0.994763 0.0495501 0.974509 -0.902651 -0.445732 -0.0406159 -0.931262 1.0 -0.972656 1.0 -0.980896 0.795181 0.502134 -0.997907 0.902975 1.0 -0.159382 0.959159 0.831675 -0.468422 -0.943063 1.0 -0.976015 0.949728 -0.99999 0.945529 1.0 -0.0356535 1.0 0.447742 0.869633 0.93653 0.82004 1.0 0.143788 0.999589 1.0 -0.951563 -0.830884 0.885038 -0.819694 -0.487961 1.0 1.0 -0.349017 0.972704 0.980752 -0.736849 1.0 0.993602 -0.716157 -0.985574 0.964149 0.955462 1.0 0.931411 1.0 -0.862359 -0.8796 0.992255 0.749517 0.313474 0.168601 -0.769315 -0.150285 1.0 0.999999 0.989546 -0.208511 -0.998429 -0.875076 -0.677285 -0.436834 0.975966 0.958334 0.965127 1.0
bfs -0.495035 -0.808146 -0.927496 0.999998 1.0 -0.302222 -0.0303174 0.979043 0.958626 0.97734 -0.845798 1.0 -0.936778 -0.748573 0.998462 0.974234 0.901206 -0.864675 1.0 -0.613016 -0.408564 -0.155613 0.216792 -0.994763 0.982426 0.974509 -0.902651 -0.445732 -0.0406159 -0.931262 1.0 -0.972656 1.0 0.843026 0.006423 0.502134 -0.997907 0.902975 1.0 -0.159382 -0.627717 0.831675 -0.468422 -0.943063 1.0 -0.976015 0.949728 -0.999952 0.901019 0.999999 0.287633 1.0 0.997552 0.869633 0.984569 0.82004 1.0 0.143788 0.975978 1.0 -0.9353 -0.830884 0.64863 -0.819694 -0.487961 1.0 0.999838 -0.349017 0.972704 0.980752 -0.784251 0.999999 0.993602 -0.716157 -0.985574 0.964149 0.955462 0.999991 0.931411 -0.432817 -0.909342 -0.805505 0.310255 0.946977 0.621845 0.899557 0.844757 -0.150285 1.0 0.999998 0.989546 -0.208511 -0.9932 -0.875076 -0.575439 -0.743733 0.975966 0.958334 0.965127 1.0
bfs -0.495035 -0.808146 -0.927496 0.999998 1.0 -0.302222 -0.0303174 0.979043 0.958626 0.97734 -0.845798 1.0 -0.936778 -0.748573 0.998462 0.974234 0.901206 -0.864675 1.0 -0.613016 -0.408564 -0.155613 0.216792 -0.994763 0.982426 0.974509 -0.902651 -0.445732 -0.0406159 -0.931262 1.0 -0.972656 1.0 0.843026 0.006423 0.502134 -0.997907 0.902975 1.0 -0.159382 -0.627717 0.831675 -0.468422 -0.943063 1.0 -0.976015 0.949728 -0.999952 0.901019 0.999999 0.287633 1.0 0.997552 0.869633 0.984569 0.82004 1.0 0.143788 0.975978 1.0 -0.9353 -0.830884 0.64863 -0.819694 -0.487961 1.0 0.999838 -0.349017 0.972704 0.980752 -0.784251 0.999999 0.993602 -0.716157 -0.985574 0.964149 0.955462 0.999991 0.931411 -0.432817 -0.909342 -0.805505 0.310255 0.946977 0.621845 0.899557 0.844757 -0.150285 1.0 0.999998 0.989546 -0.208511 -0.9932 -0.875076 -0.575439 -0.743733 0.975966 0.958334 0.965127 1.0
bfs -0.636776 0.958763 0.974915 1.0 1.0 -0.709623 -0.0303174 0.979043 -0.752232 0.97734 -0.845798 1.0 -0.936778 -0.748573 -0.792145 -0.267202 0.943528 0.976825 1.0 0.0649083 0.835976 -0.155613 0.216792 -0.994763 0.0495501 0.974509 -0.902651 -0.445732 -0.0406159 -0.931262 1.0 -0.972656 1.0 0.843026 0.795181 0.502134 -0.997907 0.902975 1.0 -0.159382 -0.529709 -0.808071 -0.468422 -0.175837 1.0 -0.976015 0.949728 -0.999952 -0.507453 1.0 -0.710521 1.0 -0.05451 -0.670534 0.93653 0.886251 1.0 0.143788 1.0 1.0 -0.91407 -0.830884 0.497054 -0.819694 -0.487961 1.0 1.0 -0.349017 0.972704 0.980752 0.979578 -0.996415 0.95618 -0.716157 -0.985574 0.932911 -0.441385 -0.325236 0.931411 1.0 0.190729 -0.805505 1.0 0.553734 -0.190416 -0.747807 -0.769315 -0.150285 1.0 1.0 0.989546 -0.208511 -0.998429 -0.875076 -0.35616 -0.76426 0.975966 0.999171 -0.761794 1.0
bfs 0.970814 -0.855794 -0.927496 0.999975 1.0 0.90613 -0.0303174 -0.812529 0.958626 -0.823127 -0.853444 1.0 -0.936778 -0.829595 0.998462 0.220678 0.943528 0.976825 1.0 0.328732 -0.560062 -0.155613 0.216792 -0.994763 0.0495501 -0.822226 -0.922444 -0.483723 -0.0406159 -0.931262 1.0 -0.972656 1.0 0.843026 -0.371213 0.502134 -0.997907 0.902975 1.0 -0.159382 -0.529709 -0.808071 -0.468422 -0.943063 1.0 -0.976015 0.949728 -0.999952 0.955284 1.0 0.733521 1.0 0.99869 0.869633 0.93653 0.886251 1.0 0.143788 0.994663 1.0 -0.937541 -0.830884 0.885038 -0.819694 -0.487961 1.0 0.997438 -0.349017 0.972704 -0.768661 -0.333389 -0.877349 0.95618 0.759891 -0.985574 0.964149 0.955462 -0.574219 0.931411 -0.914257 -0.924111 -0.805505 0.310255 0.986837 0.834115 0.250471 -0.769315 -0.150285 1.0 0.999999 0.989198 -0.208511 -0.998429 -0.875076 -0.576113 -0.436834 0.975966 0.958334 0.965127 1.0
bfs -0.636776 0.958763 0.998258 1.0 1.0 -0.664198 -0.0303174 0.979043 0.958626 0.97734 -0.845798 1.0 -0.936778 -0.748573 0.998462 0.99999 -0.751767 -0.864675 1.0 0.95791 0.978423 -0.155613 0.216792 -0.987062 0.982426 0.974509 -0.902651 -0.445732 -0.0406159 -0.931262 1.0 -0.972656 1.0 0.843026 0.006423 0.502134 -0.997907 0.999963 1.0 -0.159382 -0.529709 0.831675 -0.468422 -0.88658 1.0 -0.976015 0.949728 -0.999952 -0.457949 1.0 0.733521 1.0 0.998934 0.869633 0.93653 0.82004 1.0 0.143788 1.0 1.0 -0.564463 -0.830884 -0.181427 -0.819694 -0.487961 1.0 1.0 -0.349017 0.972704 0.980752 0.133895 1.0 0.993602 -0.716157 -0.985574 0.964149 0.955462 1.0 0.931411 1.0 0.998424 -0.805505 0.999496 1.0 0.621845 -0.747807 0.844757 -0.150285 1.0 1.0 0.989546 -0.208511 -0.9932 -0.875076 -0.35616 0.813431 0.975966 0.999171 0.965127 1.0
bfs 0.970814 -0.855794 -0.927496 0.999975 1.0 0.90613 -0.0303174 -0.812529 0.958626 -0.823127 -0.853444 1.0 -0.936778 -0.829595 0.998462 0.220678 0.943528 0.976825 1.0 0.328732 -0.560062 -0.155613 0.216792 -0.994763 0.0495501 -0.822226 -0.922444 -0.483723 -0.0406159 -0.931262 1.0 -0.972656 1.0 0.843026 -0.371213 0.502134 -0.997907 0.902975 1.0 -0.159382 -0.529709 -0.808071 -0.468422 -0.943063 1.0 -0.976015 0.949728 -0.999952 0.955284 1.0 0.733521 1.0 0.99869 0.869633 0.93653 0.886251 1.0 0.143788 0.994663 1.0 -0.937541 -0.830884 0.885038 -0.819694 -0.487961 1.0 0.997438 -0.349017 0.972704 -0.768661 -0.333389 -0.877349 0.95618 0.759891 -0.985574 0.964149 0.955462 -0.574219 0.931411 -0.914257 -0.924111 -0.805505 0.310255 0.986837 0.834115 0.250471 -0.769315 -0.150285 1.0 0.999999 0.989198 -0.208511 -0.998429 -0.875076 -0.576113 -0.436834 0.975966 0.958334 0.965127 1.0
bfs -0.492249 0.958763 0.974915 1.0 1.0 -0.709623 -0.0303174 0.979043 -0.756997 0.97734 -0.845798 1.0 -0.936778 -0.748573 0.761948 0.734008 -0.509329 -0.882435 1.0 -0.192127 0.886364 -0.155613 0.216792 -0.987062 0.982426 0.974509 -0.902651 -0.445732 -0.0406159 0.950853 1.0 -0.972656 1.0 0.843026 0.006423 0.502134 -0.997907 0.902975 1.0 -0.159382 -0.627717 0.831675 -0.468422 -0.518536 1.0 -0.976015 0.961089 -0.999989 -0.495018 1.0 0.733521 1.0 0.915914 0.150942 0.93653 0.34415 1.0 0.143788 1.0 1.0 -0.909361 -0.830884 0.513661 -0.819694 -0.487961 1.0 1.0 -0.349017 0.972704 0.980752 0.989024 -0.999368 0.993602 -0.716157 -0.985574 0.932911 -0.441385 -0.617928 0.931411 1.0 0.9627 0.972248 1.0 0.998288 0.694032 -0.747807 0.844757 -0.150285 1.0 1.0 0.989546 -0.208511 -0.9932 -0.875076 -0.35616 -0.76426 0.975966 0.990043 -0.714953 1.0
bfs 1.0 -0.855794 -0.927496 1.0 1.0 -0.860509 -0.0303174 -0.812529 -0.824184 -0.823127 -0.853444 1.0 -0.936778 -0.829595 -0.79316 -0.942002 -0.816032 -0.864675 1.0 1.0 -0.560062 -0.155613 0.216792 -0.994763 0.0495501 -0.822226 -0.927698 -0.483723 -0.0406159 -0.931262 1.0 -0.972656 1.0 -0.980896 0.798498 0.502134 -0.997907 0.998449 1.0 -0.159382 -0.800853 -0.808071 -0.468422 -0.961588 1.0 -0.976015 0.949728 -0.99999 -0.457949 1.0 -0.710521 1.0 0.982068 0.869633 0.839295 -0.747752 1.0 0.143788 1.0 1.0 -0.957026 -0.830884 -0.414001 -0.819694 -0.487961 1.0 1.0 -0.349017 0.972704 -0.768661 -0.922987 -0.999368 -0.915048 -0.723797 -0.985574 0.964149 0.955462 -0.82425 0.931411 -0.980099 0.9997 -0.885585 0.512626 1.0 -0.298058 -0.747807 -0.769315 -0.150285 1.0 1.0 0.989198 -0.208511 -0.998429 -0.875076 -0.688486 -0.802533 0.975966 -0.81067 -0.782406 1.0
bfs -0.636776 0.958763 0.974915 1.0 1.0 -0.82123 -0.0303174 0.979043 -0.461956 0.97734 -0.845798 1.0 -0.936778 -0.748573 -0.792145 0.964976 -0.816032 -0.882435 1.0 -0.718229 0.835976 -0.155613 0.216792 -0.993885 -0.978612 0.974509 -0.902651 -0.445732 -0.0406159 0.950853 1.0 -0.972656 1.0 0.843026 -0.292258 0.502134 -0.997907 -0.753381 1.0 -0.159382 -0.529709 -0.808071 -0.468422 0.638886 1.0 -0.976015 0.949728 -0.999952 -0.598084 1.0 -0.683182 1.0 0.997919 -0.668798 0.93653 -0.746681 1.0 0.143788 1.0 1.0 -0.909361 -0.830884 0.513661 -0.819694 -0.487961 1.0 1.0 -0.349017 -0.768931 0.980752 0.705153 -0.996415 0.993602 -0.716157 -0.985574 0.932911 -0.441385 -0.758038 0.931411 1.0 0.394211 0.972248 1.0 0.973623 0.694032 -0.763154 -0.954789 -0.150285 1.0 1.0 0.989546 -0.208511 -0.999471 -0.875076 -0.35616 -0.76426 0.975966 0.999171 -0.714953 1.0
bfs -0.636776 0.958763 0.974915 1.0 1.0 -0.709623 -0.0303174 0.979043 -0.752232 0.97734 -0.845798 1.0 -0.936778 -0.748573 -0.792145 -0.267202 0.943528 0.976825 1.0 0.0649083 0.835976 -0.155613 0.216792 -0.994763 0.0495501 0.974509 -0.902651 -0.445732 -0.0406159 -0.931262 1.0 -0.972656 1.0 0.843026 0.795181 0.502134 -0.997907 0.902975 1.0 -0.159382 -0.529709 -0.808071 -0.468422 -0.175837 1.0 -0.976015 0.949728 -0.999952 -0.507453 1.0 -0.710521 1.0 -0.05451 -0.670534 0.93653 0.886251 1.0 0.143788 1.0 1.0 -0.91407 -0.830884 0.497054 -0.819694 -0.487961 1.0 1.0 -0.349017 0.972704 0.980752 0.979578 -0.996415 0.95618 -0.716157 -0.985574 0.932911 -0.441385 -0.325236 0.931411 1.0 0.190729 -0.805505 1.0 0.553734 -0.190416 -0.747807 -0.769315 -0.150285 1.0 1.0 0.989546 -0.208511 -0.998429 -0.875076 -0.35616 -0.76426 0.975966 0.999171 -0.761794 1.0
bfs 1.0 -0.855794 -0.927496 1.0 1.0 -0.860509 -0.0303174 -0.812529 -0.824184 -0.823127 -0.853444 1.0 -0.936778 -0.829595 -0.79316 -0.942002 -0.816032 -0.864675 1.0 1.0 -0.560062 -0.155613 0.216792 -0.994763 0.0495501 -0.822226 -0.927698 -0.483723 -0.0406159 -0.931262 1.0 -0.972656 1.0 -0.980896 0.798498 0.502134 -0.997907 0.998449 1.0 -0.159382 -0.800853 -0.808071 -0.468422 -0.961588 1.0 -0.976015 0.949728 -0.99999 -0.457949 1.0 -0.710521 1.0 0.982068 0.869633 0.839295 -0.747752 1.0 0.143788 1.0 1.0 -0.957026 -0.830884 -0.414001 -0.819694 -0.487961 1.0 1.0 -0.349017 0.972704 -0.768661 -0.922987 -0.999368 -0.915048 -0.723797 -0.985574 0.964149 0.955462 -0.82425 0.931411 -0.980099 0.9997 -0.885585 0.512626 1.0 -0.298058 -0.747807 -0.769315 -0.150285 1.0 1.0 0.989198 -0.208511 -0.998429 -0.875076 -0.688486 -0.802533 0.975966 -0.81067 -0.782406 1.0
bfs 0.999358 0.958763 0.974915 1.0 1.0 -0.548628 -0.0303174 0.979043 0.958626 0.97734 -0.845798 1.0 -0.936778 -0.748573 0.998462 0.90672 -0.816032 -0.864675 1.0 -0.428545 -0.321992 -0.155613 0.216792 -0.993885 0.982426 0.974509 -0.902651 -0.445732 -0.0406159 -0.931262 1.0 -0.972656 1.0 0.843026 -0.371213 0.502134 -0.997907 0.902975 1.0 -0.159382 0.959159 0.831675 -0.468422 -0.892007 1.0 -0.976015 0.949728 -0.999952 -0.457949 1.0 0.26957 1.0 0.978876 0.869633 0.984569 0.82004 1.0 0.143788 1.0 1.0 -0.91407 -0.830884 0.885038 -0.819694 -0.487961 1.0 1.0 -0.349017 0.972704 0.980752 -0.622017 0.99824 0.993602 -0.716157 -0.985574 0.964149 0.955462 0.998492 0.931411 1.0 0.987964 -0.805505 1.0 0.0811337 0.621845 -0.07325 0.844757 -0.150285 1.0 1.0 0.989546 -0.208511 -0.9932 -0.875076 -0.677285 0.891327 0.975966 0.999171 0.965127 1.0
bfs -0.636776 0.958763 0.974915 1.0 1.0 -0.82123 -0.0303174 0.979043 -0.461956 0.97734 -0.845798 1.0 -0.936778 -0.748573 -0.792145 0.964976 -0.816032 -0.882435 1.0 -0.718229 0.835976 -0.155613 0.216792 -0.993885 -0.978612 0.974509 -0.902651 -0.445732 -0.0406159 0.950853 1.0 -0.972656 1.0 0.843026 -0.292258 0.502134 -0.997907 -0.753381 1.0 -0.159382 -0.529709 -0.808071 -0.468422 0.638886 1.0 -0.976015 0.949728 -0.999952 -0.598084 1.0 -0.683182 1.0 0.997919 -0.668798 0.93653 -0.746681 1.0 0.143788 1.0 1.0 -0.909361 -0.830884 0.513661 -0.819694 -0.487961 1.0 1.0 -0.349017 -0.768931 0.980752 0.705153 -0.996415 0.993602 -0.716157 -0.985574 0.932911 -0.441385 -0.758038 0.931411 1.0 0.394211 0.972248 1.0 0.973623 0.694032 -0.763154 -0.954789 -0.150285 1.0 1.0 0.989546 -0.208511 -0.999471 -0.875076 -0.35616 -0.76426 0.975966 0.999171 -0.714953 1.0
bfs -0.636776 0.958763 -0.927496 1.0 1.0 -0.39623 -0.0303174 0.979043 -0.778534 0.97734 -0.845798 1.0 -0.936778 -0.748573 0.998462 0.999996 0.943528 0.976825 1.0 0.961339 -0.321992 -0.155613 0.216792 -0.993885 0.999826 0.974509 -0.902651 -0.445732 -0.0406159 -0.931262 1.0 -0.972656 1.0 0.843026 0.006423 0.502134 -0.997907 0.992575 1.0 -0.159382 -0.529709 0.831675 -0.468422 -0.933131 1.0 -0.976015 0.949728 -0.999984 0.999992 1.0 0.895186 1.0 0.99988 0.937834 0.984569 0.886251 1.0 0.143788 1.0 1.0 0.543626 -0.830884 0.64863 -0.819694 -0.487961 1.0 1.0 -0.349017 0.972704 0.980752 -0.794203 -0.595168 0.95618 -0.716157 -0.985574 0.964149 0.955462 1.0 0.931411 1.0 0.914938 -0.488828 1.0 0.999984 0.313474 0.207231 0.998155 -0.150285 1.0 1.0 0.989546 -0.208511 -0.970829 -0.875076 -0.429219 0.817412 0.975966 0.741449 0.965127 1.0
bfs -0.636776 0.958763 -0.927496 1.0 1.0 -0.39623 -0.0303174 0.979043 -0.778534 0.97734 -0.845798 1.0 -0.936778 -0.748573 0.998462 0.999996 0.943528 0.976825 1.0 0.961339 -0.321992 -0.155613 0.216792 -0.993885 0.999826 0.974509 -0.902651 -0.445732 -0.0406159 -0.931262 1.0 -0.972656 1.0 0.843026 0.006423 0.502134 -0.997907 0.992575 1.0 -0.159382 -0.529709 0.831675 -0.468422 -0.933131 1.0 -0.976015 0.949728 -0.999984 0.999992 1.0 0.895186 1.0 0.99988 0.937834 0.984569 0.886251 1.0 0.143788 1.0 1.0 0.543626 -0.830884 0.64863 -0.819694 -0.487961 1.0 1.0 -0.349017 0.972704 0.980752 -0.794203 -0.595168 0.95618 -0.716157 -0.985574 0.964149 0.955462 1.0 0.931411 1.0 0.914938 -0.488828 1.0 0.999984 0.313474 0.207231 0.998155 -0.150285 1.0 1.0 0.989546 -0.208511 -0.970829 -0.875076 -0.429219 0.817412 0.975966 0.741449 0.965127 1.0
bfs -0.636776 0.958763 0.974915 1.0 1.0 -0.709623 -0.0303174 0.979043 -0.752232 0.97734 -0.845798 1.0 -0.936778 -0.748573 -0.792145 -0.267202 0.943528 0.976825 1.0 0.0649083 0.835976 -0.155613 0.216792 -0.994763 0.0495501 0.974509 -0.902651 -0.445732 -0.0406159 -0.931262 1.0 -0.972656 1.0 0.843026 0.795181 0.502134 -0.997907 0.902975 1.0 -0.159382 -0.529709 -0.808071 -0.468422 -0.175837 1.0 -0.976015 0.949728 -0.999952 -0.507453 1.0 -0.710521 1.0 -0.05451 -0.670534 0.93653 0.886251 1.0 0.143788 1.0 1.0 -0.91407 -0.830884 0.497054 -0.819694 -0.487961 1.0 1.0 -0.349017 0.972704 0.980752 0.979578 -0.996415 0.95618 -0.716157 -0.985574 0.932911 -0.441385 -0.325236 0.931411 1.0 0.190729 -0.805505 1.0 0.553734 -0.190416 -0.747807 -0.769315 -0.150285 1.0 1.0 0.989546 -0.208511 -0.998429 -0.875076 -0.35616 -0.76426 0.975966 0.999171 -0.761794 1.0
bfs -0.636776 0.958763 -0.927496 1.0 1.0 0.90613 -0.0303174 0.979043 0.415961 0.97734 -0.845798 1.0 -0.936778 -0.748573 0.998462 -0.533446 -0.816032 -0.882435 1.0 -0.526802 0.350636 -0.155613 0.216792 -0.994763 0.982426 0.974509 -0.902651 -0.445732 -0.0406159 -0.931262 1.0 -0.972656 1.0 0.843026 -0.371213 0.502134 -0.997907 0.902975 1.0 -0.159382 0.587417 0.831675 -0.468422 -0.885821 1.0 -0.976015 0.949728 -0.999952 0.172287 1.0 0.895186 1.0 0.999995 0.937834 0.984569 0.82004 1.0 0.143788 1.0 1.0 0.543626 -0.830884 -0.408367 -0.819694 -0.487961 1.0 1.0 -0.349017 0.972704 0.980752 -0.278109 0.988378 0.95618 -0.716157 -0.985574 0.932911 -0.441385 0.955109 0.931411 1.0 -0.994942 -0.805505 1.0 -0.227842 0.834115 0.207231 0.844757 -0.150285 1.0 1.0 0.989546 -0.208511 -0.9932 -0.875076 -0.429219 -0.777591 0.975966 0.741449 0.965127 1.0
bfs -0.96091 0.958763 0.974915 1.0 1.0 -0.82123 -0.0303174 0.979043 -0.824184 0.97734 -0.845798 1.0 -0.936778 -0.748573 0.264465 -0.322098 -0.816032 -0.882435 1.0 0.989245 0.835976 -0.155613 0.216792 -0.994763 0.0495501 0.974509 -0.902651 -0.445732 -0.0406159 0.950853 1.0 -0.972656 1.0 -0.980896 -0.292258 0.502134 -0.997907 0.902975 1.0 -0.159382 -0.627717 0.831675 -0.468422 -0.904103 1.0 -0.976015 0.949728 -0.999952 -0.507453 1.0 -0.683182 1.0 -0.677563 -0.668798 0.93653 -0.746681 1.0 0.143788 1.0 1.0 -0.909361 -0.830884 0.513661 -0.819694 -0.487961 1.0 1.0 -0.349017 0.972704 0.980752 0.869077 -0.991092 0.993602 -0.716157 -0.985574 0.932911 -0.441385 0.455756 0.931411 1.0 0.553675 0.972248 1.0 0.999999 0.694032 -0.747807 -0.769315 -0.150285 1.0 1.0 0.989546 -0.208511 -0.998429 -0.875076 -0.35616 -0.76426 0.975966 0.990043 -0.714953 1.0
bfs 0.99999 0.958763 0.974915 1.0 1.0 -0.709623 -0.0303174 0.979043 0.958626 0.97734 -0.845798 1.0 -0.936778 -0.748573 0.998462 1.0 0.943528 0.976825 1.0 0.998891 0.99435 -0.155613 0.216792 -0.987062 0.982426 0.974509 -0.902651 -0.445732 -0.0406159 0.950853 1.0 -0.972656 1.0 0.843026 0.795181 0.502134 -0.997907 0.999988 1.0 -0.159382 0.959159 0.856363 -0.468422 -0.904103 1.0 -0.976015 0.949728 -0.999952 0.999946 1.0 0.733521 1.0 0.896584 0.937834 0.93653 0.886251 1.0 0.143788 1.0 1.0 0.543626 -0.830884 0.64863 -0.819694 -0.487961 1.0 1.0 -0.349017 0.972704 0.980752 0.0459736 -0.864939 0.95618 -0.716157 -0.985574 0.964149 0.955462 1.0 0.931411 1.0 0.999981 0.972248 1.0 0.999904 0.694032 -0.660917 0.844757 -0.150285 1.0 1.0 0.989546 -0.208511 -0.9932 -0.875076 -0.372071 -0.42498 0.975966 0.999171 0.965127 1.0
bfs 0.999358 0.958763 0.974915 1.0 1.0 -0.548628 -0.0303174 0.979043 0.958626 0.97734 -0.845798 1.0 -0.936778 -0.748573 0.998462 0.90672 -0.816032 -0.864675 1.0 -0.428545 -0.321992 -0.155613 0.216792 -0.993885 0.982426 0.974509 -0.902651 -0.445732 -0.0406159 -0.931262 1.0 -0.972656 1.0 0.843026 -0.371213 0.502134 -0.997907 0.902975 1.0 -0.159382 0.959159 0.831675 -0.468422 -0.892007 1.0 -0.976015 0.949728 -0.999952 -0.457949 1.0 0.26957 1.0 0.978876 0.869633 0.984569 0.82004 1.0 0.143788 1.0 1.0 -0.91407 -0.830884 0.885038 -0.819694 -0.487961 1.0 1.0 -0.349017 0.972704 0.980752 -0.622017 0.99824 0.993602 -0.716157 -0.985574 0.964149 0.955462 0.998492 0.931411 1.0 0.987964 -0.805505 1.0 0.0811337 0.621845 -0.07325 0.844757 -0.150285 1.0 1.0 0.989546 -0.208511 -0.9932 -0.875076 -0.677285 0.891327 0.975966 0.999171 0.965127 1.0
bfs 0.828246 0.958763 0.617593 1.0 1.0 -0.714571 -0.0303174 0.979043 -0.55473 0.97734 -0.845798 1.0 -0.936778 -0.748573 0.998462 0.848714 -0.816032 -0.864675 1.0 0.383009 -0.191274 -0.155613 0.216792 -0.994763 0.0495501 0.974509 -0.902651 -0.445732 -0.0406159 -0.931262 1.0 -0.972656 1.0 -0.980896 0.795181 0.502134 -0.997907 0.902975 1.0 -0.159382 0.959159 0.831675 -0.468422 -0.943063 1.0 -0.976015 0.949728 -0.99999 0.945529 1.0 -0.0356535 1.0 0.447742 0.869633 0.93653 0.82004 1.0 0.143788 0.999589 1.0 -0.951563 -0.830884 0.885038 -0.819694 -0.487961 1.0 1.0 -0.349017 0.972704 0.980752 -0.736849 1.0 0.993602 -0.716157 -0.985574 0.964149 0.955462 1.0 0.931411 1.0 -0.862359 -0.8796 0.992255 0.749517 0.313474 0.168601 -0.769315 -0.150285 1.0 0.999999 0.989546 -0.208511 -0.998429 -0.875076 -0.677285 -0.436834 0.975966 0.958334 0.965127 1.0
bfs -0.636776 0.958763 0.974915 1.0 1.0 -0.818629 -0.0303174 0.979043 -0.824184 0.97734 -0.845798 1.0 -0.936778 -0.748573 -0.792145 0.734008 0.901206 -0.882435 1.0 -0.582464 0.99435 -0.155613 0.216792 -0.987062 -0.978612 0.974509 -0.902651 -0.445732 -0.0406159 0.950853 1.0 -0.972656 1.0 0.843026 -0.292258 0.502134 -0.997907 0.902975 1.0 -0.159382 0.731712 -0.808071 -0.468422 -0.786712 1.0 -0.976015 0.949728 -0.999952 -0.337829 1.0 -0.650944 1.0 0.804775 0.369544 0.93653 -0.714194 1.0 0.143788 1.0 1.0 -0.564463 -0.830884 0.64863 -0.819694 -0.487961 1.0 1.0 -0.349017 -0.768931 0.980752 -0.579413 -0.996415 0.95618 -0.562301 -0.985574 0.932911 -0.441385 -0.617928 0.931411 1.0 -0.895395 0.972248 0.999992 0.986605 0.694032 -0.660917 -0.887673 -0.150285 1.0 1.0 0.989546 -0.208511 -0.999471 -0.875076 0.881179 -0.42498 0.975966 0.990043 0.845661 1.0
bfs -0.636776 0.958763 0.974915 1.0 1.0 -0.82123 -0.0303174 0.979043 -0.461956 0.97734 -0.845798 1.0 -0.936778 -0.748573 -0.792145 0.964976 -0.816032 -0.882435 1.0 -0.718229 0.835976 -0.155613 0.216792 -0.993885 -0.978612 0.974509 -0.902651 -0.445732 -0.0406159 0.950853 1.0 -0.972656 1.0 0.843026 -0.292258 0.502134 -0.997907 -0.753381 1.0 -0.159382 -0.529709 -0.808071 -0.468422 0.638886 1.0 -0.976015 0.949728 -0.999952 -0.598084 1.0 -0.683182 1.0 0.997919 -0.668798 0.93653 -0.746681 1.0 0.143788 1.0 1.0 -0.909361 -0.830884 0.513661 -0.819694 -0.487961 1.0 1.0 -0.349017 -0.768931 0.980752 0.705153 -0.996415 0.993602 -0.716157 -0.985574 0.932911 -0.441385 -0.758038 0.931411 1.0 0.394211 0.972248 1.0 0.973623 0.694032 -0.763154 -0.954789 -0.150285 1.0 1.0 0.989546 -0.208511 -0.999471 -0.875076 -0.35616 -0.76426 0.975966 0.999171 -0.714953 1.0
bfs 1.0 -0.855794 -0.927496 1.0 1.0 -0.860509 -0.0303174 -0.812529 -0.824184 -0.823127 -0.853444 1.0 -0.936778 -0.829595 -0.79316 -0.942002 -0.816032 -0.864675 1.0 1.0 -0.560062 -0.155613 0.216792 -0.994763 0.0495501 -0.822226 -0.927698 -0.483723 -0.0406159 -0.931262 1.0 -0.972656 1.0 -0.980896 0.798498 0.502134 -0.997907 0.998449 1.0 -0.159382 -0.800853 -0.808071 -0.468422 -0.961588 1.0 -0.976015 0.949728 -0.99999 -0.457949 1.0 -0.710521 1.0 0.982068 0.869633 0.839295 -0.747752 1.0 0.143788 1.0 1.0 -0.957026 -0.830884 -0.414001 -0.819694 -0.487961 1.0 1.0 -0.349017 0.972704 -0.768661 -0.922987 -0.999368 -0.915048 -0.723797 -0.985574 0.964149 0.955462 -0.82425 0.931411 -0.980099 0.9997 -0.885585 0.512626 1.0 -0.298058 -0.747807 -0.769315 -0.150285 1.0 1.0 0.989198 -0.208511 -0.998429 -0.875076 -0.688486 -0.802533 0.975966 -0.81067 -0.782406 1.0
bfs 0.999908 0.958763 0.985811 1.0 1.0 -0.777106 -0.0303174 0.979043 0.958626 0.97734 -0.845798 1.0 -0.936778 -0.748573 0.998462 0.999995 0.967875 0.969317 1.0 0.999999 0.99435 -0.155613 0.216792 -0.994763 0.999826 0.974509 -0.902651 -0.445732 -0.0406159 -0.931262 1.0 -0.972656 1.0 -0.980896 0.798498 0.502134 -0.997907 0.991039 1.0 -0.159382 -0.636274 -0.808071 -0.468422 -0.943063 1.0 -0.976015 0.949728 -0.999952 -0.457949 1.0 -0.059154 1.0 0.999991 0.869633 0.985651 -0.476783 1.0 0.143788 1.0 1.0 -0.564463 -0.830884 0.885038 -0.819694 -0.487961 1.0 1.0 -0.349017 0.972704 0.980752 1.0 -0.989224 0.95618 -0.716157 -0.985574 0.964149 0.955462 1.0 0.931411 1.0 1.0 -0.488828 1.0 1.0 0.621845 -0.079319 0.998155 -0.150285 1.0 1.0 0.989546 -0.208511 -0.970829 -0.875076 -0.372071 -0.42498 0.975966 0.958334 0.965127 1.0
bfs 0.999908 0.958763 0.985811 1.0 1.0 -0.777106 -0.0303174 0.979043 0.958626 0.97734 -0.845798 1.0 -0.936778 -0.748573 0.998462 0.999995 0.967875 0.969317 1.0 0.999999 0.99435 -0.155613 0.216792 -0.994763 0.999826 0.974509 -0.902651 -0.445732 -0.0406159 -0.931262 1.0 -0.972656 1.0 -0.980896 0.798498 0.502134 -0.997907 0.991039 1.0 -0.159382 -0.636274 -0.808071 -0.468422 -0.943063 1.0 -0.976015 0.949728 -0.999952 -0.457949 1.0 -0.059154 1.0 0.999991 0.869633 0.985651 -0.476783 1.0 0.143788 1.0 1.0 -0.564463 -0.830884 0.885038 -0.819694 -0.487961 1.0 1.0 -0.349017 0.972704 0.980752 1.0 -0.989224 0.95618 -0.716157 -0.985574 0.964149 0.955462 1.0 0.931411 1.0 1.0 -0.488828 1.0 1.0 0.621845 -0.079319 0.998155 -0.150285 1.0 1.0 0.989546 -0.208511 -0.970829 -0.875076 -0.372071 -0.42498 0.975966 0.958334 0.965127 1.0
bfs 0.99999 0.958763 0.974915 1.0 1.0 -0.709623 -0.0303174 0.979043 0.958626 0.97734 -0.845798 1.0 -0.936778 -0.748573 0.998462 1.0 0.943528 0.976825 1.0 0.998891 0.99435 -0.155613 0.216792 -0.987062 0.982426 0.974509 -0.902651 -0.445732 -0.0406159 0.950853 1.0 -0.972656 1.0 0.843026 0.795181 0.502134 -0.997907 0.999988 1.0 -0.159382 0.959159 0.856363 -0.468422 -0.904103 1.0 -0.976015 0.949728 -0.999952 0.999946 1.0 0.733521 1.0 0.896584 0.937834 0.93653 0.886251 1.0 0.143788 1.0 1.0 0.543626 -0.830884 0.64863 -0.819694 -0.487961 1.0 1.0 -0.349017 0.972704 0.980752 0.0459736 -0.864939 0.95618 -0.716157 -0.985574 0.964149 0.955462 1.0 0.931411 1.0 0.999981 0.972248 1.0 0.999904 0.694032 -0.660917 0.844757 -0.150285 1.0 1.0 0.989546 -0.208511 -0.9932 -0.875076 -0.372071 -0.42498 0.975966 0.999171 0.965127 1.0
bfs -0.636776 0.958763 0.974915 1.0 1.0 -0.82123 -0.0303174 0.979043 -0.461956 0.97734 -0.845798 1.0 -0.936778 -0.748573 -0.792145 0.964976 -0.816032 -0.882435 1.0 -0.718229 0.835976 -0.155613 0.216792 -0.993885 -0.978612 0.974509 -0.902651 -0.445732 -0.0406159 0.950853 1.0 -0.972656 1.0 0.843026 -0.292258 0.502134 -0.997907 -0.753381 1.0 -0.159382 -0.529709 -0.808071 -0.468422 0.638886 1.0 -0.976015 0.949728 -0.999952 -0.598084 1.0 -0.683182 1.0 0.997919 -0.668798 0.93653 -0.746681 1.0 0.143788 1.0 1.0 -0.909361 -0.830884 0.513661 -0.819694 -0.487961 1.0 1.0 -0.349017 -0.768931 0.980752 0.705153 -0.996415 0.993602 -0.716157 -0.985574 0.932911 -0.441385 -0.758038 0.931411 1.0 0.394211 0.972248 1.0 0.973623 0.694032 -0.763154 -0.954789 -0.150285 1.0 1.0 0.989546 -0.208511 -0.999471 -0.875076 -0.35616 -0.76426 0.975966 0.999171 -0.714953 1.0
bfs -0.636776 0.958763 0.974915 1.0 1.0 -0.82123 -0.0303174 0.979043 -0.461956 0.97734 -0.845798 1.0 -0.936778 -0.748573 -0.792145 0.964976 -0.816032 -0.882435 1.0 -0.718229 0.835976 -0.155613 0.216792 -0.993885 -0.978612 0.974509 -0.902651 -0.445732 -0.0406159 0.950853 1.0 -0.972656 1.0 0.843026 -0.292258 0.502134 -0.997907 -0.753381 1.0 -0.159382 -0.529709 -0.808071 -0.468422 0.638886 1.0 -0.976015 0.949728 -0.999952 -0.598084 1.0 -0.683182 1.0 0.997919 -0.668798 0.93653 -0.746681 1.0 0.143788 1.0 1.0 -0.909361 -0.830884 0.513661 -0.819694 -0.487961 1.0 1.0 -0.349017 -0.768931 0.980752 0.705153 -0.996415 0.993602 -0.716157 -0.985574 0.932911 -0.441385 -0.758038 0.931411 1.0 0.394211 0.972248 1.0 0.973623 0.694032 -0.763154 -0.954789 -0.150285 1.0 1.0 0.989546 -0.208511 -0.999471 -0.875076 -0.35616 -0.76426 0.975966 0.999171 -0.714953 1.0
bfs 0.970814 -0.855794 -0.927496 0.999975 1.0 0.90613 -0.0303174 -0.812529 0.958626 -0.823127 -0.853444 1.0 -0.936778 -0.829595 0.998462 0.220678 0.943528 0.976825 1.0 0.328732 -0.560062 -0.155613 0.216792 -0.994763 0.0495501 -0.822226 -0.922444 -0.483723 -0.0406159 -0.931262 1.0 -0.972656 1.0 0.843026 -0.371213 0.502134 -0.997907 0.902975 1.0 -0.159382 -0.529709 -0.808071 -0.468422 -0.943063 1.0 -0.976015 0.949728 -0.999952 0.955284 1.0 0.733521 1.0 0.99869 0.869633 0.93653 0.886251 1.0 0.143788 0.994663 1.0 -0.937541 -0.830884 0.885038 -0.819694 -0.487961 1.0 0.997438 -0.349017 0.972704 -0.768661 -0.333389 -0.877349 0.95618 0.759891 -0.985574 0.964149 0.955462 -0.574219 0.931411 -0.914257 -0.924111 -0.805505 0.310255 0.986837 0.834115 0.250471 -0.769315 -0.150285 1.0 0.999999 0.989198 -0.208511 -0.998429 -0.875076 -0.576113 -0.436834 0.975966 0.958334 0.965127 1.0
bfs -0.636776 0.958763 -0.927496 1.0 1.0 -0.39623 -0.0303174 0.979043 -0.778534 0.97734 -0.845798 1.0 -0.936778 -0.748573 0.998462 0.999996 0.943528 0.976825 1.0 0.961339 -0.321992 -0.155613 0.216792 -0.993885 0.999826 0.974509 -0.902651 -0.445732 -0.0406159 -0.931262 1.0 -0.972656 1.0 0.843026 0.006423 0.502134 -0.997907 0.992575 1.0 -0.159382 -0.529709 0.831675 -0.468422 -0.933131 1.0 -0.976015 0.949728 -0.999984 0.999992 1.0 0.895186 1.0 0.99988 0.937834 0.984569 0.886251 1.0 0.143788 1.0 1.0 0.543626 -0.830884 0.64863 -0.819694 -0.487961 1.0 1.0 -0.349017 0.972704 0.980752 -0.794203 -0.595168 0.95618 -0.716157 -0.985574 0.964149 0.955462 1.0 0.931411 1.0 0.914938 -0.488828 1.0 0.999984 0.313474 0.207231 0.998155 -0.150285 1.0 1.0 0.989546 -0.208511 -0.970829 -0.875076 -0.429219 0.817412 0.975966 0.741449 0.965127 1.0
bfs -0.636776 0.958763 0.974915 1.0 1.0 -0.709623 -0.0303174 0.979043 -0.752232 0.97734 -0.845798 1.0 -0.936778 -0.748573 -0.792145 -0.267202 0.943528 0.976825 1.0 0.0649083 0.835976 -0.155613 0.216792 -0.994763 0.0495501 0.974509 -0.902651 -0.445732 -0.0406159 -0.931262 1.0 -0.972656 1.0 0.843026 0.795181 0.502134 -0.997907 0.902975 1.0 -0.159382 -0.529709 -0.808071 -0.468422 -0.175837 1.0 -0.976015 0.949728 -0.999952 -0.507453 1.0 -0.710521 1.0 -0.05451 -0.670534 0.93653 0.886251 1.0 0.143788 1.0 1.0 -0.91407 -0.830884 0.497054 -0.819694 -0.487961 1.0 1.0 -0.349017 0.972704 0.980752 0.979578 -0.996415 0.95618 -0.716157 -0.985574 0.932911 -0.441385 -0.325236 0.931411 1.0 0.190729 -0.805505 1.0 0.553734 -0.190416 -0.747807 -0.769315 -0.150285 1.0 1.0 0.989546 -0.208511 -0.998429 -0.875076 -0.35616 -0.76426 0.975966 0.999171 -0.761794 1.0
bfs 0.828246 0.958763 0.617593 1.0 1.0 -0.714571 -0.0303174 0.979043 -0.55473 0.97734 -0.845798 1.0 -0.936778 -0.748573 0.998462 0.848714 -0.816032 -0.864675 1.0 0.383009 -0.191274 -0.155613 0.216792 -0.994763 0.0495501 0.974509 -0.902651 -0.445732 -0.0406159 -0.931262 1.0 -0.972656 1.0 -0.980896 0.795181 0.502134 -0.997907 0.902975 1.0 -0.159382 0.959159 0.831675 -0.468422 -0.943063 1.0 -0.976015 0.949728 -0.99999 0.945529 1.0 -0.0356535 1.0 0.447742 0.869633 0.93653 0.82004 1.0 0.143788 0.999589 1.0 -0.951563 -0.830884 0.885038 -0.819694 -0.487961 1.0 1.0 -0.349017 0.972704 0.980752 -0.736849 1.0 0.993602 -0.716157 -0.985574 0.964149 0.955462 1.0 0.931411 1.0 -0.862359 -0.8796 0.992255 0.749517 0.313474 0.168601 -0.769315 -0.150285 1.0 0.999999 0.989546 -0.208511 -0.998429 -0.875076 -0.677285 -0.436834 0.975966 0.958334 0.965127 1.0
bfs -0.636776 0.958763 0.998258 1.0 1.0 -0.664198 -0.0303174 0.979043 0.958626 0.97734 -0.845798 1.0 -0.936778 -0.748573 0.998462 0.99999 -0.751767 -0.864675 1.0 0.95791 0.978423 -0.155613 0.216792 -0.987062 0.982426 0.974509 -0.902651 -0.445732 -0.0406159 -0.931262 1.0 -0.972656 1.0 0.843026 0.006423 0.502134 -0.997907 0.999963 1.0 -0.159382 -0.529709 0.831675 -0.468422 -0.88658 1.0 -0.976015 0.949728 -0.999952 -0.457949 1.0 0.733521 1.0 0.998934 0.869633 0.93653 0.82004 1.0 0.143788 1.0 1.0 -0.564463 -0.830884 -0.181427 -0.819694 -0.487961 1.0 1.0 -0.349017 0.972704 0.980752 0.133895 1.0 0.993602 -0.716157 -0.985574 0.964149 0.955462 1.0 0.931411 1.0 0.998424 -0.805505 0.999496 1.0 0.621845 -0.747807 0.844757 -0.150285 1.0 1.0 0.989546 -0.208511 -0.9932 -0.875076 -0.35616 0.813431 0.975966 0.999171 0.965127 1.0
dfs -0.636776 0.958763 0.974915 1.0 1.0 -0.709623 -0.0303174 0.979043 -0.77498 0.97734 -0.845798 1.0 -0.936778 -0.748573 -0.530305 0.909241 0.901206 -0.882435 1.0 -0.622386 0.835976 -0.155613 0.216792 -0.993885 0.982426 0.974509 -0.902651 -0.445732 -0.0406159 0.950853 1.0 -0.972656 1.0 0.843026 0.006423 0.502134 -0.997907 0.902975 1.0 -0.159382 -0.529709 -0.808071 -0.468422 -0.175837 1.0 -0.976015 0.949728 -0.999952 -0.495018 1.0 0.733521 1.0 -0.605701 0.937834 -0.783582 -0.714194 1.0 0.143788 1.0 1.0 0.543626 -0.830884 0.64863 -0.819694 -0.487961 1.0 1.0 -0.349017 0.972704 0.980752 0.777436 -0.996415 0.993602 -0.716157 -0.985574 0.932911 -0.441385 -0.325236 0.931411 1.0 0.952881 0.972248 0.999999 0.553734 0.694032 -0.747807 0.844757 -0.150285 1.0 1.0 0.989546 -0.208511 -0.9932 -0.875076 -0.35616 -0.76426 0.975966 0.999171 -0.704829 1.0
dfs -0.636776 0.958763 0.998258 1.0 1.0 -0.302222 -0.0303174 0.979043 -0.77498 0.97734 -0.845798 1.0 -0.936778 -0.748573 0.761948 0.498516 -0.509329 -0.864675 1.0 -0.192127 0.835976 -0.155613 0.216792 -0.993885 0.982426 0.974509 -0.902651 -0.445732 -0.0406159 -0.931262 1.0 -0.972656 1.0 0.843026 0.006423 0.502134 -0.997907 0.902975 1.0 -0.159382 -0.709738 -0.808071 -0.468422 0.702932 1.0 -0.976015 0.949728 -0.999952 0.309262 1.0 0.733521 1.0 -0.913842 0.869633 -0.783582 -0.746681 1.0 0.143788 1.0 1.0 -0.91407 -0.830884 -0.181427 -0.819694 -0.487961 1.0 1.0 -0.349017 0.972704 0.980752 0.97432 -0.996415 0.993602 -0.716157 -0.985574 0.964149 0.955462 0.96481 0.931411 1.0 0.628456 -0.805505 1.0 0.999877 -0.265049 -0.747807 0.844757 -0.150285 1.0 1.0 0.989546 -0.208511 -0.9932 -0.875076 -0.35616 -0.76426 0.975966 0.999171 -0.779188 1.0
dfs 0.116863 -0.855794 -0.917849 0.99991 1.0 -0.753525 -0.0303174 0.979043 -0.55473 0.97734 -0.845798 1.0 -0.936778 -0.748573 0.998462 -0.533446 -0.628084 -0.882435 1.0 -0.622386 -0.408564 -0.155613 0.216792 -0.994763 0.0495501 0.974509 -0.902651 -0.445732 -0.0406159 -0.931262 1.0 -0.972656 1.0 -0.980896 -0.371213 0.502134 -0.997907 0.902975 1.0 -0.159382 -0.728083 -0.808071 -0.468422 -0.943063 1.0 -0.976015 0.949728 -0.999977 -0.495018 0.999972 0.733521 1.0 0.932253 -0.670534 0.93653 0.82004 1.0 0.143788 -0.983188 1.0 -0.951563 -0.830884 0.885038 -0.819694 -0.487961 1.0 0.987824 -0.349017 0.972704 0.980752 -0.651919 0.999988 0.95618 -0.716157 -0.985574 -0.699716 -0.73147 0.997672 0.931411 0.943713 -0.992555 -0.805505 0.310255 -0.361629 0.313474 0.796607 -0.769315 -0.150285 1.0 0.999911 0.989546 -0.208511 -0.998429 -0.875076 -0.677285 -0.436834 0.975966 0.958334 0.965127 1.0
dfs 0.782756 0.958763 0.985811 1.0 1.0 -0.302222 -0.0303174 0.979043 0.958626 0.97734 -0.845798 1.0 -0.936778 -0.748573 0.998462 -0.058533 0.901206 -0.864675 1.0 0.99984 0.99435 -0.155613 0.216792 -0.994763 0.982426 0.974509 -0.902651 -0.445732 -0.0406159 -0.931262 1.0 -0.972656 1.0 0.843026 0.798498 0.502134 -0.997907 0.994976 1.0 -0.159382 -0.636274 -0.808071 -0.468422 0.871367 1.0 -0.976015 0.949728 -0.999952 -0.457949 1.0 -0.059154 1.0 0.999901 0.869633 0.97468 -0.714194 1.0 0.143788 1.0 1.0 -0.564463 -0.830884 0.885038 -0.819694 -0.487961 1.0 1.0 -0.349017 0.972704 0.980752 0.999983 -0.708253 0.993602 -0.716157 -0.985574 0.964149 0.955462 0.972303 0.931411 1.0 0.999996 -0.805505 0.998662 1.0 0.621845 -0.079319 0.844757 -0.150285 1.0 1.0 0.989546 -0.208511 -0.9932 -0.875076 -0.372071 -0.42498 0.975966 0.958334 0.965127 1.0
dfs 0.782756 0.958763 0.985811 1.0 1.0 -0.302222 -0.0303174 0.979043 0.958626 0.97734 -0.845798 1.0 -0.936778 -0.748573 0.998462 -0.058533 0.901206 -0.864675 1.0 0.99984 0.99435 -0.155613 0.216792 -0.994763 0.982426 0.974509 -0.902651 -0.445732 -0.0406159 -0.931262 1.0 -0.972656 1.0 0.843026 0.798498 0.502134 -0.997907 0.994976 1.0 -0.159382 -0.636274 -0.808071 -0.468422 0.871367 1.0 -0.976015 0.949728 -0.999952 -0.457949 1.0 -0.059154 1.0 0.999901 0.869633 0.97468 -0.714194 1.0 0.143788 1.0 1.0 -0.564463 -0.830884 0.885038 -0.819694 -0.487961 1.0 1.0 -0.349017 0.972704 0.980752 0.999983 -0.708253 0.993602 -0.716157 -0.985574 0.964149 0.955462 0.972303 0.931411 1.0 0.999996 -0.805505 0.998662 1.0 0.621845 -0.079319 0.844757 -0.150285 1.0 1.0 0.989546 -0.208511 -0.9932 -0.875076 -0.372071 -0.42498 0.975966 0.958334 0.965127 1.0
dfs 0.782756 0.958763 0.985811 1.0 1.0 -0.302222 -0.0303174 0.979043 0.958626 0.97734 -0.845798 1.0 -0.936778 -0.748573 0.998462 -0.058533 0.901206 -0.864675 1.0 0.99984 0.99435 -0.155613 0.216792 -0.994763 0.982426 0.974509 -0.902651 -0.445732 -0.0406159 -0.931262 1.0 -0.972656 1.0 0.843026 0.798498 0.502134 -0.997907 0.994976 1.0 -0.159382 -0.636274 -0.808071 -0.468422 0.871367 1.0 -0.976015 0.949728 -0.999952 -0.457949 1.0 -0.059154 1.0 0.999901 0.869633 0.97468 -0.714194 1.0 0.143788 1.0 1.0 -0.564463 -0.830884 0.885038 -0.819694 -0.487961 1.0 1.0 -0.349017 0.972704 0.980752 0.999983 -0.708253 0.993602 -0.716157 -0.985574 0.964149 0.955462 0.972303 0.931411 1.0 0.999996 -0.805505 0.998662 1.0 0.621845 -0.079319 0.844757 -0.150285 1.0 1.0 0.989546 -0.208511 -0.9932 -0.875076 -0.372071 -0.42498 0.975966 0.958334 0.965127 1.0
dfs -0.636776 0.958763 0.974915 1.0 1.0 -0.709623 -0.0303174 0.979043 -0.77498 0.97734 -0.845798 1.0 -0.936778 -0.748573 -0.530305 0.909241 0.901206 -0.882435 1.0 -0.622386 0.835976 -0.155613 0.216792 -0.993885 0.982426 0.974509 -0.902651 -0.445732 -0.0406159 0.950853 1.0 -0.972656 1.0 0.843026 0.006423 0.502134 -0.997907 0.902975 1.0 -0.159382 -0.529709 -0.808071 -0.468422 -0.175837 1.0 -0.976015 0.949728 -0.999952 -0.495018 1.0 0.733521 1.0 -0.605701 0.937834 -0.783582 -0.714194 1.0 0.143788 1.0 1.0 0.543626 -0.830884 0.64863 -0.819694 -0.487961 1.0 1.0 -0.349017 0.972704 0.980752 0.777436 -0.996415 0.993602 -0.716157 -0.985574 0.932911 -0.441385 -0.325236 0.931411 1.0 0.952881 0.972248 0.999999 0.553734 0.694032 -0.747807 0.844757 -0.150285 1.0 1.0 0.989546 -0.208511 -0.9932 -0.875076 -0.35616 -0.76426 0.975966 0.999171 -0.704829 1.0
dfs 0.846783 0.958763 0.998258 1.0 1.0 0.90613 -0.0303174 0.979043 0.530923 0.97734 -0.845798 1.0 -0.936778 -0.748573 0.761948 -0.533446 -0.509329 -0.882435 1.0 0.784652 0.99435 -0.155613 0.216792 -0.994763 0.982426 0.974509 -0.902651 -0.445732 -0.0406159 0.950853 1.0 -0.972656 1.0 0.843026 -0.292258 0.502134 -0.997907 0.902975 1.0 -0.159382 -0.529709 -0.808071 -0.468422 0.901171 1.0 -0.976015 0.949728 -0.999952 0.172287 1.0 0.895186 1.0 0.997019 0.14418 -0.783582 -0.746681 1.0 0.143788 1.0 1.0 -0.564463 -0.830884 0.513661 -0.819694 -0.487961 1.0 1.0 -0.349017 0.972704 0.980752 0.939261 -0.996415 0.993602 0.759891 -0.985574 0.932911 -0.441385 -0.658456 0.931411 1.0 -0.501635 0.972248 1.0 0.359457 0.834115 0.207231 0.844757 -0.150285 1.0 1.0 0.989546 -0.208511 -0.9932 -0.875076 -0.35616 0.861955 0.975966 0.999171 -0.714953 1.0
dfs 0.923563 0.958763 0.974915 1.0 1.0 0.996013 -0.0303174 0.979043 -0.778095 0.97734 -0.845798 1.0 -0.936778 -0.748573 0.998462 0.734008 0.901206 -0.882435 1.0 0.450367 0.99435 -0.155613 0.216792 -0.987062 0.999826 0.974509 -0.902651 -0.445732 -0.0406159 -0.931262 1.0 -0.972656 1.0 0.719188 -0.36894 0.502134 -0.997907 0.902975 1.0 -0.159382 0.989022 0.831675 -0.468422 0.993894 1.0 -0.976015 0.949728 -0.999952 -0.507453 1.0 0.26957 1.0 0.999871 -0.396444 0.93653 0.82004 1.0 0.143788 1.0 1.0 0.990895 -0.830884 0.64863 -0.819694 -0.487961 1.0 1.0 -0.349017 0.972704 0.980752 1.0 1.0 0.993602 -0.716157 -0.985574 0.932911 -0.441385 0.999572 0.931411 1.0 0.999953 -0.805505 0.909268 0.999574 0.313474 0.186489 0.998155 -0.150285 1.0 1.0 0.989546 -0.208511 -0.970829 -0.875076 -0.372071 0.891327 0.975966 0.999883 0.965127 1.0
dfs 0.782756 0.958763 0.985811 1.0 1.0 -0.302222 -0.0303174 0.979043 0.958626 0.97734 -0.845798 1.0 -0.936778 -0.748573 0.998462 -0.058533 0.901206 -0.864675 1.0 0.99984 0.99435 -0.155613 0.216792 -0.994763 0.982426 0.974509 -0.902651 -0.445732 -0.0406159 -0.931262 1.0 -0.972656 1.0 0.843026 0.798498 0.502134 -0.997907 0.994976 1.0 -0.159382 -0.636274 -0.808071 -0.468422 0.871367 1.0 -0.976015 0.949728 -0.999952 -0.457949 1.0 -0.059154 1.0 0.999901 0.869633 0.97468 -0.714194 1.0 0.143788 1.0 1.0 -0.564463 -0.830884 0.885038 -0.819694 -0.487961 1.0 1.0 -0.349017 0.972704 0.980752 0.999983 -0.708253 0.993602 -0.716157 -0.985574 0.964149 0.955462 0.972303 0.931411 1.0 0.999996 -0.805505 0.998662 1.0 0.621845 -0.079319 0.844757 -0.150285 1.0 1.0 0.989546 -0.208511 -0.9932 -0.875076 -0.372071 -0.42498 0.975966 0.958334 0.965127 1.0
dfs -0.636776 0.958763 0.974915 1.0 1.0 0.90613 -0.0303174 0.979043 0.415961 0.97734 -0.845798 1.0 -0.936778 -0.748573 -0.792145 -0.399805 0.943528 0.976825 1.0 -0.0618252 0.99435 -0.155613 0.216792 -0.994763 0.0495501 0.974509 -0.902651 -0.445732 -0.0406159 0.950853 1.0 -0.972656 1.0 0.843026 -0.292258 0.502134 -0.997907 0.902975 1.0 -0.159382 -0.529709 -0.808071 -0.468422 0.862038 1.0 -0.976015 0.949728 -0.999952 0.927379 1.0 0.733521 1.0 -0.980725 0.869633 -0.783582 0.886251 1.0 0.143788 1.0 1.0 -0.564463 -0.830884 0.513661 -0.819694 -0.487961 1.0 1.0 -0.349017 0.972704 0.980752 0.983751 -0.988217 0.95618 -0.716157 -0.985574 0.964149 0.955462 0.793149 0.931411 1.0 0.900215 0.972248 0.999997 -0.322271 0.834115 0.0910007 0.664599 -0.150285 1.0 1.0 0.989546 -0.208511 -0.998429 -0.875076 -0.35616 -0.42498 0.975966 0.999171 -0.714953 1.0
dfs 0.782756 0.958763 0.985811 1.0 1.0 -0.302222 -0.0303174 0.979043 0.958626 0.97734 -0.845798 1.0 -0.936778 -0.748573 0.998462 -0.058533 0.901206 -0.864675 1.0 0.99984 0.99435 -0.155613 0.216792 -0.994763 0.982426 0.974509 -0.902651 -0.445732 -0.0406159 -0.931262 1.0 -0.972656 1.0 0.843026 0.798498 0.502134 -0.997907 0.994976 1.0 -0.159382 -0.636274 -0.808071 -0.468422 0.871367 1.0 -0.976015 0.949728 -0.999952 -0.457949 1.0 -0.059154 1.0 0.999901 0.869633 0.97468 -0.714194 1.0 0.143788 1.0 1.0 -0.564463 -0.830884 0.885038 -0.819694 -0.487961 1.0 1.0 -0.349017 0.972704 0.980752 0.999983 -0.708253 0.993602 -0.716157 -0.985574 0.964149 0.955462 0.972303 0.931411 1.0 0.999996 -0.805505 0.998662 1.0 0.621845 -0.079319 0.844757 -0.150285 1.0 1.0 0.989546 -0.208511 -0.9932 -0.875076 -0.372071 -0.42498 0.975966 0.958334 0.965127 1.0
dfs 0.782756 0.958763 0.985811 1.0 1.0 -0.302222 -0.0303174 0.979043 0.958626 0.97734 -0.845798 1.0 -0.936778 -0.748573 0.998462 -0.058533 0.901206 -0.864675 1.0 0.99984 0.99435 -0.155613 0.216792 -0.994763 0.982426 0.974509 -0.902651 -0.445732 -0.0406159 -0.931262 1.0 -0.972656 1.0 0.843026 0.798498 0.502134 -0.997907 0.994976 1.0 -0.159382 -0.636274 -0.808071 -0.468422 0.871367 1.0 -0.976015 0.949728 -0.999952 -0.457949 1.0 -0.059154 1.0 0.999901 0.869633 0.97468 -0.714194 1.0 0.143788 1.0 1.0 -0.564463 -0.830884 0.885038 -0.819694 -0.487961 1.0 1.0 -0.349017 0.972704 0.980752 0.999983 -0.708253 0.993602 -0.716157 -0.985574 0.964149 0.955462 0.972303 0.931411 1.0 0.999996 -0.805505 0.998662 1.0 0.621845 -0.079319 0.844757 -0.150285 1.0 1.0 0.989546 -0.208511 -0.9932 -0.875076 -0.372071 -0.42498 0.975966 0.958334 0.965127 1.0
dfs 0.782756 0.958763 0.985811 1.0 1.0 -0.302222 -0.0303174 0.979043 0.958626 0.97734 -0.845798 1.0 -0.936778 -0.748573 0.998462 -0.058533 0.901206 -0.864675 1.0 0.99984 0.99435 -0.155613 0.216792 -0.994763 0.982426 0.974509 -0.902651 -0.445732 -0.0406159 -0.931262 1.0 -0.972656 1.0 0.843026 0.798498 0.502134 -0.997907 0.994976 1.0 -0.159382 -0.636274 -0.808071 -0.468422 0.871367 1.0 -0.976015 0.949728 -0.999952 -0.457949 1.0 -0.059154 1.0 0.999901 0.869633 0.97468 -0.714194 1.0 0.143788 1.0 1.0 -0.564463 -0.830884 0.885038 -0.819694 -0.487961 1.0 1.0 -0.349017 0.972704 0.980752 0.999983 -0.708253 0.993602 -0.716157 -0.985574 0.964149 0.955462 0.972303 0.931411 1.0 0.999996 -0.805505 0.998662 1.0 0.621845 -0.079319 0.844757 -0.150285 1.0 1.0 0.989546 -0.208511 -0.9932 -0.875076 -0.372071 -0.42498 0.975966 0.958334 0.965127 1.0
dfs -0.636776 0.958763 0.974915 1.0 1.0 0.90613 -0.0303174 0.979043 0.415961 0.97734 -0.845798 1.0 -0.936778 -0.748573 -0.792145 -0.399805 0.943528 0.976825 1.0 -0.0618252 0.99435 -0.155613 0.216792 -0.994763 0.0495501 0.974509 -0.902651 -0.445732 -0.0406159 0.950853 1.0 -0.972656 1.0 0.843026 -0.292258 0.502134 -0.997907 0.902975 1.0 -0.159382 -0.529709 -0.808071 -0.468422 0.862038 1.0 -0.976015 0.949728 -0.999952 0.927379 1.0 0.733521 1.0 -0.980725 0.869633 -0.783582 0.886251 1.0 0.143788 1.0 1.0 -0.564463 -0.830884 0.513661 -0.819694 -0.487961 1.0 1.0 -0.349017 0.972704 0.980752 0.983751 -0.988217 0.95618 -0.716157 -0.985574 0.964149 0.955462 0.793149 0.931411 1.0 0.900215 0.972248 0.999997 -0.322271 0.834115 0.0910007 0.664599 -0.150285 1.0 1.0 0.989546 -0.208511 -0.998429 -0.875076 -0.35616 -0.42498 0.975966 0.999171 -0.714953 1.0
dfs -0.636776 0.958763 0.998258 1.0 1.0 0.702648 -0.0303174 0.979043 0.530923 0.97734 -0.845798 1.0 -0.936778 -0.748573 -0.792145 0.734008 0.901206 -0.882435 1.0 -0.60785 0.978423 -0.155613 0.216792 -0.987062 0.848512 0.974509 -0.902651 -0.445732 -0.0406159 0.950853 1.0 -0.972656 1.0 0.843026 0.006423 0.502134 -0.997907 0.902975 1.0 -0.159382 -0.398563 -0.808071 -0.468422 0.999867 1.0 -0.976015 0.949728 -0.999952 -0.495018 1.0 0.733521 1.0 -0.942636 -0.668798 0.93653 -0.746681 1.0 0.143788 0.999986 1.0 0.0025475 -0.830884 0.513661 -0.819694 -0.487961 1.0 1.0 -0.349017 0.972704 0.980752 0.99908 -0.996415 0.993602 -0.716157 -0.985574 0.932911 -0.441385 0.589184 0.931411 1.0 0.995874 0.972248 0.987215 0.999443 0.694032 -0.747807 0.997272 -0.150285 1.0 1.0 0.989546 -0.208511 -0.999471 -0.875076 -0.35616 0.861955 0.975966 0.99987 -0.714953 1.0
dfs 0.782756 0.958763 0.985811 1.0 1.0 -0.302222 -0.0303174 0.979043 0.958626 0.97734 -0.845798 1.0 -0.936778 -0.748573 0.998462 -0.058533 0.901206 -0.864675 1.0 0.99984 0.99435 -0.155613 0.216792 -0.994763 0.982426 0.974509 -0.902651 -0.445732 -0.0406159 -0.931262 1.0 -0.972656 1.0 0.843026 0.798498 0.502134 -0.997907 0.994976 1.0 -0.159382 -0.636274 -0.808071 -0.468422 0.871367 1.0 -0.976015 0.949728 -0.999952 -0.457949 1.0 -0.059154 1.0 0.999901 0.869633 0.97468 -0.714194 1.0 0.143788 1.0 1.0 -0.564463 -0.830884 0.885038 -0.819694 -0.487961 1.0 1.0 -0.349017 0.972704 0.980752 0.999983 -0.708253 0.993602 -0.716157 -0.985574 0.964149 0.955462 0.972303 0.931411 1.0 0.999996 -0.805505 0.998662 1.0 0.621845 -0.079319 0.844757 -0.150285 1.0 1.0 0.989546 -0.208511 -0.9932 -0.875076 -0.372071 -0.42498 0.975966 0.958334 0.965127 1.0
dfs 0.782756 0.958763 0.985811 1.0 1.0 -0.302222 -0.0303174 0.979043 0.958626 0.97734 -0.845798 1.0 -0.936778 -0.748573 0.998462 -0.058533 0.901206 -0.864675 1.0 0.99984 0.99435 -0.155613 0.216792 -0.994763 0.982426 0.974509 -0.902651 -0.445732 -0.0406159 -0.931262 1.0 -0.972656 1.0 0.843026 0.798498 0.502134 -0.997907 0.994976 1.0 -0.159382 -0.636274 -0.808071 -0.468422 0.871367 1.0 -0.976015 0.949728 -0.999952 -0.457949 1.0 -0.059154 1.0 0.999901 0.869633 0.97468 -0.714194 1.0 0.143788 1.0 1.0 -0.564463 -0.830884 0.885038 -0.819694 -0.487961 1.0 1.0 -0.349017 0.972704 0.980752 0.999983 -0.708253 0.993602 -0.716157 -0.985574 0.964149 0.955462 0.972303 0.931411 1.0 0.999996 -0.805505 0.998662 1.0 0.621845 -0.079319 0.844757 -0.150285 1.0 1.0 0.989546 -0.208511 -0.9932 -0.875076 -0.372071 -0.42498 0.975966 0.958334 0.965127 1.0
dfs 0.782756 0.958763 0.985811 1.0 1.0 -0.302222 -0.0303174 0.979043 0.958626 0.97734 -0.845798 1.0 -0.936778 -0.748573 0.998462 -0.058533 0.901206 -0.864675 1.0 0.99984 0.99435 -0.155613 0.216792 -0.994763 0.982426 0.974509 -0.902651 -0.445732 -0.0406159 -0.931262 1.0 -0.972656 1.0 0.843026 0.798498 0.502134 -0.997907 0.994976 1.0 -0.159382 -0.636274 -0.808071 -0.468422 0.871367 1.0 -0.976015 0.949728 -0.999952 -0.457949 1.0 -0.059154 1.0 0.999901 0.869633 0.97468 -0.714194 1.0 0.143788 1.0 1.0 -0.564463 -0.830884 0.885038 -0.819694 -0.487961 1.0 1.0 -0.349017 0.972704 0.980752 0.999983 -0.708253 0.993602 -0.716157 -0.985574 0.964149 0.955462 0.972303 0.931411 1.0 0.999996 -0.805505 0.998662 1.0 0.621845 -0.079319 0.844757 -0.150285 1.0 1.0 0.989546 -0.208511 -0.9932 -0.875076 -0.372071 -0.42498 0.975966 0.958334 0.965127 1.0
dfs 0.782756 0.958763 0.985811 1.0 1.0 -0.302222 -0.0303174 0.979043 0.958626 0.97734 -0.845798 1.0 -0.936778 -0.748573 0.998462 -0.058533 0.901206 -0.864675 1.0 0.99984 0.99435 -0.155613 0.216792 -0.994763 0.982426 0.974509 -0.902651 -0.445732 -0.0406159 -0.931262 1.0 -0.972656 1.0 0.843026 0.798498 0.502134 -0.997907 0.994976 1.0 -0.159382 -0.636274 -0.808071 -0.468422 0.871367 1.0 -0.976015 0.949728 -0.999952 -0.457949 1.0 -0.059154 1.0 0.999901 0.869633 0.97468 -0.714194 1.0 0.143788 1.0 1.0 -0.564463 -0.830884 0.885038 -0.819694 -0.487961 1.0 1.0 -0.349017 0.972704 0.980752 0.999983 -0.708253 0.993602 -0.716157 -0.985574 0.964149 0.955462 0.972303 0.931411 1.0 0.999996 -0.805505 0.998662 1.0 0.621845 -0.079319 0.844757 -0.150285 1.0 1.0 0.989546 -0.208511 -0.9932 -0.875076 -0.372071 -0.42498 0.975966 0.958334 0.965127 1.0
dfs -0.636776 0.958763 0.998258 1.0 1.0 0.702648 -0.0303174 0.979043 0.530923 0.97734 -0.845798 1.0 -0.936778 -0.748573 -0.792145 0.734008 0.901206 -0.882435 1.0 -0.60785 0.978423 -0.155613 0.216792 -0.987062 0.848512 0.974509 -0.902651 -0.445732 -0.0406159 0.950853 1.0 -0.972656 1.0 0.843026 0.006423 0.502134 -0.997907 0.902975 1.0 -0.159382 -0.398563 -0.808071 -0.468422 0.999867 1.0 -0.976015 0.949728 -0.999952 -0.495018 1.0 0.733521 1.0 -0.942636 -0.668798 0.93653 -0.746681 1.0 0.143788 0.999986 1.0 0.0025475 -0.830884 0.513661 -0.819694 -0.487961 1.0 1.0 -0.349017 0.972704 0.980752 0.99908 -0.996415 0.993602 -0.716157 -0.985574 0.932911 -0.441385 0.589184 0.931411 1.0 0.995874 0.972248 0.987215 0.999443 0.694032 -0.747807 0.997272 -0.150285 1.0 1.0 0.989546 -0.208511 -0.999471 -0.875076 -0.35616 0.861955 0.975966 0.99987 -0.714953 1.0
dfs 0.782756 0.958763 0.985811 1.0 1.0 -0.302222 -0.0303174 0.979043 0.958626 0.97734 -0.845798 1.0 -0.936778 -0.748573 0.998462 -0.058533 0.901206 -0.864675 1.0 0.99984 0.99435 -0.155613 0.216792 -0.994763 0.982426 0.974509 -0.902651 -0.445732 -0.0406159 -0.931262 1.0 -0.972656 1.0 0.843026 0.798498 0.502134 -0.997907 0.994976 1.0 -0.159382 -0.636274 -0.808071 -0.468422 0.871367 1.0 -0.976015 0.949728 -0.999952 -0.457949 1.0 -0.059154 1.0 0.999901 0.869633 0.97468 -0.714194 1.0 0.143788 1.0 1.0 -0.564463 -0.830884 0.885038 -0.819694 -0.487961 1.0 1.0 -0.349017 0.972704 0.980752 0.999983 -0.708253 0.993602 -0.716157 -0.985574 0.964149 0.955462 0.972303 0.931411 1.0 0.999996 -0.805505 0.998662 1.0 0.621845 -0.079319 0.844757 -0.150285 1.0 1.0 0.989546 -0.208511 -0.9932 -0.875076 -0.372071 -0.42498 0.975966 0.958334 0.965127 1.0
dfs -0.636776 0.958763 0.974915 1.0 1.0 0.90613 -0.0303174 0.979043 0.415961 0.97734 -0.845798 1.0 -0.936778 -0.748573 -0.792145 -0.399805 0.943528 0.976825 1.0 -0.0618252 0.99435 -0.155613 0.216792 -0.994763 0.0495501 0.974509 -0.902651 -0.445732 -0.0406159 0.950853 1.0 -0.972656 1.0 0.843026 -0.292258 0.502134 -0.997907 0.902975 1.0 -0.159382 -0.529709 -0.808071 -0.468422 0.862038 1.0 -0.976015 0.949728 -0.999952 0.927379 1.0 0.733521 1.0 -0.980725 0.869633 -0.783582 0.886251 1.0 0.143788 1.0 1.0 -0.564463 -0.830884 0.513661 -0.819694 -0.487961 1.0 1.0 -0.349017 0.972704 0.980752 0.983751 -0.988217 0.95618 -0.716157 -0.985574 0.964149 0.955462 0.793149 0.931411 1.0 0.900215 0.972248 0.999997 -0.322271 0.834115 0.0910007 0.664599 -0.150285 1.0 1.0 0.989546 -0.208511 -0.998429 -0.875076 -0.35616 -0.42498 0.975966 0.999171 -0.714953 1.0
dfs -0.636776 0.958763 0.974915 1.0 1.0 -0.709623 -0.0303174 0.979043 -0.77498 0.97734 -0.845798 1.0 -0.936778 -0.748573 -0.530305 0.909241 0.901206 -0.882435 1.0 -0.622386 0.835976 -0.155613 0.216792 -0.993885 0.982426 0.974509 -0.902651 -0.445732 -0.0406159 0.950853 1.0 -0.972656 1.0 0.843026 0.006423 0.502134 -0.997907 0.902975 1.0 -0.159382 -0.529709 -0.808071 -0.468422 -0.175837 1.0 -0.976015 0.949728 -0.999952 -0.495018 1.0 0.733521 1.0 -0.605701 0.937834 -0.783582 -0.714194 1.0 0.143788 1.0 1.0 0.543626 -0.830884 0.64863 -0.819694 -0.487961 1.0 1.0 -0.349017 0.972704 0.980752 0.777436 -0.996415 0.993602 -0.716157 -0.985574 0.932911 -0.441385 -0.325236 0.931411 1.0 0.952881 0.972248 0.999999 0.553734 0.694032 -0.747807 0.844757 -0.150285 1.0 1.0 0.989546 -0.208511 -0.9932 -0.875076 -0.35616 -0.76426 0.975966 0.999171 -0.704829 1.0
dfs 0.116863 -0.855794 -0.917849 0.99991 1.0 -0.753525 -0.0303174 0.979043 -0.55473 0.97734 -0.845798 1.0 -0.936778 -0.748573 0.998462 -0.533446 -0.628084 -0.882435 1.0 -0.622386 -0.408564 -0.155613 0.216792 -0.994763 0.0495501 0.974509 -0.902651 -0.445732 -0.0406159 -0.931262 1.0 -0.972656 1.0 -0.980896 -0.371213 0.502134 -0.997907 0.902975 1.0 -0.159382 -0.728083 -0.808071 -0.468422 -0.943063 1.0 -0.976015 0.949728 -0.999977 -0.495018 0.999972 0.733521 1.0 0.932253 -0.670534 0.93653 0.82004 1.0 0.143788 -0.983188 1.0 -0.951563 -0.830884 0.885038 -0.819694 -0.487961 1.0 0.987824 -0.349017 0.972704 0.980752 -0.651919 0.999988 0.95618 -0.716157 -0.985574 -0.699716 -0.73147 0.997672 0.931411 0.943713 -0.992555 -0.805505 0.310255 -0.361629 0.313474 0.796607 -0.769315 -0.150285 1.0 0.999911 0.989546 -0.208511 -0.998429 -0.875076 -0.677285 -0.436834 0.975966 0.958334 0.965127 1.0
dfs -0.636776 0.958763 0.998258 1.0 1.0 0.702648 -0.0303174 0.979043 0.530923 0.97734 -0.845798 1.0 -0.936778 -0.748573 -0.792145 0.734008 0.901206 -0.882435 1.0 -0.60785 0.978423 -0.155613 0.216792 -0.987062 0.848512 0.974509 -0.902651 -0.445732 -0.0406159 0.950853 1.0 -0.972656 1.0 0.843026 0.006423 0.502134 -0.997907 0.902975 1.0 -0.159382 -0.398563 -0.808071 -0.468422 0.999867 1.0 -0.976015 0.949728 -0.999952 -0.495018 1.0 0.733521 1.0 -0.942636 -0.668798 0.93653 -0.746681 1.0 0.143788 0.999986 1.0 0.0025475 -0.830884 0.513661 -0.819694 -0.487961 1.0 1.0 -0.349017 0.972704 0.980752 0.99908 -0.996415 0.993602 -0.716157 -0.985574 0.932911 -0.441385 0.589184 0.931411 1.0 0.995874 0.972248 0.987215 0.999443 0.694032 -0.747807 0.997272 -0.150285 1.0 1.0 0.989546 -0.208511 -0.999471 -0.875076 -0.35616 0.861955 0.975966 0.99987 -0.714953 1.0
dfs -0.636776 0.958763 0.974915 1.0 1.0 -0.709623 -0.0303174 0.979043 -0.77498 0.97734 -0.845798 1.0 -0.936778 -0.748573 -0.530305 0.909241 0.901206 -0.882435 1.0 -0.622386 0.835976 -0.155613 0.216792 -0.993885 0.982426 0.974509 -0.902651 -0.445732 -0.0406159 0.950853 1.0 -0.972656 1.0 0.843026 0.006423 0.502134 -0.997907 0.902975 1.0 -0.159382 -0.529709 -0.808071 -0.468422 -0.175837 1.0 -0.976015 0.949728 -0.999952 -0.495018 1.0 0.733521 1.0 -0.605701 0.937834 -0.783582 -0.714194 1.0 0.143788 1.0 1.0 0.543626 -0.830884 0.64863 -0.819694 -0.487961 1.0 1.0 -0.349017 0.972704 0.980752 0.777436 -0.996415 0.993602 -0.716157 -0.985574 0.932911 -0.441385 -0.325236 0.931411 1.0 0.952881 0.972248 0.999999 0.553734 0.694032 -0.747807 0.844757 -0.150285 1.0 1.0 0.989546 -0.208511 -0.9932 -0.875076 -0.35616 -0.76426 0.975966 0.999171 -0.704829 1.0
dfs -0.636776 0.958763 0.998258 1.0 1.0 0.702648 -0.0303174 0.979043 0.530923 0.97734 -0.845798 1.0 -0.936778 -0.748573 -0.792145 0.734008 0.901206 -0.882435 1.0 -0.60785 0.978423 -0.155613 0.216792 -0.987062 0.848512 0.974509 -0.902651 -0.445732 -0.0406159 0.950853 1.0 -0.972656 1.0 0.843026 0.006423 0.502134 -0.997907 0.902975 1.0 -0.159382 -0.398563 -0.808071 -0.468422 0.999867 1.0 -0.976015 0.949728 -0.999952 -0.495018 1.0 0.733521 1.0 -0.942636 -0.668798 0.93653 -0.746681 1.0 0.143788 0.999986 1.0 0.0025475 -0.830884 0.513661 -0.819694 -0.487961 1.0 1.0 -0.349017 0.972704 0.980752 0.99908 -0.996415 0.993602 -0.716157 -0.985574 0.932911 -0.441385 0.589184 0.931411 1.0 0.995874 0.972248 0.987215 0.999443 0.694032 -0.747807 0.997272 -0.150285 1.0 1.0 0.989546 -0.208511 -0.999471 -0.875076 -0.35616 0.861955 0.975966 0.99987 -0.714953 1.0
dfs 0.782756 0.958763 0.985811 1.0 1.0 -0.302222 -0.0303174 0.979043 0.958626 0.97734 -0.845798 1.0 -0.936778 -0.748573 0.998462 -0.058533 0.901206 -0.864675 1.0 0.99984 0.99435 -0.155613 0.216792 -0.994763 0.982426 0.974509 -0.902651 -0.445732 -0.0406159 -0.931262 1.0 -0.972656 1.0 0.843026 0.798498 0.502134 -0.997907 0.994976 1.0 -0.159382 -0.636274 -0.808071 -0.468422 0.871367 1.0 -0.976015 0.949728 -0.999952 -0.457949 1.0 -0.059154 1.0 0.999901 0.869633 0.97468 -0.714194 1.0 0.143788 1.0 1.0 -0.564463 -0.830884 0.885038 -0.819694 -0.487961 1.0 1.0 -0.349017 0.972704 0.980752 0.999983 -0.708253 0.993602 -0.716157 -0.985574 0.964149 0.955462 0.972303 0.931411 1.0 0.999996 -0.805505 0.998662 1.0 0.621845 -0.079319 0.844757 -0.150285 1.0 1.0 0.989546 -0.208511 -0.9932 -0.875076 -0.372071 -0.42498 0.975966 0.958334 0.965127 1.0
dfs -0.636776 0.958763 0.998258 1.0 1.0 -0.302222 -0.0303174 0.979043 -0.77498 0.97734 -0.845798 1.0 -0.936778 -0.748573 0.761948 0.498516 -0.509329 -0.864675 1.0 -0.192127 0.835976 -0.155613 0.216792 -0.993885 0.982426 0.974509 -0.902651 -0.445732 -0.0406159 -0.931262 1.0 -0.972656 1.0 0.843026 0.006423 0.502134 -0.997907 0.902975 1.0 -0.159382 -0.709738 -0.808071 -0.468422 0.702932 1.0 -0.976015 0.949728 -0.999952 0.309262 1.0 0.733521 1.0 -0.913842 0.869633 -0.783582 -0.746681 1.0 0.143788 1.0 1.0 -0.91407 -0.830884 -0.181427 -0.819694 -0.487961 1.0 1.0 -0.349017 0.972704 0.980752 0.97432 -0.996415 0.993602 -0.716157 -0.985574 0.964149 0.955462 0.96481 0.931411 1.0 0.628456 -0.805505 1.0 0.999877 -0.265049 -0.747807 0.844757 -0.150285 1.0 1.0 0.989546 -0.208511 -0.9932 -0.875076 -0.35616 -0.76426 0.975966 0.999171 -0.779188 1.0
dfs 0.923563 0.958763 0.974915 1.0 1.0 0.996013 -0.0303174 0.979043 -0.778095 0.97734 -0.845798 1.0 -0.936778 -0.748573 0.998462 0.734008 0.901206 -0.882435 1.0 0.450367 0.99435 -0.155613 0.216792 -0.987062 0.999826 0.974509 -0.902651 -0.445732 -0.0406159 -0.931262 1.0 -0.972656 1.0 0.719188 -0.36894 0.502134 -0.997907 0.902975 1.0 -0.159382 0.989022 0.831675 -0.468422 0.993894 1.0 -0.976015 0.949728 -0.999952 -0.507453 1.0 0.26957 1.0 0.999871 -0.396444 0.93653 0.82004 1.0 0.143788 1.0 1.0 0.990895 -0.830884 0.64863 -0.819694 -0.487961 1.0 1.0 -0.349017 0.972704 0.980752 1.0 1.0 0.993602 -0.716157 -0.985574 0.932911 -0.441385 0.999572 0.931411 1.0 0.999953 -0.805505 0.909268 0.999574 0.313474 0.186489 0.998155 -0.150285 1.0 1.0 0.989546 -0.208511 -0.970829 -0.875076 -0.372071 0.891327 0.975966 0.999883 0.965127 1.0
dfs 0.116863 -0.855794 -0.917849 0.99991 1.0 -0.753525 -0.0303174 0.979043 -0.55473 0.97734 -0.845798 1.0 -0.936778 -0.748573 0.998462 -0.533446 -0.628084 -0.882435 1.0 -0.622386 -0.408564 -0.155613 0.216792 -0.994763 0.0495501 0.974509 -0.902651 -0.445732 -0.0406159 -0.931262 1.0 -0.972656 1.0 -0.980896 -0.371213 0.502134 -0.997907 0.902975 1.0 -0.159382 -0.728083 -0.808071 -0.468422 -0.943063 1.0 -0.976015 0.949728 -0.999977 -0.495018 0.999972 0.733521 1.0 0.932253 -0.670534 0.93653 0.82004 1.0 0.143788 -0.983188 1.0 -0.951563 -0.830884 0.885038 -0.819694 -0.487961 1.0 0.987824 -0.349017 0.972704 0.980752 -0.651919 0.999988 0.95618 -0.716157 -0.985574 -0.699716 -0.73147 0.997672 0.931411 0.943713 -0.992555 -0.805505 0.310255 -0.361629 0.313474 0.796607 -0.769315 -0.150285 1.0 0.999911 0.989546 -0.208511 -0.998429 -0.875076 -0.677285 -0.436834 0.975966 0.958334 0.965127 1.0
dfs -0.636776 0.958763 0.998258 1.0 1.0 0.702648 -0.0303174 0.979043 0.530923 0.97734 -0.845798 1.0 -0.936778 -0.748573 -0.792145 0.734008 0.901206 -0.882435 1.0 -0.60785 0.978423 -0.155613 0.216792 -0.987062 0.848512 0.974509 -0.902651 -0.445732 -0.0406159 0.950853 1.0 -0.972656 1.0 0.843026 0.006423 0.502134 -0.997907 0.902975 1.0 -0.159382 -0.398563 -0.808071 -0.468422 0.999867 1.0 -0.976015 0.949728 -0.999952 -0.495018 1.0 0.733521 1.0 -0.942636 -0.668798 0.93653 -0.746681 1.0 0.143788 0.999986 1.0 0.0025475 -0.830884 0.513661 -0.819694 -0.487961 1.0 1.0 -0.349017 0.972704 0.980752 0.99908 -0.996415 0.993602 -0.716157 -0.985574 0.932911 -0.441385 0.589184 0.931411 1.0 0.995874 0.972248 0.987215 0.999443 0.694032 -0.747807 0.997272 -0.150285 1.0 1.0 0.989546 -0.208511 -0.999471 -0.875076 -0.35616 0.861955 0.975966 0.99987 -0.714953 1.0
dfs 0.782756 0.958763 0.985811 1.0 1.0 -0.302222 -0.0303174 0.979043 0.958626 0.97734 -0.845798 1.0 -0.936778 -0.748573 0.998462 -0.058533 0.901206 -0.864675 1.0 0.99984 0.99435 -0.155613 0.216792 -0.994763 0.982426 0.974509 -0.902651 -0.445732 -0.0406159 -0.931262 1.0 -0.972656 1.0 0.843026 0.798498 0.502134 -0.997907 0.994976 1.0 -0.159382 -0.636274 -0.808071 -0.468422 0.871367 1.0 -0.976015 0.949728 -0.999952 -0.457949 1.0 -0.059154 1.0 0.999901 0.869633 0.97468 -0.714194 1.0 0.143788 1.0 1.0 -0.564463 -0.830884 0.885038 -0.819694 -0.487961 1.0 1.0 -0.349017 0.972704 0.980752 0.999983 -0.708253 0.993602 -0.716157 -0.985574 0.964149 0.955462 0.972303 0.931411 1.0 0.999996 -0.805505 0.998662 1.0 0.621845 -0.079319 0.844757 -0.150285 1.0 1.0 0.989546 -0.208511 -0.9932 -0.875076 -0.372071 -0.42498 0.975966 0.958334 0.965127 1.0
dfs 0.116863 -0.855794 -0.917849 0.99991 1.0 -0.753525 -0.0303174 0.979043 -0.55473 0.97734 -0.845798 1.0 -0.936778 -0.748573 0.998462 -0.533446 -0.628084 -0.882435 1.0 -0.622386 -0.408564 -0.155613 0.216792 -0.994763 0.0495501 0.974509 -0.902651 -0.445732 -0.0406159 -0.931262 1.0 -0.972656 1.0 -0.980896 -0.371213 0.502134 -0.997907 0.902975 1.0 -0.159382 -0.728083 -0.808071 -0.468422 -0.943063 1.0 -0.976015 0.949728 -0.999977 -0.495018 0.999972 0.733521 1.0 0.932253 -0.670534 0.93653 0.82004 1.0 0.143788 -0.983188 1.0 -0.951563 -0.830884 0.885038 -0.819694 -0.487961 1.0 0.987824 -0.349017 0.972704 0.980752 -0.651919 0.999988 0.95618 -0.716157 -0.985574 -0.699716 -0.73147 0.997672 0.931411 0.943713 -0.992555 -0.805505 0.310255 -0.361629 0.313474 0.796607 -0.769315 -0.150285 1.0 0.999911 0.989546 -0.208511 -0.998429 -0.875076 -0.677285 -0.436834 0.975966 0.958334 0.965127 1.0
dfs 0.923563 0.958763 0.974915 1.0 1.0 0.996013 -0.0303174 0.979043 -0.778095 0.97734 -0.845798 1.0 -0.936778 -0.748573 0.998462 0.734008 0.901206 -0.882435 1.0 0.450367 0.99435 -0.155613 0.216792 -0.987062 0.999826 0.974509 -0.902651 -0.445732 -0.0406159 -0.931262 1.0 -0.972656 1.0 0.719188 -0.36894 0.502134 -0.997907 0.902975 1.0 -0.159382 0.989022 0.831675 -0.468422 0.993894 1.0 -0.976015 0.949728 -0.999952 -0.507453 1.0 0.26957 1.0 0.999871 -0.396444 0.93653 0.82004 1.0 0.143788 1.0 1.0 0.990895 -0.830884 0.64863 -0.819694 -0.487961 1.0 1.0 -0.349017 0.972704 0.980752 1.0 1.0 0.993602 -0.716157 -0.985574 0.932911 -0.441385 0.999572 0.931411 1.0 0.999953 -0.805505 0.909268 0.999574 0.313474 0.186489 0.998155 -0.150285 1.0 1.0 0.989546 -0.208511 -0.970829 -0.875076 -0.372071 0.891327 0.975966 0.999883 0.965127 1.0
dfs -0.636776 0.958763 0.998258 1.0 1.0 0.702648 -0.0303174 0.979043 0.530923 0.97734 -0.845798 1.0 -0.936778 -0.748573 -0.792145 0.734008 0.901206 -0.882435 1.0 -0.60785 0.978423 -0.155613 0.216792 -0.987062 0.848512 0.974509 -0.902651 -0.445732 -0.0406159 0.950853 1.0 -0.972656 1.0 0.843026 0.006423 0.502134 -0.997907 0.902975 1.0 -0.159382 -0.398563 -0.808071 -0.468422 0.999867 1.0 -0.976015 0.949728 -0.999952 -0.495018 1.0 0.733521 1.0 -0.942636 -0.668798 0.93653 -0.746681 1.0 0.143788 0.999986 1.0 0.0025475 -0.830884 0.513661 -0.819694 -0.487961 1.0 1.0 -0.349017 0.972704 0.980752 0.99908 -0.996415 0.993602 -0.716157 -0.985574 0.932911 -0.441385 0.589184 0.931411 1.0 0.995874 0.972248 0.987215 0.999443 0.694032 -0.747807 0.997272 -0.150285 1.0 1.0 0.989546 -0.208511 -0.999471 -0.875076 -0.35616 0.861955 0.975966 0.99987 -0.714953 1.0
dfs -0.636776 0.958763 0.998258 1.0 1.0 -0.302222 -0.0303174 0.979043 -0.77498 0.97734 -0.845798 1.0 -0.936778 -0.748573 0.761948 0.498516 -0.509329 -0.864675 1.0 -0.192127 0.835976 -0.155613 0.216792 -0.993885 0.982426 0.974509 -0.902651 -0.445732 -0.0406159 -0.931262 1.0 -0.972656 1.0 0.843026 0.006423 0.502134 -0.997907 0.902975 1.0 -0.159382 -0.709738 -0.808071 -0.468422 0.702932 1.0 -0.976015 0.949728 -0.999952 0.309262 1.0 0.733521 1.0 -0.913842 0.869633 -0.783582 -0.746681 1.0 0.143788 1.0 1.0 -0.91407 -0.830884 -0.181427 -0.819694 -0.487961 1.0 1.0 -0.349017 0.972704 0.980752 0.97432 -0.996415 0.993602 -0.716157 -0.985574 0.964149 0.955462 0.96481 0.931411 1.0 0.628456 -0.805505 1.0 0.999877 -0.265049 -0.747807 0.844757 -0.150285 1.0 1.0 0.989546 -0.208511 -0.9932 -0.875076 -0.35616 -0.76426 0.975966 0.999171 -0.779188 1.0
dfs 0.782756 0.958763 0.985811 1.0 1.0 -0.302222 -0.0303174 0.979043 0.958626 0.97734 -0.845798 1.0 -0.936778 -0.748573 0.998462 -0.058533 0.901206 -0.864675 1.0 0.99984 0.99435 -0.155613 0.216792 -0.994763 0.982426 0.974509 -0.902651 -0.445732 -0.0406159 -0.931262 1.0 -0.972656 1.0 0.843026 0.798498 0.502134 -0.997907 0.994976 1.0 -0.159382 -0.636274 -0.808071 -0.468422 0.871367 1.0 -0.976015 0.949728 -0.999952 -0.457949 1.0 -0.059154 1.0 0.999901 0.869633 0.97468 -0.714194 1.0 0.143788 1.0 1.0 -0.564463 -0.830884 0.885038 -0.819694 -0.487961 1.0 1.0 -0.349017 0.972704 0.980752 0.999983 -0.708253 0.993602 -0.716157 -0.985574 0.964149 0.955462 0.972303 0.931411 1.0 0.999996 -0.805505 0.998662 1.0 0.621845 -0.079319 0.844757 -0.150285 1.0 1.0 0.989546 -0.208511 -0.9932 -0.875076 -0.372071 -0.42498 0.975966 0.958334 0.965127 1.0
dfs -0.636776 0.958763 0.998258 1.0 1.0 -0.302222 -0.0303174 0.979043 -0.77498 0.97734 -0.845798 1.0 -0.936778 -0.748573 0.761948 0.498516 -0.509329 -0.864675 1.0 -0.192127 0.835976 -0.155613 0.216792 -0.993885 0.982426 0.974509 -0.902651 -0.445732 -0.0406159 -0.931262 1.0 -0.972656 1.0 0.843026 0.006423 0.502134 -0.997907 0.902975 1.0 -0.159382 -0.709738 -0.808071 -0.468422 0.702932 1.0 -0.976015 0.949728 -0.999952 0.309262 1.0 0.733521 1.0 -0.913842 0.869633 -0.783582 -0.746681 1.0 0.143788 1.0 1.0 -0.91407 -0.830884 -0.181427 -0.819694 -0.487961 1.0 1.0 -0.349017 0.972704 0.980752 0.97432 -0.996415 0.993602 -0.716157 -0.985574 0.964149 0.955462 0.96481 0.931411 1.0 0.628456 -0.805505 1.0 0.999877 -0.265049 -0.747807 0.844757 -0.150285 1.0 1.0 0.989546 -0.208511 -0.9932 -0.875076 -0.35616 -0.76426 0.975966 0.999171 -0.779188 1.0
dfs -0.636776 0.958763 0.974915 1.0 1.0 -0.709623 -0.0303174 0.979043 -0.77498 0.97734 -0.845798 1.0 -0.936778 -0.748573 -0.530305 0.909241 0.901206 -0.882435 1.0 -0.622386 0.835976 -0.155613 0.216792 -0.993885 0.982426 0.974509 -0.902651 -0.445732 -0.0406159 0.950853 1.0 -0.972656 1.0 0.843026 0.006423 0.502134 -0.997907 0.902975 1.0 -0.159382 -0.529709 -0.808071 -0.468422 -0.175837 1.0 -0.976015 0.949728 -0.999952 -0.495018 1.0 0.733521 1.0 -0.605701 0.937834 -0.783582 -0.714194 1.0 0.143788 1.0 1.0 0.543626 -0.830884 0.64863 -0.819694 -0.487961 1.0 1.0 -0.349017 0.972704 0.980752 0.777436 -0.996415 0.993602 -0.716157 -0.985574 0.932911 -0.441385 -0.325236 0.931411 1.0 0.952881 0.972248 0.999999 0.553734 0.694032 -0.747807 0.844757 -0.150285 1.0 1.0 0.989546 -0.208511 -0.9932 -0.875076 -0.35616 -0.76426 0.975966 0.999171 -0.704829 1.0
dfs 0.782756 0.958763 0.985811 1.0 1.0 -0.302222 -0.0303174 0.979043 0.958626 0.97734 -0.845798 1.0 -0.936778 -0.748573 0.998462 -0.058533 0.901206 -0.864675 1.0 0.99984 0.99435 -0.155613 0.216792 -0.994763 0.982426 0.974509 -0.902651 -0.445732 -0.0406159 -0.931262 1.0 -0.972656 1.0 0.843026 0.798498 0.502134 -0.997907 0.994976 1.0 -0.159382 -0.636274 -0.808071 -0.468422 0.871367 1.0 -0.976015 0.949728 -0.999952 -0.457949 1.0 -0.059154 1.0 0.999901 0.869633 0.97468 -0.714194 1.0 0.143788 1.0 1.0 -0.564463 -0.830884 0.885038 -0.819694 -0.487961 1.0 1.0 -0.349017 0.972704 0.980752 0.999983 -0.708253 0.993602 -0.716157 -0.985574 0.964149 0.955462 0.972303 0.931411 1.0 0.999996 -0.805505 0.998662 1.0 0.621845 -0.079319 0.844757 -0.150285 1.0 1.0 0.989546 -0.208511 -0.9932 -0.875076 -0.372071 -0.42498 0.975966 0.958334 0.965127 1.0
dfs -0.636776 0.958763 0.974915 1.0 1.0 -0.709623 -0.0303174 0.979043 -0.77498 0.97734 -0.845798 1.0 -0.936778 -0.748573 -0.530305 0.909241 0.901206 -0.882435 1.0 -0.622386 0.835976 -0.155613 0.216792 -0.993885 0.982426 0.974509 -0.902651 -0.445732 -0.0406159 0.950853 1.0 -0.972656 1.0 0.843026 0.006423 0.502134 -0.997907 0.902975 1.0 -0.159382 -0.529709 -0.808071 -0.468422 -0.175837 1.0 -0.976015 0.949728 -0.999952 -0.495018 1.0 0.733521 1.0 -0.605701 0.937834 -0.783582 -0.714194 1.0 0.143788 1.0 1.0 0.543626 -0.830884 0.64863 -0.819694 -0.487961 1.0 1.0 -0.349017 0.972704 0.980752 0.777436 -0.996415 0.993602 -0.716157 -0.985574 0.932911 -0.441385 -0.325236 0.931411 1.0 0.952881 0.972248 0.999999 0.553734 0.694032 -0.747807 0.844757 -0.150285 1.0 1.0 0.989546 -0.208511 -0.9932 -0.875076 -0.35616 -0.76426 0.975966 0.999171 -0.704829 1.0
quicksort -0.0938333 0.958763 0.974915 1.0 1.0 0.845942 -0.0303174 0.979043 -0.55473 0.97734 -0.845798 1.0 -0.936778 -0.748573 0.998462 -0.533446 -0.816032 -0.864675 1.0 -0.570782 -0.408564 -0.155613 0.216792 -0.994763 0.0495501 0.974509 -0.902651 -0.445732 -0.0406159 -0.931262 1.0 -0.972656 1.0 -0.980896 -0.371213 0.502134 -0.997907 0.902975 1.0 -0.159382 -0.529709 -0.808071 -0.468422 -0.943063 1.0 -0.976015 0.949728 -0.999952 -0.457949 1.0 0.733521 1.0 -0.489675 0.869633 0.93653 0.82004 1.0 0.143788 1.0 1.0 -0.937541 -0.830884 0.885038 -0.819694 -0.487961 1.0 1.0 -0.349017 0.972704 0.980752 0.362548 0.451231 0.993602 -0.716157 -0.985574 0.964149 0.955462 0.160194 0.931411 1.0 -0.878348 -0.738686 0.999999 0.770965 0.701389 0.553258 -0.769315 -0.150285 1.0 1.0 0.989546 -0.208511 -0.998429 -0.875076 -0.677285 -0.436834 0.975966 0.958334 0.965127 1.0
quicksort -0.454077 0.958763 0.974915 0.999999 1.0 -0.82123 -0.0303174 0.979043 -0.824184 0.97734 -0.845798 1.0 -0.936778 -0.748573 -0.792145 -0.790138 -0.628084 -0.882435 1.0 -0.745987 0.835976 -0.155613 0.216792 -0.994763 0.982426 0.974509 -0.902651 -0.445732 -0.0406159 -0.931262 1.0 -0.972656 1.0 -0.980896 -0.371213 0.502134 -0.997907 -0.703936 1.0 -0.159382 -0.709738 -0.808071 -0.468422 0.708867 1.0 -0.976015 0.949728 -0.999947 -0.638826 1.0 -0.710521 1.0 -0.566353 -0.670534 -0.783582 0.410232 1.0 0.143788 1.0 1.0 -0.937541 -0.830884 -0.181427 -0.819694 -0.487961 1.0 1.0 -0.349017 0.972704 0.980752 0.99993 1.0 0.993602 -0.716157 -0.985574 0.932911 -0.441385 1.0 0.931411 1.0 0.999648 -0.805505 0.663931 0.973623 -0.265049 -0.747807 0.844757 -0.150285 1.0 0.999996 0.989546 -0.208511 -0.9932 -0.875076 -0.35616 -0.76426 0.975966 0.958334 -0.757444 1.0
quicksort 0.0710573 0.958763 0.974915 1.0 1.0 0.993403 -0.0303174 0.979043 -0.778534 0.97734 -0.845798 1.0 -0.936778 -0.748573 0.998462 -0.533446 0.943528 0.976825 1.0 -0.0610917 -0.321992 -0.155613 0.216792 -0.993885 0.982426 0.974509 -0.902651 -0.445732 -0.0406159 -0.931262 1.0 -0.972656 1.0 -0.980896 -0.371213 0.502134 -0.997907 0.902975 1.0 -0.159382 -0.529709 -0.808071 -0.468422 -0.933131 1.0 -0.976015 0.949728 -0.999952 0.901019 1.0 -0.382295 1.0 -0.399643 0.869633 0.93653 0.886251 1.0 0.143788 1.0 1.0 -0.951563 -0.830884 0.535342 -0.819694 -0.487961 1.0 1.0 -0.349017 0.972704 0.980752 0.991576 0.997359 0.993602 -0.716157 -0.985574 0.964149 0.955462 0.991392 0.931411 1.0 -0.498717 -0.8796 1.0 0.563948 0.313474 0.980183 0.844757 -0.150285 1.0 1.0 0.989546 -0.208511 -0.9932 -0.875076 -0.677285 -0.743733 0.975966 0.958334 0.965127 1.0
quicksort -0.636776 0.958763 0.974915 0.999998 1.0 0.90613 -0.0303174 0.979043 0.415961 0.97734 -0.845798 1.0 -0.936778 -0.748573 -0.792145 -0.533446 -0.816032 -0.864675 1.0 -0.408057 0.835976 -0.155613 0.216792 -0.994763 0.982426 0.974509 -0.902651 -0.445732 -0.0406159 0.950853 1.0 -0.972656 1.0 0.843026 0.006423 0.502134 -0.997907 0.902975 1.0 -0.159382 -0.529709 -0.808071 -0.468422 0.455834 1.0 -0.976015 0.949728 -0.999952 -0.228382 0.999997 0.862592 1.0 -0.677563 0.937834 0.93653 -0.746681 1.0 0.143788 -0.766948 1.0 0.543626 -0.830884 0.513661 -0.819694 -0.487961 1.0 0.999222 -0.349017 0.972704 0.980752 -0.658853 0.999988 0.993602 0.759891 -0.985574 0.964149 0.955462 0.997672 0.931411 1.0 -0.951357 0.972248 0.93769 0.395432 0.834115 0.0910007 0.844757 -0.150285 1.0 0.999828 0.989546 -0.208511 -0.9932 -0.875076 -0.35616 -0.76426 0.975966 0.999171 -0.704829 1.0
