450 30
UNIT_KIND 0.662295 0.271244 0.714544 0.675648 0.602084 0.510533 0.932051 0.874345 0.474635 0.245975 0.305037 0.204992 0.983495 0.849685 0.466667 0.634081 0.674489 0.866181 0.674096 0.583204 0.748737 0.396697 0.690762 0.590161 0.254656 0.0483103 0.453938 0.915639 0.769842 0.36015
DECL 0.0417973 0.28021 0.425215 0.226065 0.95093 0.514167 0.389725 0.702158 0.24386 0.499797 0.413919 0.595577 0.227954 0.980851 0.304679 0.551476 0.0337204 0.418068 0.109864 0.221793 0.0501819 0.303268 0.556741 0.457719 0.599414 0.840518 0.376077 0.839424 0.988637 0.754727
DECL_STMT 0.630176 0.0214731 0.730879 0.625353 0.924631 0.52511 0.948735 0.711654 0.436664 0.668997 0.620271 0.206328 0.710294 0.55833 0.203943 0.0834923 0.86187 0.0676447 0.806757 0.962376 0.479191 0.0424824 0.025727 0.370041 0.846931 0.000504035 0.471778 0.992438 0.877552 0.682645
INIT 0.344286 0.0432306 0.801449 0.698906 0.629058 0.239279 0.449139 0.492931 0.897073 0.0385526 0.410682 0.918113 0.491233 0.229358 0.805327 0.928236 0.0567235 0.555646 0.265946 0.633669 0.647747 0.113687 0.827498 0.618023 0.686617 0.0101465 0.26316 0.668298 0.631621 0.849986
EXPR 0.537952 0.551468 0.329469 0.278525 0.78068 0.502597 0.951573 0.0500325 0.712499 0.636281 0.397288 0.195341 0.0331689 0.415336 0.455876 0.910944 0.516002 0.70234 0.0476133 0.203366 0.429042 0.698156 0.59141 0.477421 0.0681108 0.245317 0.314229 0.835664 0.309725 0.511407
EXPR_STMT 0.59098 0.556121 0.469575 0.586541 0.576298 0.0455709 0.0930209 0.0204735 0.770066 0.82528 0.457202 0.70741 0.914924 0.201069 0.336631 0.212816 0.156453 0.471025 0.282853 0.146932 0.170161 0.867038 0.489549 0.764032 0.274566 0.527166 0.329645 0.585794 0.398008 0.437679
COMMENT 0.33805 0.796993 0.903129 0.723085 0.563713 0.962275 0.72896 0.982006 0.067396 0.393348 0.946099 0.948123 0.161294 0.599664 0.000166774 0.987412 0.157264 0.882496 0.0905699 0.198067 0.463826 0.536919 0.912678 0.295504 0.632189 0.961486 0.800808 0.732436 0.917741 0.940854
CALL 0.0320263 0.108315 0.950457 0.532578 0.435519 0.958793 0.847326 0.291402 0.645559 0.771416 0.217375 0.985015 0.349788 0.309871 0.776931 0.655531 0.409753 0.608756 0.0880878 0.665447 0.20809 0.0688384 0.0740425 0.732724 0.429987 0.432563 0.590807 0.599994 0.935643 0.181058
CONTROL 0.994544 0.447986 0.257613 0.0754803 0.221675 0.575969 0.498897 0.367779 0.133668 0.684914 0.469332 0.328182 0.721236 0.409692 0.44874 0.205248 0.395072 0.696534 0.387769 0.10336 0.346716 0.204214 0.659923 0.652562 0.190043 0.880281 0.766964 0.530452 0.589835 0.526178
INCR 0.812662 0.269134 0.334854 0.200557 0.973279 0.875398 0.425418 0.861395 0.98904 0.546306 0.0379648 0.38241 0.967517 0.262205 0.260974 0.653974 0.057783 0.337758 0.419362 0.0669186 0.872372 0.853005 0.523875 0.560399 0.772099 0.187625 0.829593 0.98358 0.677472 0.501374
NONE 0.062027 0.738808 0.547481 0.318613 0.337133 0.27832 0.0928301 0.211205 0.40399 0.597392 0.629142 0.0674146 0.0300601 0.0488493 0.175551 0.491873 0.191658 0.704195 0.935751 0.515242 0.475418 0.00863147 0.163967 0.431307 0.933042 0.387572 0.563656 0.815366 0.75457 0.747603
VARIABLE 0.689103 0.440557 0.811925 0.217632 0.171863 0.456794 0.218837 0.403336 0.355499 0.336521 0.762272 0.0370612 0.372495 0.470947 0.179136 0.918124 0.812832 0.976345 0.901948 0.401714 0.279014 0.895737 0.257985 0.673674 0.363 0.309965 0.0222956 0.897366 0.838653 0.724379
FUNCTION 0.71689 0.210951 0.606555 0.18264 0.53218 0.135845 0.149013 0.287719 0.997298 0.0353675 0.991772 0.885078 0.33629 0.245347 0.276802 0.561033 0.457619 0.211919 0.729781 0.121478 0.223957 0.156268 0.0501961 0.599657 0.0621047 0.626432 0.978485 0.0794266 0.913414 0.142479
FUNCTION_DECL 0.91014 0.78987 0.852937 0.678192 0.318591 0.940673 0.0784103 0.944677 0.425262 0.403813 0.838296 0.242813 0.182067 0.0429724 0.864156 0.465286 0.122976 0.507882 0.490434 0.0403752 0.612184 0.576685 0.729707 0.419362 0.528946 0.716005 0.359917 0.470672 0.930202 0.768492
CONSTRUCTOR 0.929761 0.896697 0.907851 0.00860703 0.0847324 0.127774 0.233644 0.686244 0.865831 0.824136 0.804651 0.853714 0.373543 0.783289 0.820406 0.900862 0.772562 0.337596 0.181989 0.878649 0.240044 0.554644 0.22474 0.607893 0.0359751 0.408209 0.00960183 0.671615 0.0794277 0.381689
CONSTRUCTOR_DECL 0.324946 0.0544574 0.964179 0.303243 0.374701 0.581277 0.947085 0.932914 0.0745853 0.855742 0.971489 0.248218 0.93785 0.153028 0.78369 0.177085 0.0632719 0.821344 0.71422 0.562657 0.952156 0.269392 0.889135 0.84638 0.0483385 0.51013 0.465808 0.536423 0.0778941 0.589978
DESTRUCTOR 0.655844 0.560384 0.341229 0.637292 0.853458 0.975361 0.179672 0.353958 0.298839 0.270342 0.815936 0.451847 0.438959 0.713915 0.51789 0.831432 0.212868 0.0902334 0.0157477 0.526026 0.38751 0.601094 0.0573885 0.541379 0.127235 0.63486 0.417606 0.704372 0.75124 0.540162
DESTRUCTOR_DECL 0.170422 0.141302 0.295285 0.848783 0.477266 0.0423778 0.587369 0.602748 0.849086 0.0843078 0.18851 0.233996 0.267653 0.440181 0.981936 0.123322 0.902002 0.738688 0.470716 0.46066 0.374705 0.190526 0.448854 0.0556618 0.452229 0.568577 0.422321 0.0292696 0.964508 0.381964
MACRO 0.4539 0.179614 0.879284 0.905096 0.935806 0.0571027 0.898957 0.741113 0.655361 0.297196 0.104151 0.334394 0.346148 0.418286 0.612768 0.224247 0.325661 0.339594 0.984343 0.258878 0.324154 0.129959 0.713888 0.659126 0.727731 0.519688 0.215033 0.767634 0.800566 0.521161
SINGLE_MACRO 0.443909 0.262756 0.802753 0.277757 0.574383 0.353935 0.512324 0.97745 0.594493 0.0102108 0.708914 0.589101 0.361814 0.496227 0.791142 0.00275278 0.622626 0.246017 0.744928 0.512076 0.132613 0.680035 0.593557 0.00626969 0.759267 0.718204 0.808629 0.0751821 0.564938 0.887603
NULLOPERATOR 0.738524 0.736629 0.365252 0.189497 0.988245 0.452716 0.856238 0.0242901 0.0792394 0.313024 0.198797 0.181104 0.842268 0.618497 0.646425 0.227108 0.221817 0.214531 0.747327 0.330471 0.389687 0.221294 0.894774 0.282449 0.0783416 0.528912 0.838948 0.981858 0.674401 0.603313
ENUM_DEFN 0.0289696 6.4373e-06 0.374177 0.0810193 0.530712 0.117695 0.11471 0.244647 0.441351 0.941829 0.316661 0.463254 0.0166591 0.335074 0.937932 0.575952 0.533936 0.877431 0.696665 0.675447 0.394755 0.724095 0.596271 0.276498 0.310324 0.529757 0.958963 0.87389 0.648132 0.546584
ENUM_DECL 0.135448 0.534436 0.0746511 0.998952 0.0399598 0.0278051 0.275849 0.938147 0.896957 0.0435673 0.257271 0.908577 0.835777 0.18059 0.292386 0.969215 0.165716 0.331918 0.767113 0.677869 0.366093 0.833678 0.850004 0.429916 0.448787 0.483685 0.435698 0.295638 0.458682 0.00557888
GLOBAL_ATTRIBUTE 0.89597 0.522139 0.0150362 0.83534 0.122411 0.125082 0.720399 0.847846 0.529175 0.997036 0.663238 0.0859374 0.472995 0.953919 0.714821 0.334063 0.740458 0.764298 0.893877 0.940576 0.730087 0.320532 0.85425 0.0593458 0.631155 0.219015 0.19633 0.219474 0.807508 0.560164
PROPERTY_ACCESSOR 0.648354 0.279314 0.324691 0.172007 0.149529 0.107918 0.838858 0.0122318 0.709038 0.611698 0.928453 0.365087 0.753986 0.588637 0.344377 0.918215 0.456178 0.819219 0.72398 0.270091 0.901295 0.403007 0.503909 0.0789227 0.397176 0.682029 0.546497 0.328321 0.169311 0.349438
PROPERTY_ACCESSOR_DECL 0.399092 0.355572 0.600032 0.83024 0.492509 0.848363 0.425153 0.201228 0.31856 0.40905 0.424175 0.21183 0.277348 0.276085 0.673419 0.581382 0.8011 0.521866 0.283756 0.405675 0.690334 0.674334 0.831547 0.710132 0.0907525 0.756929 0.433478 0.953043 0.285004 0.371568
EXPRESSION 0.464047 0.473487 0.450404 0.335109 0.868122 0.30303 0.724347 0.776179 0.528004 0.853704 0.0751319 0.224723 0.724593 0.509742 0.346472 0.551824 0.295399 0.0451071 0.815616 0.249655 0.250569 0.0184833 0.860119 0.921375 0.660726 0.735474 0.577165 0.853785 0.032433 0.77397
CLASS_DEFN 0.72424 0.202029 0.665284 0.771798 0.550278 0.11026 0.522197 0.92124 0.763881 0.178182 0.914614 0.587153 0.797093 0.475415 0.566499 0.0881412 0.916662 0.245508 0.927943 0.484614 0.634766 0.467874 0.209129 0.800108 0.654202 0.0924032 0.199303 0.190187 0.823561 0.271634
CLASS_DECL 0.460722 0.886205 0.825881 0.0634604 0.83555 0.0998987 0.413721 0.762832 0.823373 0.213781 0.0472934 0.462254 0.68788 0.784819 0.462622 0.984018 0.110335 0.609311 0.857045 0.865951 0.797431 0.661239 0.0641488 0.628132 0.461915 0.962418 0.862059 0.766973 0.840461 0.34416
UNION_DEFN 0.757608 0.323842 0.570015 0.95725 0.85678 0.400651 0.846403 0.700687 0.908001 0.423303 0.259635 0.815974 0.15211 0.862021 0.489477 0.197509 0.279631 0.115436 0.372216 0.391723 0.561422 0.29917 0.347744 0.978063 0.153158 0.246108 0.216459 0.667159 0.244441 0.281632
UNION_DECL 0.753188 0.722547 0.627268 0.575225 0.00564325 0.654933 0.0364544 0.353125 0.438067 0.145317 0.519581 0.122515 0.163818 0.144778 0.714901 0.678416 0.125033 0.17145 0.487736 0.658652 0.979008 0.294161 0.430902 0.0754998 0.715768 0.934228 0.0934308 0.995153 0.89398 0.0306151
STRUCT_DEFN 0.281516 0.513073 0.239532 0.90877 0.157988 0.49322 0.206555 0.97703 0.807307 0.0341697 0.757769 0.482868 0.0375494 0.229268 0.465837 0.307942 0.792385 0.0628365 0.0831873 0.165661 0.492413 0.0929812 0.186831 0.0857825 0.605528 0.773352 0.82871 0.217003 0.535767 0.0969633
STRUCT_DECL 0.109655 0.769005 0.598269 0.868825 0.562356 0.120259 0.535428 0.421955 0.326155 0.444796 0.628104 0.940348 0.771029 0.112998 0.0165893 0.678902 0.396934 0.442559 0.789284 0.818151 0.0762879 0.543513 0.923763 0.978638 0.152447 0.126472 0.568745 0.556262 0.52103 0.833501
INTERFACE_DEFN 0.66266 0.186816 0.794452 0.996623 0.195795 0.39799 0.251444 0.687742 0.321834 0.500923 0.074232 0.0265465 0.44934 0.963606 0.481931 0.530765 0.660801 0.552979 0.125922 0.909544 0.69974 0.209382 0.617049 0.98906 0.575862 0.955791 0.422427 0.547715 0.899954 0.428102
INTERFACE_DECL 0.4178 0.932146 0.926843 0.15616 0.634045 0.929113 0.301367 0.832284 0.975173 0.689275 0.886104 0.652961 0.656598 0.200835 0.69664 0.309737 0.404609 0.081991 0.0725237 0.88263 0.0531002 0.934639 0.210955 0.0365775 0.482265 0.471933 0.483935 0.569161 0.793968 0.608496
ACCESS_REGION 0.441926 0.406415 0.394847 0.0471489 0.181089 0.865056 0.896379 0.454655 0.456566 0.134315 0.409613 0.424358 0.788087 0.762534 0.634665 0.102748 0.354903 0.802752 0.827368 0.428125 0.618895 0.537734 0.420275 0.239182 0.10939 0.663495 0.0827487 0.91537 0.911967 0.835005
USING 0.183088 0.11145 0.129515 0.631315 0.844149 0.11185 0.0536543 0.00670779 0.495597 0.692181 0.550901 0.770804 0.914699 0.627128 0.815348 0.10639 0.49569 0.52477 0.159322 0.941368 0.775867 0.801242 0.135102 0.903043 0.0353363 0.420047 0.146451 0.941641 0.521619 0.593522
OPERATOR_FUNCTION 0.455123 0.162148 0.795702 0.42053 0.93699 0.982244 0.299434 0.194149 0.580734 0.526234 0.400621 0.485402 0.136887 0.146884 0.416712 0.54352 0.413395 0.0706433 0.758683 0.870283 0.0540347 0.938432 0.406554 0.556326 0.143818 0.60017 0.430811 0.00914025 0.893619 0.89876
OPERATOR_FUNCTION_DECL 0.520039 0.463646 0.519194 0.81391 0.26874 0.817471 0.587479 0.452205 0.194496 0.681625 0.494089 0.955647 0.159537 0.927651 0.038632 0.282751 0.0400045 0.908679 0.658646 0.577603 0.122006 0.492799 0.669997 0.0314366 0.0404004 0.606156 0.288138 0.796963 0.970554 0.946986
EVENT 0.301534 0.891801 0.980599 0.674305 0.205306 0.377106 0.431149 0.679376 0.785943 0.675385 0.730489 0.417143 0.553696 0.231803 0.611384 0.578309 0.445288 0.672386 0.969654 0.510965 0.425519 0.821124 0.3842 0.430646 0.54213 0.437847 0.562221 0.634017 0.185112 0.690875
PROPERTY 0.0410814 0.054968 0.933696 0.96483 0.906269 0.19731 0.429865 0.465505 0.839792 0.521068 0.608213 0.390618 0.0385153 0.475209 0.328017 0.0423231 0.427392 0.502471 0.432231 0.48849 0.865535 0.943465 0.0724537 0.0823191 0.113974 0.109059 0.0919633 0.589818 0.196938 0.185213
ANNOTATION_DEFN 0.229872 0.232911 0.840926 0.363319 0.34292 0.341648 0.476988 0.518439 0.27004 0.128215 0.152575 0.782801 0.601429 0.647191 0.386842 0.993839 0.97567 0.733803 0.00951934 0.447553 0.0119438 0.684923 0.766918 0.278215 0.396438 0.91252 0.863562 0.530826 0.784458 0.894454
GLOBAL_TEMPLATE 0.931443 0.966326 0.337681 0.975917 0.0400059 0.00834703 0.025086 0.57641 0.948441 0.641225 0.398248 0.00329852 0.604989 0.737662 0.189571 0.0267737 0.121692 0.182328 0.897859 0.0110146 0.809779 0.724823 0.624146 0.468946 0.0658207 0.361895 0.84683 0.578959 0.670916 0.0451598
UNIT 0.482617 0.219174 0.651718 0.962502 0.851727 0.420175 0.67847 0.847915 0.679419 0.427732 0.00266755 0.867818 0.896997 0.781919 0.0155176 0.343212 0.127071 0.703636 0.540903 0.227091 0.174447 0.457032 0.56278 0.234526 0.954714 0.964283 0.704355 0.713338 0.745595 0.64434
TART_ELEMENT_TOKEN 0.115558 0.92855 0.418478 0.551472 0.760259 0.494802 0.995979 0.0693195 0.159568 0.467489 0.75451 0.935218 0.11623 0.76562 0.228832 0.509925 0.840559 0.931088 0.729873 0.183247 0.790626 0.954465 0.684073 0.655308 0.50873 0.539757 0.606515 0.445732 0.755785 0.894652
NOP 0.117655 0.518548 0.559741 0.813612 0.452007 0.618398 0.568313 0.488219 0.156901 0.782625 0.839483 0.765612 0.134173 0.58412 0.385013 0.0627058 0.504167 0.131556 0.982153 0.860949 0.259428 0.0809311 0.406438 0.866739 0.448349 0.605048 0.74105 0.0904835 0.363761 0.858543
STRING 0.138863 0.869961 0.786669 0.106823 0.8249 0.974547 0.0824871 0.0688262 0.642895 0.00116086 0.882173 0.434193 0.706174 0.115486 0.491072 0.378337 0.710269 0.941619 0.326402 0.312937 0.607397 0.512868 0.752133 0.551186 0.688758 0.268404 0.750082 0.20502 0.684106 0.427974
CHAR 0.212396 0.201945 0.503578 0.96199 0.713279 0.433948 0.741888 0.661992 0.428575 0.822001 0.875355 0.0518385 0.253505 0.251524 0.78799 0.209842 0.684543 0.34256 0.755078 0.0951792 0.319639 0.408582 0.559561 0.654164 0.17915 0.912237 0.311908 0.773855 0.0862495 0.431019
LITERAL 0.758262 0.436196 0.464272 0.0121302 0.629144 0.156138 0.24566 0.620992 0.712503 0.694451 0.194606 0.697588 0.20093 0.261147 0.967453 0.627758 0.365691 0.162039 0.466956 0.700838 0.455718 0.956832 0.867379 0.732391 0.898198 0.254629 0.474583 0.980501 0.882388 0.195703
BOOLEAN 0.146025 0.979819 0.273485 0.80027 0.720496 0.0682974 0.145764 0.316516 0.0306962 0.39307 0.187591 0.715494 0.154343 0.070756 0.732673 0.867464 0.666716 0.118229 0.433291 0.00882494 0.715815 0.653385 0.435706 0.622238 0.135941 0.687528 0.501323 0.476951 0.0498981 0.920982
NULL 0.770625 0.0321614 0.348546 0.518868 0.123197 0.295113 0.678928 0.646392 0.295638 0.0528965 0.883431 0.576476 0.493406 0.288235 0.820562 0.846363 0.648742 0.291855 0.234702 0.950641 0.807984 0.388652 0.0643767 0.343692 0.715762 0.949373 0.954617 0.0669302 0.290206 0.838855
COMPLEX 0.302898 0.468654 0.726162 0.98001 0.683376 0.742002 0.632929 0.5393 0.550469 0.207455 0.888889 0.248729 0.389772 0.904127 0.0752858 0.536958 0.324722 0.487427 0.259315 0.469921 0.796984 0.49372 0.920992 0.338982 0.924855 0.780984 0.750863 0.572073 0.359623 0.410911
OPERATOR 0.450553 0.629164 0.36863 0.00102496 0.704571 0.912144 0.790331 0.156743 0.956494 0.112193 0.752931 0.540248 0.662676 0.838659 0.172853 0.635301 0.510926 0.0686897 0.127441 0.990078 0.167112 0.973583 0.541333 0.255578 0.401605 0.76497 0.466217 0.189422 0.724554 0.65218
MODIFIER 0.463795 0.918633 0.841593 0.748414 0.0939008 0.101499 0.856582 0.361246 0.644475 0.701267 0.875116 0.235342 0.488527 0.308548 0.755733 0.492158 0.359244 0.570117 0.158561 0.906245 0.687386 0.128289 0.250297 0.254791 0.0626904 0.676903 0.319757 0.0304754 0.466858 0.46983
NAME 0.900042 0.586174 0.308261 0.847315 0.399602 0.0679659 0.429904 0.174143 0.530319 0.139944 0.325775 0.985871 0.638553 0.604208 0.529605 0.67791 0.682772 0.0601029 0.175333 0.453504 0.704359 0.0905424 0.920891 0.0997667 0.83811 0.588643 0.321738 0.637991 0.949889 0.449615
ONAME 0.0685018 0.552619 0.244771 0.76966 0.770894 0.0991068 0.0739734 0.131026 0.108795 0.345476 0.772471 0.861772 0.271779 0.25327 0.526946 0.146243 0.401677 0.303053 0.50796 0.317078 0.705497 0.989952 0.443242 0.990576 0.268856 0.654345 0.678291 0.637771 0.894931 0.200059
CNAME 0.430271 0.270395 0.479216 0.567189 0.44205 0.883031 0.995066 0.0944345 0.1556 0.270039 0.67449 0.504957 0.658287 0.251195 0.873482 0.0261284 0.844108 0.163181 0.0822434 0.445905 0.587922 0.983133 0.631434 0.134903 0.0649024 0.388142 0.936372 0.61905 0.513085 0.548103
TYPE 0.682787 0.774528 0.980506 0.971046 0.483701 0.178384 0.21336 0.861149 0.0869828 0.406966 0.121102 0.294317 0.0195772 0.574303 0.73087 0.397023 0.224487 0.997036 0.94812 0.946062 0.661234 0.4324 0.460597 0.622997 0.812275 0.243975 0.00996008 0.545033 0.277918 0.515745
TYPEPREV 0.459334 0.842097 0.148557 0.497045 0.104164 0.569775 0.621516 0.63344 0.233625 0.0355533 0.577127 0.150899 0.259297 0.663307 0.578424 0.325088 0.302454 0.562268 0.84706 0.892276 0.219602 0.463841 0.379074 0.461844 0.779063 0.283985 0.19228 0.63942 0.254905 0.150465
CONDITION 0.717767 0.883288 0.140831 0.938855 0.0525383 0.115435 0.453723 0.576873 0.0946691 0.985595 0.378384 0.83815 0.74139 0.831533 0.0337685 0.702296 0.623659 0.7385 0.846833 0.240897 0.0509663 0.776106 0.044845 0.408238 0.37385 0.10017 0.539831 0.139677 0.594095 0.638975
BLOCK 0.025674 0.0233445 0.453046 0.401662 0.0558729 0.844774 0.772952 0.57296 0.951618 0.387989 0.305144 0.768715 0.231257 0.987755 0.158414 0.314509 0.743821 0.66032 0.0394288 0.137236 0.848511 0.24045 0.430968 0.651997 0.944717 0.316991 0.97429 0.367598 0.638869 0.948362
PSEUDO_BLOCK 0.792478 0.731513 0.229369 0.545183 0.556486 0.326003 0.125182 0.0375336 0.692107 0.192468 0.506707 0.354296 0.811839 0.658854 0.790923 0.406579 0.126139 0.874189 0.409738 0.134674 0.943077 0.573497 0.499574 0.10507 0.923695 0.264577 0.00226831 0.424677 0.927309 0.557709
INDEX 0.367607 0.507727 0.4152 0.269646 0.175768 0.589645 0.636742 0.0275704 0.531789 0.446079 0.508903 0.206901 0.691619 0.683901 0.132347 0.149571 0.402197 0.866582 0.49113 0.602884 0.655038 0.483716 0.454017 0.00179834 0.0904431 0.0911933 0.220249 0.25927 0.547451 0.948764
ENUM 0.206163 0.600134 0.13038 0.793045 0.459142 0.330186 0.849477 0.510837 0.793372 0.060581 0.916046 0.229214 0.791849 0.428888 0.713491 0.922158 0.888815 0.0222548 0.0856785 0.465546 0.375497 0.899079 0.0360631 0.322659 0.942507 0.0832758 0.134741 0.621568 0.117245 0.731375
ENUM_DECLARATION 0.684407 0.177963 0.0889047 0.0750457 0.565244 0.136174 0.660774 0.54451 0.241645 0.333039 0.0598117 0.238043 0.207661 0.584953 0.923761 0.583335 0.975768 0.4125 0.613241 0.587371 0.626677 0.319311 0.622445 0.58078 0.237239 0.852109 0.801676 0.195213 0.311517 0.526615
IF_STATEMENT 0.610125 0.115407 0.862247 0.804184 0.019963 0.8083 0.827726 0.00475287 0.532382 0.666835 0.343478 0.707827 0.272803 0.426255 0.286311 0.44363 0.131279 0.696129 0.504743 0.804899 0.0466006 0.174673 0.184152 0.501582 0.765973 0.543108 0.0342497 0.763139 0.708606 0.0365847
TERNARY 0.999389 0.938512 0.759848 0.0531834 0.0790478 0.450293 0.661524 0.00501192 0.177347 0.67319 0.38829 0.434139 0.47314 0.348608 0.0785547 0.187168 0.344696 0.237536 0.626944 0.591604 0.566772 0.202482 0.163017 0.00717974 0.52458 0.847319 0.297552 0.574754 0.965653 0.575079
THEN 0.927707 0.309426 0.324091 0.0584829 0.0432992 0.0821344 0.291867 0.282083 0.298275 0.0471212 0.636588 0.674172 0.712019 0.843122 0.240432 0.447757 0.208909 0.737907 0.924246 0.321545 0.0623878 0.429825 0.428653 0.41352 0.862951 0.470944 4.25201e-05 0.920467 0.431679 0.741504
ELSE 0.871559 0.245418 0.338716 0.742714 0.161554 0.416519 0.429123 0.197294 0.416838 0.159194 0.222279 0.00512242 0.0170088 0.197846 0.717466 0.602527 0.640531 0.347968 0.242169 0.203414 0.0909482 0.0468174 0.185093 0.871589 0.0052321 0.837644 0.170321 0.492907 0.299145 0.592161
ELSEIF 0.932846 0.174548 0.996304 0.211871 0.314819 0.99078 0.0848522 0.160535 0.377666 0.642051 0.0284643 0.26902 0.833144 0.328552 0.161466 0.193993 0.584864 0.0256826 0.219161 0.273488 0.0181043 0.459959 0.805856 0.0392407 0.814506 0.684528 0.568397 0.381322 0.618434 0.436378
WHILE_STATEMENT 0.840824 0.790611 0.893928 0.417537 0.642239 0.817455 0.0606205 0.561303 0.0803427 0.531332 0.0630989 0.289708 0.467894 0.390603 0.585228 0.837785 0.730775 0.505077 0.397031 0.194929 0.0957124 0.8007 0.331143 0.2322 0.187043 0.820632 0.723575 0.678056 0.540047 0.924562
DO_STATEMENT 0.0316216 0.343103 0.516199 0.425149 0.619519 0.284 0.590905 0.798414 0.483441 0.989926 0.0682187 0.56985 0.624177 0.825248 0.610982 0.513621 0.509347 0.538342 0.746029 0.759155 0.950726 0.0933001 0.513598 0.45828 0.263111 0.0368042 0.430671 0.171342 0.701928 0.713286
FOR_STATEMENT 0.85429 0.572944 0.941267 0.355647 0.59841 0.4615 0.675313 0.750121 0.504045 0.661751 0.112636 0.00784016 0.905555 0.773082 0.683028 0.574058 0.70186 0.91721 0.735084 0.663679 0.714376 0.700877 0.35332 0.270772 0.812544 0.0925442 0.126649 0.418262 0.985702 0.796694
FOREACH_STATEMENT 0.685127 0.264348 0.701308 0.571798 0.599713 0.551167 0.330801 0.955084 0.72357 0.481241 0.83509 0.827222 0.312614 0.538112 0.6135 0.586728 0.758622 0.38101 0.640657 0.768226 0.869172 0.73679 0.966939 0.93666 0.720057 0.454135 0.58732 0.922926 0.91837 0.679422
FOR_CONTROL 0.967191 0.871128 0.77963 0.354028 0.805124 0.124471 0.769957 0.351014 0.100517 0.0103209 0.368639 0.405911 0.764808 0.758181 0.951275 0.422872 0.929152 0.857991 0.304222 0.561794 0.771661 0.512011 0.347767 0.713512 0.530634 0.850369 0.847234 0.273109 0.17847 0.406302
FOR_INITIALIZATION 0.158705 0.824472 0.985165 0.0790653 0.392487 0.587432 0.163411 0.897914 0.373728 0.666195 0.885907 0.41419 0.370396 0.822734 0.835045 0.829665 0.185185 0.785396 0.66799 0.940291 0.180437 0.139178 0.43362 0.0222551 0.741128 0.720632 0.251498 0.426881 0.299131 0.263989
FOR_CONDITION 0.713295 0.857497 0.142277 0.123967 0.844342 0.937308 0.207159 0.529052 0.503294 0.320577 0.842226 0.680145 0.616801 0.104233 0.694368 0.245222 0.644747 0.331848 0.773973 0.0100743 0.017629 0.615041 0.489349 0.454903 0.828598 0.891144 0.172751 0.336576 0.755635 0.432415
FOR_INCREMENT 0.906805 0.0191873 0.928825 0.645825 0.994274 0.637143 0.231789 0.767825 0.302626 0.0930949 0.944247 0.410453 0.864426 0.651696 0.676979 0.683853 0.0391783 0.702885 0.655435 0.0207497 0.409205 0.953769 0.913774 0.0318481 0.357434 0.884668 0.283887 0.626433 0.062003 0.424163
FOR_LIKE_CONTROL 0.400812 0.549839 0.0199335 0.0841825 0.92508 0.475142 0.507782 0.997418 0.159003 0.600353 0.14463 0.217139 0.458354 0.877923 0.0153003 0.0383123 0.234303 0.683199 0.575979 0.422791 0.244261 0.951193 0.399881 0.0732378 0.588853 0.0400541 0.626531 0.861108 0.992126 0.458619
EXPRESSION_STATEMENT 0.000410795 0.398469 0.0593672 0.184855 0.5121 0.010363 0.0190455 0.569294 0.306461 0.55052 0.938308 0.55264 0.331196 0.370283 0.705921 0.291837 0.0251168 0.0484775 0.138844 0.575063 0.886591 0.697803 0.618009 0.835243 0.209458 0.349146 0.759475 0.210309 0.865346 0.279106
EXPRESSION 0.737479 0.705589 0.246731 0.549812 0.354752 0.463968 0.0313399 0.25626 0.996822 0.528628 0.895298 0.294428 0.564104 0.446525 0.191953 0.278967 0.142005 0.201592 0.229042 0.209357 0.30851 0.175987 0.165153 0.975164 0.860148 0.274868 0.477842 0.449381 0.318874 0.431432
FUNCTION_CALL 0.923554 0.356635 0.684845 0.493379 0.0499004 0.501984 0.268404 0.120282 0.716697 0.0411053 0.329473 0.555241 0.693122 0.36853 0.338941 0.310033 0.665291 0.487133 0.610068 0.664763 0.138731 0.236254 0.691077 0.918679 0.568312 0.606128 0.576 0.392258 0.98977 0.108685
DECLARATION_STATEMENT 0.295461 0.271069 0.358313 0.146407 0.636336 0.765157 0.423009 0.120798 0.853064 0.723155 0.410515 0.125408 0.890109 0.915993 0.00640976 0.91015 0.569932 0.0258915 0.122618 0.543827 0.548885 0.801061 0.288465 0.173461 0.504565 0.00677073 0.450849 0.119911 0.57901 0.686675
DECLARATION 0.627 0.657746 0.311181 0.651899 0.223345 0.672671 0.0825876 0.264606 0.79855 0.294602 0.460305 0.901611 0.385889 0.186213 0.506841 0.618432 0.781882 0.175363 0.804084 0.410681 0.550524 0.538209 0.915452 0.240226 0.554537 0.38046 0.628197 0.431905 0.127808 0.75145
DECLARATION_INITIALIZATION 0.439705 0.515236 0.234769 0.325763 0.0357677 0.337064 0.321961 0.115921 0.134252 0.366609 0.0576273 0.0319904 0.825236 0.135534 0.220758 0.451226 0.862242 0.679335 0.802108 0.280761 0.0124316 0.865273 0.670227 0.641956 0.4938 0.891586 0.515737 0.754616 0.742659 0.603657
DECLARATION_RANGE 0.718182 0.376231 0.0796849 0.138711 0.170052 0.101193 0.847289 0.425496 0.0800291 0.301996 0.127002 0.271191 0.902213 0.813202 0.438125 0.427886 0.913468 0.612478 0.17872 0.21731 0.613786 0.712664 0.0558593 0.304979 0.33023 0.658987 0.734426 0.987929 0.869459 0.615613
RANGE 0.00280857 0.27889 0.227547 0.910834 0.90959 0.0411702 0.858331 0.39373 0.811675 0.0312788 0.323217 0.922904 0.789537 0.606482 0.680649 0.670386 0.809563 0.846637 0.427109 0.18402 0.0303819 0.692122 0.625864 0.781169 0.935338 0.84523 0.823337 0.755842 0.604153 0.986367
GOTO_STATEMENT 0.203121 0.664936 0.0700023 0.492395 0.590541 0.254495 0.0630326 0.784075 0.82375 0.064324 0.329194 0.402445 0.114868 0.26291 0.737759 0.832695 0.922292 0.383795 0.500288 0.151306 0.190974 0.451994 0.0323533 0.473118 0.378595 0.420599 0.69777 0.124672 0.0890149 0.162985
CONTINUE_STATEMENT 0.437084 0.0526391 0.172132 0.627401 0.202353 0.218924 0.933594 0.410716 0.863099 0.0325575 0.289709 0.0362478 0.86886 0.807667 0.275605 0.36471 0.817955 0.246801 0.885082 0.639531 0.826069 0.810598 0.410835 0.444381 0.533747 0.346768 0.00623691 0.16765 0.957335 0.55242
BREAK_STATEMENT 0.322352 0.618447 0.285782 0.543363 0.817063 0.570607 0.247402 0.368073 0.191525 0.716746 0.589972 0.272002 0.858695 0.933702 0.551359 0.746573 0.39702 0.643026 0.818257 0.598006 0.360757 0.0548779 0.965766 0.0717742 0.962562 0.641508 0.0143472 0.0754327 0.00708187 0.976396
LABEL_STATEMENT 0.981255 0.671831 0.674098 0.199808 0.65169 0.543036 0.0784693 0.239414 0.193946 0.746883 0.144126 0.169418 0.062471 0.19957 0.487513 0.660773 0.823593 0.352321 0.41741 0.625859 0.0501505 0.302415 0.70199 0.393766 0.404209 0.765563 0.22106 0.848805 0.790116 0.148429
LABEL 0.799323 0.614082 0.12956 0.370268 0.195715 0.240299 0.286957 0.349272 0.588117 0.535771 0.41361 0.387295 0.180377 0.358488 0.13541 0.0569973 0.101978 0.439714 0.606414 0.798035 0.616305 0.50268 0.838522 0.584272 0.0053066 0.427003 0.190121 0.156099 0.943252 0.865214
SWITCH 0.205122 0.678018 0.00175619 0.659519 0.0807291 0.0020107 0.696556 0.627126 0.668654 0.0583086 0.769216 0.0172822 0.41584 0.325187 0.476479 0.613279 0.872054 0.946326 0.76091 0.52098 0.0521212 0.768375 0.533426 0.941923 0.73719 0.365163 0.635656 0.306082 0.997755 0.908445
CASE 0.967624 0.411854 0.256698 0.133893 0.0867666 0.193304 0.164046 0.0435652 0.0243994 0.881986 0.375357 0.950822 0.474761 0.6087 0.282729 0.653346 0.682396 0.148602 0.396369 0.575347 0.511265 0.713155 0.991624 0.0880116 0.49905 0.465585 0.916812 0.0738443 0.392621 0.774491
DEFAULT 0.213047 0.677406 0.0653443 0.207103 0.487383 0.630719 0.420993 0.0844733 0.709159 0.559642 0.76802 0.260988 0.767429 0.209182 0.929281 0.323 0.602743 0.159266 0.77709 0.158721 0.361987 0.622075 0.00270844 0.0420079 0.523597 0.753726 0.831738 0.687983 0.748933 0.879307
FUNCTION_DEFINITION 0.350371 0.904834 0.159893 0.551636 0.913628 0.719113 0.396452 0.0244054 0.951514 0.192742 0.978406 0.504331 0.827136 0.898518 0.741413 0.192881 0.468673 0.550982 0.878298 0.31501 0.3622 0.123051 0.879075 0.75521 0.534605 0.132686 0.0189592 0.25745 0.777362 0.412003
FUNCTION_DECLARATION 0.440425 0.0504724 0.504309 0.510352 0.827131 0.0243458 0.00194705 0.0514189 0.445258 0.478582 0.739443 0.0777955 0.24134 0.689682 0.726923 0.0237967 0.793191 0.321528 0.673737 0.923854 0.89816 0.988184 0.993805 0.542817 0.670735 0.935774 0.635125 0.947436 0.966587 0.617961
LAMBDA 0.160914 0.00434434 0.251474 0.585303 0.696576 0.742832 0.904119 0.948826 0.255842 0.905197 0.140176 0.744392 0.280125 0.419109 0.152048 0.191515 0.131043 0.175018 0.509027 0.220134 0.784581 0.508566 0.41526 0.253692 0.450049 0.375728 0.234504 0.0779425 0.449394 0.488191
FUNCTION_LAMBDA 0.878712 0.394385 0.154191 0.0869321 0.532952 0.0852503 0.997344 0.944096 0.520393 0.499178 0.0667753 0.285509 0.242696 0.821109 0.165175 0.949679 0.338727 0.343395 0.175416 0.142505 0.4329 0.339421 0.736564 0.496444 0.895741 0.1928 0.223437 0.510691 0.51027 0.742825
FUNCTION_SPECIFIER 0.553199 0.707353 0.72381 0.583194 0.747217 0.00494719 0.98446 0.3117 0.903627 0.425246 0.779847 0.106784 0.81764 0.402303 0.422124 0.496013 0.429549 0.165156 0.313766 0.949252 0.738773 0.497892 0.194458 0.687429 0.321758 0.295677 0.197252 0.297278 0.0425657 0.277202
RETURN_STATEMENT 0.899613 0.0685292 0.288826 0.580623 0.430371 0.888434 0.059829 0.599529 0.130607 0.805077 0.274153 0.968743 0.464423 0.0796224 0.54233 0.86493 0.841645 0.74687 0.125456 0.288496 0.601064 0.454506 0.0293243 0.256477 0.8039 0.586713 0.2715 0.863925 0.559472 0.585113
PARAMETER_LIST 0.798061 0.604903 0.816607 0.896896 0.868661 0.52768 0.525357 0.0311266 0.804356 0.628755 0.303576 0.0844964 0.543158 0.588237 0.655575 0.841917 0.0630601 0.593375 0.0219904 0.808969 0.765088 0.822412 0.0333517 0.501747 0.875407 0.78899 0.728793 0.603001 0.322142 0.132998
PARAMETER 0.401746 0.169681 0.191769 0.996614 0.564516 0.408001 0.00836027 0.0376014 0.704419 0.357176 0.435683 0.279025 0.165239 0.649532 0.616581 0.123801 0.303862 0.862541 0.432822 0.349946 0.546481 0.688485 0.931141 0.211543 0.342042 0.317728 0.822175 0.0916281 0.537948 0.0750486
KRPARAMETER_LIST 0.930151 0.674089 0.997364 0.971544 0.820695 0.927998 0.166127 0.393511 0.245812 0.763682 0.124914 0.0118562 0.523234 0.695955 0.510781 0.456253 0.48573 0.0913494 0.976488 0.743805 0.0510896 0.754259 0.91288 0.538078 0.53562 0.415624 0.555804 0.316178 0.0132786 0.575455
KRPARAMETER 0.637892 0.10867 0.0380235 0.0881922 0.0370455 0.123493 0.139342 0.308176 0.34734 0.980355 0.613408 0.190429 0.607217 0.7406 0.0414877 0.841414 0.761361 0.587583 0.518242 0.231685 0.307104 0.253606 0.606213 0.985746 0.736163 0.323423 0.470727 0.807031 0.364263 0.263429
ARGUMENT_LIST 0.877643 0.708929 0.344185 0.680494 0.856264 0.95327 0.832695 0.910079 0.829852 0.238189 0.971739 0.0250671 0.287011 0.347346 0.625895 0.392814 0.603802 0.601368 0.504104 0.821137 0.960731 0.086869 0.332926 0.893032 0.430543 0.67576 0.761347 0.390915 0.903175 0.379783
ARGUMENT 0.38329 0.0376139 0.453434 0.86464 0.573307 0.336466 0.41367 0.383184 0.681345 0.566632 0.275907 0.393552 0.613545 0.12896 0.955532 0.671719 0.322407 0.344495 0.475085 0.065965 0.339644 0.467805 0.570896 0.399036 0.222698 0.887537 0.510196 0.581302 0.384165 0.995845
PSEUDO_PARAMETER_LIST 0.753507 0.790352 0.392782 0.0979763 0.735756 0.467976 0.984027 0.270807 0.466715 0.0975413 0.451309 0.94663 0.866639 0.730742 0.477715 0.53923 0.000140786 0.59453 0.971576 0.139162 0.970172 0.178274 0.812357 0.493998 0.248334 0.176221 0.410481 0.0147409 0.397276 0.397316
INDEXER_PARAMETER_LIST 0.474437 0.444341 0.993025 0.554954 0.79899 0.435049 0.758069 0.778814 0.960069 0.174711 0.351914 0.955968 0.71236 0.423264 0.253434 0.208481 0.289319 0.85966 0.313651 0.20912 0.86168 0.298091 0.899407 0.262714 0.359827 0.261507 0.955318 0.388688 0.321531 0.419896
CLASS 0.912209 0.585522 0.218639 0.882016 0.972703 0.510612 0.504394 0.370535 0.602264 0.85033 0.626636 0.0597974 0.334537 0.541952 0.913854 0.944948 0.00575805 0.456231 0.578546 0.618114 0.237824 0.96349 0.935137 0.278495 0.586747 0.577707 0.416366 0.974393 0.143432 0.414196
CLASS_DECLARATION 0.787046 0.388092 0.954595 0.36377 0.382367 0.066051 0.912414 0.203674 0.0229213 0.735792 0.743055 0.348223 0.644854 0.177826 0.191682 0.386062 0.252236 0.52489 0.157791 0.214914 0.43827 0.645888 0.0834763 0.404838 0.7583 0.917898 0.65247 0.159355 0.0132377 0.582201
STRUCT 0.450494 0.0897708 0.370172 0.79821 0.649563 0.844973 0.960799 0.131251 0.196616 0.494451 0.892928 0.943094 0.594133 0.371578 0.369921 0.099284 0.141676 0.443501 0.494703 0.0942595 0.97084 0.25302 0.667992 0.38728 0.610092 0.179107 0.329841 0.906642 0.473687 0.560661
STRUCT_DECLARATION 0.620959 0.837552 0.208062 0.187331 0.131769 0.110393 0.732121 0.193555 0.527541 0.358829 0.505622 0.506897 0.287766 0.182865 0.834536 0.662258 0.398372 0.91044 0.440155 0.276468 0.572358 0.716033 0.942099 0.503371 0.127494 0.530064 0.396335 0.0295515 0.330466 0.108293
UNION 0.881763 0.335338 0.759598 0.0318321 0.923255 0.513213 0.566526 0.672244 0.774276 0.907284 0.626993 0.349075 0.670623 0.0465945 0.310406 0.447227 0.439799 0.970798 0.544446 0.57109 0.638273 0.365967 0.177393 0.751173 0.292599 0.480969 0.805777 0.89442 0.129835 0.715335
UNION_DECLARATION 0.988505 0.807619 0.27562 0.447799 0.154838 0.087075 0.802567 0.126096 0.030592 0.19087 0.862842 0.825534 0.204633 0.965876 0.493566 0.899519 0.302411 0.541827 0.539295 0.110702 0.495744 0.573985 0.0077616 0.947502 0.361444 0.750636 0.0839062 0.551158 0.939461 0.695813
DERIVATION_LIST 0.754469 0.599676 0.0244441 0.47481 0.126445 0.23136 0.710386 0.110308 0.73049 0.0715163 0.680772 0.205111 0.701721 0.317403 0.750769 0.41655 0.777957 0.340259 0.509913 0.932112 0.885609 0.0958952 0.0716037 0.992218 0.233709 0.435813 0.00935829 0.357012 0.608553 0.871276
PUBLIC_ACCESS 0.532187 0.338161 0.999441 0.394256 0.688284 0.296167 0.570556 0.621412 0.342244 0.887271 0.894302 0.626811 0.134321 0.252156 0.0863136 0.602859 0.886691 0.313407 0.75524 0.515369 0.444984 0.87615 0.99108 0.29067 0.881016 0.74307 0.387832 0.632958 0.749429 0.201843
PUBLIC_ACCESS_DEFAULT 0.344745 0.994703 0.9232 0.256252 0.219451 0.0131395 0.783914 0.0332128 0.549278 0.283236 0.741614 0.136507 0.750539 0.581942 0.412457 0.981218 0.977982 0.315185 0.741002 0.626098 0.413993 0.238067 0.836629 0.385801 0.284937 0.264287 0.533517 0.389335 0.323256 0.437609
PRIVATE_ACCESS 0.15569 0.500821 0.0914075 0.563207 0.829255 0.600985 0.614121 0.319939 0.592851 0.75916 0.997787 0.368371 0.34636 0.314916 0.963699 0.0824198 0.858989 0.227719 0.392871 0.00830591 0.732166 0.279358 0.916541 0.688543 0.0317868 0.955405 0.681883 0.0252631 0.791886 0.225711
PRIVATE_ACCESS_DEFAULT 0.468295 0.79508 0.137393 0.963835 0.600845 0.777959 0.50588 0.353954 0.467497 0.0118012 0.617475 0.76123 0.984892 0.117766 0.0789821 0.911761 0.489877 0.559925 0.451558 0.790322 0.724375 0.921687 0.416592 0.43135 0.751123 0.750938 0.0169445 0.645533 0.0697418 0.446598
PROTECTED_ACCESS 0.711589 0.844989 0.646207 0.863379 0.845963 0.942374 0.977674 0.737232 0.494642 0.695672 0.817345 0.569734 0.102323 0.244308 0.466172 0.730264 0.922402 0.240849 0.114779 0.704206 0.325509 0.82077 0.878738 0.994008 0.234918 0.538848 0.89484 0.457739 0.977307 0.94326
PROTECTED_ACCESS_DEFAULT 0.741418 0.0473249 0.867169 0.0879588 0.536331 0.217547 0.204285 0.573273 0.193502 0.228597 0.800448 0.209837 0.98431 0.996245 0.314668 0.263116 0.0551813 0.312856 0.767249 0.120103 0.702622 0.876479 0.0648969 0.859314 0.191473 0.104897 0.664758 0.108337 0.0975686 0.895492
MEMBER_INIT_LIST 0.906034 0.646381 0.401664 0.916519 0.246024 0.34303 0.212044 0.558964 0.321702 0.814242 0.890509 0.493239 0.926798 0.77019 0.157051 0.696445 0.347906 0.0426768 0.867989 0.630049 0.873051 0.659233 0.449464 0.832863 0.638175 0.142099 0.596132 0.0612081 0.640308 0.874959
MEMBER_INITIALIZATION_LIST 0.439021 0.516164 0.394747 0.00735152 0.459381 0.89422 0.165483 0.0385476 0.787977 0.337268 0.249931 0.512279 0.451809 0.506907 0.553654 0.0790966 0.900678 0.323664 0.707333 0.46567 0.120336 0.410627 0.829809 0.270876 0.187878 0.675185 0.100829 0.537889 0.323137 0.169967
MEMBER_INITIALIZATION 0.178167 0.847454 0.213386 0.2156 0.402076 0.865586 0.400725 0.0784259 0.388898 0.237554 0.945356 0.769945 0.141519 0.9411 0.498035 0.467827 0.260701 0.506626 0.460526 0.744415 0.846756 0.524296 0.825233 0.202687 0.861455 0.259282 0.625204 0.20555 0.463613 0.904608
CONSTRUCTOR_DEFINITION 0.799043 0.474767 0.481853 0.0274445 0.920608 0.384691 0.806764 0.907009 0.977197 0.661298 0.343561 0.875255 0.592922 0.640227 0.667274 0.0794184 0.91205 0.194255 0.0665401 0.197707 0.693015 0.83683 0.460686 0.0225751 0.126317 0.493476 0.168923 0.461994 0.859093 0.481981
CONSTRUCTOR_DECLARATION 0.654942 0.422485 0.332325 0.851222 0.46855 0.317132 0.884113 0.493315 0.873062 0.503918 0.462713 0.206842 0.682807 0.0461502 0.954738 0.636328 0.121716 0.874025 0.0156164 0.649589 0.612087 0.796435 0.268057 0.0469782 0.357558 0.830503 0.15275 0.242968 0.26998 0.209738
DESTRUCTOR_DEFINITION 0.311457 0.848184 0.422841 0.953572 0.300987 0.953638 0.893768 0.898846 0.806695 0.646986 0.743813 0.585111 0.770148 0.108606 0.100463 0.124747 0.17447 0.58087 0.531801 0.31321 0.921816 0.651175 0.996682 0.50536 0.197248 0.712206 0.0804393 0.197409 0.427277 0.00604665
DESTRUCTOR_DECLARATION 0.927059 0.766843 0.655807 0.259057 0.807933 0.498738 0.675903 0.98463 0.840588 0.130762 0.176661 0.984292 0.903132 0.295721 0.572219 0.959273 0.764346 0.381454 0.302005 0.74114 0.816765 0.59452 0.59486 0.34643 0.649024 0.31792 0.210625 0.706851 0.122979 0.739686
FRIEND 0.0480297 0.891991 0.626914 0.874781 0.224697 0.526301 0.786947 0.202302 0.440557 0.926267 0.571758 0.451463 0.628783 0.794385 0.690284 0.384444 0.987152 0.83395 0.260772 0.394617 0.332313 0.770741 0.690688 0.927252 0.871628 0.0838386 0.64855 0.198848 0.520844 0.07595
CLASS_SPECIFIER 0.942916 0.335137 0.128912 0.0569612 0.0496348 0.88522 0.151993 0.0764095 0.62352 0.131738 0.642629 0.0970926 0.520067 0.589385 0.137346 0.966293 0.92286 0.146908 0.132954 0.884809 0.304049 0.182004 0.944455 0.848774 0.437122 0.55135 0.374324 0.369425 0.175849 0.809636
TRY_BLOCK 0.512916 0.834124 0.278293 0.841008 0.156956 0.516234 0.580996 0.411185 0.0629206 0.0388184 0.150026 0.414994 0.899826 0.193034 0.800612 0.364329 0.691626 0.156141 0.54626 0.511149 0.848633 0.839671 0.207749 0.577483 0.86056 0.729345 0.561296 0.349154 0.345539 0.248439
CATCH_BLOCK 0.315798 0.403032 0.396564 0.734659 0.27577 0.614381 0.171064 0.833429 0.969672 0.628206 0.681169 0.647867 0.404368 0.0344102 0.362442 0.00966907 0.533321 0.181194 0.907142 0.102326 0.108904 0.705478 0.849186 0.769613 0.376814 0.511024 0.360552 0.815109 0.72179 0.216423
FINALLY_BLOCK 0.151929 0.968373 0.553827 0.905979 0.517151 0.801209 0.487038 0.280161 0.126569 0.0601996 0.259438 0.0466043 0.574182 0.697971 0.559514 0.361942 0.727736 0.468474 0.890837 0.719646 0.514689 0.355499 0.807419 0.523176 0.202662 0.883621 0.391266 0.241824 0.3478 0.051263
THROW_STATEMENT 0.761081 0.393692 0.991084 0.538293 0.668412 0.333734 0.147399 0.695789 0.0160686 0.0837964 0.343474 0.544454 0.730436 0.170798 0.813389 0.776159 0.974867 0.779172 0.104591 0.606935 0.961054 0.360434 0.47232 0.478904 0.868955 0.536191 0.48215 0.206551 0.269663 0.430841
THROW_SPECIFIER 0.369717 0.630722 0.420061 0.704919 0.602728 0.986147 0.717001 0.498712 0.440627 0.0374105 0.770292 0.0826679 0.291634 0.0781626 0.923369 0.472561 0.90265 0.813369 0.951645 0.330752 0.9959 0.479862 0.150405 0.346472 0.286585 0.535324 0.393077 0.268787 0.649811 0.373739
THROW_SPECIFIER_JAVA 0.160982 0.586637 0.923068 0.651415 0.560061 0.821097 0.110503 0.871112 0.234764 0.354763 0.050151 0.429296 0.495567 0.860972 0.139905 0.608413 0.872135 0.120899 0.249677 0.513376 0.312288 0.266005 0.131329 0.446008 0.507233 0.330967 0.793838 0.919448 0.334477 0.756631
TEMPLATE 0.335975 0.722682 0.829581 0.950873 0.627025 0.493861 0.0582557 0.394919 0.324949 0.129052 0.629544 0.664159 0.942681 0.384966 0.170085 0.769269 0.957002 0.51097 0.222692 0.871794 0.79511 0.770125 0.439067 0.329004 0.928159 0.57312 0.0695835 0.90091 0.957942 0.833855
GENERIC_ARGUMENT 0.803485 0.906968 0.38033 0.415659 0.376469 0.531586 0.751948 0.408878 0.970399 0.682602 0.779031 0.216778 0.641573 0.215405 0.027861 0.637555 0.930816 0.434701 0.417017 0.701076 0.159276 0.48199 0.0451609 0.481068 0.967327 0.0260656 0.341787 0.132409 0.493529 0.890871
GENERIC_ARGUMENT_LIST 0.407825 0.671482 0.704546 0.531978 0.305059 0.71121 0.930019 0.774355 0.206236 0.440368 0.303241 0.163586 0.64934 0.507215 0.872504 0.338858 0.0794272 0.682567 0.781927 0.0646386 0.0491817 0.356921 0.519158 0.174453 0.497091 0.781691 0.382605 0.50785 0.516571 0.614695
TEMPLATE_PARAMETER 0.220866 0.264832 0.055199 0.297893 0.688046 0.179761 0.337512 0.0688636 0.445294 0.376387 0.917601 0.997872 0.45784 0.332155 0.889671 0.163927 0.712891 0.542377 0.13165 0.385058 0.555303 0.725456 0.124698 0.307877 0.173774 0.616201 0.198798 0.171233 0.00498021 0.724589
TEMPLATE_PARAMETER_LIST 0.0363545 0.779188 0.785031 0.708825 0.366395 0.936451 0.247137 0.00835502 0.162361 0.541136 0.850421 0.501942 0.402487 0.451554 0.2785 0.328061 0.632006 0.341512 0.0720485 0.254151 0.0392964 0.667543 0.132493 0.311022 0.0305178 0.0629797 0.284416 0.526757 0.0995213 0.789595
GENERIC_PARAMETER 0.839016 0.345106 0.121571 0.811803 0.324847 0.107236 0.29484 0.747922 0.288485 0.694016 0.508875 0.482122 0.595308 0.0368888 0.557204 0.252899 0.327491 0.650123 0.15692 0.992765 0.459501 0.561987 0.994125 0.0904324 0.989164 0.84151 0.897433 0.594816 0.403103 0.311143
GENERIC_PARAMETER_LIST 0.071666 0.40423 0.76635 0.766524 0.867197 0.0184869 0.500407 0.455195 0.641771 0.00797176 0.698583 0.340758 0.0163592 0.624058 0.0324326 0.92378 0.560832 0.338943 0.0358256 0.898664 0.881309 0.0173179 0.150049 0.672964 0.298406 0.671325 0.7818 0.638209 0.51476 0.503274
TYPEDEF 0.967712 0.843671 0.0930727 0.0270562 0.847323 0.813912 0.102934 0.824239 0.145416 0.877205 0.975265 0.413068 0.622261 0.510979 0.707476 0.866193 0.83972 0.334343 0.54006 0.922298 0.856066 0.0851195 0.687663 0.133381 0.167474 0.00799704 0.522285 0.231243 0.130314 0.750091
ASM 0.214711 0.975135 0.335089 0.638499 0.436933 0.427955 0.0431901 0.023371 0.451372 0.587645 0.00279105 0.891957 0.532238 0.503884 0.280299 0.196007 0.608398 0.135065 0.950672 0.127629 0.779593 0.969334 0.740952 0.782378 0.456835 0.143926 0.740587 0.5905 0.132178 0.0342472
MACRO_CALL 0.531573 0.708398 0.774726 0.334642 0.391166 0.579901 0.844042 0.480584 0.87035 0.978009 0.577478 0.159983 0.946988 0.467485 0.728391 0.50159 0.658299 0.0657715 0.758522 0.190415 0.0191715 0.344366 0.635325 0.310769 0.0692663 0.591402 0.237911 0.579321 0.0821303 0.0265936
SIZEOF_CALL 0.366699 0.658831 0.705369 0.93914 0.699082 0.125035 0.496792 0.770321 0.529983 0.443708 0.370073 0.783485 0.583454 0.219613 0.249359 0.360414 0.0551038 0.433466 0.662397 0.82974 0.202953 0.279394 0.176055 0.249568 0.0080452 0.278688 0.0899529 0.551927 0.529887 0.022917
EXTERN 0.200637 0.943719 0.710516 0.0864282 0.64533 0.403166 0.0157267 0.019363 0.906366 0.0349582 0.110166 0.801545 0.954228 0.549136 0.692495 0.170837 0.640637 0.129195 0.175215 0.467154 0.99545 0.914618 0.39995 0.173385 0.871218 0.0052793 0.0689199 0.181213 0.7371 0.00831306
NAMESPACE 0.198266 0.449167 0.992289 0.812952 0.715491 0.0179167 0.90908 0.0841851 0.149444 0.323374 0.174447 0.351455 0.882856 0.60709 0.0124515 0.83607 0.533212 0.142253 0.916781 0.184423 0.0637113 0.447482 0.724921 0.404286 0.143681 0.993931 0.432858 0.587301 0.938498 0.0953888
USING_DIRECTIVE 0.140935 0.253534 0.850209 0.429753 0.360127 0.483389 0.172444 0.994701 0.225021 0.860729 0.00731981 0.467919 0.576892 0.360397 0.50422 0.409605 0.709124 0.449111 0.256727 0.731717 0.0793276 0.680386 0.483181 0.706175 0.583789 0.989633 0.254793 0.416686 0.713589 0.155151
DIRECTIVE 0.0112079 0.118258 0.51668 0.0356233 0.012907 0.359315 0.18105 0.168024 0.404415 0.417879 0.549663 0.500083 0.67131 0.757676 0.957509 0.217164 0.855296 0.514584 0.474831 0.00773251 0.448846 0.299014 0.298572 0.530756 0.221529 0.0516375 0.548066 0.514611 0.559926 0.933879
ATOMIC 0.762392 0.946693 0.756065 0.854948 0.468982 0.580593 0.122251 0.247044 0.303707 0.890108 0.566986 0.448259 0.946118 0.497549 0.988024 0.116413 0.142688 0.798109 0.513829 0.667241 0.109535 0.991067 0.890822 0.00955665 0.392077 0.664694 0.346668 0.989767 0.381967 0.85278
STATIC_ASSERT_STATEMENT 0.928013 0.547922 0.16736 0.0147765 0.543309 0.317839 0.0752465 0.701617 0.303313 0.758068 0.809182 0.205882 0.688031 0.817548 0.813949 0.0924426 0.426445 0.222162 0.233196 0.280985 0.378049 0.225909 0.240662 0.54826 0.669348 0.127054 0.895009 0.0437016 0.498216 0.532624
GENERIC_SELECTION 0.767165 0.688606 0.844833 0.95777 0.75628 0.938889 0.308513 0.0148549 0.0210134 0.457641 0.708256 0.931978 0.604218 0.916178 0.329401 0.75045 0.286923 0.541785 0.067399 0.626969 0.490344 0.59022 0.474195 0.577985 0.565882 0.574196 0.993529 0.367878 0.311169 0.772674
GENERIC_SELECTOR 0.610481 0.176407 0.3286 0.366773 0.0603087 0.924687 0.017521 0.366782 0.560046 0.37263 0.221127 0.205209 0.944118 0.182199 0.737224 0.848686 0.139022 0.404336 0.957113 0.591138 0.264548 0.421972 0.823967 0.0682493 0.927486 0.632148 0.524307 0.851571 0.244808 0.43945
GENERIC_ASSOCIATION_LIST 0.677101 0.190051 0.346737 0.0786587 0.388802 0.46049 0.0883095 0.368347 0.518822 0.00478208 0.433342 0.382089 0.615887 0.40477 0.906316 0.156606 0.930571 0.870589 0.683049 0.586752 0.133964 0.54747 0.596276 0.518459 0.366566 0.346605 0.702743 0.908581 0.28851 0.882529
GENERIC_ASSOCIATION 0.48011 0.116984 0.218533 0.00911129 0.156933 0.810685 0.747105 0.87052 0.163663 0.388723 0.732549 0.592796 0.415899 0.836411 0.690594 0.0583447 0.63255 0.158455 0.47879 0.977744 0.503002 0.290932 0.255304 0.788754 0.46413 0.580419 0.148779 0.940033 0.196997 0.161875
ALIGNAS 0.000421524 0.182301 0.921243 0.803851 0.586627 0.774006 0.585365 0.395184 0.571061 0.149897 0.0800401 0.737772 0.788433 0.909288 0.969258 0.593065 0.96318 0.699474 0.537748 0.502267 0.173432 0.0717692 0.636583 0.817247 0.473205 0.717162 0.855744 0.462974 0.639956 0.641148
DECLTYPE 0.689272 0.961128 0.500785 0.312594 0.997412 0.0254623 0.406305 0.563545 0.0508885 0.150084 0.886355 0.724973 0.720134 0.148223 0.534287 0.748088 0.108737 0.753766 0.316133 0.915373 0.751357 0.223304 0.241766 0.706764 0.395612 0.6423 0.465886 0.14509 0.257264 0.971946
CAPTURE 0.837358 0.669778 0.633014 0.298275 0.328075 0.632941 0.671181 0.313527 0.467687 0.683906 0.774709 0.256431 0.338832 0.750417 0.810453 0.377326 0.0276251 0.05423 0.346643 0.0446421 0.776834 0.0965331 0.868257 0.286856 0.813687 0.33114 0.123622 0.574245 0.154873 0.376511
LAMBDA_CAPTURE 0.973344 0.832726 0.886083 0.551015 0.0976075 0.184344 0.992227 0.750942 0.432614 0.435869 0.49403 0.927348 0.109893 0.907913 0.757798 0.948285 0.0512371 0.831968 0.0192858 0.506373 0.213468 0.37482 0.248468 0.749842 0.147115 0.207026 0.777817 0.120681 0.390303 0.00666416
NOEXCEPT 0.934265 0.276494 0.301855 0.539434 0.796946 0.964371 0.848107 0.854363 0.48399 0.515279 0.26858 0.738143 0.702974 0.111724 0.264955 0.0627961 0.852112 0.463407 0.00921476 0.295506 0.351311 0.794575 0.306021 0.856207 0.0239472 0.189967 0.858284 0.15747 0.122169 0.976203
TYPENAME 0.679303 0.227893 0.745619 0.809202 0.653069 0.0680313 0.515453 0.889341 0.521869 0.321297 0.00394666 0.695474 0.121785 0.013128 0.862563 0.0884917 0.684035 0.732768 0.137502 0.403977 0.428466 0.381881 0.923164 0.771585 0.254928 0.927026 0.184668 0.779697 0.111805 0.848943
ALIGNOF 0.071931 0.0943266 0.337267 0.465745 0.236951 0.0225971 0.55938 0.833797 0.50539 0.534995 0.0822781 0.410515 0.504537 0.662886 0.663508 0.759889 0.803669 0.166267 0.758411 0.339099 0.489038 0.738346 0.14486 0.749915 0.0380937 0.317397 0.613567 0.261168 0.877069 0.340203
TYPEID 0.738581 0.843101 0.869062 0.0161899 0.0921189 0.587091 0.792565 0.0485562 0.373321 0.0813429 0.580777 0.277386 0.735218 0.579872 0.680585 0.904726 0.998194 0.329781 0.925887 0.00438225 0.12619 0.426733 0.553822 0.400008 0.173998 0.501479 0.314415 0.4706 0.68468 0.955359
SIZEOF_PACK 0.0726918 0.855373 0.0241866 0.0932606 0.182841 0.972641 0.821714 0.843112 0.556078 0.340516 0.0165608 0.189458 0.0936462 0.0866865 0.785925 0.271628 0.0346041 0.963447 0.480245 0.845413 0.911898 0.095273 0.0942515 0.0141444 0.672212 0.917776 0.559489 0.486604 0.958486 0.458802
ENUM_CLASS 0.454128 0.677765 0.137984 0.0554084 0.490308 0.885659 0.433634 0.848429 0.154404 0.645245 0.479787 0.331777 0.943818 0.676812 0.0544431 0.349648 0.153795 0.175578 0.881818 0.123216 0.673485 0.390982 0.20077 0.653088 0.299297 0.205061 0.00157392 0.162735 0.130489 0.568161
ENUM_CLASS_DECLARATION 0.381112 0.390618 0.811851 0.147312 0.867223 0.457966 0.663019 0.570701 0.606591 0.106083 0.335705 0.750462 0.229717 0.56741 0.672788 0.0320442 0.0768746 0.173086 0.0793453 0.198748 0.279505 0.0682024 0.675089 0.264315 0.63947 0.651966 0.201661 0.363541 0.524573 0.872361
OPERATOR_FUNCTION 0.879993 0.472834 0.169955 0.252962 0.930538 0.488799 0.277133 0.195096 0.166154 0.0354029 0.212257 0.834775 0.702823 0.216127 0.698566 0.485863 0.601853 0.288702 0.926479 0.720213 0.770874 0.618894 0.244223 0.0787516 0.286255 0.75276 0.126204 0.516438 0.825975 0.0462581
OPERATOR_FUNCTION_DECL 0.577698 0.291395 0.285699 0.0742878 0.942467 0.978799 0.869692 0.872941 0.264141 0.237166 0.233276 0.877711 0.690611 0.473319 0.763009 0.753426 0.210096 0.310232 0.528168 0.189323 0.368366 0.463448 0.394885 0.324238 0.864464 0.470783 0.276882 0.412479 0.258908 0.0161091
REF_QUALIFIER 0.208475 0.254478 0.4984 0.110832 0.236339 0.227082 0.729085 0.0297531 0.703436 0.228669 0.52912 0.2718 0.227225 0.0275565 0.405059 0.281944 0.262285 0.925032 0.657832 0.71107 0.467308 0.852806 0.623999 0.578144 0.857509 0.810048 0.484137 0.689861 0.737136 0.992091
SIGNAL_ACCESS 0.0953884 0.192119 0.743328 0.982316 0.425663 0.277349 0.265948 0.750872 0.826922 0.191578 0.124754 0.913409 0.841128 0.449984 0.774787 0.879758 0.522856 0.183 0.15 0.170843 0.317306 0.464146 0.317681 0.13699 0.161222 0.629347 0.797502 0.556372 0.83444 0.433537
FOREVER_STATEMENT 0.240054 0.840683 0.790969 0.617731 0.972233 0.68692 0.0717391 0.949604 0.802902 0.414556 0.391583 0.425379 0.524287 0.5673 0.516469 0.04063 0.515037 0.451943 0.588548 0.293755 0.897618 0.790787 0.398895 0.30366 0.676557 0.253276 0.790991 0.652528 0.949216 0.452645
EMIT_STATEMENT 0.877403 0.783644 0.881502 0.0476117 0.97559 0.227795 0.615956 0.550634 0.495071 0.100973 0.363865 0.947675 0.217451 0.721113 0.671297 0.769664 0.612157 0.231004 0.784226 1.12057e-05 0.496463 0.0569639 0.486672 0.380549 0.935922 0.973669 0.742548 0.690984 0.104184 0.528592
CPP_DIRECTIVE 0.758122 0.359535 0.435921 0.452957 0.0804741 0.435047 0.626904 0.694106 0.100106 0.761819 0.367443 0.0767771 0.17979 0.769051 0.173848 0.152079 0.670768 0.418053 0.449124 0.15832 0.949652 0.682316 0.203946 0.921992 0.68213 0.354472 0.0530173 0.926074 0.117469 0.913579
CPP_FILENAME 0.348177 0.556188 0.612244 0.660325 0.55729 0.317648 0.522701 0.543922 0.467066 0.212608 0.100325 0.542193 0.402941 0.129438 0.965169 0.039668 0.110362 0.233302 0.570898 0.0201962 0.730533 0.468593 0.723541 0.734552 0.61809 0.393481 0.239209 0.0600462 0.648599 0.598535
FILE 0.721125 0.139405 0.688159 0.757882 0.936838 0.322688 0.490926 0.152755 0.122302 0.538405 0.854851 0.891424 0.236312 0.267608 0.387565 0.854659 0.723897 0.725577 0.152346 0.11562 0.0643728 0.0836233 0.527528 0.885428 0.894487 0.602802 0.109227 0.271106 0.186191 0.780608
NUMBER 0.0467235 0.465027 0.640204 0.768101 0.0292716 0.0612149 0.305997 0.513067 0.980246 0.455609 0.258083 0.550825 0.80992 0.357725 0.0823735 0.497059 0.929561 0.997077 0.44643 0.190161 0.604228 0.0471333 0.478251 0.84381 0.742258 0.0492047 0.148467 0.703128 0.125947 0.149581
CPP_NUMBER 0.207026 0.786876 0.70482 0.263439 0.028852 0.696744 0.143117 0.629859 0.641373 0.313828 0.147587 0.62504 0.498991 0.376714 0.393654 0.893401 0.7311 0.435237 0.701893 0.299033 0.593216 0.714736 0.106054 0.611993 0.571863 0.0218962 0.895248 0.291752 0.588038 0.63498
CPP_LITERAL 0.351153 0.873878 0.918088 0.99715 0.244991 0.604866 0.418541 0.0759832 0.493673 0.500276 0.742018 0.745185 0.280363 0.0540063 0.280248 0.508392 0.851163 0.656565 0.414641 0.750029 0.972276 0.645288 0.180715 0.501071 0.587072 0.0389487 0.824043 0.766317 0.714169 0.872149
CPP_MACRO_DEFN 0.388341 0.987666 0.101634 0.418427 0.676626 0.736537 0.0568299 0.37855 0.838268 0.268468 0.61017 0.435873 0.235186 0.749855 0.154749 0.106332 0.974684 0.145288 0.260747 0.642349 0.275374 0.945871 0.435939 0.355036 0.733796 0.744158 0.456642 0.965496 0.614603 0.934123
CPP_MACRO_VALUE 0.631353 0.0648206 0.252656 0.342321 0.519721 0.526401 0.134433 0.0377729 0.275728 0.54453 0.229588 0.511237 0.738667 0.0539075 0.407004 0.671168 0.253051 0.288397 0.809059 0.991406 0.815131 0.127359 0.716301 0.428198 0.136737 0.0615306 0.873847 0.345607 0.385112 0.827296
ERROR 0.392756 0.023013 0.490205 0.848133 0.449414 0.993948 0.487593 0.0633749 0.428379 0.999251 0.327327 0.396605 0.944625 0.25439 0.161423 0.714391 0.379527 0.594562 0.271882 0.7465 0.737864 0.582125 0.71602 0.389139 0.559456 0.733125 0.830385 0.744131 0.91455 0.609064
CPP_ERROR 0.315344 0.885736 0.546573 0.603666 0.514558 0.947537 0.961994 0.990932 0.254261 0.450673 0.537502 0.772813 0.718497 0.480021 0.292586 0.0597516 0.0813459 0.0634423 0.170102 0.760404 0.667902 0.639051 0.384316 0.292811 0.811709 0.0408251 0.0860929 0.87424 0.720686 0.571612
CPP_WARNING 0.337856 0.94896 0.805732 0.739386 0.653945 0.345289 0.0947584 0.881196 0.304506 0.57952 0.540197 0.20022 0.939611 0.492204 0.00313842 0.6085 0.183296 0.444608 0.53099 0.134661 0.605214 0.983785 0.43849 0.586363 0.444289 0.0311699 0.957906 0.909646 0.303097 0.400088
CPP_PRAGMA 0.936917 0.306486 0.61156 0.795154 0.0192754 0.985912 0.0629957 0.241938 0.265744 0.591375 0.0537765 0.506149 0.644711 0.188259 0.877841 0.426262 0.011723 0.268105 0.341502 0.564855 0.900245 0.714106 0.469597 0.62063 0.223413 0.507384 0.642133 0.381493 0.713746 0.551331
CPP_INCLUDE 0.271854 0.823389 0.651959 0.818332 0.752678 0.678761 0.847098 0.0549302 0.475482 0.50938 0.938269 0.935873 0.00182939 0.316826 0.77662 0.543194 0.0934172 0.29769 0.739762 0.831968 0.728597 0.857301 0.947801 0.78137 0.800148 0.574841 0.741314 0.588888 0.0886651 0.876265
CPP_DEFINE 0.365147 0.0878794 0.118139 0.0612677 0.801699 0.985819 0.175029 0.135311 0.447253 0.655845 0.964756 0.851468 0.44339 0.632088 0.77042 0.685553 0.462638 0.876998 0.966721 0.462277 0.290579 0.142477 0.133723 0.125264 0.318995 0.66019 0.116148 0.0219196 0.164146 0.546856
CPP_UNDEF 0.473575 0.217818 0.946726 0.317967 0.198711 0.582477 0.496936 0.138269 0.00873232 0.84446 0.533162 0.683444 0.238933 0.712428 0.147312 0.785281 0.390075 0.57315 0.219633 0.601666 0.752146 0.155379 0.928151 0.0108776 0.373735 0.496596 0.342224 0.349548 0.292519 0.382992
CPP_LINE 0.40195 0.65439 0.0972499 0.863145 0.952389 0.479079 0.463073 0.00935304 0.548294 0.228667 0.519042 0.705772 0.0479937 0.843699 0.943644 0.940354 0.508373 0.168091 0.53257 0.0992122 0.183339 0.167887 0.517547 0.821912 0.30574 0.944799 0.750573 0.419225 0.85476 0.244112
CPP_IF 0.396943 0.161287 0.910409 0.879572 0.47503 0.0133348 0.0971843 0.601842 0.97603 0.771683 0.4019 0.456181 0.748045 0.849741 0.169108 0.283145 0.369154 0.248072 0.762917 0.0664313 0.163034 0.424287 0.337176 0.188869 0.00492465 0.241951 0.813466 0.279534 0.205827 0.285948
CPP_IFDEF 0.110346 0.224668 0.979719 0.138443 0.458781 0.468557 0.312211 0.873114 0.0269177 0.910742 0.129467 0.0739211 0.0860664 0.852342 0.52294 0.777259 0.521929 0.42889 0.344216 0.353475 0.904958 0.841832 0.465707 0.355955 0.236415 0.283065 0.525403 0.83364 0.537864 0.770034
CPP_IFNDEF 0.706865 0.315501 0.864045 0.0197029 0.795286 0.184877 0.880606 0.633508 0.508815 0.244586 0.67616 0.828864 0.717287 0.883073 0.702603 0.259799 0.29934 0.445668 0.39358 0.0632147 0.7888 0.0603429 0.367644 0.00504744 0.489657 0.179817 0.494974 0.265101 0.539993 0.86064
CPP_THEN 0.183912 0.525087 0.810623 0.147376 0.185703 0.34527 0.853452 0.941923 0.226607 0.768378 0.619003 0.478328 0.351082 0.956509 0.28663 0.17416 0.0617251 0.790891 0.916932 0.408357 0.317014 0.821584 0.745606 0.570955 0.873155 0.635388 0.0658541 0.33975 0.654121 0.780594
CPP_ELSE 0.963177 0.551129 0.860341 0.436079 0.519065 0.741525 0.926168 0.751154 0.347571 0.0866264 0.246191 0.0874135 0.693216 0.940209 0.786102 0.887759 0.975764 0.848816 0.331332 0.00261581 0.275645 0.659781 0.747755 0.262522 0.458076 0.992818 0.855031 0.530065 0.412129 0.848386
CPP_ELIF 0.3592 0.920942 0.126489 0.945275 0.899387 0.953031 0.242951 0.674568 0.995281 0.108249 0.249547 0.0128504 0.0292176 0.148214 0.126985 0.780456 0.12414 0.889083 0.302885 0.292313 0.161917 0.728032 0.279289 0.0823462 0.93337 0.0373788 0.504484 0.0129596 0.727621 0.472829
CPP_EMPTY 0.993365 0.813315 0.815642 0.191966 0.934487 0.508309 0.286801 0.868944 0.223309 0.462785 0.668039 0.381661 0.776538 0.524475 0.470254 0.773524 0.764436 0.968597 0.698761 0.811989 0.2615 0.0598073 0.29026 0.524494 0.582699 0.0610546 0.24587 0.468957 0.753724 0.0495828
CPP_REGION 0.842573 0.560668 0.981913 0.410539 0.624212 0.90456 0.104303 0.339113 0.28548 0.153248 0.162211 0.897015 0.751527 0.645332 0.451346 0.129672 0.616052 0.887856 0.235913 0.0166081 0.810429 0.539897 0.530198 0.905908 0.71962 0.959762 0.532936 0.649815 0.214365 0.303128
CPP_ENDREGION 0.00473917 0.82392 0.0307684 0.293 0.71843 0.282012 0.171 0.523867 0.967059 0.292275 0.794585 0.496545 0.0354894 0.11906 0.508067 0.746679 0.870538 0.287003 0.691356 0.0758901 0.753482 0.0063467 0.173633 0.556182 0.169267 0.317921 0.660542 0.0157752 0.289139 0.992363
USING_STMT 0.69908 0.396595 0.126416 0.347264 0.329782 0.703036 0.176924 0.789029 0.622571 0.982551 0.784865 0.116903 0.555189 0.508197 0.316096 0.965817 0.141201 0.750551 0.0942917 0.633711 0.0927043 0.11057 0.51967 0.23113 0.373514 0.361401 0.88692 0.575773 0.205297 0.261432
ESCAPE 0.854256 0.374982 0.58697 0.935103 0.748027 0.0388325 0.384043 0.974967 0.572105 0.251253 0.884094 0.387055 0.866027 0.903706 0.212117 0.520485 0.201337 0.980354 0.151528 0.838659 0.859425 0.26573 0.951974 0.865368 0.83019 0.777366 0.755355 0.306782 0.770519 0.371446
VALUE 0.588938 0.268191 0.724455 0.240196 0.165709 0.738638 0.258801 0.4831 0.588006 0.327131 0.761642 0.266891 0.969823 0.387338 0.650959 0.582347 0.755363 0.807453 0.581361 0.962285 0.0400296 0.427953 0.497233 0.925082 0.77855 0.953948 0.755319 0.135407 0.829533 0.396633
CPP_IMPORT 0.187238 0.530766 0.370718 0.710363 0.301019 0.511827 0.8708 0.0339631 0.230959 0.36076 0.779835 0.797233 0.283854 0.130088 0.297733 0.757419 0.287039 0.621301 0.0236106 0.344686 0.93855 0.474072 0.0862771 0.196959 0.776176 0.910216 0.448567 0.27196 0.459589 0.960237
CPP_ENDIF 0.0187345 0.973478 0.571566 0.14558 0.455662 0.335233 0.17985 0.429948 0.634598 0.933861 0.826116 0.711641 0.777959 0.398301 0.790958 0.546958 0.243915 0.120947 0.896234 0.965883 0.341534 0.996981 0.730374 0.498508 0.486897 0.383927 0.216845 0.647645 0.301705 0.690695
MARKER 0.301591 0.174588 0.625647 0.572753 0.0254965 0.21594 0.426915 0.0913361 0.163751 0.100776 0.918737 0.806783 0.638196 0.548849 0.799678 0.843025 0.665435 0.92049 0.187828 0.939992 0.521785 0.645319 0.859292 0.0670186 0.525058 0.541245 0.0277066 0.74619 0.683294 0.810009
ERROR_PARSE 0.735538 0.123665 0.424812 0.969262 0.530154 0.264188 0.958706 0.870067 0.93842 0.0504204 0.557632 0.525007 0.892867 0.527104 0.554976 0.686106 0.819232 0.475262 0.0355067 0.337954 0.248974 0.0690374 0.460149 0.19817 0.283077 0.819261 0.417487 0.438161 0.946627 0.730572
ERROR_MODE 0.253292 0.828248 0.837317 0.936911 0.109884 0.564431 0.798843 0.0346239 0.591585 0.815165 0.907484 0.636922 0.950461 0.862087 0.189802 0.494122 0.555466 0.237991 0.00892591 0.322841 0.151718 0.946135 0.561003 0.949976 0.651606 0.861773 0.422295 0.930616 0.620733 0.463874
IMPLEMENTS 0.710504 0.968693 0.607012 0.917629 0.150918 0.881896 0.360422 0.595476 0.472109 0.20304 0.334096 0.663077 0.151042 0.5152 0.0129616 0.468229 0.497711 0.634656 0.755762 0.684975 0.288052 0.545449 0.566036 0.170975 0.712661 0.504651 0.105317 0.586731 0.732051 0.108847
EXTENDS 0.563809 0.809918 0.0959157 0.874175 0.968114 0.325756 0.779159 0.935805 0.291321 0.421134 0.981879 0.0456653 0.0133556 0.763248 0.16805 0.832857 0.200049 0.436843 0.532494 0.398199 0.205477 0.64793 0.993511 0.897682 0.401883 0.541503 0.735512 0.324042 0.622893 0.212228
IMPORT 0.504488 0.845142 0.0882167 0.703486 0.835711 0.443726 0.419646 0.266501 0.863757 0.243495 0.842667 0.340529 0.988713 0.401846 0.664151 0.03497 0.978936 0.0390214 0.42648 0.0906476 0.56474 0.794576 0.056741 0.305981 0.670326 0.256325 0.455478 0.302594 0.656063 0.0439655
PACKAGE 0.942164 0.778467 0.332781 0.817715 0.129097 0.290125 0.892237 0.58359 0.251296 0.13588 0.387394 0.342222 0.420595 0.0711002 0.0186428 0.106806 0.0455779 0.0637124 0.471568 0.465135 0.90939 0.878624 0.0529068 0.462458 0.0658026 0.455878 0.689979 0.997885 0.29632 0.762557
ASSERT_STATEMENT 0.554846 0.526748 0.87997 0.721418 0.0944927 0.446719 0.926724 0.771446 0.859579 0.598604 0.107591 0.0781947 0.497633 0.920228 0.803821 0.145925 0.71131 0.451359 0.467353 0.597235 0.632177 0.554181 0.0489624 0.790699 0.926301 0.745604 0.722748 0.260861 0.0212666 0.565751
INTERFACE 0.105679 0.274091 0.777162 0.655753 0.612836 0.407539 0.937288 0.171579 0.539587 0.650778 0.353581 0.927591 0.577561 0.14146 0.887232 0.305064 0.388538 0.880087 0.200305 0.494774 0.901111 0.791865 0.171222 0.339772 0.457525 0.0294092 0.626847 0.936612 0.310779 0.233842
INTERFACE_DECLARATION 0.805974 0.869926 0.720247 0.561702 0.877371 0.528504 0.899619 0.490654 0.335168 0.19094 0.570432 0.00053072 0.438801 0.854578 0.667024 0.676987 0.106377 0.524384 0.350233 0.747846 0.986888 0.765865 0.761011 0.279864 0.924148 0.326791 0.498567 0.695623 0.169833 0.384881
SYNCHRONIZED_STATEMENT 0.356879 0.363152 0.977709 0.131771 0.471633 0.574316 0.92767 0.332449 0.00160658 0.131615 0.397496 0.0158459 0.322129 0.740874 0.533621 0.558684 0.0273982 0.644869 0.634798 0.570389 0.590682 0.842047 0.854099 0.969201 0.48814 0.115337 0.90086 0.603552 0.475722 0.367586
ANNOTATION 0.0339411 0.386677 0.120836 0.0833511 0.941053 0.193218 0.500236 0.0051446 0.523243 0.856736 0.972969 0.487743 0.486874 0.198238 0.537076 0.821737 0.816535 0.565986 0.0210595 0.610067 0.344817 0.507935 0.676265 0.170233 0.491815 0.871095 0.512743 0.329661 0.128006 0.650158
ANNOTATION_DEFN 0.654605 0.0691116 0.694242 0.426399 0.647909 0.0901605 0.174804 0.173618 0.0505896 0.3329 0.75865 0.733999 0.0594205 0.741991 0.0589378 0.986259 0.970359 0.179177 0.810033 0.534154 0.331279 0.0429323 0.187707 0.798989 0.39305 0.0675061 0.408645 0.666071 0.16434 0.747398
STATIC_BLOCK 0.794658 0.458379 0.301591 0.842507 0.571515 0.289073 0.68743 0.564934 0.643768 0.0502797 0.580395 0.442138 0.800477 0.641861 0.509288 0.539812 0.848962 0.270972 0.278708 0.567353 0.920044 0.601498 0.924566 0.649721 0.886252 0.917331 0.207815 0.159056 0.252558 0.209589
CHECKED_STATEMENT 0.120783 0.737411 0.213672 0.427608 0.620995 0.859055 0.676285 0.447228 0.00199866 0.0820391 0.576038 0.328973 0.0817554 0.0447496 0.116568 0.545473 0.951342 0.33983 0.295654 0.130732 0.719714 0.938039 0.91029 0.358477 0.83926 0.427762 0.0556631 0.506014 0.544704 0.618843
UNCHECKED_STATEMENT 0.492413 0.145022 0.639437 0.664943 0.712988 0.218441 0.533818 0.37257 0.831555 0.647225 0.433145 0.752477 0.14818 0.780468 0.69895 0.665377 0.590261 0.296111 0.895623 0.132923 0.595707 0.657004 0.561851 0.24797 0.4817 0.323388 0.384943 0.884731 0.688865 0.76375
ATTRIBUTE 0.147079 0.789837 0.989234 0.508098 0.295958 0.606571 0.485182 0.743349 0.46406 0.851211 0.327581 0.908198 0.0525389 0.667619 0.608497 0.806004 0.458982 0.291669 0.955995 0.76396 0.871694 0.629442 0.76524 0.16529 0.812895 0.602723 0.200673 0.0710849 0.102069 0.25561
TARGET 0.961495 0.710459 0.74822 0.527473 0.823031 0.527183 0.878733 0.978472 0.30004 0.891679 0.0250962 0.818946 0.310111 0.94175 0.0268496 0.676371 0.51012 0.973086 0.137687 0.00995791 0.59155 0.691191 0.955098 0.938438 0.333487 0.0092752 0.903968 0.431211 0.282625 0.591589
UNSAFE_STATEMENT 0.956678 0.108493 0.0610105 0.185907 0.169756 0.729856 0.909518 0.738552 0.696423 0.333404 0.189608 0.619444 0.342103 0.19442 0.116178 0.0409915 0.342941 0.699981 0.440233 0.351887 0.0706424 0.0607823 0.898897 0.991182 0.571101 0.192052 0.264089 0.526987 0.0999774 0.143456
LOCK_STATEMENT 0.192494 0.0979702 0.469327 0.294927 0.680139 0.227461 0.916462 0.646016 0.231902 0.974701 0.740061 0.294217 0.0278598 0.494915 0.755355 0.325859 0.937082 0.310412 0.760657 0.435357 0.316151 0.385917 0.979698 0.295208 0.525478 0.864101 0.458613 0.0729752 0.810557 0.946125
FIXED_STATEMENT 0.0262929 0.432582 0.666991 0.900727 0.570599 0.229318 0.390845 0.50188 0.613881 0.769642 0.0746071 0.149672 0.447817 0.984703 0.95839 0.660271 0.161277 0.803184 0.0287534 0.323103 0.542668 0.681162 0.0935814 0.927891 0.467495 0.115648 0.620525 0.00349212 0.280313 0.0263741
TYPEOF 0.505201 0.7557 0.23001 0.195371 0.927882 0.751011 0.449857 0.466951 0.641147 0.471428 0.587659 0.13434 0.462226 0.943943 0.5027 0.624961 0.429739 0.914119 0.984143 0.422526 0.0936552 0.640828 0.441198 0.547953 0.498905 0.0991517 0.563318 0.531534 0.533002 0.208495
USING_STATEMENT 0.41216 0.487424 0.159939 0.203376 0.0789453 0.13559 0.388764 0.434615 0.925987 0.324002 0.32525 0.154838 0.773208 0.68648 0.0765381 0.3733 0.0205573 0.157436 0.679624 0.57216 0.418432 0.895681 0.444754 0.564379 0.760236 0.0362269 0.78019 0.812208 0.395086 0.689358
FUNCTION_DELEGATE 0.947235 0.60393 0.983539 0.0709207 0.479215 0.177089 0.846504 0.934223 0.539236 0.954139 0.0820535 0.329367 0.394247 0.474685 0.255061 0.507751 0.985039 0.409511 0.567467 0.500596 0.337577 0.85511 0.276022 0.663383 0.57664 0.977265 0.448314 0.123252 0.495244 0.531248
EVENT 0.0155226 0.979089 0.847699 0.0346643 0.20747 0.268939 0.567726 0.442887 0.253072 0.769437 0.0352746 0.775026 0.526579 0.72544 0.288239 0.195938 0.415471 0.184759 0.652497 0.393778 0.098333 0.856885 0.227514 0.452468 0.552906 0.433409 0.844966 0.611272 0.443874 0.480938
CONSTRAINT 0.011428 0.329322 0.807677 0.907758 0.314179 0.24539 0.913047 0.315476 0.266518 0.647487 0.399495 0.950063 0.0225737 0.586267 0.586121 0.177142 0.803159 0.136154 0.879935 0.711096 0.897841 0.314719 0.505827 0.302267 0.820585 0.437366 0.76462 0.370518 0.777276 0.491799
LINQ 0.924915 0.701529 0.975171 0.546385 0.649984 0.123812 0.0476236 0.768893 0.073544 0.618126 0.723489 0.958491 0.304461 0.18762 0.612125 0.47783 0.25701 0.572445 0.955803 0.935966 0.18484 0.92689 0.478817 0.0441293 0.383859 0.425907 0.976228 0.573599 0.826218 0.713539
FROM 0.955423 0.371642 0.723907 0.304356 0.452197 0.332959 0.461282 0.0848851 0.381446 0.386227 0.847359 0.74164 0.308693 0.367851 0.210786 0.149326 0.918175 0.626755 0.0981863 0.500224 0.0384868 0.0477512 0.798061 0.269493 0.544382 0.954645 0.296925 0.725496 0.901826 0.673159
WHERE 0.98401 0.569537 0.710946 0.579656 0.890994 0.705804 0.392686 0.520068 0.808302 0.633698 0.55557 0.00530446 0.791692 0.0992739 0.862071 0.946345 0.24586 0.32714 0.820293 0.439897 0.556645 0.677855 0.620664 0.751425 0.896212 0.0117598 0.037415 0.629473 0.431773 0.334623
SELECT 0.845864 0.0947073 0.87371 0.996353 0.625869 0.6009 0.0454848 0.113533 0.445421 0.674791 0.0847907 0.831453 0.790202 0.126001 0.705636 0.744761 0.978239 0.509274 0.656125 0.558383 0.276532 0.53223 0.434445 0.633637 0.491914 0.078896 0.731752 0.188093 0.0157441 0.260689
LET 0.212556 0.0261924 0.0488219 0.0131748 0.192511 0.350653 0.192657 0.122959 0.0820857 0.35822 0.32754 0.635251 0.891539 0.326376 0.845401 0.129809 0.313722 0.0361387 0.333831 0.460567 0.304515 0.00503838 0.893898 0.331303 0.995725 0.061601 0.869597 0.683262 0.569295 0.196705
ORDERBY 0.506022 0.859177 0.896302 0.543623 0.984342 0.936908 0.434033 0.412873 0.675657 0.0908166 0.737673 0.455078 0.851706 0.699824 0.239255 0.369339 0.368184 0.271024 0.872655 0.611637 0.435767 0.787801 0.283207 0.593662 0.790227 0.0592682 0.725641 0.729855 0.431973 0.598679
JOIN 0.616655 0.45401 0.147057 0.782353 0.968781 0.944526 0.970662 0.631189 0.683754 0.698572 0.634152 0.77372 0.693371 0.52611 0.791272 0.0197623 0.109842 0.68876 0.962555 0.870079 0.274075 0.801246 0.447347 0.337991 0.353242 0.0206641 0.414493 0.744025 0.181555 0.668627
GROUP 0.322116 0.264395 0.14334 0.291106 0.233277 0.295731 0.700457 0.46814 0.836932 0.863113 0.111361 0.848135 0.559371 0.645208 0.519083 0.402491 0.172254 0.728251 0.634288 0.0712727 0.682873 0.61028 0.952042 0.261178 0.74501 0.715039 0.0111215 0.104344 0.201998 0.150238
IN 0.557183 0.942153 0.885255 0.0276873 0.120165 0.185341 0.277457 0.440469 0.927009 0.735442 0.924978 0.150892 0.953616 0.543826 0.326135 0.666231 0.596802 0.39764 0.451619 0.213916 0.148865 0.0290048 0.731005 0.22627 0.613458 0.514734 0.543647 0.784028 0.347383 0.234094
ON 0.533312 0.701872 0.0452461 0.62845 0.352172 0.427126 0.353239 0.442781 0.525407 0.154553 0.961479 0.739143 0.928701 0.0632759 0.986456 0.316527 0.642781 0.0897346 0.58677 0.623365 0.186329 0.117279 0.389682 0.127295 0.601406 0.294037 0.251557 0.246838 0.714257 0.0100701
EQUALS 0.344844 0.49912 0.158262 0.816685 0.914967 0.726623 0.887597 0.14698 0.480235 0.347268 0.182705 0.859366 0.165628 0.343971 0.979318 0.782692 0.146272 0.208823 0.457484 0.749269 0.163949 0.617014 0.292622 0.56083 0.94669 0.228285 0.311253 0.630482 0.507962 0.271418
BY 0.882037 0.72192 0.653244 0.733366 0.37263 0.264508 0.435839 0.548937 0.510204 0.830608 0.646093 0.428659 0.000382185 0.968175 0.365196 0.676039 0.330499 0.774186 0.455244 0.46821 0.704549 0.821937 0.652763 0.0713699 0.807951 0.278406 0.0601124 0.589874 0.204559 0.497566
INTO 0.848185 0.619893 0.107437 0.596282 0.530694 0.271867 0.958897 0.097422 0.71707 0.33733 0.839902 0.122157 0.979636 0.873686 0.661071 0.96959 0.844627 0.455306 0.794134 0.56234 0.497958 0.0826964 0.838665 0.753356 0.766482 0.157865 0.569175 0.237994 0.351869 0.400376
EMPTY 0.854487 0.362278 0.716793 0.234196 0.975588 0.518223 0.279184 0.351359 0.403516 0.383489 0.165976 0.387015 0.0836796 0.896084 0.605807 0.916808 0.653227 0.343719 0.263999 0.993264 0.0105326 0.328959 0.0344193 0.742979 0.757666 0.62093 0.892749 0.310055 0.533073 0.92097
EMPTY_STMT 0.011359 0.437148 0.231396 0.686638 0.497033 0.166375 0.564476 0.0715458 0.649313 0.353628 0.621921 0.221575 0.0457048 0.263731 0.888318 0.0370153 0.0507306 0.608059 0.813254 0.649001 0.697459 0.305185 0.531156 0.267968 0.339279 0.692161 0.984459 0.964314 0.0570568 0.069517
RECEIVER 0.662291 0.840479 0.0166504 0.925185 0.61704 0.565864 0.0304158 0.18868 0.269463 0.805754 0.0686679 0.848668 0.325954 0.0526028 0.90381 0.304465 0.44723 0.110242 0.0112284 0.884606 0.925456 0.10935 0.713475 0.760271 0.442398 0.39054 0.738071 0.144538 0.444297 0.0872101
MESSAGE 0.849594 0.410524 0.132575 0.955071 0.385813 0.391522 0.0616548 0.507237 0.753734 0.134234 0.168372 0.0333468 0.86592 0.31242 0.668381 0.191265 0.16428 0.653124 0.431763 0.851843 0.755819 0.933499 0.863146 0.398766 0.598366 0.8161 0.379229 0.0694158 0.0632936 0.0198331
SELECTOR 0.320558 0.411074 0.38947 0.855832 0.51992 0.354705 0.515702 0.306595 0.0544955 0.166564 0.216805 0.0774758 0.451068 0.904538 0.756222 0.506261 0.778545 0.87564 0.370569 0.308753 0.432321 0.389016 0.552339 0.362943 0.342577 0.905949 0.48323 0.18563 0.290045 0.793295
PROTOCOL_LIST 0.860861 0.47196 0.125823 0.693714 0.532766 0.632119 0.344177 0.979937 0.898175 0.256939 0.209633 0.857434 0.258645 0.2658 0.36204 0.604634 0.828976 0.0691674 0.805382 0.928465 0.567232 0.0133412 0.345925 0.0350217 0.5811 0.0655346 0.33488 0.0511985 0.891521 0.790672
CATEGORY 0.731093 0.0592017 0.906082 0.737757 0.916033 0.355801 0.0908164 0.873298 0.0576793 0.32833 0.797669 0.654637 0.260697 0.311624 0.898187 0.594355 0.733707 0.383349 0.655891 0.518893 0.0729233 0.234344 0.634165 0.828072 0.560696 0.45673 0.590285 0.0883909 0.81634 0.472134
PROTOCOL 0.710384 0.548546 0.725339 0.909402 0.435934 0.219603 0.273559 0.457228 0.427134 0.420518 0.37835 0.658787 0.1381 0.959278 0.641064 0.0429775 0.397164 0.769326 0.0723847 0.529747 0.797943 0.567101 0.91034 0.908405 0.394302 0.928351 0.429756 0.135248 0.943067 0.503482
REQUIRED_DEFAULT 0.316679 0.103531 0.165905 0.895786 0.151537 0.287721 0.909993 0.177629 0.364678 0.580977 0.426999 0.0515662 0.913806 0.0855829 0.947615 0.151069 0.0399506 0.119143 0.394772 0.480454 0.384813 0.883603 0.491506 0.56246 0.782876 0.932983 0.0330361 0.673425 0.538423 0.610493
REQUIRED 0.626838 0.607513 0.439458 0.0382493 0.864166 0.338679 0.637585 0.248939 0.89093 0.956711 0.732062 0.193385 0.247172 0.337967 0.587115 0.207032 0.213178 0.82269 0.5171 0.14728 0.728107 0.538208 0.375585 0.266277 0.538906 0.672045 0.294946 0.572794 0.0220184 0.264026
OPTIONAL 0.458846 0.456466 0.269895 0.302147 0.781901 0.837327 0.953746 0.464435 0.839897 0.6575 0.424863 0.32566 0.459438 0.936169 0.486003 0.476266 0.355707 0.671298 0.569479 0.954138 0.553719 0.567377 0.529498 0.827341 0.573836 0.570226 0.313577 0.299304 0.650491 0.903671
PROPERTY 0.0510294 0.335217 0.0487621 0.847729 0.506832 0.180879 0.0850356 0.429292 0.233268 0.281673 0.958014 0.387617 0.890003 0.409582 0.56262 0.516754 0.361844 0.933274 0.385112 0.147375 0.228888 0.244062 0.991366 0.108616 0.475168 0.132591 0.373027 0.696876 0.148834 0.219825
ATTRIBUTE_LIST 0.728064 0.594762 0.374091 0.133027 0.941875 0.572612 0.665599 0.387912 0.72057 0.715641 0.403137 0.345192 0.441107 0.679648 0.200824 0.652953 0.633952 0.877137 0.13043 0.686797 0.0119715 0.639682 0.327309 0.176065 0.275395 0.712252 0.397589 0.110478 0.297831 0.868473
SYNTHESIZE 0.829576 0.578735 0.874473 0.478174 0.646495 0.779673 0.254473 0.436951 0.965742 0.2051 0.163462 0.939925 0.592021 0.360263 0.886127 0.143798 0.613441 0.213412 0.202131 0.182326 0.557263 0.00541532 0.94545 0.155606 0.464356 0.104023 0.916638 0.567339 0.213693 0.911864
DYNAMIC 0.658148 0.395266 0.70409 0.284481 0.120279 0.208052 0.566517 0.0836322 0.606063 0.628878 0.300927 0.164735 0.075533 0.503791 0.568158 0.59842 0.0708786 0.79153 0.0657758 0.633313 0.0223318 0.618623 0.418216 0.280434 0.568658 0.695364 0.10783 0.737912 0.708529 0.748643
ENCODE 0.0614945 0.247561 0.817055 0.0776411 0.394721 0.94618 0.676048 0.767532 0.136572 0.685898 0.62961 0.518668 0.0688881 0.470376 0.339782 0.939733 0.168522 0.382342 0.695077 0.893028 0.221555 0.287798 0.714746 0.310016 0.0969722 0.487551 0.943226 0.590623 0.780816 0.0560541
AUTORELEASEPOOL 0.713959 0.0761766 0.265462 0.330676 0.603411 0.437729 0.516182 0.844871 0.0243266 0.484694 0.616147 0.0321541 0.196423 0.0160199 0.13212 0.532465 0.346065 0.142211 0.445781 0.114643 0.288764 0.505685 0.275523 0.636675 0.276716 0.534241 0.192664 0.607687 0.827376 0.220375
COMPATIBILITY_ALIAS 0.857939 0.340114 0.291101 0.169088 0.318808 0.380805 0.649876 0.416252 0.797011 0.317056 0.0285249 0.744253 0.999985 0.944615 0.0753852 0.736703 0.218125 0.0742147 0.580395 0.806804 0.46385 0.713325 0.287295 0.412871 0.510042 0.564587 0.504113 0.220434 0.840664 0.370891
NIL 0.552391 0.283857 0.249963 0.881946 0.217204 0.474367 0.845119 0.0826819 0.845088 0.417901 0.130025 0.993502 0.380284 0.405116 0.636632 0.308207 0.48183 0.427822 0.751046 0.38942 0.976791 0.567142 0.857346 0.54472 0.162773 0.339727 0.740207 0.99818 0.793213 0.254998
CLASS_INTERFACE 0.20644 0.271396 0.195003 0.141485 0.349472 0.167959 0.305575 0.747861 0.146095 0.544051 0.185454 0.321535 0.634969 0.893682 0.50009 0.851328 0.610372 0.968844 0.745669 0.690845 0.761033 0.00876927 0.719028 0.701534 0.687507 0.647514 0.428139 0.506326 0.262686 0.34619
CLASS_IMPLEMENTATION 0.868303 0.107352 0.698061 0.0598435 0.410335 0.959264 0.78628 0.84436 0.800626 0.424758 0.536416 0.260066 0.940546 0.677177 0.365432 0.784874 0.54274 0.510996 0.773226 0.547288 0.723653 0.891626 0.805784 0.528423 0.0538597 0.73074 0.783898 0.340546 0.531327 0.812521
PROTOCOL_DECLARATION 0.03476 0.722818 0.479949 0.167994 0.355262 0.829437 0.674824 0.496504 0.218605 0.815573 0.792146 0.629941 0.507725 0.998716 0.944897 0.498838 0.815524 0.339578 0.321276 0.133895 0.663729 0.0771699 0.589185 0.39686 0.399514 0.66497 0.101252 0.59147 0.0658274 0.449404
CAST 0.16831 0.607175 0.237684 0.810661 0.00506377 0.65205 0.121312 0.00870764 0.403913 0.699202 0.0808313 0.969502 0.925179 0.289039 0.183232 0.430912 0.499332 0.973341 0.317497 0.856663 0.144482 0.353341 0.669086 0.51124 0.281179 0.614502 0.78171 0.222981 0.910348 0.0716023
CONST_CAST 0.193347 0.523582 0.468198 0.135717 0.226981 0.716108 0.230603 0.912424 0.636501 0.3244 0.290044 0.314323 0.306207 0.938823 0.551435 0.736469 0.659294 0.386875 0.20956 0.579689 0.0716726 0.76995 0.210136 0.955324 0.612896 0.59814 0.234207 0.412435 0.385555 0.514229
DYNAMIC_CAST 0.440839 0.0164731 0.544531 0.713707 0.460582 0.644514 0.441835 0.526149 0.29293 0.433082 0.437502 0.433482 0.965734 0.543916 0.783912 0.137567 0.597978 0.203505 0.338998 0.133325 0.153653 0.441914 0.620187 0.140617 0.998687 0.534426 0.341178 0.515261 0.802016 0.859181
REINTERPRET_CAST 0.630141 0.309614 0.766496 0.916636 0.561133 0.851256 0.423306 0.756569 0.953792 0.284391 0.239018 0.0769829 0.930155 0.576828 0.359314 0.973986 0.945195 0.492575 0.245232 0.787241 0.0568545 0.146175 0.897586 0.722316 0.282058 0.0790039 0.702776 0.199166 0.490252 0.145914
STATIC_CAST 0.994096 0.00332069 0.673923 0.204983 0.554546 0.427861 0.287026 0.193335 0.244998 0.107779 0.610613 0.229717 0.710575 0.168412 0.534498 0.0797297 0.697158 0.463449 0.602336 0.445515 0.271737 0.68098 0.12336 0.0412465 0.0469825 0.715489 0.47725 0.114878 0.0886161 0.189755
POSITION 0.510923 0.448227 0.944832 0.635193 0.286777 0.219784 0.248434 0.361576 0.295655 0.110304 0.581012 0.603686 0.119998 0.584265 0.0336901 0.852123 0.850137 0.781241 0.752592 0.750244 0.901434 0.352083 0.508985 0.0373949 0.900251 0.592754 0.86038 0.715172 0.448859 0.75955
CUDA_ARGUMENT_LIST 0.495983 0.708866 0.917728 0.0441155 0.716398 0.345101 0.976427 0.466298 0.601095 0.266356 0.0219603 0.257581 0.851415 0.978169 0.557951 0.75954 0.94727 0.173548 0.442884 0.990473 0.165905 0.899778 0.706837 0.107802 0.885208 0.236564 0.821779 0.413339 0.0611054 0.695107
OMP_DIRECTIVE 0.740203 0.955126 0.732372 0.523011 0.102167 0.593983 0.564652 0.0376356 0.0577391 0.16641 0.718264 0.838749 0.170879 0.234296 0.246517 0.0459057 0.997014 0.655855 0.723297 0.228811 0.898612 0.398272 0.502575 0.479983 0.777729 0.87584 0.881048 0.478297 0.689199 0.175442
OMP_NAME 0.0303265 0.650412 0.388335 0.373322 0.730215 0.996537 0.532539 0.474629 0.130778 0.0404941 0.989639 0.895519 0.250223 0.797286 0.0202124 0.527586 0.874414 0.0105423 0.350659 0.320411 0.419635 0.132673 0.863279 0.526296 0.143255 0.270307 0.802654 0.937155 0.0889616 0.074025
OMP_CLAUSE 0.356048 0.268437 0.305273 0.1238 0.675063 0.809299 0.855799 0.800354 0.987294 0.766787 0.00350654 0.56518 0.131287 0.706527 0.568809 0.972039 0.740723 0.0905535 0.997637 0.881507 0.547844 0.0292305 0.410447 0.619998 0.0378315 0.983698 0.500969 0.714932 0.647465 0.519251
OMP_ARGUMENT_LIST 0.147478 0.0809788 0.198283 0.332692 0.894947 0.835049 0.402338 0.989345 0.975686 0.174927 0.171715 0.832162 0.0144067 0.756819 0.142175 0.547103 0.712394 0.012571 0.48544 0.423897 0.711622 0.0814281 0.536335 0.12421 0.631153 0.446087 0.946583 0.961859 0.305318 0.0830225
OMP_ARGUMENT 0.194486 0.421047 0.193107 0.623569 0.316082 0.965482 0.228562 0.181929 0.860226 0.819445 0.892362 0.401518 0.248962 0.830551 0.0316452 0.380937 0.0333257 0.187001 0.609956 0.187206 0.167241 0.735342 0.407854 0.794143 0.1995 0.884312 0.709258 0.428871 0.753833 0.680304
OMP_EXPRESSION 0.40177 0.784484 0.0586568 0.497556 0.997202 0.322665 0.888596 0.798653 0.0353291 0.649064 0.434501 0.611916 0.895363 0.125895 0.250183 0.0725198 0.963326 0.954252 0.59367 0.0268004 0.867424 0.275208 0.835677 0.101477 0.970446 0.200097 0.153925 0.603855 0.162493 0.748356
END_ELEMENT_TOKEN 0.699063 0.513151 0.47676 0.0987017 0.407375 0.534731 0.41502 0.325602 0.531602 0.457392 0.029501 0.28769 0.583678 0.957506 0.0740989 0.952715 0.763547 0.899155 0.254913 0.295953 0.638408 0.914361 0.292653 0.982958 0.968288 0.155437 0.499612 0.859043 0.558378 0.960943
MAIN 0.322256 0.019557 0.0212444 0.194513 0.538521 0.809214 0.210452 0.553191 0.897964 0.509262 0.853749 0.950097 0.782346 0.552016 0.901828 0.766651 0.374003 0.89608 0.663608 0.39839 0.91599 0.423233 0.879819 0.0909467 0.84513 0.955176 0.578709 0.922304 0.61272 0.648729
BREAK 0.289189 0.0784504 0.19909 0.418186 0.603916 0.060218 0.172907 0.315756 0.952607 0.779754 0.387772 0.0260556 0.630584 0.946458 0.53728 0.606208 0.611457 0.717639 0.649699 0.537425 0.228106 0.271146 0.783221 0.480742 0.222974 0.965078 0.385168 0.299325 0.326685 0.462991
CONTINUE 0.157162 0.362414 0.839458 0.489255 0.54436 0.626527 0.45332 0.0853609 0.0792596 0.79673 0.249761 0.282901 0.736119 0.369293 0.465948 0.867924 0.444857 0.527233 0.804838 0.741559 0.600611 0.619959 0.955174 0.700726 0.248186 0.95365 0.678953 0.57773 0.235883 0.89843
WHILE 0.187935 0.39668 0.789364 0.567055 0.38624 0.101876 0.640729 0.514773 0.432191 0.832575 0.34053 0.94258 0.890259 0.314349 0.30239 0.91135 0.394658 0.505746 0.125937 0.762629 0.304341 0.0900371 0.926557 0.9739 0.569055 0.213682 0.939401 0.980872 0.431258 0.51517
DO 0.967245 0.60566 0.364455 0.361845 0.324716 0.784755 0.502638 0.907266 0.691663 0.00414836 0.766923 0.202754 0.834513 0.675942 0.937082 0.0421174 0.312367 0.0361409 0.0934072 0.574336 0.73191 0.902404 0.686772 0.618842 0.784456 0.35673 0.922766 0.651235 0.558283 0.408052
FOR 0.258647 0.673477 0.938804 0.660076 0.661685 0.826772 0.404095 0.733738 0.344617 0.612814 0.387596 0.939722 0.484884 0.755549 0.911823 0.741777 0.256745 0.198927 0.828357 0.277707 0.0692018 0.991559 0.28236 0.9377 0.536339 0.726319 0.544585 0.796693 0.169339 0.331937
IF 0.202707 0.362238 0.36579 0.350012 0.086681 0.394889 0.874188 0.32786 0.0147175 0.410849 0.0561819 0.852025 0.190201 0.769804 0.0629503 0.914684 0.245633 0.264902 0.781992 0.163303 0.116761 0.956667 0.816585 0.304933 0.280929 0.0532778 0.148579 0.246185 0.512223 0.935851
ELSE 0.876138 0.469297 0.749489 0.951012 0.799678 0.205599 0.860254 0.949374 0.612203 0.072472 0.754818 0.099481 0.951285 0.417402 0.759566 0.17759 0.880768 0.373166 0.138616 0.00207865 0.57864 0.866833 0.427615 0.201606 0.147571 0.773328 0.646092 0.195127 0.862238 0.383615
SWITCH 0.672514 0.083158 0.262954 0.187683 0.559406 0.547157 0.962165 0.710534 0.0701669 0.150138 0.716478 0.791601 0.00653434 0.919617 0.276674 0.898991 0.877137 0.697464 0.987598 0.16624 0.150058 0.422894 0.966648 0.924884 0.329571 0.720504 0.6176 0.623194 0.00204158 0.109399
CASE 0.45358 0.864618 0.55885 0.24845 0.389026 0.93618 0.285302 0.431841 0.417802 0.766674 0.364805 0.687767 0.662431 0.996723 0.165401 0.980844 0.508196 0.630049 0.191269 0.50263 0.374269 0.559291 0.198672 0.0227652 0.0995834 0.69546 0.157167 0.471242 0.619496 0.851934
DEFAULT 0.700097 0.0163553 0.767039 0.522487 0.549309 0.0735072 0.547115 0.819816 0.962669 0.998 0.338121 0.771227 0.73929 0.306571 0.74649 0.202836 0.259006 0.988246 0.121156 0.579819 0.632898 0.82314 0.698464 0.0612082 0.832856 0.866947 0.661052 0.935002 0.87117 0.916209
ENUM 0.417765 0.641219 0.407444 0.739516 0.787016 0.712529 0.495829 0.994701 0.792128 0.0528744 0.0231284 0.843513 0.161761 0.179404 0.969987 0.429888 0.329126 0.0527985 0.645407 0.0756249 0.0402335 0.63013 0.862814 0.248616 0.224591 0.680739 0.985986 0.117934 0.565637 0.719267
TYPEDEF 0.420933 0.752336 0.248265 0.518243 0.565531 0.601089 0.0899924 0.644541 0.874063 0.839978 0.0153813 0.524407 0.0843693 0.932146 0.731212 0.130595 0.182327 0.586768 0.335436 0.405703 0.216148 0.499611 0.772545 0.218189 0.690891 0.470624 0.205448 0.288268 0.338548 0.532436
GOTO 0.0239071 0.0890074 0.299089 0.265845 0.200541 0.900992 0.358604 0.440361 0.970577 0.326329 0.293609 0.247388 0.74338 0.079594 0.78906 0.743512 0.261883 0.786876 0.673373 0.660594 0.553557 0.321731 0.266247 0.819639 0.236053 0.2282 0.0876677 0.111812 0.247476 0.494678
ASM 0.385909 0.305102 0.690485 0.922767 0.0506008 0.918868 0.825797 0.422077 0.584828 0.411236 0.685357 0.597997 0.86472 0.52561 0.891167 0.417947 0.945036 0.697183 0.103626 0.70893 0.0976377 0.350808 0.136041 0.285131 0.290201 0.0934815 0.137089 0.540449 0.0352207 0.470515
VISUAL_CXX_ASM 0.141401 0.532872 0.902244 0.987474 0.613674 0.945666 0.877106 0.355927 0.159351 0.767075 0.629395 0.495316 0.664214 0.982068 0.184714 0.660643 0.0588009 0.589582 0.522953 0.933506 0.386829 0.60225 0.455597 0.260234 0.0249656 0.596853 0.412246 0.475043 0.934679 0.572076
SIZEOF 0.678541 0.314349 0.708817 0.414765 0.41524 0.152368 0.820059 0.720353 0.348508 0.0654581 0.360695 0.953648 0.301479 0.561426 0.199384 0.737378 0.901632 0.238772 0.585991 0.902587 0.795317 0.547149 0.458013 0.832347 0.440881 0.64634 0.211287 0.647836 0.426077 0.338978
EXTERN 0.0138282 0.526292 0.0563507 0.130037 0.698789 0.77124 0.791432 0.164261 0.986283 0.014557 0.355162 0.926013 0.409236 0.724095 0.401163 0.684552 0.348793 0.413148 0.165025 0.418185 0.163177 0.218032 0.935563 0.859664 0.0115635 0.127559 0.800099 0.601369 0.516122 0.2701
AUTO 0.0334282 0.677889 0.850733 0.907926 0.603831 0.495172 0.103685 0.242631 0.0996699 0.517807 0.462713 0.429017 0.0321945 0.581405 0.0284063 0.562153 0.448403 0.247009 0.780131 0.0972935 0.872396 0.646118 0.975618 0.78749 0.0188894 0.183121 0.00704575 0.303538 0.2209 0.775285
REGISTER 0.484087 0.931469 0.653127 0.0804068 0.32893 0.0755354 0.310796 0.0651426 0.884374 0.5614 0.984341 0.124151 0.765342 0.90641 0.377893 0.0136909 0.277869 0.703153 0.759503 0.375013 0.445479 0.561597 0.645256 0.533494 0.840183 0.869271 0.0312849 0.274159 0.551515 0.839549
RESTRICT 0.466116 0.826978 0.897033 0.291983 0.804069 0.54833 0.871036 0.092538 0.180101 0.564435 0.710161 0.335565 0.582344 0.429404 0.603451 0.307858 0.220888 0.665858 0.78484 0.147322 0.878215 0.273679 0.5531 0.00853181 0.787825 0.0947299 0.703681 0.35737 0.670368 0.812423
ATOMIC 0.0439214 0.854909 0.199868 0.947688 0.681107 0.0708942 0.987982 0.6766 0.149187 0.492684 0.79806 0.24238 0.348934 0.654672 0.498291 0.0619035 0.204102 0.612093 0.166258 0.441799 0.831983 0.389021 0.485138 0.0387516 0.330011 0.681408 0.134771 0.317626 0.6667 0.00893378
COMPLEX 0.0951616 0.91784 0.112092 0.855268 0.928148 0.118325 0.468175 0.580752 0.185366 0.482404 0.197224 0.224338 0.935226 0.745995 0.547286 0.588017 0.409886 0.906199 0.744041 0.0715592 0.283149 0.212848 0.289066 0.381438 0.00620174 0.550334 0.612914 0.904032 0.737132 0.893591
GENERIC_SELECTION 0.84771 0.712079 0.859183 0.471115 0.808803 0.0799665 0.0721486 0.161066 0.667361 0.790135 0.430001 0.221577 0.636029 0.365054 0.0174267 0.509201 0.938818 0.105392 0.965207 0.843319 0.466797 0.218544 0.72571 0.849583 0.737836 0.571912 0.978504 0.631832 0.528178 0.900064
IMAGINARY 0.442956 0.482492 0.120259 0.498484 0.788782 0.596004 0.88822 0.396169 0.282721 0.658439 0.86654 0.906549 0.119345 0.162444 0.985986 0.0852485 0.313345 0.176398 0.988071 0.346745 0.0298306 0.783273 0.894406 0.19812 0.220526 0.444095 0.111392 0.319241 0.0656956 0.429339
NORETURN 0.0596664 0.000700712 0.67975 0.813771 0.284317 0.188055 0.0188606 0.294218 0.488416 0.339966 0.872549 0.805297 0.862589 0.351183 0.250493 0.421208 0.346864 0.251342 0.557081 0.541232 0.254144 0.696101 0.063907 0.590882 0.67938 0.353549 0.0259911 0.236061 0.542035 0.309164
STATIC_ASSERT 0.451988 0.731645 0.336335 0.113966 0.849464 0.810486 0.054112 0.946375 0.248671 0.984052 0.851965 0.299899 0.163704 0.706553 0.937049 0.992785 0.191049 0.140773 0.941008 0.247699 0.233313 0.932503 0.995509 0.574887 0.49253 0.234788 0.587281 0.820407 0.649934 0.616224
CRESTRICT 0.259778 0.411865 0.337475 0.697712 0.0586561 0.146166 0.832895 0.199666 0.466408 0.785463 0.373065 0.582733 0.926839 0.478137 0.399727 0.835676 0.880956 0.18038 0.673847 0.4029 0.941874 0.286957 0.529101 0.0673761 0.118385 0.974523 0.469106 0.685495 0.571232 0.901321
CXX_TRY 0.308626 0.316801 0.839938 0.799164 0.253599 0.941424 0.680571 0.55466 0.746744 0.0960681 0.507143 0.877195 0.929307 0.838136 0.152463 0.0767754 0.0263402 0.790417 0.00855029 0.275954 0.74036 0.663777 0.252933 0.41871 0.31779 0.930518 0.419647 0.600482 0.672641 0.528623
CXX_CATCH 0.955598 0.326071 0.233647 0.740589 0.701542 0.999732 0.75961 0.93576 0.156697 0.075218 0.226108 0.557926 0.997958 0.79998 0.849688 0.445812 0.550762 0.492856 0.626086 0.600295 0.0387458 0.983345 0.418091 0.188323 0.923842 0.109729 0.36634 0.0149859 0.309202 0.517065
CXX_CLASS 0.393805 0.430156 0.345751 0.807617 0.0621943 0.887039 0.605965 0.120324 0.407833 0.191181 0.13747 0.97543 0.080664 0.140281 0.321604 0.252053 0.0968751 0.0385677 0.790769 0.135466 0.270724 0.981349 0.854166 0.837644 0.0713953 0.174147 0.703781 0.465742 0.433545 0.29851
CONSTEXPR 0.0371642 0.238321 0.604909 0.377803 0.22665 0.131127 0.0699685 0.110519 0.836502 0.824501 0.312602 0.823891 0.97323 0.414197 0.562169 0.072749 0.291049 0.0846716 0.610244 0.691308 0.922457 0.427935 0.221374 0.734298 0.882164 0.990237 0.806424 0.611974 0.699513 0.515517
NOEXCEPT 0.471264 0.967252 0.393621 0.665836 0.741317 0.673202 0.179808 0.0146998 0.216565 0.390146 0.381556 0.766207 0.22104 0.223268 0.0360538 0.890025 0.805317 0.418739 0.901031 0.116691 0.815286 0.861388 0.281475 0.0282887 0.815916 0.0536339 0.0543166 0.315551 0.819207 0.033546
THREAD_LOCAL 0.155907 0.864719 0.182298 0.565122 0.890157 0.932639 0.37193 0.208446 0.803767 0.410207 0.307081 0.132396 0.46236 0.0118248 0.668187 0.0814965 0.940139 0.878469 0.746228 0.172667 0.24581 0.303523 0.428971 0.292235 0.841215 0.341604 0.830252 0.899847 0.598975 0.561135
NULLPTR 0.174748 0.903932 0.930727 0.485084 0.495406 0.993787 0.908297 0.133799 0.840045 0.262074 0.141242 0.856302 0.476733 0.434198 0.248942 0.884132 0.250308 0.164509 0.0367645 0.996706 0.800202 0.984487 0.865272 0.721913 0.973698 0.59847 0.313492 0.844554 0.0775039 0.705946
DECLTYPE 0.937881 0.76214 0.38282 0.548759 0.498293 0.698482 0.241377 0.344038 0.92299 0.601095 0.470043 0.0753213 0.590859 0.0349936 0.446075 0.609161 0.447816 0.399924 0.477165 0.142067 0.921515 0.479518 0.640424 0.0674634 0.579958 0.7367 0.555923 0.0435894 0.019228 0.575436
ALIGNAS 0.439652 0.586762 0.944886 0.0794029 0.529991 0.868688 0.573667 0.373664 0.310581 0.474402 0.119517 0.2724 0.476385 0.416541 0.702036 0.904827 0.286289 0.117103 0.472571 0.438363 0.408272 0.847181 0.817494 0.119257 0.562495 0.444819 0.782341 0.878958 0.30799 0.40162
TYPENAME 0.256581 0.583829 0.170507 0.156079 0.823905 0.708275 0.188732 0.373862 0.23788 0.0913453 0.609817 0.721101 0.143672 0.647424 0.00935328 0.00417662 0.90644 0.362159 0.171827 0.0776474 0.0236554 0.76241 0.45131 0.300217 0.44517 0.268761 0.876285 0.155569 0.0272282 0.854861
ALIGNOF 0.164338 0.804017 0.060185 0.277315 0.57186 0.128839 0.23638 0.120386 0.774256 0.907362 0.680974 0.822541 0.531589 0.409324 0.301386 0.466344 0.404599 0.959888 0.555616 0.621699 0.489946 0.341716 0.687201 0.642815 0.827179 0.455104 0.367585 0.825285 0.149913 0.815224
TYPEID 0.0704738 0.214489 0.6044 0.563712 0.686694 0.0115126 0.203508 0.34977 0.790327 0.859609 0.937646 0.836353 0.542074 0.430298 0.742927 0.633251 0.999866 0.341935 0.299242 0.173351 0.909546 0.664979 0.492274 0.988116 0.951492 0.090332 0.80987 0.99976 0.391032 0.739431
CONST_CAST 0.795944 0.486114 0.973485 0.234846 0.0687516 0.317823 0.818841 0.042809 0.444504 0.543604 0.777878 0.217562 0.405113 0.163834 0.0419143 0.714649 0.640918 0.406441 0.108072 0.281729 0.573306 0.653342 0.401866 0.702291 0.639884 0.648194 0.566501 0.283863 0.786326 0.834878
DYNAMIC_CAST 0.737001 0.950597 0.652681 0.849596 0.471228 0.0219415 0.53516 0.0377089 0.513931 0.704334 0.502815 0.0990905 0.910259 0.403504 0.94866 0.573568 0.37327 0.365644 0.347811 0.962981 0.284266 0.82644 0.678892 0.0515902 0.427676 0.577366 0.0841061 0.459811 0.351177 0.821442
REINTERPRET_CAST 0.248366 0.157422 0.923504 0.116273 0.767401 0.630278 0.529385 0.0280764 0.571865 0.0524135 0.0144413 0.607571 0.113568 0.661421 0.755015 0.524148 0.941255 0.246036 0.203056 0.541518 0.916245 0.758535 0.294952 0.989449 0.0134963 0.180791 0.0817145 0.969756 0.285564 0.200736
STATIC_CAST 0.507683 0.936782 0.196762 0.306508 0.632256 0.20844 0.0195367 0.304434 0.268538 0.63818 0.148823 0.0683231 0.813141 0.778314 0.506864 0.177909 0.362407 0.665758 0.069772 0.284222 0.365449 0.488595 0.508929 0.988344 0.8033 0.763389 0.342271 0.383883 0.954253 0.0719124
UNION 0.612126 0.854336 0.109768 0.5509 0.988415 0.221039 0.318453 0.473536 0.280412 0.648524 0.610588 0.646053 0.415902 0.363073 0.686542 0.367934 0.786039 0.471377 0.568037 0.355634 0.440326 0.905819 0.471512 0.543697 0.289215 0.425135 0.521742 0.988068 0.525643 0.051973
STRUCT 0.924939 0.746625 0.0424747 0.23628 0.733213 0.221879 0.921238 0.189049 0.756337 0.487878 0.530588 0.785221 0.895333 0.0878233 0.524979 0.191598 0.2977 0.432127 0.682614 0.68582 0.140399 0.78351 0.0624871 0.253106 0.657423 0.231013 0.949708 0.932402 0.993063 0.48088
VOID 0.165527 0.366548 0.803251 0.708108 0.336827 0.00123298 0.854049 0.634963 0.52551 0.25824 0.963529 0.814488 0.790839 0.118622 0.508168 0.434482 0.202589 0.00998032 0.0671983 0.860353 0.292335 0.419313 0.542174 0.240998 0.366045 0.516665 0.469533 0.221228 0.281617 0.601181
RETURN 0.513988 0.251922 0.879688 0.471684 0.13759 0.582438 0.763479 0.304339 0.951136 0.453473 0.455161 0.921868 0.503711 0.703978 0.350068 0.572103 0.614549 0.122998 0.0642244 0.231892 0.472676 0.56315 0.302065 0.545561 0.245655 0.505366 0.818711 0.453393 0.631857 0.461271
INCLUDE 0.589578 0.450307 0.607505 0.376519 0.887239 0.84895 0.60541 0.260487 0.988855 0.935744 0.410583 0.838447 0.771199 0.942975 0.195526 0.72582 0.240624 0.0308818 0.910277 0.0624402 0.20554 0.580716 0.325595 0.701212 0.0621583 0.675216 0.176153 0.0690497 0.428577 0.785139
DEFINE 0.796305 0.593911 0.198236 0.888247 0.0903971 0.721473 0.404312 0.879145 0.77128 0.853193 0.0507209 0.0473808 0.745436 0.542744 0.213177 0.428345 0.808527 0.629729 0.539032 0.430602 0.300242 0.864149 0.758011 0.928696 0.151098 0.140774 0.803082 0.573164 0.748839 0.398372
ELIF 0.374184 0.145948 0.400121 0.59354 0.759973 0.693786 0.295773 0.946895 0.603713 0.689692 0.958411 0.826991 0.771133 0.644298 0.564678 0.995929 0.84094 0.746379 0.00670242 0.516114 0.220228 0.695148 0.525248 0.149865 0.950377 0.625628 0.112751 0.615223 0.210844 0.112787
ENDIF 0.668721 0.148592 0.93889 0.937456 0.959078 0.802869 0.0666454 0.220142 0.0726099 0.0504349 0.883683 0.987615 0.755658 0.878131 0.884996 0.401383 0.474091 0.360828 0.251871 0.255778 0.652841 0.202242 0.939781 0.575832 0.595523 0.570388 0.157663 0.844024 0.877318 0.996385
ERRORPREC 0.0879785 0.147681 0.386664 0.423872 0.535612 0.743509 0.861604 0.244853 0.786198 0.344738 0.917419 0.837356 0.378858 0.331032 0.605682 0.143924 0.163011 0.653403 0.209259 0.276158 0.492869 0.166767 0.112289 0.0816141 0.618415 0.634914 0.0335752 0.607101 0.429344 0.686651
WARNING 0.639831 0.37535 0.663107 0.356035 0.946082 0.570881 0.344874 0.748064 0.869331 0.70577 0.267767 0.375065 0.319516 0.992582 0.630265 0.511106 0.976202 0.756154 0.178763 0.650908 0.819972 0.41443 0.850589 0.890034 0.180775 0.817495 0.212361 0.760371 0.922055 0.9306
IFDEF 0.555515 0.0545899 0.964406 0.901016 0.576543 0.802657 0.919402 0.487994 0.824018 0.377496 0.453994 0.772473 0.910177 0.662398 0.120129 0.490806 0.918741 0.145033 0.88439 0.161176 0.342858 0.897977 0.216677 0.641644 0.70352 0.172564 0.298433 0.20531 0.947736 0.297241
IFNDEF 0.972491 0.535409 0.662343 0.958184 0.444363 0.0094384 0.372918 0.576773 0.736424 0.920905 0.827417 0.101036 0.404648 0.42912 0.101755 0.736273 0.288974 0.77614 0.458369 0.100724 0.263809 0.554801 0.658357 0.890959 0.59201 0.100771 0.767473 0.372544 0.0533326 0.757903
LINE 0.263097 0.0276393 0.71905 0.958822 0.678781 0.705926 0.682011 0.0498627 0.175572 0.372298 0.105927 0.0971973 0.450913 0.387362 0.0388899 0.572333 0.408447 0.26071 0.851813 0.987916 0.402528 0.871472 0.268774 0.00846255 0.491125 0.172498 0.28013 0.0398642 0.646682 0.101516
PRAGMA 0.325785 0.097037 0.191489 0.641176 0.241462 0.358619 0.563071 0.58832 0.467342 0.224509 0.887768 0.00577664 0.93191 0.0750796 0.706107 0.590875 0.378 0.489886 0.512255 0.241765 0.486002 0.415785 0.14608 0.179175 0.547871 0.2616 0.142271 0.0149052 0.255822 0.724237
UNDEF 0.461102 0.438033 0.462176 0.614539 0.260316 0.766892 0.493307 0.378141 0.467838 0.684832 0.623533 0.727195 0.0629231 0.590278 0.454458 0.131439 0.460921 0.237595 0.477015 0.378742 0.367232 0.642101 0.609234 0.0373256 0.773381 0.549565 0.462568 0.156755 0.836776 0.236344
INLINE 0.801469 0.639201 0.761559 0.702644 0.828968 0.405771 0.114748 0.753119 0.170942 0.470891 0.441415 0.631381 0.614103 0.855468 0.69912 0.751613 0.816544 0.0836314 0.0747725 0.0786895 0.830127 0.243118 0.186159 0.12511 0.808531 0.571185 0.522008 0.738704 0.045609 0.425834
MACRO_TYPE_NAME 0.275056 0.644842 0.463885 0.093352 0.684959 0.562366 0.536327 0.744232 0.144104 0.466859 0.591985 0.630363 0.367845 0.490654 0.882875 0.991333 0.123646 0.804406 0.278852 0.241597 0.96461 0.804611 0.469181 0.933491 0.288583 0.956666 0.497113 0.165934 0.32694 0.161983
MACRO_CASE 0.405605 0.136504 0.0411048 0.392195 0.292226 0.518548 0.642018 0.444472 0.359649 0.743979 0.0798603 0.285275 0.742942 0.83756 0.308418 0.2184 0.983305 0.736383 0.912403 0.26493 0.490567 0.840894 0.500636 0.113939 0.447238 0.435184 0.671427 0.647625 0.611344 0.371062
MACRO_LABEL 0.670466 0.951507 0.461044 0.453535 0.469324 0.864086 0.117199 0.332227 0.21805 0.43558 0.79334 0.262317 0.84142 0.0891854 0.659361 0.412567 0.933587 0.81728 0.359891 0.206517 0.54159 0.394013 0.206162 0.874607 0.0154868 0.166465 0.378399 0.930191 0.796828 0.661269
MACRO_SPECIFIER 0.951572 0.185416 0.776331 0.0487828 0.173425 0.283275 0.663433 0.759294 0.195219 0.98649 0.629976 0.850596 0.225673 0.663581 0.971694 0.0908654 0.457929 0.320512 0.322692 0.593056 0.452048 0.73951 0.126874 0.929729 0.787103 0.0564488 0.587775 0.787458 0.254768 0.678616
SPECIFIER 0.252791 0.172623 0.594117 0.394346 0.118046 0.825352 0.990838 0.777617 0.695911 0.0363027 0.58742 0.880316 0.148859 0.487354 0.967549 0.199754 0.638677 0.906813 0.578803 0.257154 0.454984 0.0201315 0.265911 0.24426 0.163752 0.285316 0.986464 0.436232 0.0533706 0.894583
TRY 0.848878 0.926528 0.658871 0.394572 0.855141 0.247423 0.218885 0.926874 0.128877 0.847227 0.813369 0.269131 0.921791 0.133431 0.932131 0.964069 0.618316 0.142356 0.17965 0.786785 0.627627 0.834145 0.354839 0.708712 0.663113 0.526316 0.8023 0.595003 0.58202 0.0721244
CATCH 0.247006 0.958161 0.725211 0.53435 0.898905 0.936862 0.703336 0.878929 0.840139 0.520616 0.450313 0.449901 0.833366 0.601676 0.736649 0.765542 0.0907604 0.0941186 0.767413 0.836233 0.0614696 0.441134 0.199954 0.880375 0.954451 0.095561 0.0473127 0.87882 0.170202 0.281698
THROW 0.757351 0.857494 0.484924 0.569699 0.359781 0.796198 0.434305 0.833585 0.304873 0.855739 0.22808 0.622968 0.168582 0.801441 0.49104 0.0135276 0.708523 0.0318856 0.748042 0.633918 0.314753 0.700753 0.949111 0.183704 0.7692 0.171452 0.772851 0.804102 0.606164 0.730377
THROWS 0.417344 0.855902 0.154785 0.593416 0.544336 0.792301 0.0747385 0.227527 0.82504 0.771538 0.226345 0.916804 0.473172 0.712387 0.997189 0.128821 0.346652 0.163311 0.155418 0.880399 0.99726 0.981502 0.280469 0.0923027 0.991555 0.0419651 0.513775 0.18368 0.467522 0.397171
CLASS 0.887367 0.256174 0.652294 0.0714766 0.172124 0.681952 0.23068 0.579382 0.553842 0.079314 0.528733 0.763957 0.432065 0.944761 0.976253 0.790003 0.23156 0.225289 0.114678 0.764761 0.574719 0.760355 0.199885 0.116572 0.909263 0.630565 0.478818 0.556338 0.459852 0.964242
PUBLIC 0.406523 0.415067 0.306307 0.958546 0.078142 0.910237 0.213056 0.128028 0.693451 0.603528 0.926052 0.854272 0.0174636 0.488058 0.151477 0.140705 0.314663 0.69786 0.237936 0.775799 0.372036 0.4855 0.11588 0.985852 0.462754 0.64554 0.219707 0.525353 0.548243 0.633115
PRIVATE 0.86749 0.460728 0.000192642 0.2429 0.215573 0.593715 0.844301 0.802955 0.587562 0.558043 0.480952 0.257658 0.771936 0.29345 0.652985 0.0240884 0.128608 0.407434 0.717293 0.874243 0.482709 0.747614 0.552375 0.362289 0.640438 0.857009 0.69034 0.498934 0.96136 0.627286
PROTECTED 0.701768 0.0576878 0.368291 0.393353 0.874264 0.905647 0.840382 0.87076 0.586292 0.530673 0.449899 0.0654347 0.146824 0.987087 0.362125 0.39347 0.2993 0.324316 0.264785 0.482911 0.152396 0.837266 0.20602 0.6402 0.505077 0.74071 0.0963457 0.501956 0.903574 0.468273
VIRTUAL 0.737637 0.297375 0.150456 0.377317 0.456718 0.128042 0.735781 0.949259 0.411137 0.324746 0.233226 0.263129 0.965402 0.644478 0.631672 0.91195 0.791351 0.32478 0.390251 0.36758 0.543596 0.428708 0.911118 0.716595 0.8895 0.281722 0.327536 0.937122 0.514917 0.0101882
