4001 100
int 0.181342 -0.133936 0.066420 -0.062749 -0.204101 0.037883 0.199216 0.328788 0.148309 0.019508 0.132078 0.094284 0.073519 -0.489940 0.090793 0.005344 0.100679 -0.059759 0.161277 0.377591 0.091198 -0.628684 -0.250462 0.465371 -0.075944 -0.275742 0.690669 -0.109071 -0.209721 0.287480 -0.110700 -0.076876 -0.372245 -0.135486 0.272336 0.352482 -0.203733 -0.329014 -0.285826 0.383672 0.149155 -0.066351 -0.032292 -0.158690 -0.081111 0.247756 0.065075 -0.144404 0.129728 -0.141964 -0.132371 0.016406 0.020536 -0.142705 0.193397 0.086182 -0.165964 0.169845 0.255951 -0.376541 -0.530527 -0.239159 0.356547 -0.225760 -0.144342 -0.394435 0.072939 -0.042061 -0.128772 0.257810 0.049205 0.233246 -0.154920 -0.508026 0.221698 0.559316 0.018428 0.043162 0.443124 -0.141848 -0.330200 0.121838 0.429174 0.198056 0.154816 -0.000971 0.295557 -0.340053 -0.031530 0.121577 -0.039659 -0.314833 0.053689 0.319546 0.410748 0.103984 0.091955 0.034629 -0.301524 -0.071822
i 0.488140 -0.039607 -0.133145 0.257360 -0.452161 -0.176067 0.079976 0.573661 0.234094 0.133227 0.054894 0.067868 0.173603 -0.535381 0.214039 -0.139874 0.126522 0.006800 0.119621 -0.111219 0.382215 -0.455595 -0.490856 0.729469 -0.288871 -0.221016 0.470901 -0.126222 -0.355251 -0.054649 0.194840 -0.147518 -0.526616 -0.001640 -0.055417 0.558374 -0.243308 -0.505493 -0.304362 -0.156449 -0.398214 -0.043917 0.450339 -0.184721 0.502705 0.584742 0.109161 0.319182 -0.250473 -0.158211 -0.082689 -0.002417 0.029098 0.210797 0.111851 0.428646 -0.314325 0.324378 0.109590 -0.295253 -0.539240 -0.187461 0.204259 0.139175 0.094304 -0.351455 -0.298336 -0.315454 -0.245724 0.378729 -0.339841 -0.042823 -0.144752 0.480190 0.125431 0.161415 0.217646 0.087521 0.288973 -0.046615 -0.255260 0.370375 0.585002 0.116630 -0.112053 -0.056002 -0.020642 -0.447643 0.070235 -0.077176 -0.459923 -0.022319 -0.232270 0.515011 0.390746 0.513653 -0.292114 -0.290291 -0.510740 0.143191
if 0.034558 -0.074909 0.305195 0.163107 0.061214 -0.382005 0.115224 -0.204509 -0.311535 0.141064 0.551827 -0.186762 0.052164 -0.061949 0.054865 -0.355957 0.534110 0.611051 0.268432 0.318952 0.207286 -0.092058 -0.150365 0.530801 -0.046640 0.281012 0.047241 -0.172306 -0.047117 0.268921 0.339385 -0.386559 -0.244346 0.028715 -0.423128 -0.045213 0.197962 0.161100 -0.504774 0.033394 0.136341 -0.021226 -0.116179 -0.144221 -0.233989 0.253910 -0.058719 0.322089 -0.339664 -0.041993 -0.134231 -0.139543 -0.674820 -0.155924 0.409444 0.217452 -0.417145 0.470885 0.210686 -0.025618 -0.547797 -0.424762 0.442331 0.042791 -0.156411 -0.289306 -0.120698 -0.342214 -0.364829 0.534101 0.083769 0.440326 -0.251885 0.602219 0.004333 0.453360 0.225407 -0.204848 0.274612 -0.412709 -0.022718 -0.272910 -0.295531 -0.016864 -0.087396 -0.428417 0.309142 0.254509 0.210623 0.047335 0.138614 0.218060 -0.387812 -0.145081 0.505893 -0.020548 -0.255537 -0.229508 0.108428 -0.495660
return -0.085016 0.293366 0.025192 0.059256 0.293657 -0.332480 0.420386 -0.095494 -0.136705 0.299413 0.230396 -0.304437 0.077623 -0.346035 0.087448 -0.301922 0.544107 0.181356 -0.202785 0.636774 0.015388 -0.566021 0.097234 -0.114705 0.201129 0.030958 -0.177136 0.329169 -0.209660 0.275038 -0.162213 -0.385860 -0.133835 -0.096642 0.221994 -0.143432 0.119391 -0.189804 -0.460071 -0.220231 0.355679 -0.205531 -0.130946 -0.276784 -0.060255 -0.052104 -0.515316 0.093166 0.066005 -0.390091 -0.097287 0.140279 -0.144383 -0.714977 0.405702 0.065444 -0.367439 -0.051394 0.262065 -0.067669 -0.733634 0.153982 -0.296648 0.282389 -0.202949 -0.409361 0.404218 -0.133470 -0.326204 0.430203 0.190038 -0.152339 -0.322393 0.796870 0.119573 0.616109 0.104466 -0.097998 -0.057091 -0.130767 -0.244703 -0.441555 -0.308908 0.492481 0.160374 -0.287831 0.452727 -0.189349 -0.219897 0.455843 -0.305019 -0.154967 -0.154251 0.021316 0.390759 -0.514746 -0.223213 0.009086 -0.305785 -0.109438
a -0.185625 0.023890 -0.563884 0.123061 0.244774 0.130540 0.963900 -0.396137 0.030265 0.194530 -0.300078 -0.173960 -0.177165 -0.176245 0.375530 0.361202 -0.330609 -0.445736 -0.567927 0.078258 -0.088691 -0.109458 0.188896 0.100589 0.313113 0.430504 0.164500 0.248463 -0.078363 0.091313 -0.323557 0.296204 -0.306963 -0.757100 -0.215191 -0.048667 -0.009355 -0.611095 -0.142535 -0.128149 -0.596272 0.129797 0.089851 0.105495 -0.472358 0.078212 0.083838 -0.146645 -0.150339 -0.343467 -0.083102 -0.986765 0.171728 0.047176 -0.001400 0.772155 -0.098672 -0.401586 0.105650 -0.096513 -0.020865 -0.135683 -0.146826 -0.525992 0.094360 -0.083085 -0.097282 -1.146752 -0.044762 0.400074 -0.644722 -0.002742 -0.586132 -0.495630 -0.175437 0.316713 -0.650832 0.267683 0.444302 -0.243215 -0.076439 0.212611 0.312339 0.566423 -0.454024 0.022660 0.701989 0.150161 0.098087 -0.234938 0.378145 -0.167177 -0.141286 0.325922 0.604731 -0.030357 -0.205344 0.251717 -0.841017 -0.322427
void 0.115590 0.247117 -0.171836 -0.137465 -0.371175 -0.616206 0.318287 -0.321144 0.074827 -0.051048 0.304793 0.025514 -0.073521 -0.182709 0.566971 -0.072289 0.103635 -0.040058 0.054985 0.280761 -0.351027 -0.231937 -0.062228 0.081485 0.398103 0.158481 -0.145991 0.058218 -0.478729 0.057277 -0.416026 0.062439 -0.421955 -0.052501 0.178481 0.125434 0.011858 -0.479842 -0.342380 0.129153 0.484422 -0.379995 0.234855 -0.259831 -0.437522 -0.244402 0.053368 0.136724 0.021878 -0.534275 0.215049 -0.448394 -0.264894 0.039178 0.222501 -0.264385 0.374670 0.267925 0.320542 -0.227903 -0.981439 0.024229 0.296254 -0.016039 0.305820 -0.155995 -0.108874 -0.125172 -0.200287 -0.137046 -0.158666 0.059198 -0.429668 -0.260018 0.113720 0.274014 -0.519725 0.118004 0.176258 -0.268911 0.041664 -0.073002 0.487340 0.369229 0.424503 -0.669859 0.381967 -0.210369 -0.118957 0.095282 0.027215 -0.059825 0.224260 -0.143957 0.613942 -0.357759 -0.100035 -0.162038 -0.227352 0.030605
include 0.689892 -0.571633 -0.280292 -0.418785 0.511497 -0.215079 -0.334106 -0.565619 -0.059988 0.128827 -0.471454 0.171528 0.857313 -0.840809 -0.183939 0.136039 0.550389 -0.616799 0.134767 0.989175 -0.443756 -0.656629 -0.125377 -0.165715 1.192803 0.669607 0.087364 0.333392 -0.252111 0.680038 -0.832849 0.170680 -0.429127 0.146203 0.198927 -0.105708 -0.469983 -0.252364 -0.234324 0.155526 0.108429 -0.003151 -0.014396 0.560567 0.003103 0.067238 -0.213839 0.062685 -0.388014 -0.155223 0.028874 0.116765 0.220099 0.423528 -0.274917 0.010187 -0.607172 -0.000467 0.071385 0.146953 -0.131980 -0.485412 0.866357 0.203170 -0.290287 0.125139 0.417551 0.356069 0.514152 0.446979 0.821338 -0.008165 -0.075957 -0.152336 -0.181112 -0.597800 -0.052529 -0.135599 0.872023 0.203319 0.320617 0.187294 0.388769 -0.172259 -0.322846 -0.113287 -0.134196 0.094634 -0.294812 0.238256 -0.144778 -0.320012 -0.114189 0.143131 0.370771 -0.550305 -0.578684 0.131129 -0.546647 -0.279316
n 0.612262 -0.017199 -0.146924 -0.071160 -0.361314 -0.281875 1.069893 -0.146842 -0.434155 -0.008607 0.314122 -0.194383 -0.151470 -0.117049 0.408233 0.277305 0.024263 0.049219 0.051261 0.290168 0.706396 -0.321813 -0.233519 0.009000 0.025907 0.154409 0.187719 -0.313371 0.232963 0.135128 -0.342168 -0.002190 -0.229135 -0.015858 -0.498717 0.416435 -0.382852 -0.127305 -0.588461 0.888373 0.162697 -0.252026 -0.204623 -0.284515 -0.396330 0.341025 0.060262 0.074204 -0.172466 -0.339453 -0.177295 0.265262 -0.348521 0.232674 -0.282444 0.096084 -0.334217 -0.161086 0.496188 -0.252031 -0.348835 0.069881 0.028131 -0.088070 -0.241273 0.205823 0.371250 -0.401537 -0.273514 -0.293622 0.320195 0.551700 0.371068 -0.046348 0.214034 0.055765 0.522778 0.025685 0.447619 -0.017183 0.283245 0.434926 0.228515 0.350482 -0.283440 -0.065230 -0.113910 -0.077376 0.065468 -0.146391 0.221373 0.117614 -0.012175 0.206584 -0.057572 -0.129838 -0.157939 0.035176 -0.367134 -1.040722
j -0.083976 0.089721 0.057315 0.155472 -0.754515 -0.238293 0.183411 -0.017285 0.147530 0.214740 -0.404259 -0.422717 -0.120198 -0.426175 -0.198646 -0.016185 0.136000 -0.052066 0.570330 0.084090 0.267659 -0.524564 0.092954 0.363765 -0.336502 -0.138940 0.735754 0.212618 -0.211173 0.753193 -0.173110 -0.049862 -0.227875 -0.317756 -0.276980 0.536472 -0.233767 -0.821822 0.096449 -0.042488 -1.179681 -0.360743 0.405962 -0.121445 0.168589 1.080302 0.370153 0.693112 -0.275861 -0.045354 -0.497602 -0.343265 0.118071 0.235532 0.011078 0.367212 -0.576828 -0.089644 0.299788 0.035366 -0.655026 0.020081 0.344671 0.672728 0.066983 -0.019334 0.256214 0.045998 -0.240036 0.763766 -0.458399 -0.136861 0.217863 -0.050964 0.295675 -0.466389 -0.075385 -0.390445 0.332587 0.254338 -0.418559 0.686815 0.895689 0.383050 0.122555 -0.329099 0.372787 -0.103962 -0.226364 -0.128212 -0.089508 0.043272 -0.275901 0.357850 0.128032 0.725649 -0.053188 -0.128142 0.120842 0.154176
node 0.354281 0.070798 -0.469589 0.256493 0.308155 0.087835 -0.167304 0.652295 -0.399546 -0.297888 0.469317 0.154568 -0.068964 -0.223196 1.027556 0.446301 0.204088 0.440252 0.357442 -0.430470 -0.147108 -1.006966 -0.200746 -0.709948 0.416209 0.506163 0.400901 0.396415 0.325631 0.386189 0.030678 0.019189 -0.026160 -0.448680 -0.243304 -0.044864 -0.322056 -0.379967 -0.373349 0.428691 0.423318 0.100051 0.420556 -0.425778 -0.170750 0.267263 -0.107458 0.076179 0.134762 -0.042905 0.009868 0.184024 -0.290510 0.503797 -0.388497 -0.443676 -0.040076 -0.222055 -0.109381 0.200179 -1.100192 0.369541 0.516369 -0.235892 -0.063646 -0.476944 -0.305121 -0.358397 -0.107629 0.127588 -0.554058 0.257290 0.279000 0.112125 -0.256969 0.089990 0.272353 -0.057250 0.147766 -0.395527 0.177149 -0.429395 0.423646 0.953248 -0.253362 0.341409 0.690759 -0.108046 0.505872 0.075632 -0.407998 0.166349 0.026805 0.026791 0.462949 -0.679378 -0.008718 0.220225 -0.222561 0.117653
stack 0.208677 0.656639 -0.768290 -0.251639 0.288836 -0.025298 0.678648 -0.233157 0.296245 -0.275302 0.345615 -0.119344 0.122448 -0.431573 0.181426 -0.273006 -0.024367 -0.518084 0.651705 1.128486 -0.374016 -0.053606 0.352022 0.255309 0.483372 0.085487 -0.954809 -0.026808 -0.175471 0.388894 0.121929 -0.223656 -0.815411 -0.630933 -0.138277 -0.126882 0.150558 -0.110544 -0.185479 0.187298 0.160469 -0.515557 1.054904 0.522264 -0.529804 0.211955 -0.473516 -0.301780 0.130359 -0.722859 0.141929 0.099171 0.993340 -0.012391 0.011488 -0.308608 -0.907649 -0.096862 0.455579 0.542640 -0.346735 -0.011475 -0.074221 -0.527710 0.658122 -0.324207 0.444279 -0.496348 0.172309 0.255190 0.422974 -0.110465 0.219473 0.507490 -0.194897 0.424469 -0.053249 -0.175836 -0.017057 0.087871 0.117703 -0.285415 0.371319 0.169583 0.542088 -0.294262 0.554419 -0.044145 -0.023836 0.379083 0.697416 -0.598279 -0.485965 -0.129078 -0.103246 -0.418945 -0.023024 0.245959 -0.504134 -0.168952
p -0.089334 -0.343555 -0.646241 0.320789 0.278260 -0.365010 0.657369 0.200557 -0.030870 -0.099470 -0.305996 -0.320865 -0.457318 -0.605229 0.486141 0.603278 0.962797 -0.210350 -0.009995 0.033527 0.286306 0.106442 -0.184402 -0.008436 -0.030876 0.331902 -0.274926 -0.792418 0.093349 0.352501 0.140032 -0.057361 0.093689 0.195832 -0.424536 -0.559699 0.276185 0.447579 -0.129681 -0.395591 0.348394 -0.425038 0.409702 0.241044 -0.480268 0.541573 0.044050 0.101781 -0.040623 -0.315051 0.105767 0.443995 -0.517564 -0.899465 -0.263161 0.384940 -0.238290 0.061730 0.042144 -0.713994 -0.736824 -0.157312 0.138640 0.257800 0.256986 -0.174734 0.727622 -0.597719 0.185119 0.231331 0.387032 0.954182 -0.221145 -0.267618 0.127543 0.109558 -0.286012 0.605518 0.182272 -0.033359 -0.188628 -0.121900 0.500202 1.119697 -0.030581 -0.223497 0.071552 0.247580 0.082417 -0.735263 0.393817 0.060526 0.453785 -0.333493 0.313778 0.029055 -0.535436 0.636335 -0.024842 -0.483206
null -0.269096 0.025368 -0.353065 0.096181 0.051784 -0.141064 -0.007116 -0.162320 -0.334923 -0.038100 0.092888 -0.115745 -0.306821 -0.430883 0.416558 -0.086252 0.041399 0.435276 0.202187 -0.287721 -0.324684 -0.637189 -0.528199 0.142932 -0.244031 0.206247 -0.352017 -0.196400 0.371406 0.419485 -0.306389 -0.523810 0.098485 0.259306 -0.199367 -0.587191 0.242853 -0.026171 -0.400197 0.554384 0.744302 0.031174 0.014243 -0.007329 -0.182459 -0.167510 -0.342902 0.301400 0.420970 -0.325371 0.113050 0.088663 -0.695821 0.453098 0.327816 0.263929 -0.370033 -0.184700 0.302054 -0.000103 -0.400591 0.298856 0.755183 0.362778 0.038975 -0.283324 -0.022785 -0.277431 -0.075505 1.233087 0.028420 0.463253 -0.995900 0.615322 0.232002 -0.109011 0.315915 0.268057 -0.226561 -0.384905 0.191767 -0.321014 0.333463 0.552235 -0.073452 -0.234026 0.400943 -0.100340 0.057549 -0.133870 -0.378023 -0.069992 -0.282387 0.042837 0.846856 -0.214954 -0.185203 0.094565 -0.321350 -0.237596
heap 0.283537 0.908650 -0.760863 -0.081314 0.743948 -0.038352 -0.310557 0.073845 0.293795 -1.139634 0.426280 -0.262625 -0.125004 0.329514 -0.628397 0.822660 0.382058 -0.374270 -0.431540 0.205400 0.349441 -0.182259 0.220852 -0.805685 0.372977 0.368912 -0.091452 0.511298 -0.019379 -0.250138 0.013379 -0.191894 -0.426852 -0.395366 0.145906 -0.277224 -0.506558 0.126423 0.445215 0.610325 -0.360542 0.325186 -0.131260 -0.460301 -0.045971 0.316930 0.038295 0.195347 0.459979 -0.016691 0.191592 -0.177538 -0.465900 0.385157 -0.150046 0.370491 0.307891 0.150513 -0.051626 0.269977 -0.550834 -0.456986 0.907932 0.018553 -0.261662 0.621712 0.254870 -0.581374 0.134002 0.326516 -0.177246 0.347512 -0.186373 0.863400 -0.763042 0.472069 0.077742 1.018474 -0.401263 0.591891 0.073057 0.916513 -0.037765 0.571735 0.246357 0.337408 0.097973 0.405344 -0.020449 -0.362339 0.519762 0.386494 -0.057103 0.581491 -0.060409 -0.058881 -1.098448 -0.876076 -0.252738 0.011798
for 0.723196 0.255014 0.079336 0.172926 0.078850 -0.186658 0.417165 0.962581 -0.148738 -0.032454 0.015356 -0.053723 0.379064 -0.269051 0.251229 0.123751 -0.309727 0.011178 0.082149 -0.205260 0.498829 -0.126377 -0.351742 0.831753 -0.146439 -0.007890 0.545721 -0.077064 -0.300323 0.412494 -0.028412 -0.601790 -0.482987 0.037488 0.142479 0.183659 0.177918 -0.386987 -0.223338 -0.158926 -0.406522 0.051079 0.072911 -0.097667 0.300769 0.211782 0.324738 -0.199896 -0.127859 -0.539064 -0.287498 0.008970 0.146537 0.028887 0.276416 0.208506 -0.344301 -0.151948 -0.006450 -0.269422 -0.374580 -0.462220 0.270122 0.165923 -0.050399 0.159765 -0.102870 -0.454118 -0.040972 0.020339 -0.227598 -0.197941 -0.373407 0.749201 0.281483 -0.051053 -0.092303 -0.245485 0.436426 -0.258757 0.364375 0.388145 0.743539 0.351253 -0.200662 -0.510881 0.193426 0.006377 0.253161 -0.399049 -0.163195 -0.202538 -0.049632 0.202708 0.218364 0.777090 -0.055237 -0.140282 -0.424605 0.301770
size 1.001657 0.478085 -0.275959 -0.310143 0.078412 0.097342 0.217146 0.037657 -0.202596 -0.036027 0.150493 -0.541155 0.093472 -0.011918 0.268778 0.342851 0.299999 -0.224328 0.073884 0.403110 0.135678 0.291183 -0.133499 0.217193 -0.504383 0.267314 0.013108 -0.085208 0.562104 0.699839 -0.362254 0.156008 -0.520598 -0.037796 -0.446371 -0.089701 0.173893 -0.282083 -0.572863 -0.325489 -0.817306 0.223756 0.186037 0.140359 -0.136956 0.405125 -0.415753 0.092291 0.250564 -0.350129 0.423326 -1.101500 -0.495014 0.181092 0.213027 0.682161 0.035625 0.024984 -0.756939 0.239666 -0.556004 0.021483 -0.071078 -0.122235 0.434390 -0.353414 -0.143042 -0.705087 -0.210404 0.369502 -0.211423 0.306264 0.252348 -0.020602 0.057485 0.111301 -0.358367 0.324470 0.273961 0.259187 -0.392919 0.539440 0.310478 0.397205 0.198485 0.311480 0.494178 -0.690035 0.285470 0.623676 -0.477245 -0.615160 -0.464945 -0.217953 0.203929 0.430672 -0.451055 0.180230 0.125834 0.187947
next -0.609947 0.163610 -0.328937 0.158815 -0.180713 -0.243097 0.497699 0.065076 -0.648583 -0.163495 0.547656 -0.272607 -0.037588 -0.914574 0.351966 0.017460 0.251780 0.756998 0.564969 0.114321 -0.177456 -1.076695 0.354827 -0.268463 0.378139 0.647854 0.161872 0.135501 0.179336 0.343634 -0.253474 -0.613448 -0.072296 -0.482658 0.279453 0.059676 0.140319 0.387093 -0.446552 0.192862 0.019278 0.086947 0.413936 0.042591 -0.514438 0.073987 -0.024343 0.547120 0.320637 -0.217081 -0.123813 -0.048801 -0.528141 0.259332 -0.356760 0.280547 0.327189 0.588495 -0.347117 0.152096 -1.114010 -0.193620 0.668780 0.082462 -0.119988 -0.322467 -0.164401 -0.211548 -0.229733 0.305838 0.014835 0.202296 0.181845 0.447152 0.153032 -0.075756 -0.132790 -0.321160 -0.002110 -1.052870 0.258634 -0.122210 0.468476 0.839074 -0.325147 -0.004292 0.422310 0.194355 0.118108 0.041092 -0.043728 0.100005 0.243496 -0.125695 0.986342 0.057089 0.050148 0.007397 -0.178727 0.327851
std 0.577293 -0.290054 -0.156600 0.306485 -0.334157 0.037490 0.411039 -0.057413 -0.271167 -0.057381 -0.096499 -0.477879 0.282187 0.372515 0.175331 0.670255 0.336790 -0.146936 0.214132 0.167995 -0.113323 -0.144786 -0.516000 -0.082197 0.107116 0.300942 0.250884 0.275568 -0.562793 -0.043309 -0.277408 0.683378 -0.520186 -0.401780 0.067349 0.135694 -0.196320 -0.202507 -0.813696 -0.009377 0.085151 0.656504 0.075737 0.449855 0.054629 0.929739 -0.673199 0.225747 0.325163 0.267333 0.048440 0.164208 -0.082367 -0.114112 -0.418955 -0.029696 0.179880 -0.463397 0.293865 0.254894 -0.766165 0.358975 0.892174 0.128289 0.401782 -0.867112 -0.294641 -0.123380 -0.409079 0.243636 0.199110 0.232112 0.044199 0.167193 0.062444 0.001280 -0.134191 -0.492150 0.272439 0.320980 0.335063 -0.145537 0.072470 -0.126278 -0.212307 0.082658 -0.192942 0.551529 0.019777 -0.062346 0.181574 -0.576051 0.031358 0.629798 -0.386337 0.227321 -0.444231 0.230988 0.459996 -0.379889
const 0.077769 0.544381 -0.096069 -0.120581 0.178739 -0.869441 0.215644 -0.062401 0.134885 -0.420048 -0.534411 0.207200 0.562181 -0.494977 0.944825 -0.321797 -0.278036 0.417117 0.076898 0.370376 -0.147974 -0.205995 0.050399 -0.051893 -0.051221 0.421795 -0.780453 -0.173960 -0.350386 0.658175 -0.264477 -0.052421 -0.361763 0.223757 0.007529 -0.192166 -0.544135 -0.349914 -0.448007 0.224449 0.073675 0.812841 -0.046998 -0.711014 -0.052842 0.426376 -0.122160 0.199587 -0.324611 -0.228085 0.225779 0.244435 0.163152 -0.065841 -0.007447 0.035431 0.079825 -0.204529 0.280376 -0.223334 -1.234492 0.596137 -0.134827 -0.158857 -0.143771 -0.050639 0.053908 0.010034 -0.058141 0.284367 -0.072590 -0.398840 -0.119011 0.066467 -0.271996 0.492448 -0.415182 0.143028 0.009090 -0.391301 0.009945 -0.499395 0.235526 0.218162 0.449339 0.421827 0.619084 -0.393562 -0.584881 -0.455480 0.083581 -0.270689 -0.015043 -0.347790 -0.376464 -0.160785 -0.345736 -0.408552 -0.210715 0.036640
t 0.421502 -0.233641 -0.710644 0.241044 -0.103235 -0.566916 0.102463 0.425120 -0.172673 0.173034 -0.052450 -0.389759 -0.663751 -0.321638 0.273516 0.184922 -0.126494 -0.255070 0.143554 0.014604 0.662701 -0.637541 -0.019193 -0.365274 0.300249 -0.137636 -0.044540 -0.168961 -0.622111 0.116312 -0.046478 -0.508501 -0.787191 -0.227073 0.047299 -0.119565 -1.021235 0.313395 0.080115 0.421381 -0.166209 -0.072321 -0.498042 -0.045530 -0.423632 0.716289 -0.154823 -0.477959 0.308972 -0.644266 -0.311943 0.469104 0.493790 -0.038667 -0.790996 -0.633241 0.168628 -0.622674 -0.028594 -0.353572 -0.669757 0.142011 -0.042331 -0.108095 -0.193354 -0.193421 0.267865 -0.288958 -0.021311 0.306293 -0.227790 -0.017320 0.037850 0.231321 0.115993 0.528732 0.076162 -0.374024 0.237109 -0.337491 0.122113 -0.152077 -0.176631 -0.671743 -0.149168 0.146561 0.561679 0.204187 0.163817 -0.515686 0.037161 0.517185 -0.311077 -0.018033 0.360732 -0.365500 -0.994307 0.142197 -0.081478 -0.648517
temp 0.023432 0.088627 0.392611 -0.318985 -0.205869 -0.680975 0.100700 -0.409803 -0.467202 0.149270 -0.250851 -0.582887 -0.013959 -0.045474 0.741372 -0.153949 -0.317924 0.581659 -0.039606 0.086772 -0.056795 -0.788834 -0.469399 -0.280746 -0.158227 0.488924 0.257913 0.389677 0.559422 0.160820 -0.473295 -0.149756 0.068160 -0.419634 -0.372617 0.174200 0.352203 0.192381 -0.027393 0.393792 -0.596657 -0.282606 0.698433 -0.368906 -0.534956 0.115985 -0.273219 0.611394 0.099231 -0.048447 -0.583122 0.266447 0.173163 -0.753466 0.133736 -0.444240 0.125252 0.479341 0.308037 -0.486667 -1.127183 0.263582 0.319417 0.533914 0.245554 -1.010138 0.939181 -0.380135 -0.451742 0.850281 -0.026974 0.632147 -0.073578 0.067670 -0.775168 0.669825 0.134209 -0.475981 0.546712 0.003654 0.053280 -0.270871 0.508284 0.481310 -0.022941 -0.459143 0.459204 0.021550 0.510128 -0.846547 -0.394558 0.222928 -0.054145 0.273011 1.025497 0.458141 -0.561199 -0.413566 -0.158971 0.259669
head 0.072866 0.159770 -0.560743 -0.197152 -0.017690 -0.574625 0.709838 -0.512601 -0.700611 0.089968 0.209849 0.164700 -0.056319 -0.800614 0.679357 -0.192926 0.049495 0.191784 0.713621 0.256216 0.263174 -0.744824 -0.034373 -0.792437 0.212127 0.496119 0.020855 0.055929 0.007227 0.379328 -0.112553 -0.657322 -0.177850 -0.145056 -0.062363 -0.096166 -0.150100 0.006204 -0.238790 0.330253 0.023992 -0.284970 0.104516 0.585226 -0.789273 -0.019559 -0.371258 0.295236 0.381714 -0.177434 -0.259156 -0.090539 -0.118923 0.106879 0.175360 -0.388788 0.489972 0.184138 -0.419969 -0.032271 -1.001983 -0.215804 0.411507 -0.002548 -0.174385 -0.309295 -0.176180 -0.723234 -0.554860 0.339028 0.083352 0.734930 0.020951 0.415184 0.038916 -0.384419 -0.221471 -0.159492 -0.211581 -0.769173 -0.317536 -0.493165 0.729200 0.761534 0.364735 0.068918 0.369555 -0.456787 0.306396 -0.119721 -0.118387 0.119521 0.437519 0.135264 0.971819 -0.563529 -0.587200 0.037401 -0.356494 0.148893
queue 0.324472 0.318132 -0.124929 0.035413 1.000633 -0.142171 0.414512 0.100596 0.030880 -0.193574 0.057221 -0.962286 0.658585 0.016782 0.020137 0.212161 -0.036121 0.179215 0.863560 -0.044435 -0.248892 -0.554589 -0.307218 0.067109 0.280709 0.111996 0.196961 -0.621360 -0.342884 0.252006 0.056794 0.358913 -1.284081 -0.606929 0.358776 -0.845504 -0.558512 0.199031 0.032814 -0.384144 0.451734 0.320604 -0.221579 0.330100 -0.122823 0.546832 -0.375539 0.625606 -0.276714 -0.628444 -0.256894 -0.146058 0.254208 0.217304 -0.067014 -0.407676 -0.188682 0.195474 -0.393984 0.006777 -0.810362 0.993471 0.506672 0.792002 -0.153599 -0.171631 -0.176572 0.434865 0.178367 0.265230 0.057435 0.151647 -0.170146 0.111869 -0.554913 0.838001 0.329407 0.066500 0.236560 -0.225075 0.540749 -0.094281 0.386104 -0.101801 0.795400 -0.598159 0.171370 -1.011134 -0.445158 0.352863 0.523883 0.031229 0.399388 -0.266595 0.709892 0.082477 0.093459 0.292233 -0.091049 -0.128812
cout 0.413397 -0.018340 -0.210266 -0.110948 -0.459748 -0.189427 0.033954 0.424012 0.315763 0.347768 -0.181947 -0.620604 -0.077311 -0.158255 0.482457 -0.213298 -0.579873 -0.010626 0.063135 0.058880 0.516239 -0.103328 0.884671 -0.337476 -0.364703 0.497105 0.706301 0.048927 -0.134051 0.403993 -0.285397 0.413373 -0.757422 -0.701349 -0.190420 -0.118755 0.285475 -0.191344 -0.833112 0.429062 -0.060002 0.315232 -0.180043 -0.501598 -0.153318 0.541633 -0.843433 0.100241 0.110386 -0.054539 -0.653132 0.313647 -0.471484 0.346185 -0.139788 0.181174 0.232835 -0.189464 0.362104 0.054841 -0.582217 -0.276500 0.228683 -0.268349 0.099368 -0.507358 -0.197165 -0.219590 -0.153541 0.228488 0.135325 0.539066 0.249408 -0.263710 -0.146091 0.062093 -0.309036 0.010444 0.316337 0.141495 0.359595 -0.184641 -0.057448 0.223056 -0.118157 -0.341661 -0.077408 -0.140422 0.415691 0.016302 0.240215 -0.219388 0.495121 -0.043820 0.537470 -0.137373 -0.451878 0.208378 -0.052263 -0.236415
boost -0.373632 -0.158113 -0.853827 -0.547571 0.463667 -0.357793 -0.407229 0.006363 -0.190104 -0.306170 -0.034113 -0.849328 0.032637 -0.617951 0.029882 0.190323 0.776327 0.353677 0.202196 0.376139 -0.079038 0.071779 0.021567 0.575149 -0.195150 -0.358633 0.385402 -0.716889 -0.047202 0.915312 -0.866268 0.321100 -0.534057 0.453474 0.338151 -0.418255 -0.585842 -0.367914 -0.763851 0.561314 0.308514 0.897897 0.178404 0.197456 0.102052 0.181350 0.359700 -0.649760 -0.290125 0.392366 0.068757 0.295199 0.497446 -0.052662 -0.747579 0.140945 0.247759 -0.136082 -0.087851 1.047632 -0.415294 0.759205 0.400736 -0.541420 -0.435476 -0.072107 -0.332467 -0.662847 0.434297 0.422695 -0.109796 0.164694 -0.606520 0.216871 -0.221466 -0.163517 -0.560219 0.045553 0.337187 1.193018 -0.064691 0.171495 0.159034 0.055978 0.026637 0.023429 -0.042882 -0.171930 1.586295 -0.795257 0.323095 -0.168814 0.202409 0.519971 0.005565 -0.124036 -0.453421 -0.671331 -0.603252 -0.616632
linkedlist -0.189380 0.215087 -0.361754 0.207955 0.222332 -0.201438 0.042023 -0.120889 0.100186 -0.471630 -0.498456 -0.446721 -0.027113 -0.514078 0.513053 -0.117437 -0.173870 0.182627 -0.263157 0.155391 -0.008549 -0.878901 -0.033752 0.323875 0.310345 0.344990 -0.252936 0.397677 0.081346 0.633722 -0.181879 0.126530 -0.812568 -0.798032 -0.074063 -0.204344 -0.208455 -0.549750 -0.187371 0.606929 -0.411765 -0.473139 -0.131465 0.528818 0.221650 0.110063 -0.018452 0.011161 0.520483 -0.074663 -0.386022 -0.000158 -0.255434 0.252050 0.181246 -0.351780 0.464000 0.748701 -0.470391 -0.550022 -1.207589 -0.002933 0.489750 0.091655 0.206255 -0.391509 0.141797 -0.299028 -0.177874 -0.026341 0.153617 0.709919 0.614073 0.253414 0.239607 -0.248634 -0.180469 -0.051584 0.342199 -0.448554 0.498804 -0.553859 0.109037 0.668586 -0.404529 0.507482 0.021766 -0.709755 0.181516 0.147655 0.471409 -0.518745 0.458443 0.161124 0.174165 -0.387564 -0.189030 0.001607 -0.579791 0.138926
size t 0.254816 -0.206039 0.188512 0.314779 0.474650 -0.091890 -0.181958 0.097166 0.338430 -0.486118 0.213723 0.225328 0.377224 -0.089411 -0.204743 0.453675 0.150978 0.122444 -0.793491 0.302805 0.520667 0.022329 -0.205518 0.176363 0.420090 0.572677 0.391560 -0.041610 0.161247 0.506686 -0.526106 0.336338 -0.456658 0.025909 0.205803 -0.434940 -0.466096 -0.488973 0.121973 0.522556 -0.684651 0.686176 0.538795 -0.457110 0.134574 0.727466 0.524556 0.309275 0.642484 0.111443 0.352826 -0.172981 0.201988 -0.025784 -0.121828 0.209798 0.029526 -1.135056 0.538657 -0.624979 -0.074394 0.108209 0.668406 -0.263524 0.061521 -0.123504 0.173425 0.014710 -0.441821 0.329932 1.081993 0.193222 0.475374 1.014980 -0.817667 0.126169 -1.018445 0.968099 -0.048707 0.014522 -0.089769 -0.343817 -0.374005 0.532295 -0.175104 -0.411895 1.175914 -0.170039 -0.149969 -0.191615 0.358170 -0.370139 -0.654300 -0.310958 0.108217 0.261679 -0.739235 0.408130 -0.116581 0.833656
vector 0.369898 -0.247813 -0.174329 0.282318 0.062269 -0.443773 -0.227178 0.176791 1.116977 0.107114 -0.242102 -0.363324 0.206505 -0.121895 -0.146872 0.519584 -0.239032 -0.058136 -0.475161 0.620728 0.128075 -0.479170 -0.397976 -0.194447 0.302930 0.227297 0.975119 -0.168439 -0.866770 0.572410 -0.108812 -0.086471 -0.274150 -0.058184 0.399108 -0.259813 -0.422933 -0.150809 -0.394511 0.019539 -0.238238 0.663570 0.266574 -0.011717 0.473118 0.182779 0.602441 0.037626 0.761314 0.085741 -0.002284 -0.754998 0.230882 -0.391591 -0.428761 0.135977 -0.617087 -0.553947 0.081045 0.344519 -0.635367 0.474823 1.227300 -0.860448 -0.105524 -0.411557 -0.142117 -0.311018 0.250433 0.110179 0.241973 0.544251 -0.236621 0.022339 0.176480 -0.614982 0.157258 -0.057078 -0.007604 0.367977 0.474677 -0.195555 0.313271 -0.044877 0.287221 0.228643 0.050275 0.405797 -0.950377 -0.301817 0.206814 -0.172987 0.026783 0.464456 -0.702739 0.428673 -0.054004 -0.137528 -0.167722 -0.120567
else 0.393564 -0.379085 -0.034723 0.050875 -0.505483 -0.771452 0.005148 -0.041779 0.100719 -0.008103 0.694277 0.073498 -0.596258 -0.353430 0.707060 -0.232278 0.159986 0.881155 0.480912 0.374818 0.128038 -0.106084 -0.290955 0.009934 -0.683620 0.297264 0.040982 0.294591 0.058492 0.261451 0.121175 0.109595 -0.331593 0.320638 -0.315196 0.054482 0.843933 0.147121 -0.671615 0.163069 -0.420096 -0.421372 -0.542705 0.474079 0.230479 0.613754 0.310683 0.779836 -0.281517 0.187664 -0.104824 -0.011021 -0.449913 0.367834 -0.025953 -0.288659 0.125453 0.408359 0.113833 -0.127776 -0.418185 0.085433 0.197253 -0.215000 0.275022 -0.525976 -0.236524 0.131293 -0.526994 1.005810 0.333649 0.642208 -0.435204 0.196596 -0.541626 -0.281536 0.259256 0.090161 0.369226 -0.745374 0.180352 -0.336585 0.029400 0.129457 -0.061242 -0.136357 0.581872 -0.013703 -0.114624 0.126060 0.210830 0.896390 -0.294035 -0.081980 0.184136 0.296464 -0.283861 0.202794 -0.605395 -0.284946
h 0.803173 -0.544325 -0.121609 -0.481203 0.628097 0.126661 -0.227697 -0.461278 0.042859 0.102305 -1.028957 0.691564 0.358626 -0.831363 0.121171 -0.187965 0.304432 -0.285573 0.197495 0.952565 -0.257487 -0.712001 -0.367632 0.320812 1.074343 0.576228 -0.251070 -0.076835 -0.053515 0.452679 -0.935470 0.020676 -0.483476 -0.240658 -0.117535 0.045649 -0.060008 -0.566941 -0.177221 0.158801 -0.160124 -0.507390 0.362843 0.203355 -0.136194 0.104735 -0.147592 0.001543 -0.372084 -0.172311 0.304787 -0.364181 0.157468 0.065946 -0.592236 -0.472943 -0.489404 0.541150 0.417044 0.015907 -0.073447 -0.563588 0.773851 0.010650 -0.360571 -0.302137 0.779544 0.468258 0.453656 0.577262 0.359025 0.347997 -0.453589 -0.286765 -0.255872 -0.419388 -0.021114 0.072367 0.564923 0.186606 0.181922 0.383417 0.670897 0.101668 0.195550 -0.096854 -0.242620 -0.349968 -0.155125 0.153968 0.217263 -0.365155 0.137961 -0.142506 0.104671 -0.435364 -0.652231 0.174013 -0.562938 -0.144795
false 0.080893 0.396985 -0.176551 -0.151854 0.432922 -0.143153 0.391577 -0.876191 0.345229 0.220823 0.165271 -0.246350 0.465214 -0.490179 0.722526 0.275215 -0.073559 0.323327 0.703507 -0.190799 0.567601 -0.428932 -0.481257 0.276447 0.095242 0.216186 -0.396608 0.044457 0.692980 1.281545 0.103346 0.462559 -0.123545 -0.048511 0.098448 0.217511 0.090359 -0.108034 -0.270225 0.055690 -0.413546 0.374672 -0.469490 -0.279741 -0.448236 0.647813 -0.788114 0.044629 0.744272 0.073416 0.577401 -0.475224 -0.466644 -0.560829 0.025889 0.545587 -0.921112 -0.266346 -0.025294 0.085268 0.158512 0.516550 -0.070160 0.434374 -0.281813 -0.289772 0.299318 0.007119 0.124485 0.770811 -0.475926 -0.518512 -0.269845 0.498652 0.350100 0.487722 0.171132 -0.041562 1.153138 -0.018538 -0.590506 -0.517918 -0.420335 0.602004 -0.841904 0.133526 -0.151702 0.068910 0.660351 0.364343 0.986656 0.391478 0.736259 -0.212762 0.056128 0.576943 -0.335572 -0.378863 -0.787534 -0.105724
b 0.252141 0.399593 -0.192852 -0.394349 0.383188 -0.058029 0.275916 0.406374 -0.358907 -0.382646 0.065028 0.313950 -0.263684 -0.856173 0.139045 0.261662 -0.482104 -0.161864 0.027467 0.338485 0.136069 -0.440560 -0.014741 0.369012 0.286967 0.065636 0.351309 0.170952 -0.294806 0.072795 -0.281920 0.702724 0.429821 -0.846939 -0.447052 -0.239932 -0.130374 -0.933213 0.455306 -1.002098 -0.083586 -0.558598 0.329998 0.036680 -0.613146 0.047433 -0.583399 -0.271815 -0.135142 0.260170 0.064986 -0.684247 -0.107310 0.002521 -0.527535 0.327076 -0.772815 -0.908557 0.073551 -0.865287 -0.211062 0.077362 0.015658 0.457331 0.233874 0.562225 0.152072 -0.203717 -0.165329 0.592201 -0.406413 0.589160 -0.283087 -0.029346 -0.131513 0.053238 -1.244283 0.295385 0.388922 -0.071293 -0.560078 0.673377 0.294716 0.262432 -0.266590 0.077554 0.762440 0.236826 0.149465 -0.852862 -0.589293 -0.462965 0.231095 0.181561 -0.185562 0.499994 -0.517600 -0.484597 -0.249194 -0.477671
while -0.295412 0.257000 0.425726 0.426089 0.315491 -0.683081 -0.164262 0.019655 -0.583559 0.074482 -0.253008 0.264302 -0.276871 -0.378518 0.755051 0.188621 0.725929 0.120954 -0.221010 0.333534 0.171717 -0.632425 0.197086 -0.020219 0.046169 0.459689 0.090303 0.166177 0.229590 0.901147 -0.182549 -0.066557 0.148672 -0.375459 -0.038531 -0.437433 0.381452 0.240051 0.266543 0.223103 0.203754 0.034014 -0.171408 -0.275714 -0.910785 0.678766 -0.260792 0.043121 0.497106 -0.380713 0.070445 0.347493 0.002989 0.381604 0.108631 0.232655 -0.782550 -0.084521 -0.032145 0.075348 -1.162431 -0.135056 0.038613 -0.390755 0.233983 0.077732 0.331689 -0.190439 -0.747044 0.599524 -0.194580 -0.026302 0.000578 0.786258 -0.017358 0.152794 -0.533489 -0.228780 0.388503 -0.847865 -0.447573 -0.337451 0.110582 -0.067158 0.185528 0.203567 -0.270891 0.539642 0.677502 0.419264 0.262384 0.038574 0.082290 0.309197 0.822035 0.167216 -0.486817 -0.126833 -0.048387 0.224861
x 0.104895 0.190191 -0.246430 -0.178961 -0.022690 0.367373 0.759316 0.285244 0.180926 0.157052 0.044859 -0.152458 -0.347613 0.715641 0.168752 0.011974 0.249536 -0.314513 0.247488 1.108023 0.363827 -0.430051 0.148848 0.041324 -0.047282 0.374398 0.099422 -0.253004 -0.132174 -0.047969 0.128133 -0.146035 -0.295734 -0.460207 0.379078 0.308005 -0.468780 -0.422116 -0.019607 0.176920 -0.237464 -0.215457 0.166440 0.160726 -0.244512 1.167290 0.273813 0.046139 -0.834847 -0.154890 -0.748773 -0.006002 -0.276592 0.375588 -0.546033 0.001068 -0.283464 0.008435 -0.635745 -0.710772 -0.454889 -0.101730 -0.020395 -0.167779 0.066519 -0.312438 0.337188 -0.792496 0.031756 0.353887 -0.227052 0.048695 -0.030634 0.301812 -0.215512 -0.230371 0.463011 -0.337861 0.071942 0.433327 0.536074 0.703840 0.120994 0.383076 -0.370502 0.032632 0.666349 -0.040872 0.120504 -0.144283 -0.054604 -0.028784 0.391678 -0.281115 0.397446 -0.545234 -0.208076 -0.073592 -0.258678 -0.527148
g 0.024429 0.060612 -0.257299 0.189941 0.913482 0.405402 -0.175318 0.260624 0.317624 0.086113 -0.772384 0.230930 -0.361869 -0.154277 -0.174961 0.212549 0.347197 0.087381 1.055667 0.730365 -0.809120 -0.156495 0.126280 -0.384698 0.080877 0.574394 0.796045 0.051856 0.079839 0.212823 -0.298329 -0.058670 -0.712472 -0.502827 -0.773837 -0.024526 0.314369 0.243227 0.422592 0.583829 -0.259322 -0.528717 0.998935 -0.529891 -0.489423 -0.259550 -0.791463 -0.123577 0.247611 -0.155714 -0.504373 -1.083230 -0.387251 0.470103 -1.267992 -0.327073 0.075397 -0.020439 0.335380 -0.670028 -0.048705 -0.140445 0.233278 -0.001932 -0.974972 -0.326261 -0.220550 -0.419148 -0.118163 -0.103382 0.003698 -0.001718 0.519842 0.227240 -0.885494 0.311399 -0.177998 0.080418 0.364721 1.173935 -0.560837 -0.638029 0.247637 0.438937 -0.580240 0.239806 0.136036 0.312210 0.491643 0.166970 0.699143 0.122791 0.376599 0.681609 0.328622 0.066488 0.417236 -0.360196 -0.369700 0.376716
q -0.323202 0.111962 -0.267451 0.566027 1.146927 -0.081533 0.045340 0.333524 0.221646 -0.426262 -0.033468 0.189660 -0.354463 -0.334029 0.446063 -0.135156 0.459023 -0.562298 -0.065127 -0.537021 0.149324 -0.482446 -0.225491 -0.096111 0.677478 -0.385264 0.814854 0.149461 0.051912 0.450436 -0.008389 0.205073 -0.426673 -0.000415 -0.831348 -0.047148 0.081820 0.375934 -0.130859 -0.765546 -0.319274 -0.344027 0.340196 0.136711 -0.153476 1.128086 -0.789525 -0.496912 -0.833288 0.114810 0.394993 1.078762 -0.021194 -0.595981 0.338746 0.294202 0.163820 0.050025 0.477957 -0.033438 -0.767003 0.542440 0.516665 0.841391 0.496130 -0.369683 0.747580 0.120516 0.364241 0.278128 0.095920 0.652738 -0.051047 0.773196 -0.174686 -0.274681 -0.012427 0.132247 0.468831 0.365333 0.004279 -0.176727 -0.201251 0.810971 -0.458620 0.114746 0.272251 0.018591 -0.070226 -0.294883 0.170716 0.459267 0.559536 -0.271614 0.613849 0.085583 -0.506515 0.263144 -0.605896 -0.334344
u -0.226143 -0.005848 0.018143 -0.032804 0.245661 -0.483878 0.374374 0.019630 0.017327 -0.447936 -0.769421 -0.955217 -0.897891 -0.400613 0.313730 -0.285362 0.367665 0.344538 -0.014371 -0.112487 -0.002977 0.005611 -1.364315 -0.042924 -0.021999 0.128910 0.251958 -0.598222 0.224510 -0.767492 0.554022 -0.155690 0.148733 0.250325 -0.298897 -0.440703 0.319997 -0.613757 -0.431512 0.316264 0.022643 -0.570559 0.209452 0.004400 -0.264705 0.325867 -0.540197 -0.186870 -0.421442 0.511336 0.525253 0.738703 -0.911264 0.211254 -0.708724 0.324859 -0.729298 0.029596 0.161204 -0.081112 -0.919427 0.606857 0.686392 0.076358 -0.631524 0.518587 -0.250016 -0.282730 0.170898 1.138826 -0.062153 -0.659964 0.662006 0.465782 -0.311206 0.498784 -0.646640 -0.155117 0.845839 0.155947 -0.078828 -0.320299 0.606681 0.295738 0.312671 -0.473532 -0.161746 0.525146 -1.410646 -0.617867 0.361578 0.026305 -0.581321 0.621602 0.095316 0.120579 -0.494954 0.077101 -0.603341 -0.138644
dlib test 0.006644 0.054722 -0.608648 0.211243 0.426959 -0.044439 0.161135 -0.800330 0.300862 -0.146433 0.284280 0.079301 0.139865 -0.706798 0.014248 0.788604 -0.416378 -0.316610 -0.295917 0.371143 0.004329 0.638048 -0.105700 0.408444 0.916467 0.292163 0.498027 0.201447 0.124024 0.191872 -0.149729 -0.358324 -0.553324 -0.256404 -0.141075 -0.328279 0.040237 -0.461406 -0.297636 -0.660319 -1.193425 0.395291 0.016042 0.177043 -0.351379 -0.003897 -0.109834 0.059737 0.024175 -0.382003 0.670011 -1.032852 -0.440067 -0.097598 0.039390 0.732629 -0.776565 -0.565992 0.411225 -0.021427 0.369019 0.258519 -0.083359 0.005549 -0.345564 -0.238936 -0.435716 -1.008678 -0.192476 0.424004 -0.600424 -0.444955 -0.073967 -0.302340 -0.745169 0.634732 0.264216 0.295526 1.194174 0.006552 -0.151644 0.026253 0.300704 0.536322 -0.613199 -0.445272 0.835226 0.042263 0.513384 0.062760 0.848195 0.119970 0.371787 0.810203 0.650130 0.131230 -0.856500 0.810402 -1.054236 -0.264421
endl 0.311925 0.283453 -0.309322 0.034220 0.015696 -0.060450 0.177617 0.459260 0.518258 0.153709 -0.339283 -0.684781 0.012522 -0.183715 0.511054 -0.091990 -0.634514 -0.093450 -0.067540 0.022077 0.463077 -0.415621 0.662434 0.195937 -0.656500 0.168136 0.750251 -0.143990 -0.350114 0.279839 -0.092094 0.264090 -0.874289 -0.638009 -0.428988 0.131625 0.128501 0.001937 -0.678832 0.257665 0.337458 0.432375 -0.399194 -0.346190 -0.331349 0.451469 -1.004269 0.081205 0.055749 0.096786 -0.956187 0.121816 -0.381230 0.336965 -0.160007 0.238532 0.304295 -0.518331 0.477176 -0.139363 -0.326890 -0.323533 0.002036 0.004766 0.255830 -0.304470 -0.213330 -0.396403 -0.348925 0.502194 0.232776 0.497397 0.097589 -0.111791 -0.049742 0.293937 -0.439369 -0.334939 0.497599 0.156433 0.404905 0.064107 -0.026517 -0.117131 -0.075092 -0.362614 -0.349270 -0.230416 0.472133 -0.113564 0.228907 -0.342553 0.482943 -0.357412 0.750805 -0.234467 -0.651259 0.164274 0.001549 -0.533359
v -0.309425 -0.437920 0.088104 0.806293 0.318357 -0.505841 0.263410 0.366116 0.030434 0.353732 -0.370941 -0.259265 -0.560068 -0.063477 0.131541 0.711261 -0.176480 -0.403334 0.631340 0.642369 0.403028 -1.205678 -0.044714 -0.025386 0.152516 0.102436 0.834480 -0.594604 0.279862 0.057924 0.777336 0.368087 -0.351952 0.088552 0.067691 -0.148127 -0.149325 -0.622720 -0.057803 0.125629 -0.221027 -0.178080 0.119265 -0.179043 -0.425872 0.449713 -0.416923 -0.857671 -0.075024 0.219720 -0.238321 -0.168289 0.235601 0.543940 0.017552 -0.509693 -0.087796 0.180196 0.367482 -1.163750 -0.655656 0.512189 0.411430 0.043225 -0.184012 0.030849 -0.231890 -0.434034 -0.053103 0.213855 0.108828 0.084800 0.085343 -0.351278 -0.658364 0.445611 0.183896 0.142150 0.629243 0.414546 0.169885 0.648285 -0.006481 0.273059 -0.726041 0.485308 -0.087077 -0.116679 -0.335021 0.007601 0.358399 -0.161309 0.686266 0.278496 0.163728 0.077824 0.622333 -0.143991 -0.321919 0.809713
new -0.112088 -0.146297 -0.476777 0.212898 -0.122938 -0.233652 -0.220955 -0.313188 0.408935 -0.077429 -0.079836 0.506710 -0.157369 -0.513169 0.626177 0.725802 -0.241527 0.383321 0.816292 -0.083574 -0.234745 -0.686129 -0.034268 -0.212045 0.345952 -0.046922 -0.259001 0.387075 -0.627297 -0.321518 0.063483 -0.930046 0.547668 0.081065 -0.465086 -0.202157 -0.294337 0.397716 -1.622112 0.156325 0.194361 -0.219491 -0.171379 -0.767317 -0.068006 0.258300 -0.151026 -0.024885 0.373881 0.302513 0.176214 0.218005 0.473632 0.432434 0.615524 -0.160319 -0.791763 0.312146 -0.493481 -0.758606 -0.787855 -0.746193 0.095948 0.195370 0.373940 -0.150523 0.274192 -0.295038 -0.542997 0.405450 -0.830966 0.437903 0.354802 0.108859 -0.045835 0.458149 0.269656 0.004212 0.760308 -0.040755 0.288515 0.093376 0.305061 -0.010527 0.508752 -0.538553 0.234515 -0.321077 0.700252 -0.464549 -0.829607 -0.545928 -0.458342 0.674324 0.463463 -0.095194 0.327962 -0.264176 -0.385484 -0.424461
r -0.266806 -0.388166 0.082835 -0.417306 0.169599 -0.282114 0.225804 0.174721 0.325323 -0.498530 0.817482 -0.153146 -0.577020 -0.284544 0.407352 0.170888 0.662582 0.262933 -0.169692 -0.430095 -0.445016 -0.240178 -0.325688 0.056631 -0.523448 -0.310919 0.164798 0.304884 -0.432055 0.221611 0.252728 -0.245916 -0.370221 0.273981 -0.491024 -0.333166 -0.632013 0.293333 0.204452 0.156475 -0.685276 0.420848 0.262663 0.735668 -0.002754 0.692820 0.022697 0.021260 -0.294625 -0.176972 0.325726 -0.669258 0.651045 -0.625432 0.214674 0.232271 -0.363229 -0.887234 0.404015 -0.588799 -0.357511 -0.030917 0.144428 0.181235 0.708286 -0.210685 0.349213 -0.330014 0.418898 -0.210917 -0.342578 0.427031 0.077859 -1.016407 -0.545645 -0.014645 0.095457 0.699118 0.850199 -0.180582 -0.070179 0.055747 0.671980 0.749691 -0.301021 -0.030377 -0.229204 0.381521 -0.922638 -0.258055 -0.228706 -0.021618 -0.393340 0.090833 0.398469 0.433270 -0.570041 -0.633154 -0.772765 -0.854202
data 0.120646 0.148917 -0.092736 0.224365 0.270348 -0.520562 0.228068 0.305908 -0.120645 -0.064143 0.323544 0.340589 -0.455437 -0.774999 0.944212 0.571905 0.055261 0.015767 0.355518 0.462008 -0.115834 -0.935864 0.019080 -0.216140 0.030167 0.197619 -0.060866 -0.758006 -0.290257 0.728566 -0.495561 0.036746 0.077551 -0.088991 -0.460691 0.231294 -0.597313 0.122627 -0.167172 0.362986 0.776793 0.084936 0.197117 -0.021313 0.433174 0.544720 -0.105047 -0.567636 -0.356017 0.264086 -0.475412 0.146565 -0.132068 0.019068 0.057358 -0.307251 0.172489 -0.101240 -0.068845 -0.129648 -0.199609 -0.142541 0.720363 0.498852 0.339581 -0.859571 0.052786 -1.029570 -0.557577 0.796332 0.492320 0.294166 0.294585 0.356036 0.114372 0.025737 -0.088031 -0.420036 0.736328 -0.760349 0.276880 -0.245243 0.289072 0.454893 0.290803 -0.050970 0.856334 -0.804878 -0.222857 -0.473410 -0.419333 0.221045 0.616953 -0.228140 0.107298 -0.017306 -0.121158 -0.169973 -0.084631 0.391317
graph 1.013912 0.379685 -0.457877 0.389972 0.502619 -0.421080 -0.369520 -0.016081 -0.039352 -0.420218 -0.468841 -0.330123 -0.647198 -0.969493 0.231541 0.067364 0.594195 0.373190 1.075802 0.519015 -0.789025 -0.023466 -0.556255 -0.210648 -0.121430 -0.043997 0.656407 -0.346894 -0.283384 0.098191 -0.165922 0.003548 -0.639249 -0.733023 -0.009861 -0.518157 -0.150070 0.805634 -0.094817 0.319486 -0.472588 0.613298 0.606484 0.447530 -0.469643 -0.114073 -0.200205 -0.990896 0.366234 0.107837 -0.034201 -0.052574 0.229814 0.259163 -0.530157 -0.241339 -0.089933 -0.157653 -0.715188 -0.866606 0.340597 0.139717 0.285280 0.069508 -0.576244 -0.529878 -1.515648 -0.161185 -0.004755 0.081534 0.362166 -0.027625 0.162905 0.270859 -0.793995 0.289862 -0.665446 0.184571 0.671949 1.135120 -0.104990 0.504428 -0.355906 0.196363 -0.883867 -0.209025 0.162844 -0.669960 0.181156 -0.692061 0.691151 0.451747 0.454446 0.608928 -0.153641 -0.161021 0.046615 -0.410049 -0.515016 -0.033655
end 0.188093 0.147240 -0.444582 -0.870272 0.326600 -0.530825 -0.360947 -0.110501 -0.346573 -0.559430 0.378800 -0.280944 0.253061 -0.290770 -0.219095 0.279812 0.514979 -0.220579 -0.336887 0.145289 0.391169 -0.925376 -0.122059 -0.117363 0.022208 0.340397 0.255968 0.235662 0.567998 0.561358 0.239288 0.267273 -0.244329 0.201759 0.651294 -0.307829 0.548704 -0.175120 -0.256928 -0.879798 -0.380013 -0.391679 -0.278146 0.912197 0.403386 0.145598 0.089224 -0.310131 0.174982 0.419520 0.575578 -0.860571 0.772140 0.186959 -0.871315 0.269467 0.094861 -0.792024 0.214371 0.027085 -0.311293 -0.392899 -0.143277 0.130020 -0.312914 0.886930 0.281130 0.181521 -1.021756 0.420660 0.087673 0.469678 0.139910 0.315121 -0.582944 -0.009703 0.121715 -0.658557 -0.143194 0.770713 -0.639706 -0.118190 0.234839 -0.289589 0.436293 -0.022966 -0.539020 0.239404 0.284649 -0.972470 0.003628 0.379013 -0.292743 0.761864 0.638410 0.775991 -0.187789 -0.409856 -1.730971 -0.123996
this -0.585698 0.331009 -0.605165 0.170391 0.189247 -0.586321 0.250547 0.178448 0.166305 0.067733 0.309624 0.052510 0.377285 -0.763857 0.433588 0.426488 -0.005508 0.292142 0.414382 -0.458326 0.767350 -0.400840 0.602373 0.311587 0.123594 0.647922 -0.471589 0.478576 -0.249855 1.036276 0.563962 0.138155 -0.035287 -0.012755 -0.101792 -0.048540 0.009276 -0.175731 -0.150920 -0.729158 -0.456171 -0.187572 0.404598 -0.468021 -0.505529 -0.548520 1.187917 0.078565 0.028039 -0.052461 -0.127502 0.486178 -0.992138 0.169476 -0.075829 -0.216065 -0.063332 -0.847760 -0.172625 0.370603 -0.736640 0.699235 1.293412 -0.004386 0.021532 -0.272324 0.297559 0.373997 -0.371633 0.235354 -0.686745 0.117413 -0.746007 -0.375773 -0.430724 -0.029296 -0.103201 -0.761146 0.027874 0.427696 0.829370 -0.319871 -0.354655 0.290411 -0.062404 -0.368059 0.944974 -0.534399 -0.148398 0.079562 0.076831 -0.232587 -0.266793 0.422894 0.313378 0.114294 -0.522684 -0.846676 -0.088438 -0.356085
value 0.816297 0.225497 -0.461556 0.435450 -0.536388 -0.191470 0.794741 -0.099303 -0.072735 0.155915 0.542933 -0.185167 -0.286165 -0.885630 -0.376212 0.472804 0.055027 0.503765 0.330463 -0.181617 0.092050 -0.349102 0.398847 -0.451206 0.691195 -0.121744 -0.003518 -0.536367 0.203390 -0.080129 0.469245 -0.216500 -0.537047 -0.604195 0.432784 0.036554 0.187493 0.215733 -0.574756 0.175752 -0.584341 0.366174 0.263285 0.260210 -0.410830 -0.113500 0.011682 0.518804 -0.141122 0.214283 -0.201827 0.231401 -0.091562 0.616786 0.536891 0.364810 -0.401042 0.408905 -0.033064 -0.610202 -1.842923 0.481076 0.497362 -0.519154 -0.272768 0.048546 -0.451447 -0.595123 0.078549 0.001959 0.143816 0.270566 0.573835 -0.144103 0.081340 -0.048253 -0.182743 -0.376401 0.675078 0.530115 -0.541882 -0.284325 0.433944 0.218767 0.028745 -0.025510 -0.143259 0.505482 0.327525 0.324266 -0.469545 0.258235 -0.045058 -0.244387 -0.043020 -0.492461 -0.226182 0.081402 -0.128946 0.000857
class 0.163221 0.022201 -0.346697 0.085266 0.172297 -0.546361 -0.169849 0.070525 0.769373 0.143333 0.451039 -0.528998 0.655227 -1.276569 0.393263 0.007351 -0.162214 -0.839074 -0.513317 0.360421 -0.067799 0.359557 -0.083316 -0.155986 -0.033341 -0.173635 -0.200582 0.013953 -0.207926 0.578731 -0.677005 -0.439649 -0.558345 -0.305370 -0.310108 -0.191283 -0.183960 -0.085032 0.040065 0.718365 -0.014742 -0.015684 -0.465038 1.043893 -0.512378 0.143817 0.347819 0.306194 0.215220 -0.232897 -1.008718 0.104579 0.449753 -0.131142 -1.089076 -0.492651 0.292538 -0.404276 0.121451 -0.741783 -0.474800 0.462040 0.336096 -0.214646 0.060939 -0.512531 -0.517809 0.287305 -0.206659 0.107919 -0.661812 0.335386 0.131313 0.457391 -0.214131 0.153967 -0.215885 0.353613 0.584444 -0.123977 0.756404 0.580894 0.479112 0.228508 -0.120685 0.556841 -0.131597 0.210627 0.303065 0.335977 -0.213883 0.205841 0.221588 0.226182 0.557479 -0.305350 -0.126545 0.272260 -0.589408 0.160700
bool 0.148372 0.635431 -0.740014 -0.190316 0.337934 -0.403848 0.099063 -0.927126 0.050271 0.262369 -0.309432 0.065453 0.182382 -0.547647 0.306175 -0.256116 0.626922 0.579766 0.506719 0.071843 0.496099 -0.501344 -0.103754 -0.147071 0.026871 0.237962 -0.184264 -0.173238 0.034705 1.247431 0.256111 -0.099068 -0.482726 -0.365755 0.696258 0.534376 -0.179515 -0.430258 -0.339815 -0.003743 0.101461 0.489504 0.029079 -0.055129 -0.017638 0.137373 -0.553065 0.186065 0.574630 0.289797 0.135295 0.424204 -0.124243 -1.039400 -0.499837 -0.103118 -0.041161 -0.383350 0.406651 -0.162868 -0.706276 0.593402 0.333933 -0.135775 -0.042566 -0.512644 0.478940 -0.076802 -0.172646 -0.223500 -0.473846 0.175216 0.289090 0.257316 0.513203 -0.101897 0.164443 -0.503744 0.601674 0.052286 -0.130969 -0.032932 -0.053975 0.426424 -0.541202 0.036269 0.033354 -0.133998 0.263033 0.290659 0.362951 0.274448 0.279674 -0.731614 0.167724 -0.036555 0.155826 0.062156 -0.053540 0.466453
using 0.688923 -0.519070 -0.055952 -0.347116 -0.089614 -0.199246 0.295680 -0.392583 -0.123688 0.106625 -0.419832 -0.309863 0.100544 -0.199882 0.294627 -0.438680 0.058557 -0.524131 0.073888 1.612145 -0.518950 -0.075165 -0.415706 -0.371947 0.193299 0.126255 0.224238 0.374839 -0.312395 0.786766 -0.605022 0.291575 -0.645958 0.079207 0.114583 -0.410637 -0.569275 -0.622136 -1.116524 -0.047757 0.288611 0.096393 0.787163 0.619551 -0.493145 0.770693 0.015564 -0.190975 -0.355044 0.079180 -0.272263 -0.281588 0.147560 0.364156 -0.194566 -0.808012 -0.570670 -0.183262 -0.312135 0.434767 -0.121414 -0.290046 0.524231 0.626593 0.046275 -0.093911 -0.374070 0.305936 0.040713 0.011657 0.597099 0.235439 0.239890 0.066887 -0.147502 -0.067706 -0.676665 0.179755 0.268202 0.635984 0.009284 0.237564 0.034406 -0.176811 -0.733893 -0.054160 -0.230226 0.312648 0.223186 0.400342 -0.128238 -0.175401 -0.217327 0.739508 -0.323535 -0.401449 -0.761448 -0.118801 -0.041445 0.294148
e -0.353327 0.106622 -0.340269 0.017294 0.568365 -0.367415 0.500209 0.177552 0.383387 0.236805 0.599534 0.092942 -0.157328 -0.545240 0.665367 -0.500860 -0.216873 0.156967 0.049455 -0.045797 -0.071108 0.682527 -0.443439 -1.357868 0.213859 0.166902 -0.148807 -0.532496 -0.003323 0.005528 -1.069027 0.344612 -1.314736 -0.137045 -0.858102 0.561643 1.235940 -1.045775 0.262650 0.358493 -0.906972 0.587309 0.210572 -0.041790 0.337241 0.126897 -0.378624 -1.219664 0.030094 -0.059543 -0.233209 -0.277223 -0.211811 0.089298 -1.392437 0.353753 -0.266307 0.021218 -0.058738 -0.727530 -0.745536 0.526693 0.274276 0.218773 0.088404 0.067372 0.746150 -0.440606 -0.349788 -0.019804 0.517056 0.091509 0.852066 0.725261 -0.929728 0.111884 0.296547 -0.153128 0.344101 0.125466 0.313334 0.155582 -0.211924 0.096108 -0.105793 0.138939 0.736546 -0.153794 -0.442909 -0.224231 -0.668045 -0.064712 0.982170 0.287519 0.766977 -0.264654 0.194288 0.205043 -0.321673 -0.574732
namespace 0.645470 -0.237315 -0.266040 -0.054024 0.265753 -0.015865 -0.236072 0.181828 0.341587 0.009316 -0.219513 -0.322790 0.612052 -0.285975 0.555227 -0.512630 -0.240979 -0.561253 0.269435 1.095906 -0.080579 0.077843 -0.374250 -0.006978 0.412013 0.447883 0.188293 0.263116 -0.170426 0.698484 -0.886308 0.013121 -0.045098 -0.231432 -0.160369 -0.716498 -0.512953 -0.940303 -0.830979 0.279566 0.273957 0.481224 0.579018 0.383884 -0.829607 0.718620 0.176891 -0.260269 -0.336703 0.130135 -0.015616 -0.229331 0.420610 0.467687 -0.012906 -0.629056 -0.827473 -0.074095 0.068160 0.473121 -0.164469 -0.360202 0.830905 0.334400 0.204716 -0.277788 -0.461307 0.372516 0.273891 -0.012198 0.541282 -0.127903 0.401343 0.057212 -0.123522 -0.433161 -0.625694 0.391396 0.198856 0.514332 0.152051 0.229077 0.454869 -0.154820 -0.567146 0.021599 -0.062541 0.554458 0.074063 0.344884 -0.039214 -0.187682 -0.030249 0.160616 0.128792 -0.603701 -0.413498 -0.500932 0.335658 0.144769
template -0.042121 0.165958 -0.675244 -0.173964 0.241382 -0.652748 -0.990211 0.815239 -0.023071 0.096681 0.295217 -0.972989 0.101148 -0.905242 -0.011451 0.259635 -0.595128 -0.860887 0.073661 -0.117930 0.196356 0.126208 0.049059 -0.109841 0.665270 0.282593 0.057898 -0.099617 0.032723 0.729457 -0.216591 -0.157418 -0.931995 -0.137608 -0.323942 0.200169 -0.704374 0.228919 0.376061 0.488277 -0.637581 0.099097 -0.467694 0.807136 -0.311374 0.687956 0.287278 -0.612545 0.511025 -0.152152 -0.275976 0.510751 0.248722 -0.354585 -0.774455 -0.838375 0.173923 -0.406824 -0.012365 -0.819289 -1.019939 0.231841 -0.143236 -0.178196 0.070190 -0.612018 0.226732 -0.207748 0.339483 -0.200646 -0.515413 -0.233770 -0.258558 0.444273 -0.582621 0.367715 -0.378862 0.269590 0.440683 0.058958 0.595778 0.233147 0.314483 -0.234963 -0.380329 0.486842 0.087756 0.589713 0.585149 0.063421 -0.082224 0.591343 -0.004592 0.063124 0.381605 -0.649229 -0.752771 0.121523 -0.414236 -0.093794
delete -0.296597 -0.292539 -0.727573 -0.194780 0.629648 -0.781548 -0.237179 -0.223565 -0.777248 -0.141100 -0.032826 -0.006058 -0.259874 -0.905768 0.536382 -0.010770 0.053116 0.505253 0.168741 0.626836 0.213353 -0.130736 -0.070845 -0.553257 -0.159480 -0.117676 -0.077126 0.480160 -0.286075 -0.202431 -0.088049 -0.751749 -0.419098 -0.535686 -0.784353 0.175144 -0.197335 -0.310900 -0.889636 -0.116144 -0.057174 -0.147375 0.440758 -0.805408 -0.068304 0.056965 -0.045510 0.874233 0.186093 -0.814575 0.046498 0.574001 0.346885 0.406677 0.157187 0.066316 -0.380485 0.188523 0.044165 -0.697732 -0.087972 0.274589 -0.012104 -0.074972 0.438223 -0.629041 0.702982 -0.776859 -0.457079 0.816815 -0.083583 0.290725 -0.504884 -0.266379 0.401129 0.901123 -0.154441 -0.294167 0.005120 -0.015173 0.889331 -0.223794 -0.161640 0.647903 -0.780045 -0.473452 -0.506003 -0.152261 0.104073 0.034702 -1.413391 -0.001080 -0.763839 0.643255 0.531708 0.348610 -0.195720 -0.246512 -0.469358 0.349744
s 0.098008 0.095535 -0.297721 0.438032 0.215565 0.007944 0.620324 -0.519855 -0.066264 0.374619 -0.991038 -0.929514 0.512712 0.368527 0.661485 -0.021137 -0.129126 -0.395079 0.036108 0.338746 -0.119186 0.167674 -0.385354 -1.162702 0.058710 0.935038 -0.099250 -0.295406 0.153579 0.350838 0.135416 -0.137932 0.269470 0.013363 -0.207710 0.549557 0.510358 0.056805 -0.385817 0.301913 -0.813920 -0.396996 0.398769 -0.351373 0.135308 0.628941 0.063425 0.024350 -0.281871 -0.367725 0.471856 0.119138 -0.180840 0.046371 -0.205636 0.254191 -0.213523 -0.187273 0.118783 0.286176 -0.188275 -0.124626 0.544911 -0.182375 0.098082 -0.176988 -0.294115 -0.609927 -0.021110 0.130697 0.676060 0.227646 0.044052 -0.348934 -0.684478 0.477378 0.441775 0.183270 0.184539 0.161393 0.790361 0.605748 -0.548037 0.067950 -0.480893 0.300617 0.219544 0.460310 -0.470709 -0.836224 0.077049 0.355142 0.798838 -0.052024 0.956532 0.240690 0.094021 0.049106 -0.588807 0.013889
count -0.326716 -0.011517 -0.476925 -0.009411 0.389588 -0.285746 0.425473 -0.024398 0.360838 -0.512815 0.242331 0.026724 -0.340760 0.160545 0.155166 -0.060971 -1.112636 0.028327 -0.686092 -0.028174 0.568436 0.110954 0.039222 -0.270477 0.827079 1.197740 -0.177239 -0.738167 0.376701 0.919823 0.059534 -0.243421 -0.257045 0.235509 0.407534 0.191344 0.378770 0.046808 -0.228793 -0.551481 0.240113 0.759012 0.451869 -0.403109 -0.441315 0.383110 -0.193425 0.357686 0.062752 -0.170858 0.047263 -0.256929 -0.393528 0.654466 -0.104096 0.331121 -0.936571 1.092776 -0.454117 -0.424971 -0.059783 0.598673 0.679358 1.061866 -0.014566 -0.518754 0.255781 -0.492846 -0.478088 0.170718 0.079274 0.153206 0.300944 0.640206 -0.231232 0.709065 -0.711655 0.775097 0.402779 -0.779051 -0.674115 -0.077685 -0.127247 0.737304 -0.010592 0.011307 -0.565575 -0.290651 -0.179988 -0.110210 0.024423 -0.074747 0.610386 0.659008 0.421227 0.083103 -0.432318 0.555330 -1.342036 0.529462
k -0.060316 -0.239203 -0.510846 -0.203178 -1.443397 0.087339 0.846715 0.122396 0.150781 -0.430627 0.579665 -0.337497 -0.513672 -0.432500 0.375195 0.644104 -0.179428 -0.040393 -0.350722 0.434627 1.030476 -0.866189 -0.343397 0.744453 -0.305976 0.463145 0.651187 1.160293 0.289615 0.307580 0.313564 0.570803 -0.267901 -0.682495 -0.372778 -0.077709 0.063099 0.185485 0.121743 0.112043 -0.343724 -0.196028 0.144210 -0.095280 -0.204098 0.242407 0.106498 0.482255 -0.102850 -0.492853 -0.159817 -0.648145 0.005586 -0.472374 -0.406430 -0.056777 -0.984674 -0.057650 -0.279014 -0.308439 -0.560692 -0.359943 0.083178 -0.173046 -0.722563 0.010810 0.159192 -0.244119 0.419548 1.150277 -0.202232 -0.170823 0.065256 -0.091480 -0.417971 -0.196973 0.046197 0.319188 0.601375 -0.256841 -0.464931 0.194777 0.184093 0.964796 0.365192 0.506215 0.356557 -0.253941 0.130377 0.030218 -0.139356 0.135881 0.354207 0.192558 -0.342830 0.522263 -0.014471 -0.733509 0.125987 -0.288899
typename -0.497375 -0.012318 -0.747485 -0.659650 0.060532 -0.359065 -1.521704 0.427738 -0.029721 0.158549 0.102753 -0.998065 -0.084962 -0.972229 -0.531343 0.141771 -0.353913 -1.290817 0.595697 0.333898 -0.073479 -0.475997 -0.511771 0.209844 0.153840 0.660405 0.004798 0.264233 -0.234931 0.326695 -0.270734 0.043455 -0.612057 -0.121449 -0.506815 -0.061506 -0.543803 -0.040234 0.517587 0.691266 -0.906386 -0.576679 -0.336211 0.157704 -0.042297 0.826843 0.394424 -0.551053 0.132473 -0.243805 0.734159 0.567685 0.089490 0.128904 -0.516114 -0.313089 0.731012 -0.267817 0.157277 -0.476393 -0.978426 0.255341 0.731871 0.057733 -0.422584 -0.134482 -0.208054 -0.607108 0.536560 -0.650336 -0.480372 -0.006797 -0.372697 0.634258 -0.608047 0.257152 0.144593 -0.253930 0.396107 -0.218621 -0.309673 0.561442 0.399221 -0.190508 -0.354766 -0.083964 0.541079 0.404265 0.452400 0.167924 -0.185707 0.495203 -0.101943 0.559458 0.314505 -0.205046 -0.540037 0.564014 -0.134414 -0.248702
d 0.192805 0.356205 -0.007427 0.320607 -0.194907 -0.239576 0.547905 0.088767 0.733027 -0.210841 -0.405372 -0.768947 0.410218 -0.726182 0.770864 0.316765 -0.141017 0.225908 0.168446 0.513166 -0.153812 0.076215 -0.927020 -0.106065 -0.520000 0.630770 0.067976 -0.636873 0.581222 0.293650 -0.280839 -0.932477 0.047904 -0.187248 -0.571949 -0.049430 -0.548069 -0.367523 -0.456865 -0.001837 -0.174020 -0.326294 -0.319451 0.364556 -0.240475 0.563136 0.345473 0.107754 -0.139441 -0.169513 0.073547 -0.422983 0.251456 0.236505 -0.040277 -0.004003 -0.500325 -0.220028 -0.051470 -0.160470 0.055812 0.017826 0.129077 0.523863 -0.454354 0.592839 0.166638 -0.556015 0.062430 -0.455857 0.220843 0.218749 -0.333403 0.017321 -0.728857 0.234779 0.877022 -0.148124 -0.087031 -0.525245 0.152286 -0.668063 0.484803 0.320879 -0.937382 0.073938 0.860133 0.330651 -0.758087 -0.956092 0.494642 -0.655450 0.399101 -0.357344 0.360017 -0.596078 -0.467057 0.406654 -0.325034 0.271302
index 0.251947 -0.412737 -0.291019 0.630466 0.078435 -0.695615 0.832232 -0.124124 -0.018993 -0.076880 -0.042132 0.518761 -0.022408 -0.088630 -0.496110 -0.440377 -1.291293 0.096420 0.801629 0.486229 -0.608729 -0.316773 0.053051 0.389042 -0.027771 0.409052 -0.369569 -0.345374 0.777512 0.447248 0.284829 0.008242 -0.503644 0.048915 0.821302 0.048817 -0.119942 -0.639217 -0.483791 0.547665 -0.345469 0.365056 0.150893 -0.177508 -0.216037 0.597381 0.279102 0.297749 -1.408021 0.861643 -0.275335 -0.181085 -0.591346 -0.370248 0.076385 0.927301 0.586392 0.536030 -0.963522 -1.175574 -0.605627 -0.257047 0.002416 0.997286 -0.333776 -0.384261 0.560354 0.071961 0.427416 0.063963 -0.264897 0.638726 -0.162483 1.104117 -0.295499 0.274388 0.038276 0.181820 0.294241 0.455061 0.075969 -0.064142 0.381683 0.931937 0.911834 0.455576 -0.054629 0.637713 0.109539 0.480173 0.501344 0.710471 0.520500 0.585894 0.178552 0.779381 -0.549667 -0.251552 -0.562554 -0.286161
begin 0.465066 0.141718 -0.137410 -0.507119 -0.050950 -0.144301 -0.197824 -0.041255 -0.416285 -0.389306 0.254773 -0.011869 0.169814 -0.244610 -0.502942 -0.100845 0.130730 0.057891 -0.155442 0.244450 0.823129 -0.416034 -0.388183 0.072271 0.145407 0.995955 -0.048853 0.039721 0.016158 0.634489 0.365016 0.540124 -0.106774 -0.034138 0.805973 0.166215 0.234197 -0.650735 -0.029042 0.194223 0.047807 -0.151489 0.168800 0.829968 0.181427 0.511564 0.158934 -0.078861 0.373863 0.476794 0.698475 -1.426218 0.779785 -0.552108 -1.015653 0.486231 0.054876 -0.585585 1.000676 -0.680826 -0.025397 0.193497 0.220386 -0.639161 0.082106 0.367813 -0.289068 -0.425671 -0.702522 0.220346 0.057805 0.126175 0.370355 0.919652 -1.068025 0.179815 0.389864 -0.457525 0.227984 0.618418 -0.598780 0.304525 0.195151 -0.325278 0.295941 -0.194385 -0.846265 0.547878 -0.011522 -0.730646 -0.326209 0.404361 -0.530387 -0.185989 0.117115 0.805311 -0.529070 -0.903868 -1.287989 -0.011968
l -0.216648 0.261563 0.395367 0.316693 0.106824 -0.351040 0.244224 0.089647 0.391281 0.022988 0.834926 -0.116332 -0.388669 -0.678450 0.594568 0.051215 0.239199 0.517278 -0.348725 -0.177532 -0.562644 -0.434188 0.581542 0.151034 0.017976 0.638166 0.188466 0.964751 -0.513844 0.343034 -0.750510 0.201722 -0.993632 0.464976 -0.151092 -0.496256 -0.117355 -0.104357 -0.177736 0.269905 -0.782330 0.270254 0.756850 0.349050 0.437550 0.670384 -0.419676 0.383749 0.324622 0.156342 0.043312 -0.117886 0.171142 -0.320557 -0.337299 0.385811 -0.037037 -0.286759 0.047000 -0.617470 -0.173164 0.076061 -0.330555 -0.079363 0.207206 -0.517781 0.489248 -0.532132 0.865642 -1.096136 0.768102 0.479216 -0.221767 -0.000523 -0.651106 0.546596 -0.523516 0.393102 1.031451 -0.539229 -0.210480 0.458804 0.131064 0.748425 -0.343483 -0.277936 -0.067829 -0.300126 -0.007710 0.301569 0.124374 0.184237 0.455588 -0.110845 0.747335 0.007181 -0.627410 -1.603120 -0.073627 0.112637
current -0.752125 0.316905 0.011067 0.297912 -0.078490 0.625784 0.758055 0.673054 -0.565741 -0.426372 0.662615 -0.363316 0.161284 -1.406196 0.068445 -0.010289 0.081497 0.197831 -0.283530 0.472582 -0.150759 -0.404598 0.436171 0.232791 0.738885 0.556518 -1.068917 0.625955 0.195301 -0.314364 -0.402131 0.376196 -0.807473 -1.137139 -1.196014 -0.698404 0.488615 -0.278591 -0.411774 -0.110472 -0.609211 -0.002754 -0.366051 -0.726668 -1.177912 -0.039992 0.222643 0.729534 0.730913 -0.866868 0.787553 0.102140 -0.486971 -0.293393 -0.704577 -0.526546 0.035601 -0.611340 0.100333 0.031157 -0.651576 -0.012369 0.000623 -0.050380 0.062691 -0.052901 -0.396872 -0.710243 -0.674654 0.583028 0.112968 0.299825 0.134887 -0.181251 -1.089112 0.031106 0.431001 -0.550780 0.240517 0.444254 -0.715125 -0.640320 -0.338505 0.618975 -0.416458 0.810074 0.303684 0.038882 0.267840 0.726793 0.856791 -0.798273 0.331077 0.340256 0.279080 0.754577 -0.524172 -0.771647 -0.741218 0.485057
assert 0.279318 0.717620 -1.076694 -0.383627 -0.446046 -0.065824 -0.477050 0.153087 -0.247344 -0.652864 0.677046 0.406684 -0.316298 0.844289 0.050861 -0.080447 0.171897 0.406664 -0.116607 0.224373 -0.988542 -0.625212 -0.913264 0.017546 0.722539 0.505975 0.429161 0.575833 0.881003 1.077539 0.524897 0.128412 -0.672218 -0.989786 -0.393642 -0.143625 -0.184324 0.007556 -0.663038 -0.325466 -0.323676 0.135160 -0.476198 0.097592 -0.522757 -0.189722 -0.108799 0.856593 0.281495 0.248475 -0.226362 0.562255 -0.168834 0.135479 -0.162143 0.144032 -0.653118 -0.630843 -0.305413 -0.021211 0.133044 0.251383 0.309345 0.006432 0.242870 0.443867 -0.951335 0.827275 -0.235574 -0.358419 0.673196 0.275875 -0.153102 -0.280028 -0.365188 -0.422112 -0.179942 0.458049 -0.035141 -0.436200 0.206071 0.166101 0.223570 1.485497 -0.318109 -0.149765 1.087999 -0.353537 -0.004619 -0.249922 0.359416 -0.025886 0.246816 0.476131 0.704906 0.658447 -1.329889 0.095320 -0.181720 0.652532
push -0.002083 -0.322246 -0.530172 0.408626 0.542048 0.088146 0.303327 0.019189 0.237851 0.093845 -0.002160 -0.905396 -0.116650 -0.435526 0.216203 -0.160213 0.589854 -0.578422 0.344093 0.658260 0.072449 -0.039398 -0.316074 -0.875045 0.319914 0.188834 0.446689 -0.410909 -0.321446 0.908687 -0.541282 -0.153628 -0.717992 -0.305262 -0.083462 0.330706 0.569595 0.300603 -0.359065 -0.293640 -0.216073 -0.734775 0.833561 -0.426773 -0.119181 0.314385 -0.284858 -0.394402 0.357814 -0.654819 0.140712 -0.251913 0.208270 0.710652 0.305685 -0.241827 -0.375198 -0.048538 0.567514 0.174192 -0.212697 0.601923 -0.501246 0.413653 0.453381 -0.075615 -0.443639 -0.437178 0.094173 0.502210 -0.081735 -0.508029 -0.088325 0.766636 -0.169335 1.063375 -0.596512 -0.462532 0.208959 0.149291 -0.344719 -0.345835 0.655265 0.372141 0.768864 1.069893 0.391670 -0.149478 -0.035398 0.408537 0.685318 0.067249 -0.000609 -0.233220 0.434332 0.380350 -0.626039 0.045810 -0.435902 -0.229517
base 0.393378 0.700244 -0.497012 0.672164 0.313932 0.500661 -0.615171 -1.092765 1.371688 -1.075030 0.990170 -0.299557 -0.052390 -0.412341 0.747944 -0.636799 0.426600 -0.429900 -0.006090 0.723394 -0.389554 -0.445398 -0.410545 -0.368085 0.159535 1.157176 -0.131297 0.009781 0.436707 -0.034746 0.222015 0.386546 -0.325617 0.257643 -0.058317 -0.492159 -0.747000 -0.021499 -0.002044 -0.601628 -0.683368 -0.511586 0.308640 -0.313621 -0.524314 0.384007 -0.111986 -0.062856 -0.230888 -0.546806 -0.491051 0.262229 -0.489536 0.770868 0.449317 0.237899 0.199218 -0.562908 0.013344 -0.111384 0.033879 0.447058 0.743391 -0.354178 0.005580 -0.571638 0.596141 -0.695746 -1.522052 0.607857 -0.167402 -0.425485 0.488473 0.068545 -0.424111 -0.164064 -0.624165 -1.366566 0.248278 1.534060 0.085586 -0.050047 0.032807 -0.165380 -0.365823 -0.065563 0.629321 0.367653 -0.199811 0.151310 0.638884 -0.648373 0.810352 -0.262479 0.129966 0.685924 -0.349139 0.099835 -0.201929 -0.210396
tmp 0.116119 -0.568205 -0.229018 0.192023 0.501150 -0.045670 -0.075738 0.159577 0.381795 -0.252787 -0.083188 -0.932747 0.158406 -0.852937 0.379286 0.148180 -0.205236 -0.509857 1.101687 0.489877 0.941848 0.061418 0.727116 0.657277 0.115787 -0.295161 0.477372 0.185875 -0.736932 0.379276 -0.274568 -0.311621 -0.201178 -0.163183 0.391388 -0.404958 -0.012570 -0.348674 -0.440595 -0.189545 -0.807194 -0.706797 -0.058905 1.049874 -0.611811 -0.072166 -0.669867 1.094521 0.266687 0.486229 -0.279444 -0.322970 -0.292580 0.476553 -0.335532 -0.539903 -0.375472 -0.159310 -0.341397 0.376437 -1.112477 -0.227622 0.211582 0.287261 -0.034421 -0.442041 0.326514 -0.957912 -0.557232 0.486715 0.299240 -0.244606 0.351057 1.206999 0.000189 0.649534 0.123906 -0.172820 0.058010 0.143293 -0.525465 -0.301384 0.498290 0.862494 0.570754 0.340678 -0.207250 -0.319270 0.115563 -0.098840 0.275696 0.234513 0.405672 -0.316242 1.079516 -0.335078 0.817814 -0.715625 -0.320295 0.142389
bfs 0.224111 0.084614 -0.651037 1.072163 0.766749 -0.104834 0.067817 -0.101786 0.384127 -0.115025 0.185601 -0.869954 0.507585 0.009509 0.492260 0.284043 0.261453 0.194735 0.939089 0.427751 -0.296502 -0.077573 0.588171 -0.721052 0.132090 -0.155571 0.619447 0.712895 0.260450 -0.667180 -0.127202 -0.323773 -0.952089 -0.226023 0.701431 0.108178 0.122587 0.169835 0.403535 0.624783 -1.113120 0.063719 0.153655 0.228598 0.214778 0.843485 0.376563 -0.670391 0.433788 0.299280 0.158169 0.219261 1.118940 0.028970 -0.855773 0.103999 -1.030734 0.135234 -0.431384 -0.172261 0.211086 0.066734 0.245651 1.069209 -0.383095 0.203033 -0.627322 -0.775590 -0.027363 0.549275 -0.251254 -0.410964 0.365652 -0.595837 0.212773 -0.319935 -0.424434 -0.347141 -0.142091 0.439800 0.628745 -0.170767 0.050163 0.357612 0.555065 -0.557241 -0.033595 0.423636 -0.151009 0.259157 0.774607 0.047423 0.011227 -0.744891 0.734780 -0.188813 -0.684088 -0.623229 -0.191230 0.408280
quicksort -0.114566 0.580558 -0.180375 0.171691 0.442351 -0.958944 0.334262 0.016212 -0.056063 0.230382 0.127071 -0.459314 -0.069766 0.046129 0.441454 0.629081 -0.392580 -0.148499 0.167269 0.921461 -0.013395 -0.336427 0.160871 0.088894 0.487849 -0.195369 0.661914 0.336298 -0.347937 0.346370 0.376504 0.120500 -0.251474 0.264514 -0.408805 -0.431952 -0.688101 0.416681 -0.416722 0.807146 -0.372134 0.927352 0.898506 -0.237370 -0.445499 0.380715 1.043196 -1.073862 -0.255196 0.045715 -0.209011 -0.429869 0.502307 0.383870 -0.539841 0.454174 -0.892185 -0.665789 0.062984 -0.113907 -0.542927 0.176599 -0.085168 0.250974 -0.117195 -0.447140 0.211560 0.471767 0.178692 -0.127335 0.243357 0.507724 -0.094147 0.600004 -0.327637 0.165458 -0.007139 0.035340 0.565317 -0.332202 -0.105312 0.296546 0.390640 0.416137 -0.424902 0.203298 -0.321266 -0.233829 -0.105645 -0.657059 0.471716 -0.057710 0.255194 0.032575 0.337021 0.622411 -0.147999 -0.066871 0.012437 -0.197604
top 0.180906 -0.218507 0.078155 -0.018468 -0.265893 -0.533770 -0.161534 -0.472694 0.808261 -0.154678 0.599549 -0.420176 -0.069889 -0.596213 0.013729 0.481927 -0.194251 -0.418957 0.466958 -0.037542 -0.762131 -0.367529 -0.883985 0.092546 0.356788 0.256150 -0.119836 -0.226504 0.678237 0.545157 0.258074 -0.476549 -0.687837 -0.667830 -0.061083 0.128576 -0.305422 0.189166 -0.905041 0.094457 -0.533905 -0.671399 0.312764 0.209929 -0.520546 0.008503 -0.127496 -0.153100 0.207036 -0.812847 -0.377061 0.485931 0.615891 1.079406 0.055344 -0.524036 -1.075046 -0.489312 -0.004342 -0.412144 -0.368092 0.118386 0.356550 0.605505 0.632965 0.079894 0.150913 -0.872373 -0.340811 1.250720 -0.240410 0.106011 -0.184483 0.578551 -0.098906 0.720844 -0.506682 -1.197301 -0.009939 0.948985 0.011762 0.354188 -0.674168 0.754648 0.468944 0.268459 0.365461 -0.186885 -0.207458 0.213804 0.593629 -0.310619 1.024274 -0.826034 0.423821 0.181797 -0.059848 0.102764 -0.543195 0.849454
true 0.190594 0.394460 -0.762015 -0.142430 0.587786 0.119088 0.516409 -0.269344 0.449077 0.173544 -0.032289 0.056819 0.688377 -0.309190 0.412667 -0.023087 0.231986 0.861593 0.720462 -0.593257 0.334853 -0.728300 0.142161 -0.204912 -0.199154 -0.129630 -0.249960 -0.039613 0.374779 0.941168 -0.277278 0.183788 -0.278523 0.137959 -0.099682 0.683958 -0.160094 -0.718083 -0.170842 0.060596 -0.474864 0.989874 -0.237724 -0.204545 -0.685961 0.824565 -0.641327 0.356429 0.628121 -0.439579 0.825851 -0.570205 -0.561801 0.005411 0.129833 0.194693 -0.508206 -0.450118 -0.285145 -0.155865 -0.401555 -0.000985 0.299831 0.249180 0.195807 -0.082561 0.044919 0.433049 -0.127857 0.376423 -0.685650 -0.274280 0.057869 0.069115 0.391264 0.577766 0.022025 -0.578845 0.694536 -0.097565 -0.539789 -0.391471 -0.381954 0.335270 -0.653139 0.167123 -0.550737 0.374842 0.274103 0.557663 0.524320 0.425834 0.298988 -0.403217 0.542520 0.997761 0.035157 -0.368162 -0.198892 -0.275683
knapsack 0.596848 0.690497 -0.251563 0.814815 0.108875 0.559388 0.025369 -0.139354 0.368848 -0.121297 0.671630 -1.226333 -0.412669 -0.182457 -0.382817 0.231937 0.268591 0.250372 0.806671 0.686667 0.148766 -0.906853 -0.040266 0.615485 -0.600220 -0.025702 0.408056 0.090591 -0.122314 0.613069 0.406024 0.036122 -0.649094 0.079476 0.079776 -0.030776 0.221430 0.446755 -0.415908 0.151244 -0.444557 0.621619 -0.548168 -0.186891 -0.333832 0.578210 -0.119648 -0.716643 0.794389 -0.092176 0.301967 -0.122495 -0.375315 -0.074128 -0.515969 0.259061 -0.717160 0.208842 -0.398061 0.074514 -0.514071 -0.048693 0.978195 -0.514895 -0.325367 -0.146914 0.169535 -0.476370 0.581506 -0.978847 -0.195608 0.421378 0.438653 -0.713375 0.235351 0.885504 0.584840 -0.079890 0.361743 0.436755 0.503880 0.797912 0.261796 -0.180606 -0.305893 -0.672547 -0.088051 -0.192610 -0.445358 -0.152333 -0.611989 -0.216632 -0.017579 0.371125 -0.757434 0.058242 -0.811302 0.077300 -0.773217 -0.144974
it -0.245542 0.745647 -1.711860 0.639264 1.344755 -0.190336 0.539240 -0.322562 -0.362021 -0.295721 0.945814 -0.629713 0.207702 -0.864619 1.062596 0.958372 0.350552 -0.109764 -0.039412 0.088741 -0.046412 -0.818197 -0.610203 -0.501027 -1.085974 0.846604 0.745984 0.676087 0.502664 0.796451 0.122013 0.457303 -0.283454 -0.202508 0.358277 -0.658167 0.103786 -0.636937 -0.686716 0.080830 -0.537653 0.744775 0.463887 0.220515 -0.001787 0.399457 -0.389124 0.268660 -0.224525 -0.005168 -0.172345 -0.932270 0.429532 0.172200 -0.144760 -0.231676 -0.062783 0.069614 0.583979 0.466419 0.043673 0.317992 0.221806 -0.472384 -0.679783 1.626815 -0.510686 -0.453805 -0.205943 0.300716 0.252326 0.670801 -0.258286 1.268674 0.087333 0.288104 1.252725 -0.426650 -0.414195 0.715991 -0.225686 -0.476227 -0.495500 0.463502 -0.044335 0.010282 -1.075042 -0.025737 -0.535081 -0.634745 -0.183038 0.101214 0.252201 -0.134586 -0.477535 0.615054 -0.737307 0.030182 0.032454 0.727768
string 0.710828 -0.200688 -0.742923 0.985299 0.547039 -0.241767 0.620735 -0.115950 0.540992 -0.068949 -0.078352 0.222127 -0.019724 -0.536650 0.402138 0.348436 -0.113496 0.547628 1.035771 0.093532 0.380689 -0.360307 -0.372200 -0.433988 0.183345 0.432541 -0.385201 0.409992 -0.845742 -0.121634 0.924362 0.105022 -0.339939 -0.329283 0.451758 -0.207780 0.356823 -0.293598 -0.406567 0.691319 -0.321038 -0.220965 0.892339 0.760851 -0.111383 0.161857 0.061389 -0.636357 0.502334 -0.517599 0.693362 -0.022071 0.326530 -0.018651 -0.575710 0.065219 0.365119 -0.403431 -0.893600 0.003910 -0.520983 -0.553061 0.247462 -0.768579 -0.192011 -0.888426 -0.106229 0.693438 0.376792 0.242190 0.345678 0.754503 -0.369451 0.506461 -0.910471 -0.875713 -0.158143 0.119548 -0.068450 -0.174051 0.275126 -0.399427 -0.206419 -0.383850 0.026397 0.159201 -0.415505 0.288504 0.171859 -0.724544 0.218252 -0.446638 0.829346 0.218831 0.316063 -0.514399 -0.446064 0.059736 0.248860 -0.144996
w 0.117182 -0.464062 -0.206933 0.822117 0.098794 -0.272051 -0.194096 -0.422316 0.214992 -0.243691 0.671275 -0.132331 0.797360 -0.782316 0.013264 0.172897 -0.279038 -0.034494 0.582719 0.976180 0.660242 -1.265493 0.671836 -0.322964 -0.016869 0.011138 1.685181 -0.486854 -0.114745 0.315071 0.389449 -0.461004 -0.404103 0.164035 -0.150877 0.281519 -0.301668 0.080773 -0.320035 -0.712007 0.020300 -0.034687 -0.064647 -0.101009 -0.291679 0.692105 -0.965860 -0.495445 0.550882 0.102794 0.128026 -0.079835 -0.144427 0.576618 -0.052978 -0.086591 0.098826 -0.421459 0.445052 -0.755324 -0.507191 0.458738 0.162088 0.089410 0.226667 0.557009 0.321043 -0.130816 0.673692 -0.411994 -0.036245 -0.258861 0.389940 0.163354 -0.421748 0.314544 0.457985 1.363624 0.975952 0.127972 -0.225868 0.423805 0.255683 0.000716 -0.653797 0.921350 -0.620479 -0.307111 -0.348108 -0.347139 0.697675 -0.399639 0.094730 0.195745 -0.380688 0.845721 0.033354 -0.321163 -0.663405 -0.392015
char -0.025517 0.997694 -0.590530 0.059051 -0.336295 0.636087 -0.402450 -0.612346 0.690770 -0.372699 -0.191954 0.016386 -0.586435 -1.002189 -0.084414 0.121985 -0.025237 -0.778875 0.350561 0.518519 -0.048659 0.158315 0.312370 -0.053696 0.412402 0.699316 -0.012340 -0.582374 0.174846 -0.096497 0.102393 -0.795386 -0.791966 -0.411687 0.742351 0.471615 -0.228990 -0.380587 -0.663060 0.479984 -0.371543 0.049943 0.180156 0.061086 0.072236 0.439278 -0.678236 -0.950546 -1.410543 -0.818354 0.137004 0.393465 0.109292 -0.242192 0.398863 -0.319593 -0.641848 -0.661268 -0.385615 -0.489585 -0.694790 -0.375434 -0.256887 -0.092922 0.459566 -0.153799 -0.315713 -0.097059 -0.304989 0.911547 0.667607 0.588170 0.076693 -0.182574 -0.505266 0.319528 0.600336 0.532395 0.007943 -0.336086 -0.015509 0.365807 -0.345578 0.146562 0.951873 0.436812 -0.123130 0.735731 0.202573 0.071253 -0.201333 -0.844097 -0.399811 0.374590 0.240808 -0.095792 0.541950 -0.261275 -0.288059 0.003090
array -0.001304 0.695310 -1.134874 -0.025715 0.062466 -0.120024 0.135872 0.313311 -0.013376 0.417205 0.199249 -1.186134 -0.311982 0.094662 -0.242940 1.421106 0.068700 -0.339979 0.046819 0.525414 0.355509 -1.163916 0.121176 0.221404 0.590981 1.039869 0.677598 -0.177662 0.722174 0.566242 -0.031066 -0.154013 0.044525 -0.724058 -1.144513 -0.373956 -0.276310 -0.492658 -0.246368 0.371351 -0.794298 0.104083 0.647527 -0.525804 0.232592 0.164084 0.542357 0.412719 1.078298 -0.275890 -0.062841 0.720778 0.305736 -0.560201 -0.459064 -0.826655 -0.359346 -0.492290 -0.035181 0.204598 0.928217 -0.255292 0.182526 0.384911 0.491726 -0.177961 0.823344 -0.322886 -0.335822 0.686480 0.337867 0.151745 -0.307797 -0.114782 0.119407 -0.254610 0.000880 0.156054 0.743714 0.159739 0.057807 0.556320 0.862877 0.221307 -0.072404 0.370657 -0.370264 -0.688459 -0.167022 -0.348949 0.322899 -0.167353 0.418082 0.872291 0.872701 0.918570 -0.017242 0.186847 -0.283441 -0.415756
pop 0.253698 0.010547 -0.092238 0.103488 -0.010345 -0.554836 -0.006932 0.319113 0.102025 0.262804 -0.198038 -0.140157 0.544263 -0.690565 -0.378607 -0.214321 0.265864 -0.238638 0.286094 0.626966 -0.460308 0.142903 0.070576 -1.065344 0.715239 0.057753 -0.204671 -0.150711 0.146203 0.658802 -0.295403 -0.146423 -0.937802 0.008433 0.041699 -0.054770 0.369555 -0.141162 -0.501537 0.360931 -0.518910 -0.775311 0.712622 -0.290285 -0.647899 0.592124 -0.502378 0.042817 0.813753 -0.722989 0.548197 0.124685 -0.233422 0.775406 0.550338 -0.093738 -0.255448 -0.224512 0.245979 -0.561643 -0.793938 -0.097058 -0.686055 0.011140 0.205944 -0.137122 0.085724 -0.769770 -0.023723 0.634874 -0.137798 0.057281 0.047662 0.061924 -0.120858 1.049190 -0.572127 -0.435594 -0.049196 0.355001 0.237147 0.019057 0.789056 0.449383 1.009460 0.655141 -0.462060 -0.285775 0.404537 0.401886 0.954948 0.167802 0.310405 -0.528040 -0.033519 0.339976 -0.426447 0.058158 -0.448035 -0.468640
unsigned 0.656194 0.232261 -1.034394 -0.095060 0.455889 0.211585 0.098155 0.261720 1.142830 -0.987020 -0.715484 -0.107015 0.062441 -0.697343 0.178625 0.425195 0.265252 -0.361988 -0.118710 0.318692 -0.564200 -0.433479 0.213988 -0.294910 0.795230 -0.123740 0.142812 -0.096647 0.114170 0.055187 0.216978 -0.422903 -0.492900 -0.051038 0.130418 -0.054794 -0.179005 -0.727135 0.034712 -0.366529 0.055613 0.322045 -0.556246 -0.231123 0.401062 -0.070158 0.862633 0.567763 -0.507863 0.071621 -0.405513 -0.340402 0.045646 -0.237949 -0.525440 0.462201 0.617400 -0.195043 -0.545666 0.160082 0.231802 -0.119811 -0.130944 -0.375663 -0.382187 -0.106646 0.119058 -0.805637 -0.466590 0.643231 -0.506843 0.518073 0.525067 -0.650743 -0.666620 0.840997 -0.320209 -0.859077 0.710314 -0.316720 0.008037 0.800983 0.126113 0.666159 -0.201415 -0.485439 0.070520 0.122178 0.758612 0.561874 0.440650 -0.082976 -0.254700 0.567304 0.145865 0.533344 -0.136658 -0.276614 -0.428925 0.053025
prev 0.213130 0.173887 -0.542096 0.149351 0.255045 0.377868 -0.035807 -0.459205 -0.414275 -0.367577 1.020027 -0.548517 0.340549 -1.191844 0.159811 -0.014860 -0.751193 0.865550 -0.054012 -0.016549 -0.398760 -0.878828 -0.161386 -0.692518 1.016189 0.961607 0.439173 -0.313224 -0.311931 -0.082683 -0.791355 -0.497562 0.597573 -0.463625 0.287766 0.601885 0.319433 -0.412217 0.102899 0.424563 -0.222771 -0.177306 0.668672 -0.495461 -0.431481 0.418095 -1.256382 1.020966 0.198261 0.119558 -0.380274 0.311546 0.144757 -0.193414 -0.543797 -0.030464 -0.171928 0.615561 -0.538200 -0.378267 -1.530314 0.220722 0.930532 0.177972 0.358770 -0.624320 -0.114493 -0.658528 -0.091631 -0.205059 -0.123456 -0.027255 -0.143849 0.235678 -0.079159 -0.303370 -0.534267 -0.479512 -0.356778 -1.218090 0.987044 -0.289659 0.214534 0.857027 -0.620412 -0.328426 0.149111 -0.100353 0.124244 -0.409808 0.405986 0.382760 -0.279666 0.343033 0.717729 0.002295 0.011312 -0.325705 -1.078743 0.177295
len -0.708948 0.101764 -0.787446 0.360844 0.018953 0.316197 0.641942 0.332710 0.321431 -0.086798 0.003000 0.498533 -0.375261 -0.875553 0.689851 0.391252 -0.586256 0.026199 0.566452 0.148519 0.214769 0.050911 -0.003092 -0.098151 -0.140698 0.521109 0.442892 -0.229806 -0.350897 0.574371 0.319544 -0.296946 -1.380539 0.748306 -0.220815 0.392298 -0.125034 -1.309219 0.138913 -0.030289 -0.299148 0.579861 0.258581 0.295670 0.010488 -0.542260 0.874486 0.092253 0.947668 0.718637 -0.123425 -1.413083 0.770466 0.151842 0.107598 0.499209 0.257269 0.545267 0.138361 -0.309533 -0.423539 0.036969 0.451574 -0.151795 0.133237 -0.251701 0.535449 -0.437454 -0.856319 -0.296721 1.624834 -0.365472 0.365065 0.667492 -0.273291 -0.458311 -0.394891 0.247277 1.252597 -0.276958 0.292214 -0.062744 -0.252243 1.172771 -1.028962 0.063811 0.326417 0.675843 0.299431 -0.927268 -0.255213 -0.643797 -0.403391 -0.879150 0.697964 0.222708 -1.009591 -0.418388 -0.561175 0.258470
list -0.478933 -0.591780 -0.478332 -0.230265 0.568302 0.137866 -0.646733 0.260096 -0.670213 -0.015340 0.620162 -0.394030 -0.454774 -0.378854 0.666175 -0.820520 0.392239 -0.193280 0.698891 -0.109434 -0.547653 -0.803829 0.410794 -0.544593 0.698145 0.490058 -0.301732 -0.146798 -0.577228 0.594210 0.031638 0.841492 -0.428370 -1.343030 -0.294246 -0.440428 0.414702 -0.555128 -0.188916 0.408661 -0.367610 0.159396 0.147080 0.361203 -0.027257 -0.415813 -0.144163 -0.428599 0.091242 0.004799 -0.241446 -0.163942 0.452554 0.613908 -0.603032 0.208350 0.183158 -0.533621 0.032161 -0.598797 -0.528523 0.620186 0.611777 0.407107 0.335347 -0.095839 0.234774 -0.259318 0.367189 -0.292975 0.043386 -0.264449 0.213400 0.422238 -0.077421 0.472607 0.468054 0.131132 0.768260 -0.136423 -0.749749 0.116726 0.303831 0.930679 0.140227 -0.018307 0.200488 -0.499362 -0.122238 -0.984849 -0.286009 -0.605272 -0.562675 0.056657 0.858951 0.370413 -0.178920 -0.054906 -0.160011 0.393870
get 0.406359 0.037157 -1.265321 -0.367986 0.475464 -0.619110 0.578215 0.211607 -0.657524 -0.582800 -0.755863 0.369528 0.434262 0.211863 0.109864 1.364206 -0.308225 0.661972 0.229458 0.278560 -0.421789 -0.185199 0.339702 0.332079 0.013511 0.512474 0.028897 0.301967 0.322792 0.336985 -1.233001 -0.156410 -0.903083 0.728457 -1.247339 -0.128180 0.223091 -0.086781 0.434548 0.535370 -0.679051 0.519917 -0.102476 0.743359 -0.963796 0.248433 0.348899 -0.252513 -0.389587 1.739839 -0.198451 -0.206523 -0.714150 -0.545359 0.248564 0.072329 -0.153757 0.034440 0.342955 -0.269062 -0.559679 0.374038 0.082002 0.249334 -0.413851 0.137119 -0.246853 -0.622440 -0.238690 0.275479 -0.219286 -0.969551 -0.619391 1.100190 -0.544554 0.218419 0.400287 0.233369 1.513216 0.813093 0.060536 -0.374633 -0.613955 -0.117314 -0.202129 0.143894 1.766056 -0.605601 0.056055 -0.221008 -0.005690 -0.677600 -0.771559 0.701979 0.529437 1.066565 -0.312874 -0.168224 -0.333659 -0.305121
iterator -0.053556 0.028026 -1.051746 0.386315 0.272540 -0.610513 -0.615533 0.410149 0.377209 -0.977542 0.553259 -0.132731 0.254914 -0.684128 0.471022 0.382590 0.152875 0.086664 -0.384697 0.566071 -0.777656 -0.603617 -1.130173 -0.081076 -0.057295 1.160934 -0.187721 0.385884 -0.209980 0.245552 0.255939 0.453235 -0.602916 -0.514106 0.038572 -0.474689 -0.493595 -0.220832 0.211238 -0.123809 -0.440357 -0.368765 -0.202064 0.317411 -1.188350 0.185958 0.208710 0.749151 0.715796 -0.302799 0.613118 -0.130630 0.856172 0.377324 -0.388232 -0.631913 -0.031350 -1.301034 0.830475 -0.461128 0.307229 0.473099 0.043428 -0.025896 -0.098349 0.184947 -0.703932 -0.148696 -0.055673 0.056355 -0.982557 0.159680 0.720344 0.270373 0.205588 0.084732 1.588426 -0.646455 0.448639 0.224454 -0.063154 -0.392555 -0.430181 0.032458 -0.214928 -0.431786 -0.238866 0.854011 -0.235523 -1.300927 -0.267000 -0.205084 0.218241 0.641780 0.786015 0.692457 -0.032022 -0.164385 -0.680430 0.162138
iostream 0.626652 -0.751914 0.233565 -0.291959 0.086544 0.169148 -0.498435 -0.457743 0.174546 0.427917 -0.165869 -0.188971 0.895283 -0.889425 -0.320819 0.131719 0.311876 -0.462746 -0.002211 0.724991 -0.214046 -0.271368 -0.299552 -0.413590 0.874090 0.476770 0.846550 0.436290 -0.442352 0.883741 -0.457863 0.041788 -0.545444 0.020478 -0.291937 -0.465524 -0.642159 -0.008027 -0.590227 0.345835 0.096344 0.570083 0.618433 0.513170 -0.435700 0.363395 0.009830 -0.158761 -0.645268 0.276715 -0.225210 -0.115966 0.074271 0.477301 -0.438253 -0.255074 -0.279559 -0.197170 -0.469704 -0.124681 -0.480196 -0.272322 0.381926 0.324524 -0.487384 -0.323401 0.198581 0.207010 0.461893 0.246442 0.231389 0.947763 0.787503 -0.337714 -0.168748 -0.295616 -0.084411 -0.257904 0.316331 0.805237 0.119539 0.215014 -0.044150 0.282505 -0.403594 0.228908 0.115370 0.372884 -0.096735 0.436538 -0.128239 -0.721467 -0.253956 0.356226 0.317952 -0.054753 -0.580026 -0.729693 0.122990 -0.122773
hpp 0.435914 -0.341881 -0.386448 0.090836 -0.195880 -0.770896 -0.312153 -0.895890 -0.065228 -0.904550 0.054680 -0.631397 1.541700 -0.991279 -0.236996 0.927166 0.198939 -0.593236 0.486821 0.718270 -0.307674 -0.913279 -0.600673 -0.609348 1.361045 0.920180 0.022462 0.442935 0.058496 -0.249685 -0.586126 0.326827 -0.624388 0.529010 -0.109726 -0.221863 -1.009161 -0.020908 -0.198716 0.606532 0.698420 0.490598 -0.633749 0.907201 -0.089857 0.230009 -0.194354 -0.334476 -0.920698 -0.301009 0.435218 0.233305 0.789580 -0.244883 -0.037395 -0.253823 0.522184 0.142270 -0.210542 0.688614 0.166855 0.439502 0.849996 -0.526084 -0.412410 0.685475 0.121973 -0.211313 0.770241 0.370085 0.827339 -0.094215 0.412124 -0.233466 -0.256823 -0.946273 -1.093096 0.326359 0.703946 0.710854 0.283499 0.073110 0.258624 0.732785 -1.318260 0.576436 0.561374 -0.922574 0.312426 -0.168829 -0.078181 -0.424914 -0.627122 -0.211871 0.901072 -0.657310 -0.500265 -0.839220 -1.144604 -0.836054
front 0.223464 -0.464884 -0.693583 0.925671 0.687733 -0.730950 -0.610383 -0.048767 -0.695013 -0.367371 -0.445038 -1.002928 0.375017 -0.736473 0.110963 0.293048 -0.082924 -0.033780 1.281201 0.302707 0.062749 -0.566217 -0.699404 0.040392 0.990078 0.191320 0.460055 -0.289669 0.066317 -0.091781 0.181351 0.225604 -0.697075 -0.378685 -0.195476 -0.309968 -0.452347 0.315385 -0.498800 0.029078 -0.757383 -0.515867 0.321350 -0.382545 -0.211552 0.254119 -0.339545 0.126821 0.072434 -1.016544 0.415245 0.522677 0.310857 -0.164331 0.061485 -0.161352 -0.279140 -0.057644 0.324281 -0.306804 -0.622238 0.333299 0.051420 0.496133 1.061177 0.438305 0.816608 -0.593948 -0.072205 0.126988 -0.293941 0.364137 0.146721 0.967994 -0.480302 0.811100 -0.662377 -0.572725 -0.451551 0.414042 0.586341 0.361595 -0.039635 0.289962 0.958332 0.263443 -0.714178 0.409263 0.593829 0.406925 -0.246269 0.260316 0.610201 -0.453670 0.549035 -0.129913 0.036511 -0.197114 -0.013678 -0.338482
item 0.743372 -0.105036 -0.262582 -0.851820 0.343823 0.706539 0.387808 0.549092 0.718231 1.142480 -0.552471 0.114774 -0.751594 -1.340305 -0.014135 0.546816 -0.381813 0.243928 1.007081 0.620192 0.108374 -0.625614 -0.139950 0.552056 -0.156771 0.025805 0.612619 0.317396 0.024172 -0.722807 -0.064502 -0.529429 -0.788069 -0.454641 -0.344289 0.783844 -0.293910 -0.168063 -0.210341 0.146587 -0.531475 -0.473231 0.023022 0.012235 -0.073656 1.152885 0.255700 0.539557 -0.253856 -0.351070 0.488333 -0.323706 -0.731508 -0.253521 0.252453 -0.255872 -0.393692 0.201472 -0.065965 0.336030 -0.532568 0.530301 1.324924 -0.138711 -0.712418 -0.169500 0.268627 -1.269867 0.608053 -0.396564 -0.414704 0.405265 0.526574 -0.099447 -0.107119 0.299951 -0.876123 0.310080 0.041996 -0.080390 0.356719 -0.251269 0.347745 0.415658 0.061509 0.308648 -0.558441 -0.778539 0.167825 -0.520326 -0.786576 0.046637 0.182804 -0.651119 0.715461 -0.020608 -0.623890 0.217998 -0.279323 0.463900
m head -1.010432 0.043201 -0.603777 0.446645 -0.201688 0.375933 0.468073 -0.311449 -0.077909 -0.556514 0.792396 0.131865 0.206812 -0.847429 0.181379 0.348813 -0.262522 0.607649 0.907499 0.498150 -0.550597 0.362447 -0.078455 0.725207 0.058173 0.285989 0.036480 -0.204743 0.162225 0.125993 -0.303735 -0.449336 -0.561114 0.212859 0.823612 0.216203 -0.679867 -0.349457 -0.003903 0.500942 -0.161752 0.198673 0.235432 -0.528095 -0.169309 0.301941 -0.164001 0.545883 0.922319 0.200019 0.053580 -0.975643 0.011145 -0.048071 -0.137879 0.352223 0.013884 -1.259612 0.335045 -0.673615 -0.348602 0.253751 -0.001677 -0.082986 0.040387 -0.574837 -0.007925 -0.131930 -0.902682 0.745347 1.336945 0.182433 0.298032 1.050614 -0.876960 0.032329 -0.262415 0.234676 0.736653 -0.075879 0.070367 0.167255 -0.506078 0.063702 -0.293389 -0.327194 0.690572 -0.668769 0.432640 -0.043614 -0.222587 -0.492348 -0.013426 0.386312 0.440919 -0.459598 -0.668428 -0.046090 -1.216843 0.544694
insert 0.207080 0.543008 0.224007 -0.559587 -0.252468 -0.666753 -0.020024 -0.608079 -0.298841 -0.066156 0.101300 0.406332 0.066722 -0.870818 0.939126 -0.231088 0.550781 0.392778 0.130192 -0.216676 0.351235 -1.045246 0.227746 -0.361606 -0.024816 1.408278 0.044095 -0.081024 -0.373056 0.650397 -0.301860 -0.526133 -0.157542 0.316974 -0.020884 -0.595752 -0.175504 0.415688 0.344182 0.104589 -0.372970 -0.301102 -0.085787 -0.270990 -0.308536 0.556783 0.493945 -0.102460 0.719972 -0.239099 0.095921 0.060137 -0.330773 0.323984 -0.485898 0.302131 0.280448 -0.201607 0.009281 -0.539811 -0.208102 0.721916 0.599954 0.519014 0.374926 -0.652802 0.264162 -1.068009 0.839856 0.232611 0.360617 0.623007 0.545389 0.142639 0.601770 1.260987 0.309267 -0.246697 0.924953 0.107631 0.642204 -0.173245 0.467845 0.076049 0.475756 -0.544774 -0.146231 0.509894 0.161142 0.217077 0.870296 -0.786867 0.152133 0.182011 0.216441 0.058611 -0.107379 -0.794155 -0.593074 -0.266789
status -0.284503 0.175427 -0.274968 1.087373 0.262780 -0.466149 0.337097 0.522492 0.059543 0.604488 0.141582 0.192554 0.041617 -0.380897 -0.648340 -0.155823 -0.159437 0.262416 0.913445 0.429585 -1.104753 -0.390321 -0.481640 -0.121402 0.095725 1.136513 0.753520 0.299522 -0.346821 -0.280477 -0.268401 -0.365129 -0.075936 -0.061187 -1.115032 0.188363 1.097464 0.350896 -0.718984 -0.098729 0.156618 0.770516 0.723248 0.324917 -0.732937 0.063222 0.578106 -0.411604 -1.050142 1.270762 1.144517 -0.001754 -0.690663 -0.410304 0.248164 0.738725 -0.184986 -0.554711 0.109131 0.599075 -1.151675 0.571870 0.306819 0.113625 0.188548 1.005663 0.857349 -0.230604 -0.939725 1.192429 0.087986 0.281033 0.877448 0.675784 -0.232059 0.199840 0.599788 0.159888 1.017947 0.828315 0.930996 0.233812 -0.336902 0.622753 -0.207218 -0.680921 0.141717 -0.159316 0.364061 0.437536 0.343301 0.167136 0.774446 0.198100 0.304862 -0.857105 0.689776 -0.225929 -0.215695 -0.141398
length 0.751899 -0.000262 -0.203773 -0.572649 0.126282 0.193827 0.858369 0.030071 1.044022 0.143065 0.214006 -0.208654 -0.128693 -0.973528 0.412450 -0.249289 -0.217878 0.352935 -0.194239 -0.061315 -0.386531 0.487439 -1.341575 0.210273 0.489261 1.063748 -0.172374 -0.265820 0.144416 0.393723 0.056435 -0.398897 0.064663 -0.191048 0.015458 0.172229 0.054666 -0.044519 1.121978 -0.151235 -0.236207 0.612371 1.373978 0.533913 0.142243 0.356281 0.113130 0.592937 1.218127 0.042121 -0.575149 -0.487125 0.055052 -0.325998 0.728926 0.145856 0.826827 -0.910608 0.602974 0.624935 -1.210016 -0.121659 0.043172 -0.224020 -0.135868 0.076456 0.507617 0.033696 -0.137756 0.213135 0.134764 1.077166 -1.115946 0.651752 -0.304299 0.387705 0.071704 -0.012685 0.538783 0.563752 0.226084 0.478535 -0.243915 0.872108 0.160348 -0.409398 -0.555315 0.178962 0.194699 0.103376 -0.261139 -0.229025 -0.377461 0.156866 0.910565 0.414579 -0.192193 -0.457401 -1.483318 -0.984729
main 0.165477 0.285270 0.126491 -0.081281 -0.047773 -0.271951 0.211189 -0.552110 0.694796 -0.122539 -0.209717 -0.170774 0.298987 -0.143160 0.748978 0.721279 -0.168226 -0.680364 0.299137 0.606114 1.256402 0.004647 0.069398 0.311671 0.474855 0.339932 0.971763 0.104755 -0.480412 0.999688 -0.573219 0.058837 -0.531378 -0.219327 -0.296524 0.221373 -0.389998 0.213217 -0.132607 0.623101 -0.057081 0.668029 0.432753 -0.429959 -0.583861 0.174594 -0.422227 -0.829205 -0.351456 0.233915 -0.174892 0.523949 -0.086214 0.376887 0.001841 -0.266816 -0.058214 -0.192930 0.049945 -0.404986 -0.785974 -0.196113 0.231981 -0.374945 -0.326465 0.383618 -0.219649 -0.758830 -0.430460 -0.069002 -0.084526 0.653490 0.079777 -0.101254 0.006139 0.429995 0.664886 -0.389542 -0.108690 0.215820 -0.073199 0.028955 0.524206 -0.391273 -0.295411 0.309951 0.514790 0.020420 0.229643 -0.126744 -0.094034 0.428978 0.548932 0.109281 0.763510 0.277743 -0.318998 -0.427754 0.405725 0.193419
swap 0.278024 0.331343 -0.019390 -0.421171 1.070752 -0.215743 -0.614353 0.003163 -0.285253 -0.281889 -0.513433 -0.361517 0.441596 -0.718943 0.252685 0.737795 0.062081 -0.007627 0.146267 -0.429513 -0.213933 0.377095 0.475566 0.479400 0.144237 0.727778 -0.099941 0.275091 0.023322 0.778304 -0.466257 0.327061 -0.166965 0.816808 0.472611 -0.152905 -0.547260 -0.178467 -0.180454 0.519377 -0.793122 0.257050 0.230652 -0.035775 -0.347342 0.710755 0.584482 0.108984 0.631455 -0.028934 0.667623 -1.205762 0.014529 0.707694 -0.613433 1.326835 -0.684745 -0.610164 -0.241742 -0.405174 -0.813873 0.283980 -0.602485 1.131540 0.492318 -0.165013 -0.008590 -0.388768 -0.989945 0.643305 0.257689 0.641457 0.230597 -0.416508 -0.502623 0.172397 -0.658723 0.380208 1.176847 0.435920 0.517474 0.193277 0.198448 1.051296 -0.215509 0.427018 0.572678 0.104985 -0.489494 -0.132000 -0.556721 -0.083233 0.273502 0.382193 0.359164 1.727663 -0.222096 0.280671 0.221996 -0.153154
first -0.570648 0.143568 -1.048841 0.373161 -0.120428 -0.143178 -0.297185 0.179318 0.558861 -0.055904 0.495102 -0.554696 0.056650 0.051803 -0.739911 0.136515 -0.392170 0.365062 0.206217 -0.280232 -0.204350 -0.645463 0.140215 0.006764 0.333266 0.770609 0.182501 0.925290 -0.458529 0.850686 -0.076618 -1.041467 0.911160 0.454448 0.103922 -0.461534 0.584460 -0.677512 0.413639 0.339468 -0.417041 -0.562110 0.461677 -0.094742 -0.472893 0.498907 -0.770214 -0.601145 -0.090133 0.047760 -0.105451 0.194908 0.172532 0.139861 -0.267082 -0.416499 0.211251 0.198806 1.081475 0.200260 -1.016204 1.177756 0.654775 0.372070 0.012354 -0.380767 -0.871078 -0.013713 0.087652 0.104296 -0.486936 0.234527 -0.429599 0.552263 -0.914000 0.198162 0.413565 -0.137708 -0.099252 0.287742 0.209181 -0.194333 0.057043 0.747368 -0.568911 0.230038 -0.273968 0.808290 -0.631775 -0.122755 -0.124635 -0.223819 0.669722 -0.313490 0.252837 -0.319528 -0.030598 0.636227 -1.031379 0.842678
color -0.357727 -0.575029 -0.783512 -0.196333 0.914968 -0.973849 0.072063 0.218636 -0.161372 -0.432400 -0.033707 -0.420454 -0.053954 -0.591200 0.737258 0.183262 0.377942 0.250881 0.594766 0.654208 -0.942641 0.106436 -0.661476 0.418102 0.666572 -0.025661 1.017766 0.683875 0.180647 0.138604 -0.393791 -0.893827 0.235432 -0.675943 -0.970895 -0.513962 -0.478643 -0.197867 -0.216833 -0.103700 -0.747863 0.071427 0.545236 0.644383 -0.498705 -0.383872 -0.208752 -0.902357 -0.197757 -0.086670 -0.404395 -0.832788 -0.736628 0.568094 -1.061035 -0.080280 0.865916 -0.645921 0.260339 -0.970458 -0.087676 0.525550 0.319279 -0.056531 -1.215597 -0.308737 0.001103 -0.692143 0.326839 0.153557 -0.005929 -0.173419 0.219656 0.234537 -0.543562 -0.549320 -0.026183 0.863284 0.464208 0.932317 -0.447181 -0.380371 0.252748 -0.122774 0.376344 -0.405195 -0.008683 -0.329752 0.821059 0.467925 0.661049 -0.645902 -0.676272 0.255672 0.065764 0.279660 0.342076 -0.600285 -0.454615 -0.302735
id 0.917448 -0.033526 -0.861748 -0.541602 -0.071814 -0.932487 -0.137570 -0.179152 -0.082732 -0.803659 0.492373 -0.776309 -0.155852 -0.567956 -0.362779 -1.123370 0.044440 -0.069560 0.977563 0.227363 0.345461 0.176805 0.078741 0.090081 -0.138286 -0.136274 -0.354830 -0.011291 0.004504 0.228774 0.069282 0.398976 0.206009 -0.025179 0.053366 -0.718979 -0.025989 -0.705710 -0.085744 -0.861903 -1.021265 0.080776 0.591908 -0.291770 0.385643 0.464761 -0.064392 -0.818321 0.315835 -0.189329 0.378170 0.297021 0.076401 -0.930342 -0.181473 -0.124397 -0.547491 0.140464 0.135468 0.136025 -1.089757 0.303717 -0.143358 0.433669 -1.877522 0.168406 -0.420455 -0.424461 -0.050548 1.075502 0.089852 0.617816 0.143640 0.162784 0.080636 0.650015 -0.174139 0.430305 0.632481 0.139894 0.932961 -0.387902 -0.185523 0.089689 -0.234566 -0.098934 -0.414232 0.410978 -1.663802 -0.593978 0.199571 -1.069039 0.037173 0.286274 0.549484 0.632717 -0.240721 -0.411481 0.193325 -1.105080
o -0.163621 -0.078668 -1.124646 0.361459 -0.701582 0.956526 1.191188 -0.390549 0.639200 0.814610 0.992431 -0.558244 0.063259 -0.875003 -0.322185 0.271061 0.574359 -0.418360 1.141801 0.855485 -0.383317 -0.234963 0.152353 0.425176 -0.619811 -0.277724 0.831145 -0.297502 -0.761152 -0.374735 -0.615496 -1.144844 -0.385379 0.569294 0.105834 0.094558 -0.091459 -0.226154 0.035184 0.515412 -1.026431 -0.442103 0.466761 -0.383518 0.328011 0.177415 0.170600 0.314819 -0.722301 1.281965 -0.060468 -0.120606 0.292889 -0.304929 -0.430327 -0.038036 -1.455179 -0.578266 -0.194036 -0.840146 -0.130631 -0.002725 0.177430 0.481327 -0.397729 -0.190283 0.352588 -0.578132 -0.109772 0.163465 -0.736892 0.265924 -0.360625 1.047123 -0.975671 0.475722 -0.431376 0.707080 -0.051366 0.548422 0.535443 -0.643527 0.712502 1.004580 -0.502502 0.452010 -0.641349 0.035388 -0.035636 -0.261007 0.687126 -0.241707 0.096346 -0.793927 0.410138 -0.246133 -0.490651 -0.025611 -0.529414 0.274152
cin 0.843906 -0.424025 0.478208 -0.052466 -0.070579 -0.118976 0.423952 0.074967 0.750264 -0.393421 0.109063 0.515434 -0.534423 -0.330109 0.652245 -0.391715 -0.361567 0.397818 0.501652 0.170337 1.044436 -0.749318 0.039020 -0.107918 -0.110764 0.169672 1.165684 -0.038344 -0.139733 0.615193 -0.320814 -0.040106 -0.647820 -0.200547 0.165230 0.527896 0.089976 0.088327 0.021179 1.081097 -0.112043 0.027639 0.706574 -0.122373 -0.293681 1.112440 0.096471 0.631609 -0.080367 0.178931 -0.372831 -0.155440 -0.158594 0.118455 -0.271396 0.287975 -0.964724 -0.788240 -0.364632 0.366688 -0.493575 0.274938 -0.170002 -0.491196 -0.634243 -0.117540 -0.122991 -0.589231 0.331288 -0.767709 0.293345 0.652005 -0.511313 -0.445381 -0.601422 -0.054524 0.126718 -0.043036 0.295295 1.050100 -0.048915 0.065805 0.146708 0.513317 -0.350375 0.702916 -0.050884 -0.062853 0.201546 -0.085626 0.343461 -0.730372 0.599108 0.684619 0.572780 0.278104 -0.380207 0.254864 -0.191363 -0.193387
result 0.288099 1.375343 -1.257944 0.268706 0.233306 0.270215 0.153201 -0.245754 -0.617637 0.461304 -0.351442 -0.757901 0.364674 0.019062 -0.437084 0.806165 -0.037610 -0.028543 0.341685 0.540731 0.034908 -0.628203 -0.060355 0.010743 0.378373 0.368295 0.430974 -0.518485 -0.429317 0.775080 -0.018680 0.174871 -0.286355 0.148442 -0.388479 0.755854 0.458961 -0.304706 0.662345 -0.741786 -0.323590 -0.088860 1.179656 0.164659 -1.113942 0.354639 -0.198259 0.845180 -0.213646 -0.523655 -0.451518 0.459078 0.776914 -0.680612 0.771907 -0.113597 -1.201292 0.315018 -0.570877 -0.738735 -0.985848 0.233317 0.498832 -0.326396 0.252131 -0.919048 0.109601 0.816631 -0.474905 0.522473 -0.033899 -0.062180 -0.204058 -0.836165 -0.719179 0.433435 0.103353 0.184095 0.803149 0.951896 -0.530085 -0.588557 0.580849 -0.342286 0.640953 0.332764 0.400628 0.266998 0.256148 0.460246 0.736135 0.557047 -0.142502 -0.424286 0.611666 -0.682452 -0.592451 -0.907399 -0.087879 0.187216
boost check -0.558785 0.496603 -0.568194 0.429804 -0.166334 0.093622 -0.616599 -0.925368 -0.304105 -0.069660 -0.876749 -0.248800 -0.116029 -0.336926 0.453627 0.481283 0.554040 1.270538 -0.049747 0.786119 -0.497860 0.144318 -0.024648 0.247841 0.171412 0.296887 0.735535 0.053624 -0.086025 0.354296 -0.308203 -0.389053 -0.714155 -0.039860 -0.800800 -0.354717 0.191513 -0.988448 -0.455182 0.447319 -1.068449 0.794170 -0.105902 0.118431 -1.174144 -0.044185 -0.056216 -0.872123 0.168387 0.661403 -0.619900 0.224088 -0.873254 0.201037 -1.237666 0.061525 -0.105925 -0.710199 0.851072 -0.447545 -0.868373 0.128167 0.671771 -0.484676 -0.562762 -0.866451 0.127562 -0.506869 0.006090 0.236367 0.090259 -1.787838 0.713526 0.781197 -0.017152 -0.473828 -0.708683 0.795627 0.509907 1.211525 0.059832 0.078555 0.191323 -0.233506 1.030722 -0.342209 -0.121880 -0.279248 0.593078 0.329478 0.961489 -0.782287 0.063919 0.858300 0.572215 0.357894 -0.214197 0.543018 -0.292107 -0.783859
typedef -0.200664 -0.353557 -0.730345 0.170162 0.803428 -0.098800 0.212578 0.087626 0.341317 -0.328183 0.704022 -0.829623 -0.525561 0.201321 -0.047976 -0.038566 -0.496353 -1.010234 -0.465022 1.025386 -0.934910 -0.583141 -0.436687 -1.542505 -0.279802 0.861556 -0.188091 0.171878 -0.664493 0.703206 -0.636924 -1.124615 -0.272075 -0.398711 0.824589 -0.240145 -0.008517 -0.236374 -0.390135 0.822915 0.585031 0.417213 0.918118 -0.187889 -0.667258 -0.028465 0.112639 -0.628166 0.642986 -0.611420 -0.010828 -0.363052 0.124103 -1.011405 -0.341376 -0.193391 0.028122 -0.141423 -0.172891 -0.396306 -0.225784 0.377413 0.212887 -0.232347 -0.383298 -0.149359 -0.423594 -0.307359 1.015526 0.956349 0.090583 -1.048039 0.598273 -0.287296 -0.818286 -0.692769 0.478360 -0.051558 1.024404 -0.093785 0.377799 0.493321 0.703430 0.446892 -0.932360 0.509757 0.025079 0.179628 0.554769 -0.323772 0.626690 -0.113656 -0.710640 1.133647 0.066740 0.286701 0.440148 -0.160320 0.078271 -0.021140
free 0.123268 -0.024927 -0.623747 0.556862 -0.480676 -0.099767 0.516765 -0.217404 1.735080 -0.514474 0.185924 -0.621621 0.400373 0.250574 0.800781 0.482281 0.642691 0.596434 0.276449 0.481888 -0.378987 -0.450045 -0.325383 -0.901893 0.361199 0.990309 0.060619 -0.408194 1.073640 0.162248 -0.397395 -0.008822 -0.184469 -1.066628 -0.568696 -0.175649 0.662995 0.241501 0.800830 -0.079649 -1.261131 -0.294751 0.244689 0.846822 -0.719548 0.480839 -0.236510 0.091195 -0.523992 -0.071862 -0.543429 0.077688 0.091321 0.396911 -0.392561 1.348068 -0.091705 -0.830582 0.501507 0.071105 -0.771557 -0.545883 0.184232 -0.058741 -0.175492 0.103441 0.280704 -0.351961 -0.549526 0.577074 -0.273345 0.410483 1.135587 0.342291 -0.447091 0.124591 -0.296699 0.627766 -0.287114 0.348045 0.441332 0.382788 0.774377 0.156191 -0.155007 0.452078 0.476831 -0.413016 1.016893 -0.258930 -0.900128 0.828453 -0.910582 -0.188034 1.065168 0.085591 -0.134781 -0.547114 -0.502158 0.531520
c 0.067878 0.483407 -0.548687 0.565673 0.097636 0.126265 0.279441 0.502177 -0.562605 -0.632167 -0.281292 0.335005 0.239323 -0.011140 -0.255985 0.582204 -0.576839 -0.806170 -0.083390 0.691581 0.938626 -0.538230 -0.560923 -0.470888 -0.259289 0.918186 -0.000477 0.396579 -0.822507 0.020563 -0.178496 0.184613 0.353968 -0.253442 0.410114 -0.032523 -0.416699 -0.271670 0.589590 0.421264 -0.621788 -0.044663 0.424324 1.165012 -0.924253 0.207424 -0.328163 -0.629163 0.163844 -0.161775 0.557574 -0.168152 -0.076805 0.415113 0.152950 0.724521 -0.897357 -0.240186 0.287838 -0.973557 0.160793 0.410682 -0.229039 0.420305 0.237352 0.274649 -0.180728 -1.323473 -0.245345 0.265923 0.341353 -0.292062 -0.299359 0.671488 -0.574944 0.085665 0.380416 0.507589 0.721071 -0.387986 0.357435 0.290822 -0.246068 -0.124384 -0.559623 0.051473 -0.050394 0.733907 0.159141 -0.260330 0.568474 -0.389987 0.245143 -0.298822 0.390482 0.475385 0.822047 -0.110269 -0.332669 -0.733753
