1954 100
public -0.185063 0.117985 -0.212736 0.029089 0.176716 0.151278 0.020063 -0.029574 0.070306 0.406928 -0.087723 0.319553 0.399617 0.238080 0.355854 0.209699 0.101626 0.029256 0.090538 0.299155 -0.185700 0.376388 0.307512 -0.276754 0.224476 0.137003 -0.049093 0.024555 0.115300 0.666626 0.220784 -0.162068 0.229097 -0.073745 -0.326444 -0.162767 -0.241914 -0.344493 0.227893 0.151013 -0.051345 0.112179 -0.112645 -0.048140 -0.176372 0.251401 -0.114434 0.160320 0.022342 0.175001 0.231950 0.244710 0.044920 -0.045236 -0.047957 0.010431 0.043614 -0.033823 0.003389 -0.147403 0.019817 -0.179463 -0.078193 0.305375 -0.183748 0.210827 -0.069247 -0.267948 -0.120135 -0.208761 -0.067773 0.553231 -0.163188 0.457084 -0.206299 -0.333573 -0.336047 -0.365718 -0.315418 0.333727 0.234884 -0.160298 0.381702 -0.034128 -0.016778 -0.206396 -0.241078 -0.216326 0.094578 0.030115 0.401266 0.132570 -0.041622 -0.080962 0.418408 -0.175372 0.079373 -0.001011 -0.018061 0.453187
static 0.052218 0.022507 0.375883 -0.069223 0.101974 -0.201606 0.027193 -0.292769 -0.086112 0.019348 0.040301 -0.152363 0.151178 0.394731 0.404585 0.032411 0.272864 -0.083802 0.260381 -0.283986 0.157846 0.061556 0.199125 -0.035276 0.283434 -0.110739 -0.131070 0.268076 0.004067 0.389274 -0.025277 -0.125656 0.232982 0.091097 -0.315242 0.010161 -0.193362 -0.255144 0.149875 0.312173 -0.166289 -0.171250 -0.416354 -0.141723 -0.209097 0.082375 0.101941 0.221470 0.044618 0.139619 0.365370 0.282172 0.072717 0.206676 -0.127315 0.170020 0.157031 -0.047002 0.171630 -0.285418 -0.024173 0.041394 -0.154720 0.563248 0.075489 -0.091737 -0.057640 -0.078769 0.074949 -0.121896 -0.085987 0.280353 -0.141091 0.249095 -0.333719 -0.070594 -0.252781 0.027978 -0.137714 0.066536 0.032418 0.131016 0.142482 0.080262 -0.135714 0.115446 0.106558 -0.226736 0.234963 -0.027169 0.013244 0.191753 0.055564 0.144972 0.097044 -0.040329 0.162004 0.199455 -0.230966 0.118141
final 0.110557 0.274352 0.202478 -0.447538 -0.033131 -0.042978 0.017268 -0.295639 -0.124572 -0.003469 0.165550 -0.299039 0.319647 0.197553 0.745787 0.188389 -0.044808 -0.068478 0.230424 -0.708770 0.248040 -0.088647 -0.084991 0.053103 0.620001 0.092949 -0.316297 0.131830 0.129066 0.053185 -0.039601 0.058432 0.347345 -0.214108 0.141675 0.071662 -0.059716 0.054773 0.349451 0.213749 -0.189037 -0.031757 -0.207871 -0.073443 -0.101687 -0.024621 -0.003460 0.029965 -0.031379 0.010040 -0.107936 0.138830 0.090864 0.018400 0.149559 0.036973 -0.138272 0.010745 0.160875 -0.258826 0.063719 0.100433 0.175374 0.038328 -0.151083 -0.155854 -0.137959 -0.373685 -0.375775 0.235244 0.096094 -0.074641 0.261160 0.360655 -0.277480 0.083053 -0.238364 -0.144244 -0.208466 0.198308 -0.254138 0.065537 0.262926 0.210694 0.261037 -0.019686 0.046933 -0.492658 0.101417 -0.256990 0.088140 0.214320 -0.160093 0.088402 0.192767 -0.043490 0.020642 -0.061197 -0.675453 -0.067329
string -0.422553 0.164030 -0.216367 0.118903 0.294126 -0.188235 0.297771 -0.172996 0.122325 0.424907 -0.102954 -0.051397 0.245929 0.217244 0.170717 -0.123497 -0.022722 -0.129184 0.205601 -0.219517 0.138688 -0.429650 0.010348 -0.312511 0.321138 0.058862 -0.387933 0.291387 -0.144917 0.407347 0.012103 -0.127984 0.148371 -0.181692 -0.434179 0.255487 -0.270520 -0.179631 -0.090547 0.068668 -0.021060 -0.350417 -0.101173 0.353874 -0.312073 0.264049 -0.248911 0.026926 -0.014462 0.105266 0.303335 0.374199 0.096058 0.325121 -0.211207 -0.136860 -0.059520 0.000656 0.071565 -0.033476 -0.176029 -0.364726 -0.290373 0.335581 0.023942 -0.332492 -0.185258 -0.306375 0.090243 -0.190166 -0.051401 0.372519 -0.261684 0.393113 -0.052632 -0.220198 -0.212937 -0.087456 -0.269169 -0.240088 -0.130228 -0.101942 0.283652 0.089778 0.101925 -0.108376 -0.114409 -0.268313 -0.100393 -0.059493 0.197182 0.342331 0.035684 0.125152 0.263808 0.064821 0.137778 -0.000903 -0.403623 0.101673
dfs 0.206880 0.592917 0.141600 -0.280098 -0.362658 -0.062361 0.624779 -0.113724 -0.009686 -0.081749 0.430956 -0.483044 0.239492 0.162906 0.628344 -0.025233 -0.268722 -0.049376 0.211611 -0.621306 0.313345 -0.018528 -0.399475 0.011897 0.788826 -0.027927 -0.248358 0.268952 0.048593 0.016674 -0.334288 0.464420 0.271296 -0.575086 -0.095828 -0.129498 0.198621 0.179258 -0.018386 0.186010 -0.249432 -0.076235 -0.421251 -0.081912 -0.217636 -0.067705 0.018092 -0.183428 -0.037607 -0.123594 0.059224 -0.055042 0.235040 0.126485 0.079391 -0.092099 -0.165034 0.024290 0.262643 -0.286709 0.104972 0.193572 -0.082669 0.072138 -0.078200 -0.200914 0.038360 -0.042833 -0.463504 0.127864 -0.105743 0.214067 0.422755 0.100613 -0.198420 0.440376 -0.249207 0.113403 -0.175257 -0.092123 -0.450274 0.080026 0.211656 0.709851 0.558293 -0.342883 0.015461 -0.489329 -0.025712 -0.296145 0.100543 -0.006119 0.108613 0.217477 0.249172 0.054069 0.289465 -0.006673 -0.369434 0.277151
int 0.206574 0.116278 0.021819 -0.388785 0.462213 0.070265 -0.110771 -0.301785 0.229475 0.556744 0.139645 0.327633 0.438910 0.373898 0.252264 0.427581 0.311330 0.297086 -0.052696 0.532899 0.112255 0.095400 1.036206 -0.274794 0.005307 0.209355 -0.049705 0.219612 0.199012 0.521261 0.886917 -0.503943 -0.063561 0.220851 -0.201319 0.103353 0.005847 0.124021 0.227303 0.451481 0.362898 0.078426 -0.549898 -0.308786 -0.201128 -0.066028 -0.688532 0.024495 0.653592 -0.176265 0.605919 0.478658 -0.726578 -0.095124 -0.257776 0.031991 -0.041555 -0.377209 0.199708 0.195617 -0.132788 0.291407 -0.190414 0.188692 0.362428 0.161627 -0.130686 0.301371 -0.112480 0.522402 -0.125404 0.613347 -0.115976 0.716484 0.287226 0.136673 -0.174173 0.093925 -0.078357 -0.136861 -0.494161 -0.453940 0.592164 0.477125 -0.237767 -0.680679 0.013091 0.588153 0.369414 0.422121 -0.022676 0.153426 -0.084893 -0.067815 0.346476 -0.655554 0.043621 0.083936 -0.304857 -0.049974
namenode 0.529986 0.975549 -0.089798 0.058979 -0.652567 0.403655 0.719087 -0.613156 -0.021246 0.090602 0.801268 -0.080112 0.299029 0.009552 0.587355 0.385682 0.412286 0.448838 0.342614 -1.081658 -0.570985 -0.706703 -0.444853 0.768317 0.519732 -0.298429 -1.401249 0.339031 -0.110253 0.244598 0.203563 0.174374 0.353070 0.148553 0.540782 0.041767 0.591644 -0.035703 -0.121301 -0.208638 -0.189460 -0.338236 0.487984 -0.434434 -0.444525 0.455792 -0.064393 -0.306742 -0.085554 -0.431067 -0.041952 0.241106 0.532220 -0.133702 -0.048444 0.128374 -0.195466 0.224313 -0.289697 0.065403 -0.277477 -0.102525 -0.001047 0.327131 -0.322318 0.039777 -0.435186 0.290034 -0.592556 -0.153950 -0.321077 -0.453705 0.272343 -0.289916 -0.258531 0.460038 -0.146797 -0.272881 -0.259525 0.202958 -0.485753 0.012557 0.411951 0.520762 0.354115 0.062161 -0.296682 -0.313419 -0.120730 -0.461268 0.080174 0.004691 -0.222074 0.392993 0.721887 -0.489921 -0.419284 0.581868 -0.491303 0.617832
datanode 0.382244 -0.218540 -0.547319 -0.526093 -0.023325 -0.354529 0.475072 -0.160490 0.606088 -0.492953 0.112985 -0.511002 0.434071 0.305479 0.980748 1.308431 -0.188459 -0.951221 -0.031959 -0.308965 0.432259 -0.865560 -0.533633 -0.806765 0.680886 -0.171602 0.227608 0.349986 0.584078 -0.611441 -0.039908 -0.216032 0.475137 -1.007131 0.255727 -0.175918 -0.307293 0.487862 0.008952 0.616876 -0.196126 -0.502019 0.061910 -0.495566 -0.365187 -0.313216 -0.583224 -0.386628 -0.344283 0.042522 0.042700 0.626176 0.404442 0.155588 0.630173 0.416289 -0.091961 -0.292039 -1.052990 0.123832 0.200083 0.755503 -0.057632 -0.642229 0.194067 0.074517 -0.352997 0.275413 -0.366270 0.733900 -0.267303 0.411531 0.302990 0.522547 0.007326 0.120171 -0.893928 -0.384641 -0.226583 -0.107340 0.232384 0.520440 0.289411 0.471033 0.668215 0.243068 0.700059 -0.351433 0.503400 0.543233 0.048114 -0.032688 -0.110468 0.157693 -0.332861 -0.023483 0.583067 -0.119489 -0.515559 0.298904
long 0.006961 -0.035170 0.478046 -0.313135 -0.682237 0.172418 0.118421 -0.201653 0.042138 0.148959 -0.013381 -0.132740 -0.347928 -0.246565 -0.350251 0.686336 0.765619 -0.176387 0.575072 0.167578 0.089019 -0.385955 0.393143 -0.199407 0.776360 0.400231 0.240313 -0.258749 -0.542477 0.293613 -0.459328 0.371392 0.080510 -0.381753 0.542309 0.136515 -0.643363 -0.829955 0.583818 0.600168 0.159449 0.697169 -0.118723 -0.596610 0.029581 -0.708711 -0.061971 -0.467421 0.290219 -0.108163 -0.592412 0.343775 -0.261675 1.402344 -0.013564 0.003141 -0.094408 0.240334 0.090384 0.652012 -0.845941 -0.095936 -0.169012 0.646157 0.022396 -0.436190 -0.150641 -1.044156 -0.538256 -0.256904 -0.685874 0.286578 -0.003732 0.218898 0.448504 -0.004457 -0.149234 -0.384456 -0.608602 0.408385 -0.352962 0.368500 0.720205 0.254005 0.027035 -0.216438 0.678139 0.598928 -0.189026 -0.304232 0.326117 -0.100585 -0.525681 0.124425 0.089541 -0.502373 0.649206 -0.063024 -0.592433 -0.288639
boolean 0.271778 -0.497400 -0.126750 -0.999407 -0.473539 0.398045 -0.181799 -0.311938 -0.081322 0.856820 -0.330146 0.224950 -0.398418 0.576947 0.682423 0.196271 0.336371 0.323534 -0.027575 -0.515393 0.450895 -0.017841 -0.077442 -0.534096 0.455879 -0.185750 0.608453 -0.089135 0.295620 0.701418 1.309629 -0.329712 -0.618341 0.742847 -0.504347 -0.631071 -0.705181 0.055539 -0.496372 0.164058 0.960950 -0.146401 0.115220 -0.660356 -0.547181 0.874919 -0.234947 -0.090786 0.016938 -0.032110 -0.248795 0.230126 -0.259678 0.327848 0.230418 0.270153 -0.176316 -0.624791 0.792770 -0.353375 0.220294 -0.169124 -0.376381 0.041652 0.032993 -0.152325 0.130355 -0.045651 -0.508245 -0.610122 0.092170 0.292756 -0.091263 -0.014379 0.258393 -0.379191 -0.645500 -0.347543 0.118054 1.051192 -0.217530 -0.112748 -0.028368 0.412777 0.043303 -0.622076 -0.836625 -0.284780 -0.383615 0.063273 -0.071347 -0.284972 -0.070012 -0.063195 0.187279 -0.208878 0.192155 0.235581 -0.221889 0.470759
new -0.603285 0.034259 0.234862 -0.008546 -0.375944 -0.380925 -0.024175 -0.457831 0.648958 -0.424123 0.148934 0.134230 -0.129944 0.441661 -0.004815 0.708431 0.486604 -0.246649 0.520502 0.549260 0.404876 0.439888 0.660343 -0.116373 0.670565 0.872375 -0.526911 0.354563 0.103958 0.427280 0.566953 -0.279219 -0.045602 0.877148 -0.018497 0.345927 -0.300280 -0.122995 0.165854 0.147750 -0.242165 -0.536946 0.157647 0.379533 -0.144582 0.059600 0.112539 0.428147 0.116744 0.147603 0.187576 0.096702 -0.345152 -0.328349 -0.086521 -0.370519 -0.142398 0.162925 -0.128917 0.214312 -0.338675 0.015514 0.078161 0.344056 -0.023159 0.456579 0.418605 -0.326549 0.148759 -0.158346 0.199217 0.804051 -0.442091 0.653217 -0.475418 -0.397371 -0.165060 -0.513123 -0.008030 -0.152515 -0.637315 -0.290195 -0.267348 0.369118 -0.451658 -0.624224 0.023818 -0.370044 -0.584537 0.232212 0.401848 0.578485 -0.002573 0.493696 0.288530 0.194865 0.107396 -0.022533 -0.214155 0.172905
client -0.224029 0.680843 -0.965394 -0.607020 -0.236101 0.816214 0.416167 -0.396270 -0.038124 0.459929 -0.111916 0.628847 0.055723 -0.753763 0.556743 -0.130068 0.031405 -0.456464 -0.634117 -1.038511 0.171434 -0.128795 0.119610 -0.004779 0.869454 -0.330928 -0.138162 0.530134 -0.001773 0.441963 0.022735 -0.237310 0.146728 0.143089 0.524612 0.090954 -0.407228 0.423451 0.777442 -0.307957 -0.230668 -1.061464 0.270325 0.193531 0.607107 -0.637508 0.225881 -0.456474 0.514425 -0.999075 0.303896 -0.625549 0.165990 -0.204256 0.844983 -0.259323 -0.150141 0.595253 0.516035 0.114225 0.936645 0.369498 -0.462360 0.334146 -0.136484 -0.251659 0.171911 -0.057862 0.742305 -0.335402 -0.158176 0.000968 0.484152 0.541122 -0.178859 0.850307 -0.651608 -0.412749 -0.582555 0.179955 -0.234253 0.490269 0.148711 0.724310 0.202665 -0.105008 0.281273 -0.815623 0.515599 0.206794 0.032544 -0.517260 -0.171830 0.468807 0.044730 -0.223615 0.102699 -0.790389 -0.060472 0.541914
import -0.183732 0.291217 -0.269257 0.037808 -0.120662 0.379677 0.158121 -0.593071 0.183681 0.415182 -0.117303 0.770502 0.515927 0.183285 -0.164293 0.726477 0.042096 -0.622508 -0.204487 -0.662964 0.824507 -0.218019 0.055261 0.672244 0.078669 0.505005 -0.443685 -0.400670 0.286486 0.139864 0.007936 -0.271554 1.188025 0.345870 0.009548 -0.060636 -0.023352 -0.397720 0.121352 0.390357 -0.365970 0.373705 -0.389964 0.309452 -0.259108 -0.294253 0.361354 -0.569998 0.387332 0.128747 0.295892 0.223196 -0.129951 0.204443 -0.815436 0.276382 0.353172 -0.668679 0.257913 -0.407377 0.853131 -0.551311 0.370352 0.448836 -0.034272 -0.044803 -0.201553 -0.061417 0.164550 -0.232626 0.045622 0.582655 0.052790 -0.191968 -0.074487 -0.566048 -0.665152 0.039340 -0.721886 0.172918 -0.101053 -0.179916 -0.261954 0.005420 -0.438705 0.078403 0.057940 -0.496491 0.636511 0.211215 1.054360 1.162277 0.088702 -0.718632 1.215291 0.240214 0.511584 -0.338121 -0.523726 0.680979
void -0.335954 0.207251 -0.283127 0.139806 -0.055944 0.262075 0.342306 0.431239 0.202821 0.687893 -0.023837 0.465499 0.623902 -0.153486 0.215324 -0.520839 0.677776 -0.110586 0.581315 0.323582 0.206860 0.075082 0.508179 -0.236557 0.565492 0.242503 -0.316278 -0.337575 0.601105 0.279057 0.371778 -0.147580 0.278040 -0.220341 0.180748 -0.216635 -0.568469 -0.227865 -0.165943 -0.840499 -0.002700 -0.127944 0.148065 -0.284674 -0.283746 0.773056 -0.366862 0.647013 0.478496 -0.046093 0.630118 0.710230 0.361861 0.152784 -0.166387 0.021274 -0.434453 0.490922 -0.019323 -0.067265 0.081622 0.212966 0.479004 0.416643 0.369726 -0.085223 0.359356 -0.215589 0.445959 0.216695 -0.162991 0.364864 -0.422763 0.307218 -1.136696 -0.830934 -0.702666 -0.455293 -0.355893 0.444946 -0.419586 -0.131435 0.429384 -0.223217 -0.033209 0.205404 0.055073 0.961118 -0.175681 0.066758 0.419665 0.147836 0.301029 -0.116460 0.465865 -0.239383 0.290152 -0.420656 0.006323 0.948162
address 0.211125 0.533053 -1.061996 -0.266779 -0.082824 -0.232631 0.760093 0.098331 0.331406 -0.318879 0.454982 -0.754708 -0.519946 -0.257798 0.624889 1.051805 0.518548 -0.773330 0.021967 -0.893484 0.074552 -0.686111 -0.030824 0.199505 0.211300 0.378065 -1.075262 -0.345301 0.037793 0.176909 -0.495211 0.018943 0.704909 -0.490475 0.117166 -0.314317 -0.138381 0.886284 0.878910 -0.367796 0.158583 0.614976 0.000859 -0.354195 -0.726639 -0.370335 -0.921993 0.195269 0.871734 -0.099755 -0.101063 0.114277 0.065222 -0.213227 0.353497 -0.363004 0.196313 -0.228759 -0.045262 -0.772103 0.088827 0.385599 -0.379315 0.130804 -0.772334 0.324975 0.276486 -0.191292 -0.434047 0.191682 -0.393341 -0.488177 0.059338 0.365643 -0.469443 0.022065 -0.179131 0.267494 0.197552 0.344421 0.232671 0.195812 0.092936 0.333212 0.772226 -0.547438 0.039309 0.126441 0.307060 0.704954 -0.510708 -0.141043 0.288058 0.747669 0.111428 -0.186720 -0.276171 0.501319 -0.232058 0.740440
return -0.038358 0.504419 -0.249877 0.093280 0.481261 0.043197 0.051345 0.274743 0.373676 0.169702 -0.139643 0.707557 -0.119465 0.111156 0.355866 0.477869 0.082611 -0.022161 0.245977 0.516204 -0.081694 0.341597 -0.017908 -1.146729 0.570516 -0.135652 -0.106728 0.094978 0.688847 0.357009 0.778385 -1.403513 0.094456 -0.173071 0.124446 0.296275 -0.383418 0.431666 -0.027756 0.063404 0.459704 0.039483 0.074009 -0.477186 -0.350685 0.617112 -0.124789 0.378217 0.154695 -0.033271 -0.114161 -0.006400 -0.472506 0.234007 0.006064 0.198027 -0.260554 0.032971 -0.037063 -0.157048 -0.485173 -0.108142 0.258068 0.620808 0.046507 0.351598 -0.049124 -0.430295 0.188972 -0.661394 -0.083453 0.295985 -0.505988 1.047183 -0.534944 -0.178435 -0.133254 0.045305 -0.694356 0.940915 0.379487 -0.148389 0.771010 0.365824 0.322331 -0.589634 0.223122 -0.795435 -0.453347 0.400010 0.429285 -0.001516 -0.282405 -0.197429 0.162021 -0.437665 0.354599 0.124637 -0.284452 0.124325
i 0.980615 0.482080 -0.365606 -0.402298 -0.178978 0.185420 0.443963 -0.968596 0.096125 0.419052 0.408695 -0.011651 0.233346 0.072466 -0.469079 0.152273 -0.322085 0.565814 0.477414 0.347749 -0.125533 0.005735 0.277755 -0.391762 0.490625 -0.644353 -0.473675 -0.315194 0.440560 0.873105 0.770233 -0.600814 0.339604 0.500683 -0.762271 0.108265 -0.217374 -0.220752 0.007567 0.605073 0.074152 -0.233371 -0.419651 -0.130947 -0.027303 0.730908 -0.636407 0.074274 0.210174 0.148282 -0.047100 0.355952 0.001555 0.116158 0.248450 -0.382670 0.313079 0.033095 0.181899 0.083366 -0.325567 0.063491 -0.213724 0.149898 0.335544 -0.013792 0.358649 -0.325323 -0.180392 -0.130592 0.190069 0.193698 0.104219 0.656146 -0.014902 0.230967 -0.444358 -0.123551 -0.154440 0.109608 0.117269 0.325007 -0.313812 0.328954 -0.196805 -0.163837 0.253701 -0.074294 -0.240661 0.614033 -0.163719 0.289858 0.064172 -0.373306 -0.167526 -0.486471 -0.441881 -0.247686 -0.508661 0.560342
interval 0.448923 1.132611 0.217130 -0.826485 -0.427564 -0.806757 0.600125 -0.535136 -0.796034 0.210570 0.086748 -0.238558 0.536436 0.240715 -0.200892 0.812038 0.097397 0.042203 0.115895 -0.884262 -0.057723 0.126667 0.043031 -0.354549 1.198723 0.319811 0.350657 1.272655 0.179123 0.847820 0.194749 0.062467 0.234528 -0.019195 0.640721 -0.257610 -0.523965 -0.043578 -0.401776 0.738966 -0.433970 -0.367129 -0.262025 -0.598120 -0.333507 -0.604666 -0.011888 -0.374130 -0.009432 -0.222974 -0.387502 -0.001654 0.562660 -0.372635 -0.211599 -0.018961 -0.123672 0.281902 0.374101 0.358431 -0.041640 -0.253190 0.229170 -0.926816 -0.348305 0.122520 0.196962 -0.525796 -0.382433 0.442475 0.051436 -0.152110 -0.936687 0.138749 0.345909 0.107578 -0.211605 0.016545 -0.209148 0.282496 -0.314969 -0.294320 0.957742 0.367854 0.955489 -0.223579 -0.070334 0.423775 0.065098 0.280948 0.008391 0.309357 0.359284 0.013517 -0.246998 -0.043800 -0.509990 0.383225 -0.555093 0.082862
false 0.427105 -0.162439 -0.186648 -0.353165 -0.585718 -0.097226 -0.445935 -0.674556 0.170390 0.687781 0.113580 -0.229689 -0.229034 0.406536 0.638054 0.432292 0.354183 -0.082097 -0.112067 -0.111428 0.548008 -0.340077 0.106341 -0.256319 0.558518 0.404818 0.841605 -0.083246 0.063356 -0.013642 0.618422 -0.492585 -0.462884 0.404983 -0.072761 0.085563 -0.411525 0.365572 -0.035417 0.028847 0.356029 -0.239426 -0.153160 -0.618950 0.217370 0.776707 0.019228 0.245058 -0.006599 0.011240 -0.813504 0.319141 -0.119103 0.518603 0.144054 -0.255574 -0.139640 -0.148711 0.317120 -0.569417 -0.183240 -0.201971 -0.355381 0.150517 0.235701 -0.855989 0.239286 -0.306086 -0.142264 0.106876 0.248982 0.508686 0.542719 -0.307942 -0.066429 -0.164476 -0.727049 -0.319798 0.593751 0.363714 0.273565 0.014911 -0.204835 0.886094 0.259155 -0.135786 -1.393596 -0.013277 -0.021731 0.336529 -0.030065 -0.504791 -0.235661 0.385405 -0.027454 -0.095986 0.038345 0.224251 0.034363 0.841105
size -1.119103 -0.107691 0.433365 -0.344657 0.457522 1.042152 0.414925 -0.083532 0.018956 -0.066014 -0.420917 -0.570880 -0.070751 -0.875794 0.203815 0.324679 0.008210 -0.045086 0.191027 0.174729 0.275429 0.497171 0.673945 -0.112142 0.915178 0.306435 -0.300553 0.108907 0.083879 0.341328 0.666807 -0.425795 0.025311 0.406113 -0.763366 -0.430939 -1.128339 -0.106920 0.473688 0.066854 0.843080 0.505586 0.323860 0.292863 0.062251 0.076637 -0.269387 -0.118352 0.276776 -0.454026 -0.028206 -0.670484 0.761700 0.482151 0.661951 0.048096 0.111599 0.482432 0.279281 -0.843530 -0.136185 0.086540 0.250922 0.389168 -0.021608 -0.688186 0.302674 0.641349 -0.543742 0.249296 -0.446770 0.316767 -0.753446 1.159891 -0.211668 -0.471898 -0.406672 -0.243230 0.053728 0.160780 0.256513 -0.165743 0.202225 0.874060 -0.180871 -1.034557 0.172648 0.210622 -0.013728 0.825840 0.368133 0.106132 -0.220517 -0.119443 -0.558244 -0.630558 -0.394433 0.328274 0.309928 0.484002
https 1.059973 0.893517 -0.556729 -0.259863 -0.161493 0.126129 0.653579 0.546076 0.107773 -0.052456 0.009493 -0.104946 -0.407133 -0.439742 0.815749 0.382162 0.266072 0.301623 -0.492397 -0.542750 -0.064868 0.149200 0.450602 -0.219402 0.948084 -0.139751 -0.872735 0.399371 0.253170 0.410871 -0.142476 0.080638 -0.037951 -0.415943 0.710993 0.014037 -0.246315 0.621890 0.185890 -0.408375 -0.128664 -0.012071 1.201167 -0.185612 0.381930 -0.699047 0.035532 0.026674 -0.283850 0.734366 0.204184 -0.244662 0.382696 0.291150 -0.069570 0.473023 -0.039731 0.005345 0.504176 -0.399995 -0.005815 -0.440578 0.124189 0.347201 0.309932 -0.189983 0.302585 -0.599820 -0.393301 0.437408 -0.141510 0.374527 0.148529 -0.629576 -0.149405 0.075683 -0.474476 -0.582092 0.017892 -0.241121 -0.443826 -0.359474 0.045117 0.965031 0.583960 -0.119666 -0.308232 -0.814111 -0.686526 -0.056827 -0.836040 0.991967 0.095302 -0.446902 0.432961 -0.156491 0.137807 0.333606 -0.439614 0.531097
block 0.201748 0.547466 -0.308907 0.001149 0.009774 0.046712 0.669502 0.053662 0.019253 -0.012895 0.111028 0.076214 0.018440 0.457663 -0.266129 0.621415 0.282053 -0.009736 0.042182 -0.668051 0.020480 -0.582914 -0.893929 0.258078 0.444581 -0.344202 -0.538208 0.218164 0.878642 -0.088859 -0.194981 0.880002 -0.100535 -0.508055 0.537324 -0.290429 -0.710097 -0.163423 0.527548 0.653291 -0.472785 -0.436490 0.257910 0.488631 0.596026 0.389842 0.563466 -0.117715 1.825662 0.345748 -0.294387 0.245175 0.663977 -0.277598 0.687018 0.311182 0.124199 0.135601 1.133474 -0.512797 0.354238 0.162399 0.405532 -0.403519 -0.089630 -0.520067 0.159833 -0.232441 -0.158176 0.320262 -0.404533 0.864908 0.309581 0.233732 -0.343595 0.031825 0.395450 -0.316858 0.332425 0.331136 0.147719 0.102609 -0.114164 0.334275 0.379817 -1.529133 0.258167 -1.020938 0.131158 -0.667708 0.073391 0.059467 0.245112 0.156045 0.301530 -0.507738 0.150536 -0.200793 -0.448926 0.324239
class -0.604571 0.447123 -0.692197 -0.009669 0.394185 -0.248740 0.562009 -0.205932 -0.438491 -0.203318 -0.289018 0.246419 0.139092 0.263136 0.366930 0.458094 0.274386 0.190406 -0.243325 0.221165 0.788123 -0.454096 1.009331 -0.198826 -0.032908 0.190423 -0.349991 0.200820 -0.260232 -0.033049 0.224095 0.073489 0.677446 0.383154 -0.224726 -0.754119 0.089905 -0.835573 0.475244 0.155451 -0.187794 0.385477 -0.353720 -0.130916 -0.792522 0.386862 0.281313 0.561675 -0.353410 -0.264035 0.606280 -0.113862 -0.120429 -0.198442 0.553642 0.422415 0.187075 -0.960803 0.197902 -0.013257 0.125905 -0.566108 0.185847 0.555281 -0.193911 -0.114290 -0.394656 -0.129799 0.553930 -0.571690 -0.122794 0.291353 -0.147026 0.805063 0.182783 -0.532568 -0.376609 0.204743 -0.645056 0.663608 0.388617 -0.133097 0.575040 0.632083 0.155560 0.104645 -0.221370 0.194999 0.218269 -0.225293 0.414198 0.417640 0.610967 -0.360781 0.231662 -0.046179 -0.016387 -0.084112 -0.274758 0.721252
linkedlist -0.138670 0.636942 -0.639312 0.044018 -0.048743 -0.092640 0.624253 -0.281002 -0.276789 0.148776 0.049801 0.910432 -0.911795 0.073040 0.286511 0.105586 0.277614 0.474951 -0.141383 0.463235 -0.059838 0.087174 0.410066 -0.437786 0.907454 0.857196 -0.389448 0.320275 0.748332 0.722478 -0.386911 -0.084044 0.106193 -0.007717 -0.481892 -0.082022 -0.466873 -0.394044 0.083113 0.109055 0.208561 -0.234624 0.102957 -0.222367 -0.849422 -0.377120 -0.041221 0.271744 0.621603 0.288963 0.018984 0.763611 0.579243 0.733882 -0.557434 -0.698119 0.508447 0.026236 0.037828 0.054437 -0.303839 0.280848 -0.098106 0.717166 -0.220159 0.011372 0.420844 0.294334 0.153253 -0.734010 -0.382831 0.144596 -0.727259 -0.290569 -0.241299 -1.010229 -0.171011 -0.039705 -0.354705 -0.408899 0.414145 -0.584571 0.125275 0.717018 -0.215630 -0.257663 0.000917 -0.382919 0.400886 -0.309922 0.614271 -0.067608 0.369185 -0.038679 -0.019713 0.393270 0.086322 0.326123 -0.271269 0.178272
replication 0.194683 0.683530 -0.432873 -0.227903 -0.893139 0.333439 -0.034522 -0.337707 -0.756996 -0.783513 -0.249793 -0.363357 0.139914 -0.560993 -0.208063 0.319188 0.450640 0.091962 0.442712 -0.770309 -0.364754 0.346334 0.274406 -0.511873 0.298701 -0.386145 0.145345 0.581046 0.057958 0.204222 0.184036 -0.152218 -0.149805 0.034501 -0.144293 0.406473 -0.024644 0.377378 1.039275 1.127980 -0.610840 -0.294241 0.537382 -0.362473 0.028234 0.475994 0.881971 -0.290328 0.780260 -0.292644 -0.359310 1.019974 0.147684 0.211870 1.046873 -0.085666 -0.423271 -0.641916 0.216952 0.608785 -0.262990 -0.018892 0.399800 -0.150132 -0.528993 -0.221616 0.127302 -0.718192 -0.357448 0.816684 0.092793 -0.079440 -0.099234 0.777124 -0.573985 0.101509 -0.651427 0.121433 -1.268786 -0.510645 -0.949733 -0.149252 -0.215248 0.526904 0.299553 -0.708444 -0.222702 -0.234721 -0.000051 -0.588382 -0.234719 0.263440 0.602906 0.025931 -0.202872 -0.236267 0.191388 0.715411 -0.351110 0.704488
if 0.188733 0.549608 0.104306 -0.040555 0.207882 -0.073987 0.300508 -0.496946 -0.091728 0.630429 -0.058873 0.143967 -0.035593 -0.283136 0.142064 0.258848 0.193437 0.022757 0.303829 0.417886 0.630919 -0.135195 0.483474 -0.412506 0.314156 0.158586 0.131738 0.078537 0.326126 0.884028 0.633840 -0.163501 0.365548 0.056052 0.155970 0.375808 -0.288270 -0.233572 0.054047 -0.201136 0.275488 -0.228112 -0.001604 0.050986 -0.013334 0.534131 -0.821894 0.218326 0.515186 0.273617 -0.588750 0.111431 -0.068308 0.367226 0.504133 0.201416 0.043747 0.110336 0.007862 -0.377517 -0.335646 0.213511 0.237701 0.391944 0.008977 0.335428 -0.176738 0.253613 -0.495487 -0.457660 0.320876 0.654408 -0.421400 0.530993 0.177211 0.045703 -0.606427 -0.525791 -0.242130 0.355475 0.602001 -0.662693 -0.005358 0.284613 0.124966 -0.064719 0.200901 0.130472 -0.389248 1.001074 -0.051299 -0.106298 -0.770747 -0.152487 0.030352 -0.832927 0.398285 0.225235 -0.127446 -0.182573
org -0.023076 0.547289 0.071784 -0.138698 -0.603203 0.794748 -0.153404 -0.324698 -0.219326 0.828957 -0.408638 0.815577 0.066591 0.972239 -0.010536 0.609133 -0.271984 -1.008752 -0.018211 -0.570617 0.729133 0.184670 0.275355 0.905801 0.594267 0.272523 -0.569225 -0.147122 -0.010529 0.493912 -0.007425 -0.086359 0.093230 0.474246 -0.056605 -0.104214 0.231248 0.202643 0.121756 0.607908 -0.753697 0.191005 -0.350352 0.650212 -0.570804 -0.143893 0.988592 -0.892572 0.072735 0.172161 -0.106053 0.989351 -0.187398 0.547047 0.438183 0.460386 -0.351066 -0.574252 0.878950 -0.009176 0.317829 0.460570 0.341284 0.617491 0.357225 0.248919 -0.144909 -0.090497 -0.018034 -0.339459 -0.152033 0.480723 -0.228523 0.179439 -0.083835 -0.424190 -0.950162 -0.131787 -0.762648 -0.119116 0.525837 -0.191637 0.113138 0.019949 -0.032816 0.041161 -0.516109 0.296280 0.423538 0.537234 0.531193 1.174336 0.246264 -1.038899 0.895500 0.331510 0.093167 -0.332065 -0.241663 1.099775
max 0.453544 0.132038 -0.437647 0.334448 -0.033912 0.256901 0.503023 -0.317097 0.069643 0.673382 -0.046153 -0.129069 -0.435970 -0.770392 -1.061762 0.744919 0.191360 0.450104 0.295891 0.068521 0.772036 -0.226380 0.405306 -0.510627 0.421490 0.546500 -0.646057 -0.497232 0.062852 0.469779 0.621595 0.239258 0.459988 0.146571 -0.164760 0.288432 -0.237080 0.042445 0.200699 0.538155 0.257266 -0.436159 0.035085 -0.339125 -0.234836 0.283924 0.334947 0.678697 1.116531 0.068455 -0.302789 -0.286288 0.077310 0.544671 -0.046532 0.220533 -0.226083 -0.824114 -0.024650 -0.894166 -0.934179 1.039015 0.016341 0.249839 0.062577 0.209659 -0.223523 -0.196167 -0.277158 0.873044 0.153501 0.768500 -0.012394 -0.228239 0.401963 0.498671 -0.066158 0.618535 -0.309691 -0.565739 -0.602273 0.387901 0.206128 0.624395 0.580059 0.089874 0.227214 -0.693483 0.708757 -0.487728 -0.508539 -0.666006 -0.685116 0.188598 0.064085 0.151986 -0.468949 0.689813 -0.152757 -0.105224
dir -0.255684 1.221096 0.105123 -0.162071 -0.564228 -0.228314 0.242553 0.262204 -0.143525 0.630576 -0.441827 0.115844 0.653039 -0.470402 0.228644 0.998033 0.282573 -1.035394 -0.147293 -0.107170 0.254584 -0.586918 0.132241 0.110650 0.871695 -0.218776 -0.675403 -0.267903 0.136432 -0.190946 0.293673 0.431279 0.165365 -0.012770 0.595593 -0.524860 0.133752 0.668099 0.396230 -0.257536 -0.775926 -0.632951 0.596284 0.023362 0.099669 -0.268376 0.205875 -0.495938 -0.080636 0.753028 0.553009 0.380489 0.605706 -0.095332 0.541835 -0.854535 0.395091 -0.018083 -0.553257 0.048057 -0.764401 -0.150377 -0.513635 0.542560 -0.072239 -0.252506 0.631879 0.623496 0.092435 0.238468 0.368840 -0.345313 -0.235304 0.130007 0.646906 0.514184 -1.144144 0.107312 0.046369 0.758986 -0.161115 -0.140267 -0.522988 0.570434 0.478562 -0.662824 0.869506 -0.607992 0.303243 -0.110164 -0.534921 -0.035432 -1.053966 0.296277 0.295169 -0.347437 -0.696010 0.310694 -0.531658 0.721523
kerberos 0.607042 0.658475 -0.959675 -0.383503 -1.646191 -0.470476 0.207210 -0.186074 -0.091911 -0.166198 0.730816 -0.537953 0.178311 -0.574614 0.516680 0.027584 -0.080000 0.578983 -0.390668 -1.058858 0.204529 -0.394241 -0.000918 -0.197319 0.010101 -0.059851 -1.427696 -0.134319 0.100468 0.556288 -0.611753 -0.697522 0.156114 -0.354854 0.180825 -0.071027 0.011102 0.538160 0.498926 0.387790 -0.173957 -0.451342 0.043159 0.201859 -0.210416 0.039521 -0.227882 -0.314088 0.255714 -0.069664 -0.213360 0.019509 0.297579 0.045265 -0.215788 0.277573 -0.015296 -0.200719 0.150102 0.255891 -0.309739 -0.620782 0.328725 0.214547 0.437892 0.214167 -0.772737 0.081373 0.593700 0.803453 -0.007148 0.361561 -0.568187 -0.978692 -0.128139 -0.155298 -1.064163 -0.357701 0.189231 0.134025 -0.532789 -0.001172 -0.016091 0.028887 0.170141 -0.809060 0.239272 0.118558 -0.152856 0.021491 0.565136 0.504554 -0.093005 0.076729 0.259683 0.215811 -0.077395 -0.053032 -0.626114 0.911337
private -0.251619 -0.006823 -0.095431 -0.128814 0.324771 -0.231425 0.760844 -0.074119 -0.270050 -0.171776 -0.225284 -0.010131 -0.102960 -0.737574 0.134442 0.205511 0.913925 0.247107 0.296038 0.391491 0.215851 0.225354 1.003831 0.187180 0.174515 0.137368 0.534855 -0.116287 0.094545 0.434204 0.500688 0.006619 0.433935 0.219558 0.198406 0.195968 -0.167215 0.016960 -0.089943 0.363362 -0.669237 0.751087 -0.416878 -0.216371 -0.023251 0.677803 -0.062493 0.709737 -0.289886 -0.088080 0.027678 0.141624 0.403652 0.460851 1.033463 0.050528 0.699212 -0.817312 0.215654 0.037300 -0.359943 -0.390282 0.089762 1.121475 0.368679 0.171238 0.003227 -0.281901 -0.118722 0.208479 -0.559249 -0.196576 0.259271 0.270195 -0.051396 -0.665873 -0.678690 -0.140978 0.005479 0.464876 -0.106020 -0.389221 0.769522 -0.127341 0.041971 -0.165198 0.359135 -0.747522 -0.491081 0.323078 0.755453 0.537440 -0.195802 0.541146 0.396221 0.191807 -0.016879 0.282721 -0.033258 0.388140
test 0.194255 -0.396788 -0.131112 -0.181068 -0.321979 0.349485 0.559469 -0.165135 0.089471 0.651817 0.348386 -0.101801 0.312250 0.737347 -0.057218 0.006030 -0.799230 -0.708650 -0.331819 0.118507 0.234573 -0.571743 0.837763 0.378582 0.428294 0.479149 -0.764651 0.378871 0.677660 0.369824 0.756639 -0.579948 0.121948 0.003259 0.347378 0.134546 -0.240742 -0.313236 0.188331 -0.046528 -0.295777 -0.509041 -0.224815 0.235900 0.052268 -0.787713 0.358501 0.442961 0.498970 0.080311 0.494001 0.928451 0.128047 0.072699 -0.020848 0.132570 -0.127590 0.025007 0.547597 0.233683 -0.023839 0.016034 -0.394475 1.227515 -0.311873 0.790790 0.106761 -0.271809 0.214627 0.075919 -0.630745 1.106668 -0.601582 0.542073 -0.896522 -0.071733 -0.908832 0.442430 -0.539032 0.270779 0.487013 -0.053453 -0.417405 -0.100494 -0.166012 0.077314 -0.059674 0.770258 -0.086065 -0.319504 -0.232134 0.398386 0.238639 0.301154 -0.155697 0.534919 -0.567822 0.069005 0.142654 0.464451
package 0.244206 0.285198 -0.620197 0.158110 0.654726 -0.339880 -0.101914 -0.389458 0.235400 1.120166 1.020288 0.735340 0.260236 0.067999 0.075092 0.493272 0.264800 -0.651647 -0.839667 -0.219551 0.409717 0.220976 1.157050 0.365351 0.305164 0.410654 -0.624230 0.214457 -0.138758 -0.194123 -0.135623 -0.002467 1.460675 0.131579 -0.370222 -0.004232 -0.404541 -0.513664 -0.662639 1.038980 0.299679 -0.250134 -0.337041 -0.004460 0.080922 -0.137769 0.142450 -0.918943 0.185211 0.867661 0.560749 0.136743 -0.093179 -0.027508 -0.026494 -0.186438 0.606535 -0.616011 0.449078 -0.051902 0.446971 -0.612814 0.593766 0.394213 0.034302 -0.625547 -1.018969 -0.422185 -0.530734 -0.880212 -0.314765 0.519940 -0.263045 0.548203 0.130465 -0.927474 -0.675537 0.869240 -0.671094 0.696748 0.425251 0.204716 -0.389698 -0.324353 0.432032 0.459241 -0.955719 -0.106203 0.137843 -0.327314 0.855541 0.470926 0.073705 -0.346093 0.741913 -0.373312 -0.040417 -0.193805 -1.078463 1.210070
integer -0.024236 -0.154478 0.158387 -0.065815 0.007627 0.165749 1.065782 -0.264010 -0.128013 0.140673 0.381237 -0.043294 -0.172022 -0.091342 -0.389311 -0.160335 -0.092571 -0.315334 -0.867568 0.156208 0.269739 -0.269438 -0.000170 -0.382208 0.297852 -0.621690 -0.144068 0.174757 0.851811 0.594457 0.479954 -0.779790 0.351962 -0.049538 -0.713668 -0.294311 -0.493616 -0.060729 0.143265 0.002498 -0.050430 0.078665 0.021822 0.017426 -0.735269 -0.242592 0.131397 0.313611 -0.347838 0.681493 0.421447 0.343856 -1.232256 -0.050321 0.406708 -0.659912 0.363521 0.622477 0.202619 0.022243 -0.128402 -0.229912 0.244910 0.556081 -0.026837 0.255780 0.005311 -0.683952 0.226529 0.430728 0.143294 0.896491 -0.291606 0.177867 -0.394435 -0.282394 -1.185447 -0.537826 0.335189 -0.856011 0.036793 -0.434324 -0.276594 0.113070 -0.350686 -0.633885 -0.344011 -0.351385 -0.041069 0.302790 0.179906 0.021368 -0.111342 -0.327769 1.121765 -0.221019 -0.039409 0.025789 0.131792 0.764115
principal 0.996932 0.692661 -1.114192 -0.228943 -1.498674 -0.432410 0.281612 -0.174380 0.108274 -0.186036 0.563632 -0.112161 0.113486 -0.528477 0.495703 0.228131 0.005827 0.491694 -0.442373 -0.950103 0.293876 -0.341606 -0.425952 -0.289475 0.225179 0.001996 -1.294415 0.001446 0.001918 0.447095 -0.611737 -0.567686 0.232064 -0.524802 0.150868 -0.054823 0.161039 0.373073 0.374702 0.172351 -0.366814 -0.555675 0.171364 0.080898 -0.406740 0.096240 -0.099215 -0.208143 0.024727 0.131947 -0.183813 -0.280803 0.051586 0.262990 0.117229 0.556768 -0.178887 -0.081116 0.288527 0.225509 -0.112026 -0.768792 0.243512 0.507091 0.330042 -0.053936 -0.716128 0.150150 0.747544 0.637606 0.195019 0.189201 -0.672118 -0.793532 -0.104451 -0.204006 -0.891556 -0.297039 -0.052523 -0.036358 -0.621058 0.146648 -0.006452 -0.091544 0.199045 -0.959236 0.096587 0.212695 -0.143292 0.182623 0.692013 0.451904 -0.150570 -0.201224 0.141725 -0.123341 -0.383028 0.290951 -0.778582 0.728366
t -0.183383 0.593738 0.028191 0.136579 0.143095 0.202048 0.082262 -0.392164 -0.490355 0.277013 -0.299266 -0.242292 0.093203 -0.005264 0.608090 0.015315 0.243742 -0.568626 -0.237129 0.316505 0.826136 0.017560 0.476200 -0.282597 0.286180 0.589965 -0.246940 -0.845675 1.398441 0.834001 1.210079 -0.110483 -0.553972 -0.238525 -0.020992 -0.218370 -1.068272 0.589862 0.283966 0.482262 0.129689 -0.169261 -0.205028 -0.178338 -0.143595 -0.525088 -0.253305 0.440989 0.599346 0.008051 0.312247 0.081817 0.153079 0.139444 -0.163749 -0.491455 -0.066734 -0.244268 0.106917 0.029380 -0.577616 -0.429869 -0.245669 0.525619 -1.374155 0.353855 0.000773 0.194347 -0.150603 -0.579302 -0.249487 0.248380 -0.054816 0.164394 0.192412 -0.886593 -0.502007 -0.255416 -0.756514 -0.019740 -0.132807 0.468131 1.021596 -0.389732 -0.416760 -0.348949 -0.476283 -0.464157 -0.397736 -0.147288 -0.120651 0.085099 0.192934 -0.677789 -0.310679 -0.514761 -0.416752 0.070185 0.069894 0.573726
knapsack -0.282053 0.060611 -0.659345 0.269994 -0.264085 0.854150 0.194421 0.595139 0.153632 -0.063567 0.208353 0.090144 -0.051932 -0.015513 0.072076 0.801658 0.450234 -0.514729 0.799277 -0.257990 0.094266 -0.039702 0.490069 -0.004361 1.244121 -0.349584 -0.336550 0.060716 0.376924 0.796649 0.476927 -0.240341 0.505369 0.868094 0.219237 -1.204555 0.120736 -0.421033 0.616277 0.026598 -0.087257 -0.191325 -1.202938 0.203317 -0.069705 -0.627688 -0.077098 -0.803533 0.412642 -0.554200 -0.230825 0.080174 0.577074 -0.187404 -0.347700 0.725628 0.958501 -0.709671 0.415024 0.670673 0.307429 -0.671339 -0.097271 0.704161 0.199645 0.382566 -0.146244 -0.690857 1.021510 0.658461 0.262216 0.779099 -0.850928 -0.201228 -0.230323 -0.500339 -0.426277 -0.130122 -0.850850 -0.090148 -0.102717 0.023133 -0.172432 0.591975 -0.484910 0.480761 0.043920 0.111144 -0.161140 0.292716 -0.237289 -0.018878 -0.849267 0.325854 -0.083922 -0.450030 -0.053564 -0.115351 -0.396150 -0.272285
mergesort 0.605570 0.185610 0.371721 -0.377861 -0.527273 0.066170 0.425039 -0.268264 -0.059820 0.624235 0.477800 0.321251 0.131445 -0.048154 -0.185309 0.282850 0.276803 -0.414241 -0.924751 0.290468 0.240811 -0.587658 0.269295 -0.336674 0.322884 0.337172 -0.838942 0.098269 0.483804 -0.095160 0.623796 -0.345221 -0.136214 0.162688 -0.389028 0.198414 -0.655802 -0.842082 0.749986 0.182999 -0.679491 -0.363443 -1.099605 -0.984762 -0.285586 0.494986 -0.473033 -1.057832 0.332182 -0.001131 0.845719 0.922300 0.445773 0.121876 0.839450 -0.353814 0.353819 -0.549456 -0.029342 0.076698 -0.038550 -0.522814 0.296696 0.805160 -0.640548 0.478855 0.734439 -0.466502 0.695867 0.359173 -0.640299 0.498173 0.064923 -0.400716 -0.118172 -0.265735 -0.408582 0.036394 0.003071 -0.439021 0.521764 -0.412496 -0.187627 0.516947 -0.469286 -0.583774 -0.410578 0.500355 0.021694 0.452633 0.365364 0.198037 0.199469 0.047468 0.078355 -0.109643 -0.231986 0.030057 -0.410801 -0.070333
object -0.136393 -0.811239 -0.249518 0.404144 -0.614720 -0.250095 0.958711 -0.262929 -0.056589 0.456840 -0.285675 0.874530 0.148883 -0.507261 0.741386 0.768213 0.257998 0.046341 0.151281 -0.346397 -0.462224 0.736508 0.178786 -0.137888 0.504334 0.398764 0.140601 -0.110954 0.664452 0.703038 0.357975 0.051914 0.472876 0.575368 -0.497190 -0.226067 -0.452947 -0.501177 0.926742 0.457196 0.262672 -0.272652 -0.292888 -0.609091 -0.502827 0.481318 -0.123694 -0.068068 0.292706 0.948996 -0.342201 0.034436 -0.277615 -0.223032 0.482452 -0.361062 -0.007097 0.320504 0.564625 0.274757 -0.964000 0.071189 -0.210850 0.536348 -0.116193 0.156113 0.285119 -0.281525 0.145082 0.246337 -0.079672 -0.722298 -0.271827 0.445439 -0.307792 -0.855258 -0.876579 -0.343222 -0.749431 0.678468 0.196187 -0.278724 0.470415 1.040530 0.253904 -0.592218 0.430392 0.007280 -0.041878 0.218225 0.392453 -0.396667 0.266821 -0.399715 -0.088016 -0.877936 -0.025232 0.606301 0.210648 0.212813
array 0.740571 0.309747 0.029596 0.809069 0.105473 0.434519 0.487467 -0.997573 -0.009219 -0.518980 0.210894 0.242785 -0.939867 0.099871 0.036822 0.362660 0.473183 0.356284 0.019323 0.094459 0.319167 -0.166061 0.644000 -0.265707 0.501788 0.098886 -0.635733 -0.282338 -0.073241 0.806645 0.410555 -0.395394 -0.264200 0.347536 -0.575492 0.090016 -0.222060 0.042857 0.219780 0.476208 -0.060502 0.376498 0.230525 -0.376775 -0.909203 -0.892501 0.213029 0.099297 0.026102 0.119816 0.699690 0.851464 0.309857 0.180626 0.290742 0.184283 -0.046898 -0.090956 0.929020 -0.320441 -0.319517 -0.221409 -0.536103 1.396954 0.321596 0.296317 0.202072 -0.432237 0.567673 0.279224 -0.321174 0.752610 -0.477039 0.206842 -0.433761 0.444240 -0.354926 -0.114973 -0.184844 0.354857 -0.000773 -0.631978 1.180286 0.130453 0.094759 -0.869829 0.101876 0.836281 0.268589 0.110094 0.525138 -0.656713 0.094428 -0.218690 0.140438 -0.721580 -0.378883 -0.574636 0.373207 0.504867
java -0.190718 -0.306107 0.420595 0.103546 -0.197701 0.161376 -0.079491 -0.550155 -0.377514 0.551873 -0.040906 0.522381 -0.312461 -0.149271 0.332071 0.721980 -0.399331 -0.408162 -0.362071 -1.084699 0.575079 -0.469855 0.506588 0.139098 0.477401 -0.004727 -0.476951 0.136221 0.165265 0.287670 -0.140937 -0.132951 0.757107 0.442462 0.038954 0.490197 -0.560666 -1.304907 -0.625098 0.644016 -0.018529 0.278847 -0.107332 0.016138 -0.237950 -0.021237 -0.413786 0.068691 -0.002579 0.106461 0.276367 0.588828 -0.061722 -0.202642 -0.218105 1.080149 -0.151756 -0.832737 0.213751 -0.715980 -0.337748 -0.962972 -0.138159 0.665457 -0.140131 -0.340435 0.074640 0.054187 0.253565 -0.229468 -0.488848 -0.400200 -0.077641 0.431732 -0.215512 -1.237019 -0.239341 -0.224893 -0.298375 -0.064076 -0.255774 0.376322 -0.516699 0.230044 0.061760 -0.546280 0.467467 -0.377824 0.166101 -0.260407 1.034162 0.541570 -0.368216 -0.460916 0.820028 0.024769 -0.157774 -0.477845 -0.677395 0.727452
util -0.243250 -0.277001 -0.162115 -0.262645 -0.131024 -0.089810 0.175007 -0.522150 -0.482508 0.543754 -0.158478 -0.041261 -0.310961 0.353206 0.309815 0.696578 -0.638821 -0.564686 -0.554940 -0.535585 1.127508 0.019790 0.037170 0.018104 0.480523 -0.062543 -0.237445 0.242750 0.216486 -0.026227 0.372021 -0.078678 0.777229 0.521203 -0.114802 0.210909 -0.646932 -1.096181 -0.058971 0.785551 -0.022777 0.721394 -0.339223 -0.321309 0.201937 -0.107961 -0.155907 0.251280 0.187523 -0.078179 0.429438 0.491307 -0.096104 -0.142064 -0.466887 0.473955 -0.074143 -0.928437 0.251374 -0.737514 -0.051451 -0.451123 0.160781 0.294706 -0.559844 0.261749 -0.016958 -0.084574 0.702079 -0.325213 -0.520873 -0.220831 -0.173483 0.360019 0.474402 -0.954733 -0.771723 -0.772636 -0.630424 0.474629 -0.316948 -0.230625 -0.937624 0.066597 -0.029880 -0.005139 0.492644 -0.333151 0.453188 -0.001955 0.526865 0.497053 -0.201875 -0.433585 0.409961 -0.291114 0.234391 -0.152878 -0.843215 0.992648
l 0.096431 -0.108181 0.106689 -0.291459 0.092468 -0.774108 0.134304 -0.747630 0.107524 -0.274498 0.664012 -0.095568 -0.261583 -0.838853 -0.502975 0.940640 0.661284 -0.632200 0.013544 -0.105138 0.750162 -0.536897 0.361027 -1.107777 0.306239 0.673671 0.519523 0.784267 0.332365 0.926399 1.552845 0.160128 -0.073223 0.189367 0.349692 -0.652677 -0.846157 -0.635751 -0.072520 0.217601 -0.233720 0.640762 -0.139458 0.492711 -0.286706 0.395231 -0.011837 -0.706013 0.817974 0.393820 0.050873 0.587386 -0.471973 0.628410 0.408186 -0.805354 -0.363144 0.627998 0.634379 -0.310169 -0.501029 -0.369778 -0.304170 0.056508 0.846418 0.036862 -0.023092 -0.171417 0.413023 0.018609 0.345246 0.694611 -0.427723 -0.257316 0.010155 -0.099588 -0.139073 -0.755450 -0.835907 0.409607 -0.085674 0.239552 0.204356 -0.203855 -0.430067 -0.196844 0.727203 0.485897 -0.371315 -0.347705 -0.164460 -1.123184 0.192544 -0.266763 0.244465 -0.630756 0.314592 0.140900 -0.699375 0.492984
queue 0.014182 -0.241568 -0.974154 0.143218 0.160329 0.368674 0.176552 -0.649219 -0.458395 -0.232759 -0.176968 0.513184 -0.201655 -0.052832 0.785566 0.532888 0.783891 -0.057009 -0.637139 0.164687 0.561542 0.301417 -0.350906 -0.474640 -0.555181 -0.178998 -0.297622 0.561608 0.429385 0.480961 0.560062 0.621685 0.262831 0.178147 0.249313 0.542992 -0.283518 -0.352312 0.101742 -0.658244 0.040622 0.667658 -0.039595 0.327546 -0.492277 0.124340 -0.303784 0.044257 0.798567 0.569109 -0.408381 0.440873 0.667867 0.277631 0.075762 -0.431456 0.513193 -0.615773 0.693610 -0.720171 -0.389283 -0.033224 0.135572 0.695134 0.499038 -0.159617 0.033899 -0.430414 -0.044720 -0.789857 -0.660919 -0.237424 -0.825013 0.264547 -1.085434 -0.597112 -1.078655 -0.440109 -0.687479 0.304999 -0.604442 -0.473882 0.422674 0.391211 0.313417 -0.865868 -1.090929 -0.447439 0.590178 0.355041 0.430368 -0.299904 -0.648257 -0.390854 0.456501 0.038356 0.072993 0.158384 0.122706 0.486577
http 0.240226 0.472353 -0.262892 -0.670793 -0.056544 0.215413 0.688979 -0.289571 0.439798 0.037367 0.783534 -0.216857 -0.499833 -0.594808 0.456003 0.777288 0.650844 -0.631129 0.790939 -0.582028 0.900424 0.131086 -0.080835 -0.421007 -0.060353 0.917051 -1.684047 -0.510471 0.303856 0.369295 -0.176848 -0.385215 -0.148626 -0.021389 0.472106 -0.195531 0.532462 0.765701 -0.130357 -0.477729 -0.605408 0.340543 -0.122127 -0.388145 -0.561859 -0.640915 -0.661792 -0.307176 0.384066 -0.104459 -0.349791 0.291515 0.101714 0.074122 0.749810 0.480827 0.153845 -0.089819 -0.794046 -0.603345 0.408660 -0.013059 -0.163664 -0.507377 -0.768697 0.266948 -0.298723 -0.106534 -0.364176 -0.134436 -0.702638 0.021347 -0.469219 0.335092 -0.846269 0.086452 -0.487558 -0.009783 -0.439264 -0.067018 0.153253 -0.438923 -0.015326 0.128705 0.669778 -0.254685 0.027939 0.286534 -0.048539 -0.232622 0.732205 0.087920 0.142200 0.509183 0.439100 -0.625356 0.163921 0.763029 0.120510 0.833721
stack -0.214185 0.454481 0.172179 -0.156933 -0.720851 -0.442427 -0.276018 -0.237025 -0.103851 0.158430 0.347609 0.366213 -0.083212 -0.353286 0.020948 0.423746 -0.494850 -0.176542 -0.208252 1.124222 0.203607 0.107382 -0.077990 -0.510458 0.819589 -0.147330 -0.327759 -0.209717 0.248349 0.967802 0.494710 0.057459 0.498710 0.517359 -0.220136 0.145706 -0.836788 -0.032824 0.365609 1.043647 -0.231253 0.226392 -0.070072 -0.471003 0.104027 -0.021630 0.097109 -0.289592 0.653040 -0.351280 0.495670 0.590619 0.572894 -0.520043 0.116882 0.078546 0.230770 -0.584000 0.107007 -0.429160 -0.384044 -0.080923 0.330342 0.399515 -0.803906 0.073772 -0.969609 0.395393 -0.209218 -0.076026 -0.847934 -0.173841 0.111749 -0.235631 -0.444525 -0.815893 -0.485768 -0.058710 -0.487448 -0.030614 0.329915 -0.364410 0.687372 0.582468 -0.205106 -0.045769 -0.459715 -0.180359 -0.078012 0.006018 0.100884 -0.079964 -0.112857 -0.258225 0.249038 -0.228842 0.217458 -0.235476 0.295507 0.068793
data 0.403782 0.059186 0.510285 0.223404 -0.692512 -0.788875 0.665171 0.385086 0.283111 -0.618253 -0.434062 0.757369 0.085979 -1.018964 0.321526 1.157643 0.295322 0.364224 0.325859 -0.042036 -0.241301 -0.627444 0.650148 0.034224 0.995995 0.702050 0.265311 0.866427 0.993227 0.326014 0.577291 -0.182020 0.507161 0.356538 -0.775316 0.038564 -1.401951 0.444992 0.519073 -0.219149 0.341098 -0.227857 0.683839 0.185065 -0.911734 -0.311628 -0.008229 -0.648559 0.590758 0.914429 -0.047014 0.112862 0.361582 -0.022115 -0.678578 -0.013510 1.030375 0.153298 -0.256320 -0.351792 -0.478664 -0.525263 0.496977 0.115961 -0.206619 0.441622 0.671093 0.416945 -0.114976 -0.583806 -0.778264 0.800582 -0.084974 0.121704 0.370178 -0.508766 -1.078422 0.170346 -0.277076 -0.021902 0.151630 0.170204 0.176840 -0.348293 -0.015264 -0.652965 0.083107 0.290144 0.403542 0.933853 -0.652765 -0.362827 0.052719 -0.617368 -0.188225 -0.326455 -0.011459 -0.408372 -0.375333 0.072865
add 0.135975 0.169367 0.402020 0.178025 -0.274355 -0.066113 0.670800 -1.069601 0.426799 0.143976 0.620070 0.251753 0.159919 -0.723150 -0.057188 0.667980 0.498906 0.461945 0.094185 0.431987 0.337503 0.073975 0.052791 -0.603842 0.347618 -0.329282 -0.871194 0.220038 0.578876 0.449868 -0.093353 -0.841222 0.679961 -0.074428 -0.070205 0.157746 -0.017401 -0.422287 -0.179596 -0.108529 0.001361 -0.532549 0.600666 -0.043182 -0.228218 0.703186 -0.822010 0.206125 0.230830 -0.825405 0.085247 0.502765 -0.089972 0.420602 0.277430 -0.089539 0.159069 0.559836 0.849707 -0.311010 0.123355 -0.434238 0.619025 0.918275 0.018065 0.477550 0.606596 0.963960 -0.018108 -0.349177 -0.712994 0.417823 -0.868187 0.240401 -0.670197 -0.451807 -0.108882 -0.975650 0.225983 -0.308217 -0.303786 -0.706014 -0.146906 1.090927 -0.784596 -0.281368 -0.215134 -1.160298 0.117309 -0.034699 -0.143535 0.309832 -0.020650 -0.426966 -0.717719 0.274214 -0.528154 0.238183 -0.753167 -0.020937
this -0.445569 0.088356 0.080780 0.025206 0.594949 -0.407878 0.417915 -0.285818 0.140593 0.978019 -0.542424 0.512499 0.172757 -0.249518 -0.102705 0.020833 0.505285 0.606392 -0.451323 0.912074 -0.144094 -0.389922 -0.099383 -0.148697 0.646998 -0.003475 -0.711922 0.284992 0.912887 0.075931 -0.084604 -0.044916 0.180194 0.362454 0.627094 -0.564748 -1.057587 0.492001 0.014167 0.505367 0.203152 0.192342 0.169049 -0.153804 -0.464033 0.398956 -1.004722 -0.199164 -0.183294 -0.115249 -1.015851 -0.187251 0.381169 -0.300539 0.554311 -0.775419 -0.022759 0.229232 -0.195912 -0.840667 -0.131485 -0.629619 0.232953 1.141995 0.868608 0.094180 -0.079116 -0.675583 -0.328414 0.089809 -0.037700 0.216833 -1.012150 0.640589 0.447831 -0.213812 -0.501748 0.092767 -0.494410 0.598040 -0.370413 -0.146207 0.658382 -0.189553 0.106518 -0.493921 0.131086 -0.207807 -0.208463 -0.018446 0.474414 0.553489 0.021189 0.503117 0.771892 -0.475816 -0.139707 -0.111236 -0.193552 1.023323
write -0.582613 0.425956 -0.488755 -0.588383 0.127287 0.225007 0.593554 -0.821248 -0.029935 1.063692 0.677100 -0.390438 0.152918 -1.051658 -0.192617 -0.256716 0.571937 -0.629092 -0.216338 -0.023250 -0.402860 -0.357928 0.075902 0.417869 0.257222 -0.357061 -0.180421 0.115217 0.515620 0.039789 -0.165368 -0.288371 0.305018 -0.462782 0.072281 0.290190 -0.351035 0.167671 -0.226012 0.514636 0.104699 -0.503328 -0.155264 0.046990 -0.663619 -1.006172 0.210376 -0.102761 0.624661 0.532274 -0.000229 -0.765782 0.427014 -0.212567 1.293667 0.410645 0.034076 -0.093899 -0.149639 -0.014040 -0.093140 -0.373922 0.682491 -0.074893 -0.949793 -0.435689 0.222427 0.048698 0.060094 0.405201 -0.425023 0.750208 0.410027 0.040607 -0.916719 0.844239 -0.842081 -0.068710 0.064396 0.851163 -0.776596 0.303893 -0.032046 0.857809 0.447123 -0.021734 0.231501 -0.029654 -0.567073 0.008721 -0.385501 0.400024 -0.541996 -0.047849 0.019104 -0.294268 -0.545188 -1.200093 -0.392076 0.356889
true 0.443248 0.104508 -0.049812 -0.523592 -0.076410 0.987187 0.051399 -0.919709 0.965439 -0.013882 -0.644459 -0.505120 -0.946511 0.357338 0.541676 -0.251399 0.006912 0.021527 -0.087183 -0.085194 -0.550053 -0.186163 -0.638596 -0.656739 0.182571 0.046980 0.336455 0.182989 -0.160126 0.078976 0.759237 -0.879404 -0.229368 0.273180 -0.305341 -0.037587 -1.049790 0.350022 0.107036 -0.005017 0.243925 -0.163818 -1.078933 -0.464179 -0.528789 0.449241 -0.096476 -0.184135 0.265536 0.265176 0.064139 -0.167959 0.345731 0.418244 0.355683 -0.060319 0.073267 -0.386281 0.996543 -0.076608 -1.338344 -0.082386 0.229527 0.472781 0.525061 -0.188388 -0.108661 -0.416686 -0.073831 -0.641935 -0.065107 -0.098606 0.191067 -0.058734 1.403681 -0.354628 -0.083713 -0.187821 -0.129316 0.869871 -0.318269 -0.887592 -0.402701 0.088186 -0.084609 -1.182607 -0.535658 -0.094247 -0.464433 -0.357506 0.046996 -0.528335 0.680641 0.306742 0.565136 0.311913 -0.177493 0.865177 -0.681310 0.973935
token -0.316703 0.238475 0.104024 0.243947 0.216879 0.288527 0.544035 -0.321306 -0.341331 -0.135575 0.111870 0.114186 -1.068767 0.260709 -0.753464 1.288870 0.223459 -0.240624 0.418000 -0.202951 -0.138221 -0.789980 -0.608502 -0.875292 1.067905 -0.090768 -0.627641 0.591370 0.232661 0.764850 -0.456928 -0.579959 0.325799 -0.206375 0.823346 -0.314771 -0.811405 0.664413 -0.303854 0.572906 -0.007676 0.850400 0.298573 -0.410886 0.870462 0.046983 0.299070 0.008723 0.277560 0.441181 0.123384 1.358050 0.417573 0.060909 -0.038730 -0.204185 -0.001750 -0.058523 1.118080 -0.638924 -0.201382 -0.155609 0.473485 -0.435724 -0.500775 0.089900 0.173810 0.072934 -0.135402 0.284168 -0.194061 0.065542 0.149689 -0.220825 0.215804 0.490363 -0.652368 -0.358407 -0.135218 0.086199 -0.696431 -0.201238 0.491670 0.709347 0.776393 -0.687923 0.669059 -0.259940 0.325085 0.171846 0.224073 -0.217437 -0.092290 -0.192169 -0.465770 0.180962 -0.559094 0.259916 -0.163187 0.940162
checkpoint -0.521478 1.024374 0.211319 0.136540 -0.434147 -0.098822 1.215839 -0.126332 -0.005468 0.417282 1.030141 0.275830 1.165524 -0.597026 -0.136335 0.652490 -0.044260 -0.546292 -0.250381 -0.501444 -0.424332 -0.319006 -0.401710 -0.064733 0.096599 0.050622 -1.268438 0.389442 0.460274 0.537884 -0.144553 -0.402609 0.199955 0.512628 0.774222 -0.060146 -0.173729 0.475775 0.503350 -1.046763 -0.082725 -0.373140 0.183982 -0.544142 -0.317907 -0.865659 0.417430 -0.125120 0.099329 -0.291801 0.009432 0.332278 0.066815 0.966143 0.801800 -0.063008 -1.070840 -0.807502 0.162924 -0.029216 -0.505822 0.277522 0.375495 -0.013274 -0.377929 0.222811 -0.750292 -0.082955 -0.512429 0.243595 0.075181 0.405527 0.367866 0.485933 0.036302 -0.546340 -0.386152 0.114369 0.705037 0.461424 0.438204 0.283115 0.242744 1.272816 0.553005 -0.492435 -0.160625 -0.708943 -0.081424 0.161158 -0.139452 0.267775 -0.217746 -0.659253 0.244188 -0.565894 0.289444 0.405890 0.017272 0.554296
n 0.770657 0.212210 0.010067 -0.329449 0.170985 0.318995 0.358995 -1.051589 0.646088 0.110398 -0.385091 1.042490 -0.141428 -0.646248 0.071019 0.136202 0.572040 0.514857 -0.016110 -0.302169 0.508283 -0.441325 -0.056558 -0.377347 0.618531 0.193650 0.150459 0.050836 0.569909 0.891591 0.077764 -0.446204 0.636443 0.149180 0.098740 -0.019562 -0.244190 -0.485153 0.257057 1.072101 -0.282289 -0.855522 -0.180953 -0.332180 -0.651086 0.271149 -0.681565 0.578871 0.173122 0.267783 -0.100880 0.098775 -0.326637 0.262873 -0.341472 -0.113149 0.727686 -0.147589 0.069866 0.157735 -0.391504 0.146218 0.413890 0.647509 0.375205 -0.418138 0.352097 0.295164 0.147221 0.402813 -0.329659 0.577945 -0.338216 0.357673 -0.501335 0.325809 -0.225964 0.325168 0.272503 -0.582995 0.093433 0.003234 0.099853 -0.279019 -0.504839 -0.792867 0.080914 0.158429 -0.179941 0.407705 -0.154870 -0.543460 -0.507169 0.688052 0.142248 -0.237648 0.733005 -0.095382 0.142707 0.420703
secondary 0.498030 0.890824 -0.108104 -0.111198 -1.037136 0.027808 1.046168 -0.747728 0.108126 0.146779 0.436898 -0.567765 0.251200 -0.196222 0.391922 1.060618 -0.472260 0.840434 -0.218549 -1.217122 -0.206640 0.268008 -0.288763 -0.259952 0.255404 0.109896 -2.131335 0.107085 0.563133 0.393027 -0.405041 -0.562012 -0.034524 0.042791 0.108705 -0.516954 0.463430 0.291043 0.764991 -0.176603 -0.894033 -0.311726 0.782703 -0.043572 -0.797189 0.047957 -0.477337 -0.183621 0.460183 0.393945 0.007709 0.751534 -0.252824 0.245502 -0.451431 0.051739 -0.464383 -0.291298 0.404573 0.515535 0.244696 -0.686003 0.487157 -0.010407 0.084349 -0.692405 -0.189591 -0.057194 0.245265 0.463103 0.086475 0.077739 -0.324096 -0.342556 0.588916 -0.498669 -0.259024 -0.160907 0.306318 0.104950 -0.498643 0.232629 -0.088516 0.098932 0.019732 0.001056 0.611580 -0.503397 -0.019991 0.202167 -0.069919 0.549581 -0.393981 0.213108 -0.115208 -0.017627 0.546651 0.744570 0.532029 0.692931
name 0.108400 0.404006 -0.105140 -0.037884 0.197782 -0.249188 0.313292 -0.368892 0.127222 0.578795 -0.521778 0.018797 0.343157 0.030723 -0.072016 -0.311947 0.638659 -0.049613 -0.174034 -0.116055 1.093788 -0.667740 -0.026670 -0.577689 0.319322 -1.088307 -0.920056 -0.852346 0.780847 0.351282 -0.631082 0.250506 -0.493763 -0.214929 1.434469 -0.255856 0.139180 0.062919 0.583758 0.110708 -0.660568 -0.376371 0.347614 -0.359333 -0.664328 0.082296 0.088000 -0.836268 -0.435954 -0.437946 0.446737 -0.086076 0.398088 0.628838 -0.479858 -1.083502 1.560961 -0.045720 -0.255938 0.097775 -0.339547 -1.206985 0.569738 -0.297239 0.137960 -0.247967 -0.046735 0.653124 -0.512365 -0.219938 -0.211990 0.498577 -0.352091 0.150346 0.341042 -0.031442 -0.507102 -0.247471 -0.252454 0.059072 1.244143 -0.013242 -0.725748 0.924914 0.153482 -1.177388 0.040305 -0.469935 -0.287559 -0.288998 -0.019273 0.834842 -0.341555 -0.207117 -0.374302 -0.738522 -0.525154 -0.115535 -0.443957 0.280000
access 0.311430 1.053043 -0.007845 -0.567968 -0.183163 0.240706 0.863113 0.039600 0.017530 0.849091 0.475004 -0.239817 -0.286206 0.413968 -0.727559 1.190397 0.005239 0.334606 0.372768 -0.660753 -0.329847 -1.206579 -0.826173 -0.687213 0.548440 -0.227652 -0.951963 0.330060 0.841392 0.635584 0.011667 0.205565 0.040813 -0.714971 0.370681 -0.489202 -0.985440 0.174202 0.578138 0.248001 -0.663753 0.735828 0.073690 0.369077 0.768459 0.278817 0.440248 0.093063 0.976392 0.519365 0.266122 0.806992 -0.252831 -0.416795 0.417858 -0.001465 0.144630 0.286834 0.694753 -0.187443 0.125916 -0.389686 0.790282 -0.278266 0.683725 -0.573843 0.060444 0.630769 0.318113 0.554391 -0.192143 0.096928 0.226866 -0.240405 -0.661444 0.058654 -0.162613 -0.592568 -0.000106 -0.104557 -0.051487 -0.359172 0.355227 0.574953 0.617471 -0.859567 0.259829 -0.615442 0.513266 -0.824580 0.049803 -0.421273 -0.049799 -0.199097 -0.702927 -0.211009 0.050756 0.787000 -0.979031 0.986419
node -0.037344 0.574245 -0.288201 0.128730 0.713552 -0.359523 0.509421 -0.007200 -0.130851 -0.138258 -0.146574 0.414544 -0.504598 -1.045882 0.475768 0.249794 0.665738 0.439396 -0.159852 -0.545179 0.386535 -0.584530 0.280529 -0.586047 0.525782 0.432590 0.202670 0.066190 1.337306 0.800027 -0.247164 0.037679 0.447012 -0.308597 0.135662 -0.026109 -0.062142 0.101193 0.059708 0.959330 -0.408052 -0.293120 0.441716 0.393663 -0.017039 1.045099 -0.411911 -0.353638 -0.230204 0.210344 0.031608 0.098514 -0.109425 0.356849 -0.385019 -0.687027 0.553373 -0.680911 0.988020 -0.220950 0.317813 0.279998 -0.694704 0.410727 -0.377170 -0.284534 -0.153750 0.118299 -0.088019 0.415347 -0.557561 -0.066455 -1.027866 0.525634 0.159278 -0.543467 -0.704167 -0.589913 -0.251602 0.325368 0.448830 -0.475141 -0.058364 0.334643 0.024659 -0.823528 -0.429331 0.827861 -0.337614 0.941330 -0.591421 -0.463631 -0.423573 -0.413576 -0.069117 0.369079 0.522099 -0.078020 -0.088110 0.892350
quicksort -0.340168 0.733725 -0.232799 -0.233017 0.013096 0.312746 0.376651 -0.491194 0.122779 -0.279057 0.307453 -0.285266 -0.541544 -0.207060 0.192538 0.106148 0.203907 -0.249530 -0.222534 0.512599 0.026408 -0.417043 0.753713 -0.246983 0.535625 0.456349 -1.046297 -0.731089 0.578387 -0.023998 0.562963 0.038588 0.050959 0.222357 -0.517673 0.773052 -0.055920 -0.122599 0.557020 0.696463 0.078959 -0.432686 -0.389209 -0.731150 -1.346268 -0.332692 -0.060680 -0.292685 0.085696 0.517628 1.017207 1.307495 0.751994 -0.305048 0.023509 -0.094689 -0.285836 -0.578918 0.439834 -0.063817 -0.385329 -0.209488 -0.253087 1.198968 0.344866 0.184870 -0.319554 -1.439005 0.356869 0.378745 -0.446713 0.705235 -0.552865 -0.200520 0.093373 -0.024014 -0.444808 -0.169692 -0.477645 -0.228646 0.460354 -0.160013 0.029281 0.000229 0.003135 -0.027754 0.050859 0.139358 0.950162 0.290464 0.116055 0.002536 -0.640093 0.151775 -0.118450 -0.504884 0.105780 -0.860235 0.205306 0.244941
list 0.467787 -0.300383 0.314010 -0.174336 0.085468 0.542622 0.417067 -0.182171 -0.511776 0.664254 0.413722 0.535643 -0.634524 -0.014634 -0.041983 0.416554 0.451919 0.265023 -0.222054 0.493754 -0.392206 0.393837 -0.545060 -0.944528 0.042121 -0.449472 -0.638316 0.012949 1.160318 0.470968 0.266785 0.890115 -0.221173 -0.059755 -0.724997 -0.318593 -0.334695 -0.878588 0.612395 0.488537 0.149546 0.174162 -0.078550 0.167436 -0.536258 -0.690052 -1.016295 -0.496878 0.176686 -0.077477 0.377450 0.688438 -0.164934 0.547751 0.457610 -0.538384 -0.304579 -0.080226 -0.029248 -0.089684 -0.248266 -0.162866 -0.245034 1.287707 -0.346149 0.097940 0.419367 0.401873 0.228513 0.023081 0.020399 0.537734 -0.315879 0.223373 0.158345 -0.462600 -1.206390 -0.596551 -0.117460 -0.128568 -0.027333 0.447506 -0.205945 0.706578 0.295170 -0.276778 -0.635548 -0.020198 0.196889 0.058880 -0.042688 0.741140 0.101430 -0.456420 -0.231413 0.506572 0.388565 -0.660002 -0.873526 0.002708
count 0.798411 0.599604 0.601437 -0.124720 -0.069794 0.586875 1.369085 -0.350957 -0.050348 0.374242 -0.833606 0.444290 -0.330642 -0.279500 0.755556 0.984221 0.617512 0.270864 0.791858 -0.210742 0.002653 0.428793 0.489834 -0.135304 0.079764 0.170223 -0.541009 -0.204657 0.814449 0.084697 0.255954 -0.779173 -0.120427 -0.208770 0.765130 0.936216 -0.554454 -0.195004 -0.134489 0.683085 0.129034 0.363839 -0.375924 0.096331 -0.659089 0.176759 -0.488149 -0.277270 0.388241 -0.268053 -0.445803 -0.967650 0.521741 0.223743 0.568020 -0.513872 0.600238 -0.844240 -0.261819 -0.434426 -0.491002 0.135144 -0.158054 0.062719 -0.005672 -0.015669 0.157176 0.362667 0.594244 -0.045462 0.274180 0.822813 0.098592 0.339428 0.479951 0.238185 0.014126 -0.608267 -0.769158 -0.464303 -0.011312 -0.562431 0.058028 0.335412 -0.669729 -0.142239 0.027532 0.317569 -0.725461 -0.340271 -0.409749 0.330542 0.204153 0.322529 0.430518 0.866708 -0.310067 -0.422625 1.068798 0.020813
keytab 0.536681 0.692626 -0.827538 -0.133472 -2.037017 -0.454336 0.211058 -0.649639 -0.061513 -0.631111 0.104220 -0.687643 0.037414 -0.622214 0.411354 -0.039625 -0.189535 -0.225220 -0.162871 -0.903804 0.519313 -0.551513 -0.495314 -0.041398 0.248206 0.096923 -1.371736 0.223565 0.074324 1.120962 -0.579583 -0.773742 0.060657 -0.752067 0.075534 0.367604 -0.251495 0.327518 0.331806 0.317458 -0.064395 -0.056252 0.688279 0.322158 -0.440725 -0.386572 0.190073 -0.203461 0.327583 0.424149 0.183857 0.035938 0.305265 0.152413 -0.183721 0.164570 -0.373686 0.067060 0.155727 0.530008 -0.458983 -0.628923 0.657221 -0.093351 0.221363 0.356216 -0.838719 -0.024249 0.763324 0.706276 -0.821093 0.488533 -0.481594 -0.937791 -0.373500 -0.223927 -0.539424 0.031310 -0.094518 0.520926 -0.465057 0.036819 -0.266227 0.370373 -0.126567 -0.345668 -0.026279 -0.242794 0.120765 -0.132166 0.560082 -0.164851 -0.841949 -0.130090 0.413884 0.499699 -0.070793 0.126478 -0.622810 0.720747
a 0.282525 0.672132 0.376499 -0.454304 0.398816 -0.201674 0.496602 -0.940437 0.320414 0.155458 0.332342 0.055139 -0.209560 0.094198 -0.109826 0.052413 -0.052197 0.915071 0.016845 0.497082 0.433744 -0.329821 0.338717 -0.258708 0.121020 -0.084314 -0.654470 0.587013 0.314940 0.583795 0.699909 0.183426 0.102930 0.173119 -0.549791 -0.447317 -0.009677 -0.483891 0.295980 0.566718 -0.694599 -0.567511 -0.292077 0.128618 -0.433295 0.096108 -0.593957 -0.603133 0.623296 0.372049 0.332289 0.543616 0.332974 0.636240 0.188545 -0.027050 -0.047798 0.337740 -0.276241 0.053707 -0.666987 -0.270462 -0.156741 0.813583 0.375100 0.138879 0.323092 0.160030 0.164480 -0.050218 -0.210662 -0.271288 0.266414 0.341343 -0.613444 0.419498 -0.920411 0.363876 -0.753529 0.379483 0.169290 -0.409592 0.432958 -0.354565 -0.028858 -0.546854 -0.387558 -0.181167 -0.207455 0.159691 0.645739 -0.244725 -0.569232 -0.539151 -0.294128 -0.219049 -0.980721 -0.462237 0.108863 0.403720
null 0.481573 -0.188266 -0.342382 -0.118198 0.110077 -0.532593 0.479895 -0.332747 0.098957 -0.147997 -0.365242 -0.149383 0.200656 -0.027583 -0.021502 0.196375 0.976835 -0.410700 0.034791 -0.135897 0.051915 -0.175626 0.557206 -0.435778 0.080827 0.511492 -0.443340 -0.121249 0.738590 0.494362 0.576800 0.086734 0.365067 0.565364 -0.192432 0.367567 -0.566081 -0.324265 0.180538 0.296404 0.472850 -0.572417 0.560019 0.489206 0.036549 0.563841 -0.028423 -0.564866 0.663414 0.211754 -0.379772 0.550808 -0.018615 0.048322 0.014555 -0.153147 -0.370935 0.503121 -0.195107 -0.094473 -0.330912 0.129259 0.566676 0.906458 -0.165968 0.066779 0.183631 0.258084 -0.144503 -0.482392 0.010974 0.907555 -0.754607 0.842801 0.520805 -0.192554 -0.723581 -0.240731 -0.314549 0.415131 0.770838 0.249013 0.571046 0.392270 -0.273821 -0.466346 -0.279537 -0.379581 -0.257430 0.271929 -0.032891 -0.099941 -0.663685 -0.209727 0.344677 -0.045868 0.999100 0.317015 -0.046393 0.306818
j 0.865750 -0.020843 0.179012 -0.362988 -0.018173 0.026652 0.451224 -0.915562 -0.159465 0.038537 -0.251132 -0.330745 -0.321909 0.218419 0.580095 -0.098149 0.183964 0.510997 0.630881 -0.007039 0.153361 -0.245968 0.970225 -1.249506 0.800978 -0.742430 0.402145 -0.665304 -0.282409 0.952334 1.046985 -1.134522 0.085697 0.450729 0.128808 -0.014872 0.530287 -0.704490 0.272933 0.765703 -0.620738 -0.254330 -0.323319 -0.442775 -0.016278 0.150919 -0.807886 -0.187708 0.118048 0.630554 0.343458 0.709387 0.118713 0.369569 0.598770 0.196539 0.417442 0.017329 0.133311 -0.239369 -0.515010 -0.104976 -0.104366 0.618326 0.084615 -0.274592 0.411669 -0.201476 0.033326 -0.077185 -0.750055 0.270208 -0.249242 0.076324 -0.175753 -0.352119 -0.670798 -0.237297 0.149197 -0.319243 0.184515 0.451650 0.088276 0.715524 0.000237 0.155186 -0.004940 0.337469 -0.355974 0.300653 -0.272625 -0.092230 -0.180110 0.356226 0.567616 -0.438337 -0.761263 -0.470915 0.005217 0.860461
for 0.503601 0.265588 -0.139779 0.702959 0.575073 -0.325010 -0.074955 -0.744976 0.260018 0.340152 0.428084 0.254246 -0.545021 -0.185677 0.165605 0.325466 0.301789 0.794482 0.488865 0.806238 0.394580 -0.536480 0.449422 -0.120056 0.894398 -0.698407 -0.557442 -0.061850 0.382749 0.853840 0.482022 -0.438493 -0.098250 0.121270 -0.105924 0.674309 -0.230097 -0.421086 -0.272049 0.295720 -0.298289 -0.531935 -0.041989 -0.547651 0.072573 0.440357 -0.273397 -0.517252 0.421044 0.575587 -0.391328 0.059455 0.191580 0.596054 0.161208 -0.004160 -0.122103 0.030469 0.211762 -0.387299 -0.198586 0.037659 -0.191828 0.421279 -0.217032 -0.227601 0.182189 0.450449 -0.038371 0.331725 -0.167021 0.555918 -0.276254 0.958037 0.081180 0.119964 -0.840905 -0.348736 -0.072747 -0.160526 -0.093345 -0.420928 -0.626630 0.277264 -0.244810 0.249629 0.181239 -0.141984 0.242442 0.553735 0.518869 0.695367 -0.386512 0.066490 -0.014967 -0.241008 -0.036436 -0.425230 -0.125170 0.260037
file 0.638492 0.424697 -0.644443 0.756694 -1.832732 -0.007496 0.667195 -0.702369 0.079915 -0.082480 -0.068454 -0.239505 0.621769 -0.835278 0.124500 0.196729 -0.361991 0.060863 0.031221 -0.485093 0.261735 0.208228 -0.427715 0.245106 -0.370613 0.914756 -1.373015 0.264701 0.209699 -0.011647 -0.896724 -0.384432 -0.484620 -0.403918 -0.172337 0.311277 0.285288 -0.056295 0.720063 -0.220330 -0.241738 0.151076 -0.324906 -0.607392 0.238069 -0.134794 -0.646111 -0.108811 -0.243521 0.658439 -0.528860 0.579310 0.963136 -0.051812 0.058363 0.039831 0.057684 -0.675473 0.465628 0.724543 -0.753957 -0.856650 0.193181 0.437341 -0.495104 -0.012136 -0.700399 0.813936 0.403939 0.467292 -0.774410 0.898542 -1.103694 -0.980825 -0.434009 -0.261255 -0.813634 -0.760508 0.115920 -0.130972 -0.701943 -0.053794 0.175958 -0.420216 0.211305 -0.515181 0.372454 -0.382849 0.034566 -0.072832 0.469977 0.931486 -0.810007 -0.819783 -0.117500 0.392245 -0.563538 -0.578446 -0.854056 0.850266
out 0.399376 0.555570 -0.452848 -0.099963 0.383394 0.041813 0.252682 -0.801816 0.462366 0.751869 0.075441 0.331548 0.114465 -0.218267 0.418714 0.980292 -0.318785 -0.028729 0.651202 -0.317979 0.011594 -0.797397 0.622505 -0.667274 -0.170163 -0.932219 -0.518500 -0.015723 0.673582 0.734953 0.226636 -0.772128 -0.279488 0.601142 -0.200570 0.618303 -0.739574 -0.601446 0.726087 0.681163 0.014619 -0.140250 -0.032194 0.445048 0.007901 -0.037611 -0.102594 0.096346 -0.050842 -0.221467 -0.005981 0.410577 -0.040449 -0.181322 0.003402 0.225921 0.215165 -0.252451 -0.028341 -0.047835 -0.463973 -0.027996 -0.312804 0.599097 0.405199 -0.026884 0.418143 0.766213 -0.124269 0.353091 0.232679 0.576047 0.138777 -0.193833 0.227453 -0.522494 -0.598823 0.119538 0.134130 0.274128 -0.391224 -0.734572 0.509642 0.060729 -0.697519 -0.437981 -0.050760 0.382647 -0.507213 0.330270 0.260853 0.336178 0.401772 0.271289 0.141573 0.097228 0.302954 0.529139 0.537172 0.384639
system 0.622984 0.370966 -0.415186 -0.355944 0.181009 0.181183 0.116846 -0.641583 0.554512 0.636778 0.506320 0.332008 -0.019894 -0.177170 0.390683 0.701927 -0.380190 0.256417 0.775819 -0.065884 0.237537 -0.593271 0.474691 -0.938714 -0.145620 -0.571923 -0.393119 -0.023952 0.777604 0.365474 0.323529 -0.571434 -0.123264 0.535305 -0.328862 0.220662 -0.302313 -0.486674 0.508120 0.476555 0.151044 -0.072800 0.147131 0.214288 -0.353820 -0.183856 0.075657 -0.142974 0.277968 -0.125014 0.027443 0.193704 0.390884 -0.158310 -0.036462 -0.316602 0.338103 -0.307067 0.274632 -0.146870 -0.740786 0.061123 0.109176 0.394541 0.108726 0.066796 0.518691 0.290324 -0.210043 0.404170 0.203394 0.809660 -0.085643 0.132112 0.486888 -0.745485 -0.638451 0.014025 0.082491 0.249435 -0.706287 -1.127157 0.356375 -0.500763 -0.377778 -0.224370 -0.012877 0.304184 -0.629151 0.183558 0.423164 0.012112 0.553573 0.079762 0.320782 0.185663 0.238086 -0.052772 0.391636 0.519931
heap 0.860892 -0.029762 0.084832 0.911815 0.044438 -0.358354 0.345776 -0.495363 -0.588167 0.872647 0.185717 0.310540 0.481421 0.625565 0.359778 0.322992 0.155403 -0.275936 0.031642 -0.009347 0.269345 0.222360 0.345908 -0.843140 0.730062 0.334377 -0.137082 -0.116775 0.644600 0.848497 0.232955 -0.310934 0.310237 -0.272938 -0.627321 -0.304823 -0.512848 0.369934 -0.096671 -0.088682 -0.051487 0.457612 -0.896636 0.007384 0.084868 0.281589 -0.584510 -1.006823 -0.164802 -0.623056 0.198354 0.516118 -0.277985 0.477210 -0.197472 0.316554 0.487851 -0.410941 0.229092 0.199044 -0.693017 0.217444 -0.205353 0.235381 0.346665 0.152190 0.225898 -0.915164 -0.622502 0.816436 -1.271877 0.530075 -1.098069 0.066985 -0.207691 -0.993692 -0.436117 0.037898 0.158209 1.029445 -0.401810 -0.270456 -0.184779 0.268554 -0.892412 -0.060840 0.011752 -0.015778 0.153319 -0.356490 0.044822 -0.170847 -0.514845 -0.827621 -0.084838 -0.599962 0.322362 0.246418 0.369089 0.310388
e 0.424259 -0.100215 0.007479 0.050526 -0.129053 0.001048 1.136701 -0.074766 -0.800899 0.315729 -0.352216 0.287549 -0.545524 -0.386765 -0.235046 0.825287 -0.581883 -0.299288 0.065356 0.434566 0.378515 0.696774 0.640057 -0.399734 0.267626 0.457044 0.405630 0.120704 0.288104 0.125392 0.852099 0.830542 -0.107754 0.026119 -0.454871 -0.535784 -0.457041 -0.438469 0.828218 0.613254 0.822749 -1.039902 -0.282628 0.053703 -0.222860 0.025996 -1.029943 -0.751995 0.561558 0.602365 -0.072449 0.527832 0.149428 0.193893 -0.328990 0.496239 0.209850 -0.161021 0.929671 -0.275100 -0.224722 0.218859 0.552612 0.448309 -0.131104 0.099225 0.283174 0.183882 0.360165 0.191618 -0.898415 0.017753 -0.169537 1.154675 -0.168093 0.429693 -0.612275 0.115861 0.371732 0.262502 0.108759 -0.581053 0.529968 0.518888 -0.585744 -0.137695 0.033370 -1.167368 -0.614253 -0.046672 0.439119 0.781857 -0.220469 -0.385889 0.290217 0.151390 0.370852 0.559158 0.556054 1.037826
default 0.513042 0.603000 -0.678308 0.098264 -0.434181 -0.159811 0.447062 -0.189662 0.039904 0.473374 -0.040214 -0.749431 -0.076652 0.657686 1.384035 1.089684 -0.352720 -0.621874 -0.149094 0.194675 0.154438 -0.206403 0.374452 0.046131 1.007978 0.369192 0.379599 0.168088 0.853544 -0.020468 0.100679 -0.292210 -0.074779 -0.387085 0.637807 -0.284900 -0.604252 0.728765 0.788501 0.421452 0.039668 0.181647 -0.016142 -0.681279 -0.134744 -0.023909 -0.363354 -1.456024 0.142768 0.189753 -0.154696 -0.605455 -0.036355 0.784160 1.298924 0.459460 0.035267 0.160312 -0.187355 -0.588296 0.458953 -0.128303 0.179522 -0.020903 0.259696 -0.369878 0.508875 0.502626 0.519699 0.653772 -0.108886 0.457361 0.013368 0.341184 -0.727868 -0.537027 0.413525 -0.456763 0.099953 -0.755001 -0.227982 -0.873265 1.017037 0.022473 0.264776 -0.147627 -0.238411 -0.075181 -1.130262 -0.071204 0.076142 0.693314 0.717321 0.139968 -0.165204 0.613319 -0.254190 0.164096 -0.627999 1.089818
delegation 0.420416 0.733859 0.100619 -0.342061 0.043482 -0.259705 0.243572 0.193906 -0.494258 0.348672 0.350139 0.640885 -0.376269 -0.309586 0.379966 0.875809 0.053809 -0.398863 -0.084367 -0.663809 0.169425 -0.659184 -0.917069 -0.012407 1.098450 1.042632 0.197068 -0.256295 -0.006223 0.296510 -0.153227 -0.534978 -0.071887 0.107786 1.280869 -0.330664 0.314246 -0.250689 0.005179 0.921753 -0.059348 -0.292375 0.295816 -0.386237 -0.456186 0.900385 0.314161 -0.093525 0.327691 -0.344779 -0.046119 1.488219 0.589317 0.530248 0.572818 -0.113450 0.546537 -0.653111 0.066596 0.216606 -0.320027 -0.033218 0.023825 -0.275462 -0.611360 -0.105577 -0.151577 0.102417 -0.271610 0.031304 -0.080849 0.307348 0.311441 -0.405826 -0.079324 0.719495 -0.650236 -0.175025 -0.526891 0.673737 -0.318637 -0.696367 -0.234579 0.256367 0.888835 -0.276485 1.147207 0.205777 -0.290375 0.454901 -0.348682 -0.100058 -0.419758 0.117810 -0.238869 -0.305322 -0.912435 0.513521 -0.261493 1.237435
timeout -0.335699 0.107710 -0.795658 -0.009859 -0.041163 0.375456 1.204554 -0.758989 -0.419573 0.288620 0.284729 1.133300 0.513210 -0.877360 0.590841 -0.136664 0.216469 -0.446732 0.776745 0.010296 -0.299009 -0.212991 -0.507210 0.040506 0.402157 -0.039667 0.236766 0.393329 0.391794 0.038927 0.015415 0.030052 -0.176510 -0.111480 -0.350779 -0.009146 -0.376021 0.868197 -0.431398 0.440549 0.379066 -0.646237 0.169322 -0.499329 -0.551150 -0.733683 -0.196975 -0.420166 1.373289 -0.213664 -0.401944 0.033744 0.471815 -0.072457 0.787953 0.814306 -1.481830 0.073358 0.067755 0.478157 -0.506090 -0.550988 0.947549 0.228137 -0.153534 0.182971 -0.150719 0.332498 -0.395674 0.552253 0.362374 0.305474 -0.461592 0.679222 0.132682 0.178609 -1.048605 -1.085900 0.086448 0.344628 -0.383732 0.333467 -0.627684 0.825384 0.964109 -0.003159 0.274785 -0.562083 -0.555884 -0.139465 0.561906 -0.436642 -0.123023 0.234270 0.477089 0.522333 -0.312735 0.335875 0.118164 -0.082316
handler 0.878921 0.229484 0.463145 -0.341184 -0.443494 0.334443 1.222611 0.149027 -0.209054 0.471474 0.295439 -0.367048 -0.225742 -1.052194 0.587916 1.085381 0.506592 -0.258096 0.427418 -0.329312 0.047101 0.466743 -0.354800 0.053147 0.823469 0.148813 -0.838012 -0.164540 0.241620 0.248439 0.115809 -0.781005 0.352882 -0.005270 1.464342 0.032533 -0.024085 0.066323 -0.070961 0.848389 -0.181010 0.096232 -0.179072 -0.578870 -0.872567 -0.086692 -0.054041 -0.833535 0.174709 -0.112445 0.003977 -1.082623 0.383020 0.249899 0.388842 0.398276 0.264554 -0.889030 -0.152063 -0.135138 -0.353539 0.267178 0.457230 0.085000 -0.076469 -0.487298 -0.392926 -0.446032 0.123532 0.749900 0.189344 0.334754 0.101449 0.466995 -0.216145 0.045046 -0.125333 -0.034511 -0.516049 -0.463629 -0.213799 -1.334896 0.345363 0.370286 -0.361930 -0.445802 -0.420351 -0.247409 -0.223874 0.079350 0.095706 0.106705 0.258886 -0.037761 0.437685 1.144650 -0.328983 0.233167 0.247022 0.038281
backup -0.893806 0.635018 -0.331009 -0.227579 -0.685782 0.398069 1.101698 -0.640227 0.254819 0.586680 0.535842 -0.132098 -0.128677 0.290384 0.061509 1.551178 0.162910 0.243742 0.188579 -0.561458 0.358538 -0.622504 -0.005059 -0.152337 0.120666 0.574126 -0.040336 0.483209 0.835481 0.415276 -0.164700 -0.592342 0.492158 -0.188909 1.067716 0.456156 0.371639 0.634197 0.743099 0.182619 0.607851 0.018534 -0.154372 -0.109349 -0.532220 -0.410959 -0.318485 -0.624907 0.260941 0.459962 0.248066 -0.385434 0.152463 0.059269 0.866056 0.070619 -0.172509 -0.647650 -0.416595 -0.448091 0.447670 0.462208 -0.412567 0.027429 -0.657848 0.531910 0.376970 -0.287458 -0.369009 -0.131943 -0.310401 -0.350511 -0.795940 -0.093234 -0.581948 0.044354 -0.058593 -0.006399 -0.852019 0.443238 -0.336952 -0.091530 -0.449426 0.861832 0.276970 -0.156451 -0.647271 -0.623320 0.517404 0.696320 -0.456640 -0.455767 -0.038311 0.749825 0.412361 -0.548097 -0.282574 -0.083066 0.256097 0.600106
k 0.922693 -0.004022 0.119794 -0.095354 -0.580528 -0.722996 0.262700 -1.383015 0.488935 -0.044341 -0.053451 -0.564552 -0.303749 0.132249 0.124522 0.231494 0.763189 0.705384 0.142964 -0.261507 1.162493 -0.591293 0.589020 -0.497033 1.096927 -0.125397 0.158270 -0.014976 0.691244 0.256726 0.161162 -0.525555 -0.151150 1.035374 -0.985722 0.064644 0.343425 0.009509 0.575629 0.072375 -0.318448 0.125664 -0.211656 -0.296767 -0.065878 -0.590898 -1.206331 0.205821 0.935393 -0.212847 0.089431 0.087414 0.184730 0.432157 1.351041 -0.082185 0.470135 -0.072227 -0.033351 0.116504 -0.835035 -0.146493 0.134574 0.512817 -0.188951 -0.909644 0.560108 0.142130 0.795989 0.525807 -0.172559 0.797110 -0.174646 0.932334 0.010360 -0.215780 -0.987496 1.132709 0.258952 -0.653495 0.144733 -0.810863 0.059599 0.960822 -0.625996 0.514657 -0.321021 -0.005135 -0.785661 1.501089 0.197081 0.586867 -0.867208 -0.209598 0.221741 -0.740279 -0.281435 -0.315986 -0.978652 0.578680
read 0.310752 0.271575 -0.572765 -0.799671 0.236316 0.697947 -0.104655 -0.019822 -0.464369 0.172117 0.425114 -0.061155 0.158526 -0.244708 0.304915 0.384026 0.254036 -0.474362 -0.768152 -0.335882 0.333882 0.647003 -0.107384 -0.484166 0.446481 -0.735962 -0.333997 0.645091 0.418718 -0.300670 0.206143 -0.213349 -0.220415 0.073438 0.709117 0.447364 -0.737698 0.534451 0.402275 -0.048376 -0.312146 -1.016336 0.414595 0.013069 -0.340798 0.332961 -0.391296 -0.237614 0.683050 0.256865 0.412321 -0.138081 0.153655 -0.120848 0.419473 -0.687506 0.807433 -0.158306 -0.102608 -0.367678 0.115332 -0.363991 0.364872 0.820095 -0.489404 0.049203 1.393925 0.420101 -0.349264 0.104114 -0.525725 0.804157 0.519287 0.596432 0.662444 0.339420 0.051897 0.082199 0.359085 0.249320 -0.157680 0.537823 -0.219396 1.628678 0.421979 -0.022670 0.360857 0.485097 -0.112977 0.000777 0.654875 -0.445401 -0.415324 -0.016346 0.741306 -0.271888 -0.607022 -0.717620 -0.388818 0.875463
item 1.076498 -0.434043 0.261160 -0.162300 -0.699670 0.379038 -0.055046 -1.266045 -0.691480 0.136227 0.082989 0.361720 -0.399569 -0.032664 0.296705 0.556727 -0.001695 0.486660 0.017324 0.346628 0.306275 0.297185 0.479265 -1.091018 0.918789 0.532365 -0.321056 -0.547775 0.495824 0.799519 0.673955 0.350299 0.381878 0.812993 0.218657 0.403268 -0.977660 -0.909016 0.677341 0.118623 -0.128921 0.230584 0.173030 -0.164653 0.536781 -0.260881 -0.633287 0.734970 -0.284565 0.037368 -0.235698 -0.252177 0.075204 0.132580 -0.393367 0.166545 0.161969 -0.669002 0.215642 0.657480 -0.079787 0.316764 0.328339 0.021757 -0.008435 -0.194319 0.455627 -0.603038 0.405114 -0.598749 -0.584437 0.640954 -0.694553 0.608943 -0.605913 -0.343184 -0.420105 -0.006814 0.420942 -0.216040 0.273537 0.065332 0.942500 0.177386 0.205055 -0.592282 0.395078 -0.014589 -0.491064 0.112178 -0.281161 -0.231126 -0.151219 -0.128069 0.533089 -0.401316 -0.123523 0.576590 0.005636 0.897641
resource 0.601875 0.891747 0.029292 -0.731686 -0.840911 0.307377 0.619218 0.074250 -0.341135 -0.093070 0.462886 0.180704 -0.568296 -0.464205 0.573092 1.283922 0.073757 0.388721 -0.595748 0.052966 0.577516 0.177699 -0.080700 0.430396 1.410628 -0.182113 -1.247770 0.352428 0.368566 0.496341 0.106654 -0.223766 0.522845 -0.601684 0.868397 0.833640 -0.009495 0.500726 -0.135783 -0.413968 -0.214214 -0.762939 -0.124560 0.175508 0.277379 -0.400775 0.074399 -0.762257 0.210995 -0.455647 0.684773 0.241989 0.713204 -0.072020 -0.388040 -0.034992 -0.217758 -0.589731 0.431350 0.632421 0.735270 -0.436577 -0.091989 -0.284989 0.730054 0.368391 -0.811574 -0.324719 -0.247923 0.264655 0.602105 0.263610 -0.640439 -0.312765 -0.315152 -0.981540 -0.396516 -0.596485 0.261973 -0.036719 0.372898 -0.179014 -0.555464 0.589587 0.511359 -0.649032 0.407237 -0.795194 -0.411209 0.028387 -0.410323 1.030219 0.423671 -0.557478 -0.250535 -0.026402 -0.519732 0.309238 -0.393693 -0.007063
apache 0.009292 -0.105428 0.146391 0.147848 -0.600977 0.845526 0.381655 -0.246225 -0.723840 0.567729 -0.577881 0.673938 -0.294031 0.032017 0.769194 0.552077 -0.844487 -0.696901 -0.599949 -0.785876 0.312226 0.081361 0.363626 0.141660 1.033170 0.680154 -0.447830 0.206998 -0.297962 -0.168184 -0.170683 0.588906 0.299344 0.107975 -0.205066 -0.055621 0.222543 0.285159 0.145803 0.761069 -0.142540 0.168683 -0.209347 0.415138 -0.314178 0.846887 0.216603 -0.272592 0.034372 0.282135 -0.441259 0.555903 0.277207 0.911234 0.186604 0.536292 -0.235708 -0.569094 0.923357 0.039711 0.273376 0.806605 0.477593 0.615691 0.439042 0.135480 0.016640 0.333609 -0.204474 0.103910 -1.145895 0.769979 0.206823 0.800210 -0.754539 -0.983246 -1.036075 -0.596915 -0.438338 0.245080 0.269277 -0.216184 0.576552 0.769090 0.384138 -0.417903 0.254167 -0.551971 0.074917 0.143061 0.918060 0.300873 -0.362761 -1.111078 0.652485 0.538209 0.473706 -0.059429 0.228200 1.296242
junit 0.057937 0.297060 0.267257 -0.546155 -0.313557 0.916515 0.263411 -0.373623 0.307881 0.336841 -0.145891 0.732904 0.504773 0.552403 -0.117342 0.710914 -0.224283 -0.696035 -0.404774 -0.346462 0.326989 -0.317690 0.383554 0.981074 0.716644 0.469399 -0.714178 0.101424 0.395281 0.022256 0.259089 -0.507540 0.467771 0.173582 0.157262 -0.371928 0.262678 0.231822 -0.178977 0.592823 -0.786509 0.014020 -0.350042 0.253995 -0.378148 -0.637907 0.233684 0.322509 0.569502 0.127593 0.287249 1.497226 -0.099059 0.472290 -0.475155 0.201077 0.186098 -1.065290 0.987432 0.284267 -0.091958 0.333155 0.183798 0.612798 -0.232765 -0.224673 0.275868 0.485273 0.063542 -0.135304 -0.036310 0.542788 -0.486261 -0.028412 -0.034015 -0.680460 -1.163242 0.833509 -0.831402 -0.388222 0.336506 -0.022553 -0.083876 0.079296 -0.428654 -0.085586 -0.793148 0.449829 0.844394 0.152554 0.411470 0.676693 -0.125526 -0.219916 0.626407 0.679699 0.167586 0.006467 -0.440474 0.911306
hadoop -0.275308 0.088231 0.141210 -0.214436 -0.819130 0.648587 0.092188 -0.063426 -0.837222 0.314760 -0.584506 -0.203917 -0.232606 0.092856 0.851484 0.876803 -0.640260 -0.449301 -0.338971 -0.882540 0.704187 0.251738 0.204100 0.237427 1.067846 0.575532 -0.729978 0.076803 -0.334733 -0.167094 -0.249019 0.719272 0.655444 -0.139408 -0.086315 0.455004 0.240518 0.413423 0.388742 0.893350 -0.293989 0.439412 -0.538858 0.123943 -0.590379 0.331348 0.067971 -0.266739 0.636045 0.139772 -0.287603 0.602552 0.288883 0.997601 0.104088 0.130603 -0.078906 -0.418066 0.975458 0.149305 0.304628 0.315202 0.733439 0.628849 0.438558 0.116535 -0.288361 -0.166828 0.232594 -0.204361 -0.783762 0.553360 -0.076552 0.748877 -0.696403 -0.822578 -0.822499 -0.574742 0.077096 0.007267 0.143486 0.059102 0.629734 0.621063 0.618510 -0.439257 0.212569 -0.426254 0.257215 -0.188944 0.595056 -0.121999 -0.326926 -0.919023 0.902296 0.378602 0.440976 -0.064075 0.342089 0.888800
bubblesort -0.311287 -0.146867 -0.725619 0.152738 0.637978 0.276945 0.812377 -0.183713 -0.345355 0.021836 0.020185 -0.010087 0.563953 0.401172 -0.556700 0.725329 -0.329801 0.354450 -0.209065 -0.495959 -0.285991 -0.561244 0.485848 0.048576 0.916322 0.185733 -0.792460 0.116805 0.204876 0.687006 0.658589 -0.725023 -0.622901 0.444404 0.474875 -0.019849 -0.244755 -0.637927 0.181165 0.684210 -0.163434 -0.141522 -0.083334 -0.460402 -0.309925 -0.391308 0.375098 0.304434 0.774299 0.250502 0.205297 0.727450 0.425315 0.394624 0.159633 -0.248807 0.986520 -0.458507 0.883329 -0.497919 -0.252760 -0.012885 -0.086766 1.386787 0.305361 -0.890842 0.144744 -0.094660 0.286394 1.058979 -0.207272 0.658177 -0.335366 -0.182301 -0.360161 -0.388905 -0.805064 -0.133852 0.045091 0.332535 0.137810 -0.723053 0.558363 0.041145 0.106748 0.072622 -0.592206 0.665281 -0.120857 0.290684 0.157199 -0.016313 -0.020982 0.130508 0.195801 -0.339809 -0.118208 -0.512371 0.208628 -0.072656
next 0.841303 0.058912 -0.592425 0.491587 -0.116562 -0.562966 0.578773 -0.419836 0.517515 0.323814 -0.628915 -0.011150 0.010928 -0.631045 0.112010 -0.197677 1.052399 0.453943 -0.226419 0.027716 0.751657 -0.026299 0.428225 -0.660100 1.209954 0.541508 0.206341 -0.014153 1.282024 -0.205450 0.153135 -0.175003 0.601207 0.190303 0.099590 0.246869 -0.794661 -0.156549 0.537375 0.575578 0.113943 0.078126 0.094934 0.300019 -0.454066 0.179893 -0.317074 -0.034954 0.398348 0.345966 -0.448191 0.480488 0.249207 -0.014650 -0.194400 -0.071274 0.344257 0.383106 0.201325 -0.233804 -0.292559 0.020560 -0.155515 0.543820 -0.310888 -0.022965 0.740004 0.029538 0.327189 0.062483 -0.036972 1.190939 -0.496683 0.402721 0.414854 -0.734879 -0.211666 -0.026178 -0.064294 0.688764 0.723761 -0.570989 0.856041 0.542592 -0.090585 -0.425744 -0.241047 -0.473168 -0.190481 0.288148 -0.391426 -0.000523 0.148616 -0.526948 0.248337 0.659406 0.162969 -0.358797 -0.153315 0.281516
key -0.628082 0.734290 -1.280216 -0.638056 -0.071380 -0.312312 0.049206 -0.416651 -0.250706 0.424140 0.041767 -0.245799 -1.058126 0.012165 -0.597090 0.996535 0.976419 -0.363166 -0.042816 0.074272 0.017753 0.032855 -1.019547 -0.249807 0.642281 0.475083 0.313864 0.104788 0.479371 0.998551 -0.025338 -0.679272 0.088404 0.387939 0.181544 0.235334 0.118347 0.565648 -0.638896 0.809391 -0.859841 -0.462071 -0.039231 0.844088 0.018996 1.079667 -0.144036 -0.283136 0.382293 -0.095123 -0.085470 0.604338 0.456681 -0.071079 0.609390 -0.223864 0.076962 0.543991 0.572660 -0.365228 -0.714630 0.277108 0.640829 0.411245 -0.447165 -0.387805 -0.133765 -0.592112 0.506106 -0.243635 -0.663771 0.371051 -0.049283 -0.046585 -0.027293 -0.370759 -0.077246 -1.238291 0.725269 0.376013 -0.461989 -0.164753 0.478274 0.217592 1.174581 -0.842010 0.099385 0.569381 0.467208 0.330935 0.032080 1.276137 -0.353539 -0.617729 -0.516302 -0.156588 -0.107053 0.831124 0.213110 0.514274
socket -0.206059 0.459837 -0.064898 -0.112316 -0.204168 0.464496 0.613284 -0.361442 -1.028008 0.224446 0.910562 0.575849 0.098228 0.007729 0.408545 0.663489 -0.067040 -0.195570 0.490683 -0.361638 -0.196603 -0.620610 -0.632434 0.418196 -0.121909 0.849620 -0.099307 -0.263968 1.071942 -0.002186 -0.502421 -0.242222 -0.113402 -0.699702 0.365064 -0.085689 -0.214264 1.239004 -0.916872 0.802374 -0.134825 -0.618706 0.671459 -1.211262 -0.762076 -0.405919 -0.052543 0.470705 0.904858 -0.027471 0.147603 0.077231 0.615321 0.506666 0.488532 0.575284 -0.724282 0.015400 -0.037580 0.374899 -0.102909 -0.043446 0.271131 0.446528 0.314209 0.290952 -0.181199 -0.357858 -0.254962 0.844847 -0.187740 0.740643 0.128118 0.696781 0.244130 0.386585 -0.695876 -0.183445 -0.272932 0.264282 0.377758 0.154403 -0.868902 1.139204 0.845986 -0.083806 0.144977 -0.928759 0.358154 0.923409 0.868945 -0.008228 -0.050729 0.019381 0.335810 0.302264 0.070461 -0.373337 -0.323567 0.436552
println 0.783821 1.096599 -0.484086 -0.184772 0.569204 0.077222 0.539140 -0.896870 0.838058 0.833035 0.293823 0.371889 -0.085650 -0.156678 0.419094 0.794360 -0.134881 -0.185932 0.645734 0.458542 0.090903 -0.273682 0.270017 -0.797348 -0.173716 -0.758268 -0.438524 0.237478 0.560014 0.449698 0.330943 -0.997881 -0.334759 0.357459 -0.426188 0.360214 -0.612967 -0.369925 0.210534 0.226056 -0.015995 -0.034105 -0.070927 0.188760 -0.179562 -0.430979 0.206653 0.128101 -0.220940 -0.084834 -0.033983 0.247216 0.147708 -0.090510 -0.006792 -0.021530 0.112626 -0.013011 0.321930 -0.117818 -0.396669 0.025179 -0.236451 0.480990 0.178283 -0.144147 0.736566 0.392482 -0.036678 0.272459 -0.018187 0.716490 -0.106263 0.100442 0.382786 -0.654550 -0.948844 0.336348 0.322027 0.457472 -0.527467 -0.669809 0.248082 -0.067181 -0.481721 -0.093975 -0.006260 0.455540 -0.498864 0.015659 0.275006 -0.060683 0.167412 0.078380 0.103765 0.110670 0.413586 0.283279 0.232573 0.807032
w 0.180082 -0.814084 -0.830213 0.062005 -0.147850 0.008542 0.406835 -1.173857 0.393881 0.633792 0.639980 -0.369467 -1.648850 -0.232605 0.386763 0.486847 0.790836 0.390563 0.556148 -0.205811 0.908389 -0.226352 0.228666 -1.047057 0.302427 -0.443702 -1.030539 -0.324350 0.349539 0.422858 0.295009 -0.384517 0.040198 -0.656109 -0.158887 -0.458020 -0.114919 0.238913 -0.355561 0.628901 0.041072 -0.720476 -0.711859 0.155377 -0.162777 0.395223 -1.229859 0.364145 0.907057 0.715728 -0.615553 -0.129661 -0.189259 -0.146754 0.211033 1.211268 1.290349 -0.536277 1.067964 0.232260 -0.923234 0.084867 0.205225 -0.069178 -0.049947 -0.424344 -0.197939 -0.056745 0.326708 0.373169 -0.030779 0.988213 0.061782 -0.107861 0.025857 0.317309 -1.425344 0.252833 -0.597969 -0.373048 -0.164136 -0.007967 0.721063 0.297109 -0.934218 -1.005273 0.013148 -0.393680 -0.259284 0.995301 0.158936 0.656726 0.013810 -0.204565 0.109486 -0.707886 -0.064896 -0.422445 0.336594 0.542243
vector -0.351315 0.465934 -0.450668 0.274260 -0.488835 0.033867 0.700652 -0.332640 -0.507045 0.001172 0.101852 1.015692 -0.616853 -0.427920 0.588753 -0.004372 -0.104089 -0.778004 -0.734464 -0.458731 -0.355110 0.353270 0.760533 -0.909208 0.004518 -0.244074 -0.180524 0.473919 0.192499 0.257672 0.605400 0.288690 0.323207 0.964666 -0.292194 -0.279659 -0.395370 0.122361 0.334969 0.979684 -0.036543 0.705509 -0.862123 -0.515965 0.169990 0.680441 -0.864926 0.647102 0.569650 0.350227 -0.430342 -0.099769 -0.011929 0.072452 -0.184251 0.195814 1.031156 -0.555538 0.254396 -0.002294 0.297888 -0.111842 1.224727 0.285194 -0.472797 -0.304959 -1.193345 -0.427143 -0.334716 0.640782 -1.000549 0.386098 0.198472 1.399001 -0.201813 -1.193950 -0.879785 -0.323244 -0.662821 0.734881 0.786531 -0.427016 -0.317740 0.917201 -0.038002 -0.841814 0.282117 -0.460130 -0.218085 -0.415868 -0.753701 -0.428592 -0.812637 -0.328019 0.265741 -0.813708 -0.312589 -0.270945 -0.102125 0.664723
extends -1.157673 0.081627 -0.471458 -0.564769 -0.852696 -0.021102 0.947233 -0.717861 -0.874516 0.331857 -0.176259 0.365095 0.632077 -0.234543 0.140353 0.662714 0.167304 -0.420939 0.444500 0.265048 1.153299 0.511291 1.326805 -0.125752 0.182372 -0.520393 0.080144 0.081044 0.322513 -0.306206 0.766911 0.320932 -0.081564 0.878242 -0.439647 -0.411823 -0.010848 -0.302780 0.752439 0.439025 -0.933973 -0.004459 0.164461 -0.652066 -0.257295 0.377481 0.230541 0.323251 -0.226629 -0.283127 -0.210496 -0.248098 -0.515574 0.347887 0.386314 -0.391628 0.572815 -0.886215 1.105712 -0.332005 -0.185014 -1.532484 1.146354 0.221338 -0.116930 0.157264 -0.485106 -0.346250 0.008304 -0.664622 -0.228059 0.428285 -0.225271 -0.119848 -0.708033 -0.349817 -0.380180 0.440124 -0.518765 0.177751 0.237364 -0.550103 0.422932 0.035940 0.189000 0.086875 0.282632 0.392909 0.817498 0.102446 0.573030 -0.471363 -0.213576 0.037481 -0.355196 -0.349442 0.847243 -0.228088 -0.681354 0.895166
bfs 0.214286 0.050954 0.047656 0.721794 0.703837 -0.188954 -0.078106 0.062229 0.397005 0.237651 -0.304139 -0.154463 0.104185 -0.599221 0.536595 -0.266829 0.304157 0.585936 -0.512011 0.052126 0.702912 0.484721 0.509918 -0.428942 0.619285 0.197049 -0.659943 1.000261 -0.101154 0.333384 0.164489 -0.214619 -0.768689 -0.420307 -0.433392 -0.029422 0.195216 -0.489653 0.991817 0.048801 0.656586 -0.174498 0.378408 0.280956 -0.362893 -0.194021 -0.389630 -0.584466 0.988753 -0.217182 0.349945 0.626783 0.713637 0.309909 -0.024287 0.162454 0.905397 -0.687415 0.432939 0.156936 -0.327019 -0.631824 1.088107 0.819601 -0.408017 -0.165819 0.216935 -0.305437 -0.486579 0.425170 -0.050737 -0.067141 -0.574133 -0.446082 -0.741174 -0.455311 -0.822483 -0.560955 -0.025121 -0.888070 0.335315 0.097458 0.029674 0.846266 -0.100418 -0.309226 0.028377 0.539601 -0.000411 0.135438 0.085880 0.260979 -0.529191 0.030515 0.691995 0.484376 -0.437700 0.589843 0.252236 1.641856
length 0.813628 0.831712 -0.090039 0.125039 0.598845 -0.411787 0.315031 -0.339324 0.276300 0.547451 -0.487187 -0.116640 -0.166835 0.373838 -0.680811 0.459065 -0.319979 0.629907 0.112216 0.142028 0.755664 -0.544590 0.573089 -0.398021 0.763271 0.119667 0.274022 -0.653349 -0.064860 0.621009 0.370960 -0.184628 0.439321 0.969000 -0.616598 0.248640 -0.334842 0.535436 0.487070 0.787263 -0.269850 0.045189 0.114775 -0.793337 -0.849989 0.623554 0.068766 -0.093378 0.977345 0.280995 -0.018471 0.264928 -0.183489 0.582474 0.204586 0.046973 -0.184946 -0.133718 0.362971 -0.398898 -0.247741 -0.523469 0.256105 1.072233 0.353328 -0.516526 1.276413 -0.618908 0.226052 -0.278737 0.033731 0.479927 -0.566276 0.563540 0.100003 0.194113 -0.688202 -0.174235 -0.029235 0.080770 -0.074236 0.042283 -0.089736 0.142334 -0.121865 -0.206371 -0.100773 0.380721 -0.609926 0.434629 -0.187929 -0.066612 -0.137928 0.109323 0.503262 -0.629222 -0.431471 0.355553 -0.023947 0.304569
nodes 0.453297 0.500513 -0.194617 -1.127723 0.464552 0.645347 0.970080 -0.827167 0.785122 -0.066115 0.321781 0.733284 0.595178 -0.613243 -0.224887 0.086217 0.770131 0.078225 -1.364717 -0.184527 0.207316 0.353700 -0.960020 -0.204384 0.543238 -0.105700 0.008868 0.310851 0.363469 1.716135 0.134717 0.112434 0.791669 0.719841 0.892597 0.312540 -0.147476 0.291520 -0.619397 0.887271 0.805044 -0.115146 -1.021985 -0.756637 -0.478030 -0.101442 -0.783702 -0.432830 -0.052271 0.572334 -0.508489 -0.070246 -0.093060 0.401697 -0.649436 -0.008093 0.694443 -0.504604 0.242027 0.065291 -0.660858 0.529508 0.098111 -0.072220 -0.720931 0.468634 0.039040 -0.030319 0.328043 0.408792 -1.162552 -0.043994 0.328258 0.682812 -0.108206 -0.882059 -0.731830 -0.373572 -0.774956 0.687027 0.105207 -0.628885 -0.211543 -0.455091 -0.609204 -1.226037 -0.177408 0.463498 -0.724933 -0.331838 0.160118 0.567249 -0.046789 -0.279349 -0.107902 -0.059306 -0.116642 0.574901 0.282388 0.659680
edits -0.239235 1.544658 -0.240876 -0.537020 -0.191424 0.887171 0.177380 0.664160 -0.464762 0.518073 -0.226664 0.250229 0.682629 -0.494716 0.747259 0.006140 0.290903 -0.549941 -0.230333 -0.235964 0.260577 -0.346324 -0.098378 -0.843659 0.581552 0.131772 -1.488963 0.327786 0.498037 0.262985 0.513937 0.480999 0.908905 0.239030 1.019822 -0.537104 -0.041884 1.138602 0.674102 -0.116392 0.394692 -0.967294 -0.100244 -0.131875 -0.276686 -0.242437 0.166051 -0.117829 0.349584 0.392843 0.041944 0.248463 1.129210 0.631703 0.138329 -0.048520 -0.283982 -0.542576 -0.095703 0.266683 -0.120868 0.354255 0.410643 -0.082865 -0.434241 -0.008542 0.417389 0.987635 0.416535 0.155696 -0.089950 -0.154941 0.134888 0.532375 0.592171 0.043863 -0.472548 -0.010293 1.173190 0.564275 0.480656 0.505985 -0.448749 0.405273 0.270360 -0.583304 -0.109570 -0.116960 0.144672 0.476823 -0.029123 0.363377 -0.705905 1.054853 0.557835 -0.240835 0.259097 0.674415 -0.854043 0.670601
web -0.074527 0.472596 -0.518577 -0.343128 -1.301057 -0.352030 0.535025 -0.379815 -0.124107 -0.392772 1.060233 -0.687741 0.204317 -0.415362 0.707200 0.033800 0.697517 -0.073901 -0.130041 -0.165672 0.430426 -0.745225 0.218771 -0.128168 0.374534 -0.749261 -0.952843 0.605280 0.669294 0.583893 -0.196514 -0.510812 -0.347145 -0.809354 0.789686 0.287907 0.969056 0.372979 0.357452 0.852022 -0.056262 -0.595455 0.429330 0.462924 -0.010263 0.460885 -0.497872 0.071171 0.406077 0.716593 -0.248661 0.001858 0.594464 0.674513 -0.109162 0.804207 0.084838 0.088291 0.057506 0.485424 -0.413965 -0.550508 0.768722 -0.033757 0.315208 0.135514 -0.896296 -0.196625 0.633146 1.172518 -0.214121 -0.072815 0.232112 -0.407099 -0.675416 -0.040170 -1.090742 -0.307556 0.109427 0.712380 -0.483929 0.519576 -0.977537 0.952865 0.170406 -0.304018 0.351620 0.111403 -0.116702 0.215408 0.987198 -0.557864 -0.474730 -0.206954 0.507759 -0.002097 -0.186050 0.417590 -0.759551 0.201467
isempty 0.422546 0.136942 -0.077332 -0.332460 -0.401288 0.271689 0.412456 -0.513533 0.057944 0.246576 -0.843406 0.921770 0.480241 -0.464180 0.416701 0.713406 0.856839 -0.648219 0.359905 0.756824 -0.386529 0.254343 0.252298 -1.268237 0.656058 0.186564 -0.201300 0.028103 0.252528 0.780869 1.005781 -0.063813 -0.223144 -0.228348 -0.278924 0.057999 -0.610101 -0.400931 -0.681260 0.259362 0.338310 -0.957762 0.871669 -0.042945 -0.273575 0.388030 -0.427673 0.296118 0.865111 -0.118014 0.111644 -0.654186 -0.143705 0.085156 0.625651 0.129097 0.625054 -0.169958 0.196660 -0.228601 0.433491 0.504563 0.377498 0.576089 -0.483013 -0.174523 -0.381111 -0.633768 0.545704 0.324668 -0.181937 -0.411996 -0.966252 0.248296 -0.018192 -0.587348 -0.246418 0.174556 -0.253803 0.676067 0.627223 -0.769910 0.751522 1.000228 -0.186865 -0.874368 -0.443489 -0.431633 0.234927 0.188533 -0.326166 0.562407 -0.411900 -0.747106 0.553290 -0.228992 0.590503 -0.038401 -0.364856 0.431217
safemode 1.003195 0.435717 -0.756405 1.012692 0.386317 -0.676668 0.927296 -0.749831 -0.429986 0.436452 0.607462 -0.225938 0.085985 -0.473804 0.543210 1.051679 0.195535 -0.282646 0.010683 -0.973391 -0.634842 0.078813 -0.222847 -0.884665 1.055554 0.442525 -1.062904 -0.014813 -0.576325 0.846574 0.430183 -0.713787 -0.666861 0.532759 0.451895 -0.543505 -0.168014 0.687843 0.824265 0.101892 -0.617917 -0.488440 -0.266579 0.264916 -0.887677 0.103260 -0.190897 0.309073 0.357438 -0.277097 -0.094952 -0.112849 0.485554 0.593229 0.263769 -0.116494 0.387886 -0.647393 0.952969 -0.119942 -0.254074 0.311564 0.577411 -0.109300 -0.522746 0.416377 -0.170699 0.094648 -0.447896 -0.128043 -0.666083 -0.707578 -0.232394 0.126793 0.050211 -0.437418 -0.049581 -0.032198 -0.216384 -0.800757 -0.091004 -0.118635 -0.545869 0.459544 1.088581 -0.058344 0.723779 -0.465733 -0.366929 -0.666494 0.425384 0.142443 -0.286712 0.183243 0.399322 -0.150592 0.000018 -0.035895 0.159056 0.207149
assertequals -0.293713 -0.435547 -0.504178 -0.928469 -0.800171 0.191482 -0.041989 0.294470 0.460930 1.534944 0.670761 0.325770 0.198668 -0.126964 0.525119 1.097602 0.316291 -0.077334 -0.182575 0.278441 -0.465921 -0.502562 1.368833 -0.297689 -0.175379 -0.243156 -0.697078 0.632823 -0.282775 0.614674 1.202675 0.007556 0.325555 0.017807 -0.287839 -0.088062 -0.785221 -0.282958 -0.149008 0.354355 0.044186 -0.521713 0.260703 1.190725 -1.109268 -0.206526 -0.418518 0.781940 0.484330 0.752805 0.300197 0.654113 -0.035143 0.382049 0.433393 0.077702 -0.735416 -0.549436 0.466327 0.537036 -0.019550 -0.558617 0.334195 0.551697 -0.545751 0.937910 0.713607 -0.217583 -0.669165 0.666245 -1.590426 1.044393 -1.491274 0.080084 -0.730292 -0.474994 -1.024711 0.986389 -0.194652 -0.567373 1.427521 -0.850834 -0.916955 0.610407 -0.331783 -0.287079 0.248739 0.009367 -0.254989 0.325183 0.238620 0.110327 0.253840 0.371194 -0.357329 -0.373822 -0.381840 -0.488802 0.028436 0.307550
period 0.785972 0.735681 0.854786 -0.022266 -1.014661 -0.320387 0.715206 -0.215817 0.357170 0.194853 0.221197 0.794287 -0.399092 -0.248976 -0.008896 0.607914 -0.447416 -0.576487 0.491535 -0.870742 0.068205 1.019521 0.654018 0.159933 -0.729294 0.232988 -0.829196 0.723750 0.699142 0.300099 1.004592 0.158591 0.793339 -0.325170 1.054611 -0.331293 -0.372749 1.019115 0.886769 0.080953 -0.630858 -0.041173 -1.045247 -0.080483 -0.761779 0.091349 0.467704 0.690593 0.742152 0.419669 0.621381 -0.046015 -0.047391 0.668793 0.930559 -0.362171 -0.471564 0.386827 -0.548218 -0.417865 0.122022 -0.440961 0.391755 -0.119130 -0.219708 0.008059 -0.198402 0.082280 -0.548291 1.034375 -0.104833 0.006630 -0.575757 -0.228273 0.293788 -0.435702 -0.045320 0.490899 0.153340 0.215984 -0.071910 0.374296 -0.452069 1.173511 0.847845 -0.286376 0.111662 -1.049756 -0.312781 0.302848 0.000618 0.059200 -0.092564 -0.599719 0.195804 -1.051129 -0.114679 -0.348935 -0.384886 0.646125
com 0.340099 0.328858 0.176960 0.002755 0.123295 -0.165373 0.330455 -0.732836 -0.402480 0.087600 0.754746 0.293814 0.555798 -0.027004 0.132652 0.967057 0.714629 -0.629667 -0.438288 0.084356 -0.168216 0.079532 0.356029 0.258844 0.176396 0.675199 -0.937049 -0.047138 -0.300606 0.187537 0.121047 -0.172177 0.594891 -0.582047 -0.084671 -0.102921 0.204714 -0.734389 -0.459818 0.651573 -0.036609 0.456233 -0.411968 0.352170 -0.974322 -0.546960 0.883135 0.196014 0.170891 0.642778 0.921245 0.120543 -0.670014 0.058126 -0.777363 0.195183 0.438409 -0.501166 0.542820 -0.735279 -0.244792 -0.481317 -0.118510 0.064406 -0.319874 -0.409183 -0.331080 -0.273503 0.721705 0.265245 -0.879089 0.029846 0.178517 0.019220 0.015510 -1.032235 -0.656024 -0.711357 -1.329424 0.320241 0.069842 -0.221825 -0.698019 -0.343038 -0.030506 -0.114286 0.104742 -0.616567 0.123869 0.954263 0.979064 0.234897 -0.312605 -0.386406 -0.189711 -0.161875 0.549288 0.093489 -1.247017 2.020813
server 0.620330 0.411582 -0.338952 -0.249525 -0.946976 0.191163 0.439604 -0.590152 -0.481690 0.435739 0.133472 0.017817 -0.101810 0.119083 0.203382 0.888321 -0.075920 -0.542595 -1.395833 -0.197038 0.894221 0.129902 0.070164 -0.986002 0.646998 0.990803 -0.374156 -0.465900 0.164949 -0.264943 -0.355296 0.100497 0.240743 -0.299187 0.676142 0.209181 -0.347218 0.559092 0.646935 -1.070943 -0.161814 0.040695 0.008658 0.574333 0.224028 -0.282668 -0.149487 -0.710100 0.329588 0.395917 0.797589 0.268715 0.434224 0.038246 -0.361669 -0.488894 0.740647 0.399678 0.822236 -0.062687 -0.435157 -1.345060 0.328125 0.076848 -0.341834 -0.929472 -0.607121 0.325541 -0.325745 -0.798640 0.402604 0.401687 0.398032 0.088926 -0.329530 -0.538220 -1.182312 -0.145724 -0.680625 0.596785 0.478643 -0.062318 0.301560 0.149253 0.113004 -0.820746 0.231966 -1.811427 0.134457 0.504577 0.303889 0.022834 0.236135 0.237770 -0.787957 0.400269 -0.374128 -1.188534 0.829415 0.358351
per 0.155359 1.311946 -0.045101 -0.318668 -0.248922 0.942272 0.585016 -1.080328 -0.225738 -0.090081 0.232098 0.277739 0.439429 -0.324365 0.581107 0.895822 0.024835 -0.044533 -1.040153 -0.245561 0.365633 0.762258 -0.601437 0.646847 0.279492 0.005364 0.469806 0.038839 0.306649 0.971138 -0.515437 -0.550133 0.136329 0.674699 0.740230 0.810835 -0.139088 0.020981 -0.467064 0.505606 -0.125662 -0.212805 0.321123 -0.424967 -0.847621 0.538845 -0.927865 -0.361588 0.346757 -0.002105 -0.329316 -0.314486 0.992963 0.429194 0.506624 0.219190 -0.280916 -0.516451 0.272256 0.676137 -0.060527 0.347564 0.193432 0.394507 -0.673875 0.026617 -0.018845 -0.241107 -0.356887 0.184909 0.147642 0.085767 -0.071903 0.849275 -0.806725 0.546176 -0.423053 0.466355 -0.595284 0.272425 -0.322875 -0.275070 -0.230955 0.774636 0.183838 -0.924420 0.224077 0.242657 0.198942 0.391588 -0.541143 0.235952 0.457302 0.087384 0.162818 0.207043 0.153267 -0.094654 -0.934936 -0.094350
retries -0.696465 0.469642 -0.747437 0.358298 -0.071875 0.403413 0.779295 -0.446141 0.139756 0.526704 0.279960 -0.021419 -0.005264 -1.089672 -0.404728 0.461027 0.591383 -0.857219 -0.804068 -0.502581 0.356426 -0.358213 -0.254466 0.366266 0.829295 0.258006 -0.574156 0.361050 1.090640 0.504941 0.325150 0.156018 0.765295 0.266127 0.398114 0.296678 0.023604 0.007340 1.048051 0.329305 -0.061078 -0.553237 0.009052 -0.357931 -0.619867 -0.866141 0.390387 0.094939 1.077528 0.511570 -0.097837 -0.775373 0.384081 -0.749537 0.702930 0.328275 -0.547895 0.257367 0.873327 0.787101 0.148129 0.589795 -0.440200 -0.196941 -0.611536 -0.325420 -0.028839 0.617928 0.931483 -0.003364 -0.287080 0.590782 -0.112325 -0.114072 0.125357 0.069816 -0.449960 0.388452 0.013764 0.763745 -0.384857 0.391510 0.036355 0.483524 0.690673 -0.424042 0.160565 -1.003512 -0.820021 -0.357746 0.958509 -0.414533 0.109497 -0.124941 0.232815 -0.662880 -0.013722 -0.652773 -0.287446 0.545032
